// RAVN AI Model Implementation
// Auto-generated from trained model

#include "ravn_model.h"
#include <stdio.h>
#include <stdlib.h>
#include <string.h>
#include <math.h>

// Model weights
const float model_weights[151107] = {
    -0.071280f, 0.186446f, 0.054315f, 0.189899f, 0.240589f, 0.178207f, 0.270203f, -0.133234f, -0.115085f, -0.139217f, \n    0.181036f, -0.199549f, 0.055392f, 0.020008f, -0.204868f, 0.112422f, 0.050524f, -0.107974f, 0.180558f, -0.126019f, \n    0.232874f, 0.233162f, 0.138207f, 0.255822f, 0.237355f, 0.015913f, -0.130916f, 0.062676f, -0.195222f, -0.109660f, \n    0.174025f, -0.186620f, -0.073948f, -0.203525f, 0.217635f, 0.096761f, -0.110647f, 0.267395f, 0.137245f, -0.039682f, \n    -0.266459f, -0.151267f, 0.102261f, -0.264388f, -0.123726f, 0.202683f, -0.059805f, -0.151140f, -0.004253f, -0.095787f, \n    0.115773f, -0.093079f, -0.098654f, 0.129358f, -0.193135f, -0.109310f, -0.245877f, 0.001361f, 0.121420f, -0.129860f, \n    0.117883f, 0.049725f, 0.190876f, 0.005201f, 0.111095f, -0.106137f, -0.144445f, 0.014244f, 0.233367f, 0.175986f, \n    0.266940f, 0.124258f, 0.029326f, 0.277158f, 0.249368f, 0.139752f, -0.115334f, 0.155955f, -0.223925f, 0.237458f, \n    -0.086986f, 0.210194f, 0.044130f, 0.104830f, 0.279987f, 0.026275f, 0.161216f, 0.208087f, -0.089556f, -0.212175f, \n    0.258259f, -0.281572f, 0.200889f, -0.172041f, -0.176858f, 0.024266f, -0.146481f, -0.265878f, 0.231034f, 0.179211f, \n    -0.227496f, -0.012383f, -0.173834f, 0.061034f, 0.009224f, 0.071064f, -0.195664f, -0.118325f, 0.127536f, 0.159042f, \n    0.243087f, -0.209832f, -0.130260f, 0.276823f, -0.272979f, 0.269391f, 0.260646f, 0.194482f, 0.127522f, -0.205001f, \n    0.239792f, 0.205074f, 0.156234f, 0.155782f, 0.021984f, 0.260857f, 0.213404f, 0.025103f, -0.051390f, -0.157890f, \n    -0.015062f, -0.208064f, -0.118842f, 0.029828f, 0.264855f, -0.042884f, 0.269437f, 0.250440f, -0.149754f, -0.055579f, \n    -0.178322f, -0.187717f, 0.265693f, -0.042325f, 0.086496f, 0.091207f, -0.155248f, -0.194908f, 0.050097f, -0.270543f, \n    -0.231267f, 0.258564f, -0.206416f, 0.151349f, -0.007941f, -0.134568f, 0.005924f, -0.185339f, -0.247869f, 0.014583f, \n    0.192168f, 0.108824f, -0.271457f, -0.005491f, 0.184720f, -0.169011f, -0.126244f, 0.060804f, -0.081625f, -0.085706f, \n    -0.050819f, 0.265458f, -0.075550f, 0.077535f, -0.102871f, 0.003061f, 0.013801f, -0.277528f, 0.281199f, -0.195483f, \n    -0.221715f, -0.008548f, 0.165913f, 0.088443f, 0.109251f, 0.061113f, 0.238361f, -0.231893f, -0.170579f, -0.185918f, \n    -0.176993f, 0.227904f, -0.094417f, -0.263172f, -0.095877f, 0.156714f, 0.243529f, -0.042052f, 0.164113f, -0.147401f, \n    0.167975f, 0.092961f, 0.261019f, -0.266874f, -0.033221f, 0.110858f, -0.195571f, -0.000782f, -0.088416f, -0.072270f, \n    0.062028f, -0.030612f, -0.021243f, 0.169149f, 0.006997f, 0.256101f, -0.264790f, 0.153952f, 0.043292f, -0.231001f, \n    -0.185779f, 0.040417f, -0.133652f, 0.281875f, -0.076653f, 0.226639f, -0.002714f, 0.177551f, 0.214599f, 0.030587f, \n    -0.032355f, -0.071667f, 0.023664f, -0.148501f, 0.229114f, -0.178872f, 0.017427f, 0.144571f, 0.054626f, -0.175191f, \n    0.194218f, 0.046039f, -0.177234f, 0.106643f, 0.186043f, 0.001399f, 0.155356f, -0.133015f, -0.034079f, -0.240000f, \n    -0.214077f, 0.152470f, -0.050162f, 0.087638f, 0.237507f, 0.188327f, -0.227071f, -0.065168f, 0.264082f, -0.231197f, \n    -0.227544f, -0.198067f, 0.088161f, -0.138720f, 0.154777f, -0.173631f, 0.028215f, -0.260462f, 0.147039f, 0.064642f, \n    -0.206524f, -0.078072f, 0.033378f, 0.193102f, 0.201737f, -0.012717f, -0.063146f, -0.278174f, -0.262745f, -0.260080f, \n    -0.163871f, -0.120443f, 0.278667f, 0.146285f, 0.079367f, -0.030338f, -0.008700f, 0.037844f, 0.271537f, 0.232699f, \n    -0.241225f, 0.182066f, 0.073584f, 0.201248f, -0.127596f, -0.279907f, -0.272015f, -0.255759f, 0.073500f, -0.183198f, \n    0.078798f, -0.225248f, 0.257430f, 0.103479f, 0.019196f, 0.186157f, 0.163502f, -0.142669f, 0.057441f, -0.276870f, \n    0.147077f, -0.263060f, -0.053137f, 0.155137f, 0.200721f, -0.041481f, 0.077191f, -0.172351f, 0.105764f, -0.167252f, \n    0.038122f, -0.177861f, -0.133349f, 0.143599f, -0.251536f, 0.097545f, 0.248940f, -0.017103f, 0.068967f, 0.173838f, \n    -0.007544f, -0.115222f, -0.196059f, 0.077149f, -0.209971f, 0.279636f, -0.079916f, 0.213348f, 0.223174f, 0.248449f, \n    0.026905f, 0.239218f, -0.209488f, 0.101627f, 0.177609f, -0.134375f, -0.081357f, -0.023679f, -0.084241f, 0.156861f, \n    0.260192f, -0.108541f, -0.269481f, 0.071192f, -0.221987f, -0.248426f, -0.029871f, -0.258660f, 0.045975f, 0.216959f, \n    0.137154f, -0.014163f, 0.071594f, -0.041114f, 0.209729f, 0.188889f, -0.233042f, -0.088477f, 0.060051f, -0.077941f, \n    -0.080107f, 0.069372f, 0.037212f, 0.119597f, -0.160715f, -0.270472f, -0.166173f, -0.276813f, 0.152280f, -0.004206f, \n    -0.070244f, -0.284670f, 0.053791f, -0.197382f, -0.249546f, 0.050159f, 0.021582f, -0.111363f, 0.009749f, 0.060660f, \n    0.190188f, 0.283341f, 0.177445f, 0.194182f, 0.229502f, -0.023943f, 0.091543f, -0.227095f, 0.092591f, 0.077321f, \n    -0.125222f, 0.122568f, 0.000317f, 0.210085f, 0.029009f, 0.203718f, -0.170740f, 0.185074f, -0.119198f, -0.270066f, \n    0.219631f, 0.214090f, -0.153816f, 0.253180f, -0.032176f, 0.020812f, -0.158373f, -0.085075f, 0.006455f, -0.124364f, \n    0.221127f, -0.244876f, 0.237772f, -0.056953f, -0.031891f, -0.226317f, 0.013800f, -0.092033f, -0.263300f, 0.224607f, \n    0.142857f, 0.172109f, 0.146736f, 0.181550f, -0.284331f, -0.213402f, 0.261264f, 0.145022f, -0.281321f, -0.071428f, \n    -0.208445f, -0.275405f, 0.148715f, -0.135490f, 0.206002f, 0.250268f, -0.127487f, -0.259352f, 0.235353f, -0.060649f, \n    -0.216962f, 0.189142f, -0.094122f, -0.099529f, -0.282859f, -0.085135f, -0.103744f, -0.220288f, 0.006036f, 0.037985f, \n    0.154819f, -0.059448f, 0.190718f, -0.073882f, 0.161424f, -0.042386f, -0.247425f, 0.206248f, -0.222977f, -0.205375f, \n    0.278157f, -0.035245f, -0.110365f, -0.069108f, 0.003677f, -0.280928f, 0.088912f, -0.136479f, -0.020997f, -0.216980f, \n    0.061458f, 0.269551f, 0.149602f, 0.106259f, 0.170728f, -0.206148f, 0.044048f, 0.237317f, 0.107515f, -0.204025f, \n    0.194552f, -0.270620f, -0.230264f, 0.072481f, -0.252103f, -0.152258f, 0.105930f, 0.036430f, 0.142454f, 0.049488f, \n    -0.132055f, 0.215708f, 0.107306f, 0.283390f, 0.174488f, 0.257520f, -0.034614f, -0.262754f, 0.190825f, 0.181981f, \n    -0.161278f, 0.123861f, 0.001481f, -0.215938f, -0.026885f, -0.087385f, 0.067843f, -0.153560f, 0.252429f, -0.190901f, \n    0.275193f, 0.211603f, -0.027544f, 0.028492f, -0.171545f, -0.133194f, 0.159958f, -0.039613f, 0.017901f, 0.004623f, \n    -0.176209f, 0.010393f, -0.272916f, 0.119878f, 0.107274f, -0.234579f, 0.232055f, -0.264296f, 0.051266f, 0.116157f, \n    0.236515f, -0.008898f, 0.191895f, 0.094784f, 0.098705f, -0.204263f, -0.212442f, 0.239841f, 0.242060f, 0.226881f, \n    0.103192f, -0.184893f, -0.003284f, 0.121494f, -0.272576f, 0.234466f, -0.246159f, 0.152069f, 0.239164f, 0.111479f, \n    0.135147f, 0.072664f, 0.015726f, 0.082947f, -0.198525f, 0.114162f, -0.158366f, -0.249686f, -0.021207f, 0.037420f, \n    -0.070656f, -0.033801f, -0.280975f, -0.187344f, 0.262148f, 0.004806f, -0.169128f, -0.234831f, -0.221289f, 0.250147f, \n    -0.118048f, -0.111638f, 0.056684f, 0.189700f, 0.053101f, -0.124694f, 0.256339f, -0.058362f, -0.164666f, 0.193374f, \n    0.230933f, 0.072058f, 0.150086f, -0.129269f, -0.006746f, -0.144069f, -0.082877f, -0.153754f, 0.271414f, -0.240003f, \n    0.192735f, -0.031197f, -0.224298f, 0.251770f, 0.103990f, -0.056136f, 0.201462f, -0.131822f, -0.024687f, 0.236230f, \n    -0.076381f, -0.087178f, -0.177728f, 0.251502f, -0.208445f, 0.092178f, 0.138065f, -0.118153f, 0.261981f, -0.178471f, \n    -0.197539f, -0.009490f, 0.121583f, 0.262978f, 0.269333f, 0.204374f, -0.137489f, 0.243497f, -0.260742f, 0.134860f, \n    0.200979f, -0.148539f, 0.071860f, 0.158382f, 0.023876f, 0.024433f, 0.081156f, -0.014194f, -0.016938f, 0.126856f, \n    0.000000f, 0.000000f, 0.000000f, 0.000000f, 0.000000f, 0.000000f, 0.000000f, 0.000000f, 0.000000f, 0.000000f, \n    0.000000f, 0.000000f, 0.000000f, 0.000000f, 0.000000f, 0.000000f, 0.000000f, 0.000000f, 0.000000f, 0.000000f, \n    0.000000f, 0.000000f, 0.000000f, 0.000000f, 0.000000f, 0.000000f, 0.000000f, 0.000000f, 0.000000f, 0.000000f, \n    0.000000f, 0.000000f, 0.000000f, 0.000000f, 0.000000f, 0.000000f, 0.000000f, 0.000000f, 0.000000f, 0.000000f, \n    0.000000f, 0.000000f, 0.000000f, 0.000000f, 0.000000f, 0.000000f, 0.000000f, 0.000000f, 0.000000f, 0.000000f, \n    0.000000f, 0.000000f, 0.000000f, 0.000000f, 0.000000f, 0.000000f, 0.000000f, 0.000000f, 0.000000f, 0.000000f, \n    0.000000f, 0.000000f, 0.000000f, 0.000000f, 0.016291f, 0.017673f, -0.077101f, -0.005963f, -0.047126f, -0.097976f, \n    -0.035428f, 0.032814f, -0.028762f, -0.056825f, 0.040891f, -0.026710f, 0.079335f, -0.092252f, -0.051720f, 0.044555f, \n    -0.052633f, -0.077516f, -0.074872f, -0.022578f, 0.085370f, -0.021552f, -0.046950f, 0.099534f, 0.064723f, -0.021509f, \n    -0.014353f, 0.071282f, -0.092883f, 0.065780f, -0.060765f, -0.058487f, -0.064796f, 0.055655f, 0.000336f, 0.067076f, \n    -0.096693f, -0.017449f, -0.063875f, 0.097871f, -0.034584f, -0.016944f, -0.031984f, 0.057679f, 0.014993f, 0.091736f, \n    0.003117f, -0.082253f, -0.037975f, -0.044038f, -0.037975f, -0.059574f, -0.060547f, 0.056844f, -0.053704f, 0.057372f, \n    -0.069105f, -0.020388f, -0.004691f, 0.095937f, -0.079468f, -0.017455f, -0.000477f, 0.038865f, 0.025509f, 0.027325f, \n    -0.003963f, 0.015701f, 0.081220f, 0.100151f, -0.042633f, 0.036325f, -0.040992f, -0.098414f, -0.097435f, 0.000938f, \n    -0.036417f, 0.017995f, 0.089091f, 0.011835f, 0.022836f, 0.094637f, 0.083632f, 0.078354f, 0.046048f, -0.011753f, \n    -0.021517f, -0.027415f, -0.080464f, 0.010692f, -0.030771f, 0.007819f, 0.078796f, -0.027128f, -0.059348f, -0.033681f, \n    0.000013f, 0.080966f, -0.061358f, -0.049464f, -0.049031f, 0.065782f, 0.082823f, 0.100139f, 0.085103f, 0.088890f, \n    0.040083f, -0.060805f, 0.073458f, 0.023057f, -0.074537f, 0.088081f, -0.035980f, -0.053354f, 0.043237f, 0.048830f, \n    -0.072797f, -0.025028f, 0.018583f, -0.027818f, 0.040003f, -0.101989f, -0.083427f, -0.042276f, 0.017329f, -0.014229f, \n    -0.024319f, 0.061066f, 0.081324f, 0.025404f, 0.088218f, 0.057368f, 0.010806f, -0.014032f, -0.017559f, -0.096467f, \n    0.049211f, -0.008648f, 0.017757f, -0.039554f, -0.091588f, -0.076150f, -0.087763f, -0.010688f, 0.036398f, 0.010959f, \n    0.048860f, 0.031525f, 0.033557f, -0.007765f, -0.002197f, 0.046732f, 0.030092f, -0.045922f, 0.045940f, -0.101714f, \n    0.074746f, 0.051974f, -0.101493f, -0.023183f, -0.029227f, 0.090282f, 0.014913f, 0.054349f, 0.061363f, -0.082766f, \n    -0.093980f, -0.019074f, 0.099250f, -0.039617f, -0.054579f, -0.027449f, 0.097079f, 0.021044f, -0.077437f, 0.008239f, \n    0.046403f, -0.037464f, 0.011181f, 0.009901f, -0.029625f, -0.081234f, 0.082456f, -0.041682f, -0.101621f, 0.000303f, \n    -0.025128f, -0.061080f, 0.097450f, -0.084912f, 0.069000f, -0.096507f, -0.087160f, -0.041478f, 0.042723f, 0.056466f, \n    -0.049299f, 0.038462f, -0.029489f, 0.032959f, -0.001187f, -0.078093f, 0.051287f, -0.051546f, 0.063376f, -0.028851f, \n    -0.028538f, -0.042831f, -0.076612f, 0.064442f, 0.008662f, 0.045517f, 0.020717f, -0.076153f, -0.092187f, -0.068048f, \n    -0.005613f, 0.077868f, 0.073096f, -0.043579f, 0.101807f, 0.089200f, -0.079950f, -0.050731f, 0.024172f, 0.011249f, \n    0.051929f, -0.038661f, 0.047276f, 0.028782f, 0.062553f, -0.001141f, 0.031164f, -0.068474f, -0.015526f, -0.030147f, \n    0.007988f, 0.052011f, 0.009105f, 0.052490f, -0.101143f, -0.054934f, -0.082721f, 0.091973f, -0.014408f, -0.050076f, \n    -0.084410f, 0.045104f, -0.070528f, 0.086572f, -0.028032f, -0.038439f, -0.012295f, -0.008337f, -0.047724f, -0.057607f, \n    0.035169f, -0.014410f, 0.042438f, -0.050180f, -0.085178f, 0.043281f, 0.072033f, 0.046756f, -0.086205f, 0.070427f, \n    -0.071564f, 0.065861f, 0.055815f, 0.038440f, 0.049822f, -0.057721f, -0.081311f, -0.054253f, -0.026045f, 0.082075f, \n    -0.085354f, 0.070405f, 0.073115f, 0.082016f, -0.068127f, -0.076153f, -0.062725f, -0.052478f, 0.081381f, 0.007690f, \n    -0.015732f, 0.074325f, 0.058950f, 0.017050f, 0.038537f, 0.060708f, 0.065414f, -0.004078f, 0.023429f, -0.000413f, \n    -0.075004f, -0.062416f, 0.016787f, -0.084509f, -0.097453f, 0.067709f, -0.048057f, 0.013777f, -0.043753f, -0.053502f, \n    -0.013980f, 0.069549f, 0.075527f, -0.016907f, -0.010966f, 0.099171f, 0.041581f, 0.041490f, -0.016418f, 0.051873f, \n    -0.057528f, -0.021298f, -0.096699f, -0.058723f, 0.000037f, 0.088351f, -0.015544f, 0.011942f, -0.033558f, 0.093455f, \n    0.053049f, -0.057128f, -0.050351f, -0.050849f, -0.059251f, 0.006576f, 0.067091f, -0.004765f, 0.089874f, -0.076837f, \n    0.064382f, 0.039915f, 0.044339f, -0.037588f, -0.041761f, -0.046449f, 0.042654f, 0.074363f, 0.077834f, 0.018530f, \n    -0.072469f, 0.097088f, 0.097142f, 0.019291f, -0.069053f, 0.039978f, -0.015879f, 0.027030f, -0.029773f, -0.066259f, \n    -0.065788f, -0.071501f, -0.060948f, -0.031979f, 0.084411f, -0.002040f, 0.010426f, -0.052665f, 0.070473f, 0.097082f, \n    -0.057520f, 0.012494f, -0.001261f, 0.048568f, -0.056467f, -0.046396f, 0.023056f, 0.005593f, -0.006319f, 0.042671f, \n    -0.094418f, -0.095028f, -0.094578f, 0.067642f, -0.056368f, -0.077215f, -0.082938f, 0.077034f, -0.019996f, -0.087099f, \n    0.040142f, 0.002545f, -0.057343f, -0.008023f, 0.050497f, -0.081215f, -0.095739f, 0.036123f, 0.027033f, 0.052421f, \n    0.047709f, 0.057061f, 0.064382f, -0.077974f, -0.006439f, 0.058038f, 0.016398f, 0.023079f, -0.070757f, 0.045403f, \n    0.003597f, 0.057857f, -0.022012f, -0.018966f, 0.100952f, 0.082503f, 0.098127f, -0.011347f, -0.070635f, -0.066041f, \n    0.090232f, 0.053510f, 0.067312f, -0.066920f, -0.061008f, 0.057448f, -0.076156f, -0.076901f, -0.023109f, 0.075925f, \n    0.083022f, 0.099992f, -0.083468f, -0.015430f, -0.044901f, -0.100863f, -0.040050f, 0.022286f, -0.043670f, -0.076868f, \n    -0.003102f, 0.098058f, -0.044003f, 0.049629f, 0.076725f, -0.064184f, 0.069891f, 0.012492f, 0.080477f, 0.068700f, \n    -0.086482f, 0.036543f, 0.047484f, -0.004605f, -0.047067f, -0.024466f, -0.067116f, -0.014093f, -0.004367f, -0.042293f, \n    -0.005760f, -0.032943f, -0.086188f, 0.084837f, -0.051329f, 0.037788f, 0.069392f, 0.039296f, 0.029431f, 0.085780f, \n    0.052070f, 0.056208f, 0.013315f, -0.007679f, 0.050660f, 0.010910f, 0.003638f, -0.011521f, 0.006067f, 0.012146f, \n    -0.088185f, -0.085128f, 0.033025f, -0.051942f, 0.065667f, -0.010626f, 0.077192f, -0.014586f, 0.092600f, -0.034244f, \n    0.046473f, -0.080962f, 0.004790f, -0.086251f, 0.030692f, 0.077019f, 0.003624f, -0.100365f, -0.042233f, -0.037838f, \n    0.061823f, -0.073688f, -0.049137f, 0.021228f, 0.099279f, -0.037849f, -0.017000f, -0.062397f, 0.052663f, 0.051204f, \n    -0.091735f, -0.083100f, -0.032759f, -0.072221f, 0.001793f, -0.036532f, -0.057260f, -0.033589f, -0.017082f, 0.066489f, \n    0.052494f, 0.073567f, -0.064299f, 0.014109f, -0.078795f, -0.031977f, -0.046703f, -0.036022f, 0.068265f, -0.029596f, \n    0.061316f, 0.077452f, 0.079440f, 0.065843f, -0.052908f, -0.033361f, -0.014590f, -0.060384f, -0.098111f, -0.062014f, \n    -0.076480f, 0.012754f, 0.086768f, -0.079976f, 0.063890f, 0.006142f, 0.010852f, -0.021399f, -0.068780f, 0.020758f, \n    -0.081062f, -0.068729f, -0.057045f, 0.025593f, 0.099300f, 0.101299f, -0.052353f, -0.059303f, -0.055267f, 0.076421f, \n    -0.029232f, 0.034609f, -0.091838f, -0.065532f, -0.047677f, 0.053645f, 0.027268f, 0.099820f, 0.091922f, 0.050521f, \n    -0.096731f, -0.095751f, 0.054366f, 0.011584f, 0.029126f, 0.003712f, -0.049986f, 0.076003f, -0.099715f, -0.082395f, \n    0.022985f, 0.000754f, 0.019994f, 0.016034f, 0.037273f, 0.072777f, -0.000043f, -0.033807f, -0.016287f, -0.007107f, \n    0.044446f, 0.064289f, -0.029893f, -0.033376f, 0.090991f, 0.047668f, -0.008750f, 0.015076f, -0.101153f, -0.092472f, \n    -0.090805f, 0.049155f, -0.049770f, -0.041977f, -0.093029f, 0.090159f, -0.028885f, 0.023078f, -0.049475f, 0.056188f, \n    -0.016997f, 0.063197f, 0.101392f, 0.003759f, -0.029574f, -0.096034f, -0.080167f, 0.041197f, 0.076801f, 0.040801f, \n    0.074544f, 0.050755f, 0.022796f, -0.065253f, 0.069419f, -0.064607f, -0.069918f, 0.026212f, 0.059137f, 0.069974f, \n    -0.020284f, 0.027778f, 0.099930f, 0.027793f, 0.015204f, 0.099512f, 0.029109f, -0.092011f, -0.024987f, -0.004713f, \n    -0.064205f, 0.012124f, 0.052706f, -0.034593f, -0.096908f, 0.013728f, -0.032722f, 0.009734f, 0.075551f, 0.055143f, \n    0.075254f, 0.098187f, 0.101613f, 0.096137f, 0.041047f, -0.089826f, 0.051356f, 0.002315f, 0.076457f, 0.097446f, \n    -0.100006f, 0.080880f, -0.002395f, -0.019041f, -0.090797f, 0.014280f, 0.063457f, 0.067877f, 0.042106f, 0.078616f, \n    -0.032868f, -0.038088f, 0.042098f, 0.034875f, -0.034462f, 0.052788f, -0.041343f, -0.081800f, 0.064339f, -0.043447f, \n    0.031944f, 0.016630f, -0.014021f, 0.030423f, 0.060315f, -0.094701f, -0.062438f, -0.040890f, 0.081677f, -0.058011f, \n    -0.081700f, -0.059986f, 0.018101f, 0.019989f, 0.024976f, -0.080098f, -0.024454f, 0.015018f, -0.048036f, -0.099313f, \n    0.060937f, -0.021640f, 0.099004f, 0.027438f, -0.021437f, 0.018281f, 0.093017f, -0.086804f, -0.042822f, -0.049574f, \n    -0.056759f, -0.027247f, 0.037247f, -0.016968f, -0.060292f, 0.099829f, 0.009631f, -0.070291f, 0.056620f, 0.078873f, \n    0.052125f, 0.094581f, 0.083897f, -0.014975f, -0.063273f, -0.005276f, -0.099898f, 0.055227f, 0.069244f, -0.000403f, \n    0.075520f, 0.079257f, 0.052444f, -0.058168f, 0.035581f, 0.003538f, -0.093054f, 0.083146f, 0.066429f, -0.100634f, \n    -0.003164f, 0.036078f, 0.048014f, 0.036207f, 0.087584f, -0.095560f, 0.082594f, -0.050955f, 0.034585f, -0.099652f, \n    -0.016649f, -0.002703f, 0.100596f, -0.058798f, 0.060213f, -0.023510f, -0.025444f, 0.003371f, -0.080446f, 0.099661f, \n    0.055199f, -0.089738f, 0.044356f, -0.032810f, -0.093652f, 0.003595f, 0.017979f, -0.067473f, -0.009916f, -0.075510f, \n    -0.079463f, 0.058830f, -0.008171f, -0.040032f, -0.001063f, 0.038040f, 0.032004f, 0.092795f, -0.023318f, 0.042914f, \n    -0.050734f, -0.033975f, 0.016802f, 0.025002f, -0.077632f, -0.061835f, 0.099517f, 0.057108f, 0.061235f, -0.035138f, \n    -0.032123f, 0.002595f, 0.025677f, 0.022847f, -0.003327f, 0.014121f, -0.074755f, 0.073886f, 0.094530f, 0.073865f, \n    -0.077633f, 0.091859f, -0.099067f, -0.075723f, 0.058492f, -0.021493f, 0.012493f, 0.079332f, -0.088116f, -0.033428f, \n    -0.060569f, -0.041570f, -0.026682f, 0.050260f, 0.100545f, -0.000088f, 0.076697f, -0.029028f, 0.046907f, -0.063217f, \n    -0.004368f, 0.027753f, 0.043368f, 0.012383f, 0.081494f, 0.043998f, 0.099255f, 0.100475f, 0.088448f, 0.072596f, \n    0.023398f, 0.004264f, 0.052040f, 0.068997f, 0.025900f, -0.081698f, 0.018707f, -0.083990f, 0.012124f, 0.020590f, \n    0.051252f, 0.059082f, 0.001947f, -0.064296f, -0.015709f, -0.080733f, 0.084752f, 0.053088f, 0.052759f, -0.057349f, \n    -0.083296f, -0.068560f, 0.048414f, -0.078870f, -0.044669f, 0.026776f, -0.092747f, -0.100323f, 0.065401f, -0.054220f, \n    -0.028382f, 0.021057f, 0.076842f, 0.060798f, 0.069373f, -0.082838f, 0.029258f, -0.078898f, 0.064276f, 0.027332f, \n    -0.093923f, 0.004899f, 0.076624f, 0.046687f, 0.082532f, -0.054864f, -0.093529f, -0.017328f, 0.055534f, -0.000544f, \n    0.079226f, 0.030130f, -0.051125f, -0.082594f, -0.020402f, 0.096017f, -0.046094f, -0.043045f, 0.099531f, -0.009711f, \n    0.066819f, 0.013793f, 0.013650f, -0.023949f, -0.040169f, 0.097692f, 0.080885f, 0.088012f, -0.081974f, 0.000528f, \n    0.084301f, 0.077895f, 0.052267f, -0.063635f, -0.089399f, 0.022190f, 0.042697f, -0.091370f, -0.027102f, -0.030244f, \n    -0.071659f, -0.018812f, 0.054032f, -0.045104f, -0.093266f, -0.031842f, -0.002872f, -0.039010f, -0.018748f, 0.008366f, \n    -0.034153f, -0.042212f, 0.053124f, 0.031870f, -0.098023f, -0.099964f, 0.022368f, 0.081824f, -0.015706f, -0.030495f, \n    0.066553f, 0.019843f, -0.080305f, -0.061111f, 0.061913f, 0.068867f, -0.053750f, -0.020042f, -0.024997f, 0.074591f, \n    0.010344f, -0.017590f, -0.025742f, 0.003361f, -0.082138f, -0.085141f, -0.069547f, -0.073979f, -0.091156f, -0.065120f, \n    0.071225f, 0.013138f, 0.004128f, -0.001080f, 0.000765f, 0.039473f, -0.025034f, 0.067997f, -0.008143f, 0.065426f, \n    -0.101355f, 0.042793f, 0.005893f, -0.045451f, -0.021074f, 0.036980f, -0.043353f, 0.067800f, 0.030810f, 0.088000f, \n    0.101383f, 0.002729f, 0.048400f, -0.067299f, -0.037153f, 0.074199f, -0.076275f, 0.093252f, 0.064306f, -0.030752f, \n    -0.020947f, 0.005515f, 0.099667f, -0.053951f, -0.033330f, -0.074020f, -0.096799f, 0.060615f, -0.064166f, 0.087712f, \n    -0.050481f, 0.080389f, -0.091209f, 0.097197f, 0.070542f, 0.082721f, 0.001779f, 0.071982f, 0.090430f, -0.063979f, \n    -0.063962f, -0.018840f, 0.082367f, 0.056712f, -0.000737f, 0.030790f, -0.016250f, -0.101432f, -0.031338f, 0.093430f, \n    -0.090525f, 0.097013f, 0.065482f, -0.041118f, 0.078744f, 0.004815f, 0.026477f, 0.027776f, 0.052550f, -0.045683f, \n    0.072074f, 0.053144f, 0.015435f, -0.041989f, 0.010379f, -0.022359f, 0.005209f, -0.069074f, -0.083329f, -0.049942f, \n    0.026606f, -0.055132f, -0.031244f, 0.056919f, -0.052761f, -0.024927f, -0.098106f, 0.100907f, 0.033309f, -0.099085f, \n    0.001806f, -0.031980f, 0.043127f, 0.029896f, -0.049378f, -0.043120f, -0.004351f, 0.026729f, -0.006278f, 0.040485f, \n    0.071276f, -0.042546f, 0.069778f, 0.053523f, -0.003544f, -0.068241f, -0.093914f, 0.053461f, 0.053017f, 0.048084f, \n    -0.059770f, -0.041218f, -0.052730f, 0.034976f, -0.014617f, 0.008007f, -0.025483f, -0.046818f, 0.067354f, 0.051288f, \n    0.056303f, 0.019038f, 0.076723f, 0.024094f, -0.038466f, 0.025016f, 0.066382f, 0.036168f, 0.050916f, -0.059655f, \n    0.092922f, -0.043358f, -0.069038f, 0.087244f, -0.067873f, -0.060513f, -0.000739f, -0.065295f, 0.049049f, 0.025036f, \n    -0.051805f, -0.037626f, -0.013515f, 0.074369f, -0.091145f, -0.062623f, -0.015657f, 0.067726f, -0.036593f, 0.097012f, \n    0.073812f, -0.003360f, 0.050056f, -0.094698f, -0.062772f, 0.072021f, 0.041360f, 0.002054f, 0.093629f, 0.098199f, \n    0.026717f, 0.055587f, -0.023303f, -0.031519f, 0.073067f, -0.005255f, -0.045989f, 0.069314f, 0.100804f, -0.005222f, \n    0.031627f, -0.051303f, -0.053578f, -0.092147f, 0.078304f, -0.049743f, -0.049415f, 0.020131f, -0.064199f, 0.052200f, \n    -0.018140f, 0.071536f, -0.053143f, 0.038014f, 0.094867f, 0.096269f, 0.083475f, -0.069576f, -0.092274f, -0.080731f, \n    -0.003725f, -0.079770f, -0.047683f, 0.080892f, -0.088675f, 0.091159f, -0.038558f, -0.084205f, 0.094639f, 0.085464f, \n    0.070649f, 0.023360f, -0.031714f, -0.026853f, 0.073158f, 0.015403f, 0.029727f, -0.100306f, -0.002072f, 0.070241f, \n    -0.007879f, -0.093491f, 0.088194f, 0.005000f, -0.060720f, 0.075624f, 0.031241f, -0.094365f, -0.013929f, -0.022531f, \n    -0.013252f, 0.066727f, -0.075823f, -0.092431f, 0.083544f, 0.054953f, -0.058561f, 0.036548f, 0.016826f, 0.085574f, \n    -0.012244f, 0.002505f, 0.022005f, 0.067173f, 0.034284f, 0.030001f, -0.006354f, -0.022387f, -0.042054f, 0.014475f, \n    0.093841f, -0.097644f, -0.009591f, -0.037709f, 0.059003f, -0.079611f, 0.096234f, 0.090861f, 0.034409f, -0.048566f, \n    0.039033f, -0.003706f, 0.006362f, -0.012677f, 0.056216f, 0.073576f, 0.046746f, -0.025097f, -0.077920f, 0.073904f, \n    0.012431f, -0.083699f, -0.026020f, 0.062821f, -0.061865f, -0.008240f, -0.032655f, -0.039052f, -0.077585f, 0.005523f, \n    -0.044182f, 0.089167f, -0.061996f, -0.038825f, 0.017282f, 0.088794f, -0.021182f, -0.101278f, -0.074748f, -0.072241f, \n    0.066384f, 0.039307f, -0.093247f, -0.079542f, 0.014567f, -0.063551f, 0.077337f, 0.083212f, 0.043970f, 0.083574f, \n    0.032198f, 0.032105f, 0.059905f, -0.076341f, -0.027151f, 0.000094f, 0.059025f, 0.004800f, 0.064642f, -0.042011f, \n    0.054309f, -0.049872f, -0.071281f, -0.100606f, 0.092650f, -0.061935f, 0.002717f, -0.087300f, 0.044780f, -0.058015f, \n    -0.003651f, -0.040753f, -0.100176f, -0.012355f, 0.069932f, -0.024517f, -0.086498f, 0.029970f, -0.032343f, 0.033208f, \n    -0.066075f, -0.045512f, -0.008254f, 0.089052f, -0.005018f, -0.087533f, -0.008724f, -0.087324f, -0.022168f, -0.067746f, \n    -0.051388f, -0.003649f, -0.077658f, -0.098390f, -0.034039f, -0.003256f, 0.057692f, 0.054743f, 0.031590f, -0.024599f, \n    0.053851f, 0.051988f, -0.015650f, -0.045141f, -0.032073f, -0.021471f, -0.005563f, 0.017656f, -0.050958f, 0.039310f, \n    -0.066570f, -0.092652f, -0.097572f, 0.019176f, 0.063087f, 0.062665f, -0.006712f, 0.045429f, 0.066124f, 0.002282f, \n    -0.000375f, -0.028333f, -0.021595f, -0.052118f, -0.052309f, -0.076230f, -0.086228f, -0.026550f, 0.046131f, 0.078761f, \n    0.017059f, -0.050282f, -0.058912f, -0.084958f, 0.035495f, -0.098877f, 0.086966f, 0.051801f, -0.078015f, 0.067584f, \n    0.030977f, 0.000255f, -0.037779f, -0.027880f, -0.048015f, -0.047368f, 0.077650f, -0.048062f, 0.009430f, -0.080366f, \n    0.100372f, 0.006184f, -0.055370f, -0.098388f, 0.048896f, 0.007929f, 0.020224f, 0.043572f, 0.064801f, -0.036139f, \n    0.101139f, -0.083268f, 0.011547f, -0.043594f, 0.095498f, 0.095453f, -0.024814f, 0.013368f, -0.043322f, 0.040708f, \n    -0.086507f, 0.095606f, 0.042287f, 0.014811f, 0.054506f, 0.036640f, -0.018578f, -0.011055f, 0.002778f, -0.055878f, \n    -0.065007f, 0.017475f, -0.066837f, -0.030323f, -0.100216f, 0.101476f, -0.085636f, -0.054052f, -0.078263f, -0.068644f, \n    0.064241f, -0.038085f, -0.038351f, -0.082926f, 0.094803f, 0.063070f, 0.028150f, -0.008388f, -0.095516f, -0.030519f, \n    0.027894f, -0.075149f, 0.072137f, 0.086143f, -0.044968f, -0.084022f, 0.010687f, 0.087888f, 0.073496f, -0.060318f, \n    0.013806f, -0.037402f, 0.029652f, -0.079360f, -0.027872f, 0.047303f, 0.034618f, -0.082036f, 0.010204f, 0.093648f, \n    -0.058099f, 0.048362f, 0.026438f, 0.015490f, -0.074522f, -0.038243f, -0.096826f, 0.056442f, 0.096162f, -0.008972f, \n    0.093156f, 0.046567f, 0.051612f, -0.064897f, 0.062191f, 0.015175f, -0.050817f, 0.057540f, -0.054866f, 0.073655f, \n    0.014495f, 0.074361f, 0.014902f, -0.058232f, 0.036130f, 0.045704f, 0.083969f, -0.082863f, 0.050277f, 0.057306f, \n    -0.088738f, 0.029256f, 0.093349f, 0.063894f, 0.072020f, 0.049236f, 0.046595f, -0.097902f, 0.036277f, -0.080173f, \n    -0.037908f, 0.063512f, 0.034524f, -0.071913f, -0.013682f, 0.003970f, 0.005339f, 0.023876f, 0.022743f, 0.041818f, \n    0.035387f, 0.032287f, 0.088868f, -0.078156f, -0.001134f, 0.043379f, 0.026529f, 0.011132f, -0.030299f, -0.097482f, \n    0.058180f, -0.080897f, 0.006821f, 0.022123f, -0.017226f, -0.047903f, 0.047363f, 0.089624f, 0.005054f, -0.001350f, \n    0.033067f, -0.039764f, -0.067015f, -0.017148f, -0.078323f, -0.086633f, -0.055661f, 0.097112f, 0.039721f, -0.024439f, \n    0.011042f, -0.082138f, -0.066255f, 0.040849f, 0.025756f, 0.064522f, -0.085362f, -0.081800f, -0.009008f, -0.067903f, \n    -0.078897f, 0.026278f, 0.027650f, -0.088411f, 0.062325f, -0.039961f, -0.042731f, 0.056017f, 0.014135f, -0.039435f, \n    -0.000645f, -0.008177f, 0.013322f, 0.023856f, 0.003580f, -0.040364f, -0.019934f, -0.024381f, 0.071131f, 0.010613f, \n    -0.057629f, -0.040687f, -0.044049f, -0.024878f, -0.060365f, 0.068428f, 0.063542f, -0.079656f, -0.010007f, -0.056429f, \n    -0.026149f, 0.013060f, -0.002394f, 0.037318f, 0.027923f, -0.012786f, -0.045830f, -0.089209f, -0.061761f, -0.031800f, \n    -0.085751f, 0.100866f, 0.025199f, 0.043766f, -0.044082f, 0.081237f, 0.088841f, -0.080721f, 0.071787f, -0.055146f, \n    -0.058063f, 0.048314f, 0.048341f, -0.084952f, -0.012624f, -0.062960f, -0.073836f, 0.026582f, 0.040279f, 0.086861f, \n    -0.101282f, 0.022333f, 0.049020f, 0.017390f, 0.057125f, -0.038457f, -0.086899f, -0.011235f, -0.061604f, 0.004459f, \n    0.028217f, -0.075243f, -0.059402f, -0.066048f, -0.085489f, -0.023629f, 0.015989f, 0.099297f, -0.056043f, 0.040209f, \n    -0.032475f, -0.028881f, -0.087601f, 0.077334f, 0.091245f, -0.085097f, -0.028121f, 0.004964f, 0.049474f, -0.017680f, \n    0.026878f, -0.099386f, -0.042041f, -0.039437f, -0.070148f, -0.032389f, -0.019596f, -0.030745f, 0.048675f, 0.099687f, \n    0.036664f, 0.044675f, 0.016359f, -0.002529f, -0.034002f, -0.065734f, -0.032011f, 0.037266f, -0.062193f, -0.010580f, \n    -0.033266f, 0.084474f, 0.099501f, 0.099787f, 0.047920f, -0.006817f, 0.012228f, 0.026696f, -0.097375f, 0.081934f, \n    -0.018048f, -0.064610f, 0.013936f, -0.009824f, -0.098098f, -0.018404f, 0.008138f, 0.012949f, -0.078353f, -0.047566f, \n    0.075905f, 0.020307f, -0.000225f, 0.024407f, 0.016469f, 0.021345f, -0.077566f, -0.066189f, -0.061997f, 0.050855f, \n    0.043764f, 0.095265f, -0.064523f, 0.100509f, 0.010441f, 0.057502f, -0.022975f, 0.051384f, -0.025101f, 0.006139f, \n    -0.063771f, -0.069937f, -0.025375f, -0.030374f, -0.086595f, 0.084372f, 0.055715f, 0.044246f, -0.067133f, -0.068482f, \n    0.051595f, -0.038393f, 0.099114f, -0.068655f, 0.005030f, 0.095931f, 0.020252f, 0.088230f, 0.086440f, 0.033698f, \n    -0.023318f, 0.052450f, 0.023022f, -0.058930f, 0.092706f, -0.038699f, 0.023633f, -0.004417f, 0.048907f, 0.079660f, \n    -0.031115f, -0.013706f, -0.066966f, 0.079949f, -0.047792f, 0.100265f, -0.045255f, 0.040727f, 0.075468f, -0.029749f, \n    -0.032499f, 0.082905f, -0.074426f, -0.090346f, 0.051372f, 0.049564f, -0.054669f, -0.071673f, -0.027061f, 0.054459f, \n    -0.101331f, 0.022243f, -0.034743f, 0.097761f, 0.062015f, 0.088817f, -0.008801f, 0.042981f, -0.034477f, 0.043905f, \n    0.004475f, -0.004530f, 0.020780f, -0.072872f, 0.090977f, -0.002226f, 0.026757f, -0.057171f, -0.011618f, -0.098309f, \n    0.006906f, -0.080943f, 0.047609f, 0.012319f, 0.050830f, -0.029907f, 0.084392f, -0.062221f, 0.050609f, -0.092126f, \n    -0.055077f, 0.072834f, -0.020147f, -0.025344f, -0.021667f, -0.015501f, -0.031109f, -0.045243f, -0.070834f, 0.042874f, \n    0.020664f, 0.022560f, 0.054120f, 0.088350f, -0.045801f, 0.041910f, -0.093822f, 0.062612f, 0.025464f, -0.030913f, \n    0.052099f, -0.008148f, 0.057855f, 0.013925f, -0.089949f, 0.073651f, -0.019974f, -0.010263f, -0.046515f, 0.003509f, \n    0.019213f, -0.008106f, 0.035047f, 0.004733f, -0.057330f, 0.049546f, 0.033398f, 0.091040f, 0.004697f, 0.093490f, \n    -0.100071f, -0.082300f, 0.016094f, -0.076728f, -0.099041f, -0.022835f, 0.077438f, 0.041155f, -0.085907f, -0.044831f, \n    0.014987f, -0.023577f, 0.019881f, 0.080205f, -0.007546f, -0.091265f, 0.021247f, -0.000793f, 0.012044f, 0.072439f, \n    0.100617f, 0.065829f, 0.100916f, 0.014487f, -0.041259f, 0.067541f, 0.052075f, -0.083695f, 0.085634f, -0.055655f, \n    -0.040368f, -0.033849f, 0.008499f, -0.064883f, -0.012946f, -0.009279f, -0.089140f, 0.090319f, -0.055180f, -0.055430f, \n    -0.033615f, 0.079955f, -0.060239f, -0.014296f, 0.018740f, -0.053197f, -0.017171f, -0.055181f, -0.058251f, -0.007482f, \n    -0.050993f, 0.077916f, 0.015444f, 0.099668f, 0.051230f, -0.089462f, -0.095593f, 0.025731f, -0.037203f, -0.053031f, \n    -0.041894f, -0.072837f, 0.004495f, -0.026466f, -0.093683f, -0.029634f, -0.048948f, 0.086023f, 0.069788f, -0.014374f, \n    0.018584f, -0.079775f, 0.055465f, 0.035089f, -0.036950f, 0.008621f, 0.056243f, -0.045965f, 0.035389f, 0.062073f, \n    -0.040130f, -0.003720f, 0.030017f, 0.027760f, 0.074770f, -0.001397f, 0.088268f, -0.065581f, 0.040416f, -0.069237f, \n    -0.081423f, 0.072035f, 0.098033f, 0.064081f, -0.085543f, -0.046981f, 0.036517f, -0.002652f, -0.073138f, -0.041645f, \n    0.047626f, -0.040649f, -0.034331f, -0.066821f, -0.011784f, 0.051153f, -0.014879f, -0.097683f, -0.042871f, -0.037084f, \n    0.063802f, -0.022913f, -0.001943f, 0.004561f, 0.007575f, 0.033870f, -0.004075f, 0.076208f, -0.034491f, -0.062331f, \n    -0.045217f, 0.024875f, -0.089525f, 0.090661f, 0.011698f, 0.039102f, 0.007842f, -0.026562f, 0.036928f, 0.080043f, \n    0.099324f, -0.049883f, -0.090356f, -0.062742f, -0.065038f, -0.090141f, -0.043311f, -0.094905f, -0.070086f, -0.028360f, \n    -0.074799f, -0.008034f, 0.016673f, 0.073415f, -0.057709f, 0.007308f, -0.060666f, 0.076257f, -0.057336f, -0.017282f, \n    0.019600f, -0.002763f, -0.038803f, -0.007494f, -0.080062f, 0.062201f, -0.020309f, 0.022543f, -0.021899f, -0.057314f, \n    0.010105f, 0.022524f, 0.000569f, 0.057521f, 0.089581f, 0.032235f, 0.021125f, 0.000336f, 0.027603f, 0.092111f, \n    0.075384f, -0.012214f, -0.073262f, 0.019646f, 0.011842f, 0.086419f, 0.026984f, -0.014823f, 0.039523f, -0.060644f, \n    0.101509f, -0.060076f, -0.040365f, -0.068937f, 0.070990f, -0.016649f, -0.030032f, 0.036417f, -0.096248f, -0.063566f, \n    -0.008585f, 0.011494f, 0.079765f, -0.043163f, 0.049844f, -0.069110f, 0.084967f, -0.057422f, 0.002637f, 0.067973f, \n    -0.098229f, 0.086949f, -0.034213f, -0.099214f, 0.025687f, -0.048854f, -0.047031f, 0.035480f, 0.014645f, -0.042902f, \n    0.017924f, 0.065779f, 0.096421f, 0.024674f, 0.083525f, -0.022380f, -0.038042f, -0.098998f, 0.086165f, -0.027160f, \n    -0.074058f, -0.093934f, -0.014838f, -0.018096f, -0.014361f, -0.025594f, 0.081181f, 0.071172f, 0.015522f, 0.088160f, \n    -0.021491f, 0.080756f, -0.027451f, -0.009351f, -0.058227f, 0.009938f, -0.026888f, -0.100097f, -0.014050f, 0.034947f, \n    -0.075381f, 0.055200f, -0.065702f, -0.037121f, 0.014833f, 0.072544f, -0.094975f, 0.021817f, 0.088229f, 0.040055f, \n    0.060589f, 0.063337f, 0.091830f, 0.098835f, 0.083902f, -0.101056f, 0.069773f, 0.011463f, -0.091917f, 0.084407f, \n    0.041395f, 0.098458f, -0.087025f, -0.005246f, 0.092400f, 0.006025f, 0.005283f, -0.024524f, 0.097364f, 0.059805f, \n    -0.038382f, 0.067323f, -0.071763f, -0.051053f, -0.041909f, 0.054341f, -0.045218f, -0.011343f, 0.047469f, -0.071115f, \n    -0.089923f, -0.065804f, -0.095424f, -0.100947f, 0.007876f, -0.092229f, -0.097836f, 0.041304f, -0.088808f, 0.052247f, \n    -0.078814f, -0.088706f, 0.035784f, -0.047851f, 0.016079f, -0.086797f, -0.072264f, 0.007951f, 0.081363f, 0.041565f, \n    0.001839f, -0.084044f, -0.073196f, 0.077665f, 0.075049f, -0.043985f, -0.081538f, -0.026900f, -0.089856f, 0.015828f, \n    0.049743f, -0.046052f, -0.051607f, -0.082235f, -0.063685f, -0.033493f, 0.070864f, 0.023854f, -0.075358f, -0.059203f, \n    -0.057835f, 0.025823f, 0.093203f, -0.010619f, -0.067052f, -0.083450f, 0.018447f, 0.053895f, -0.029307f, -0.056167f, \n    -0.020968f, 0.077603f, 0.044308f, 0.036075f, -0.071692f, 0.092646f, -0.072517f, -0.066045f, -0.049161f, -0.051587f, \n    0.021068f, -0.101594f, -0.078940f, -0.058027f, 0.084580f, 0.089800f, 0.040531f, 0.039099f, -0.015173f, -0.054456f, \n    -0.020003f, 0.007984f, -0.066203f, -0.056392f, -0.029895f, 0.022899f, 0.099207f, 0.062873f, 0.030341f, 0.092812f, \n    0.027333f, -0.001866f, -0.003704f, -0.022608f, -0.070244f, -0.038651f, -0.045587f, 0.052106f, -0.055963f, 0.012577f, \n    -0.047154f, -0.076274f, 0.043108f, 0.006458f, 0.090725f, 0.058642f, 0.024720f, 0.018300f, -0.042502f, -0.002349f, \n    -0.002003f, -0.038806f, 0.007600f, -0.050588f, -0.022269f, -0.014914f, -0.063457f, -0.015348f, -0.011240f, -0.095226f, \n    0.029242f, 0.056859f, -0.095073f, -0.090693f, -0.082417f, 0.069545f, -0.015424f, 0.021947f, 0.034802f, 0.088153f, \n    0.012108f, -0.053970f, -0.005744f, 0.039327f, 0.074076f, -0.088099f, -0.052509f, -0.057974f, -0.042757f, 0.002721f, \n    -0.085227f, -0.063982f, -0.031597f, -0.065991f, 0.074421f, 0.062429f, 0.075963f, 0.083081f, -0.021265f, 0.034747f, \n    -0.030821f, -0.024722f, 0.072514f, 0.002874f, -0.072476f, -0.085619f, -0.084449f, 0.066226f, -0.101849f, 0.098505f, \n    -0.092011f, 0.007348f, 0.027109f, -0.091430f, -0.028078f, 0.095565f, -0.052296f, -0.052924f, 0.048635f, -0.022878f, \n    -0.058910f, 0.014713f, 0.008080f, 0.033831f, -0.071234f, 0.000779f, 0.025165f, -0.015460f, -0.020601f, 0.094231f, \n    0.101272f, 0.017082f, -0.075628f, 0.010624f, 0.089625f, -0.017191f, -0.082853f, 0.095332f, 0.100392f, -0.032311f, \n    0.030693f, 0.086291f, 0.091958f, -0.073882f, -0.073888f, -0.072541f, -0.065888f, -0.010516f, 0.008286f, 0.074635f, \n    0.038204f, 0.086774f, -0.015730f, -0.053448f, -0.060503f, 0.054187f, -0.047861f, -0.027214f, -0.007611f, -0.035639f, \n    0.011761f, 0.064600f, -0.049226f, -0.001339f, 0.042059f, 0.021718f, 0.094107f, 0.038545f, -0.010448f, 0.009383f, \n    -0.010799f, -0.060896f, 0.034859f, -0.011519f, -0.045923f, 0.096574f, -0.058247f, -0.021189f, 0.042265f, 0.027306f, \n    -0.046169f, -0.024868f, 0.021312f, 0.079100f, 0.027874f, 0.015348f, 0.018033f, 0.018661f, 0.007170f, -0.041816f, \n    -0.054058f, -0.067580f, -0.014556f, -0.025227f, -0.065846f, -0.014466f, 0.044785f, -0.100333f, 0.013149f, -0.053443f, \n    0.029053f, 0.060259f, 0.004874f, -0.050449f, 0.007458f, 0.076948f, -0.050798f, -0.086283f, -0.062426f, 0.000099f, \n    -0.067811f, 0.040179f, 0.056742f, 0.088049f, 0.058470f, 0.048836f, 0.019097f, 0.086503f, -0.012135f, -0.000517f, \n    0.010773f, -0.007391f, -0.028856f, -0.062217f, -0.094317f, -0.041376f, 0.032640f, 0.088759f, 0.014964f, -0.066933f, \n    -0.059720f, 0.024512f, -0.094331f, 0.032474f, -0.011864f, 0.018429f, -0.004767f, 0.016458f, 0.060773f, -0.083239f, \n    -0.000128f, 0.009599f, -0.050902f, 0.044258f, -0.035729f, -0.040932f, -0.058729f, 0.064012f, -0.006460f, 0.000710f, \n    -0.101258f, 0.079295f, -0.022735f, 0.056257f, 0.048332f, 0.091059f, -0.024517f, 0.015937f, -0.007227f, 0.087381f, \n    0.056137f, 0.052555f, 0.101971f, 0.050869f, -0.031506f, -0.006636f, -0.040564f, -0.076957f, 0.016888f, -0.037047f, \n    -0.032411f, -0.003951f, -0.085249f, 0.025789f, 0.067733f, 0.011131f, -0.022415f, -0.036352f, 0.008506f, 0.020536f, \n    -0.070318f, 0.040842f, 0.017216f, 0.085285f, 0.064663f, -0.089616f, -0.026005f, 0.044270f, -0.011578f, -0.025035f, \n    0.006086f, 0.041519f, 0.074112f, -0.094621f, 0.030710f, -0.049538f, 0.019075f, 0.040114f, 0.008004f, -0.082759f, \n    -0.097840f, -0.074216f, 0.091191f, 0.064097f, 0.055046f, -0.005123f, -0.027872f, 0.068193f, 0.021744f, 0.004498f, \n    -0.002409f, -0.050574f, 0.032449f, 0.068224f, 0.074444f, -0.045819f, 0.076366f, -0.073271f, 0.019224f, 0.010476f, \n    -0.041950f, -0.021510f, 0.070448f, -0.053848f, -0.031308f, 0.048654f, -0.069589f, 0.037313f, -0.007743f, -0.031245f, \n    -0.074082f, 0.040900f, 0.077759f, 0.036111f, 0.051568f, -0.079328f, 0.014076f, -0.012394f, 0.075174f, -0.075306f, \n    -0.014133f, 0.038044f, -0.081906f, -0.044851f, 0.041049f, 0.063937f, 0.041145f, -0.070979f, 0.013897f, -0.042219f, \n    0.053671f, 0.026731f, -0.035161f, -0.083792f, 0.095810f, 0.023959f, -0.011737f, -0.058503f, 0.101502f, 0.005331f, \n    0.019144f, 0.088547f, 0.035882f, 0.078749f, -0.020995f, -0.023487f, 0.003150f, -0.081219f, 0.043747f, -0.090792f, \n    -0.033604f, 0.003084f, 0.016007f, -0.037704f, -0.009771f, -0.083202f, -0.095678f, -0.097053f, -0.090043f, 0.018497f, \n    0.009116f, -0.078959f, -0.065229f, 0.061574f, 0.053460f, -0.039536f, 0.069621f, 0.098322f, 0.000081f, 0.002503f, \n    -0.045005f, 0.000131f, 0.028021f, -0.079483f, -0.052866f, -0.020335f, 0.094099f, 0.064553f, -0.095325f, 0.087293f, \n    0.053676f, -0.051450f, -0.036243f, -0.028006f, -0.071651f, 0.059574f, -0.064716f, -0.049024f, -0.068050f, -0.054174f, \n    0.055670f, 0.097093f, -0.084274f, 0.026609f, -0.099124f, -0.040928f, 0.047269f, -0.045544f, -0.042024f, -0.018646f, \n    0.039679f, 0.063340f, 0.016518f, 0.056289f, -0.087702f, -0.073903f, 0.070753f, 0.080945f, 0.051797f, -0.005075f, \n    0.055082f, 0.055967f, 0.001105f, -0.083958f, -0.073338f, 0.039732f, -0.091113f, -0.036683f, 0.019193f, -0.017094f, \n    0.028694f, -0.061288f, 0.099738f, 0.036554f, -0.088863f, -0.057847f, -0.087753f, -0.096002f, -0.017027f, 0.048217f, \n    0.015385f, -0.089730f, 0.006898f, -0.092535f, 0.069180f, -0.071084f, -0.064552f, 0.097515f, 0.070498f, -0.004477f, \n    -0.008034f, -0.028577f, -0.001691f, -0.100361f, 0.003227f, -0.059132f, 0.001410f, -0.044182f, -0.098178f, 0.012358f, \n    0.041994f, 0.042779f, 0.000453f, 0.020015f, 0.029362f, 0.070780f, 0.035937f, 0.061102f, 0.021742f, 0.043584f, \n    -0.016725f, -0.083915f, -0.047498f, -0.090944f, -0.046471f, -0.037885f, 0.096284f, -0.053964f, -0.029303f, -0.095299f, \n    0.079427f, -0.023560f, -0.026534f, 0.002082f, 0.082073f, 0.096071f, 0.031772f, -0.046785f, 0.058414f, 0.012483f, \n    -0.075239f, -0.078795f, -0.069235f, 0.037347f, -0.073319f, -0.072708f, -0.087576f, 0.032270f, -0.009889f, -0.061477f, \n    -0.089892f, 0.004210f, -0.081617f, 0.009310f, 0.001885f, 0.075190f, -0.037102f, -0.071386f, 0.068441f, 0.098246f, \n    -0.030389f, 0.035448f, -0.043689f, 0.077581f, 0.100011f, 0.089918f, 0.001157f, 0.065173f, 0.018283f, 0.096832f, \n    0.099203f, -0.030492f, -0.075230f, 0.010129f, 0.021724f, 0.070752f, -0.008346f, -0.094564f, 0.044484f, 0.099488f, \n    -0.083234f, 0.032007f, 0.005000f, 0.044848f, 0.067358f, -0.041816f, 0.039662f, 0.085818f, -0.064591f, 0.063513f, \n    -0.011837f, 0.064788f, 0.029178f, 0.032780f, 0.059577f, -0.005383f, -0.088998f, 0.085038f, 0.039497f, -0.062689f, \n    -0.010150f, 0.073809f, -0.097960f, 0.039845f, -0.079306f, -0.019123f, -0.055081f, 0.053136f, -0.029336f, 0.040307f, \n    0.088095f, -0.080568f, -0.035805f, 0.026715f, -0.085036f, -0.041339f, 0.067288f, -0.018343f, -0.035751f, 0.035074f, \n    -0.046921f, -0.003451f, -0.058779f, -0.038586f, 0.038578f, -0.035079f, -0.037299f, 0.038952f, -0.019916f, -0.025643f, \n    -0.025034f, -0.081829f, -0.055781f, -0.100943f, -0.018864f, -0.045190f, -0.063157f, 0.027701f, -0.058119f, -0.014795f, \n    0.012907f, 0.073783f, 0.068900f, -0.060719f, 0.028357f, -0.035222f, 0.052295f, -0.101406f, 0.068365f, -0.032782f, \n    -0.072999f, 0.000955f, -0.067188f, 0.023887f, 0.016298f, -0.037180f, 0.084941f, 0.037270f, -0.054840f, 0.080713f, \n    -0.065967f, 0.020951f, 0.093125f, -0.094285f, -0.084496f, 0.002784f, -0.003942f, -0.006676f, -0.032065f, -0.017783f, \n    0.051836f, 0.035094f, -0.081125f, 0.016256f, 0.033730f, -0.069473f, -0.036342f, -0.047894f, -0.055659f, 0.063262f, \n    -0.093890f, -0.059179f, 0.077041f, -0.090306f, 0.033374f, 0.006825f, 0.017681f, 0.061387f, -0.000489f, -0.080343f, \n    -0.041529f, -0.040552f, -0.037646f, -0.065033f, 0.002752f, -0.070575f, 0.076165f, 0.039038f, -0.066497f, 0.061309f, \n    0.033395f, -0.017491f, 0.064801f, 0.044847f, 0.038049f, 0.026007f, -0.100976f, 0.006887f, 0.064050f, 0.019585f, \n    0.001978f, -0.057364f, -0.028927f, -0.070544f, -0.065359f, -0.035348f, 0.030850f, -0.063952f, -0.054413f, 0.024697f, \n    -0.078295f, -0.087165f, -0.017540f, -0.074099f, 0.028210f, 0.075573f, 0.043278f, -0.085813f, -0.052205f, 0.088029f, \n    -0.021094f, 0.009109f, 0.081007f, 0.032723f, 0.017884f, -0.064713f, 0.098502f, 0.089001f, -0.072827f, 0.075839f, \n    -0.094784f, 0.070404f, 0.086804f, -0.064539f, -0.025203f, -0.054951f, 0.008404f, -0.046034f, -0.090950f, -0.021659f, \n    0.100678f, 0.039653f, 0.045094f, 0.047222f, -0.005152f, -0.062186f, -0.033111f, -0.010584f, 0.091439f, -0.003056f, \n    0.029167f, -0.060623f, 0.057719f, 0.019323f, 0.019834f, -0.075631f, -0.001341f, -0.099589f, 0.044296f, -0.068240f, \n    -0.045934f, 0.101276f, -0.101518f, 0.062040f, -0.029484f, 0.007970f, 0.048858f, -0.054982f, 0.084653f, 0.097989f, \n    0.029734f, 0.036450f, 0.087207f, 0.070671f, 0.029205f, 0.064623f, 0.024972f, -0.093239f, -0.061510f, 0.003629f, \n    -0.087799f, 0.099399f, -0.062005f, 0.077172f, 0.005190f, -0.047882f, 0.080312f, -0.090348f, 0.064021f, 0.036882f, \n    -0.047090f, -0.023030f, 0.089432f, 0.041891f, 0.040429f, 0.102003f, -0.093594f, 0.022421f, -0.056475f, -0.082715f, \n    -0.078525f, 0.082428f, 0.002069f, -0.052088f, -0.017192f, 0.034967f, -0.067731f, -0.049720f, -0.063791f, -0.045755f, \n    0.031898f, -0.057926f, 0.003841f, 0.095551f, -0.044488f, 0.055430f, -0.032754f, -0.026223f, 0.016562f, -0.100880f, \n    0.073775f, -0.094197f, 0.017742f, -0.055460f, -0.073910f, 0.031939f, -0.095373f, -0.003103f, -0.014484f, -0.059023f, \n    -0.070386f, -0.069422f, -0.097646f, 0.065458f, -0.007822f, 0.067455f, -0.044285f, 0.016245f, 0.019773f, -0.054653f, \n    0.041393f, 0.096382f, -0.088548f, -0.049652f, 0.036225f, 0.002474f, -0.021077f, -0.020210f, 0.010148f, -0.005888f, \n    -0.075870f, 0.009531f, 0.020304f, -0.085864f, -0.028393f, -0.021918f, -0.026699f, -0.016242f, -0.051382f, -0.017283f, \n    -0.039444f, -0.020756f, -0.082678f, -0.050272f, 0.031221f, 0.085674f, 0.086711f, 0.069644f, -0.060605f, -0.075608f, \n    -0.081154f, -0.062783f, 0.042096f, 0.070491f, -0.086458f, -0.070406f, -0.059579f, 0.009671f, -0.093140f, -0.064809f, \n    -0.003733f, -0.019094f, -0.038318f, -0.073954f, 0.039659f, -0.023491f, 0.043180f, -0.086366f, 0.009184f, -0.003018f, \n    -0.008456f, 0.045024f, -0.076058f, 0.093947f, -0.003240f, 0.075977f, -0.050217f, 0.021548f, 0.002617f, -0.036676f, \n    -0.064671f, -0.018403f, 0.072474f, -0.049528f, -0.075184f, 0.083004f, -0.003849f, -0.042652f, 0.080291f, 0.069424f, \n    -0.012201f, -0.094892f, 0.094282f, 0.059378f, -0.070223f, 0.071321f, 0.067121f, 0.087983f, -0.034821f, -0.075670f, \n    -0.035252f, 0.011495f, 0.045371f, -0.058568f, -0.101907f, -0.025753f, 0.079303f, 0.036066f, 0.077421f, -0.084884f, \n    -0.001862f, -0.088390f, -0.069421f, -0.075316f, -0.050028f, -0.026220f, -0.004548f, 0.089884f, -0.099183f, -0.076992f, \n    -0.028540f, -0.023143f, 0.057932f, -0.052376f, 0.063239f, -0.034813f, 0.053132f, 0.058437f, -0.034682f, 0.051570f, \n    0.067637f, -0.005485f, 0.080218f, 0.017160f, -0.040095f, 0.084592f, -0.030052f, 0.027456f, -0.093544f, 0.001839f, \n    -0.030316f, 0.085772f, 0.030224f, 0.099491f, 0.064601f, 0.024918f, 0.079557f, 0.039720f, -0.061295f, -0.085072f, \n    0.052954f, 0.010222f, -0.043014f, -0.014322f, 0.027513f, -0.041428f, -0.087588f, 0.057266f, -0.099624f, -0.088668f, \n    -0.016337f, -0.031739f, 0.093817f, 0.056623f, 0.091051f, 0.083350f, 0.045528f, 0.064546f, 0.065287f, -0.018825f, \n    0.058556f, -0.095921f, -0.043217f, 0.086760f, 0.012614f, 0.063636f, 0.052863f, 0.007456f, -0.019923f, 0.056936f, \n    0.028551f, -0.047966f, -0.087800f, 0.051344f, -0.077938f, 0.052838f, 0.034535f, -0.022253f, -0.097306f, 0.079914f, \n    0.089620f, 0.010828f, -0.058063f, 0.089866f, 0.042887f, -0.061151f, -0.064226f, -0.022202f, 0.019862f, -0.074556f, \n    0.088496f, -0.013902f, 0.068026f, 0.070278f, -0.087509f, -0.010254f, 0.007922f, -0.092552f, 0.046152f, 0.083649f, \n    -0.034476f, 0.015534f, 0.008154f, -0.059580f, -0.059471f, -0.066277f, 0.099350f, 0.038519f, -0.001105f, 0.022065f, \n    0.100269f, -0.084215f, 0.068166f, 0.070542f, 0.050054f, 0.054443f, -0.043849f, -0.006035f, 0.012215f, -0.054000f, \n    -0.019889f, -0.086610f, -0.020982f, -0.086756f, -0.017158f, 0.074678f, 0.072906f, 0.026150f, 0.022075f, 0.075457f, \n    -0.078038f, -0.004970f, -0.040106f, 0.021295f, -0.021837f, -0.016072f, -0.044690f, 0.011801f, 0.084351f, -0.014666f, \n    0.000397f, -0.034953f, 0.094861f, -0.080513f, -0.029590f, -0.073511f, 0.001958f, 0.078521f, 0.040363f, 0.085827f, \n    -0.101813f, -0.016034f, -0.053162f, -0.026844f, -0.042299f, -0.082719f, -0.004925f, -0.095638f, -0.033486f, -0.032190f, \n    0.046426f, 0.020090f, -0.013289f, -0.022001f, 0.084034f, 0.075580f, 0.020829f, -0.100641f, 0.013082f, -0.024045f, \n    -0.101786f, 0.006395f, -0.044122f, 0.075819f, -0.014804f, -0.091175f, 0.050504f, 0.019937f, -0.083212f, 0.041281f, \n    -0.044122f, -0.056686f, -0.037113f, -0.018580f, 0.097222f, 0.087951f, -0.061570f, -0.019221f, 0.088428f, -0.088656f, \n    -0.035259f, 0.071043f, 0.096956f, -0.050872f, 0.007629f, -0.064435f, 0.014316f, -0.004467f, -0.030793f, 0.072861f, \n    -0.012699f, -0.052250f, -0.024947f, -0.089736f, -0.065707f, -0.075387f, -0.024008f, -0.081407f, -0.045291f, -0.037872f, \n    -0.020885f, -0.092098f, 0.080302f, 0.100866f, -0.034363f, 0.087679f, 0.043625f, -0.066508f, -0.027089f, -0.067419f, \n    0.086351f, -0.024205f, 0.004283f, 0.059717f, 0.092023f, -0.048706f, -0.073443f, -0.083583f, -0.081499f, -0.001971f, \n    0.015938f, -0.081473f, 0.089234f, 0.055678f, -0.051319f, 0.074422f, -0.049924f, -0.029437f, -0.036130f, 0.077273f, \n    0.046941f, -0.084653f, 0.100787f, -0.026100f, -0.024862f, 0.010351f, -0.037371f, -0.091098f, 0.051472f, -0.070443f, \n    -0.036932f, 0.020983f, -0.025678f, -0.101326f, 0.092940f, 0.072298f, -0.007036f, 0.013342f, -0.000405f, -0.049255f, \n    -0.029076f, 0.004415f, -0.008177f, -0.041281f, -0.039788f, 0.083591f, -0.014995f, 0.038187f, 0.091274f, 0.041612f, \n    0.039105f, -0.070001f, 0.026294f, 0.064566f, -0.100607f, 0.006649f, 0.091818f, 0.017642f, -0.043353f, -0.080625f, \n    0.087526f, -0.080713f, 0.012457f, -0.030935f, -0.039521f, 0.077458f, 0.075797f, 0.074825f, 0.040695f, 0.055532f, \n    -0.082627f, 0.023163f, 0.004527f, 0.049148f, -0.033091f, -0.059799f, -0.071643f, 0.054961f, 0.008330f, 0.025850f, \n    -0.016001f, -0.036197f, 0.100324f, -0.017099f, 0.057704f, -0.035506f, -0.042525f, -0.051318f, -0.028561f, -0.083797f, \n    -0.036459f, -0.070162f, 0.012922f, -0.020263f, 0.092887f, -0.099696f, -0.034443f, -0.024045f, 0.003086f, -0.039424f, \n    -0.063155f, 0.056743f, -0.047737f, -0.011467f, -0.046412f, -0.068870f, 0.038536f, 0.036264f, -0.055724f, -0.063027f, \n    0.022607f, -0.046576f, -0.012673f, -0.093428f, -0.049034f, -0.052092f, -0.098907f, -0.041179f, -0.067791f, -0.013225f, \n    -0.025088f, 0.047506f, -0.079571f, -0.012872f, 0.053326f, -0.009765f, -0.093645f, 0.069389f, -0.056699f, -0.056983f, \n    -0.059357f, 0.070521f, -0.009654f, -0.065329f, -0.064259f, -0.099184f, -0.064138f, -0.080586f, -0.063032f, 0.021843f, \n    -0.081733f, -0.020255f, -0.070595f, -0.097974f, 0.084166f, 0.050379f, -0.101316f, -0.020046f, -0.060865f, 0.037245f, \n    0.040109f, -0.100016f, 0.079045f, -0.013851f, -0.003862f, 0.042980f, 0.082967f, -0.051248f, 0.065215f, -0.016332f, \n    0.097115f, 0.040109f, -0.028542f, -0.049035f, 0.000206f, 0.045720f, -0.092560f, 0.030430f, -0.036067f, 0.075686f, \n    -0.076491f, 0.064206f, -0.032792f, 0.045771f, -0.095425f, -0.047310f, 0.011853f, 0.058812f, 0.024869f, 0.101995f, \n    -0.048757f, -0.004812f, 0.048523f, -0.058622f, 0.089797f, 0.019912f, -0.087676f, 0.051175f, 0.078329f, 0.077913f, \n    -0.018819f, -0.004190f, 0.030223f, 0.007723f, -0.085336f, -0.019742f, -0.001145f, -0.100339f, 0.074958f, -0.043842f, \n    -0.096660f, -0.035206f, 0.047534f, 0.006526f, 0.016805f, 0.001694f, 0.036082f, -0.052861f, 0.059913f, -0.006547f, \n    0.073842f, -0.042907f, 0.084778f, 0.016132f, 0.045818f, -0.098557f, 0.015899f, 0.098907f, -0.074454f, 0.042013f, \n    -0.072953f, -0.042342f, 0.054286f, 0.093584f, 0.055839f, 0.098805f, 0.031827f, 0.058623f, -0.052479f, -0.024470f, \n    -0.047013f, -0.014954f, -0.053956f, 0.011886f, -0.038650f, 0.047791f, -0.087079f, 0.017565f, -0.051652f, -0.047555f, \n    0.062568f, -0.084379f, -0.043864f, 0.059860f, -0.083827f, -0.080195f, -0.027623f, -0.027963f, 0.077480f, -0.052938f, \n    -0.022080f, -0.083839f, 0.099750f, 0.024206f, -0.043962f, -0.046577f, -0.084503f, 0.016646f, 0.037485f, 0.036341f, \n    0.077534f, -0.054076f, 0.037715f, -0.071926f, 0.096367f, 0.079266f, -0.001466f, -0.015907f, 0.028214f, -0.032966f, \n    0.051620f, 0.034314f, 0.018669f, 0.098586f, -0.093044f, -0.011355f, 0.071810f, -0.010991f, 0.097669f, 0.050051f, \n    0.080412f, 0.012889f, 0.052802f, 0.070636f, -0.000118f, -0.096598f, -0.073171f, 0.083093f, 0.055135f, 0.036018f, \n    0.011905f, -0.007892f, 0.076417f, -0.002497f, -0.012509f, -0.090771f, -0.020604f, -0.071747f, 0.037003f, -0.061078f, \n    -0.098272f, 0.051701f, 0.001167f, -0.045684f, -0.048913f, -0.002180f, -0.079658f, -0.091185f, -0.084229f, -0.011873f, \n    -0.070853f, -0.059009f, -0.028315f, -0.081757f, -0.000311f, -0.065982f, -0.022256f, -0.016831f, -0.050112f, 0.077126f, \n    -0.098289f, -0.088102f, -0.077393f, -0.043189f, 0.066646f, 0.068054f, 0.071446f, -0.065615f, -0.043209f, -0.092894f, \n    0.089849f, -0.002652f, 0.081060f, -0.024802f, 0.086300f, 0.018140f, 0.058611f, -0.071834f, -0.055785f, 0.096592f, \n    0.064580f, 0.038521f, 0.041461f, -0.090510f, -0.070813f, -0.080901f, 0.030864f, -0.086407f, 0.065601f, -0.073814f, \n    -0.024740f, -0.008294f, 0.045034f, 0.032310f, 0.026772f, -0.012075f, -0.095817f, -0.047321f, -0.057134f, 0.084809f, \n    -0.046201f, -0.016369f, -0.023384f, 0.020437f, -0.031610f, -0.066035f, 0.053951f, -0.039783f, -0.073408f, -0.031955f, \n    0.000004f, -0.087032f, 0.013936f, -0.084147f, 0.019954f, 0.065637f, 0.064337f, -0.012210f, 0.054355f, -0.092506f, \n    0.079695f, -0.009709f, 0.000285f, -0.028542f, -0.006483f, -0.085804f, 0.028279f, 0.061410f, -0.077882f, 0.012156f, \n    0.051080f, -0.049377f, 0.060897f, -0.065258f, 0.081505f, 0.043235f, 0.088546f, 0.073607f, -0.090116f, 0.078663f, \n    0.058010f, 0.068232f, -0.064372f, 0.076765f, -0.058443f, 0.043230f, 0.005507f, 0.079057f, -0.081333f, 0.066621f, \n    -0.022315f, 0.053344f, 0.034879f, 0.026030f, 0.075313f, 0.013041f, 0.097399f, -0.039310f, -0.036543f, 0.052404f, \n    0.098911f, -0.050296f, 0.054393f, -0.031857f, 0.031666f, 0.067618f, -0.021345f, 0.022437f, 0.064370f, -0.038588f, \n    0.100747f, 0.070853f, -0.005236f, -0.034061f, -0.024100f, -0.009911f, -0.008740f, 0.096912f, 0.033852f, -0.060163f, \n    -0.084557f, 0.093326f, -0.075930f, 0.101908f, -0.082566f, 0.099824f, 0.026064f, -0.080954f, -0.029535f, 0.082128f, \n    0.053165f, 0.100365f, -0.100231f, 0.062248f, -0.082802f, 0.059983f, -0.100613f, -0.052818f, 0.011356f, -0.048893f, \n    -0.047145f, -0.052566f, -0.046802f, 0.067806f, -0.073461f, 0.073209f, -0.045609f, 0.030700f, 0.025939f, -0.054067f, \n    0.002992f, 0.008847f, -0.060318f, -0.077370f, -0.016191f, 0.092937f, -0.046787f, -0.009233f, 0.085461f, -0.025552f, \n    0.069659f, -0.038507f, 0.085696f, -0.025479f, 0.033944f, 0.029840f, -0.016357f, -0.046092f, -0.039777f, 0.010974f, \n    0.009284f, -0.013145f, -0.020615f, 0.042357f, -0.073306f, 0.024369f, 0.003117f, -0.094636f, 0.012991f, 0.030964f, \n    0.054926f, -0.026820f, -0.046558f, -0.065166f, -0.046918f, -0.089078f, 0.049025f, 0.097745f, 0.051657f, 0.086602f, \n    -0.046863f, -0.101921f, -0.093100f, 0.062512f, -0.032024f, -0.043805f, 0.090641f, -0.095145f, 0.068546f, 0.076386f, \n    0.017892f, -0.019836f, 0.020993f, 0.039637f, -0.081736f, 0.076483f, 0.039832f, 0.020843f, 0.049454f, -0.014872f, \n    0.036685f, 0.037533f, -0.020799f, 0.016199f, 0.010090f, 0.038696f, 0.067293f, -0.087006f, 0.072203f, -0.092939f, \n    -0.035006f, 0.014294f, 0.070622f, 0.026805f, 0.067409f, 0.077512f, -0.091092f, -0.042902f, -0.071368f, 0.031547f, \n    0.058152f, 0.052579f, -0.010936f, -0.065931f, 0.024602f, 0.049856f, 0.022862f, -0.039202f, 0.064480f, 0.094287f, \n    0.016076f, 0.064137f, 0.089452f, 0.013540f, 0.092945f, -0.083262f, 0.069945f, 0.031801f, 0.009036f, 0.053626f, \n    0.023984f, -0.011527f, -0.036977f, -0.003034f, -0.003723f, 0.039507f, -0.032172f, 0.007508f, -0.021728f, -0.050038f, \n    -0.016220f, 0.036247f, 0.021789f, -0.085818f, -0.048356f, 0.096655f, 0.048094f, -0.072047f, -0.055747f, -0.027547f, \n    0.067284f, -0.001067f, -0.030616f, 0.041643f, -0.056006f, -0.004664f, -0.009326f, -0.052811f, -0.044146f, 0.042484f, \n    0.039497f, 0.064949f, 0.005603f, 0.009640f, 0.004907f, 0.002396f, -0.095330f, 0.049687f, 0.010517f, 0.052689f, \n    0.013240f, 0.039451f, 0.066492f, -0.005027f, -0.046769f, -0.046771f, 0.019124f, -0.050215f, -0.068749f, 0.067291f, \n    0.053686f, 0.001577f, -0.099185f, -0.097062f, 0.083501f, 0.078997f, 0.094312f, -0.074642f, 0.012709f, -0.029771f, \n    -0.062220f, 0.045193f, -0.080945f, 0.074669f, 0.039775f, 0.039707f, -0.068074f, 0.026333f, 0.030150f, 0.060371f, \n    0.092230f, -0.100219f, 0.087399f, 0.057998f, 0.009508f, 0.013220f, -0.049414f, -0.004779f, 0.054588f, -0.070224f, \n    -0.047223f, -0.091054f, 0.031587f, -0.073340f, -0.026806f, 0.047946f, 0.020170f, -0.092224f, 0.072561f, -0.032476f, \n    0.090795f, -0.043330f, -0.010769f, 0.071566f, 0.050163f, 0.015047f, -0.041259f, -0.048531f, 0.030308f, -0.093532f, \n    0.083940f, 0.087231f, 0.058979f, -0.034191f, 0.065584f, -0.019765f, 0.078158f, 0.057851f, -0.098113f, -0.019755f, \n    0.083360f, -0.031009f, 0.056856f, 0.012406f, -0.083465f, 0.000991f, -0.027455f, -0.077556f, 0.053961f, 0.092923f, \n    -0.046264f, 0.045857f, 0.028673f, 0.078509f, -0.099177f, 0.019710f, -0.039889f, 0.055092f, -0.034531f, -0.011407f, \n    -0.063256f, -0.030372f, -0.024201f, -0.044170f, 0.015192f, 0.020797f, -0.035636f, -0.085893f, -0.050321f, -0.063844f, \n    -0.015816f, 0.079818f, 0.067420f, 0.098208f, 0.094827f, 0.097612f, 0.094765f, -0.089035f, -0.017685f, 0.084059f, \n    0.074456f, -0.029142f, -0.077776f, 0.093481f, 0.060278f, 0.063036f, 0.037872f, -0.081549f, 0.056322f, -0.033532f, \n    0.038162f, 0.011824f, -0.097502f, 0.087535f, 0.094361f, -0.096125f, 0.007561f, -0.071977f, 0.011702f, 0.093215f, \n    -0.088938f, -0.051045f, 0.047463f, -0.002413f, 0.000921f, 0.094513f, 0.078542f, -0.089523f, -0.024148f, -0.003388f, \n    -0.007216f, 0.022034f, -0.041968f, -0.082446f, -0.089172f, -0.031025f, -0.071749f, -0.063904f, 0.058133f, 0.089982f, \n    -0.093919f, -0.100488f, 0.038455f, -0.035790f, -0.053323f, -0.068551f, 0.013210f, -0.036021f, -0.016133f, -0.057605f, \n    -0.087773f, -0.031668f, -0.044139f, -0.063794f, 0.058350f, 0.093695f, -0.031396f, 0.072745f, 0.015062f, -0.062467f, \n    0.007803f, 0.083007f, -0.019436f, -0.094028f, -0.025557f, 0.085751f, 0.045463f, 0.006041f, -0.062896f, 0.009164f, \n    0.073348f, -0.078422f, -0.032508f, -0.007392f, 0.085301f, -0.098461f, 0.035999f, -0.091669f, -0.052109f, -0.039221f, \n    0.067436f, 0.017341f, 0.007003f, -0.020718f, 0.074464f, -0.064389f, -0.020211f, 0.091800f, 0.091520f, 0.069539f, \n    0.011369f, 0.053667f, -0.005295f, -0.017161f, 0.066876f, 0.051185f, 0.001048f, 0.062045f, 0.008364f, 0.097251f, \n    0.093377f, -0.052692f, -0.010382f, -0.081485f, 0.097779f, 0.043983f, -0.004306f, -0.016213f, -0.005535f, -0.051303f, \n    0.093349f, -0.082961f, 0.026257f, -0.018513f, -0.074434f, -0.097240f, 0.097946f, 0.056220f, -0.029550f, -0.024313f, \n    0.054776f, 0.092654f, 0.045173f, 0.006767f, -0.003274f, 0.027679f, 0.007632f, 0.017319f, 0.016560f, -0.034493f, \n    0.086044f, -0.031532f, -0.028168f, -0.065208f, -0.032875f, 0.019068f, -0.045104f, 0.071455f, -0.078753f, -0.010197f, \n    0.095645f, -0.047839f, 0.085087f, 0.034539f, 0.056247f, 0.072389f, 0.082292f, 0.086975f, -0.034733f, 0.033162f, \n    0.042553f, 0.097372f, -0.097243f, -0.099042f, 0.007904f, 0.030933f, 0.098108f, -0.014611f, 0.051010f, 0.070488f, \n    0.020426f, -0.019671f, -0.035159f, -0.093751f, 0.029069f, -0.036704f, 0.033270f, -0.079727f, 0.099047f, -0.029734f, \n    0.080218f, 0.076502f, -0.040052f, 0.088281f, -0.036186f, -0.050017f, 0.012811f, -0.010712f, -0.003960f, -0.057411f, \n    0.092416f, -0.054565f, -0.038538f, -0.077402f, -0.073796f, -0.075449f, 0.004017f, 0.071732f, -0.075472f, -0.009889f, \n    -0.075896f, 0.044648f, -0.096335f, -0.095595f, -0.092536f, -0.074646f, -0.063641f, -0.018651f, 0.003574f, 0.067614f, \n    0.031684f, 0.089010f, 0.014692f, -0.005498f, -0.087790f, 0.037531f, -0.014366f, -0.070801f, -0.052984f, -0.023598f, \n    -0.007203f, 0.060003f, 0.062124f, 0.090453f, 0.089795f, -0.052342f, -0.027562f, -0.059654f, -0.050396f, -0.037427f, \n    0.056292f, 0.006752f, -0.052464f, 0.037980f, 0.026481f, -0.031485f, -0.007413f, -0.071233f, 0.003417f, 0.074771f, \n    0.018126f, -0.004026f, -0.017345f, 0.068586f, -0.019379f, -0.062059f, -0.045837f, -0.060336f, 0.100371f, 0.024047f, \n    -0.033779f, 0.064013f, 0.079376f, 0.096274f, -0.010578f, -0.041542f, -0.004094f, -0.019097f, 0.039069f, 0.012314f, \n    0.033232f, 0.037501f, 0.043909f, 0.051511f, 0.074303f, 0.043617f, -0.045477f, 0.017038f, 0.000494f, -0.045306f, \n    0.028434f, 0.048574f, 0.071739f, 0.099328f, -0.063683f, -0.017020f, -0.015853f, 0.097580f, 0.017861f, -0.076913f, \n    0.023541f, 0.076134f, 0.085177f, -0.059325f, 0.049862f, -0.092511f, 0.042462f, -0.028436f, -0.054169f, -0.022120f, \n    -0.087707f, 0.079151f, -0.029175f, 0.021452f, -0.049950f, -0.011645f, 0.096495f, 0.044884f, 0.020344f, 0.062726f, \n    -0.009073f, -0.082473f, 0.012184f, -0.051502f, 0.020269f, 0.021378f, 0.071992f, 0.092317f, 0.039139f, -0.098677f, \n    0.071286f, 0.036972f, -0.037769f, 0.029398f, -0.024046f, -0.071219f, 0.004961f, 0.101748f, 0.051670f, 0.012055f, \n    0.004000f, -0.060376f, -0.048172f, -0.006681f, 0.069654f, -0.089224f, 0.000736f, 0.066030f, -0.040927f, 0.012699f, \n    -0.023065f, -0.007660f, 0.021484f, 0.047488f, 0.018506f, -0.001714f, -0.078925f, 0.089505f, -0.083096f, 0.017089f, \n    -0.027959f, 0.002103f, -0.073368f, 0.080058f, -0.029696f, -0.090507f, 0.081948f, -0.076385f, -0.078752f, 0.067832f, \n    0.081566f, -0.013451f, -0.032724f, -0.087883f, -0.045858f, -0.082360f, 0.084371f, 0.069874f, -0.021866f, 0.084668f, \n    0.014349f, 0.008533f, -0.002510f, 0.027762f, 0.090373f, 0.006565f, 0.030773f, -0.003506f, -0.067599f, 0.031280f, \n    0.065857f, 0.040937f, 0.026263f, 0.037108f, 0.026996f, 0.095666f, -0.093677f, 0.003822f, 0.038954f, -0.032590f, \n    0.093135f, -0.101230f, -0.086221f, -0.028940f, -0.032082f, 0.100383f, -0.061603f, 0.076595f, 0.033819f, 0.098854f, \n    -0.071347f, 0.092504f, -0.088521f, -0.053578f, 0.074034f, 0.040878f, -0.032524f, -0.100122f, -0.042203f, -0.098959f, \n    0.054008f, -0.036934f, -0.092421f, -0.054848f, -0.058443f, 0.000643f, 0.042016f, -0.040810f, 0.000241f, 0.003474f, \n    -0.007878f, -0.039650f, 0.033085f, -0.049112f, 0.018687f, -0.045870f, 0.041657f, 0.061879f, 0.041846f, -0.002140f, \n    -0.045405f, -0.035658f, -0.026230f, 0.005870f, 0.088431f, -0.030974f, 0.021147f, -0.034369f, -0.064295f, -0.028369f, \n    -0.092927f, -0.054616f, 0.079622f, 0.071428f, 0.051782f, -0.018208f, -0.007773f, 0.062754f, 0.048425f, -0.021153f, \n    0.038521f, -0.087288f, 0.021324f, -0.043957f, -0.082772f, -0.051040f, 0.068595f, 0.065014f, -0.017262f, 0.001877f, \n    0.017338f, 0.060584f, 0.056354f, 0.011046f, -0.076104f, 0.058640f, -0.032304f, 0.031626f, 0.079489f, -0.089176f, \n    0.019187f, -0.017154f, 0.091367f, 0.056044f, -0.042833f, -0.047494f, 0.057351f, 0.041422f, 0.006974f, -0.040640f, \n    0.002835f, 0.013306f, 0.063008f, -0.091228f, -0.087554f, 0.087527f, 0.080450f, -0.003933f, -0.086662f, -0.023134f, \n    0.039252f, 0.053910f, 0.047572f, -0.056186f, 0.004125f, 0.083544f, 0.002257f, 0.101398f, -0.089398f, 0.075998f, \n    -0.028276f, 0.076744f, 0.019527f, -0.053841f, 0.088644f, 0.053564f, -0.062261f, 0.037350f, 0.004600f, 0.069579f, \n    0.036157f, -0.012652f, 0.063728f, -0.023756f, 0.059431f, -0.011332f, 0.071811f, 0.031341f, 0.025494f, -0.093791f, \n    0.082597f, 0.000974f, -0.024303f, 0.034545f, -0.088084f, -0.038153f, -0.046688f, 0.039089f, -0.007181f, -0.072521f, \n    -0.075569f, 0.027509f, 0.007321f, 0.054801f, 0.057201f, -0.062065f, 0.050203f, -0.017997f, 0.054241f, 0.068663f, \n    0.018001f, -0.070249f, 0.082299f, 0.064739f, 0.097660f, 0.074761f, -0.098284f, -0.023051f, -0.004937f, -0.020769f, \n    0.005497f, -0.100510f, 0.018752f, -0.047458f, 0.013087f, -0.034412f, -0.097623f, 0.059947f, -0.032219f, 0.035502f, \n    0.079840f, 0.074285f, 0.022628f, -0.091140f, -0.052851f, 0.003549f, 0.070164f, -0.022586f, 0.022030f, 0.002772f, \n    0.073141f, 0.055877f, -0.002061f, -0.049381f, 0.025984f, -0.045968f, 0.002306f, -0.029364f, -0.046828f, 0.006499f, \n    -0.045220f, -0.093420f, -0.082006f, 0.023479f, 0.091522f, 0.044332f, -0.032459f, 0.010862f, -0.090067f, -0.050384f, \n    -0.086329f, -0.075083f, 0.068759f, 0.075502f, -0.071846f, -0.052760f, 0.086487f, -0.095457f, 0.026168f, 0.000154f, \n    0.037854f, 0.080826f, 0.012443f, 0.066624f, 0.080033f, 0.030301f, 0.073912f, 0.057974f, 0.054357f, 0.090341f, \n    -0.012918f, 0.076515f, 0.029413f, 0.073060f, 0.093134f, 0.077720f, 0.011868f, 0.057090f, 0.009371f, -0.087153f, \n    0.026113f, 0.011611f, 0.062016f, -0.008174f, -0.080309f, 0.055250f, 0.027294f, 0.016426f, -0.019969f, -0.100937f, \n    0.047966f, -0.026817f, -0.009468f, -0.000418f, -0.018246f, 0.074509f, 0.048590f, 0.097664f, 0.026062f, -0.034043f, \n    0.030880f, -0.042746f, -0.072566f, -0.028528f, -0.044687f, -0.043919f, 0.015979f, -0.089787f, 0.034628f, 0.011424f, \n    -0.022212f, 0.059357f, 0.036829f, -0.045360f, -0.057175f, -0.054074f, 0.015932f, 0.055493f, -0.004640f, -0.058301f, \n    0.011655f, -0.082204f, 0.008328f, 0.010835f, 0.004199f, -0.087961f, 0.101106f, -0.003462f, -0.025949f, -0.065039f, \n    -0.083723f, 0.077368f, -0.083470f, 0.057112f, 0.059569f, 0.014801f, -0.018638f, 0.098789f, -0.010438f, -0.099185f, \n    0.020178f, 0.000936f, 0.073106f, -0.095993f, 0.090432f, 0.088954f, -0.045402f, -0.098476f, -0.067000f, 0.086592f, \n    -0.055084f, -0.024854f, 0.099522f, 0.037584f, 0.040406f, -0.050744f, 0.058215f, 0.024105f, -0.040821f, 0.044653f, \n    0.084463f, -0.100575f, 0.094048f, -0.089096f, 0.012251f, -0.038077f, -0.069204f, 0.046679f, 0.014373f, 0.048395f, \n    -0.034857f, 0.085572f, -0.009933f, 0.065061f, -0.090616f, 0.077163f, 0.010679f, -0.080761f, -0.093481f, 0.001525f, \n    0.068434f, 0.027874f, 0.019845f, -0.088577f, -0.086750f, 0.085562f, 0.026469f, -0.090789f, -0.096688f, -0.044840f, \n    -0.061797f, 0.072569f, -0.092119f, 0.052479f, -0.091550f, 0.055314f, -0.013957f, 0.043902f, 0.001595f, -0.062017f, \n    0.087744f, -0.026568f, -0.079336f, -0.088927f, -0.083397f, -0.093515f, -0.047728f, 0.021734f, -0.067911f, 0.098470f, \n    0.031452f, 0.076889f, 0.095587f, -0.094286f, 0.059324f, -0.032977f, -0.058621f, 0.042723f, -0.051526f, 0.057156f, \n    0.032658f, 0.049023f, -0.016722f, -0.007894f, -0.030478f, 0.034165f, 0.090542f, -0.034108f, 0.077933f, -0.065786f, \n    -0.054273f, 0.019707f, 0.075484f, -0.013490f, 0.068683f, -0.081605f, 0.008273f, 0.013120f, -0.014626f, -0.038321f, \n    0.006491f, -0.018881f, -0.006187f, 0.014528f, 0.078129f, -0.048586f, -0.015185f, -0.034099f, -0.036731f, 0.014206f, \n    0.036375f, -0.050288f, 0.063575f, -0.020753f, -0.032125f, -0.039125f, 0.015523f, -0.034189f, 0.098328f, -0.101660f, \n    0.089124f, -0.041128f, 0.033691f, 0.019569f, -0.024854f, -0.092605f, -0.019090f, -0.037440f, -0.040240f, -0.095951f, \n    0.074955f, -0.052714f, -0.003413f, 0.032049f, -0.085010f, -0.096151f, 0.013454f, 0.086633f, 0.012171f, -0.041269f, \n    -0.088092f, 0.039506f, 0.029161f, 0.032317f, -0.072190f, -0.101285f, 0.024871f, -0.080566f, -0.094971f, -0.005463f, \n    -0.100107f, 0.020507f, 0.067444f, -0.059747f, 0.011844f, 0.045452f, 0.047846f, -0.064758f, 0.035744f, -0.041989f, \n    -0.094932f, 0.048979f, -0.075570f, -0.056842f, 0.007451f, 0.033211f, 0.024610f, -0.004528f, -0.085127f, -0.066477f, \n    0.048117f, -0.099914f, -0.049954f, -0.086950f, -0.029809f, 0.035470f, 0.017462f, -0.101157f, -0.086242f, 0.028562f, \n    -0.037976f, 0.060847f, -0.094694f, -0.035872f, -0.083390f, -0.035983f, 0.002763f, -0.000885f, 0.062138f, -0.088653f, \n    -0.026013f, -0.063938f, 0.003681f, -0.096231f, -0.074650f, 0.018609f, 0.092244f, 0.051758f, -0.005476f, -0.049090f, \n    0.038330f, 0.058297f, 0.004634f, 0.015319f, 0.020239f, -0.059841f, -0.083331f, 0.037317f, 0.062101f, 0.061902f, \n    0.021973f, 0.031287f, -0.041792f, -0.069377f, 0.079060f, -0.079370f, 0.092794f, 0.077591f, 0.087846f, 0.096544f, \n    0.048068f, -0.036460f, 0.054833f, -0.099085f, 0.078852f, -0.094502f, -0.047812f, 0.084351f, -0.087275f, -0.068641f, \n    -0.096802f, -0.033553f, -0.008953f, -0.066886f, 0.033204f, -0.071047f, 0.024721f, 0.036058f, 0.102038f, -0.025936f, \n    0.031177f, 0.061931f, -0.004143f, -0.075374f, 0.032026f, -0.021313f, 0.024941f, 0.052606f, -0.046924f, 0.006892f, \n    -0.038026f, -0.055003f, 0.046300f, 0.036933f, -0.074526f, 0.081980f, -0.038845f, 0.045718f, -0.049886f, 0.088142f, \n    0.089290f, 0.047144f, 0.037365f, -0.081091f, -0.035437f, -0.020593f, 0.003320f, -0.033808f, -0.025682f, 0.084322f, \n    -0.043986f, 0.011021f, -0.062570f, -0.011494f, 0.022050f, 0.078178f, -0.004117f, 0.099858f, -0.044011f, 0.088533f, \n    -0.087553f, -0.012109f, 0.053568f, 0.089366f, 0.079387f, -0.088931f, -0.035665f, -0.076128f, 0.100726f, -0.087121f, \n    0.098412f, -0.003476f, -0.088013f, 0.089667f, 0.101362f, -0.022614f, -0.101180f, -0.100706f, -0.091850f, -0.060396f, \n    0.099243f, -0.080550f, -0.097281f, 0.064219f, -0.059373f, -0.008650f, -0.048403f, 0.039678f, -0.089547f, 0.081950f, \n    -0.049048f, -0.081754f, 0.083189f, -0.077456f, -0.000842f, -0.041098f, 0.003533f, -0.025722f, 0.059475f, -0.074254f, \n    -0.006863f, 0.027368f, 0.002901f, 0.097383f, 0.025191f, 0.073404f, -0.091290f, 0.032502f, 0.066051f, -0.013191f, \n    0.069118f, 0.050807f, 0.097048f, -0.050225f, 0.016889f, -0.028402f, 0.082128f, 0.082740f, -0.060519f, -0.081694f, \n    -0.008860f, 0.006690f, 0.047046f, 0.077737f, 0.001846f, 0.096631f, 0.010885f, 0.000200f, 0.089312f, -0.083659f, \n    0.087154f, 0.036310f, 0.060657f, 0.031437f, 0.048383f, -0.003224f, -0.079604f, -0.002394f, -0.002042f, 0.025703f, \n    0.048869f, 0.091955f, 0.069943f, 0.044502f, -0.076662f, -0.031553f, -0.027534f, 0.003145f, 0.078429f, -0.027180f, \n    -0.048409f, -0.046540f, 0.059259f, 0.070145f, -0.020590f, -0.024651f, 0.068048f, -0.012053f, -0.035171f, -0.063073f, \n    0.037570f, -0.077202f, -0.078158f, 0.058303f, 0.074631f, 0.067151f, 0.034496f, 0.077196f, 0.003008f, 0.077325f, \n    -0.041968f, -0.070834f, 0.074157f, -0.006769f, -0.008931f, -0.096390f, 0.004708f, -0.088503f, 0.051876f, -0.008109f, \n    -0.017216f, 0.094082f, -0.060468f, -0.068362f, 0.029164f, -0.025158f, -0.050239f, -0.011608f, 0.009845f, -0.096355f, \n    -0.069027f, 0.074416f, 0.033005f, -0.085477f, -0.076519f, 0.056238f, -0.092970f, -0.030073f, -0.055604f, -0.012813f, \n    -0.011000f, -0.025799f, -0.091351f, 0.061354f, -0.000194f, -0.010323f, -0.015461f, -0.056149f, -0.023719f, -0.011010f, \n    0.100703f, 0.089847f, -0.045626f, 0.030046f, 0.078065f, 0.004358f, -0.038167f, -0.020090f, -0.038188f, 0.056272f, \n    0.057057f, -0.021271f, 0.028384f, 0.079266f, -0.014747f, -0.059059f, 0.042282f, 0.085383f, -0.009926f, 0.088030f, \n    -0.060957f, -0.009850f, -0.088939f, 0.043646f, 0.035086f, -0.053344f, -0.045860f, 0.053517f, 0.015308f, -0.069490f, \n    -0.098957f, 0.088366f, 0.004837f, -0.025986f, 0.036874f, 0.029420f, -0.064676f, 0.077906f, -0.058935f, 0.080309f, \n    0.025393f, -0.036949f, 0.006987f, -0.056066f, -0.075596f, -0.013229f, 0.076034f, 0.097576f, 0.008824f, -0.090566f, \n    -0.078691f, -0.070693f, 0.033556f, 0.051401f, 0.101614f, -0.013137f, 0.059872f, -0.064579f, -0.007243f, -0.099703f, \n    -0.096208f, 0.073033f, -0.097809f, -0.093781f, 0.087083f, 0.060444f, -0.016962f, -0.016828f, -0.048446f, -0.039298f, \n    0.029115f, -0.025820f, -0.006122f, 0.085159f, -0.003670f, -0.026455f, 0.096315f, -0.025500f, -0.018090f, 0.054547f, \n    0.053630f, -0.062660f, 0.024948f, -0.056559f, -0.017463f, -0.014063f, 0.008850f, 0.076610f, 0.088819f, 0.019703f, \n    -0.000344f, 0.027965f, 0.034764f, -0.011242f, 0.010467f, -0.034844f, 0.085061f, 0.079686f, -0.046959f, 0.050201f, \n    -0.099444f, -0.099324f, -0.055239f, -0.040868f, -0.054767f, 0.054753f, -0.011010f, 0.013794f, 0.080015f, 0.062805f, \n    0.002113f, 0.099577f, 0.026172f, -0.034469f, -0.052214f, -0.072947f, -0.073049f, -0.007602f, 0.001285f, -0.066512f, \n    -0.059221f, -0.047655f, -0.028739f, 0.088872f, -0.044511f, -0.098484f, 0.007988f, 0.036405f, 0.092853f, -0.045715f, \n    -0.090117f, -0.092866f, -0.021887f, -0.085054f, 0.017557f, 0.097654f, 0.075971f, 0.067349f, -0.068245f, -0.052219f, \n    -0.066797f, 0.001280f, -0.073250f, 0.025547f, 0.061711f, 0.064565f, -0.090606f, -0.070938f, -0.092308f, 0.074468f, \n    -0.078479f, 0.021047f, 0.011550f, 0.073399f, -0.015773f, -0.081574f, 0.083258f, -0.096243f, 0.023259f, 0.030898f, \n    -0.063255f, 0.044264f, -0.029693f, 0.071159f, -0.084726f, -0.016637f, -0.083478f, -0.059198f, -0.101646f, 0.023129f, \n    0.040255f, 0.095358f, -0.084104f, -0.071448f, -0.054545f, -0.070227f, 0.042691f, 0.042190f, -0.079336f, -0.058558f, \n    0.045711f, -0.003005f, -0.071584f, 0.020845f, -0.091726f, -0.021062f, 0.089169f, 0.025325f, 0.068490f, 0.037205f, \n    0.000350f, 0.069158f, -0.082829f, -0.014880f, 0.045709f, 0.087143f, -0.008781f, -0.036893f, 0.083942f, -0.056933f, \n    -0.058685f, 0.088432f, 0.066704f, -0.091607f, -0.068307f, 0.059305f, -0.089566f, 0.075316f, -0.063567f, -0.051097f, \n    0.026258f, -0.047868f, -0.080159f, 0.053534f, 0.003955f, 0.015389f, 0.000980f, -0.057501f, 0.058082f, -0.080054f, \n    -0.078138f, -0.089186f, 0.038227f, -0.088126f, -0.079937f, -0.018342f, 0.082142f, -0.007738f, 0.084591f, -0.060873f, \n    -0.061736f, 0.094606f, -0.012025f, -0.088064f, -0.100072f, 0.042013f, -0.059962f, 0.079186f, 0.036836f, -0.004301f, \n    0.047710f, -0.069223f, -0.056658f, -0.087516f, 0.088128f, 0.026020f, 0.037722f, 0.013842f, -0.043047f, 0.014828f, \n    -0.087341f, -0.094681f, -0.075101f, -0.086148f, -0.032830f, -0.063684f, -0.052373f, 0.008254f, -0.051727f, -0.072225f, \n    0.025587f, 0.062034f, -0.015136f, 0.045339f, 0.040115f, 0.025117f, -0.063498f, -0.016321f, 0.070030f, -0.057336f, \n    0.101152f, 0.038456f, 0.040154f, 0.054665f, 0.018661f, 0.084057f, -0.089046f, -0.024657f, -0.005385f, 0.064070f, \n    0.007993f, -0.070146f, 0.042867f, 0.083183f, 0.060542f, -0.049202f, -0.078309f, -0.099077f, -0.070680f, 0.038838f, \n    -0.017896f, -0.062887f, -0.006127f, -0.009130f, -0.097308f, 0.005053f, -0.092923f, 0.087948f, -0.090691f, 0.004204f, \n    -0.029388f, -0.004519f, -0.091321f, 0.012864f, -0.012011f, -0.036731f, -0.101253f, 0.009060f, 0.029919f, -0.022847f, \n    -0.009437f, 0.075188f, -0.061323f, 0.063703f, 0.027719f, 0.097219f, 0.054090f, 0.027214f, 0.099876f, -0.098887f, \n    0.044986f, 0.017457f, -0.058313f, -0.004288f, -0.056958f, -0.011974f, -0.046706f, 0.022682f, 0.060473f, -0.076244f, \n    -0.009078f, -0.006998f, -0.090819f, 0.092131f, 0.088158f, 0.026993f, 0.079048f, -0.067376f, 0.078557f, 0.097252f, \n    -0.051540f, 0.065334f, 0.078648f, -0.080608f, 0.051191f, 0.090800f, -0.062186f, -0.032610f, -0.063533f, -0.029155f, \n    0.052348f, -0.089683f, -0.011426f, 0.080224f, -0.101054f, -0.045075f, -0.040929f, 0.064995f, -0.061299f, -0.074720f, \n    -0.095022f, 0.018320f, -0.029809f, -0.053060f, 0.044557f, -0.018477f, -0.094252f, 0.043581f, -0.099085f, 0.020393f, \n    0.045122f, 0.052094f, -0.015488f, -0.048179f, -0.044530f, 0.005792f, 0.098773f, -0.099272f, 0.096990f, 0.021381f, \n    0.046747f, 0.056116f, 0.093313f, 0.059114f, 0.035691f, 0.090544f, 0.089361f, 0.025285f, -0.048764f, 0.024064f, \n    0.088404f, 0.080819f, 0.057062f, 0.026336f, -0.088686f, -0.027619f, -0.011148f, 0.086447f, 0.017936f, -0.073552f, \n    -0.040752f, 0.040617f, -0.070693f, -0.044711f, -0.053153f, -0.043936f, 0.066696f, 0.046575f, 0.059953f, -0.027571f, \n    0.029309f, 0.034712f, -0.028822f, 0.019852f, -0.076514f, -0.024646f, 0.064124f, -0.021314f, 0.080800f, -0.045615f, \n    0.069745f, -0.100236f, 0.009414f, 0.040758f, 0.015347f, -0.029487f, 0.037985f, -0.062210f, 0.006036f, 0.025749f, \n    -0.092780f, 0.072605f, -0.081583f, -0.099117f, -0.057738f, 0.066396f, 0.071216f, 0.086699f, 0.060427f, 0.054179f, \n    -0.033168f, 0.092102f, -0.042556f, -0.040872f, 0.022499f, -0.091415f, -0.061169f, -0.042175f, -0.003068f, -0.073338f, \n    -0.004374f, -0.070093f, 0.056375f, -0.001633f, 0.064603f, -0.027641f, 0.034780f, -0.098813f, -0.051061f, -0.000822f, \n    0.083291f, 0.049558f, -0.004409f, 0.011056f, 0.003074f, -0.013820f, 0.059125f, -0.002240f, -0.056282f, -0.002981f, \n    0.040498f, 0.023414f, -0.093964f, -0.038228f, -0.047596f, -0.091291f, 0.054051f, -0.022479f, 0.024394f, 0.034039f, \n    -0.071938f, 0.101059f, -0.027052f, 0.020722f, 0.036977f, -0.061993f, -0.037906f, -0.075623f, -0.052910f, -0.078211f, \n    0.003841f, -0.062644f, 0.059618f, 0.083034f, 0.006260f, 0.050004f, 0.082889f, -0.018963f, -0.034569f, 0.042978f, \n    0.088680f, -0.067619f, -0.026229f, 0.065263f, 0.005502f, -0.048238f, -0.037269f, 0.005273f, -0.013215f, -0.051323f, \n    -0.084468f, 0.033134f, 0.085842f, -0.068369f, 0.072790f, -0.058583f, -0.078522f, -0.093337f, -0.086391f, 0.023040f, \n    0.051080f, -0.052257f, 0.049039f, -0.057039f, 0.026385f, -0.028030f, -0.009850f, 0.083463f, -0.045597f, 0.040153f, \n    0.007057f, 0.049895f, -0.026049f, 0.024222f, 0.041782f, 0.064802f, 0.041863f, 0.077486f, 0.047384f, -0.019720f, \n    0.062407f, -0.033349f, -0.083997f, 0.099073f, -0.005340f, -0.009420f, -0.011693f, -0.074394f, 0.038433f, 0.025085f, \n    0.029720f, -0.036462f, -0.091869f, -0.011363f, 0.074901f, 0.051110f, -0.096867f, 0.008169f, 0.076898f, 0.078991f, \n    -0.045447f, -0.046298f, -0.038702f, 0.038229f, -0.012447f, 0.071619f, -0.001994f, -0.088828f, 0.051118f, 0.030649f, \n    0.062841f, -0.050520f, -0.026723f, 0.070548f, -0.069950f, 0.025409f, -0.045813f, -0.072340f, 0.021623f, 0.040141f, \n    -0.092644f, -0.007211f, 0.086368f, -0.021241f, 0.002367f, -0.065753f, -0.082069f, -0.007524f, -0.030608f, 0.063234f, \n    0.041917f, 0.077339f, 0.082890f, -0.036601f, 0.038347f, 0.085438f, 0.008217f, 0.089105f, 0.059187f, -0.034857f, \n    -0.023294f, -0.021439f, -0.014837f, 0.079667f, -0.030622f, -0.015320f, -0.025878f, -0.092833f, 0.098105f, -0.042420f, \n    -0.081688f, -0.095995f, -0.042429f, 0.046745f, 0.095269f, 0.044456f, -0.058172f, 0.032431f, 0.063173f, 0.098604f, \n    0.076975f, 0.069547f, -0.085227f, 0.056212f, -0.085233f, 0.018322f, 0.063989f, -0.003368f, -0.024053f, -0.007300f, \n    0.035202f, -0.098977f, 0.042044f, -0.050680f, -0.020110f, 0.093747f, 0.088406f, 0.077721f, 0.020860f, 0.064074f, \n    -0.076205f, 0.100024f, 0.010728f, -0.008585f, 0.068224f, -0.068884f, -0.050049f, -0.058154f, -0.094059f, -0.054873f, \n    -0.076428f, -0.033701f, 0.087738f, -0.060036f, 0.026644f, -0.002003f, 0.078788f, 0.074329f, 0.041738f, -0.073682f, \n    0.045357f, 0.032835f, -0.082511f, 0.091208f, -0.034072f, 0.015850f, 0.050860f, 0.090036f, -0.051399f, -0.025873f, \n    0.060269f, -0.071635f, -0.020745f, -0.001118f, 0.063906f, -0.078439f, 0.010946f, -0.004562f, -0.078271f, 0.080667f, \n    0.023627f, -0.083315f, -0.082193f, -0.088825f, 0.045920f, -0.018158f, 0.041960f, 0.079113f, 0.000537f, -0.084740f, \n    0.082618f, 0.012502f, 0.073233f, 0.032650f, 0.070341f, 0.018415f, 0.002104f, 0.078026f, -0.072782f, -0.041924f, \n    0.089867f, 0.077497f, 0.066942f, 0.090345f, -0.065325f, -0.048463f, 0.070929f, 0.003145f, -0.072937f, 0.100011f, \n    0.054294f, -0.002037f, -0.044926f, 0.016890f, 0.090650f, 0.009118f, -0.014354f, -0.014100f, -0.046758f, 0.023083f, \n    -0.000453f, -0.053529f, 0.011200f, -0.058806f, 0.060241f, -0.041649f, 0.097419f, -0.045432f, -0.018811f, 0.006073f, \n    -0.084775f, 0.008629f, 0.095766f, 0.058419f, -0.020309f, 0.092105f, 0.035360f, -0.053280f, 0.089535f, -0.018291f, \n    -0.090439f, 0.073072f, -0.076021f, 0.075706f, 0.054937f, -0.059156f, 0.020618f, 0.084441f, 0.025594f, 0.032121f, \n    -0.019424f, -0.072100f, -0.033380f, 0.059968f, -0.046673f, -0.065329f, 0.055941f, 0.019192f, -0.076135f, 0.069083f, \n    0.066945f, -0.010945f, 0.084118f, -0.023748f, -0.079892f, 0.084498f, -0.068700f, -0.008956f, 0.078217f, -0.063744f, \n    0.009710f, -0.008351f, 0.026762f, -0.039908f, 0.022668f, 0.043732f, 0.043343f, -0.070781f, 0.020866f, 0.026840f, \n    0.043315f, -0.037744f, -0.032879f, 0.016544f, -0.054708f, 0.080723f, 0.100960f, 0.024826f, -0.054311f, -0.021983f, \n    0.056473f, -0.081356f, 0.017090f, 0.032848f, 0.012165f, -0.058499f, -0.036040f, 0.027473f, 0.011924f, 0.040837f, \n    -0.003024f, -0.085665f, -0.081187f, 0.028033f, 0.067841f, -0.034848f, -0.033690f, 0.009299f, 0.083943f, -0.075775f, \n    -0.046710f, 0.094298f, -0.096662f, -0.002198f, 0.037004f, 0.085524f, -0.031836f, -0.020220f, -0.095636f, 0.099828f, \n    0.005870f, -0.015799f, 0.035990f, 0.095822f, -0.040507f, -0.078217f, 0.005699f, 0.008582f, -0.014821f, -0.094625f, \n    -0.029960f, -0.090236f, 0.053859f, -0.046704f, -0.048236f, -0.032620f, -0.073953f, -0.061447f, -0.026928f, -0.021330f, \n    -0.068362f, 0.078506f, 0.024562f, -0.027780f, 0.043152f, 0.062960f, 0.094566f, 0.024153f, -0.032815f, 0.017264f, \n    -0.044136f, 0.032385f, -0.100045f, -0.045247f, -0.065265f, 0.011095f, -0.063620f, -0.064584f, 0.086133f, -0.025528f, \n    0.088459f, 0.055701f, -0.088485f, 0.050462f, 0.089602f, 0.064985f, 0.064400f, -0.028027f, 0.055888f, -0.058673f, \n    -0.052080f, 0.028139f, 0.083359f, -0.088343f, 0.025074f, 0.048584f, -0.089721f, 0.096641f, 0.020298f, 0.081726f, \n    -0.080026f, -0.040104f, 0.084236f, -0.097566f, 0.025076f, 0.101851f, -0.085778f, 0.045101f, 0.096104f, -0.067185f, \n    -0.089629f, -0.016300f, 0.075005f, 0.065710f, -0.070102f, 0.048897f, 0.060967f, 0.027128f, -0.078353f, 0.025916f, \n    0.074348f, 0.088821f, -0.004209f, 0.039871f, 0.007388f, 0.081903f, -0.044501f, -0.010407f, -0.071386f, -0.048029f, \n    -0.045576f, 0.039108f, 0.009154f, 0.031347f, 0.001765f, -0.006216f, 0.099019f, -0.072003f, -0.094900f, 0.097535f, \n    0.061362f, -0.091098f, -0.057377f, 0.019827f, 0.017210f, 0.086402f, -0.052899f, 0.014851f, -0.085873f, 0.068179f, \n    -0.050115f, 0.078410f, 0.059166f, -0.021018f, 0.036998f, 0.035854f, -0.010568f, -0.017586f, 0.025852f, -0.032824f, \n    -0.045753f, 0.062536f, 0.029838f, -0.012072f, -0.101660f, -0.062791f, -0.031405f, 0.082581f, -0.060747f, 0.058295f, \n    0.037642f, -0.019292f, -0.044551f, -0.044074f, -0.025478f, 0.004440f, 0.088284f, -0.065568f, 0.026477f, 0.025529f, \n    0.009219f, 0.052077f, 0.017892f, -0.044485f, -0.002794f, -0.026707f, 0.101866f, 0.078637f, -0.011731f, -0.045807f, \n    0.046722f, -0.032102f, 0.039736f, -0.097744f, -0.004311f, -0.046776f, 0.072058f, -0.008431f, 0.012378f, -0.011549f, \n    -0.060811f, 0.059872f, -0.101168f, 0.083395f, 0.017544f, -0.001968f, -0.044576f, -0.036199f, -0.039353f, -0.071637f, \n    0.046905f, 0.069911f, -0.046103f, -0.078115f, 0.030241f, 0.052310f, -0.045970f, -0.024307f, -0.077490f, -0.046716f, \n    0.019834f, -0.006542f, 0.081793f, -0.083379f, 0.089302f, 0.001374f, -0.059713f, 0.044954f, -0.018479f, 0.013295f, \n    -0.027582f, 0.094335f, 0.021265f, 0.078187f, -0.072008f, 0.002368f, -0.019074f, -0.032695f, -0.096170f, 0.081430f, \n    0.004795f, -0.063933f, -0.017676f, -0.051896f, -0.005116f, 0.027622f, -0.024324f, 0.097602f, 0.088156f, 0.028915f, \n    0.097324f, 0.001047f, -0.005705f, -0.004807f, 0.064627f, 0.003564f, -0.054695f, -0.058737f, 0.019906f, 0.069951f, \n    0.003615f, 0.093719f, 0.001997f, 0.000122f, 0.068694f, -0.003413f, -0.058645f, -0.050549f, -0.010761f, 0.097647f, \n    0.016614f, -0.085792f, 0.044440f, -0.085087f, -0.072576f, -0.068437f, -0.007299f, -0.028533f, 0.070798f, 0.046789f, \n    0.040946f, -0.030395f, -0.011704f, -0.002684f, -0.074120f, 0.030403f, -0.024720f, -0.062661f, 0.050437f, 0.054643f, \n    0.084928f, 0.066139f, 0.098482f, -0.066606f, -0.058823f, 0.073057f, -0.066615f, 0.085278f, 0.070778f, 0.078182f, \n    0.061332f, -0.004676f, 0.006270f, -0.066877f, -0.088464f, -0.089782f, -0.072478f, 0.008834f, 0.036513f, 0.039885f, \n    0.078907f, 0.016807f, -0.085698f, 0.004383f, -0.008646f, 0.010917f, 0.013659f, -0.047657f, -0.060875f, 0.092895f, \n    0.016295f, -0.064658f, -0.007460f, 0.069223f, -0.023425f, 0.085658f, -0.060231f, -0.013269f, 0.049636f, -0.087647f, \n    -0.087821f, 0.097005f, -0.100739f, -0.041293f, 0.070434f, 0.028744f, 0.048207f, 0.099480f, 0.072055f, 0.032731f, \n    0.089413f, -0.011594f, 0.051362f, 0.032962f, 0.051856f, -0.055174f, -0.094542f, 0.001823f, -0.024030f, -0.052344f, \n    -0.101193f, -0.098509f, -0.058749f, 0.008474f, 0.043503f, -0.096684f, -0.061633f, 0.036025f, 0.022216f, -0.019880f, \n    0.081204f, -0.030120f, -0.077030f, -0.009627f, -0.100541f, -0.035308f, -0.067676f, -0.027932f, 0.095263f, -0.003563f, \n    -0.075342f, 0.086668f, 0.000900f, 0.079877f, -0.070811f, -0.010368f, -0.040676f, 0.077370f, 0.100989f, 0.014221f, \n    0.068264f, 0.024340f, -0.062129f, 0.067565f, -0.031372f, -0.074125f, -0.097149f, -0.007230f, 0.083966f, -0.055882f, \n    0.099963f, -0.096168f, 0.053294f, -0.081501f, 0.054800f, 0.003816f, 0.073959f, 0.041298f, -0.008519f, -0.002627f, \n    -0.084502f, -0.062574f, 0.048349f, -0.084281f, 0.097039f, 0.025763f, 0.051752f, -0.078608f, -0.067262f, 0.098096f, \n    0.000295f, 0.053027f, -0.049462f, -0.000874f, 0.081935f, -0.069297f, 0.056434f, -0.082314f, 0.027358f, -0.066158f, \n    -0.068224f, -0.071610f, -0.034251f, 0.062283f, -0.042986f, -0.045611f, 0.091691f, -0.092549f, -0.047571f, -0.043517f, \n    -0.059974f, 0.094236f, -0.052145f, 0.004344f, -0.077523f, 0.064567f, 0.064707f, -0.082848f, -0.018156f, 0.064632f, \n    0.018486f, -0.031643f, 0.061778f, -0.073987f, -0.053106f, -0.010666f, -0.058757f, 0.009294f, 0.057198f, 0.040221f, \n    -0.001986f, 0.042418f, 0.027844f, -0.066926f, 0.087309f, 0.057931f, 0.003221f, -0.101460f, -0.045355f, -0.092095f, \n    0.060559f, 0.095411f, 0.073142f, 0.041013f, 0.035194f, -0.037912f, 0.092258f, -0.011423f, -0.066597f, 0.047881f, \n    -0.066262f, 0.084097f, 0.038292f, -0.090096f, -0.077815f, -0.061506f, 0.077315f, 0.044445f, 0.011460f, 0.086506f, \n    0.006452f, 0.096936f, -0.005909f, 0.037156f, -0.021359f, 0.032782f, 0.098447f, 0.057873f, 0.035963f, 0.094402f, \n    0.065131f, 0.093177f, -0.011584f, -0.048094f, 0.024523f, -0.074205f, 0.033593f, 0.075936f, 0.098622f, -0.081797f, \n    -0.015427f, 0.038334f, 0.005755f, 0.002161f, -0.023407f, 0.017855f, -0.013559f, 0.023502f, -0.082458f, 0.065342f, \n    -0.004623f, 0.058711f, 0.083872f, 0.053472f, -0.018390f, -0.086275f, -0.008055f, -0.081635f, -0.049434f, -0.014030f, \n    0.100659f, 0.081152f, 0.084885f, 0.004302f, -0.033756f, -0.036442f, 0.005682f, -0.094515f, -0.025602f, -0.051121f, \n    0.058245f, 0.100746f, 0.023445f, 0.101785f, 0.047228f, 0.081044f, 0.075890f, -0.032568f, -0.025505f, 0.023968f, \n    0.014108f, -0.030029f, 0.042813f, 0.083932f, 0.027478f, -0.082057f, -0.086616f, -0.020642f, 0.058468f, -0.054230f, \n    0.083723f, -0.025266f, -0.081620f, -0.045278f, 0.025663f, 0.040703f, -0.081947f, 0.023203f, 0.036500f, 0.003166f, \n    0.093614f, 0.008358f, -0.082534f, 0.090378f, -0.059337f, -0.091998f, 0.021226f, 0.002628f, 0.040731f, 0.098160f, \n    0.101959f, 0.044164f, 0.101038f, 0.043427f, -0.091775f, -0.066643f, -0.064707f, -0.076419f, -0.094960f, 0.066531f, \n    0.091745f, 0.050773f, -0.035721f, -0.095401f, -0.080903f, -0.057721f, 0.070211f, -0.042619f, 0.095119f, 0.016684f, \n    -0.008417f, 0.015006f, -0.052839f, -0.083321f, -0.049485f, 0.021381f, 0.048697f, -0.049909f, 0.042011f, -0.042350f, \n    0.067372f, -0.005192f, 0.030459f, 0.097584f, 0.062943f, 0.034662f, 0.099033f, -0.020598f, 0.043172f, -0.091326f, \n    -0.063504f, -0.048519f, 0.090437f, 0.035590f, 0.045209f, -0.006765f, -0.072472f, -0.027647f, 0.004186f, -0.006340f, \n    -0.007969f, -0.016065f, -0.026944f, -0.000646f, -0.008881f, -0.022734f, 0.065862f, -0.075164f, 0.020178f, -0.039522f, \n    -0.004021f, -0.015334f, -0.081948f, 0.069454f, 0.063976f, -0.003631f, -0.086781f, -0.057616f, 0.099376f, 0.056446f, \n    0.069039f, -0.015052f, -0.010569f, -0.089361f, -0.072069f, 0.085488f, -0.044346f, -0.033694f, 0.061518f, 0.012272f, \n    -0.049730f, -0.056444f, -0.066637f, -0.030186f, -0.033189f, -0.068726f, -0.078875f, -0.030314f, 0.090364f, -0.009431f, \n    -0.101660f, 0.095921f, -0.101805f, 0.067837f, -0.022235f, 0.007511f, -0.013312f, -0.079591f, -0.079746f, 0.079586f, \n    0.010025f, -0.002031f, 0.099470f, 0.027872f, -0.001617f, -0.021716f, 0.066133f, -0.001582f, -0.058811f, -0.072513f, \n    -0.021158f, -0.000417f, 0.059787f, 0.012651f, 0.016703f, -0.009512f, 0.005611f, -0.084611f, -0.099147f, 0.048035f, \n    -0.000183f, -0.015563f, -0.027157f, -0.018463f, -0.040295f, 0.092842f, 0.096509f, -0.022625f, 0.097190f, -0.006346f, \n    0.086824f, -0.060070f, 0.098012f, -0.093661f, 0.080487f, 0.034214f, -0.014836f, -0.029647f, 0.057031f, 0.026776f, \n    -0.061595f, -0.094593f, 0.020242f, 0.018296f, -0.017034f, 0.078662f, 0.009064f, -0.096402f, 0.068645f, -0.082588f, \n    -0.059566f, 0.025783f, 0.069366f, 0.020815f, -0.041445f, 0.010730f, 0.087589f, 0.089078f, 0.074560f, -0.005650f, \n    -0.012517f, -0.059974f, -0.045179f, -0.056499f, 0.038637f, 0.030806f, 0.073411f, -0.029185f, 0.094780f, -0.016573f, \n    -0.015595f, -0.089534f, 0.048494f, 0.079282f, -0.045545f, -0.031654f, -0.069311f, 0.019467f, 0.015441f, -0.036781f, \n    0.059151f, -0.070657f, -0.088895f, 0.064622f, 0.069624f, -0.085427f, 0.030507f, -0.018662f, -0.026967f, -0.085664f, \n    -0.004303f, 0.085659f, 0.033232f, 0.014293f, 0.001452f, 0.055796f, 0.007696f, -0.075357f, -0.083449f, -0.044920f, \n    -0.013679f, 0.071192f, -0.099848f, -0.060242f, -0.063343f, 0.088465f, 0.099756f, -0.037109f, 0.101337f, 0.009729f, \n    -0.083956f, 0.009791f, -0.071060f, -0.076635f, -0.079252f, 0.080313f, 0.075762f, 0.004323f, 0.050678f, 0.035205f, \n    -0.025511f, 0.068315f, -0.051418f, -0.097340f, -0.029423f, 0.064604f, -0.012550f, 0.006306f, 0.045752f, -0.017720f, \n    -0.069832f, 0.035508f, 0.082741f, -0.065653f, 0.083006f, 0.094246f, -0.084542f, 0.047745f, -0.058880f, 0.022684f, \n    0.005715f, -0.068944f, 0.076402f, 0.016700f, 0.039944f, -0.029446f, -0.069187f, 0.040305f, 0.095582f, 0.025937f, \n    -0.083443f, 0.041813f, -0.076094f, 0.027280f, -0.040540f, -0.019170f, -0.040327f, -0.083824f, -0.011452f, -0.036576f, \n    0.097972f, -0.066739f, -0.033161f, -0.088425f, 0.060650f, -0.099716f, 0.063518f, -0.045017f, 0.091612f, 0.061493f, \n    0.010937f, -0.097522f, 0.093825f, -0.077796f, 0.081454f, 0.022895f, 0.078665f, -0.049509f, 0.059082f, -0.078841f, \n    0.074764f, 0.015391f, 0.010299f, -0.032933f, 0.053859f, 0.043523f, -0.070462f, 0.026546f, -0.039588f, -0.018414f, \n    -0.025262f, -0.037258f, 0.085665f, 0.048564f, 0.030354f, 0.031055f, -0.039491f, -0.087315f, -0.026999f, 0.044523f, \n    0.096378f, 0.086015f, 0.016731f, 0.082067f, -0.070979f, 0.047365f, -0.014571f, -0.081514f, 0.077884f, 0.016199f, \n    0.004916f, 0.078324f, -0.090069f, -0.018173f, -0.025973f, -0.076781f, -0.074590f, -0.012648f, -0.031346f, 0.043767f, \n    0.071958f, -0.018655f, -0.013722f, -0.015475f, 0.099688f, -0.094975f, -0.092983f, -0.038242f, 0.057896f, 0.030801f, \n    -0.083933f, -0.002153f, 0.036434f, -0.019366f, -0.023556f, -0.027665f, 0.048170f, -0.079593f, -0.097130f, -0.072841f, \n    -0.095012f, -0.058590f, -0.034407f, -0.099608f, 0.084136f, 0.075990f, -0.005424f, -0.087509f, -0.003224f, -0.098458f, \n    -0.067426f, -0.013219f, -0.072313f, -0.038675f, -0.083018f, 0.046899f, 0.021552f, -0.028880f, 0.059766f, -0.096806f, \n    -0.049346f, 0.022021f, -0.034342f, -0.062999f, -0.098059f, 0.081784f, -0.092359f, -0.091068f, 0.030155f, -0.020086f, \n    0.009597f, 0.012762f, -0.016375f, -0.012570f, -0.037409f, -0.070693f, -0.044472f, 0.080977f, 0.075589f, 0.007102f, \n    0.100789f, -0.021548f, -0.069176f, 0.001073f, -0.090778f, 0.084048f, -0.031364f, 0.030874f, -0.010372f, 0.032339f, \n    -0.067646f, -0.054433f, -0.024282f, -0.100847f, -0.028289f, -0.027999f, -0.006838f, 0.074799f, -0.034808f, -0.069013f, \n    -0.033017f, 0.002742f, 0.039525f, -0.079478f, 0.047924f, -0.052802f, -0.063374f, -0.020496f, 0.027619f, 0.024218f, \n    0.008698f, -0.086577f, 0.042225f, 0.019316f, -0.056972f, 0.087646f, -0.028462f, -0.044955f, -0.014031f, 0.019486f, \n    0.010258f, 0.033549f, 0.023115f, 0.072988f, 0.028590f, -0.100634f, -0.083652f, -0.077965f, -0.091050f, 0.040206f, \n    0.017428f, -0.029099f, -0.098132f, -0.057581f, 0.067671f, -0.087377f, -0.095877f, 0.047276f, -0.057957f, 0.071031f, \n    -0.063545f, -0.021713f, 0.057962f, -0.001627f, -0.042096f, -0.030586f, -0.037747f, -0.083224f, -0.025678f, -0.074058f, \n    0.067753f, 0.036780f, 0.058829f, -0.079371f, 0.027606f, 0.022276f, -0.009295f, 0.065132f, 0.061360f, 0.068758f, \n    0.006088f, 0.001161f, -0.044700f, -0.081738f, 0.084114f, 0.068726f, -0.058490f, -0.067967f, 0.085234f, 0.031946f, \n    -0.051590f, 0.019080f, -0.074810f, -0.001106f, -0.033071f, 0.099781f, 0.081135f, -0.031033f, 0.031487f, 0.025055f, \n    0.054164f, -0.077904f, -0.042379f, 0.008955f, 0.089741f, -0.014513f, -0.086494f, 0.009503f, 0.025337f, -0.017440f, \n    -0.069524f, -0.035217f, -0.067046f, 0.096444f, 0.039660f, -0.009638f, -0.029861f, 0.087120f, 0.030530f, 0.009026f, \n    0.088308f, -0.063111f, -0.013098f, -0.091319f, 0.055716f, -0.095438f, -0.057384f, 0.048513f, -0.020527f, 0.089040f, \n    0.049262f, 0.034144f, 0.017432f, 0.067315f, -0.038196f, 0.030998f, 0.047400f, -0.066846f, 0.093075f, 0.006835f, \n    0.060668f, -0.044367f, -0.085306f, -0.012116f, -0.008963f, 0.008573f, 0.003863f, -0.096900f, 0.038294f, 0.030709f, \n    -0.094478f, 0.031412f, -0.073830f, 0.016340f, -0.065297f, -0.063834f, -0.076605f, 0.063426f, 0.090401f, -0.097450f, \n    -0.062921f, -0.036254f, 0.006244f, -0.087318f, -0.037152f, -0.021901f, 0.087984f, 0.057183f, 0.090748f, 0.031077f, \n    -0.045987f, -0.026848f, -0.098793f, 0.063533f, 0.011097f, 0.012952f, 0.045928f, 0.013985f, 0.023764f, -0.088983f, \n    -0.067282f, 0.085442f, 0.024036f, 0.077574f, -0.007875f, -0.082316f, 0.088926f, 0.090574f, 0.098908f, -0.065715f, \n    0.011179f, -0.085411f, 0.083284f, -0.012652f, 0.001746f, -0.014112f, -0.071495f, -0.033913f, -0.095486f, -0.090435f, \n    -0.088699f, -0.050243f, -0.090652f, -0.045941f, -0.098398f, 0.035546f, -0.067159f, 0.046231f, -0.057435f, -0.021039f, \n    -0.065823f, -0.016103f, -0.095454f, 0.099958f, -0.076540f, -0.056994f, 0.036285f, -0.097072f, 0.096481f, 0.037508f, \n    0.002237f, -0.020561f, -0.093323f, -0.024844f, -0.032395f, -0.066366f, -0.067724f, -0.070250f, -0.073522f, 0.018741f, \n    -0.003121f, -0.007247f, -0.014070f, -0.033900f, -0.015065f, -0.014823f, 0.095897f, -0.025268f, 0.079293f, 0.058858f, \n    -0.005978f, 0.000860f, -0.100478f, -0.098243f, -0.093511f, 0.031979f, 0.032575f, 0.097108f, 0.029492f, 0.090177f, \n    -0.054341f, -0.046360f, -0.075132f, 0.021826f, -0.096471f, 0.071069f, -0.066220f, 0.042295f, 0.061414f, 0.097222f, \n    -0.046245f, 0.073455f, 0.090134f, 0.028783f, -0.046776f, 0.022597f, -0.096603f, -0.073146f, -0.092142f, 0.012104f, \n    0.011340f, -0.096183f, -0.040566f, 0.100034f, -0.092270f, -0.101907f, -0.056440f, 0.029544f, -0.003653f, 0.018148f, \n    -0.025804f, 0.027820f, -0.018174f, -0.087544f, 0.090065f, -0.052883f, -0.067472f, 0.049542f, 0.040629f, 0.053220f, \n    -0.006989f, -0.000268f, -0.060127f, -0.028811f, -0.072449f, 0.013909f, -0.001606f, -0.023067f, 0.021917f, 0.062215f, \n    -0.017173f, 0.061556f, 0.011670f, -0.022038f, -0.059099f, 0.083050f, 0.001766f, -0.096377f, 0.014553f, 0.039571f, \n    -0.028115f, 0.065657f, -0.049570f, -0.042908f, 0.077948f, 0.074834f, 0.013932f, 0.083113f, -0.093681f, -0.076534f, \n    0.019717f, 0.083586f, 0.065265f, 0.056111f, -0.069842f, -0.081265f, 0.084984f, 0.038217f, -0.098945f, -0.042156f, \n    0.010087f, 0.059166f, 0.025758f, 0.095423f, -0.075219f, 0.075282f, 0.020629f, 0.070038f, 0.087189f, 0.094268f, \n    -0.082700f, -0.012342f, -0.087787f, -0.053994f, 0.085181f, 0.076256f, 0.050557f, 0.024889f, -0.060754f, 0.091985f, \n    0.062554f, -0.011820f, 0.072773f, -0.076661f, 0.007477f, 0.027685f, 0.082783f, 0.011204f, 0.034563f, -0.016901f, \n    -0.067532f, -0.075053f, -0.001630f, 0.009718f, -0.077711f, 0.099776f, -0.002399f, 0.054716f, 0.049337f, -0.082692f, \n    0.088138f, 0.083174f, 0.101398f, -0.089678f, 0.023532f, -0.012130f, 0.006202f, 0.057193f, -0.058313f, -0.059092f, \n    -0.086137f, -0.016350f, -0.064780f, -0.024497f, 0.051422f, 0.058449f, -0.096731f, -0.038267f, -0.051563f, -0.076265f, \n    0.020015f, 0.058410f, -0.080222f, -0.089538f, 0.093205f, -0.093985f, 0.003570f, -0.030952f, -0.091448f, -0.092416f, \n    0.063500f, -0.062919f, 0.005236f, 0.080429f, -0.048500f, -0.045639f, -0.013591f, 0.042088f, 0.014961f, -0.088567f, \n    0.082946f, -0.064682f, 0.051558f, -0.054015f, 0.075111f, -0.020086f, 0.044283f, 0.066983f, -0.057302f, -0.032014f, \n    -0.083051f, -0.073701f, 0.059821f, -0.039401f, 0.010276f, -0.023598f, 0.006513f, -0.010556f, -0.038471f, 0.080034f, \n    0.101454f, 0.061532f, -0.011648f, 0.075019f, -0.034089f, -0.009432f, 0.095020f, -0.023403f, 0.077512f, 0.068710f, \n    -0.024713f, -0.097149f, -0.045411f, -0.056444f, -0.059312f, -0.046590f, -0.051959f, -0.099105f, -0.038008f, -0.085762f, \n    -0.038501f, -0.059617f, 0.053618f, 0.014154f, -0.032776f, -0.054862f, -0.100642f, 0.045367f, -0.007006f, 0.013862f, \n    0.053200f, 0.032436f, -0.054892f, 0.041107f, -0.058428f, 0.083828f, 0.005099f, -0.059071f, -0.009497f, 0.014335f, \n    0.056649f, -0.021873f, -0.100805f, -0.079097f, -0.085490f, -0.014330f, -0.094881f, -0.060326f, -0.035542f, 0.029407f, \n    0.023763f, 0.078344f, 0.007090f, -0.016671f, 0.012810f, 0.095550f, 0.098568f, -0.082848f, 0.085531f, -0.078885f, \n    -0.047855f, -0.027680f, 0.000527f, -0.097033f, -0.101804f, -0.069836f, 0.013433f, 0.025433f, -0.032252f, 0.088242f, \n    -0.041549f, -0.099165f, -0.016385f, -0.077788f, 0.094108f, 0.086935f, 0.067788f, -0.073182f, -0.007044f, 0.014434f, \n    -0.080095f, -0.061170f, 0.099496f, 0.001754f, -0.034041f, -0.070514f, -0.070043f, -0.039621f, 0.102053f, -0.042226f, \n    0.071088f, 0.013139f, 0.012643f, 0.090309f, 0.023774f, -0.025575f, -0.036773f, 0.005126f, -0.081611f, 0.009481f, \n    -0.002580f, -0.077148f, -0.016162f, -0.050692f, -0.081538f, 0.082473f, -0.029714f, -0.022927f, 0.021154f, -0.086123f, \n    0.079134f, -0.001850f, 0.070084f, 0.057224f, -0.001196f, -0.025584f, -0.013089f, -0.097297f, 0.031523f, -0.052920f, \n    -0.067380f, 0.097017f, -0.090996f, 0.047678f, -0.082077f, -0.046779f, 0.077933f, -0.093753f, -0.066623f, -0.058633f, \n    0.015921f, 0.041110f, 0.031171f, -0.050933f, -0.024062f, -0.045214f, -0.007357f, -0.035326f, 0.073637f, 0.005330f, \n    -0.093050f, 0.043220f, 0.037857f, 0.046415f, 0.014462f, -0.037575f, 0.033250f, 0.066699f, -0.060844f, -0.007400f, \n    -0.081497f, 0.003364f, -0.076325f, -0.007365f, -0.087708f, -0.084859f, 0.097009f, 0.082374f, -0.051722f, -0.040302f, \n    0.020076f, 0.065340f, 0.014032f, 0.018966f, 0.044887f, -0.009033f, 0.043909f, -0.009896f, 0.039210f, -0.019986f, \n    0.019009f, 0.001238f, -0.004521f, 0.050090f, 0.092604f, -0.021234f, -0.054511f, 0.078875f, 0.021416f, 0.004167f, \n    -0.053806f, 0.000369f, 0.054414f, 0.042403f, -0.079232f, 0.062530f, -0.038142f, -0.007251f, -0.081245f, -0.024289f, \n    0.050720f, 0.069082f, 0.004215f, 0.028498f, -0.058223f, 0.001259f, 0.061727f, 0.080730f, -0.029327f, 0.019721f, \n    0.090205f, -0.083542f, 0.017936f, 0.002871f, 0.065124f, -0.077804f, 0.018491f, 0.054156f, -0.085161f, -0.039380f, \n    -0.047339f, 0.012807f, 0.027322f, 0.014211f, 0.080101f, 0.069965f, -0.077923f, -0.052346f, 0.004412f, 0.032622f, \n    0.097075f, -0.042702f, 0.048465f, -0.075234f, 0.059667f, -0.098237f, -0.058940f, 0.082979f, -0.067200f, -0.050138f, \n    -0.052951f, 0.030936f, -0.054356f, -0.047774f, 0.001141f, 0.068456f, 0.043573f, -0.078955f, 0.040573f, 0.012883f, \n    -0.071287f, 0.071394f, 0.087411f, 0.088171f, 0.024000f, -0.067866f, 0.048772f, -0.067791f, -0.018740f, 0.036607f, \n    0.056640f, 0.009493f, -0.082175f, 0.058692f, 0.079178f, -0.000916f, -0.011998f, -0.091618f, -0.011968f, 0.011215f, \n    -0.087211f, 0.060966f, -0.068473f, 0.015863f, 0.031886f, -0.094110f, -0.054701f, -0.091158f, 0.039740f, 0.001664f, \n    0.086206f, -0.033674f, -0.044700f, 0.041010f, 0.074630f, 0.007788f, 0.093326f, -0.044334f, -0.101109f, 0.082656f, \n    -0.020917f, 0.089491f, -0.078240f, -0.013088f, -0.004627f, 0.034847f, -0.045308f, 0.049906f, 0.078700f, 0.086388f, \n    -0.030424f, 0.076724f, 0.041509f, -0.094558f, -0.003082f, 0.049868f, -0.034389f, -0.092826f, -0.045128f, -0.075841f, \n    -0.079250f, -0.041419f, 0.013145f, -0.053972f, -0.093930f, -0.003685f, -0.000487f, 0.085946f, 0.071932f, -0.078297f, \n    -0.079024f, -0.100234f, 0.072717f, -0.081271f, 0.078033f, 0.013003f, 0.091186f, 0.029351f, 0.005348f, 0.033554f, \n    -0.005715f, 0.052837f, 0.081593f, 0.062799f, -0.023883f, 0.002300f, -0.058050f, 0.001584f, 0.078278f, 0.015361f, \n    -0.076324f, 0.091310f, -0.003695f, 0.035076f, -0.007061f, 0.073384f, 0.056124f, -0.051865f, 0.100221f, -0.013940f, \n    -0.067861f, 0.040927f, -0.017961f, -0.092326f, -0.069018f, -0.020760f, 0.003361f, -0.087247f, -0.029433f, -0.076136f, \n    0.022557f, 0.004174f, -0.055849f, 0.058105f, -0.031487f, 0.087741f, 0.028359f, -0.004856f, 0.013692f, 0.028870f, \n    -0.022262f, -0.003691f, -0.053943f, 