{
  "num_layers": 12,
  "weights": [
    -0.07127958536148071,
    0.18644607067108154,
    0.05431511998176575,
    0.18989917635917664,
    0.24058875441551208,
    0.17820698022842407,
    0.27020272612571716,
    -0.13323433697223663,
    -0.11508466303348541,
    -0.13921651244163513,
    0.18103626370429993,
    -0.19954857230186462,
    0.055392324924468994,
    0.02000752091407776,
    -0.20486830174922943,
    0.1124224066734314,
    0.050523728132247925,
    -0.10797438025474548,
    0.18055832386016846,
    -0.1260186731815338,
    0.23287352919578552,
    0.2331615388393402,
    0.13820746541023254,
    0.25582155585289,
    0.23735538125038147,
    0.015912920236587524,
    -0.13091632723808289,
    0.06267622113227844,
    -0.19522207975387573,
    -0.10966011881828308,
    0.17402541637420654,
    -0.1866200566291809,
    -0.07394836843013763,
    -0.20352524518966675,
    0.21763518452644348,
    0.09676140546798706,
    -0.11064717173576355,
    0.2673949897289276,
    0.13724461197853088,
    -0.039681971073150635,
    -0.2664586901664734,
    -0.1512671709060669,
    0.10226145386695862,
    -0.2643875181674957,
    -0.12372605502605438,
    0.20268288254737854,
    -0.05980484187602997,
    -0.1511402130126953,
    -0.0042532384395599365,
    -0.09578733146190643,
    0.11577299237251282,
    -0.09307931363582611,
    -0.09865449368953705,
    0.12935826182365417,
    -0.19313469529151917,
    -0.10931001603603363,
    -0.2458767592906952,
    0.001361250877380371,
    0.12141981720924377,
    -0.1298598349094391,
    0.11788299679756165,
    0.049724727869033813,
    0.19087615609169006,
    0.005200713872909546,
    0.11109468340873718,
    -0.10613715648651123,
    -0.14444546401500702,
    0.014243602752685547,
    0.23336663842201233,
    0.1759859025478363,
    0.26694008708000183,
    0.12425771355628967,
    0.029326319694519043,
    0.27715829014778137,
    0.24936774373054504,
    0.13975155353546143,
    -0.11533361673355103,
    0.1559547781944275,
    -0.22392502427101135,
    0.23745808005332947,
    -0.08698612451553345,
    0.210193932056427,
    0.044129788875579834,
    0.10483035445213318,
    0.2799869477748871,
    0.026274830102920532,
    0.16121616959571838,
    0.20808711647987366,
    -0.08955593407154083,
    -0.2121751308441162,
    0.2582589089870453,
    -0.2815723419189453,
    0.20088911056518555,
    -0.1720414161682129,
    -0.17685773968696594,
    0.024265646934509277,
    -0.14648057520389557,
    -0.2658783197402954,
    0.23103389143943787,
    0.17921078205108643,
    -0.22749558091163635,
    -0.012383043766021729,
    -0.17383354902267456,
    0.061034440994262695,
    0.009224414825439453,
    0.07106438279151917,
    -0.1956641674041748,
    -0.11832453310489655,
    0.12753647565841675,
    0.15904155373573303,
    0.24308672547340393,
    -0.20983180403709412,
    -0.1302601844072342,
    0.2768227756023407,
    -0.27297869324684143,
    0.2693907916545868,
    0.26064589619636536,
    0.19448241591453552,
    0.12752234935760498,
    -0.20500129461288452,
    0.23979231715202332,
    0.2050742208957672,
    0.15623393654823303,
    0.15578150749206543,
    0.021984457969665527,
    0.260857492685318,
    0.21340391039848328,
    0.025103211402893066,
    -0.051390185952186584,
    -0.15789034962654114,
    -0.015061736106872559,
    -0.20806357264518738,
    -0.11884218454360962,
    0.029827594757080078,
    0.26485541462898254,
    -0.04288369417190552,
    0.2694365680217743,
    0.2504400312900543,
    -0.14975425601005554,
    -0.055579349398612976,
    -0.17832183837890625,
    -0.18771673738956451,
    0.26569345593452454,
    -0.04232463240623474,
    0.08649569749832153,
    0.09120666980743408,
    -0.15524838864803314,
    -0.1949082314968109,
    0.05009731650352478,
    -0.27054324746131897,
    -0.23126669228076935,
    0.2585642635822296,
    -0.20641610026359558,
    0.15134850144386292,
    -0.007941246032714844,
    -0.13456787168979645,
    0.005923926830291748,
    -0.18533939123153687,
    -0.24786855280399323,
    0.014583468437194824,
    0.19216808676719666,
    0.10882365703582764,
    -0.27145668864250183,
    -0.005490720272064209,
    0.1847204566001892,
    -0.16901132464408875,
    -0.1262444108724594,
    0.060803771018981934,
    -0.08162534236907959,
    -0.08570648729801178,
    -0.05081850290298462,
    0.2654576003551483,
    -0.07554973661899567,
    0.07753503322601318,
    -0.10287074744701385,
    0.003061056137084961,
    0.013801425695419312,
    -0.27752792835235596,
    0.2811987102031708,
    -0.19548290967941284,
    -0.22171470522880554,
    -0.008548378944396973,
    0.165912926197052,
    0.08844289183616638,
    0.10925096273422241,
    0.06111285090446472,
    0.23836109042167664,
    -0.2318926304578781,
    -0.17057929933071136,
    -0.18591836094856262,
    -0.17699271440505981,
    0.22790434956550598,
    -0.09441719949245453,
    -0.2631717026233673,
    -0.095876544713974,
    0.15671417117118835,
    0.24352887272834778,
    -0.04205198585987091,
    0.16411250829696655,
    -0.14740107953548431,
    0.1679750680923462,
    0.09296131134033203,
    0.26101890206336975,
    -0.26687416434288025,
    -0.0332205593585968,
    0.11085817217826843,
    -0.1955706775188446,
    -0.0007822215557098389,
    -0.08841580152511597,
    -0.07227028906345367,
    0.06202813982963562,
    -0.030611783266067505,
    -0.021243035793304443,
    0.1691485345363617,
    0.006996780633926392,
    0.25610092282295227,
    -0.2647897005081177,
    0.1539522409439087,
    0.04329150915145874,
    -0.23100116848945618,
    -0.18577924370765686,
    0.040416866540908813,
    -0.13365177810192108,
    0.2818746864795685,
    -0.07665273547172546,
    0.22663936018943787,
    -0.002713531255722046,
    0.17755088210105896,
    0.21459919214248657,
    0.030586957931518555,
    -0.03235524892807007,
    -0.07166729867458344,
    0.023663818836212158,
    -0.14850129187107086,
    0.2291138470172882,
    -0.17887234687805176,
    0.017426908016204834,
    0.14457085728645325,
    0.05462566018104553,
    -0.17519086599349976,
    0.19421806931495667,
    0.04603877663612366,
    -0.1772335171699524,
    0.10664251446723938,
    0.18604260683059692,
    0.0013990700244903564,
    0.1553555130958557,
    -0.1330154538154602,
    -0.03407937288284302,
    -0.2399999499320984,
    -0.21407684683799744,
    0.1524701714515686,
    -0.05016160011291504,
    0.08763819932937622,
    0.23750683665275574,
    0.18832740187644958,
    -0.22707149386405945,
    -0.06516753137111664,
    0.2640821039676666,
    -0.23119662702083588,
    -0.22754359245300293,
    -0.19806697964668274,
    0.08816134929656982,
    -0.1387195736169815,
    0.15477675199508667,
    -0.1736305058002472,
    0.028214961290359497,
    -0.26046162843704224,
    0.1470390260219574,
    0.06464153528213501,
    -0.20652425289154053,
    -0.07807154953479767,
    0.033378005027770996,
    0.19310203194618225,
    0.2017366588115692,
    -0.012716978788375854,
    -0.06314641237258911,
    -0.2781740427017212,
    -0.26274487376213074,
    -0.26007989048957825,
    -0.16387124359607697,
    -0.12044267356395721,
    0.27866676449775696,
    0.14628490805625916,
    0.07936659455299377,
    -0.030338048934936523,
    -0.008700400590896606,
    0.03784435987472534,
    0.2715366780757904,
    0.23269858956336975,
    -0.24122485518455505,
    0.18206557631492615,
    0.07358354330062866,
    0.20124763250350952,
    -0.12759648263454437,
    -0.27990689873695374,
    -0.2720147371292114,
    -0.2557585537433624,
    0.07350024580955505,
    -0.1831979751586914,
    0.07879823446273804,
    -0.22524845600128174,
    0.2574295699596405,
    0.10347861051559448,
    0.019196391105651855,
    0.1861571967601776,
    0.16350170969963074,
    -0.14266934990882874,
    0.05744141340255737,
    -0.27686962485313416,
    0.14707732200622559,
    -0.2630600333213806,
    -0.05313670635223389,
    0.15513670444488525,
    0.20072108507156372,
    -0.04148145020008087,
    0.07719054818153381,
    -0.1723514050245285,
    0.10576382279396057,
    -0.16725178062915802,
    0.03812175989151001,
    -0.17786100506782532,
    -0.13334886729717255,
    0.14359915256500244,
    -0.2515362501144409,
    0.09754526615142822,
    0.24894025921821594,
    -0.01710262894630432,
    0.06896665692329407,
    0.1738378405570984,
    -0.00754430890083313,
    -0.11522206664085388,
    -0.19605901837348938,
    0.07714894413948059,
    -0.20997056365013123,
    0.2796361744403839,
    -0.07991589605808258,
    0.2133481204509735,
    0.223173588514328,
    0.24844923615455627,
    0.026905059814453125,
    0.23921826481819153,
    -0.2094876766204834,
    0.10162723064422607,
    0.17760872840881348,
    -0.1343754082918167,
    -0.08135716617107391,
    -0.02367854118347168,
    -0.08424130082130432,
    0.15686121582984924,
    0.2601921260356903,
    -0.10854069888591766,
    -0.2694809138774872,
    0.07119160890579224,
    -0.22198666632175446,
    -0.24842585623264313,
    -0.0298711359500885,
    -0.2586595118045807,
    0.045974671840667725,
    0.21695908904075623,
    0.13715410232543945,
    -0.014162540435791016,
    0.07159423828125,
    -0.041114091873168945,
    0.20972949266433716,
    0.18888944387435913,
    -0.23304179310798645,
    -0.08847670257091522,
    0.0600510835647583,
    -0.0779409259557724,
    -0.08010733127593994,
    0.0693720281124115,
    0.03721162676811218,
    0.11959704756736755,
    -0.1607154905796051,
    -0.2704722285270691,
    -0.16617268323898315,
    -0.27681300044059753,
    0.15228033065795898,
    -0.00420573353767395,
    -0.07024407386779785,
    -0.2846701443195343,
    0.05379122495651245,
    -0.19738230109214783,
    -0.24954596161842346,
    0.050159305334091187,
    0.021581649780273438,
    -0.11136257648468018,
    0.009748518466949463,
    0.060659706592559814,
    0.19018837809562683,
    0.2833411395549774,
    0.17744532227516174,
    0.19418209791183472,
    0.22950205206871033,
    -0.023942768573760986,
    0.09154251217842102,
    -0.22709450125694275,
    0.09259110689163208,
    0.07732090353965759,
    -0.12522239983081818,
    0.12256753444671631,
    0.0003167688846588135,
    0.21008455753326416,
    0.029008865356445312,
    0.20371824502944946,
    -0.1707397848367691,
    0.18507373332977295,
    -0.11919799447059631,
    -0.2700663208961487,
    0.2196313440799713,
    0.2140895426273346,
    -0.15381619334220886,
    0.25318023562431335,
    -0.03217628598213196,
    0.02081248164176941,
    -0.15837298333644867,
    -0.08507505059242249,
    0.006454557180404663,
    -0.12436415255069733,
    0.22112694382667542,
    -0.24487614631652832,
    0.23777243494987488,
    -0.05695295333862305,
    -0.03189122676849365,
    -0.22631655633449554,
    0.01380041241645813,
    -0.09203273057937622,
    -0.263300359249115,
    0.22460713982582092,
    0.14285719394683838,
    0.1721087098121643,
    0.14673584699630737,
    0.18155044317245483,
    -0.2843310832977295,
    -0.21340161561965942,
    0.2612641751766205,
    0.14502164721488953,
    -0.28132063150405884,
    -0.07142771780490875,
    -0.2084452360868454,
    -0.2754051685333252,
    0.14871487021446228,
    -0.1354898065328598,
    0.20600232481956482,
    0.250267893075943,
    -0.12748657166957855,
    -0.25935226678848267,
    0.23535272479057312,
    -0.06064911186695099,
    -0.21696197986602783,
    0.18914219737052917,
    -0.09412229061126709,
    -0.09952883422374725,
    -0.28285884857177734,
    -0.08513513207435608,
    -0.1037442684173584,
    -0.22028794884681702,
    0.0060356855392456055,
    0.03798535466194153,
    0.15481925010681152,
    -0.05944815278053284,
    0.19071796536445618,
    -0.07388190925121307,
    0.1614243984222412,
    -0.042386069893836975,
    -0.24742484092712402,
    0.20624753832817078,
    -0.22297702729701996,
    -0.20537489652633667,
    0.2781573235988617,
    -0.03524480760097504,
    -0.1103648841381073,
    -0.06910794973373413,
    0.0036772191524505615,
    -0.280928373336792,
    0.08891233801841736,
    -0.13647888600826263,
    -0.02099660038948059,
    -0.2169804573059082,
    0.0614582896232605,
    0.26955142617225647,
    0.14960232377052307,
    0.10625949501991272,
    0.17072811722755432,
    -0.20614761114120483,
    0.04404771327972412,
    0.23731651902198792,
    0.10751503705978394,
    -0.20402470231056213,
    0.19455215334892273,
    -0.27062028646469116,
    -0.2302643060684204,
    0.07248109579086304,
    -0.25210320949554443,
    -0.1522582769393921,
    0.10592988133430481,
    0.03642982244491577,
    0.1424536108970642,
    0.049488216638565063,
    -0.13205502927303314,
    0.21570786833763123,
    0.10730615258216858,
    0.2833896577358246,
    0.17448827624320984,
    0.2575201690196991,
    -0.03461363911628723,
    -0.2627541720867157,
    0.19082525372505188,
    0.18198111653327942,
    -0.16127808392047882,
    0.12386137247085571,
    0.0014812052249908447,
    -0.21593761444091797,
    -0.026885032653808594,
    -0.08738464117050171,
    0.06784290075302124,
    -0.15355990827083588,
    0.25242897868156433,
    -0.19090059399604797,
    0.2751930058002472,
    0.21160349249839783,
    -0.027544349431991577,
    0.028491675853729248,
    -0.17154549062252045,
    -0.1331942081451416,
    0.15995797514915466,
    -0.03961341083049774,
    0.01790064573287964,
    0.004622757434844971,
    -0.1762094795703888,
    0.010393351316452026,
    -0.27291643619537354,
    0.11987817287445068,
    0.10727381706237793,
    -0.23457878828048706,
    0.2320551574230194,
    -0.26429641246795654,
    0.05126562714576721,
    0.11615690588951111,
    0.23651501536369324,
    -0.00889769196510315,
    0.1918947696685791,
    0.09478425979614258,
    0.09870487451553345,
    -0.20426252484321594,
    -0.21244248747825623,
    0.23984071612358093,
    0.24205997586250305,
    0.2268812358379364,
    0.10319173336029053,
    -0.18489336967468262,
    -0.0032842159271240234,
    0.1214943528175354,
    -0.2725764513015747,
    0.2344662845134735,
    -0.24615877866744995,
    0.15206879377365112,
    0.2391636073589325,
    0.11147859692573547,
    0.13514697551727295,
    0.07266390323638916,
    0.015726149082183838,
    0.08294698596000671,
    -0.19852468371391296,
    0.1141623854637146,
    -0.15836645662784576,
    -0.2496858835220337,
    -0.021207064390182495,
    0.03742039203643799,
    -0.07065629959106445,
    -0.03380069136619568,
    -0.280975341796875,
    -0.18734382092952728,
    0.2621476352214813,
    0.0048062801361083984,
    -0.1691277027130127,
    -0.23483134806156158,
    -0.22128917276859283,
    0.2501467168331146,
    -0.11804775893688202,
    -0.11163774132728577,
    0.056683897972106934,
    0.1897003948688507,
    0.053100913763046265,
    -0.1246940940618515,
    0.25633886456489563,
    -0.0583622008562088,
    -0.1646656095981598,
    0.19337427616119385,
    0.23093262314796448,
    0.07205787301063538,
    0.15008556842803955,
    -0.12926913797855377,
    -0.0067459940910339355,
    -0.14406929910182953,
    -0.08287741243839264,
    -0.15375414490699768,
    0.2714137136936188,
    -0.24000266194343567,
    0.19273501634597778,
    -0.031196802854537964,
    -0.22429828345775604,
    0.25177040696144104,
    0.10399031639099121,
    -0.056136250495910645,
    0.20146217942237854,
    -0.13182184100151062,
    -0.02468651533126831,
    0.2362295687198639,
    -0.07638144493103027,
    -0.08717839419841766,
    -0.17772774398326874,
    0.2515017092227936,
    -0.20844483375549316,
    0.09217843413352966,
    0.13806498050689697,
    -0.11815305054187775,
    0.2619812786579132,
    -0.17847126722335815,
    -0.19753940403461456,
    -0.00948953628540039,
    0.12158307433128357,
    0.2629779279232025,
    0.26933279633522034,
    0.20437446236610413,
    -0.13748881220817566,
    0.2434966266155243,
    -0.2607423663139343,
    0.13485965132713318,
    0.20097872614860535,
    -0.1485387086868286,
    0.0718604326248169,
    0.15838193893432617,
    0.023876100778579712,
    0.024432718753814697,
    0.08115643262863159,
    -0.014194458723068237,
    -0.016938060522079468,
    0.12685608863830566,
    0.0,
    0.0,
    0.0,
    0.0,
    0.0,
    0.0,
    0.0,
    0.0,
    0.0,
    0.0,
    0.0,
    0.0,
    0.0,
    0.0,
    0.0,
    0.0,
    0.0,
    0.0,
    0.0,
    0.0,
    0.0,
    0.0,
    0.0,
    0.0,
    0.0,
    0.0,
    0.0,
    0.0,
    0.0,
    0.0,
    0.0,
    0.0,
    0.0,
    0.0,
    0.0,
    0.0,
    0.0,
    0.0,
    0.0,
    0.0,
    0.0,
    0.0,
    0.0,
    0.0,
    0.0,
    0.0,
    0.0,
    0.0,
    0.0,
    0.0,
    0.0,
    0.0,
    0.0,
    0.0,
    0.0,
    0.0,
    0.0,
    0.0,
    0.0,
    0.0,
    0.0,
    0.0,
    0.0,
    0.0,
    0.01629088819026947,
    0.017673462629318237,
    -0.0771011933684349,
    -0.005963191390037537,
    -0.04712582752108574,
    -0.0979757010936737,
    -0.035427697002887726,
    0.032813698053359985,
    -0.028762459754943848,
    -0.05682476982474327,
    0.04089131951332092,
    -0.026709608733654022,
    0.0793348103761673,
    -0.09225244075059891,
    -0.051720187067985535,
    0.04455472528934479,
    -0.05263269320130348,
    -0.07751602679491043,
    -0.07487229257822037,
    -0.022577665746212006,
    0.08537016808986664,
    -0.021551936864852905,
    -0.046949923038482666,
    0.09953431785106659,
    0.06472252309322357,
    -0.0215088352560997,
    -0.014353111386299133,
    0.07128167152404785,
    -0.09288282692432404,
    0.06577998399734497,
    -0.060764946043491364,
    -0.05848672240972519,
    -0.06479594111442566,
    0.05565498769283295,
    0.0003364384174346924,
    0.06707628071308136,
    -0.09669318050146103,
    -0.017449013888835907,
    -0.0638749897480011,
    0.09787052869796753,
    -0.034583643078804016,
    -0.016944289207458496,
    -0.03198380023241043,
    0.05767887830734253,
    0.014993324875831604,
    0.09173557162284851,
    0.0031171217560768127,
    -0.08225293457508087,
    -0.037974923849105835,
    -0.04403771460056305,
    -0.037974536418914795,
    -0.05957435816526413,
    -0.0605471134185791,
    0.056844234466552734,
    -0.053704265505075455,
    0.05737230181694031,
    -0.06910467147827148,
    -0.02038837969303131,
    -0.00469120591878891,
    0.09593680500984192,
    -0.07946808636188507,
    -0.017455123364925385,
    -0.0004769638180732727,
    0.038865044713020325,
    0.02550850808620453,
    0.027325421571731567,
    -0.003963150084018707,
    0.015701457858085632,
    0.08122009038925171,
    0.10015060007572174,
    -0.04263318330049515,
    0.036325111985206604,
    -0.04099247232079506,
    -0.09841445833444595,
    -0.09743484109640121,
    0.0009378120303153992,
    -0.03641658276319504,
    0.017994984984397888,
    0.08909076452255249,
    0.01183493435382843,
    0.02283615618944168,
    0.09463654458522797,
    0.08363169431686401,
    0.07835446298122406,
    0.04604846239089966,
    -0.011753298342227936,
    -0.021517477929592133,
    -0.027415454387664795,
    -0.0804644227027893,
    0.010691843926906586,
    -0.03077099472284317,
    0.007818982005119324,
    0.07879623770713806,
    -0.027128174901008606,
    -0.059347596019506454,
    -0.03368057310581207,
    1.2584030628204346e-05,
    0.08096589148044586,
    -0.06135844066739082,
    -0.04946408420801163,
    -0.04903101921081543,
    0.06578224897384644,
    0.08282294869422913,
    0.10013863444328308,
    0.08510306477546692,
    0.08888959884643555,
    0.04008300602436066,
    -0.060805097222328186,
    0.07345815002918243,
    0.023056760430336,
    -0.07453687489032745,
    0.0880814790725708,
    -0.035979919135570526,
    -0.053354423493146896,
    0.043236538767814636,
    0.04882955551147461,
    -0.0727965235710144,
    -0.02502751350402832,
    0.01858251541852951,
    -0.0278182253241539,
    0.04000312089920044,
    -0.10198873281478882,
    -0.08342653512954712,
    -0.04227614030241966,
    0.017329074442386627,
    -0.01422855257987976,
    -0.024318672716617584,
    0.06106558442115784,
    0.08132380247116089,
    0.025404050946235657,
    0.08821813762187958,
    0.05736827850341797,
    0.010805629193782806,
    -0.01403208076953888,
    -0.017559364438056946,
    -0.09646669030189514,
    0.049210548400878906,
    -0.00864795595407486,
    0.017756834626197815,
    -0.03955421596765518,
    -0.0915876030921936,
    -0.0761500895023346,
    -0.08776334673166275,
    -0.010687857866287231,
    0.03639848530292511,
    0.010959170758724213,
    0.04885971546173096,
    0.031524986028671265,
    0.03355705738067627,
    -0.0077647194266319275,
    -0.002197481691837311,
    0.046731963753700256,
    0.030091941356658936,
    -0.04592219740152359,
    0.04593959450721741,
    -0.1017143502831459,
    0.07474637031555176,
    0.05197402834892273,
    -0.10149311274290085,
    -0.023182690143585205,
    -0.029226571321487427,
    0.09028193354606628,
    0.014913290739059448,
    0.05434854328632355,
    0.06136292219161987,
    -0.08276592940092087,
    -0.0939800962805748,
    -0.019074007868766785,
    0.09924982488155365,
    -0.03961697593331337,
    -0.054579298943281174,
    -0.027448788285255432,
    0.09707911312580109,
    0.02104438841342926,
    -0.07743723690509796,
    0.008238591253757477,
    0.046402707695961,
    -0.03746362775564194,
    0.011181116104125977,
    0.009900711476802826,
    -0.02962469309568405,
    -0.08123409003019333,
    0.08245575428009033,
    -0.041682060807943344,
    -0.10162074118852615,
    0.00030259042978286743,
    -0.025127790868282318,
    -0.06108001619577408,
    0.09745030105113983,
    -0.08491187542676926,
    0.06900030374526978,
    -0.0965072512626648,
    -0.08716022223234177,
    -0.041478484869003296,
    0.042722612619400024,
    0.05646596848964691,
    -0.049299199134111404,
    0.03846178948879242,
    -0.029488593339920044,
    0.03295940160751343,
    -0.001187257468700409,
    -0.07809292525053024,
    0.05128653347492218,
    -0.05154591053724289,
    0.06337597966194153,
    -0.028851278126239777,
    -0.02853763848543167,
    -0.04283060133457184,
    -0.07661227881908417,
    0.06444224715232849,
    0.008662484586238861,
    0.04551692306995392,
    0.02071712166070938,
    -0.07615293562412262,
    -0.092186838388443,
    -0.06804825365543365,
    -0.005612887442111969,
    0.07786817848682404,
    0.07309623062610626,
    -0.04357904940843582,
    0.10180650651454926,
    0.08919985592365265,
    -0.07995039969682693,
    -0.050731103867292404,
    0.024171829223632812,
    0.011248692870140076,
    0.051929011940956116,
    -0.038660645484924316,
    0.04727610945701599,
    0.02878187596797943,
    0.06255251169204712,
    -0.0011414363980293274,
    0.031163811683654785,
    -0.06847353279590607,
    -0.01552584022283554,
    -0.03014688938856125,
    0.007987931370735168,
    0.052011311054229736,
    0.009104914963245392,
    0.052490174770355225,
    -0.10114336758852005,
    -0.05493393540382385,
    -0.0827210396528244,
    0.09197326004505157,
    -0.014407716691493988,
    -0.05007556080818176,
    -0.0844099223613739,
    0.04510393738746643,
    -0.07052814960479736,
    0.08657151460647583,
    -0.02803228050470352,
    -0.0384393036365509,
    -0.012294597923755646,
    -0.008336901664733887,
    -0.04772431030869484,
    -0.05760663002729416,
    0.03516851365566254,
    -0.014409661293029785,
    0.04243756830692291,
    -0.05018043518066406,
    -0.0851777195930481,
    0.043281182646751404,
    0.07203321158885956,
    0.04675576090812683,
    -0.08620476722717285,
    0.07042670249938965,
    -0.07156436890363693,
    0.06586064398288727,
    0.05581459403038025,
    0.0384402722120285,
    0.0498221218585968,
    -0.0577210932970047,
    -0.08131095767021179,
    -0.0542529858648777,
    -0.026044823229312897,
    0.08207464218139648,
    -0.08535397052764893,
    0.07040540874004364,
    0.07311505079269409,
    0.08201605081558228,
    -0.0681268721818924,
    -0.07615269720554352,
    -0.06272484362125397,
    -0.05247756838798523,
    0.08138149976730347,
    0.00768955796957016,
    -0.015731774270534515,
    0.07432544231414795,
    0.05894969403743744,
    0.017049506306648254,
    0.038537099957466125,
    0.060708075761795044,
    0.06541402637958527,
    -0.004077635705471039,
    0.023428678512573242,
    -0.0004131793975830078,
    -0.07500424981117249,
    -0.06241612136363983,
    0.016787365078926086,
    -0.08450857549905777,
    -0.09745346009731293,
    0.06770868599414825,
    -0.0480571947991848,
    0.013777360320091248,
    -0.04375289008021355,
    -0.053501520305871964,
    -0.013979911804199219,
    0.06954924762248993,
    0.07552725076675415,
    -0.01690671592950821,
    -0.010966278612613678,
    0.09917131066322327,
    0.04158112406730652,
    0.041489601135253906,
    -0.01641754060983658,
    0.05187326669692993,
    -0.05752759426832199,
    -0.021298453211784363,
    -0.0966990739107132,
    -0.058723270893096924,
    3.679096698760986e-05,
    0.08835053443908691,
    -0.015544384717941284,
    0.011941805481910706,
    -0.03355817496776581,
    0.09345465898513794,
    0.053048670291900635,
    -0.05712767317891121,
    -0.050351183861494064,
    -0.0508490726351738,
    -0.0592513307929039,
    0.0065758079290390015,
    0.06709107756614685,
    -0.004765130579471588,
    0.08987352252006531,
    -0.07683710008859634,
    0.06438189744949341,
    0.03991486132144928,
    0.04433906078338623,
    -0.037588343024253845,
    -0.04176073148846626,
    -0.0464494563639164,
    0.04265400767326355,
    0.07436349987983704,
    0.07783389091491699,
    0.01852971315383911,
    -0.07246865332126617,
    0.09708848595619202,
    0.09714211523532867,
    0.01929125189781189,
    -0.06905277073383331,
    0.039978429675102234,
    -0.01587855815887451,
    0.027029842138290405,
    -0.029773056507110596,
    -0.06625872105360031,
    -0.06578796356916428,
    -0.07150110602378845,
    -0.06094793602824211,
    -0.0319792777299881,
    0.08441102504730225,
    -0.002039805054664612,
    0.010426297783851624,
    -0.05266512930393219,
    0.07047301530838013,
    0.09708234667778015,
    -0.057520318776369095,
    0.012494154274463654,
    -0.001261107623577118,
    0.048568397760391235,
    -0.05646684765815735,
    -0.04639558121562004,
    0.02305568754673004,
    0.00559263676404953,
    -0.006318993866443634,
    0.04267109930515289,
    -0.09441814571619034,
    -0.0950276255607605,
    -0.09457835555076599,
    0.06764158606529236,
    -0.05636844411492348,
    -0.07721473276615143,
    -0.08293785154819489,
    0.07703351974487305,
    -0.019995979964733124,
    -0.08709941059350967,
    0.040141552686691284,
    0.0025454536080360413,
    -0.057343389838933945,
    -0.00802343338727951,
    0.0504966676235199,
    -0.08121544867753983,
    -0.09573887288570404,
    0.03612343966960907,
    0.02703273296356201,
    0.05242106318473816,
    0.04770904779434204,
    0.05706089735031128,
    0.06438188254833221,
    -0.0779741033911705,
    -0.0064394474029541016,
    0.05803811550140381,
    0.016398437321186066,
    0.02307942509651184,
    -0.07075671851634979,
    0.04540298879146576,
    0.003596976399421692,
    0.05785655975341797,
    -0.022012248635292053,
    -0.018965892493724823,
    0.10095237195491791,
    0.08250261843204498,
    0.09812746942043304,
    -0.011347144842147827,
    -0.07063549011945724,
    -0.06604059040546417,
    0.09023229777812958,
    0.05350986123085022,
    0.06731213629245758,
    -0.06692048907279968,
    -0.061008427292108536,
    0.05744807422161102,
    -0.07615558803081512,
    -0.07690146565437317,
    -0.023109130561351776,
    0.07592488825321198,
    0.08302238583564758,
    0.09999158978462219,
    -0.08346763253211975,
    -0.015429720282554626,
    -0.04490052908658981,
    -0.10086257755756378,
    -0.04004974663257599,
    0.022285640239715576,
    -0.043670471757650375,
    -0.0768684446811676,
    -0.0031016170978546143,
    0.09805838763713837,
    -0.04400311037898064,
    0.04962937533855438,
    0.07672545313835144,
    -0.06418433785438538,
    0.06989127397537231,
    0.012491554021835327,
    0.08047719299793243,
    0.06870026886463165,
    -0.08648201823234558,
    0.0365431010723114,
    0.04748442769050598,
    -0.004604943096637726,
    -0.04706728085875511,
    -0.02446582168340683,
    -0.06711569428443909,
    -0.014092840254306793,
    -0.004367232322692871,
    -0.04229309782385826,
    -0.005759760737419128,
    -0.03294302523136139,
    -0.08618800342082977,
    0.08483688533306122,
    -0.051329173147678375,
    0.03778816759586334,
    0.06939192116260529,
    0.039296478033065796,
    0.029430896043777466,
    0.08577975630760193,
    0.05207031965255737,
    0.056208133697509766,
    0.013314753770828247,
    -0.007678508758544922,
    0.05065992474555969,
    0.010910212993621826,
    0.0036377087235450745,
    -0.01152108609676361,
    0.006066657602787018,
    0.012145578861236572,
    -0.08818502724170685,
    -0.08512751758098602,
    0.03302536904811859,
    -0.05194196105003357,
    0.0656665712594986,
    -0.01062563806772232,
    0.07719151675701141,
    -0.014585644006729126,
    0.09259992837905884,
    -0.03424401581287384,
    0.04647332429885864,
    -0.08096174895763397,
    0.004790075123310089,
    -0.08625128865242004,
    0.030692026019096375,
    0.07701864838600159,
    0.0036243274807929993,
    -0.10036488622426987,
    -0.04223275184631348,
    -0.037837639451026917,
    0.06182311475276947,
    -0.07368841767311096,
    -0.049136530607938766,
    0.021228104829788208,
    0.09927861392498016,
    -0.037849292159080505,
    -0.01700018346309662,
    -0.06239716336131096,
    0.05266270041465759,
    0.05120372772216797,
    -0.09173484146595001,
    -0.08309951424598694,
    -0.03275877237319946,
    -0.07222086191177368,
    0.0017931610345840454,
    -0.036532118916511536,
    -0.057260122150182724,
    -0.03358878940343857,
    -0.017081893980503082,
    0.06648874282836914,
    0.05249430239200592,
    0.07356718182563782,
    -0.06429921835660934,
    0.014108754694461823,
    -0.0787954330444336,
    -0.03197720646858215,
    -0.04670264571905136,
    -0.036021724343299866,
    0.06826525926589966,
    -0.029596246778964996,
    0.061316072940826416,
    0.07745188474655151,
    0.07944044470787048,
    0.06584271788597107,
    -0.05290790647268295,
    -0.03336075693368912,
    -0.014590486884117126,
    -0.060383521020412445,
    -0.09811118990182877,
    -0.062013983726501465,
    -0.07647978514432907,
    0.012754499912261963,
    0.08676791191101074,
    -0.0799759030342102,
    0.06389036774635315,
    0.006142385303974152,
    0.01085159182548523,
    -0.02139884978532791,
    -0.06878037750720978,
    0.020758390426635742,
    -0.08106214553117752,
    -0.06872883439064026,
    -0.05704493820667267,
    0.025592774152755737,
    0.0993003249168396,
    0.10129916667938232,
    -0.0523529052734375,
    -0.05930252745747566,
    -0.05526730418205261,
    0.07642114162445068,
    -0.029232122004032135,
    0.03460901975631714,
    -0.0918378010392189,
    -0.06553153693675995,
    -0.04767708107829094,
    0.053645238280296326,
    0.027268067002296448,
    0.09981968998908997,
    0.09192201495170593,
    0.05052071809768677,
    -0.09673123806715012,
    -0.09575121104717255,
    0.05436602234840393,
    0.011583670973777771,
    0.029125705361366272,
    0.003712072968482971,
    -0.049985744059085846,
    0.07600274682044983,
    -0.09971527755260468,
    -0.0823947936296463,
    0.022984668612480164,
    0.0007543638348579407,
    0.019994273781776428,
    0.016034021973609924,
    0.037273019552230835,
    0.07277664542198181,
    -4.32431697845459e-05,
    -0.03380659967660904,
    -0.01628674566745758,
    -0.007107451558113098,
    0.0444464385509491,
    0.06428851187229156,
    -0.029892727732658386,
    -0.03337591886520386,
    0.09099124372005463,
    0.04766806960105896,
    -0.008750036358833313,
    0.015075743198394775,
    -0.10115280747413635,
    -0.09247202426195145,
    -0.09080464392900467,
    0.049155041575431824,
    -0.0497695654630661,
    -0.04197695851325989,
    -0.09302923828363419,
    0.09015907347202301,
    -0.028884634375572205,
    0.023078158497810364,
    -0.04947517812252045,
    0.05618786811828613,
    -0.016996651887893677,
    0.06319732964038849,
    0.10139156877994537,
    0.0037586241960525513,
    -0.02957390993833542,
    -0.09603369235992432,
    -0.08016733080148697,
    0.041196733713150024,
    0.07680116593837738,
    0.040801286697387695,
    0.07454362511634827,
    0.05075538158416748,
    0.022796444594860077,
    -0.06525340676307678,
    0.06941920518875122,
    -0.06460742652416229,
    -0.0699184313416481,
    0.026211723685264587,
    0.05913682281970978,
    0.06997373700141907,
    -0.020284011960029602,
    0.027777761220932007,
    0.09993043541908264,
    0.02779310941696167,
    0.015204325318336487,
    0.09951172769069672,
    0.029108792543411255,
    -0.09201110154390335,
    -0.02498719096183777,
    -0.0047131553292274475,
    -0.06420453637838364,
    0.012123607099056244,
    0.0527057945728302,
    -0.03459349274635315,
    -0.0969076082110405,
    0.013728156685829163,
    -0.032721906900405884,
    0.009733714163303375,
    0.0755506157875061,
    0.05514301359653473,
    0.07525438070297241,
    0.09818686544895172,
    0.1016131043434143,
    0.096136674284935,
    0.04104700684547424,
    -0.08982619643211365,
    0.051355957984924316,
    0.002314820885658264,
    0.0764566957950592,
    0.09744647145271301,
    -0.10000604391098022,
    0.08088020980358124,
    -0.0023948773741722107,
    -0.01904068887233734,
    -0.09079698473215103,
    0.014280334115028381,
    0.06345728039741516,
    0.06787699460983276,
    0.04210568964481354,
    0.07861575484275818,
    -0.03286842256784439,
    -0.03808771073818207,
    0.04209846258163452,
    0.034874796867370605,
    -0.03446236252784729,
    0.052787572145462036,
    -0.041342996060848236,
    -0.08180022984743118,
    0.06433925032615662,
    -0.043447308242321014,
    0.03194396197795868,
    0.01663019508123398,
    -0.014020740985870361,
    0.03042292594909668,
    0.06031504273414612,
    -0.09470082819461823,
    -0.06243845820426941,
    -0.040889713913202286,
    0.08167719841003418,
    -0.05801139399409294,
    -0.08170024305582047,
    -0.05998646840453148,
    0.018101081252098083,
    0.019989408552646637,
    0.024975627660751343,
    -0.08009795844554901,
    -0.024453796446323395,
    0.015018463134765625,
    -0.04803599789738655,
    -0.09931261092424393,
    0.06093722581863403,
    -0.021640434861183167,
    0.09900432825088501,
    0.0274382084608078,
    -0.021437250077724457,
    0.01828078180551529,
    0.09301653504371643,
    -0.08680448681116104,
    -0.042822107672691345,
    -0.04957370460033417,
    -0.05675945803523064,
    -0.027247309684753418,
    0.03724744915962219,
    -0.01696798950433731,
    -0.06029180809855461,
    0.09982901811599731,
    0.009631000459194183,
    -0.07029080390930176,
    0.056619808077812195,
    0.07887257635593414,
    0.05212533473968506,
    0.09458126127719879,
    0.08389724791049957,
    -0.014974981546401978,
    -0.06327295303344727,
    -0.0052755773067474365,
    -0.0998983159661293,
    0.05522686243057251,
    0.06924419105052948,
    -0.0004033520817756653,
    0.07552036643028259,
    0.07925739884376526,
    0.05244438350200653,
    -0.05816831812262535,
    0.03558097779750824,
    0.0035376250743865967,
    -0.09305381774902344,
    0.08314564824104309,
    0.0664294958114624,
    -0.10063443332910538,
    -0.0031635239720344543,
    0.03607785701751709,
    0.04801437258720398,
    0.03620724380016327,
    0.08758361637592316,
    -0.09555987268686295,
    0.08259403705596924,
    -0.050954509526491165,
    0.03458490967750549,
    -0.09965211153030396,
    -0.016649000346660614,
    -0.0027034059166908264,
    0.1005963683128357,
    -0.05879814550280571,
    0.06021265685558319,
    -0.023509584367275238,
    -0.02544432133436203,
    0.0033714771270751953,
    -0.08044566214084625,
    0.09966126084327698,
    0.055199310183525085,
    -0.08973783999681473,
    0.04435577988624573,
    -0.03280987590551376,
    -0.09365186095237732,
    0.0035951733589172363,
    0.01797909289598465,
    -0.06747318059206009,
    -0.009915828704833984,
    -0.0755099281668663,
    -0.07946266233921051,
    0.05882991850376129,
    -0.008171215653419495,
    -0.04003181308507919,
    -0.0010625943541526794,
    0.03803984820842743,
    0.03200402855873108,
    0.09279534220695496,
    -0.023317813873291016,
    0.04291410744190216,
    -0.05073365941643715,
    -0.033975377678871155,
    0.01680205762386322,
    0.02500186860561371,
    -0.07763238996267319,
    -0.06183496490120888,
    0.09951668977737427,
    0.05710779130458832,
    0.0612354576587677,
    -0.035137712955474854,
    -0.032122522592544556,
    0.0025950223207473755,
    0.025676965713500977,
    0.02284659445285797,
    -0.003327116370201111,
    0.014121435582637787,
    -0.07475483417510986,
    0.07388605177402496,
    0.09453022480010986,
    0.07386493682861328,
    -0.0776330977678299,
    0.09185861051082611,
    -0.09906703978776932,
    -0.07572345435619354,
    0.05849209427833557,
    -0.02149304747581482,
    0.012493252754211426,
    0.07933181524276733,
    -0.08811613917350769,
    -0.033427946269512177,
    -0.06056913733482361,
    -0.0415695421397686,
    -0.026681557297706604,
    0.0502602756023407,
    0.10054485499858856,
    -8.828192949295044e-05,
    0.07669718563556671,
    -0.02902815490961075,
    0.046906858682632446,
    -0.06321661919355392,
    -0.004367642104625702,
    0.027753129601478577,
    0.043367788195610046,
    0.012383148074150085,
    0.08149401843547821,
    0.043997883796691895,
    0.0992552787065506,
    0.1004745364189148,
    0.08844789862632751,
    0.07259589433670044,
    0.0233975350856781,
    0.00426405668258667,
    0.05204024910926819,
    0.0689973533153534,
    0.025900498032569885,
    -0.08169806003570557,
    0.01870664209127426,
    -0.0839897096157074,
    0.012123554944992065,
    0.020589955151081085,
    0.051251962780952454,
    0.05908219516277313,
    0.00194656103849411,
    -0.06429595500230789,
    -0.01570890098810196,
    -0.0807332843542099,
    0.0847523957490921,
    0.05308757722377777,
    0.05275893211364746,
    -0.05734918266534805,
    -0.083296038210392,
    -0.06856047362089157,
    0.04841357469558716,
    -0.07887033373117447,
    -0.0446685366332531,
    0.026776209473609924,
    -0.09274736046791077,
    -0.10032264143228531,
    0.06540118157863617,
    -0.05422043055295944,
    -0.02838190644979477,
    0.021057426929473877,
    0.07684239745140076,
    0.06079767644405365,
    0.06937275826931,
    -0.08283822238445282,
    0.029257982969284058,
    -0.0788983628153801,
    0.06427587568759918,
    0.027331650257110596,
    -0.09392274171113968,
    0.004898719489574432,
    0.07662396132946014,
    0.04668682813644409,
    0.08253213763237,
    -0.05486370995640755,
    -0.0935290977358818,
    -0.01732815057039261,
    0.05553413927555084,
    -0.0005439296364784241,
    0.07922589778900146,
    0.03012995421886444,
    -0.05112462490797043,
    -0.08259362727403641,
    -0.020401544868946075,
    0.09601669013500214,
    -0.04609411209821701,
    -0.043045222759246826,
    0.09953141212463379,
    -0.00971142202615738,
    0.06681887805461884,
    0.01379317045211792,
    0.013650067150592804,
    -0.023949243128299713,
    -0.04016856476664543,
    0.09769165515899658,
    0.08088509738445282,
    0.08801157772541046,
    -0.08197404444217682,
    0.0005276501178741455,
    0.0843011736869812,
    0.07789495587348938,
    0.052267491817474365,
    -0.06363537907600403,
    -0.08939875662326813,
    0.02219046652317047,
    0.04269708693027496,
    -0.0913696438074112,
    -0.027102090418338776,
    -0.030244074761867523,
    -0.07165927439928055,
    -0.018812179565429688,
    0.05403219163417816,
    -0.04510412737727165,
    -0.09326648712158203,
    -0.031842224299907684,
    -0.002871982753276825,
    -0.039009928703308105,
    -0.01874805986881256,
    0.00836607813835144,
    -0.03415340185165405,
    -0.04221184924244881,
    0.05312386155128479,
    0.03186996281147003,
    -0.09802259504795074,
    -0.09996414184570312,
    0.02236761897802353,
    0.08182418346405029,
    -0.015706464648246765,
    -0.03049527108669281,
    0.06655286252498627,
    0.01984298974275589,
    -0.08030512928962708,
    -0.06111099570989609,
    0.061913445591926575,
    0.0688672661781311,
    -0.053749941289424896,
    -0.020042330026626587,
    -0.02499724179506302,
    0.07459114491939545,
    0.010343581438064575,
    -0.017590366303920746,
    -0.025742456316947937,
    0.0033613592386245728,
    -0.08213797956705093,
    -0.08514124155044556,
    -0.06954658776521683,
    -0.0739791989326477,
    -0.09115570783615112,
    -0.06512027978897095,
    0.0712253749370575,
    0.013138435781002045,
    0.004128247499465942,
    -0.0010797008872032166,
    0.0007654353976249695,
    0.039473459124565125,
    -0.02503395825624466,
    0.06799657642841339,
    -0.00814325362443924,
    0.06542558968067169,
    -0.10135514289140701,
    0.04279324412345886,
    0.005892843008041382,
    -0.045450955629348755,
    -0.021073661744594574,
    0.03697997331619263,
    -0.043352603912353516,
    0.06779991090297699,
    0.030809685587882996,
    0.08799955248832703,
    0.10138334333896637,
    0.002728976309299469,
    0.04840026795864105,
    -0.06729936599731445,
    -0.03715308755636215,
    0.074199378490448,
    -0.07627521455287933,
    0.09325237572193146,
    0.06430554389953613,
    -0.030751794576644897,
    -0.02094680815935135,
    0.005515478551387787,
    0.09966740012168884,
    -0.05395122617483139,
    -0.033329784870147705,
    -0.07402032613754272,
    -0.09679898619651794,
    0.06061549484729767,
    -0.06416640430688858,
    0.08771227300167084,
    -0.050481148064136505,
    0.08038876950740814,
    -0.09120943397283554,
    0.09719690680503845,
    0.07054241001605988,
    0.08272124826908112,
    0.001778632402420044,
    0.07198236882686615,
    0.09043015539646149,
    -0.06397874653339386,
    -0.06396198272705078,
    -0.018840499222278595,
    0.08236715197563171,
    0.05671191215515137,
    -0.0007367432117462158,
    0.030789628624916077,
    -0.01624998450279236,
    -0.10143162310123444,
    -0.03133801370859146,
    0.09342962503433228,
    -0.09052524715662003,
    0.09701299667358398,
    0.06548182666301727,
    -0.04111813008785248,
    0.07874418795108795,
    0.004815086722373962,
    0.02647651731967926,
    0.027775928378105164,
    0.05255013704299927,
    -0.04568285122513771,
    0.07207413017749786,
    0.05314406752586365,
    0.015435345470905304,
    -0.041988931596279144,
    0.010379426181316376,
    -0.022359266877174377,
    0.0052085816860198975,
    -0.06907442212104797,
    -0.0833294466137886,
    -0.04994204267859459,
    0.026606321334838867,
    -0.05513213202357292,
    -0.031243816018104553,
    0.05691926181316376,
    -0.052760589867830276,
    -0.024926841259002686,
    -0.09810566902160645,
    0.10090692341327667,
    0.033309295773506165,
    -0.09908538311719894,
    0.0018061995506286621,
    -0.03197997808456421,
    0.04312698543071747,
    0.02989630401134491,
    -0.049377553164958954,
    -0.043119512498378754,
    -0.004351094365119934,
    0.026728808879852295,
    -0.0062784552574157715,
    0.04048509895801544,
    0.07127583026885986,
    -0.042545534670352936,
    0.06977763772010803,
    0.05352284014225006,
    -0.0035440996289253235,
    -0.0682411715388298,
    -0.09391354024410248,
    0.05346052348613739,
    0.05301743745803833,
    0.048084110021591187,
    -0.059770289808511734,
    -0.041217729449272156,
    -0.052729979157447815,
    0.034975871443748474,
    -0.014616742730140686,
    0.008007325232028961,
    -0.025483131408691406,
    -0.04681761935353279,
    0.06735406816005707,
    0.051288098096847534,
    0.0563032329082489,
    0.019037723541259766,
    0.07672294974327087,
    0.024093762040138245,
    -0.03846617043018341,
    0.025016143918037415,
    0.0663822591304779,
    0.036167874932289124,
    0.05091637372970581,
    -0.059654656797647476,
    0.09292180836200714,
    -0.043357592076063156,
    -0.0690377950668335,
    0.08724412322044373,
    -0.06787310540676117,
    -0.0605132170021534,
    -0.0007387399673461914,
    -0.06529504060745239,
    0.04904907941818237,
    0.025035887956619263,
    -0.05180450156331062,
    -0.037626467645168304,
    -0.013514555990695953,
    0.07436937093734741,
    -0.09114497900009155,
    -0.06262290477752686,
    -0.015657268464565277,
    0.0677262544631958,
    -0.03659307211637497,
    0.097011998295784,
    0.07381181418895721,
    -0.003360457718372345,
    0.05005642771720886,
    -0.09469759464263916,
    -0.06277158856391907,
    0.07202114164829254,
    0.04136008024215698,
    0.002053774893283844,
    0.09362940490245819,
    0.09819947183132172,
    0.0267169326543808,
    0.05558714270591736,
    -0.023302800953388214,
    -0.031519100069999695,
    0.07306662201881409,
    -0.005254864692687988,
    -0.04598933085799217,
    0.06931373476982117,
    0.10080382227897644,
    -0.00522235780954361,
    0.031626924872398376,
    -0.05130262300372124,
    -0.05357761308550835,
    -0.09214743971824646,
    0.07830382883548737,
    -0.04974318668246269,
    -0.04941490292549133,
    0.020131394267082214,
    -0.06419874727725983,
    0.05220040678977966,
    -0.01813952624797821,
    0.07153631746768951,
    -0.05314294248819351,
    0.03801436722278595,
    0.09486746788024902,
    0.09626898169517517,
    0.08347547054290771,
    -0.06957593560218811,
    -0.09227366000413895,
    -0.08073050528764725,
    -0.003725022077560425,
    -0.07977016270160675,
    -0.04768279939889908,
    0.08089222013950348,
    -0.08867527544498444,
    0.09115932881832123,
    -0.038557857275009155,
    -0.08420465141534805,
    0.09463900327682495,
    0.08546365797519684,
    0.07064872980117798,
    0.023360177874565125,
    -0.03171420842409134,
    -0.026853203773498535,
    0.07315750420093536,
    0.015403494238853455,
    0.029726549983024597,
    -0.10030633956193924,
    -0.002071850001811981,
    0.07024082541465759,
    -0.007879480719566345,
    -0.0934908464550972,
    0.08819448947906494,
    0.004999950528144836,
    -0.06071963906288147,
    0.07562395930290222,
    0.03124082088470459,
    -0.0943647101521492,
    -0.013929225504398346,
    -0.022531405091285706,
    -0.01325204223394394,
    0.0667266994714737,
    -0.07582268118858337,
    -0.09243144094944,
    0.08354440331459045,
    0.05495312809944153,
    -0.058561477810144424,
    0.03654837608337402,
    0.016826175153255463,
    0.08557358384132385,
    -0.012243911623954773,
    0.0025046691298484802,
    0.022005215287208557,
    0.0671728104352951,
    0.034284189343452454,
    0.030001014471054077,
    -0.006354495882987976,
    -0.022386521100997925,
    -0.04205414280295372,
    0.01447545737028122,
    0.09384052455425262,
    -0.09764355421066284,
    -0.009590879082679749,
    -0.037709109485149384,
    0.05900317430496216,
    -0.07961136102676392,
    0.0962342768907547,
    0.09086085855960846,
    0.03440861403942108,
    -0.04856576398015022,
    0.03903256356716156,
    -0.0037060678005218506,
    0.0063620880246162415,
    -0.012676902115345001,
    0.0562162846326828,
    0.07357586920261383,
    0.04674617946147919,
    -0.02509671449661255,
    -0.07791955024003983,
    0.0739041417837143,
    0.012430816888809204,
    -0.08369946479797363,
    -0.026020415127277374,
    0.06282073259353638,
    -0.06186462566256523,
    -0.008239634335041046,
    -0.03265509009361267,
    -0.039051637053489685,
    -0.0775853767991066,
    0.005523361265659332,
    -0.04418198764324188,
    0.08916692435741425,
    -0.06199602782726288,
    -0.03882506489753723,
    0.017281770706176758,
    0.0887937992811203,
    -0.021181650459766388,
    -0.10127793252468109,
    -0.07474792003631592,
    -0.07224094122648239,
    0.06638406217098236,
    0.03930738568305969,
    -0.0932474136352539,
    -0.07954239845275879,
    0.014566957950592041,
    -0.06355057656764984,
    0.07733695209026337,
    0.08321176469326019,
    0.04397024214267731,
    0.08357396721839905,
    0.03219825029373169,
    0.03210510313510895,
    0.05990532040596008,
    -0.07634106278419495,
    -0.027150653302669525,
    9.431689977645874e-05,
    0.05902522802352905,
    0.004800267517566681,
    0.06464160978794098,
    -0.04201143980026245,
    0.05430902540683746,
    -0.049872130155563354,
    -0.071281298995018,
    -0.10060552507638931,
    0.09265044331550598,
    -0.061934951692819595,
    0.002716958522796631,
    -0.08730047941207886,
    0.044780194759368896,
    -0.058015093207359314,
    -0.0036512911319732666,
    -0.04075342044234276,
    -0.10017628222703934,
    -0.012354627251625061,
    0.0699319839477539,
    -0.024516776204109192,
    -0.086497962474823,
    0.02997031807899475,
    -0.03234340250492096,
    0.03320753574371338,
    -0.06607507169246674,
    -0.04551193490624428,
    -0.008254162967205048,
    0.08905220031738281,
    -0.00501849502325058,
    -0.08753317594528198,
    -0.008724309504032135,
    -0.0873241052031517,
    -0.022167913615703583,
    -0.06774590909481049,
    -0.05138754844665527,
    -0.003649197518825531,
    -0.07765764743089676,
    -0.09839002788066864,
    -0.03403949737548828,
    -0.003255508840084076,
    0.057692065834999084,
    0.05474269390106201,
    0.03158979117870331,
    -0.024598583579063416,
    0.05385051667690277,
    0.05198794603347778,
    -0.01565030962228775,
    -0.04514133557677269,
    -0.03207264095544815,
    -0.02147097885608673,
    -0.005562804639339447,
    0.01765582710504532,
    -0.05095820873975754,
    0.03931039571762085,
    -0.06656980514526367,
    -0.09265170246362686,
    -0.09757161885499954,
    0.01917634904384613,
    0.06308746337890625,
    0.06266529858112335,
    -0.0067124441266059875,
    0.045428767800331116,
    0.06612412631511688,
    0.0022815093398094177,
    -0.0003750249743461609,
    -0.028332799673080444,
    -0.021595194935798645,
    -0.05211784690618515,
    -0.05230944603681564,
    -0.07623041421175003,
    -0.08622756600379944,
    -0.026550300419330597,
    0.04613065719604492,
    0.07876141369342804,
    0.017058871686458588,
    -0.050282225012779236,
    -0.0589120015501976,
    -0.08495813608169556,
    0.03549495339393616,
    -0.09887728095054626,
    0.08696554601192474,
    0.05180063843727112,
    -0.07801486551761627,
    0.06758445501327515,
    0.030977323651313782,
    0.0002550184726715088,
    -0.03777894377708435,
    -0.027880147099494934,
    -0.04801546037197113,
    -0.04736841097474098,
    0.07764981687068939,
    -0.04806220531463623,
    0.00943019986152649,
    -0.08036550879478455,
    0.10037240386009216,
    0.006183624267578125,
    -0.055370233952999115,
    -0.09838754683732986,
    0.0488959401845932,
    0.007929190993309021,
    0.020224370062351227,
    0.043571993708610535,
    0.06480145454406738,
    -0.0361388623714447,
    0.10113908350467682,
    -0.08326776325702667,
    0.011546559631824493,
    -0.04359384626150131,
    0.09549848735332489,
    0.09545278549194336,
    -0.024813935160636902,
    0.013368360698223114,
    -0.043321676552295685,
    0.040707677602767944,
    -0.08650717884302139,
    0.09560556709766388,
    0.042286574840545654,
    0.014811143279075623,
    0.054505735635757446,
    0.03663955628871918,
    -0.01857782155275345,
    -0.011055074632167816,
    0.0027777403593063354,
    -0.0558781735599041,
    -0.06500671803951263,
    0.017474688589572906,
    -0.06683732569217682,
    -0.03032349795103073,
    -0.10021620988845825,
    0.10147619247436523,
    -0.08563555777072906,
    -0.054051775485277176,
    -0.07826320827007294,
    -0.06864449381828308,
    0.06424103677272797,
    -0.03808474540710449,
    -0.03835124522447586,
    -0.08292604982852936,
    0.0948028564453125,
    0.06306974589824677,
    0.028149768710136414,
    -0.008388049900531769,
    -0.09551607072353363,
    -0.030518703162670135,
    0.027893826365470886,
    -0.07514879107475281,
    0.07213670015335083,
    0.0861433893442154,
    -0.044967859983444214,
    -0.08402229100465775,
    0.010686762630939484,
    0.08788783848285675,
    0.07349582016468048,
    -0.06031794100999832,
    0.013805583119392395,
    -0.037402309477329254,
    0.02965177595615387,
    -0.07936026155948639,
    -0.027871854603290558,
    0.04730270802974701,
    0.03461843729019165,
    -0.08203616738319397,
    0.010204106569290161,
    0.09364847838878632,
    -0.058098822832107544,
    0.048361584544181824,
    0.026437923312187195,
    0.015490390360355377,
    -0.07452183961868286,
    -0.03824344277381897,
    -0.0968259945511818,
    0.05644163489341736,
    0.09616224467754364,
    -0.008971981704235077,
    0.09315565228462219,
    0.046566784381866455,
    0.0516120046377182,
    -0.06489701569080353,
    0.062191277742385864,
    0.015174709260463715,
    -0.05081726983189583,
    0.057539865374565125,
    -0.05486582592129707,
    0.07365544140338898,
    0.014495417475700378,
    0.07436080276966095,
    0.014902368187904358,
    -0.05823183059692383,
    0.03612956404685974,
    0.0457044392824173,
    0.08396925032138824,
    -0.08286326378583908,
    0.050277143716812134,
    0.05730561912059784,
    -0.08873829245567322,
    0.02925632894039154,
    0.09334929287433624,
    0.06389409303665161,
    0.07201969623565674,
    0.049236103892326355,
    0.04659496247768402,
    -0.09790199995040894,
    0.036276787519454956,
    -0.08017278462648392,
    -0.037908151745796204,
    0.0635123997926712,
    0.034523651003837585,
    -0.07191331684589386,
    -0.013682015240192413,
    0.003969594836235046,
    0.005339279770851135,
    0.02387598156929016,
    0.022743351757526398,
    0.04181849956512451,
    0.0353865772485733,
    0.03228704631328583,
    0.08886787295341492,
    -0.07815614342689514,
    -0.0011342540383338928,
    0.04337942600250244,
    0.02652876079082489,
    0.011131525039672852,
    -0.030298776924610138,
    -0.0974816381931305,
    0.058179810643196106,
    -0.08089682459831238,
    0.006820850074291229,
    0.02212328463792801,
    -0.017226070165634155,
    -0.047903016209602356,
    0.04736347496509552,
    0.08962413668632507,
    0.005053676664829254,
    -0.0013504624366760254,
    0.03306695818901062,
    -0.03976402059197426,
    -0.06701464205980301,
    -0.017148010432720184,
    -0.07832278311252594,
    -0.08663254976272583,
    -0.055660754442214966,
    0.09711244702339172,
    0.03972060978412628,
    -0.024438977241516113,
    0.01104234904050827,
    -0.0821380764245987,
    -0.06625480204820633,
    0.0408492237329483,
    0.025755926966667175,
    0.0645224004983902,
    -0.08536156266927719,
    -0.08179979026317596,
    -0.00900762528181076,
    -0.06790255010128021,
    -0.07889743894338608,
    0.02627834677696228,
    0.027649670839309692,
    -0.08841076493263245,
    0.062325283885002136,
    -0.03996136784553528,
    -0.04273144155740738,
    0.05601699650287628,
    0.014134526252746582,
    -0.03943515568971634,
    -0.0006451085209846497,
    -0.008177176117897034,
    0.013322055339813232,
    0.023856118321418762,
    0.0035797730088233948,
    -0.04036355018615723,
    -0.019933514297008514,
    -0.024380944669246674,
    0.07113099098205566,
    0.010612517595291138,
    -0.057629235088825226,
    -0.040686797350645065,
    -0.04404907673597336,
    -0.024877935647964478,
    -0.06036527082324028,
    0.06842751801013947,
    0.06354247033596039,
    -0.07965606451034546,
    -0.0100068598985672,
    -0.05642949789762497,
    -0.026149041950702667,
    0.013060301542282104,
    -0.0023943930864334106,
    0.037318095564842224,
    0.02792339026927948,
    -0.012786202132701874,
    -0.04582982510328293,
    -0.08920910209417343,
    -0.06176106259226799,
    -0.031799860298633575,
    -0.08575113862752914,
    0.10086603462696075,
    0.02519865334033966,
    0.04376624524593353,
    -0.044082172214984894,
    0.08123718202114105,
    0.08884124457836151,
    -0.08072104305028915,
    0.07178689539432526,
    -0.055146001279354095,
    -0.05806266516447067,
    0.048314422369003296,
    0.04834051430225372,
    -0.08495178818702698,
    -0.012624390423297882,
    -0.06296009570360184,
    -0.0738363191485405,
    0.026581719517707825,
    0.040279120206832886,
    0.08686065673828125,
    -0.10128182172775269,
    0.022332817316055298,
    0.0490201860666275,
    0.01739034801721573,
    0.057124897837638855,
    -0.03845740854740143,
    -0.08689887821674347,
    -0.011234797537326813,
    -0.06160428375005722,
    0.004458695650100708,
    0.028217285871505737,
    -0.0752430111169815,
    -0.059401735663414,
    -0.06604840606451035,
    -0.08548867702484131,
    -0.02362850308418274,
    0.015989050269126892,
    0.09929722547531128,
    -0.05604279041290283,
    0.04020869731903076,
    -0.03247472643852234,
    -0.02888103574514389,
    -0.08760106563568115,
    0.07733403146266937,
    0.09124547243118286,
    -0.0850968137383461,
    -0.02812078595161438,
    0.004964493215084076,
    0.0494743287563324,
    -0.017680302262306213,
    0.02687785029411316,
    -0.09938619285821915,
    -0.042041223496198654,
    -0.039436519145965576,
    -0.07014799118041992,
    -0.03238905221223831,
    -0.019595786929130554,
    -0.03074520081281662,
    0.048675477504730225,
    0.09968732297420502,
    0.036663785576820374,
    0.04467493295669556,
    0.01635860651731491,
    -0.0025294944643974304,
    -0.034001924097537994,
    -0.06573443114757538,
    -0.032010518014431,
    0.03726555407047272,
    -0.06219339743256569,
    -0.01058005541563034,
    -0.0332656130194664,
    0.0844736248254776,
    0.09950076043605804,
    0.09978726506233215,
    0.047919631004333496,
    -0.0068169087171554565,
    0.012228213250637054,
    0.026696428656578064,
    -0.09737517684698105,
    0.08193357288837433,
    -0.018047809600830078,
    -0.0646095871925354,
    0.013936452567577362,
    -0.009824134409427643,
    -0.09809807687997818,
    -0.0184037908911705,
    0.008137702941894531,
    0.012948773801326752,
    -0.07835276424884796,
    -0.04756616801023483,
    0.07590547204017639,
    0.020306766033172607,
    -0.00022517889738082886,
    0.02440720796585083,
    0.016469493508338928,
    0.021345146000385284,
    -0.0775657668709755,
    -0.06618902832269669,
    -0.061997342854738235,
    0.05085459351539612,
    0.043763890862464905,
    0.09526543319225311,
    -0.06452316045761108,
    0.10050921142101288,
    0.010440722107887268,
    0.0575016587972641,
    -0.022975005209445953,
    0.05138413608074188,
    -0.02510138601064682,
    0.0061392709612846375,
    -0.06377100944519043,
    -0.06993692368268967,
    -0.025374628603458405,
    -0.030373603105545044,
    -0.08659502863883972,
    0.08437231183052063,
    0.05571538209915161,
    0.04424586892127991,
    -0.06713348627090454,
    -0.06848219037055969,
    0.05159524083137512,
    -0.03839253634214401,
    0.09911370277404785,
    -0.06865482032299042,
    0.005030341446399689,
    0.09593071043491364,
    0.020251743495464325,
    0.08822980523109436,
    0.08644048869609833,
    0.03369826078414917,
    -0.023318134248256683,
    0.052450209856033325,
    0.023022115230560303,
    -0.05892981216311455,
    0.0927061140537262,
    -0.03869923949241638,
    0.023632928729057312,
    -0.004417091608047485,
    0.04890704154968262,
    0.07965987920761108,
    -0.03111453354358673,
    -0.013705722987651825,
    -0.06696626543998718,
    0.07994887232780457,
    -0.0477922260761261,
    0.10026465356349945,
    -0.04525487497448921,
    0.04072660207748413,
    0.07546775043010712,
    -0.029748961329460144,
    -0.0324987918138504,
    0.08290491998195648,
    -0.0744255781173706,
    -0.09034600853919983,
    0.05137209594249725,
    0.049563661217689514,
    -0.05466855317354202,
    -0.07167302072048187,
    -0.027061380445957184,
    0.054459065198898315,
    -0.10133146494626999,
    0.02224256843328476,
    -0.03474285453557968,
    0.09776130318641663,
    0.06201513111591339,
    0.08881710469722748,
    -0.008801057934761047,
    0.042981475591659546,
    -0.03447749465703964,
    0.04390519857406616,
    0.004475489258766174,
    -0.0045304074883461,
    0.02077978104352951,
    -0.07287193089723587,
    0.0909772664308548,
    -0.002226002514362335,
    0.02675701677799225,
    -0.057170573621988297,
    -0.011617660522460938,
    -0.09830863773822784,
    0.0069059208035469055,
    -0.08094349503517151,
    0.047608599066734314,
    0.012318931519985199,
    0.050830259919166565,
    -0.02990683913230896,
    0.08439193665981293,
    -0.062221258878707886,
    0.05060899257659912,
    -0.09212556481361389,
    -0.0550772100687027,
    0.07283426821231842,
    -0.020146943628787994,
    -0.025344334542751312,
    -0.021666668355464935,
    -0.015500657260417938,
    -0.03110874444246292,
    -0.045243024826049805,
    -0.07083448767662048,
    0.042874231934547424,
    0.020664319396018982,
    0.02256011962890625,
    0.0541197806596756,
    0.08834990859031677,
    -0.04580116271972656,
    0.04191023111343384,
    -0.09382231533527374,
    0.0626116693019867,
    0.025463566184043884,
    -0.030912786722183228,
    0.052099406719207764,
    -0.008147560060024261,
    0.057855024933815,
    0.013924792408943176,
    -0.0899486169219017,
    0.0736512839794159,
    -0.019974492490291595,
    -0.010262921452522278,
    -0.04651466757059097,
    0.0035094022750854492,
    0.019213169813156128,
    -0.008105948567390442,
    0.035047292709350586,
    0.004732862114906311,
    -0.05732966586947441,
    0.04954583942890167,
    0.03339836001396179,
    0.0910397320985794,
    0.004697166383266449,
    0.09348967671394348,
    -0.10007079690694809,
    -0.08229967951774597,
    0.01609373837709427,
    -0.07672806084156036,
    -0.09904073178768158,
    -0.0228353813290596,
    0.07743777334690094,
    0.041154712438583374,
    -0.08590726554393768,
    -0.04483091086149216,
    0.014987170696258545,
    -0.023576602339744568,
    0.019880905747413635,
    0.08020494878292084,
    -0.007545746862888336,
    -0.0912645012140274,
    0.021246887743473053,
    -0.0007928833365440369,
    0.012044422328472137,
    0.07243859767913818,
    0.10061658918857574,
    0.06582938134670258,
    0.10091567039489746,
    0.014486826956272125,
    -0.04125861078500748,
    0.06754134595394135,
    0.05207531154155731,
    -0.08369456976652145,
    0.0856340229511261,
    -0.05565501004457474,
    -0.04036751762032509,
    -0.03384925425052643,
    0.008498787879943848,
    -0.06488321721553802,
    -0.012946344912052155,
    -0.00927850604057312,
    -0.08913981914520264,
    0.09031897783279419,
    -0.05518046021461487,
    -0.05543017014861107,
    -0.03361458331346512,
    0.07995526492595673,
    -0.060238733887672424,
    -0.014296293258666992,
    0.018740050494670868,
    -0.05319749936461449,
    -0.01717051863670349,
    -0.05518140643835068,
    -0.05825107917189598,
    -0.00748230516910553,
    -0.05099312588572502,
    0.07791642844676971,
    0.015444032847881317,
    0.09966760873794556,
    0.051230162382125854,
    -0.08946216851472855,
    -0.0955926775932312,
    0.025731131434440613,
    -0.037203118205070496,
    -0.05303093418478966,
    -0.041894443333148956,
    -0.07283718138933182,
    0.004494763910770416,
    -0.02646586298942566,
    -0.09368346631526947,
    -0.029633767902851105,
    -0.04894779995083809,
    0.08602339029312134,
    0.06978817284107208,
    -0.014374136924743652,
    0.018583737313747406,
    -0.07977543771266937,
    0.0554652065038681,
    0.03508904576301575,
    -0.03695029020309448,
    0.008620627224445343,
    0.05624285340309143,
    -0.04596526548266411,
    0.03538943827152252,
    0.06207345426082611,
    -0.040130313485860825,
    -0.0037197619676589966,
    0.030016854405403137,
    0.02775953710079193,
    0.07477043569087982,
    -0.0013966932892799377,
    0.08826802670955658,
    -0.06558144092559814,
    0.040415748953819275,
    -0.06923660635948181,
    -0.08142301440238953,
    0.07203526794910431,
    0.09803250432014465,
    0.06408055126667023,
    -0.08554306626319885,
    -0.04698114097118378,
    0.036517202854156494,
    -0.0026515722274780273,
    -0.07313808798789978,
    -0.041644610464572906,
    0.047626420855522156,
    -0.0406491756439209,
    -0.03433118015527725,
    -0.0668211430311203,
    -0.011784397065639496,
    0.05115306377410889,
    -0.014879472553730011,
    -0.09768323600292206,
    -0.04287092387676239,
    -0.03708378225564957,
    0.06380167603492737,
    -0.022912591695785522,
    -0.0019430816173553467,
    0.00456063449382782,
    0.007575333118438721,
    0.03386963903903961,
    -0.0040747374296188354,
    0.07620847225189209,
    -0.034490905702114105,
    -0.062331464141607285,
    -0.045216914266347885,
    0.024874716997146606,
    -0.08952485024929047,
    0.09066104888916016,
    0.011697910726070404,
    0.03910157084465027,
    0.007842488586902618,
    -0.026562422513961792,
    0.03692804276943207,
    0.0800425261259079,
    0.09932400286197662,
    -0.04988262057304382,
    -0.09035564959049225,
    -0.06274184584617615,
    -0.06503849476575851,
    -0.09014102816581726,
    -0.043311212211847305,
    -0.09490547329187393,
    -0.07008609175682068,
    -0.02835983783006668,
    -0.074798583984375,
    -0.0080336332321167,
    0.016673021018505096,
    0.07341501116752625,
    -0.05770892649888992,
    0.007307566702365875,
    -0.06066625192761421,
    0.07625652849674225,
    -0.05733618885278702,
    -0.017281770706176758,
    0.019600316882133484,
    -0.0027631446719169617,
    -0.038802534341812134,
    -0.007494106888771057,
    -0.08006194233894348,
    0.062200725078582764,
    -0.020309075713157654,
    0.022543497383594513,
    -0.02189932018518448,
    -0.05731411650776863,
    0.010104894638061523,
    0.0225236639380455,
    0.0005687251687049866,
    0.05752134323120117,
    0.08958125114440918,
    0.03223507106304169,
    0.021125413477420807,
    0.0003360435366630554,
    0.027602702379226685,
    0.09211111068725586,
    0.0753835141658783,
    -0.01221400499343872,
    -0.07326187193393707,
    0.019646279513835907,
    0.011842258274555206,
    0.08641940355300903,
    0.026984408497810364,
    -0.0148230642080307,
    0.03952266275882721,
    -0.060644131153821945,
    0.10150866210460663,
    -0.060076210647821426,
    -0.040364913642406464,
    -0.06893669068813324,
    0.07098986208438873,
    -0.016649097204208374,
    -0.03003193438053131,
    0.036416903138160706,
    -0.09624800086021423,
    -0.06356577575206757,
    -0.00858546793460846,
    0.011494047939777374,
    0.0797652006149292,
    -0.04316265508532524,
    0.04984422028064728,
    -0.06911048293113708,
    0.08496677875518799,
    -0.05742201209068298,
    0.0026374608278274536,
    0.06797289848327637,
    -0.09822887182235718,
    0.08694939315319061,
    -0.03421289473772049,
    -0.0992136225104332,
    0.025687023997306824,
    -0.04885409027338028,
    -0.04703056439757347,
    0.035480380058288574,
    0.01464536041021347,
    -0.04290199652314186,
    0.017924122512340546,
    0.06577859818935394,
    0.0964205265045166,
    0.0246744304895401,
    0.08352509140968323,
    -0.022379979491233826,
    -0.038042403757572174,
    -0.09899809956550598,
    0.08616501092910767,
    -0.027159780263900757,
    -0.07405826449394226,
    -0.09393373876810074,
    -0.014837689697742462,
    -0.018096208572387695,
    -0.014361217617988586,
    -0.025593675673007965,
    0.08118097484111786,
    0.07117173075675964,
    0.015522167086601257,
    0.08815991878509521,
    -0.021491318941116333,
    0.08075588941574097,
    -0.027450740337371826,
    -0.00935065746307373,
    -0.05822652578353882,
    0.009938187897205353,
    -0.026887737214565277,
    -0.10009736567735672,
    -0.014049798250198364,
    0.0349472314119339,
    -0.07538124918937683,
    0.05519995093345642,
    -0.06570248305797577,
    -0.037120528519153595,
    0.014832578599452972,
    0.07254408299922943,
    -0.09497460722923279,
    0.021816514432430267,
    0.08822855353355408,
    0.04005531966686249,
    0.06058916449546814,
    0.0633365660905838,
    0.0918302983045578,
    0.0988350361585617,
    0.08390170335769653,
    -0.10105562210083008,
    0.069772869348526,
    0.011463068425655365,
    -0.09191744029521942,
    0.08440715074539185,
    0.04139524698257446,
    0.0984579473733902,
    -0.08702483028173447,
    -0.0052459388971328735,
    0.0924004316329956,
    0.0060250237584114075,
    0.005282633006572723,
    -0.02452375739812851,
    0.09736374020576477,
    0.05980542302131653,
    -0.03838246315717697,
    0.06732316315174103,
    -0.07176268845796585,
    -0.051053255796432495,
    -0.04190858080983162,
    0.05434136092662811,
    -0.04521796107292175,
    -0.011343352496623993,
    0.04746878147125244,
    -0.0711146667599678,
    -0.0899231880903244,
    -0.06580397486686707,
    -0.09542397409677505,
    -0.10094670206308365,
    0.007875658571720123,
    -0.09222903102636337,
    -0.09783617407083511,
    0.04130434989929199,
    -0.08880771696567535,
    0.05224671959877014,
    -0.0788135901093483,
    -0.08870595693588257,
    0.03578406572341919,
    -0.04785069823265076,
    0.016078554093837738,
    -0.08679704368114471,
    -0.07226364314556122,
    0.007951214909553528,
    0.081363245844841,
    0.04156474769115448,
    0.0018387585878372192,
    -0.08404431492090225,
    -0.07319576293230057,
    0.07766523957252502,
    0.07504880428314209,
    -0.0439850315451622,
    -0.08153803646564484,
    -0.026900313794612885,
    -0.08985617756843567,
    0.01582779735326767,
    0.049742549657821655,
    -0.04605213552713394,
    -0.05160686746239662,
    -0.08223465830087662,
    -0.06368458271026611,
    -0.0334930345416069,
    0.07086361944675446,
    0.023854181170463562,
    -0.07535835355520248,
    -0.059202641248703,
    -0.05783507227897644,
    0.025822699069976807,
    0.09320259094238281,
    -0.010619089007377625,
    -0.06705249845981598,
    -0.08345038443803787,
    0.01844702661037445,
    0.053894802927970886,
    -0.029306992888450623,
    -0.05616725608706474,
    -0.020967930555343628,
    0.07760265469551086,
    0.04430826008319855,
    0.03607538342475891,
    -0.07169209420681,
    0.09264610707759857,
    -0.07251700758934021,
    -0.06604465842247009,
    -0.04916125163435936,
    -0.05158695951104164,
    0.021067693829536438,
    -0.10159382969141006,
    -0.07894012331962585,
    -0.05802652984857559,
    0.0845799446105957,
    0.089800164103508,
    0.04053132236003876,
    0.039099231362342834,
    -0.015173196792602539,
    -0.05445639044046402,
    -0.020003370940685272,
    0.007984042167663574,
    -0.06620326638221741,
    -0.05639207363128662,
    -0.029894672334194183,
    0.022899329662322998,
    0.09920665621757507,
    0.06287276744842529,
    0.030341386795043945,
    0.09281235933303833,
    0.0273333340883255,
    -0.0018663033843040466,
    -0.003704480826854706,
    -0.02260761708021164,
    -0.07024403661489487,
    -0.038650937378406525,
    -0.045587439090013504,
    0.05210576951503754,
    -0.055962782353162766,
    0.012576885521411896,
    -0.047154445201158524,
    -0.07627350836992264,
    0.043108224868774414,
    0.006457619369029999,
    0.09072509407997131,
    0.05864216387271881,
    0.024719983339309692,
    0.01830044388771057,
    -0.0425017848610878,
    -0.00234859436750412,
    -0.002002716064453125,
    -0.03880603611469269,
    0.007599569857120514,
    -0.05058780312538147,
    -0.02226947993040085,
    -0.014913849532604218,
    -0.06345657259225845,
    -0.015347674489021301,
    -0.011239521205425262,
    -0.0952259972691536,
    0.02924191951751709,
    0.056859225034713745,
    -0.09507288783788681,
    -0.09069261699914932,
    -0.08241742849349976,
    0.06954532861709595,
    -0.015424005687236786,
    0.021947063505649567,
    0.03480249643325806,
    0.08815266191959381,
    0.012108467519283295,
    -0.0539700873196125,
    -0.00574357807636261,
    0.039327457547187805,
    0.07407611608505249,
    -0.0880991518497467,
    -0.05250881239771843,
    -0.057973675429821014,
    -0.04275738075375557,
    0.0027214065194129944,
    -0.08522696793079376,
    -0.06398241966962814,
    -0.03159736096858978,
    -0.06599144637584686,
    0.07442076504230499,
    0.06242935359477997,
    0.07596269249916077,
    0.08308102190494537,
    -0.021265409886837006,
    0.034747108817100525,
    -0.030821412801742554,
    -0.02472183108329773,
    0.07251408696174622,
    0.0028743669390678406,
    -0.0724758580327034,
    -0.0856189876794815,
    -0.0844491720199585,
    0.06622610986232758,
    -0.10184937715530396,
    0.0985049307346344,
    -0.09201136976480484,
    0.0073483288288116455,
    0.027109414339065552,
    -0.09143030643463135,
    -0.0280778631567955,
    0.09556545317173004,
    -0.0522964783012867,
    -0.052923768758773804,
    0.04863475263118744,
    -0.02287832647562027,
    -0.058910004794597626,
    0.014712616801261902,
    0.008080177009105682,
    0.03383110463619232,
    -0.07123447954654694,
    0.0007786974310874939,
    0.025164633989334106,
    -0.015459626913070679,
    -0.020600639283657074,
    0.0942314863204956,
    0.10127225518226624,
    0.017081819474697113,
    -0.07562816143035889,
    0.010623812675476074,
    0.08962549269199371,
    -0.01719081401824951,
    -0.08285326510667801,
    0.0953323245048523,
    0.10039228200912476,
    -0.032310597598552704,
    0.030693158507347107,
    0.08629122376441956,
    0.09195807576179504,
    -0.07388201355934143,
    -0.07388802617788315,
    -0.07254107296466827,
    -0.06588819622993469,
    -0.010515935719013214,
    0.008286140859127045,
    0.07463479042053223,
    0.038203805685043335,
    0.08677355945110321,
    -0.015730269253253937,
    -0.05344805866479874,
    -0.06050265580415726,
    0.054186925292015076,
    -0.04786070063710213,
    -0.02721387892961502,
    -0.007610522210597992,
    -0.03563851863145828,
    0.011760503053665161,
    0.06460008025169373,
    -0.049225907772779465,
    -0.0013390928506851196,
    0.04205940663814545,
    0.021718256175518036,
    0.09410659968852997,
    0.03854544460773468,
    -0.010448075830936432,
    0.0093827024102211,
    -0.010799109935760498,
    -0.06089593470096588,
    0.03485865890979767,
    -0.011519402265548706,
    -0.04592336341738701,
    0.09657356142997742,
    -0.05824679508805275,
    -0.021188512444496155,
    0.042264968156814575,
    0.02730575203895569,
    -0.04616852477192879,
    -0.024868249893188477,
    0.021312154829502106,
    0.07910020649433136,
    0.027873948216438293,
    0.015348106622695923,
    0.018032699823379517,
    0.0186612606048584,
    0.007169812917709351,
    -0.0418158695101738,
    -0.054058197885751724,
    -0.06757952272891998,
    -0.014555811882019043,
    -0.02522660791873932,
    -0.06584592163562775,
    -0.014465875923633575,
    0.044785067439079285,
    -0.10033278912305832,
    0.013148844242095947,
    -0.053443241864442825,
    0.02905268967151642,
    0.060258641839027405,
    0.004873588681221008,
    -0.050449006259441376,
    0.007457800209522247,
    0.07694795727729797,
    -0.050797753036022186,
    -0.08628323674201965,
    -0.0624256357550621,
    9.904056787490845e-05,
    -0.06781075894832611,
    0.040178537368774414,
    0.05674158036708832,
    0.08804868161678314,
    0.05846981704235077,
    0.048836082220077515,
    0.019096828997135162,
    0.08650331199169159,
    -0.012135185301303864,
    -0.0005170106887817383,
    0.01077260822057724,
    -0.007390789687633514,
    -0.02885560691356659,
    -0.062216877937316895,
    -0.0943167507648468,
    -0.04137621447443962,
    0.0326399952173233,
    0.08875931799411774,
    0.01496376097202301,
    -0.06693307310342789,
    -0.0597202368080616,
    0.024512052536010742,
    -0.0943310558795929,
    0.03247350454330444,
    -0.011864185333251953,
    0.018429167568683624,
    -0.0047670528292655945,
    0.01645834743976593,
    0.06077292561531067,
    -0.08323901891708374,
    -0.00012797117233276367,
    0.009598515927791595,
    -0.050901755690574646,
    0.04425761103630066,
    -0.03572887182235718,
    -0.040932152420282364,
    -0.058729108422994614,
    0.06401215493679047,
    -0.006459712982177734,
    0.0007096156477928162,
    -0.10125785320997238,
    0.07929487526416779,
    -0.022735200822353363,
    0.05625736713409424,
    0.04833191633224487,
    0.09105890989303589,
    -0.024516701698303223,
    0.01593707501888275,
    -0.007226563990116119,
    0.0873807966709137,
    0.05613678693771362,
    0.052554503083229065,
    0.10197107493877411,
    0.05086922645568848,
    -0.0315057709813118,
    -0.006635524332523346,
    -0.04056388884782791,
    -0.07695655524730682,
    0.016887977719306946,
    -0.037047214806079865,
    -0.03241077810525894,
    -0.003951027989387512,
    -0.08524879813194275,
    0.02578897774219513,
    0.0677325576543808,
    0.011130504310131073,
    -0.02241494506597519,
    -0.036351561546325684,
    0.008506432175636292,
    0.020536229014396667,
    -0.07031756639480591,
    0.040842294692993164,
    0.017215803265571594,
    0.08528503775596619,
    0.06466275453567505,
    -0.08961573988199234,
    -0.026004962623119354,
    0.04426966607570648,
    -0.011577852070331573,
    -0.025035440921783447,
    0.006086342036724091,
    0.04151877760887146,
    0.07411216199398041,
    -0.09462128579616547,
    0.03071001172065735,
    -0.049537885934114456,
    0.019074782729148865,
    0.0401141494512558,
    0.008004091680049896,
    -0.08275872468948364,
    -0.09784045815467834,
    -0.07421582192182541,
    0.09119126200675964,
    0.06409737467765808,
    0.055046021938323975,
    -0.00512336939573288,
    -0.02787236124277115,
    0.06819333136081696,
    0.021744363009929657,
    0.0044979527592659,
    -0.002409212291240692,
    -0.050574127584695816,
    0.032449379563331604,
    0.06822384893894196,
    0.07444387674331665,
    -0.04581931605935097,
    0.07636593282222748,
    -0.07327061146497726,
    0.019223608076572418,
    0.0104760080575943,
    -0.04195033758878708,
    -0.02150983363389969,
    0.07044756412506104,
    -0.05384841933846474,
    -0.03130771964788437,
    0.048654407262802124,
    -0.0695888102054596,
    0.03731273114681244,
    -0.007743306457996368,
    -0.03124503791332245,
    -0.07408230006694794,
    0.040900200605392456,
    0.0777587741613388,
    0.03611086308956146,
    0.05156788229942322,
    -0.07932758331298828,
    0.014076463878154755,
    -0.012394167482852936,
    0.07517446577548981,
    -0.0753060132265091,
    -0.014133304357528687,
    0.03804425895214081,
    -0.0819057896733284,
    -0.04485064744949341,
    0.04104943573474884,
    0.06393696367740631,
    0.0411449670791626,
    -0.07097949087619781,
    0.01389678567647934,
    -0.042218953371047974,
    0.05367088317871094,
    0.026730656623840332,
    -0.03516095131635666,
    -0.08379222452640533,
    0.09580984711647034,
    0.023958802223205566,
    -0.011737018823623657,
    -0.058503296226263046,
    0.10150223970413208,
    0.005331128835678101,
    0.01914399117231369,
    0.08854745328426361,
    0.0358821302652359,
    0.07874900102615356,
    -0.020995356142520905,
    -0.02348693460226059,
    0.00314977765083313,
    -0.08121946454048157,
    0.04374733567237854,
    -0.09079233556985855,
    -0.03360380232334137,
    0.003083564341068268,
    0.016006574034690857,
    -0.037703558802604675,
    -0.009770922362804413,
    -0.083202064037323,
    -0.0956784263253212,
    -0.09705326706171036,
    -0.09004293382167816,
    0.018496789038181305,
    0.009115591645240784,
    -0.07895909994840622,
    -0.06522924453020096,
    0.06157377362251282,
    0.053460001945495605,
    -0.039535894989967346,
    0.06962060928344727,
    0.09832164645195007,
    8.095800876617432e-05,
    0.0025034770369529724,
    -0.04500455781817436,
    0.00013081729412078857,
    0.028021231293678284,
    -0.07948336750268936,
    -0.052866172045469284,
    -0.020335115492343903,
    0.09409944713115692,
    0.06455338001251221,
    -0.09532525390386581,
    0.087293341755867,
    0.053676143288612366,
    -0.051449816673994064,
    -0.03624293953180313,
    -0.02800607681274414,
    -0.07165136188268661,
    0.05957368016242981,
    -0.06471587717533112,
    -0.049024034291505814,
    -0.06804974377155304,
    -0.05417409911751747,
    0.05566978454589844,
    0.09709346294403076,
    -0.08427365869283676,
    0.02660943567752838,
    -0.09912446141242981,
    -0.04092806205153465,
    0.047269031405448914,
    -0.0455441027879715,
    -0.0420236773788929,
    -0.018645882606506348,
    0.03967870771884918,
    0.06334014236927032,
    0.016518108546733856,
    0.05628909170627594,
    -0.08770231902599335,
    -0.0739034041762352,
    0.07075287401676178,
    0.08094505965709686,
    0.05179719626903534,
    -0.005075380206108093,
    0.0550815612077713,
    0.05596691370010376,
    0.0011046156287193298,
    -0.08395841717720032,
    -0.07333801686763763,
    0.03973156213760376,
    -0.09111321717500687,
    -0.036683350801467896,
    0.019192658364772797,
    -0.017094016075134277,
    0.0286940336227417,
    -0.06128821521997452,
    0.09973780810832977,
    0.03655429184436798,
    -0.08886273950338364,
    -0.05784709379076958,
    -0.08775298297405243,
    -0.09600169956684113,
    -0.017027050256729126,
    0.04821735620498657,
    0.015385262668132782,
    -0.08972988277673721,
    0.006898470222949982,
    -0.0925353467464447,
    0.06917975842952728,
    -0.07108407467603683,
    -0.06455182284116745,
    0.09751453995704651,
    0.07049831748008728,
    -0.004476681351661682,
    -0.008034482598304749,
    -0.028576597571372986,
    -0.0016905441880226135,
    -0.10036072880029678,
    0.003226839005947113,
    -0.05913173034787178,
    0.001409783959388733,
    -0.04418232664465904,
    -0.09817830473184586,
    0.012357644736766815,
    0.04199448227882385,
    0.04277947545051575,
    0.00045340508222579956,
    0.02001526951789856,
    0.029362350702285767,
    0.0707802027463913,
    0.03593730926513672,
    0.061102062463760376,
    0.02174195647239685,
    0.04358352720737457,
    -0.016725383698940277,
    -0.08391532301902771,
    -0.047498155385255814,
    -0.09094427525997162,
    -0.04647055268287659,
    -0.03788498789072037,
    0.09628406167030334,
    -0.053963832557201385,
    -0.02930290251970291,
    -0.09529892355203629,
    0.07942664623260498,
    -0.0235598087310791,
    -0.02653440833091736,
    0.002082414925098419,
    0.08207342028617859,
    0.09607094526290894,
    0.03177158534526825,
    -0.04678494110703468,
    0.05841405689716339,
    0.012482501566410065,
    -0.07523870468139648,
    -0.07879497110843658,
    -0.06923502683639526,
    0.03734728693962097,
    -0.0733189582824707,
    -0.07270753383636475,
    -0.08757588267326355,
    0.032270029187202454,
    -0.009889230132102966,
    -0.061477117240428925,
    -0.08989245444536209,
    0.004210084676742554,
    -0.08161710202693939,
    0.00930950790643692,
    0.00188484787940979,
    0.07518960535526276,
    -0.03710157424211502,
    -0.0713857114315033,
    0.06844139099121094,
    0.09824568033218384,
    -0.030388690531253815,
    0.03544832766056061,
    -0.0436885766685009,
    0.07758140563964844,
    0.10001115500926971,
    0.08991818130016327,
    0.0011565983295440674,
    0.06517282128334045,
    0.018282778561115265,
    0.09683208167552948,
    0.0992034524679184,
    -0.030492275953292847,
    -0.07522982358932495,
    0.010128960013389587,
    0.021723508834838867,
    0.07075229287147522,
    -0.008346021175384521,
    -0.09456422179937363,
    0.044483721256256104,
    0.09948791563510895,
    -0.08323369175195694,
    0.032007038593292236,
    0.004999630153179169,
    0.04484760761260986,
    0.06735771894454956,
    -0.041816357523202896,
    0.03966201841831207,
    0.08581824600696564,
    -0.0645914375782013,
    0.06351266801357269,
    -0.011837273836135864,
    0.06478813290596008,
    0.029178470373153687,
    0.032780036330223083,
    0.05957694351673126,
    -0.005382716655731201,
    -0.08899839222431183,
    0.08503767848014832,
    0.039496541023254395,
    -0.06268873065710068,
    -0.010150156915187836,
    0.07380945980548859,
    -0.09796003252267838,
    0.0398453027009964,
    -0.07930553704500198,
    -0.019123375415802002,
    -0.05508141964673996,
    0.0531357079744339,
    -0.029336191713809967,
    0.040306538343429565,
    0.08809547126293182,
    -0.08056812733411789,
    -0.03580537438392639,
    0.026715010404586792,
    -0.08503621816635132,
    -0.04133905470371246,
    0.06728760898113251,
    -0.01834346354007721,
    -0.035750843584537506,
    0.035074472427368164,
    -0.04692057520151138,
    -0.0034505128860473633,
    -0.058779213577508926,
    -0.03858601301908493,
    0.03857800364494324,
    -0.03507882356643677,
    -0.03729903697967529,
    0.03895169496536255,
    -0.01991645246744156,
    -0.02564287930727005,
    -0.025034472346305847,
    -0.08182869851589203,
    -0.055780742317438126,
    -0.1009429320693016,
    -0.0188637375831604,
    -0.04518958926200867,
    -0.06315688043832779,
    0.027701079845428467,
    -0.058119311928749084,
    -0.014794595539569855,
    0.012907363474369049,
    0.07378332316875458,
    0.06890012323856354,
    -0.06071886047720909,
    0.02835744619369507,
    -0.03522241860628128,
    0.05229519307613373,
    -0.1014055609703064,
    0.06836546957492828,
    -0.0327816978096962,
    -0.07299944013357162,
    0.0009550154209136963,
    -0.06718765199184418,
    0.02388709783554077,
    0.016298286616802216,
    -0.03718036413192749,
    0.08494065701961517,
    0.037270039319992065,
    -0.05484025180339813,
    0.08071303367614746,
    -0.06596674025058746,
    0.0209510400891304,
    0.09312543272972107,
    -0.09428499639034271,
    -0.0844956785440445,
    0.0027836039662361145,
    -0.0039416104555130005,
    -0.006676092743873596,
    -0.032065488398075104,
    -0.017783381044864655,
    0.05183593928813934,
    0.035094112157821655,
    -0.08112505078315735,
    0.016255773603916168,
    0.03373001515865326,
    -0.0694732517004013,
    -0.03634238988161087,
    -0.047893598675727844,
    -0.05565870925784111,
    0.06326164305210114,
    -0.09388977289199829,
    -0.05917913466691971,
    0.07704098522663116,
    -0.0903063714504242,
    0.03337353467941284,
    0.006825178861618042,
    0.017680689692497253,
    0.06138695776462555,
    -0.0004890784621238708,
    -0.08034291863441467,
    -0.04152876138687134,
    -0.040551818907260895,
    -0.037645891308784485,
    -0.06503324210643768,
    0.0027517080307006836,
    -0.07057489454746246,
    0.07616500556468964,
    0.039037659764289856,
    -0.06649687141180038,
    0.06130915880203247,
    0.0333949476480484,
    -0.017490699887275696,
    0.0648011863231659,
    0.04484684765338898,
    0.03804945945739746,
    0.026006892323493958,
    -0.10097566246986389,
    0.006886571645736694,
    0.06405043601989746,
    0.019584521651268005,
    0.0019775331020355225,
    -0.057364486157894135,
    -0.02892729640007019,
    -0.07054378092288971,
    -0.06535852700471878,
    -0.03534824401140213,
    0.030850425362586975,
    -0.06395212560892105,
    -0.054412711411714554,
    0.02469661831855774,
    -0.07829482108354568,
    -0.087164968252182,
    -0.01754048466682434,
    -0.0740990936756134,
    0.02821020781993866,
    0.07557329535484314,
    0.04327818751335144,
    -0.08581282198429108,
    -0.052205298095941544,
    0.08802850544452667,
    -0.021093733608722687,
    0.009109027683734894,
    0.0810074508190155,
    0.03272309899330139,
    0.017883755266666412,
    -0.06471279263496399,
    0.09850208461284637,
    0.08900073170661926,
    -0.07282686233520508,
    0.07583893835544586,
    -0.09478424489498138,
    0.07040354609489441,
    0.08680407702922821,
    -0.06453877687454224,
    -0.025203198194503784,
    -0.054951261729002,
    0.00840410590171814,
    -0.046033937484025955,
    -0.09095045179128647,
    -0.0216592475771904,
    0.1006782054901123,
    0.03965333104133606,
    0.04509437084197998,
    0.047221601009368896,
    -0.005151644349098206,
    -0.062185827642679214,
    -0.033110588788986206,
    -0.010584168136119843,
    0.09143863618373871,
    -0.0030560940504074097,
    0.0291670560836792,
    -0.060622986406087875,
    0.05771893262863159,
    0.01932290941476822,
    0.019834302365779877,
    -0.07563066482543945,
    -0.001341022551059723,
    -0.09958937764167786,
    0.044295623898506165,
    -0.06823990494012833,
    -0.04593424126505852,
    0.10127648711204529,
    -0.10151771456003189,
    0.06204007565975189,
    -0.02948407083749771,
    0.007969781756401062,
    0.0488576740026474,
    -0.05498163029551506,
    0.08465348184108734,
    0.09798911213874817,
    0.029734045267105103,
    0.036450281739234924,
    0.08720682561397552,
    0.07067137956619263,
    0.029205381870269775,
    0.06462337076663971,
    0.024972394108772278,
    -0.0932394340634346,
    -0.0615101121366024,
    0.0036293193697929382,
    -0.08779897540807724,
    0.09939850866794586,
    -0.06200503185391426,
    0.07717224955558777,
    0.0051898956298828125,
    -0.04788203909993172,
    0.08031235635280609,
    -0.09034837037324905,
    0.06402099132537842,
    0.03688213229179382,
    -0.047090351581573486,
    -0.023030459880828857,
    0.08943216502666473,
    0.041890501976013184,
    0.04042942821979523,
    0.10200345516204834,
    -0.09359392523765564,
    0.022421270608901978,
    -0.05647531524300575,
    -0.08271529525518417,
    -0.07852518558502197,
    0.08242826163768768,
    0.0020687878131866455,
    -0.05208779498934746,
    -0.01719164103269577,
    0.03496672213077545,
    -0.06773106753826141,
    -0.04971963167190552,
    -0.06379111111164093,
    -0.04575461149215698,
    0.031897589564323425,
    -0.057925593107938766,
    0.0038408488035202026,
    0.09555058181285858,
    -0.044487517327070236,
    0.05543014407157898,
    -0.03275400400161743,
    -0.026223480701446533,
    0.01656213402748108,
    -0.10088012367486954,
    0.07377548515796661,
    -0.09419658780097961,
    0.017742477357387543,
    -0.05545978248119354,
    -0.07390987873077393,
    0.031938761472702026,
    -0.09537304192781448,
    -0.00310312956571579,
    -0.014483563601970673,
    -0.05902303382754326,
    -0.0703859031200409,
    -0.06942168623209,
    -0.09764569252729416,
    0.0654582530260086,
    -0.007822439074516296,
    0.06745517253875732,
    -0.044285185635089874,
    0.01624520868062973,
    0.019773177802562714,
    -0.05465295910835266,
    0.04139305651187897,
    0.09638190269470215,
    -0.08854759484529495,
    -0.04965205863118172,
    0.03622458875179291,
    0.0024743005633354187,
    -0.02107689529657364,
    -0.020209699869155884,
    0.01014775037765503,
    -0.005888000130653381,
    -0.07586982101202011,
    0.009530968964099884,
    0.020303890109062195,
    -0.0858638733625412,
    -0.028393171727657318,
    -0.021918199956417084,
    -0.02669885754585266,
    -0.016242317855358124,
    -0.05138236656785011,
    -0.017283402383327484,
    -0.039443500339984894,
    -0.020755939185619354,
    -0.08267828077077866,
    -0.050272028893232346,
    0.031221136450767517,
    0.08567430078983307,
    0.08671067655086517,
    0.06964416801929474,
    -0.06060461327433586,
    -0.07560796290636063,
    -0.08115407824516296,
    -0.06278328597545624,
    0.04209555685520172,
    0.07049073278903961,
    -0.0864584892988205,
    -0.0704064667224884,
    -0.05957898125052452,
    0.009671345353126526,
    -0.09314015507698059,
    -0.0648089051246643,
    -0.0037330761551856995,
    -0.01909393072128296,
    -0.038318462669849396,
    -0.07395416498184204,
    0.03965897858142853,
    -0.023490607738494873,
    0.04318034648895264,
    -0.0863664373755455,
    0.00918426364660263,
    -0.0030178427696228027,
    -0.00845557451248169,
    0.04502399265766144,
    -0.07605752348899841,
    0.09394747018814087,
    -0.003240346908569336,
    0.07597678899765015,
    -0.05021676793694496,
    0.021547749638557434,
    0.002616874873638153,
    -0.03667639195919037,
    -0.06467083841562271,
    -0.018403276801109314,
    0.07247352600097656,
    -0.049528323113918304,
    -0.07518424838781357,
    0.08300410211086273,
    -0.003849118947982788,
    -0.04265235736966133,
    0.08029139041900635,
    0.06942367553710938,
    -0.012200571596622467,
    -0.09489163011312485,
    0.09428170323371887,
    0.05937756597995758,
    -0.07022274285554886,
    0.07132111489772797,
    0.06712104380130768,
    0.08798302710056305,
    -0.03482113778591156,
    -0.07566972076892853,
    -0.03525157272815704,
    0.011494927108287811,
    0.04537069797515869,
    -0.05856804549694061,
    -0.10190653800964355,
    -0.025753162801265717,
    0.07930305600166321,
    0.03606559336185455,
    0.07742129266262054,
    -0.08488382399082184,
    -0.0018624886870384216,
    -0.08839017897844315,
    -0.06942147016525269,
    -0.0753164291381836,
    -0.050027791410684586,
    -0.02622048556804657,
    -0.004548490047454834,
    0.08988404273986816,
    -0.09918271750211716,
    -0.07699188590049744,
    -0.028539858758449554,
    -0.023142904043197632,
    0.05793216824531555,
    -0.052375610917806625,
    0.06323927640914917,
    -0.03481268882751465,
    0.053131625056266785,
    0.058436572551727295,
    -0.03468219190835953,
    0.05157049000263214,
    0.06763745844364166,
    -0.005485132336616516,
    0.08021782338619232,
    0.01715971529483795,
    -0.04009461775422096,
    0.08459164202213287,
    -0.03005189448595047,
    0.027456462383270264,
    -0.0935443565249443,
    0.0018385201692581177,
    -0.030315518379211426,
    0.085772305727005,
    0.030224144458770752,
    0.09949100017547607,
    0.06460148096084595,
    0.02491813898086548,
    0.0795571506023407,
    0.039719656109809875,
    -0.061295270919799805,
    -0.08507181704044342,
    0.05295379459857941,
    0.010221578180789948,
    -0.04301361367106438,
    -0.014321669936180115,
    0.02751295268535614,
    -0.041428092867136,
    -0.08758797496557236,
    0.05726642906665802,
    -0.0996243953704834,
    -0.08866826444864273,
    -0.01633726805448532,
    -0.03173912316560745,
    0.0938168615102768,
    0.056623026728630066,
    0.0910513699054718,
    0.08334995806217194,
    0.04552830755710602,
    0.06454579532146454,
    0.06528745591640472,
    -0.018825195729732513,
    0.058556362986564636,
    -0.0959208607673645,
    -0.04321713745594025,
    0.0867602527141571,
    0.012613922357559204,
    0.06363599002361298,
    0.05286255478858948,
    0.007455609738826752,
    -0.019923269748687744,
    0.05693618953227997,
    0.02855098247528076,
    -0.047966379672288895,
    -0.08779968321323395,
    0.05134360492229462,
    -0.07793819159269333,
    0.05283758044242859,
    0.03453543782234192,
    -0.02225276082754135,
    -0.09730611741542816,
    0.07991412281990051,
    0.08962006866931915,
    0.010828159749507904,
    -0.05806254222989082,
    0.08986587822437286,
    0.04288700222969055,
    -0.06115148589015007,
    -0.06422589719295502,
    -0.02220161259174347,
    0.01986195147037506,
    -0.07455554604530334,
    0.08849567174911499,
    -0.01390153169631958,
    0.0680263340473175,
    0.07027846574783325,
    -0.08750933408737183,
    -0.010253645479679108,
    0.007922381162643433,
    -0.09255152195692062,
    0.0461517870426178,
    0.0836486965417862,
    -0.034476399421691895,
    0.015534184873104095,
    0.008153766393661499,
    -0.05958010256290436,
    -0.05947145074605942,
    -0.06627711653709412,
    0.09934969246387482,
    0.038519248366355896,
    -0.0011051297187805176,
    0.0220654159784317,
    0.10026867687702179,
    -0.08421503752470016,
    0.06816646456718445,
    0.0705423653125763,
    0.05005443096160889,
    0.054443344473838806,
    -0.04384873807430267,
    -0.006034828722476959,
    0.01221524178981781,
    -0.054000139236450195,
    -0.01988890767097473,
    -0.08660981804132462,
    -0.020981870591640472,
    -0.0867563784122467,
    -0.017158105969429016,
    0.07467776536941528,
    0.0729060173034668,
    0.026150181889533997,
    0.022074930369853973,
    0.07545687258243561,
    -0.07803822308778763,
    -0.004969850182533264,
    -0.04010644182562828,
    0.02129487693309784,
    -0.02183692902326584,
    -0.01607242226600647,
    -0.04468970373272896,
    0.011800676584243774,
    0.08435125648975372,
    -0.014665819704532623,
    0.0003972947597503662,
    -0.03495346009731293,
    0.09486101567745209,
    -0.0805126503109932,
    -0.02958986908197403,
    -0.07351061701774597,
    0.001958407461643219,
    0.07852053642272949,
    0.040362775325775146,
    0.08582650125026703,
    -0.10181266069412231,
    -0.016034215688705444,
    -0.053161777555942535,
    -0.026844322681427002,
    -0.04229896515607834,
    -0.08271870017051697,
    -0.004924662411212921,
    -0.0956382006406784,
    -0.033486418426036835,
    -0.032190293073654175,
    0.04642614722251892,
    0.020090147852897644,
    -0.013289473950862885,
    -0.022000737488269806,
    0.08403407037258148,
    0.07557952404022217,
    0.020829401910305023,
    -0.1006406620144844,
    0.013082414865493774,
    -0.02404453605413437,
    -0.10178552567958832,
    0.006395258009433746,
    -0.0441221259534359,
    0.07581856846809387,
    -0.014804206788539886,
    -0.09117493033409119,
    0.05050373077392578,
    0.01993723213672638,
    -0.08321221172809601,
    0.041281044483184814,
    -0.044122468680143356,
    -0.056686386466026306,
    -0.03711332380771637,
    -0.018579743802547455,
    0.09722155332565308,
    0.08795112371444702,
    -0.06156950816512108,
    -0.019221246242523193,
    0.0884276032447815,
    -0.08865590393543243,
    -0.03525926172733307,
    0.07104329764842987,
    0.0969555675983429,
    -0.050871774554252625,
    0.007628865540027618,
    -0.06443485617637634,
    0.014316439628601074,
    -0.004466727375984192,
    -0.0307929664850235,
    0.07286138832569122,
    -0.01269947737455368,
    -0.05224956199526787,
    -0.024946987628936768,
    -0.08973628282546997,
    -0.06570744514465332,
    -0.07538706809282303,
    -0.02400786429643631,
    -0.08140719681978226,
    -0.04529113322496414,
    -0.03787221759557724,
    -0.020884878933429718,
    -0.09209784865379333,
    0.08030177652835846,
    0.1008659154176712,
    -0.03436349332332611,
    0.08767889440059662,
    0.04362526535987854,
    -0.0665084570646286,
    -0.027088895440101624,
    -0.06741928309202194,
    0.08635064959526062,
    -0.02420525997877121,
    0.004283227026462555,
    0.05971650779247284,
    0.09202265739440918,
    -0.048705946654081345,
    -0.07344279438257217,
    -0.08358270674943924,
    -0.08149886131286621,
    -0.001971326768398285,
    0.01593807339668274,
    -0.0814729705452919,
    0.08923426270484924,
    0.05567805469036102,
    -0.051319196820259094,
    0.0744224339723587,
    -0.049923792481422424,
    -0.029436737298965454,
