// Auto-generated model weights for RAVN AI Engine
// Generated from: ../../artifacts/ravn_model.h5_weights.bin
// Total weights: 154563

#ifndef RAVN_MODEL_WEIGHTS_H
#define RAVN_MODEL_WEIGHTS_H

#include <stdint.h>

// Model architecture constants
#define INPUT_SEQUENCE_LENGTH 20
#define DENSE1_OUTPUT_SIZE 64
#define LSTM1_HIDDEN_SIZE 128
#define LSTM2_HIDDEN_SIZE 64
#define DENSE2_OUTPUT_SIZE 32
#define OUTPUT_CLASSES 3

// Layer weight counts
#define DENSE1_WEIGHT_COUNT 704
#define LSTM1_WEIGHT_COUNT 98816
#define LSTM2_WEIGHT_COUNT 49408
#define DENSE2_WEIGHT_COUNT 2080
#define DENSE3_WEIGHT_COUNT 99
#define TOTAL_WEIGHT_COUNT 154563

// All model weights (float32) - organized by layer
static const float all_model_weights[TOTAL_WEIGHT_COUNT] = {
    -0.072494f, 0.033021f, -0.061140f, -0.128418f, 0.075300f, -0.083993f, -0.138196f, 0.195481f, 0.122514f, 0.199075f,
    0.216277f, 0.180782f, -0.090444f, -0.209432f, 0.176780f, -0.007039f, -0.090830f, 0.021719f, 0.067104f, 0.005738f,
    0.011095f, -0.062316f, 0.001871f, 0.061905f, -0.106276f, 0.102694f, -0.032351f, -0.030366f, 0.201850f, -0.144159f,
    -0.201251f, -0.144353f, 0.185918f, 0.183809f, 0.189660f, -0.084426f, 0.076216f, -0.163079f, -0.120518f, -0.173645f,
    0.167495f, 0.026196f, 0.025381f, -0.185217f, 0.015865f, -0.078805f, -0.204937f, -0.160534f, 0.115867f, -0.048775f,
    0.148837f, 0.029851f, -0.017709f, -0.158346f, -0.180109f, 0.149930f, -0.084173f, 0.037598f, -0.028560f, -0.099342f,
    -0.071039f, -0.077681f, -0.156124f, -0.204218f, -0.021176f, -0.141633f, 0.161784f, 0.065809f, 0.048965f, 0.207574f,
    -0.173019f, -0.078653f, 0.102685f, 0.088101f, 0.169534f, -0.023648f, -0.113777f, 0.142055f, 0.159448f, 0.027934f,
    0.157600f, 0.025627f, -0.008432f, -0.142266f, -0.178258f, -0.186266f, -0.068006f, 0.020242f, -0.213205f, 0.206853f,
    -0.196777f, 0.126587f, 0.012902f, 0.119821f, 0.025089f, 0.120631f, 0.201496f, 0.055587f, -0.072045f, 0.005038f,
    -0.125148f, -0.208165f, 0.194608f, -0.019398f, 0.134317f, 0.140718f, 0.157142f, -0.181123f, 0.084362f, 0.041993f,
    0.010782f, -0.054007f, -0.142727f, 0.188785f, -0.180640f, -0.166890f, 0.147969f, 0.167393f, -0.147718f, 0.172031f,
    0.208623f, 0.187165f, 0.006686f, 0.210181f, -0.048343f, -0.055955f, 0.051671f, 0.091521f, -0.098845f, 0.206067f,
    -0.046498f, 0.086369f, -0.106211f, 0.082301f, -0.089516f, -0.085541f, -0.185720f, 0.075595f, 0.188452f, 0.070282f,
    -0.092677f, 0.091664f, 0.185028f, 0.052748f, -0.209303f, -0.039843f, 0.195644f, -0.210134f, -0.064509f, -0.184273f,
    0.003783f, 0.030252f, -0.072686f, -0.111495f, 0.042387f, 0.085094f, -0.056492f, -0.089891f, -0.005642f, 0.172672f,
    0.156279f, 0.091526f, -0.068861f, 0.035189f, -0.117494f, 0.046206f, -0.200075f, 0.100768f, -0.195236f, 0.087708f,
    0.149369f, -0.019147f, -0.163425f, -0.129665f, -0.207797f, -0.085452f, 0.070732f, -0.202161f, 0.045158f, 0.184896f,
    0.116339f, -0.132649f, -0.089555f, 0.198900f, 0.181252f, -0.127840f, -0.057727f, -0.202740f, 0.074089f, -0.174196f,
    -0.053684f, 0.067828f, -0.141551f, -0.092219f, 0.134953f, -0.214198f, 0.177337f, 0.009278f, 0.040848f, 0.069601f,
    0.014916f, 0.232910f, 0.203014f, 0.076028f, -0.124374f, -0.043935f, -0.012918f, -0.061136f, -0.064546f, 0.039727f,
    0.049621f, 0.034893f, 0.187028f, 0.118151f, 0.232612f, 0.072252f, -0.109328f, 0.052486f, -0.212746f, -0.022988f,
    -0.082059f, -0.133721f, 0.145845f, -0.073451f, 0.181564f, 0.112319f, 0.131611f, 0.037047f, -0.053202f, 0.168939f,
    -0.131728f, -0.081260f, -0.026463f, 0.155403f, 0.159780f, -0.090658f, -0.091603f, -0.052811f, 0.123329f, 0.153019f,
    -0.073135f, 0.234475f, 0.149268f, -0.199594f, 0.104327f, -0.004227f, 0.064729f, 0.180411f, -0.003048f, -0.215468f,
    0.124604f, 0.154738f, -0.064114f, -0.143893f, 0.193703f, 0.159684f, -0.094676f, 0.007467f, -0.107701f, 0.131257f,
    0.106261f, 0.142824f, -0.171577f, -0.114346f, -0.185665f, -0.033444f, 0.006209f, -0.123927f, -0.014369f, 0.197992f,
    0.150619f, -0.187432f, 0.175255f, 0.216060f, -0.183285f, 0.155767f, 0.026633f, 0.058366f, -0.032555f, 0.203811f,
    -0.130949f, 0.158215f, -0.065534f, 0.091153f, -0.214722f, 0.146047f, -0.048998f, -0.159165f, -0.158790f, 0.070667f,
    -0.171392f, 0.181301f, 0.000346f, -0.073738f, 0.028287f, -0.160151f, 0.045886f, 0.148562f, 0.131446f, 0.124077f,
    0.215636f, -0.196337f, -0.130699f, -0.145195f, 0.054309f, -0.026213f, 0.121137f, -0.070271f, -0.212817f, -0.168867f,
    -0.027120f, -0.064143f, -0.175156f, -0.122275f, 0.124030f, 0.004830f, 0.040589f, 0.191164f, 0.179537f, 0.126533f,
    0.211692f, 0.083376f, -0.196740f, 0.022825f, 0.199133f, -0.148736f, 0.131937f, -0.103565f, -0.003671f, 0.004431f,
    0.059635f, 0.120945f, -0.169466f, 0.089186f, -0.189111f, 0.093322f, -0.145381f, 0.050132f, -0.100482f, -0.033071f,
    -0.080608f, -0.132986f, -0.209069f, -0.066387f, 0.052268f, 0.101932f, -0.209566f, 0.148854f, 0.008894f, -0.193125f,
    0.131040f, 0.098931f, -0.005084f, -0.057544f, 0.105801f, -0.091423f, -0.186600f, 0.068106f, -0.059358f, 0.068911f,
    0.205224f, -0.055865f, 0.095944f, -0.215273f, -0.141053f, -0.044707f, -0.005146f, 0.177369f, -0.080201f, 0.195759f,
    -0.197980f, -0.159979f, -0.068469f, 0.159244f, -0.024428f, -0.034562f, 0.063830f, 0.167319f, -0.148552f, 0.098625f,
    -0.063218f, -0.096842f, 0.114547f, 0.141252f, 0.178046f, 0.084034f, 0.159542f, 0.140601f, 0.166885f, 0.057689f,
    0.100978f, -0.116312f, -0.031546f, 0.180277f, 0.114388f, -0.112089f, -0.006430f, -0.070357f, 0.194671f, -0.044204f,
    -0.121819f, -0.110924f, 0.154274f, 0.084607f, 0.083379f, -0.016746f, -0.027047f, 0.142594f, 0.038360f, 0.107331f,
    0.113994f, 0.020690f, -0.084571f, -0.066522f, -0.185243f, 0.087078f, 0.015249f, -0.118741f, -0.082383f, 0.119905f,
    0.009805f, -0.152023f, 0.084942f, -0.138133f, 0.120134f, -0.122195f, -0.186241f, 0.157792f, -0.209717f, 0.067269f,
    0.123107f, -0.148760f, -0.089689f, -0.190152f, -0.079371f, -0.036329f, 0.121996f, 0.094112f, 0.202743f, -0.025384f,
    -0.000331f, 0.038921f, -0.135534f, -0.133368f, -0.198714f, 0.026564f, -0.093398f, 0.101119f, 0.136906f, -0.039195f,
    -0.045921f, -0.038351f, 0.176999f, -0.120598f, 0.143771f, -0.160142f, 0.106999f, 0.023779f, -0.093559f, -0.167632f,
    -0.068078f, 0.119864f, 0.206134f, 0.143885f, 0.109328f, 0.149503f, 0.047566f, -0.068763f, -0.025981f, 0.105872f,
    -0.188793f, -0.165229f, 0.144940f, 0.183224f, -0.013121f, -0.189775f, 0.075406f, -0.020372f, 0.140891f, 0.030247f,
    -0.129027f, 0.130335f, 0.161477f, 0.037462f, -0.043938f, -0.063155f, 0.018545f, -0.035547f, 0.067253f, 0.098425f,
    -0.000722f, 0.019053f, -0.050496f, 0.136170f, -0.105154f, -0.119546f, -0.000253f, -0.128781f, -0.196285f, -0.123252f,
    0.025198f, 0.044752f, 0.045915f, -0.110563f, 0.019244f, -0.015551f, -0.101591f, 0.181289f, 0.050093f, -0.097564f,
    -0.020316f, -0.081173f, 0.163401f, 0.162378f, 0.047899f, -0.046971f, 0.038982f, -0.106432f, 0.062724f, 0.120031f,
    0.214383f, -0.015532f, 0.088246f, -0.140637f, -0.214690f, -0.123992f, -0.100235f, -0.034691f, 0.201671f, 0.184217f,
    -0.079397f, -0.032464f, 0.143077f, 0.005754f, 0.118718f, -0.158974f, -0.067929f, 0.079173f, 0.212549f, -0.100906f,
    -0.124638f, 0.199752f, -0.029285f, -0.045734f, -0.065529f, 0.093811f, -0.147184f, 0.052123f, 0.040020f, -0.062109f,
    -0.042084f, 0.011234f, 0.092351f, -0.082496f, -0.010368f, -0.101493f, -0.110102f, -0.208991f, -0.186515f, 0.112433f,
    -0.064721f, -0.182498f, -0.022480f, 0.162614f, 0.009389f, 0.065973f, -0.037829f, -0.082285f, -0.039645f, 0.120847f,
    -0.169743f, -0.167349f, -0.065600f, -0.151630f, -0.196765f, 0.089773f, -0.214153f, -0.183872f, 0.157268f, -0.142929f,
    0.174205f, -0.007942f, 0.160021f, -0.001514f, 0.000637f, 0.020995f, 0.129170f, 0.090126f, 0.107150f, 0.154137f,
    -0.055811f, 0.075906f, -0.015981f, -0.105233f, -0.188293f, -0.184645f, -0.102235f, -0.179952f, -0.125644f, -0.142791f,
    -0.013573f, 0.177082f, -0.023641f, -0.212133f, 0.106107f, 0.173168f, 0.208320f, 0.070395f, 0.056018f, -0.192300f,
    -0.040061f, 0.092500f, 0.126665f, 0.131690f, 0.017505f, -0.211940f, 0.059591f, 0.183647f, 0.197111f, -0.025924f,
    0.146271f, 0.185422f, 0.022134f, 0.075589f, 0.025300f, -0.206970f, -0.061632f, 0.215186f, 0.114852f, -0.214046f,
    0.016828f, 0.154390f, 0.214089f, -0.029597f, 0.114510f, -0.031353f, 0.091805f, 0.042368f, 0.074314f, -0.174556f,
    -0.195380f, 0.092242f, 0.025331f, -0.156243f, -0.014469f, 0.162382f, -0.188853f, 0.102610f, -0.086373f, 0.004969f,
    0.155951f, 0.065742f, -0.054139f, -0.023876f, -0.151790f, 0.042352f, 0.077388f, 0.205039f, -0.121548f, -0.188784f,
    0.118574f, 0.188927f, 0.172362f, 0.040025f, 0.182796f, 0.166923f, -0.043031f, -0.146107f, 0.213226f, 0.106495f,
    0.210583f, -0.140186f, -0.094799f, -0.187590f, 0.008544f, 0.040527f, 0.186465f, 0.033060f, -0.141662f, 0.068817f,
    0.162808f, -0.119000f, -0.000308f, -0.188460f, -0.149287f, -0.180355f, -0.033091f, 0.051634f, 0.192349f, -0.104511f,
    -0.058156f, -0.207073f, 0.216601f, 0.137740f, 0.031705f, 0.071607f, -0.089166f, -0.107724f, 0.035742f, -0.048676f,
    0.165107f, 0.059531f, 0.178960f, 0.155991f, -0.017646f, 0.188932f, -0.039795f, -0.098485f, -0.148670f, -0.013721f,
    0.001809f, 0.066395f, -0.003581f, 0.006390f, -0.179125f, 0.050826f, -0.182625f, 0.181191f, 0.068585f, -0.116544f,
    -0.200974f, -0.140958f, 0.142820f, -0.028732f, -0.008513f, 0.211332f, 0.133562f, 0.198945f, 0.108624f, -0.166617f,
    0.023364f, 0.157693f, 0.036534f, -0.080550f, 0.087432f, 0.008988f, -0.150495f, 0.174240f, -0.123899f, 0.163500f,
    -0.010220f, 0.204395f, -0.091711f, -0.046340f, 0.013788f, 0.002626f, 0.029247f, -0.017377f, -0.161020f, -0.049040f,
    -0.171274f, 0.044825f, 0.132760f, 0.164827f, -0.056302f, -0.166485f, -0.171898f, -0.137476f, 0.054872f, 0.180217f,
    -0.002939f, -0.116373f, 0.026252f, -0.187272f, -0.153276f, -0.158746f, 0.025532f, 0.070573f, -0.132010f, -0.083681f,
    0.156049f, -0.146636f, 0.147381f, 0.036610f, -0.052096f, 0.187025f, -0.093504f, -0.078693f, 0.101819f, 0.123585f,
    0.183823f, -0.101017f, 0.138228f, 0.090201f, -0.030573f, 0.199957f, 0.077785f, 0.026268f, -0.057941f, -0.044081f,
    0.030665f, 0.114554f, 0.089474f, 0.116729f, 0.173626f, 0.097374f, 0.090941f, 0.088058f, -0.070303f, 0.044277f,
    0.096115f, -0.191507f, 0.087918f, 0.137414f, 0.175176f, -0.156647f, -0.022008f, 0.097246f, -0.148907f, 0.116563f,
    0.135913f, -0.032868f, 0.014292f, 0.016464f, -0.129823f, 0.062164f, -0.168655f, -0.081173f, -0.087669f, -0.116715f,
    0.131314f, -0.043714f, 0.133297f, -0.208642f, 0.066651f, -0.171695f, 0.158345f, 0.132315f, -0.021609f, 0.184082f,
    0.155350f, -0.160606f, 0.177851f, 0.213115f, -0.037835f, -0.049693f, -0.111249f, -0.215503f, -0.077126f, 0.108777f,
    0.106622f, -0.182722f, -0.190560f, -0.209571f, -0.102261f, -0.022901f, 0.011741f, 0.169354f, 0.026299f, 0.116191f,
    -0.092750f, -0.104422f, 0.147527f, 0.079851f, -0.007356f, 0.033496f, 0.084094f, 0.071905f, 0.161713f, -0.038900f,
    -0.074608f, -0.074450f, 0.195063f, 0.124303f, 0.144719f, -0.024670f, 0.071797f, 0.064267f, -0.215254f, -0.080723f,
    -0.121023f, -0.135284f, -0.076022f, -0.055551f, 0.052935f, -0.172912f, 0.213629f, -0.102192f, -0.207948f, -0.166231f,
    -0.001064f, -0.075393f, -0.164937f, -0.010853f, 0.022041f, -0.158834f, -0.101423f, 0.179475f, 0.066097f, 0.002381f,
    0.208128f, -0.081579f, -0.143577f, -0.054444f, 0.036606f, -0.186883f, -0.158905f, -0.021729f, -0.065675f, -0.202076f,
    -0.151054f, 0.072821f, -0.104332f, -0.174069f, 0.021093f, -0.020590f, 0.028235f, -0.206540f, 0.093410f, 0.108662f,
    -0.058290f, -0.185112f, -0.197988f, -0.151901f, -0.105480f, 0.169241f, -0.187156f, 0.100463f, 0.067133f, 0.065136f,
    -0.082231f, 0.166558f, -0.052839f, 0.098824f, -0.030026f, -0.019928f, -0.009345f, 0.073078f, 0.176265f, 0.165389f,
    0.194916f, -0.098833f, -0.177590f, -0.013842f, 0.028263f, -0.210836f, 0.058779f, -0.123994f, -0.205525f, 0.064888f,
    0.124558f, 0.198015f, -0.155315f, 0.186626f, -0.172838f, -0.203890f, -0.057677f, 0.158368f, 0.144757f, 0.080985f,
    -0.181004f, 0.020585f, -0.045042f, 0.091728f, 0.046765f, 0.213077f, 0.019653f, 0.043665f, -0.021252f, 0.189216f,
    -0.015124f, -0.131666f, -0.204282f, -0.140687f, 0.135618f, -0.191167f, -0.214679f, 0.072223f, 0.008733f, 0.195755f,
    0.154859f, -0.028425f, 0.164816f, -0.158154f, 0.126871f, 0.191698f, 0.166772f, 0.084069f, -0.153395f, 0.003369f,
    0.014780f, 0.161195f, -0.038955f, -0.086697f, -0.094386f, 0.194379f, 0.176159f, 0.043214f, -0.033268f, -0.059508f,
    -0.013758f, -0.026091f, 0.022567f, -0.181629f, -0.050048f, -0.171336f, 0.213646f, -0.053124f, 0.064749f, -0.131298f,
    -0.006540f, -0.137614f, 0.067089f, -0.004756f, -0.092956f, 0.057781f, -0.089958f, 0.023642f, 0.200796f, 0.213720f,
    -0.118054f, -0.030414f, 0.119399f, 0.006758f, -0.108776f, -0.018004f, -0.125783f, -0.006167f, 0.022264f, 0.185012f,
    0.009099f, -0.079438f, -0.015400f, 0.181240f, 0.187192f, -0.160066f, -0.079532f, -0.000091f, 0.057939f, -0.006063f,
    0.167327f, 0.029997f, 0.176731f, 0.017508f, -0.047832f, 0.054947f, 0.061557f, 0.000651f, -0.066676f, 0.094729f,
    0.169979f, 0.018251f, -0.045190f, -0.063101f, -0.052127f, -0.196796f, -0.110496f, 0.175932f, -0.008832f, -0.214574f,
    -0.043626f, 0.071558f, 0.162301f, -0.090253f, -0.061704f, -0.047710f, 0.130051f, 0.101386f, -0.017841f, -0.079889f,
    0.169366f, 0.110496f, 0.079177f, -0.125532f, -0.149327f, 0.096131f, 0.060690f, -0.196028f, -0.042444f, -0.005768f,
    0.117066f, 0.136950f, -0.031280f, -0.089420f, 0.115995f, 0.092706f, -0.186817f, -0.083611f, 0.120524f, 0.041857f,
    -0.074890f, -0.019936f, -0.008018f, -0.102561f, -0.173192f, -0.018292f, -0.041580f, 0.124248f, -0.063870f, 0.189388f,
    -0.107458f, -0.145574f, 0.168438f, 0.033629f, -0.142692f, -0.183124f, 0.188601f, -0.098467f, -0.154138f, 0.012988f,
    -0.169560f, -0.122821f, 0.006783f, -0.021193f, 0.113514f, 0.079105f, -0.179641f, -0.164950f, -0.138090f, -0.107785f,
    0.053739f, -0.183321f, 0.112713f, 0.209390f, -0.066688f, -0.095446f, 0.215687f, -0.197740f, -0.084229f, 0.044353f,
    -0.096174f, 0.133857f, -0.104466f, -0.200604f, 0.101330f, -0.023799f, 0.009870f, -0.121459f, 0.057402f, 0.177006f,
    -0.033458f, -0.108737f, -0.140025f, 0.029728f, -0.159627f, -0.081955f, 0.000889f, 0.115320f, -0.061866f, -0.192997f,
    0.085038f, -0.043041f, 0.079706f, 0.131840f, 0.133253f, 0.082687f, -0.168185f, -0.144634f, 0.190872f, -0.048586f,
    -0.010571f, -0.042763f, 0.050145f, 0.166516f, -0.049459f, -0.111827f, 0.042246f, -0.085506f, -0.089753f, -0.129391f,
    0.075109f, -0.201383f, -0.128135f, 0.080660f, 0.001924f, -0.198238f, -0.012317f, 0.163049f, 0.092020f, -0.026665f,
    0.213374f, 0.104221f, 0.185062f, 0.116572f, 0.157075f, -0.108976f, 0.063618f, -0.172682f, 0.046168f, 0.162498f,
    0.116988f, -0.206142f, 0.196685f, -0.174674f, 0.117763f, -0.067035f, -0.199576f, 0.194657f, -0.175464f, -0.162074f,
    0.172810f, 0.144207f, -0.109345f, 0.191816f, -0.010711f, 0.174943f, -0.118428f, -0.161848f, 0.197922f, -0.035250f,
    0.026333f, -0.135714f, -0.090461f, 0.156122f, 0.026830f, 0.155674f, 0.094487f, -0.064584f, -0.083273f, 0.055098f,
    -0.023291f, 0.133337f, 0.094099f, 0.002031f, 0.012359f, 0.098507f, 0.110524f, 0.037860f, 0.155584f, -0.076392f,
    0.135844f, -0.046897f, -0.023529f, -0.051481f, 0.052788f, -0.181329f, -0.128830f, -0.179075f, 0.051643f, -0.128922f,
    -0.190311f, 0.060091f, 0.136738f, 0.165279f, -0.159490f, -0.207131f, 0.044777f, 0.101119f, 0.086169f, -0.024782f,
    -0.006193f, 0.096934f, 0.120778f, 0.049725f, 0.195838f, 0.163020f, 0.134527f, 0.205966f, -0.205646f, -0.144204f,
    0.024118f, 0.173470f, -0.017312f, 0.124152f, 0.079111f, -0.057614f, -0.044802f, -0.212095f, 0.092153f, -0.011210f,
    -0.120371f, -0.029539f, -0.107421f, -0.208170f, 0.123611f, -0.132418f, 0.192745f, 0.080247f, 0.127825f, 0.159857f,
    0.034739f, -0.011024f, -0.212536f, -0.200710f, 0.028185f, -0.078118f, 0.163179f, -0.158723f, -0.215622f, 0.100903f,
    0.146597f, -0.076209f, 0.010215f, -0.051416f, -0.197200f, -0.211942f, -0.112650f, 0.020175f, -0.166078f, 0.038827f,
    0.018054f, 0.056170f, -0.122919f, 0.195629f, -0.146349f, -0.149612f, 0.082875f, -0.141726f, -0.117858f, 0.141122f,
    0.187988f, 0.019665f, 0.173979f, 0.203507f, 0.030903f, -0.209848f, -0.180958f, -0.132454f, 0.146329f, -0.209955f,
    -0.017736f, -0.151018f, 0.180990f, -0.001485f, -0.164881f, 0.153678f, -0.144316f, -0.115758f, -0.045285f, -0.072184f,
    0.013935f, 0.092041f, 0.140662f, -0.172962f, 0.043729f, -0.003232f, 0.171319f, 0.046923f, -0.007523f, 0.159270f,
    -0.191219f, -0.005601f, -0.151973f, -0.110697f, 0.197600f, 0.157386f, 0.033490f, 0.173533f, 0.002534f, 0.013425f,
    -0.181156f, 0.141306f, 0.209460f, -0.209074f, 0.180436f, 0.184766f, 0.070932f, -0.215364f, 0.216469f, -0.043555f,
    0.056421f, 0.122679f, 0.100598f, -0.072376f, 0.028237f, 0.198228f, 0.187517f, -0.081997f, -0.200708f, 0.198606f,
    0.153777f, -0.172745f, -0.161898f, 0.081153f, 0.136607f, 0.090517f, 0.138358f, -0.089050f, -0.209418f, 0.085228f,
    -0.100953f, 0.135144f, 0.179199f, 0.191391f, -0.208093f, 0.184897f, -0.118730f, 0.104758f, 0.120527f, 0.004122f,
    -0.106610f, -0.024684f, -0.040115f, -0.144512f, 0.008684f, 0.042131f, -0.076651f, 0.108648f, -0.113554f, 0.020526f,
    0.167511f, 0.147867f, 0.121738f, -0.017351f, 0.186846f, -0.071700f, 0.180424f, 0.045487f, 0.060690f, -0.105727f,
    0.123610f, -0.025473f, -0.151996f, -0.004160f, -0.169588f, 0.199784f, 0.207819f, -0.094316f, 0.041918f, -0.119087f,
    -0.132105f, -0.046830f, -0.106982f, -0.150484f, -0.142278f, -0.215985f, -0.003425f, -0.175382f, -0.127116f, -0.093287f,
    0.204625f, 0.012775f, -0.018450f, 0.193148f, 0.193901f, 0.005581f, 0.086094f, 0.109993f, -0.116511f, 0.076226f,
    0.033735f, 0.201785f, -0.195949f, -0.185316f, 0.135695f, -0.172583f, 0.017578f, 0.118494f, -0.126743f, -0.201861f,
    0.095668f, -0.165066f, 0.110957f, 0.033416f, 0.148818f, 0.139947f, 0.204907f, 0.091590f, 0.138874f, -0.187863f,
    -0.193539f, 0.118114f, -0.167741f, 0.125104f, 0.081816f, 0.025035f, -0.200886f, -0.037563f, 0.129029f, -0.091299f,
    -0.055573f, 0.020371f, -0.113568f, -0.001059f, 0.097646f, -0.112910f, 0.070071f, 0.121367f, 0.148505f, 0.079245f,
    -0.073455f, 0.119760f, 0.024910f, 0.152377f, -0.151675f, -0.033615f, 0.100502f, -0.123075f, 0.150177f, -0.125741f,
    0.214776f, -0.017957f, 0.189019f, -0.182390f, -0.148919f, -0.180684f, -0.078091f, 0.156877f, -0.161711f, -0.108207f,
    0.005163f, -0.061051f, -0.004461f, 0.198090f, -0.049988f, 0.072922f, -0.039088f, -0.120382f, 0.006599f, 0.162534f,
    -0.168719f, 0.164877f, -0.055374f, 0.120981f, -0.202620f, -0.069161f, 0.007888f, 0.096144f, -0.119950f, 0.146731f,
    -0.034515f, 0.186689f, -0.148224f, 0.206934f, 0.147776f, 0.144475f, 0.212398f, 0.040082f, 0.153212f, 0.088978f,
    -0.160747f, -0.166910f, -0.070230f, 0.143243f, 0.190854f, -0.189932f, 0.024801f, 0.036099f, 0.195339f, 0.163664f,
    -0.144639f, -0.012879f, 0.197989f, -0.208790f, 0.142206f, -0.190796f, 0.160883f, 0.017638f, 0.117604f, -0.205935f,
    0.121355f, -0.117836f, -0.110404f, -0.128679f, -0.134104f, -0.008030f, 0.045024f, -0.044579f, -0.127818f, 0.160162f,
    -0.011401f, 0.011243f, -0.115769f, -0.046498f, 0.182593f, 0.059544f, -0.082092f, -0.081012f, 0.000177f, -0.022120f,
    -0.079704f, -0.089041f, -0.107506f, 0.076638f, -0.023612f, 0.007405f, -0.176179f, 0.075333f, -0.203407f, 0.071175f,
    0.097536f, -0.036143f, 0.183983f, 0.137132f, 0.117207f, 0.097728f, 0.129455f, -0.012971f, -0.032602f, -0.053902f,
    -0.046189f, -0.189770f, 0.050028f, -0.141472f, 0.030476f, 0.107273f, -0.083819f, -0.155629f, 0.020031f, 0.162276f,
    0.185532f, 0.188319f, -0.064430f, 0.165372f, -0.151106f, -0.171081f, -0.060462f, 0.034831f, 0.031752f, 0.002574f,
    0.093279f, -0.147701f, 0.069510f, -0.214121f, 0.055747f, -0.156847f, 0.094369f, -0.130650f, 0.178424f, -0.017746f,
    0.091440f, -0.036724f, 0.013327f, 0.058585f, 0.019500f, -0.114193f, 0.097422f, 0.140066f, -0.124757f, -0.100233f,
    0.072093f, -0.124351f, -0.123952f, 0.137269f, -0.063306f, -0.063496f, -0.142160f, 0.159559f, -0.068633f, 0.146938f,
    -0.210719f, -0.109439f, -0.157012f, 0.011730f, -0.070763f, -0.126540f, 0.074064f, 0.044446f, 0.076401f, 0.074561f,
    -0.155031f, -0.115797f, -0.072889f, 0.079617f, -0.202682f, -0.096631f, -0.000023f, 0.098163f, 0.046029f, -0.115671f,
    0.080870f, -0.103560f, 0.121971f, -0.211759f, 0.179198f, -0.026453f, 0.023027f, -0.116739f, -0.138711f, -0.138258f,
    0.099501f, 0.034737f, 0.084548f, -0.059123f, -0.165980f, 0.122583f, 0.176223f, -0.203989f, -0.010038f, -0.113409f,
    0.201716f, -0.139961f, 0.155904f, 0.149062f, -0.080466f, -0.210973f, 0.030623f, 0.138084f, -0.000908f, -0.002102f,
    -0.133537f, 0.077735f, 0.144865f, 0.060807f, -0.089301f, 0.027241f, 0.101988f, 0.170959f, -0.045341f, 0.196714f,
    -0.063685f, 0.000741f, 0.140165f, -0.215043f, -0.084094f, 0.088774f, -0.053027f, -0.085858f, -0.136950f, -0.095243f,
    0.194864f, 0.154635f, 0.202985f, -0.177974f, 0.002344f, -0.021260f, -0.174507f, 0.009093f, -0.075105f, -0.038815f,
    0.050868f, -0.077890f, -0.109265f, 0.018338f, -0.015256f, -0.212421f, 0.074751f, 0.206213f, -0.123716f, 0.068597f,
    0.213180f, 0.046531f, 0.216194f, 0.041530f, 0.064061f, -0.029465f, -0.085923f, -0.072729f, 0.196385f, -0.044823f,
    -0.159974f, -0.176121f, -0.063816f, -0.137926f, -0.130605f, -0.065757f, 0.050472f, -0.138130f, 0.044161f, 0.115289f,
    -0.210656f, -0.091936f, -0.134116f, -0.098575f, -0.090765f, 0.027957f, 0.050249f, -0.050391f, 0.198923f, 0.182501f,
    0.112896f, 0.007640f, -0.200722f, -0.176935f, 0.169197f, -0.088312f, -0.109583f, 0.048472f, 0.025434f, 0.093165f,
    -0.036699f, -0.192556f, 0.012080f, 0.144760f, -0.181553f, -0.084333f, -0.212194f, 0.020681f, 0.188227f, 0.200335f,
    -0.136693f, -0.181158f, 0.153590f, -0.163101f, 0.058457f, -0.059380f, -0.101416f, 0.032299f, 0.128279f, -0.095979f,
    -0.128404f, 0.052890f, 0.134323f, -0.108330f, 0.204464f, -0.214761f, -0.134683f, -0.025324f, -0.137113f, 0.206736f,
    0.122188f, 0.029087f, 0.184250f, -0.179371f, 0.097968f, -0.173836f, 0.050489f, 0.141903f, 0.008162f, -0.095781f,
    -0.210033f, -0.123626f, 0.066605f, -0.128524f, -0.117099f, 0.144659f, 0.190857f, -0.010004f, 0.067401f, -0.000633f,
    0.041336f, -0.071557f, -0.062472f, 0.047303f, -0.197965f, 0.059730f, -0.054937f, -0.185678f, 0.030049f, -0.091544f,
    0.124480f, 0.048520f, -0.020095f, 0.159134f, 0.046879f, -0.153499f, 0.197231f, 0.026412f, -0.162349f, 0.047867f,
    -0.029983f, 0.132938f, 0.215182f, 0.166369f, -0.139445f, 0.103324f, 0.006689f, 0.047686f, 0.111511f, 0.111825f,
    0.201451f, -0.209993f, -0.155905f, -0.187156f, 0.055267f, -0.196840f, 0.195658f, 0.190600f, 0.016939f, 0.007629f,
    -0.013691f, -0.058158f, 0.116210f, -0.182477f, -0.202200f, 0.008166f, 0.174479f, 0.121751f, -0.026622f, 0.042853f,
    0.170093f, -0.174892f, 0.008546f, -0.157567f, -0.088452f, 0.201673f, 0.157028f, -0.191815f, -0.138775f, -0.192928f,
    -0.021361f, -0.094294f, 0.119405f, 0.149323f, 0.049339f, 0.213420f, -0.094678f, -0.065351f, -0.166011f, 0.134107f,
    0.053676f, 0.060220f, -0.076230f, -0.133697f, 0.144218f, 0.039248f, -0.039139f, -0.214215f, 0.192195f, 0.194593f,
    -0.216423f, -0.048980f, 0.096374f, -0.095517f, -0.003745f, -0.085020f, 0.216191f, -0.130967f, -0.175483f, -0.136833f,
    -0.032293f, 0.206223f, -0.202992f, -0.123067f, -0.101742f, -0.136799f, 0.064975f, -0.097471f, 0.100642f, -0.086567f,
    0.088454f, -0.005991f, -0.157692f, -0.099789f, -0.115920f, -0.188847f, -0.048854f, -0.202073f, 0.089987f, -0.178887f,
    -0.100670f, -0.194337f, 0.142558f, 0.190343f, -0.090878f, -0.132960f, -0.113458f, -0.030328f, 0.166015f, -0.144074f,
    0.135777f, 0.182271f, 0.090545f, -0.099266f, 0.204844f, -0.032516f, 0.207010f, -0.105133f, 0.053837f, -0.169908f,
    -0.159686f, 0.059074f, -0.212031f, -0.110194f, 0.051702f, 0.054104f, 0.004075f, 0.204629f, -0.199120f, 0.013699f,
    -0.159416f, 0.109496f, 0.069893f, 0.119977f, 0.034707f, -0.215110f, -0.210121f, 0.091840f, -0.158179f, -0.214639f,
    0.174300f, -0.072222f, 0.026826f, 0.146920f, 0.157188f, 0.175846f, -0.114071f, -0.203246f, 0.176449f, -0.176752f,
    -0.030252f, -0.028581f, -0.067194f, 0.195533f, 0.093068f, 0.110593f, -0.204484f, 0.017955f, -0.195034f, -0.084630f,
    0.110105f, 0.187075f, -0.187339f, -0.030662f, -0.180733f, -0.159741f, -0.087587f, 0.047142f, 0.202475f, -0.198857f,
    0.083098f, 0.177999f, -0.135093f, -0.071141f, -0.209571f, 0.119379f, -0.062249f, -0.095361f, -0.084106f, -0.118970f,
    0.018471f, 0.071915f, 0.124496f, -0.209475f, -0.061000f, -0.094421f, 0.201324f, -0.062655f, 0.148705f, 0.080752f,
    0.093066f, 0.004099f, 0.164395f, -0.081786f, 0.078335f, 0.153746f, -0.032241f, -0.103934f, -0.027838f, 0.114033f,
    0.133107f, -0.105013f, 0.082260f, -0.133148f, 0.160346f, 0.035575f, 0.054900f, 0.104956f, 0.028232f, 0.068711f,
    0.143183f, 0.009659f, -0.177939f, -0.020909f, 0.113107f, -0.116684f, 0.216385f, 0.157860f, 0.153065f, -0.124022f,
    0.076648f, -0.113156f, -0.191892f, -0.190758f, -0.062256f, -0.004946f, 0.114043f, -0.117014f, -0.209568f, 0.013239f,
    0.175380f, 0.050774f, 0.087926f, 0.138974f, -0.072457f, -0.015148f, 0.104048f, 0.138481f, 0.105373f, -0.111062f,
    -0.103918f, 0.067745f, -0.041329f, 0.060748f, 0.149791f, 0.037164f, -0.129527f, 0.118427f, 0.164993f, 0.002779f,
    -0.099528f, -0.173154f, 0.085672f, -0.139910f, -0.191895f, 0.180471f, -0.003990f, -0.190476f, -0.134615f, -0.007892f,
    -0.165621f, -0.072091f, 0.126176f, -0.169330f, 0.041432f, -0.183253f, -0.083571f, -0.105524f, -0.160840f, -0.045581f,
    -0.175033f, 0.072311f, -0.214570f, 0.182920f, 0.095716f, -0.063167f, 0.187152f, 0.209699f, 0.116502f, -0.133591f,
    -0.125938f, -0.074728f, -0.012624f, -0.092562f, -0.032419f, 0.070318f, 0.151408f, 0.041489f, 0.096980f, 0.087589f,
    -0.045788f, -0.022321f, -0.189334f, 0.108722f, -0.184514f, 0.180610f, -0.184662f, 0.144101f, 0.008749f, -0.136089f,
    0.214618f, -0.205250f, -0.202110f, 0.136701f, 0.060954f, -0.088091f, 0.072072f, 0.162069f, -0.010909f, 0.071093f,
    0.110661f, -0.017737f, -0.101580f, -0.059283f, -0.212407f, 0.178403f, 0.038728f, 0.136967f, 0.054076f, 0.120435f,
    0.205694f, -0.189168f, -0.063418f, -0.052315f, -0.055618f, -0.214161f, 0.055167f, -0.176410f, -0.045901f, 0.183166f,
    0.079274f, 0.021648f, -0.046451f, -0.197809f, 0.123421f, 0.159337f, -0.090125f, -0.051904f, -0.039952f, 0.082034f,
    0.032520f, -0.206766f, -0.019374f, 0.053266f, 0.046517f, 0.011490f, 0.212227f, 0.142627f, 0.048805f, -0.162928f,
    -0.130828f, -0.005142f, -0.069809f, -0.022131f, -0.204297f, 0.034672f, -0.112418f, -0.109940f, 0.186090f, -0.120799f,
    0.067567f, -0.201786f, 0.083024f, -0.012010f, -0.083739f, 0.133289f, 0.110276f, 0.068084f, 0.016313f, -0.016405f,
    0.178541f, 0.149649f, -0.174102f, -0.196520f, -0.123993f, -0.093536f, 0.193804f, -0.115857f, 0.013419f, -0.059302f,
    -0.103247f, -0.138749f, -0.137695f, -0.039258f, 0.007470f, -0.008524f, 0.119948f, -0.216199f, 0.149380f, -0.027098f,
    -0.097839f, 0.074410f, 0.031306f, 0.097166f, 0.115390f, -0.072775f, -0.140908f, 0.050330f, -0.095461f, 0.180129f,
    -0.085929f, 0.190907f, -0.200452f, -0.181270f, -0.094572f, 0.007946f, -0.044869f, 0.158466f, 0.123298f, -0.065157f,
    0.010496f, 0.157551f, -0.063500f, 0.212321f, -0.135523f, -0.166399f, -0.202074f, -0.181612f, -0.092223f, 0.110880f,
    0.046904f, -0.006867f, 0.128075f, 0.074950f, -0.159940f, 0.128438f, -0.100417f, -0.157046f, 0.019534f, 0.063998f,
    0.092302f, 0.151726f, -0.088665f, 0.208149f, 0.038006f, 0.051014f, 0.187667f, -0.204723f, -0.182975f, 0.106918f,
    -0.207464f, -0.086848f, 0.202010f, -0.148551f, 0.206291f, 0.023873f, 0.127542f, -0.182409f, 0.173179f, -0.064044f,
    -0.108753f, 0.024760f, 0.150930f, 0.176069f, -0.077083f, 0.115243f, -0.089081f, -0.103932f, 0.139208f, 0.063702f,
    -0.059359f, 0.115345f, -0.097821f, 0.175518f, 0.058541f, 0.152113f, 0.176832f, -0.200170f, 0.148124f, -0.114765f,
    -0.117608f, 0.033954f, 0.157831f, -0.198091f, 0.181419f, -0.200659f, -0.053317f, 0.056061f, -0.014981f, -0.126004f,
    0.071157f, -0.064051f, 0.015326f, -0.122209f, 0.178199f, -0.213341f, 0.001866f, -0.216001f, -0.196974f, 0.123020f,
    -0.141306f, 0.029042f, 0.110396f, 0.147878f, -0.197607f, 0.211970f, -0.216443f, -0.060905f, 0.002614f, -0.050362f,
    -0.184385f, -0.124721f, -0.143780f, 0.038203f, -0.211576f, 0.203092f, 0.211423f, 0.124100f, 0.139511f, 0.020200f,
    0.136826f, 0.176804f, -0.115161f, -0.161758f, 0.034841f, 0.047073f, 0.036056f, 0.090352f, 0.052198f, 0.014553f,
    -0.206707f, -0.037559f, 0.048978f, 0.022509f, 0.196685f, -0.092160f, 0.088509f, -0.059242f, -0.036605f, 0.087167f,
    -0.065222f, 0.094180f, -0.105027f, 0.208098f, 0.080408f, 0.168279f, -0.039744f, -0.158558f, -0.101343f, -0.107923f,
    0.167102f, 0.119981f, 0.133349f, 0.195450f, 0.005329f, 0.033803f, 0.088290f, -0.120507f, 0.129431f, 0.073773f,
    0.024201f, -0.047736f, -0.097684f, -0.121520f, -0.148677f, 0.086602f, 0.105343f, 0.154133f, -0.177071f, -0.075810f,
    0.128649f, -0.065401f, -0.175031f, -0.171492f, -0.134148f, -0.122084f, -0.172910f, -0.084072f, -0.063432f, 0.011050f,
    -0.082947f, -0.012763f, -0.185171f, -0.044157f, 0.042876f, -0.029167f, -0.168693f, 0.103636f, 0.206389f, -0.099844f,
    0.129424f, -0.128340f, -0.170068f, 0.207552f, 0.172669f, 0.052843f, 0.060386f, -0.092539f, 0.083474f, 0.105046f,
    0.144819f, 0.214130f, 0.073879f, 0.163875f, 0.077154f, 0.202183f, -0.126081f, 0.031320f, -0.113155f, -0.058619f,
    -0.207596f, -0.071981f, 0.215900f, -0.121203f, -0.111163f, 0.071288f, 0.157700f, 0.116264f, -0.161622f, 0.172873f,
    0.194495f, -0.214235f, 0.164214f, 0.142304f, -0.136490f, 0.163416f, -0.141525f, 0.098835f, 0.041699f, -0.180992f,
    0.150811f, 0.124137f, -0.125069f, -0.002314f, 0.015479f, -0.200924f, -0.058524f, 0.111698f, -0.089806f, 0.208399f,
    0.174512f, -0.157529f, 0.042372f, -0.077066f, 0.060669f, 0.195613f, -0.095534f, 0.071349f, 0.190601f, -0.104400f,
    0.010131f, 0.011384f, -0.046093f, 0.040683f, 0.040436f, -0.161484f, 0.204346f, 0.185183f, 0.209352f, -0.180847f,
    -0.008449f, 0.032591f, 0.125828f, 0.145034f, 0.199988f, 0.039273f, 0.197728f, -0.173128f, -0.104639f, -0.153067f,
    0.105678f, 0.109122f, -0.044816f, 0.018359f, -0.105291f, 0.208733f, 0.165452f, 0.039979f, 0.179304f, -0.143530f,
    0.210978f, -0.108404f, -0.163754f, 0.124980f, 0.114076f, -0.000225f, 0.048455f, -0.204518f, -0.043950f, 0.037393f,
    -0.033540f, 0.035576f, -0.170422f, 0.088639f, -0.068882f, -0.108091f, -0.212296f, -0.047588f, 0.030425f, 0.137628f,
    0.178289f, -0.090916f, -0.213614f, 0.041876f, -0.178654f, 0.013234f, 0.142660f, 0.119175f, 0.065208f, -0.134578f,
    0.002694f, 0.123446f, 0.201783f, -0.042699f, -0.141364f, -0.125956f, -0.204326f, -0.034672f, 0.127438f, -0.091336f,
    0.175790f, -0.007230f, -0.011434f, 0.035177f, 0.104431f, 0.055481f, 0.186560f, 0.110353f, -0.111365f, -0.127833f,
    -0.086733f, 0.201268f, -0.094179f, 0.089339f, -0.027150f, 0.148624f, 0.011755f, 0.185683f, 0.138091f, 0.037676f,
    0.148487f, 0.026941f, 0.108399f, -0.130867f, -0.186989f, 0.162970f, -0.052405f, -0.004746f, -0.085867f, -0.136576f,
    -0.045846f, 0.209532f, 0.004466f, -0.139219f, -0.209407f, -0.145815f, -0.200205f, -0.214693f, 0.181228f, -0.102512f,
    0.048607f, -0.110272f, 0.108885f, -0.027410f, 0.210818f, -0.196286f, -0.083486f, 0.169075f, -0.111298f, 0.038705f,
    -0.081418f, 0.205607f, 0.063205f, 0.152430f, 0.096000f, -0.189178f, 0.163089f, 0.003019f, 0.009425f, 0.149683f,
    -0.128659f, -0.027364f, -0.170070f, -0.009614f, -0.114750f, -0.194760f, 0.048674f, 0.111969f, -0.163585f, -0.132711f,
    0.032446f, -0.017262f, 0.037625f, -0.153269f, -0.156089f, 0.103003f, 0.084855f, -0.026818f, 0.159308f, -0.177791f,
    -0.065172f, -0.031490f, 0.158771f, -0.190420f, 0.080458f, 0.012362f, -0.081288f, -0.083909f, -0.200592f, 0.163491f,
    0.186144f, -0.100168f, -0.164790f, -0.125769f, -0.071681f, -0.095529f, 0.104895f, -0.145172f, -0.157779f, -0.062353f,
    -0.181628f, 0.013026f, -0.097650f, -0.207600f, 0.006982f, -0.114226f, -0.145537f, 0.171688f, -0.020076f, -0.138011f,
    -0.046837f, -0.136442f, -0.049811f, -0.014802f, -0.180578f, -0.199361f, -0.010175f, 0.124537f, -0.030517f, 0.103438f,
    -0.077463f, 0.051125f, 0.027367f, 0.201116f, 0.094057f, 0.084015f, 0.141813f, 0.051048f, 0.019194f, 0.156558f,
    0.019568f, -0.044516f, -0.004760f, 0.135971f, 0.102820f, -0.111879f, -0.171635f, 0.167690f, -0.075436f, 0.170663f,
    0.065718f, 0.139720f, 0.003953f, -0.118224f, -0.030351f, -0.028222f, -0.090651f, -0.008269f, 0.013293f, 0.139406f,
    -0.130217f, 0.169004f, 0.205083f, -0.042375f, -0.027804f, -0.107832f, -0.134272f, -0.045991f, -0.165498f, 0.211208f,
    0.061606f, -0.069963f, -0.107139f, -0.060511f, 0.086495f, 0.118724f, 0.209544f, 0.077736f, 0.155117f, -0.184477f,
    -0.005519f, 0.193589f, 0.046193f, -0.189765f, 0.016276f, 0.013985f, -0.150217f, -0.013963f, -0.135140f, -0.111201f,
    0.208002f, -0.115842f, -0.100109f, -0.032320f, 0.152075f, 0.013430f, -0.159540f, 0.124690f, 0.002885f, 0.103527f,
    -0.023529f, -0.137829f, 0.215638f, -0.047093f, 0.159680f, 0.156604f, -0.155209f, -0.077741f, 0.141282f, 0.053619f,
    0.207585f, -0.076797f, 0.087580f, -0.110801f, 0.046208f, 0.134011f, -0.072943f, -0.007788f, 0.091417f, -0.038224f,
    -0.183036f, 0.151476f, 0.081456f, 0.117177f, -0.199390f, -0.065013f, 0.131011f, -0.033315f, 0.043130f, -0.010661f,
    0.108771f, -0.135049f, 0.131895f, -0.167260f, -0.151143f, -0.085008f, -0.149676f, -0.048886f, -0.035931f, -0.040601f,
    -0.133386f, 0.143791f, 0.207182f, -0.144876f, 0.110650f, 0.121508f, -0.053373f, -0.192503f, -0.192188f, -0.146975f,
    0.009858f, 0.034115f, 0.004617f, 0.192190f, 0.068043f, -0.079855f, 0.152979f, 0.174348f, -0.197092f, 0.196359f,
    0.159766f, -0.132776f, -0.114303f, -0.185600f, -0.192560f, 0.022768f, 0.154102f, -0.088090f, 0.104285f, 0.056191f,
    -0.047252f, 0.134712f, -0.044312f, -0.167963f, -0.144863f, 0.086419f, 0.043614f, -0.183291f, 0.050711f, -0.023035f,
    -0.009661f, -0.085878f, -0.168678f, 0.039393f, -0.198689f, -0.207015f, 0.101377f, -0.166607f, 0.103004f, 0.049052f,
    -0.116783f, -0.043010f, 0.056199f, 0.085226f, -0.066357f, 0.176098f, -0.204498f, 0.106673f, 0.209182f, 0.024109f,
    -0.083985f, -0.006759f, 0.065486f, 0.010690f, 0.013247f, 0.151644f, -0.168241f, -0.143854f, 0.025146f, -0.128276f,
    0.000290f, -0.204764f, 0.106744f, -0.047291f, -0.133880f, -0.208158f, 0.136834f, 0.112376f, -0.202392f, -0.013632f,
    -0.133547f, -0.124074f, 0.077412f, -0.053224f, -0.099898f, 0.192039f, 0.096150f, 0.216133f, -0.203768f, 0.133461f,
    0.139696f, 0.058974f, -0.001125f, -0.113417f, 0.028457f, -0.195297f, 0.207837f, -0.034688f, -0.172259f, 0.117563f,
    0.212786f, -0.205405f, 0.043903f, 0.183458f, 0.060500f, 0.180118f, 0.159577f, -0.003335f, -0.209034f, 0.133262f,
    -0.138933f, -0.050286f, 0.197160f, 0.149723f, 0.166983f, -0.123315f, -0.054406f, -0.054991f, 0.061317f, -0.093983f,
    0.138118f, -0.089306f, 0.107372f, -0.125621f, -0.204835f, -0.074518f, 0.054282f, -0.138416f, 0.076696f, -0.037536f,
    -0.186198f, -0.023365f, -0.014814f, 0.140722f, 0.003934f, -0.016932f, 0.189251f, -0.207376f, -0.204392f, -0.046257f,
    0.140414f, 0.215264f, -0.012636f, -0.139501f, 0.044952f, 0.185068f, -0.014995f, -0.165667f, 0.094421f, -0.042601f,
    0.148653f, -0.139674f, -0.155100f, 0.088621f, -0.200526f, 0.152421f, 0.026913f, 0.092304f, -0.003072f, 0.038616f,
    0.089342f, -0.093528f, -0.190817f, -0.051718f, 0.205601f, 0.208118f, 0.128613f, 0.040987f, 0.126492f, -0.098124f,
    -0.202761f, 0.157952f, -0.046896f, -0.125308f, 0.211268f, 0.074310f, -0.017966f, -0.144927f, 0.001920f, 0.202192f,
    -0.198943f, -0.127462f, 0.041348f, -0.188550f, 0.058251f, 0.013491f, 0.174627f, 0.039894f, -0.185856f, 0.157289f,
    0.005940f, -0.095217f, -0.083249f, -0.172360f, 0.142073f, 0.001860f, 0.200837f, 0.023655f, 0.196278f, 0.014684f,
    -0.174173f, 0.201482f, 0.184454f, -0.191389f, 0.136423f, -0.133324f, -0.046036f, 0.049741f, -0.141344f, -0.046225f,
    0.170257f, -0.089510f, -0.118775f, -0.089559f, -0.025677f, -0.200683f, -0.098456f, 0.195683f, 0.023583f, 0.115635f,
    -0.168509f, -0.209318f, 0.192343f, -0.029836f, 0.038584f, 0.103332f, 0.070197f, 0.173831f, 0.008876f, 0.023615f,
    0.004626f, -0.154531f, -0.064151f, 0.112335f, 0.096512f, 0.185540f, 0.131324f, 0.125997f, -0.137829f, -0.108214f,
    0.139076f, -0.115435f, 0.154629f, 0.134806f, -0.039014f, -0.183647f, 0.079502f, 0.208547f, 0.061537f, 0.005156f,
    0.124399f, -0.075790f, -0.040658f, 0.023524f, -0.026120f, -0.032937f, 0.191985f, -0.104873f, -0.191054f, -0.050286f,
    0.035256f, 0.026046f, -0.174255f, -0.131573f, -0.079266f, -0.170691f, 0.021365f, -0.042602f, 0.024762f, -0.147466f,
    -0.158365f, 0.183701f, 0.120105f, -0.170148f, 0.060528f, 0.029839f, 0.173362f, 0.189106f, -0.015781f, 0.169784f,
    0.090361f, -0.084531f, 0.141347f, -0.045675f, 0.020703f, 0.051956f, 0.028367f, -0.206629f, -0.065442f, -0.155883f,
    -0.095887f, -0.183759f, 0.123492f, 0.113482f, 0.206715f, -0.096125f, 0.029797f, -0.195861f, -0.143794f, 0.025519f,
    0.061003f, 0.134265f, 0.129397f, 0.060258f, 0.074842f, 0.174510f, 0.100004f, -0.013758f, -0.187068f, 0.143392f,
    -0.056317f, 0.113331f, -0.023714f, -0.123464f, 0.009397f, 0.175081f, 0.164514f, -0.168725f, 0.165534f, 0.000344f,
    -0.128858f, -0.079868f, 0.214355f, -0.075763f, 0.153373f, 0.184541f, 0.069845f, 0.051783f, -0.208176f, -0.001008f,
    -0.015078f, 0.094737f, -0.180994f, 0.071544f, -0.015563f, 0.068187f, 0.110480f, 0.150123f, 0.063116f, 0.134236f,
    -0.048614f, 0.211757f, -0.073240f, 0.197150f, 0.088888f, 0.005150f, -0.085257f, 0.128104f, 0.056351f, 0.027525f,
    0.015721f, 0.176038f, 0.093700f, 0.083230f, 0.120183f, 0.173542f, 0.108234f, -0.050512f, 0.019003f, 0.027422f,
    0.187102f, 0.009403f, -0.133410f, -0.017239f, 0.064918f, 0.018342f, -0.173335f, -0.003462f, 0.068360f, -0.177268f,
    -0.193697f, 0.086828f, -0.113522f, 0.104673f, -0.203553f, 0.076308f, -0.061908f, -0.101472f, 0.046677f, 0.155082f,
    0.172806f, 0.020493f, 0.094619f, -0.020517f, 0.032206f, 0.034826f, 0.181528f, -0.181278f, 0.006424f, 0.160481f,
    0.174247f, -0.075514f, 0.097422f, 0.119105f, 0.114857f, 0.015197f, 0.106700f, 0.039147f, 0.157156f, -0.050533f,
    -0.131023f, 0.048706f, 0.083991f, -0.062438f, -0.197334f, -0.181173f, -0.091440f, -0.094538f, -0.043702f, -0.201363f,
    0.084999f, 0.083038f, 0.072307f, 0.041932f, 0.004146f, 0.079585f, -0.130098f, -0.046256f, -0.079577f, -0.128111f,
    -0.016443f, -0.046300f, 0.054786f, 0.071743f, -0.174032f, -0.107814f, -0.204454f, -0.203054f, -0.065860f, -0.031332f,
    -0.176304f, 0.204871f, -0.037416f, -0.184160f, -0.052858f, -0.114894f, -0.068622f, 0.177555f, -0.206584f, 0.215801f,
    0.009682f, 0.067402f, 0.026729f, 0.055062f, -0.073086f, 0.045718f, -0.060515f, 0.045783f, 0.195411f, -0.081155f,
    0.074428f, -0.147945f, -0.043584f, -0.149420f, 0.026739f, -0.080574f, -0.101163f, 0.136942f, 0.134279f, 0.165876f,
    0.168254f, 0.086535f, 0.180873f, -0.182660f, 0.176750f, -0.050221f, 0.200250f, -0.110949f, -0.188029f, 0.064544f,
    0.055864f, 0.160234f, 0.022470f, -0.121684f, 0.082772f, 0.196528f, 0.169670f, 0.092602f, -0.006273f, -0.207794f,
    -0.164119f, 0.008801f, -0.014772f, -0.061740f, -0.200993f, 0.102286f, 0.037779f, -0.081342f, -0.093978f, 0.045315f,
    0.059494f, 0.140809f, 0.140728f, 0.084882f, 0.172910f, 0.147843f, 0.100906f, -0.053866f, 0.208357f, 0.043829f,
    0.053089f, -0.157567f, 0.180138f, 0.173473f, 0.083618f, 0.046131f, -0.154352f, -0.053374f, -0.022499f, -0.058266f,
    -0.119456f, -0.040721f, -0.023161f, 0.121475f, 0.078940f, -0.143505f, 0.040634f, -0.026262f, 0.057216f, 0.018491f,
    -0.001934f, -0.075931f, -0.191438f, 0.023892f, -0.116558f, -0.010416f, -0.125247f, 0.060819f, -0.200282f, -0.061330f,
    -0.205526f, -0.183589f, -0.092578f, -0.085154f, -0.014600f, -0.183763f, 0.146716f, -0.204181f, -0.175601f, 0.044421f,
    -0.030387f, -0.028732f, -0.078648f, -0.139053f, 0.205283f, 0.042918f, 0.139678f, -0.142843f, -0.080231f, -0.022983f,
    0.136696f, 0.030066f, -0.194034f, -0.016171f, 0.176257f, -0.025303f, 0.132833f, 0.077989f, 0.148287f, 0.006266f,
    -0.023232f, 0.189651f, 0.025465f, 0.199694f, 0.120504f, 0.072553f, 0.215097f, -0.149686f, -0.165267f, -0.207107f,
    0.117710f, -0.123217f, 0.021625f, 0.045378f, 0.082348f, -0.011129f, 0.002209f, -0.135712f, 0.128621f, -0.124070f,
    0.119826f, 0.066823f, 0.052897f, -0.080954f, -0.141641f, -0.076564f, -0.085817f, 0.021526f, 0.077693f, -0.208330f,
    0.137183f, 0.096402f, -0.189207f, -0.010537f, 0.037207f, 0.100661f, -0.115327f, -0.116513f, -0.176750f, 0.144345f,
    -0.165192f, -0.184528f, -0.145973f, 0.174184f, -0.005939f, 0.066228f, -0.036423f, -0.208522f, 0.096486f, -0.035316f,
    -0.214263f, 0.147954f, -0.213660f, -0.164376f, 0.216263f, -0.126417f, -0.073172f, -0.101203f, -0.133291f, -0.147094f,
    -0.093860f, -0.169079f, -0.073744f, 0.020910f, -0.000825f, -0.208370f, -0.164522f, -0.105095f, -0.129425f, -0.182572f,
    0.165298f, 0.148714f, 0.089172f, -0.186825f, 0.066544f, -0.190918f, 0.099991f, 0.091763f, -0.109841f, 0.057199f,
    -0.186521f, 0.167319f, -0.160684f, 0.113237f, -0.071301f, 0.029822f, 0.197316f, -0.168292f, 0.091052f, -0.000346f,
    -0.078588f, 0.110062f, -0.205924f, -0.211137f, 0.131136f, 0.050015f, -0.163415f, -0.137154f, -0.089447f, -0.050680f,
    -0.008268f, 0.139801f, -0.138123f, -0.009141f, -0.107427f, -0.123452f, -0.147390f, -0.049762f, 0.009807f, -0.167104f,
    0.193956f, -0.099662f, 0.132706f, -0.127469f, -0.089987f, -0.151162f, -0.169438f, 0.071267f, -0.130388f, -0.044163f,
    0.042909f, 0.086082f, -0.014967f, 0.197035f, 0.206734f, 0.014793f, -0.197098f, -0.171084f, 0.010630f, 0.020523f,
    -0.138928f, -0.008914f, 0.068749f, 0.036119f, -0.212538f, -0.182567f, 0.035952f, 0.109697f, -0.066288f, -0.063926f,
    0.031940f, -0.102962f, 0.096861f, -0.071003f, -0.085692f, 0.045281f, 0.130435f, -0.207206f, 0.138020f, 0.133898f,
    -0.046065f, 0.135550f, -0.022823f, -0.166622f, -0.006726f, 0.180937f, 0.175180f, -0.036411f, 0.123862f, -0.008554f,
    -0.191446f, -0.059726f, 0.054972f, -0.186571f, 0.044118f, 0.154696f, -0.009346f, 0.078196f, -0.070822f, 0.104694f,
    0.172808f, -0.120724f, -0.120816f, -0.117843f, 0.044408f, 0.062940f, -0.107218f, 0.175495f, -0.126564f, -0.004360f,
    0.034351f, 0.070613f, -0.135742f, -0.216377f, 0.162661f, -0.001701f, -0.104682f, 0.012524f, 0.023269f, -0.131227f,
    -0.161742f, 0.143021f, -0.152103f, -0.022369f, 0.197143f, -0.173858f, 0.143499f, -0.030515f, 0.145656f, -0.054533f,
    -0.109366f, -0.063481f, 0.101344f, 0.169464f, 0.017195f, 0.092638f, 0.161817f, 0.078685f, -0.164226f, -0.006509f,
    0.074519f, -0.130138f, 0.207932f, 0.082097f, 0.203426f, -0.115913f, 0.192350f, -0.029884f, -0.070658f, -0.075062f,
    0.021227f, 0.044278f, 0.087569f, 0.003724f, -0.163571f, -0.148897f, -0.048549f, -0.082463f, 0.130521f, -0.187308f,
    -0.047062f, 0.002573f, 0.024302f, -0.189121f, -0.136116f, -0.043954f, 0.040731f, 0.067862f, 0.208543f, -0.201778f,
    -0.085100f, -0.143134f, -0.121213f, -0.186784f, 0.013566f, -0.049263f, 0.162378f, 0.129903f, -0.171150f, -0.065487f,
    -0.100080f, 0.035473f, -0.121448f, -0.104724f, 0.002212f, -0.131727f, 0.120031f, 0.053830f, -0.074357f, -0.061492f,
    0.186689f, -0.210367f, -0.199387f, -0.188690f, 0.130313f, 0.184462f, -0.099373f, 0.107295f, -0.193572f, -0.148786f,
    0.089382f, 0.170145f, 0.204489f, -0.156802f, -0.050685f, 0.037950f, 0.139904f, 0.194263f, -0.124756f, 0.122128f,
    0.055076f, 0.048421f, 0.103090f, -0.073319f, -0.086131f, 0.014733f, -0.175923f, 0.204452f, -0.000660f, 0.169011f,
    -0.136592f, -0.041636f, 0.149256f, 0.042115f, 0.113927f, 0.202359f, 0.213613f, -0.209161f, 0.170053f, 0.006123f,
    0.086804f, -0.128976f, -0.164216f, -0.129623f, -0.039918f, 0.160227f, 0.162281f, -0.005462f, -0.116929f, 0.163699f,
    -0.127974f, 0.209516f, -0.157006f, -0.127190f, -0.075625f, -0.128920f, -0.079318f, 0.215036f, -0.206930f, 0.098047f,
    -0.146207f, 0.216371f, 0.087527f, -0.155511f, 0.193866f, 0.119661f, 0.048401f, -0.077502f, 0.074030f, -0.010393f,
    0.127965f, 0.018877f, 0.142216f, 0.090120f, 0.040956f, -0.081840f, 0.171659f, 0.141969f, 0.128034f, -0.113264f,
    -0.067410f, 0.154532f, 0.014489f, 0.013168f, 0.117810f, 0.106347f, -0.032176f, 0.054170f, -0.012670f, 0.027885f,
    -0.214414f, -0.053384f, 0.132601f, -0.032161f, 0.199775f, 0.083532f, 0.070252f, -0.200059f, -0.122249f, 0.177762f,
    0.156899f, 0.141324f, 0.160618f, -0.106338f, -0.060252f, 0.041001f, 0.092742f, -0.170976f, 0.162633f, 0.091539f,
    0.213597f, 0.203310f, 0.172322f, 0.002687f, -0.095916f, -0.195449f, -0.205442f, 0.204785f, -0.157980f, 0.030271f,
    -0.021011f, -0.143116f, 0.005287f, -0.038103f, 0.097952f, -0.128476f, -0.140982f, 0.191223f, -0.177299f, -0.141632f,
    -0.033679f, -0.175454f, -0.206322f, -0.127279f, 0.024848f, -0.171966f, -0.056753f, -0.052213f, -0.149194f, 0.128078f,
    -0.040868f, -0.160477f, -0.129026f, 0.038643f, 0.123527f, 0.101567f, 0.000440f, -0.143265f, 0.191564f, -0.078091f,
    -0.150304f, 0.157492f, 0.216110f, -0.025858f, -0.056722f, 0.133518f, -0.188713f, 0.093148f, -0.084832f, -0.138387f,
    -0.052490f, -0.152185f, 0.114877f, 0.158361f, -0.055987f, -0.193335f, -0.023561f, 0.014429f, -0.003106f, 0.142068f,
    -0.165854f, -0.053755f, -0.182010f, 0.046569f, 0.081393f, -0.123649f, 0.038293f, 0.008721f, 0.193091f, 0.169833f,
    0.135684f, 0.152010f, -0.004937f, 0.123676f, 0.089123f, -0.196246f, 0.109668f, -0.189996f, -0.070267f, -0.044479f,
    0.097213f, -0.162160f, -0.178406f, 0.011726f, 0.187537f, -0.157036f, -0.062693f, 0.178197f, 0.161278f, -0.208880f,
    -0.052184f, 0.200421f, -0.167170f, 0.142916f, -0.178879f, 0.160187f, -0.012110f, -0.100927f, -0.167860f, -0.205319f,
    -0.096465f, 0.126277f, 0.143898f, -0.118614f, 0.105221f, -0.023752f, 0.043267f, 0.001194f, 0.207624f, -0.162472f,
    0.190827f, 0.072381f, -0.015495f, 0.155328f, 0.144684f, -0.056937f, -0.033543f, 0.069939f, -0.075226f, -0.081840f,
    0.108272f, 0.093791f, 0.199927f, -0.166175f, -0.063911f, -0.098993f, -0.077025f, 0.130503f, -0.173368f, 0.162341f,
    -0.088357f, 0.087528f, 0.080419f, -0.191731f, 0.064540f, -0.059169f, -0.139513f, -0.151629f, 0.154951f, -0.115770f,
    0.166554f, -0.002030f, 0.016879f, -0.155223f, -0.042153f, 0.140949f, -0.116022f, 0.133762f, 0.172480f, 0.122741f,
    0.051912f, -0.009712f, -0.200675f, -0.155727f, 0.151951f, 0.111803f, -0.067151f, 0.190663f, -0.104793f, -0.073762f,
    -0.139778f, 0.086321f, 0.211797f, -0.150865f, -0.116029f, 0.140566f, 0.003243f, 0.182909f, -0.188971f, 0.125076f,
    0.149511f, 0.035703f, -0.061253f, -0.002458f, -0.187729f, 0.209871f, 0.126718f, 0.011128f, 0.135559f, 0.064631f,
    -0.150883f, -0.133152f, 0.129941f, 0.081042f, 0.189363f, -0.009337f, 0.006286f, -0.199469f, -0.128225f, 0.104776f,
    -0.089246f, 0.181764f, 0.127227f, 0.118254f, 0.156902f, 0.087646f, 0.092480f, -0.065967f, 0.054901f, -0.030527f,
    0.109595f, -0.137256f, 0.007016f, -0.019776f, -0.201948f, 0.064009f, 0.006841f, 0.162238f, -0.124776f, 0.045816f,
    -0.072505f, 0.086649f, -0.205336f, -0.169038f, -0.198209f, 0.010203f, 0.065395f, -0.145563f, 0.117099f, -0.067904f,
    0.137169f, -0.122577f, 0.109803f, -0.212734f, -0.062022f, -0.216213f, 0.081307f, 0.023734f, 0.210935f, -0.074932f,
    0.112595f, -0.162702f, 0.035365f, -0.095609f, -0.134140f, -0.130191f, -0.019020f, -0.129418f, 0.067881f, -0.145027f,
    0.088535f, 0.168841f, -0.088456f, -0.162095f, -0.130399f, -0.002004f, -0.064694f, 0.040991f, -0.009938f, -0.085685f,
    0.011749f, 0.186679f, 0.007350f, -0.033509f, -0.055178f, 0.165227f, 0.095384f, 0.155372f, -0.112416f, -0.107442f,
    0.185754f, 0.130005f, -0.162343f, -0.210151f, 0.198260f, -0.129808f, 0.101216f, -0.019733f, 0.076026f, 0.175798f,
    -0.065688f, -0.006854f, -0.004617f, 0.154034f, 0.128441f, -0.052072f, 0.015742f, -0.172851f, 0.164611f, 0.109677f,
    0.022022f, 0.205378f, -0.207025f, 0.015839f, -0.006851f, -0.138770f, -0.140431f, -0.070285f, -0.113390f, 0.069202f,
    0.070826f, -0.095726f, -0.113869f, -0.214566f, -0.183385f, 0.016962f, -0.104050f, 0.146964f, -0.129408f, -0.116814f,
    -0.020707f, 0.118193f, -0.107862f, -0.214745f, 0.215465f, 0.027374f, 0.129712f, -0.057919f, 0.004250f, 0.018101f,
    0.077362f, -0.141634f, 0.080655f, 0.016548f, -0.148903f, -0.010103f, -0.031371f, 0.038157f, 0.082357f, 0.000781f,
    -0.033306f, 0.096138f, 0.160101f, 0.047691f, -0.172360f, 0.207228f, 0.102412f, 0.003214f, 0.046432f, -0.125279f,
    0.046787f, 0.189828f, -0.007294f, -0.114291f, -0.107060f, 0.191940f, 0.027294f, -0.004999f, -0.121940f, 0.186473f,
    -0.182191f, -0.058990f, 0.210060f, 0.026918f, 0.069601f, -0.022603f, 0.060885f, -0.129276f, 0.155531f, -0.064876f,
    -0.192716f, -0.117405f, 0.110391f, 0.156892f, -0.146807f, -0.165667f, 0.058969f, -0.020686f, -0.095862f, -0.011941f,
    -0.210927f, -0.053209f, -0.100822f, -0.203438f, 0.051594f, 0.154585f, 0.147282f, -0.031008f, -0.022758f, 0.127986f,
    0.020028f, 0.056597f, -0.209233f, -0.100477f, 0.085722f, -0.190607f, -0.151847f, 0.033453f, -0.160807f, -0.125816f,
    -0.110829f, 0.112970f, -0.005164f, 0.106198f, 0.135236f, 0.211023f, 0.163960f, -0.187250f, 0.140058f, -0.065913f,
    0.079487f, 0.171529f, 0.050146f, 0.027556f, 0.117787f, 0.195694f, 0.047297f, 0.057704f, -0.114692f, 0.126773f,
    0.116611f, -0.173967f, 0.157921f, 0.024242f, 0.019861f, -0.057891f, -0.000011f, 0.000625f, -0.000290f, 0.000000f,
    -0.000132f, 0.000000f, 0.000000f, 0.000561f, -0.000434f, 0.000310f, 0.000000f, 0.000000f, 0.000000f, 0.000000f,
    0.000000f, -0.000456f, 0.000000f, 0.000000f, -0.000313f, 0.000000f, 0.000013f, 0.000078f, 0.000552f, 0.000252f,
    0.000000f, -0.000182f, 0.000000f, 0.000000f, 0.000000f, 0.000000f, -0.000000f, -0.000115f, 0.000000f, -0.000143f,
    0.000606f, 0.000060f, 0.000000f, -0.000574f, 0.000000f, -0.000000f, 0.000000f, 0.000424f, -0.000413f, 0.000000f,
    0.000558f, 0.000000f, 0.000000f, 0.000000f, 0.000000f, 0.000612f, 0.000000f, -0.000000f, 0.000360f, 0.000000f,
    0.000000f, -0.000212f, 0.000000f, 0.000000f, 0.000000f, 0.000539f, 0.000000f, 0.000000f, 0.000000f, 0.000000f,
    -0.036842f, -0.000284f, -0.032103f, 0.051648f, 0.037224f, -0.043637f, 0.060114f, -0.097667f, 0.070097f, -0.054858f,
    -0.091435f, -0.017301f, 0.048287f, -0.019796f, -0.043981f, 0.013092f, -0.079947f, 0.018407f, -0.087471f, 0.060886f,
    0.012539f, 0.043145f, 0.039418f, -0.078985f, -0.057173f, 0.023045f, -0.004942f, 0.050168f, -0.085232f, 0.014502f,
    -0.011924f, 0.006820f, -0.028311f, 0.028673f, 0.034706f, -0.036842f, 0.003689f, -0.088872f, -0.098639f, 0.031805f,
    -0.050194f, -0.080313f, 0.091761f, 0.057163f, 0.096904f, 0.051173f, -0.003435f, -0.010413f, -0.082468f, -0.047440f,
    0.071659f, -0.073942f, -0.030119f, 0.091804f, 0.008680f, 0.057994f, -0.073986f, 0.051619f, -0.092091f, -0.012133f,
    -0.037721f, 0.078496f, 0.052669f, -0.034820f, -0.003196f, 0.081896f, 0.035007f, 0.070631f, 0.046819f, -0.088240f,
    -0.038026f, -0.062939f, -0.070628f, 0.074263f, 0.063298f, -0.029310f, -0.062748f, -0.022927f, -0.034083f, -0.013502f,
    0.054706f, -0.082176f, 0.081300f, -0.100518f, 0.008568f, -0.051762f, 0.033078f, -0.011977f, -0.101226f, 0.024919f,
    0.037381f, 0.074152f, -0.067944f, -0.039558f, 0.036094f, -0.007994f, 0.101070f, -0.101625f, 0.034141f, 0.063582f,
    -0.054445f, -0.048715f, 0.076243f, 0.093660f, 0.022378f, -0.062704f, -0.020466f, 0.067046f, 0.001477f, -0.019691f,
    0.098951f, 0.095487f, -0.085674f, 0.024474f, 0.098468f, -0.045817f, 0.094153f, -0.068674f, -0.090676f, -0.014375f,
    -0.099003f, -0.014306f, 0.042392f, -0.040734f, 0.010873f, -0.066509f, -0.097000f, 0.053499f, -0.082520f, 0.076577f,
    -0.012013f, 0.045918f, 0.044211f, 0.082904f, -0.097030f, -0.090721f, 0.018353f, 0.017500f, 0.044188f, 0.050808f,
    -0.032283f, 0.058853f, 0.035337f, -0.051029f, 0.034597f, 0.085389f, -0.062004f, 0.089685f, 0.019824f, -0.081983f,
    0.086164f, -0.069400f, 0.074441f, 0.023484f, 0.077470f, 0.101184f, 0.060310f, -0.056509f, 0.031081f, -0.085001f,
    0.003005f, 0.054034f, -0.002420f, 0.070026f, -0.003747f, -0.028810f, 0.093488f, -0.015870f, -0.100071f, 0.018207f,
    0.076284f, -0.047926f, -0.082239f, -0.054293f, -0.087505f, 0.035325f, -0.021468f, 0.027510f, -0.022488f, 0.015037f,
    0.088580f, 0.053492f, -0.086454f, -0.021077f, -0.040924f, 0.094092f, -0.040223f, -0.064180f, -0.078572f, -0.036712f,
    -0.004802f, -0.099080f, -0.045192f, -0.074568f, 0.045736f, 0.036005f, -0.087552f, 0.047916f, 0.054572f, -0.006192f,
    0.077109f, -0.015238f, 0.028410f, 0.048954f, 0.057985f, 0.097642f, 0.038708f, 0.076122f, -0.020430f, 0.020977f,
    -0.032766f, -0.046998f, 0.051372f, -0.009922f, -0.098017f, -0.026130f, -0.001499f, 0.027619f, 0.080796f, -0.073836f,
    0.097801f, -0.076860f, -0.090808f, -0.000310f, -0.086058f, 0.086584f, -0.061848f, -0.064807f, 0.023055f, 0.044634f,
    -0.090257f, -0.032207f, 0.003611f, -0.053535f, 0.084654f, 0.061830f, -0.039844f, 0.016587f, 0.002049f, 0.054707f,
    0.036968f, -0.093827f, 0.019335f, -0.052694f, 0.011704f, 0.048934f, -0.010757f, -0.090190f, -0.036622f, 0.033442f,
    -0.044129f, 0.021340f, 0.034566f, -0.009602f, 0.014412f, -0.009874f, -0.085345f, 0.086528f, 0.023806f, 0.035644f,
    -0.045465f, -0.012818f, 0.018505f, 0.091632f, 0.034537f, 0.101663f, 0.085482f, -0.017644f, -0.049442f, 0.028687f,
    -0.052336f, 0.007038f, 0.058673f, 0.011536f, -0.002837f, 0.027807f, 0.017678f, 0.062248f, 0.036828f, 0.042553f,
    -0.035392f, -0.023228f, 0.061848f, 0.026191f, 0.051250f, 0.000315f, 0.054242f, 0.074901f, 0.079202f, -0.072193f,
    0.061110f, 0.023630f, 0.012565f, 0.084083f, 0.027105f, -0.063293f, 0.033502f, -0.086024f, -0.092350f, 0.089576f,
    -0.055125f, 0.041477f, 0.046551f, -0.018325f, -0.068332f, -0.063029f, -0.070029f, 0.020900f, -0.101013f, 0.063221f,
    0.041980f, 0.037746f, -0.079680f, -0.042686f, -0.027464f, -0.021626f, -0.058219f, 0.009174f, -0.050006f, 0.087556f,
    -0.085547f, 0.059687f, 0.093655f, 0.067419f, -0.015444f, -0.088323f, -0.016799f, 0.062787f, 0.049395f, 0.032463f,
    -0.001817f, 0.040418f, 0.010539f, -0.001217f, 0.065936f, 0.009489f, 0.036728f, -0.094911f, 0.099076f, 0.077630f,
    -0.038464f, -0.001331f, -0.073780f, -0.034474f, -0.014199f, 0.101445f, -0.044630f, -0.048199f, 0.088958f, -0.035593f,
    0.046777f, 0.015994f, -0.060517f, 0.027107f, -0.048348f, 0.061903f, -0.038169f, 0.017849f, 0.066396f, -0.093317f,
    0.091121f, -0.063516f, 0.000487f, 0.069608f, -0.001540f, -0.071541f, 0.041018f, 0.003333f, -0.002742f, 0.072527f,
    -0.084938f, -0.038983f, 0.029978f, -0.052267f, 0.048139f, 0.024727f, -0.045226f, 0.046430f, -0.005227f, 0.009110f,
    -0.059527f, 0.085909f, 0.094579f, -0.084923f, -0.021424f, -0.017834f, -0.007190f, 0.036068f, 0.081478f, 0.010730f,
    -0.087984f, -0.076220f, 0.014433f, 0.022204f, 0.012458f, -0.004066f, -0.029360f, 0.032443f, 0.050117f, 0.036478f,
    0.065332f, 0.074766f, -0.072893f, -0.087051f, 0.075159f, -0.074706f, -0.060761f, 0.019990f, 0.021322f, -0.068466f,
    -0.063642f, -0.090892f, -0.084675f, -0.025297f, -0.052801f, 0.060111f, -0.065810f, -0.070889f, 0.060348f, 0.075518f,
    -0.059403f, -0.012476f, 0.057362f, -0.020592f, -0.059813f, -0.083080f, 0.017156f, -0.096966f, 0.042563f, -0.014195f,
    0.034434f, 0.094254f, -0.017270f, 0.077547f, 0.020719f, 0.021247f, 0.073881f, -0.049031f, 0.094694f, 0.097771f,
    -0.096582f, -0.007227f, 0.051451f, 0.015922f, -0.033297f, 0.028179f, -0.031158f, -0.094974f, 0.054638f, 0.070619f,
    -0.017692f, -0.050372f, -0.050671f, -0.067664f, 0.031552f, -0.098408f, 0.026779f, -0.022463f, -0.036989f, -0.082451f,
    0.038441f, -0.056386f, 0.066667f, 0.067427f, -0.061382f, -0.068701f, -0.066200f, -0.002901f, -0.049108f, -0.063633f,
    0.057089f, -0.034266f, -0.027226f, 0.092778f, -0.050206f, 0.046566f, -0.038524f, -0.001933f, 0.078573f, -0.018663f,
    -0.063955f, 0.083191f, -0.055916f, -0.000858f, 0.064464f, -0.049715f, 0.003124f, -0.018556f, -0.098308f, 0.066510f,
    0.026028f, -0.081984f, 0.057041f, -0.081229f, 0.023993f, -0.071872f, -0.061922f, 0.078638f, -0.007885f, 0.011425f,
    0.022389f, -0.089391f, -0.029316f, -0.015124f, 0.038806f, 0.073330f, 0.066674f, 0.026782f, -0.058455f, 0.007083f,
    0.038607f, 0.081144f, 0.058936f, -0.019128f, -0.071809f, 0.101789f, -0.022730f, 0.060703f, 0.036546f, 0.023850f,
    0.039743f, -0.012663f, -0.026449f, -0.046182f, 0.040627f, 0.083297f, -0.101757f, -0.069737f, 0.014008f, -0.023003f,
    -0.068431f, -0.008014f, -0.048851f, -0.017336f, -0.058003f, -0.017901f, 0.055174f, 0.012312f, -0.053651f, 0.027545f,
    -0.063541f, 0.040652f, -0.097270f, -0.096095f, -0.028343f, -0.028386f, 0.072090f, 0.005076f, 0.029488f, -0.077119f,
    -0.049395f, -0.090779f, -0.083738f, -0.034452f, 0.002875f, 0.024549f, 0.057368f, 0.057068f, -0.005326f, 0.057007f,
    0.027407f, -0.000617f, -0.093295f, -0.095601f, 0.020223f, 0.070591f, -0.068803f, -0.000542f, -0.040849f, -0.071968f,
    0.025547f, 0.096668f, 0.026596f, 0.066825f, -0.053742f, -0.056822f, 0.021220f, 0.022796f, 0.029684f, -0.053373f,
    -0.045146f, 0.094769f, -0.046729f, -0.080726f, 0.099392f, 0.029956f, 0.029909f, 0.000372f, 0.006386f, -0.075902f,
    -0.074692f, -0.075993f, 0.054513f, -0.015550f, 0.005577f, -0.014518f, -0.036116f, 0.037019f, 0.000562f, -0.037933f,
    -0.033432f, 0.090489f, -0.053510f, -0.056888f, -0.028166f, 0.002463f, 0.094149f, -0.051951f, -0.075010f, 0.003382f,
    -0.071639f, 0.056417f, -0.038399f, -0.001342f, -0.064886f, -0.049475f, -0.087755f, 0.096996f, -0.098020f, -0.051914f,
    -0.060103f, 0.039749f, 0.067097f, -0.056522f, 0.023855f, 0.018689f, 0.002048f, 0.044939f, 0.072213f, -0.078353f,
    0.051016f, 0.068871f, 0.034575f, 0.055923f, -0.025534f, -0.081346f, -0.005609f, -0.047504f, -0.033954f, 0.012737f,
    -0.093113f, 0.053969f, -0.037836f, -0.091473f, 0.071997f, -0.001167f, 0.089224f, -0.061182f, -0.100569f, 0.042688f,
    -0.029591f, 0.085324f, 0.099431f, 0.065681f, -0.052426f, -0.036167f, -0.037797f, 0.060617f, 0.007261f, 0.063408f,
    -0.017194f, 0.045536f, -0.009265f, 0.016478f, 0.088953f, 0.012050f, 0.069396f, -0.032153f, 0.004517f, 0.020960f,
    -0.078501f, -0.080604f, 0.031722f, 0.085568f, 0.005113f, 0.077731f, 0.036393f, -0.028472f, -0.084456f, -0.015118f,
    0.070776f, -0.083457f, -0.008939f, -0.071404f, 0.052867f, 0.041172f, 0.088352f, -0.052566f, -0.076616f, -0.101201f,
    0.029383f, 0.038319f, -0.012492f, 0.005983f, -0.054422f, -0.019904f, -0.000738f, -0.063584f, 0.045485f, -0.000968f,
    -0.000465f, 0.017613f, -0.013314f, -0.010662f, 0.077479f, 0.008378f, -0.074600f, 0.013171f, -0.059248f, 0.101442f,
    0.022591f, -0.088481f, -0.099880f, 0.011130f, 0.092312f, -0.019023f, 0.072601f, -0.067192f, 0.003281f, -0.071130f,
    0.015789f, 0.030586f, -0.064898f, -0.084136f, -0.004037f, -0.022244f, -0.093738f, -0.068709f, -0.092051f, -0.031222f,
    0.070145f, -0.015755f, 0.015229f, -0.004976f, -0.057739f, 0.050169f, -0.061466f, -0.038671f, 0.067122f, -0.070943f,
    -0.039272f, -0.020334f, 0.043213f, 0.023461f, 0.100024f, -0.054437f, -0.097970f, -0.064621f, -0.079400f, 0.066109f,
    -0.050597f, -0.055503f, -0.018604f, -0.043115f, -0.083912f, -0.075650f, -0.101006f, 0.022500f, -0.069927f, 0.003400f,
    0.084351f, 0.011486f, -0.061940f, -0.065891f, -0.029551f, -0.090467f, -0.066900f, -0.017037f, -0.065776f, 0.032086f,
    0.069835f, 0.062978f, 0.036878f, -0.000618f, -0.088039f, 0.001625f, -0.039535f, 0.037542f, 0.063601f, 0.036770f,
    0.069470f, 0.006300f, -0.010064f, -0.044813f, -0.038094f, -0.049401f, 0.056102f, 0.030099f, 0.088195f, -0.054225f,
    -0.028302f, 0.065311f, 0.027392f, -0.102037f, -0.072846f, -0.049269f, -0.008523f, 0.000446f, 0.082868f, 0.011228f,
    -0.046110f, 0.034075f, 0.101499f, 0.044313f, 0.073450f, -0.067846f, 0.054695f, -0.061779f, 0.031093f, 0.096123f,
    0.043107f, 0.061673f, 0.064407f, -0.073606f, -0.005089f, 0.050374f, 0.035738f, 0.030144f, -0.023467f, 0.054296f,
    -0.055971f, 0.042420f, -0.084907f, -0.084699f, 0.010756f, 0.050381f, 0.000357f, -0.014196f, 0.080428f, -0.092487f,
    0.042140f, -0.029428f, 0.057759f, -0.053174f, 0.015636f, -0.050039f, 0.045870f, 0.046636f, 0.028244f, -0.010168f,
    0.020343f, 0.034233f, 0.039985f, 0.000066f, 0.082922f, -0.070764f, -0.075485f, 0.055183f, 0.055249f, -0.002136f,
    -0.036285f, -0.037285f, 0.057465f, -0.041090f, -0.050390f, -0.030655f, -0.086197f, -0.041659f, 0.024282f, 0.071975f,
    -0.033887f, 0.095792f, 0.036364f, 0.010437f, 0.035705f, 0.077926f, -0.027818f, 0.026344f, -0.048357f, -0.022813f,
    0.076884f, -0.095889f, 0.023575f, -0.079188f, -0.058849f, 0.018596f, 0.094835f, -0.011592f, -0.020637f, 0.097075f,
    0.045443f, 0.099905f, 0.076417f, -0.086692f, 0.094225f, 0.066735f, 0.078420f, 0.032635f, 0.029059f, -0.059591f,
    -0.092368f, -0.054201f, 0.041837f, -0.090777f, -0.084768f, -0.028313f, 0.037146f, 0.098456f, 0.082197f, -0.049928f,
    -0.029534f, -0.096501f, -0.065038f, -0.091532f, -0.022352f, -0.023445f, -0.039828f, -0.018648f, 0.011528f, -0.037555f,
    -0.041035f, 0.000355f, -0.082812f, 0.009200f, -0.026418f, -0.005466f, -0.059024f, -0.038639f, 0.088849f, -0.007115f,
    0.119075f, -0.043440f, -0.098589f, -0.026254f, 0.055804f, -0.037306f, 0.019646f, -0.029165f, 0.066501f, 0.075288f,
    0.081918f, 0.075842f, -0.029092f, -0.002016f, -0.085795f, 0.099394f, -0.053282f, 0.098738f, 0.078736f, 0.063267f,
    -0.053342f, -0.056652f, -0.004257f, 0.022826f, -0.057134f, -0.073627f, -0.036400f, 0.011965f, 0.101074f, 0.031410f,
    -0.092640f, -0.048251f, -0.021612f, 0.049696f, -0.027234f, 0.071378f, 0.043262f, 0.015066f, 0.095409f, -0.071244f,
    -0.083921f, -0.051246f, -0.016261f, -0.095885f, -0.011876f, 0.029969f, -0.083134f, 0.058450f, 0.090572f, 0.096920f,
    -0.101810f, 0.049479f, -0.047177f, -0.030558f, -0.026408f, -0.049698f, 0.039511f, -0.085183f, -0.100088f, -0.013876f,
    -0.024474f, 0.009739f, -0.092590f, -0.062602f, -0.000437f, 0.097579f, 0.066798f, 0.007753f, -0.050637f, -0.017977f,
    0.039013f, -0.020715f, 0.008481f, -0.046194f, 0.043193f, 0.040528f, 0.030608f, -0.013840f, 0.026508f, -0.032241f,
    0.098416f, -0.082208f, -0.058468f, 0.092924f, 0.032996f, -0.095078f, -0.065100f, -0.074038f, -0.085641f, 0.042608f,
    0.076246f, -0.069569f, -0.074308f, 0.058449f, -0.099151f, 0.055464f, -0.054293f, 0.062729f, 0.053207f, -0.042539f,
    -0.009143f, 0.063375f, -0.001735f, -0.002964f, -0.053693f, -0.045401f, 0.022925f, 0.012493f, -0.065922f, 0.024285f,
    -0.095991f, -0.094911f, -0.059148f, 0.062074f, 0.047735f, 0.070070f, -0.001935f, 0.044279f, -0.023536f, 0.095574f,
    -0.057058f, -0.066721f, 0.090695f, -0.043219f, -0.088241f, 0.057994f, -0.048505f, -0.010241f, 0.090391f, 0.063120f,
    -0.092496f, -0.031320f, -0.082674f, -0.076399f, -0.081685f, 0.078163f, -0.015915f, -0.011874f, -0.037165f, -0.101027f,
    -0.020377f, 0.101087f, -0.065763f, 0.046516f, -0.057248f, -0.059758f, -0.088100f, 0.088227f, 0.080718f, -0.050889f,
    -0.033663f, -0.100761f, 0.003120f, -0.074580f, -0.075494f, -0.006765f, 0.075822f, 0.059706f, -0.025229f, 0.037810f,
    0.026956f, -0.042925f, -0.093224f, 0.080137f, -0.075714f, 0.047931f, -0.021225f, 0.021380f, 0.024881f, 0.068629f,
    0.035954f, -0.037735f, 0.085915f, -0.053616f, -0.084858f, -0.086096f, -0.014263f, 0.008888f, -0.086086f, -0.073504f,
    0.040184f, 0.086321f, 0.013468f, -0.016540f, -0.092654f, -0.035151f, 0.032660f, -0.081266f, -0.084484f, 0.056222f,
    -0.007969f, -0.082361f, -0.061392f, 0.063078f, -0.027557f, 0.042688f, 0.030029f, 0.100833f, 0.099312f, -0.056831f,
    0.043255f, 0.063741f, -0.059196f, -0.033945f, -0.004310f, -0.102043f, 0.078448f, 0.072572f, 0.095220f, 0.010662f,
    -0.074592f, -0.010954f, -0.064694f, 0.091853f, 0.066217f, 0.005659f, 0.032257f, -0.041158f, -0.033834f, 0.055415f,
    0.058342f, -0.092640f, 0.086468f, -0.082847f, 0.047101f, 0.101360f, 0.018751f, -0.048464f, -0.041528f, 0.086854f,
    0.003306f, 0.055125f, 0.011523f, 0.009080f, 0.003926f, 0.065055f, -0.024894f, 0.095320f, 0.033254f, -0.010838f,
    -0.055831f, -0.014006f, 0.044493f, -0.033504f, 0.022623f, -0.100286f, 0.087171f, -0.094849f, -0.044754f, -0.082635f,
    0.020850f, 0.046665f, 0.041790f, 0.060847f, 0.043697f, 0.075725f, -0.075021f, 0.101012f, -0.007051f, -0.029492f,
    0.033591f, 0.075979f, 0.019506f, 0.076094f, -0.050771f, -0.034074f, -0.061120f, 0.073778f, 0.088391f, -0.012025f,
    0.021904f, -0.091629f, -0.003904f, -0.019261f, -0.096355f, -0.019196f, -0.095086f, 0.016789f, 0.039812f, -0.090212f,
    0.028043f, 0.048844f, 0.051505f, -0.051438f, 0.017441f, -0.062480f, 0.101547f, 0.019935f, -0.071635f, -0.080493f,
    0.062216f, 0.096343f, 0.049712f, 0.023569f, 0.071964f, 0.047634f, 0.084846f, -0.086402f, -0.056242f, -0.054500f,
    -0.096534f, -0.097583f, -0.100231f, 0.101331f, 0.035763f, 0.030109f, 0.087411f, -0.079252f, -0.099237f, 0.060058f,
    0.091873f, 0.019582f, -0.092201f, -0.025542f, 0.030763f, 0.071152f, -0.016696f, 0.031782f, 0.078003f, 0.078937f,
    -0.014736f, -0.035194f, 0.087717f, -0.050811f, -0.036089f, 0.033532f, -0.039780f, 0.050336f, 0.019706f, 0.054457f,
    -0.072766f, -0.097824f, -0.000696f, 0.010981f, -0.082981f, 0.054672f, -0.054981f, 0.012482f, 0.081565f, -0.075879f,
    0.049077f, 0.074157f, -0.059161f, -0.086887f, -0.096928f, -0.013167f, 0.012546f, -0.004339f, 0.090493f, 0.085462f,
    0.015908f, -0.074982f, 0.038309f, 0.083351f, 0.074976f, 0.091818f, -0.008977f, 0.006034f, -0.073640f, 0.022311f,
    -0.023000f, -0.072211f, -0.076083f, -0.023692f, -0.093255f, 0.073520f, -0.070504f, -0.059210f, -0.012696f, 0.047112f,
    -0.006687f, -0.026208f, 0.066562f, 0.080693f, -0.032970f, 0.000784f, -0.067060f, 0.024978f, -0.099398f, -0.066239f,
    0.050758f, -0.004264f, 0.024075f, -0.033616f, -0.004536f, 0.009356f, 0.006364f, -0.006873f, -0.060213f, 0.092832f,
    -0.091342f, -0.047719f, 0.012302f, -0.001266f, 0.045446f, -0.038527f, 0.007578f, -0.014096f, -0.067485f, 0.059353f,
    0.054168f, -0.089965f, -0.010292f, -0.071728f, 0.088271f, -0.024883f, -0.096905f, 0.085374f, 0.095620f, -0.072485f,
    -0.005845f, -0.029079f, -0.032384f, 0.081093f, 0.007965f, 0.013613f, -0.012659f, 0.006927f, 0.038555f, -0.002410f,
    -0.019319f, -0.023340f, -0.039018f, 0.080012f, 0.094091f, 0.100902f, -0.014996f, -0.008827f, 0.085409f, 0.036419f,
    -0.010429f, -0.001461f, 0.044880f, -0.017325f, -0.017886f, 0.096895f, -0.070574f, -0.041908f, 0.006364f, 0.016287f,
    -0.067933f, 0.054566f, -0.001079f, -0.097511f, 0.003713f, -0.004404f, 0.027588f, -0.081900f, 0.022595f, 0.014043f,
    0.064537f, 0.073801f, -0.059852f, 0.090159f, -0.060410f, -0.062346f, 0.040735f, -0.050487f, -0.046435f, -0.028357f,
    0.079968f, 0.093864f, 0.051742f, -0.055502f, 0.039701f, 0.024138f, -0.098568f, 0.050372f, 0.036155f, 0.013466f,
    -0.073061f, 0.052088f, -0.050515f, 0.081539f, 0.048503f, 0.061740f, 0.072283f, -0.079794f, -0.087351f, 0.040796f,
    0.032025f, 0.094529f, 0.095554f, -0.005620f, 0.058316f, -0.093267f, -0.038266f, -0.059057f, 0.071229f, 0.099957f,
    -0.078723f, 0.005471f, 0.089577f, -0.058345f, -0.076495f, -0.031552f, -0.025938f, 0.084176f, 0.010117f, -0.093097f,
    -0.072960f, -0.101664f, -0.047492f, 0.010903f, -0.057173f, 0.005047f, 0.077370f, -0.015803f, -0.099007f, 0.037510f,
    0.082033f, -0.062447f, -0.020992f, -0.071380f, -0.051074f, 0.054065f, -0.049171f, 0.032807f, 0.091545f, 0.014282f,
    -0.052848f, -0.015525f, -0.053674f, -0.089571f, 0.086948f, 0.023443f, 0.077920f, 0.038030f, -0.068349f, -0.038470f,
    0.082075f, 0.060931f, 0.022783f, -0.023446f, 0.060367f, -0.072214f, -0.030454f, -0.080086f, 0.069898f, 0.091189f,
    -0.064604f, 0.095256f, 0.058860f, 0.057368f, -0.018669f, -0.016886f, -0.091031f, 0.042527f, 0.086295f, -0.075269f,
    0.011350f, -0.028429f, 0.034259f, -0.071799f, -0.030757f, -0.010523f, -0.101443f, -0.009854f, 0.019494f, -0.045771f,
    0.006157f, 0.052701f, -0.000008f, 0.052379f, 0.028747f, -0.018620f, 0.078513f, 0.051302f, -0.084003f, -0.023468f,
    -0.020732f, -0.035465f, 0.094849f, -0.002772f, 0.073070f, 0.050165f, -0.000565f, -0.080553f, -0.098206f, 0.047029f,
    0.094091f, -0.024512f, -0.035002f, -0.083936f, -0.070718f, -0.088645f, 0.003447f, 0.024524f, 0.021417f, -0.065212f,
    0.000599f, 0.008356f, 0.079166f, 0.021966f, -0.079009f, -0.073542f, 0.051825f, 0.086373f, -0.051576f, 0.083774f,
    -0.038859f, -0.009287f, 0.064112f, 0.070073f, -0.096278f, -0.070677f, 0.083318f, -0.087317f, 0.013385f, 0.082993f,
    0.003996f, 0.020329f, 0.003112f, 0.005096f, -0.056771f, 0.038954f, 0.008376f, -0.044949f, -0.027837f, 0.076699f,
    -0.062852f, 0.072431f, 0.028061f, -0.018738f, -0.067048f, -0.021765f, -0.043961f, 0.036554f, -0.077957f, -0.021096f,
    0.042088f, 0.032233f, 0.001952f, 0.066588f, 0.011164f, -0.084518f, 0.070344f, 0.055693f, 0.082398f, -0.081796f,
    0.007642f, 0.068324f, -0.049741f, 0.041783f, 0.030244f, 0.023998f, -0.009805f, 0.003547f, -0.066705f, 0.014057f,
    0.020567f, -0.011837f, -0.080313f, 0.015350f, 0.083738f, -0.043212f, -0.027556f, -0.040661f, -0.070665f, -0.065211f,
    -0.098580f, -0.072110f, -0.056985f, 0.075561f, -0.095225f, -0.006803f, -0.068424f, -0.075337f, 0.081592f, -0.081944f,
    0.003723f, 0.019788f, 0.056027f, 0.097157f, -0.038106f, -0.058725f, -0.044203f, 0.081486f, -0.072301f, 0.005348f,
    -0.064978f, 0.093130f, 0.033662f, 0.091704f, -0.057676f, -0.044920f, 0.049668f, 0.031652f, 0.011813f, -0.059024f,
    0.079045f, -0.056643f, 0.054022f, 0.052429f, -0.032552f, 0.092372f, 0.018688f, -0.076485f, -0.006504f, -0.015406f,
    0.007887f, 0.003271f, 0.049978f, 0.066739f, 0.091307f, 0.069280f, 0.069823f, -0.043666f, 0.024937f, -0.012964f,
    0.080061f, 0.050441f, -0.061057f, 0.016191f, -0.041191f, 0.067505f, -0.088384f, -0.023852f, 0.090064f, 0.090029f,
    0.097557f, -0.099030f, -0.021757f, 0.065375f, 0.063207f, 0.010173f, 0.092220f, -0.017593f, -0.058904f, 0.022745f,
    -0.069429f, -0.051894f, -0.094328f, -0.089302f, -0.061758f, 0.066227f, 0.085707f, -0.076089f, -0.049070f, 0.096290f,
    -0.031557f, -0.085459f, 0.043183f, 0.050971f, -0.009512f, -0.000811f, 0.050839f, -0.056650f, 0.018876f, 0.032443f,
    0.041687f, 0.080008f, 0.078762f, -0.041108f, 0.084067f, 0.081388f, 0.005261f, 0.094499f, 0.017055f, 0.063298f,
    0.087840f, 0.038929f, 0.061651f, -0.082978f, 0.086924f, -0.099092f, -0.098846f, -0.085629f, -0.023397f, 0.017290f,
    -0.089420f, 0.087041f, 0.078467f, 0.059517f, -0.031448f, 0.014873f, 0.005353f, 0.047008f, -0.071396f, -0.022097f,
    0.006876f, -0.068490f, 0.101584f, 0.091212f, 0.028756f, 0.069162f, 0.069976f, 0.035854f, 0.042826f, -0.020115f,
    -0.014790f, 0.036334f, 0.010436f, 0.005566f, -0.015823f, 0.097716f, 0.020756f, 0.036784f, 0.046390f, -0.028050f,
    0.000651f, 0.061597f, -0.063434f, -0.031048f, 0.100110f, -0.034494f, -0.056834f, -0.083347f, 0.100493f, -0.090319f,
    -0.007446f, 0.054152f, 0.015103f, -0.089448f, -0.050734f, -0.040229f, 0.013139f, 0.091777f, -0.084970f, -0.004973f,
    0.065161f, -0.079789f, 0.055132f, -0.088463f, 0.071916f, 0.092156f, 0.086877f, -0.094457f, 0.070637f, -0.017361f,
    -0.086452f, 0.008340f, 0.046922f, -0.054375f, -0.060412f, -0.040611f, -0.031470f, 0.080380f, 0.095510f, -0.053016f,
    -0.008732f, -0.069660f, -0.059346f, -0.069659f, -0.037883f, -0.025359f, -0.033859f, 0.065001f, -0.014845f, 0.035332f,
    -0.074776f, -0.043125f, -0.003396f, -0.040815f, 0.073231f, 0.021532f, -0.006178f, 0.007169f, -0.069006f, 0.005758f,
    -0.023727f, -0.007012f, -0.055216f, 0.012215f, -0.008000f, 0.097138f, -0.022715f, -0.041020f, -0.034163f, 0.053255f,
    -0.073775f, -0.031481f, 0.092563f, -0.004178f, 0.090714f, -0.051571f, -0.057422f, -0.071247f, 0.063541f, -0.034506f,
    0.052293f, 0.049269f, 0.070785f, -0.096973f, 0.089332f, -0.092081f, -0.069109f, 0.068318f, -0.097599f, -0.000761f,
    0.077019f, 0.037299f, 0.096301f, -0.082333f, -0.064909f, -0.027087f, -0.014819f, -0.001458f, -0.013632f, -0.032690f,
    0.039646f, 0.044417f, 0.069487f, 0.088162f, 0.047438f, 0.078838f, 0.072914f, -0.080851f, -0.000046f, 0.086702f,
    -0.010486f, -0.075698f, -0.040256f, -0.021251f, -0.019447f, 0.087299f, -0.088874f, 0.043748f, 0.090768f, -0.044897f,
    -0.088156f, 0.031951f, -0.083928f, -0.068711f, 0.064548f, -0.067478f, -0.090972f, -0.004363f, 0.084412f, 0.099093f,
    0.074083f, 0.011963f, 0.095658f, 0.025059f, 0.027230f, 0.014763f, 0.054182f, 0.023821f, -0.094993f, -0.065224f,
    -0.032749f, -0.033829f, 0.055640f, -0.096878f, -0.026130f, 0.004881f, 0.044113f, -0.028590f, -0.003079f, -0.048291f,
    0.051124f, -0.044057f, 0.052940f, -0.005308f, 0.045665f, -0.101381f, -0.011907f, -0.010281f, -0.096825f, 0.039359f,
    0.046632f, 0.050459f, 0.022274f, -0.042141f, -0.019231f, 0.078968f, -0.043174f, -0.050923f, 0.083467f, -0.004088f,
    0.067185f, -0.058572f, -0.005306f, -0.021370f, 0.011731f, 0.056727f, 0.033269f, 0.098754f, -0.046763f, -0.062289f,
    -0.059131f, -0.058497f, 0.054144f, 0.045066f, 0.028227f, 0.007537f, 0.054003f, -0.034006f, 0.054637f, 0.068149f,
    -0.084624f, 0.072038f, 0.059776f, 0.077201f, 0.030928f, 0.072959f, -0.003527f, 0.052310f, -0.058404f, 0.021155f,
    0.029471f, -0.044046f, -0.021701f, -0.094193f, -0.057134f, 0.060854f, 0.101484f, 0.034568f, -0.092767f, -0.036420f,
    0.031972f, 0.052071f, 0.061354f, -0.067735f, 0.021883f, -0.091104f, 0.070673f, -0.003452f, 0.052477f, -0.076743f,
    0.037012f, -0.075644f, -0.004205f, -0.051279f, 0.061382f, -0.023360f, 0.079160f, 0.024831f, 0.016861f, 0.032849f,
    0.031611f, 0.046856f, -0.017179f, -0.069427f, -0.069040f, 0.005146f, 0.071208f, 0.095420f, 0.096727f, 0.004477f,
    -0.058127f, 0.016185f, 0.033227f, 0.018292f, 0.088621f, 0.070666f, 0.028345f, 0.096151f, 0.031400f, -0.002054f,
    0.086894f, -0.053958f, -0.085807f, 0.081114f, -0.044505f, 0.074852f, -0.056310f, 0.078836f, -0.081674f, -0.037070f,
    -0.019192f, 0.033808f, -0.080489f, 0.018311f, 0.096065f, 0.062595f, -0.075258f, -0.046604f, -0.047402f, -0.000355f,
    0.012865f, -0.051913f, -0.048853f, -0.074945f, 0.072754f, 0.004622f, 0.077500f, 0.062214f, -0.094933f, -0.062739f,
    0.016240f, -0.031349f, 0.098229f, -0.030442f, -0.076407f, -0.100339f, 0.016915f, -0.079906f, -0.083539f, -0.062787f,
    0.067688f, -0.046980f, -0.046113f, 0.003994f, -0.079994f, 0.080520f, 0.031231f, -0.019099f, -0.007526f, 0.001431f,
    -0.052917f, -0.025153f, 0.039623f, -0.098288f, 0.088512f, 0.083127f, -0.049384f, 0.052958f, -0.032521f, -0.087043f,
    -0.035945f, 0.022801f, 0.038927f, -0.083815f, -0.082142f, 0.056896f, 0.022139f, 0.001455f, -0.038916f, 0.022237f,
    -0.024877f, -0.090670f, -0.097365f, -0.091522f, -0.020684f, -0.101379f, -0.007573f, 0.097813f, -0.075471f, -0.043426f,
    -0.095291f, -0.016737f, -0.066872f, 0.056175f, -0.088328f, -0.038485f, 0.063076f, 0.088709f, 0.028927f, -0.026343f,
    0.066194f, -0.002122f, -0.021218f, -0.007364f, -0.051551f, -0.101401f, -0.016905f, 0.081312f, 0.021581f, -0.096321f,
    -0.003594f, -0.004037f, 0.093324f, 0.028046f, -0.017355f, 0.022635f, 0.068941f, 0.093810f, -0.021898f, 0.039829f,
    -0.031728f, -0.050698f, -0.042184f, 0.042842f, -0.063107f, -0.021953f, 0.087770f, -0.086107f, 0.010995f, 0.039728f,
    -0.009687f, 0.047268f, -0.084738f, 0.067078f, 0.019182f, 0.040628f, -0.096751f, -0.094334f, 0.072854f, 0.101054f,
    0.012940f, 0.030286f, -0.026784f, 0.025931f, 0.052889f, -0.100398f, -0.043466f, 0.075986f, -0.006224f, -0.031112f,
    -0.028234f, -0.020029f, -0.029202f, 0.029616f, 0.081923f, -0.024337f, -0.012819f, -0.053919f, 0.101742f, 0.091374f,
    -0.060079f, 0.069786f, 0.100600f, -0.073433f, 0.023769f, -0.015930f, -0.098267f, 0.007428f, -0.038080f, -0.044402f,
    0.034590f, -0.080318f, 0.052120f, 0.085709f, 0.051878f, -0.002127f, -0.097067f, -0.071878f, 0.032737f, -0.044309f,
    -0.038816f, -0.008884f, 0.071642f, -0.046285f, 0.034772f, -0.029544f, -0.022244f, -0.043411f, -0.100151f, 0.095273f,
    -0.019022f, -0.001640f, -0.088267f, -0.007747f, 0.079253f, 0.077516f, -0.021726f, -0.014265f, 0.068860f, -0.030323f,
    0.031494f, 0.029527f, 0.094486f, -0.075266f, 0.097658f, 0.027341f, 0.022187f, -0.038421f, 0.072325f, -0.067166f,
    0.060930f, 0.089355f, -0.078465f, -0.088689f, 0.034093f, -0.022627f, -0.040429f, 0.082559f, -0.089390f, -0.006872f,
    -0.028231f, -0.011397f, -0.026741f, -0.059357f, 0.065379f, -0.053650f, -0.095196f, 0.045026f, -0.088062f, 0.060181f,
    0.040142f, 0.001145f, 0.055408f, -0.101586f, 0.062751f, 0.059161f, -0.054383f, 0.076458f, 0.042641f, 0.079749f,
    0.088279f, -0.096984f, -0.090900f, 0.002997f, -0.034889f, -0.020533f, -0.026992f, -0.027268f, 0.034028f, 0.060666f,
    -0.066655f, -0.035669f, 0.055640f, 0.077634f, -0.045428f, 0.003270f, 0.025253f, 0.027299f, 0.082977f, 0.036103f,
    -0.034084f, -0.098312f, 0.025725f, -0.021184f, 0.026258f, 0.011707f, 0.076657f, -0.033920f, -0.070331f, 0.003054f,
    0.053303f, 0.078944f, 0.055795f, -0.014281f, -0.027409f, 0.084957f, 0.044339f, -0.074769f, 0.029928f, 0.093604f,
    0.041396f, -0.062980f, -0.042278f, -0.074105f, 0.030633f, 0.096806f, -0.073665f, -0.061261f, -0.077559f, 0.033167f,
    -0.064338f, -0.036256f, -0.039701f, -0.057647f, 0.065629f, 0.022756f, 0.071037f, 0.078998f, -0.078560f, -0.046928f,
    0.054910f, 0.084494f, -0.099904f, -0.090534f, -0.054593f, -0.101801f, 0.017975f, -0.067342f, -0.042472f, -0.036369f,
    -0.069952f, -0.047420f, 0.080011f, -0.058190f, 0.055883f, 0.100149f, 0.049093f, -0.026738f, 0.032180f, 0.001643f,
    -0.009970f, 0.032071f, -0.043086f, -0.096421f, 0.091561f, 0.045915f, 0.005138f, 0.037246f, -0.067795f, 0.011872f,
    -0.007397f, -0.052137f, 0.089224f, -0.095354f, 0.017657f, -0.091031f, 0.031941f, -0.018143f, 0.038628f, -0.056523f,
    -0.019415f, -0.056868f, 0.026038f, 0.010848f, 0.095046f, -0.043400f, 0.101101f, 0.013909f, -0.051137f, 0.098320f,
    0.017339f, -0.045484f, -0.062207f, -0.070580f, -0.084133f, 0.071269f, 0.047986f, -0.081472f, -0.037799f, 0.038581f,
    0.027824f, 0.057254f, -0.068850f, 0.056145f, -0.067734f, -0.057935f, 0.035877f, -0.066539f, 0.038575f, -0.048072f,
    0.011398f, -0.003403f, -0.028558f, 0.035372f, -0.098880f, -0.100612f, -0.065316f, -0.037308f, -0.090935f, 0.024612f,
    -0.085154f, -0.026952f, 0.089067f, 0.097570f, -0.019691f, -0.006917f, 0.066898f, 0.087309f, -0.000244f, 0.015758f,
    -0.080070f, -0.046367f, 0.080600f, 0.095165f, 0.060502f, -0.022393f, 0.040313f, 0.085740f, -0.081030f, -0.026509f,
    -0.039358f, 0.095790f, -0.045176f, -0.047039f, -0.088062f, -0.083821f, -0.071621f, -0.065484f, -0.072213f, 0.060671f,
    0.005191f, 0.093579f, 0.046539f, -0.082988f, -0.095670f, -0.049569f, 0.090005f, -0.078931f, -0.082024f, -0.030008f,
    0.001002f, -0.092289f, -0.008157f, 0.091005f, 0.026687f, -0.053087f, -0.078335f, -0.029349f, 0.080717f, -0.001831f,
    0.024463f, -0.076007f, -0.032446f, 0.016129f, -0.088768f, 0.022262f, 0.031419f, -0.006022f, -0.093007f, -0.094598f,
    0.068684f, 0.016690f, 0.031666f, -0.075797f, -0.036180f, -0.073168f, -0.001655f, -0.023864f, -0.010091f, -0.079367f,
    -0.012035f, -0.004052f, 0.028595f, 0.074088f, -0.052180f, -0.058881f, -0.018317f, -0.095354f, 0.037901f, 0.099234f,
    -0.019721f, 0.044622f, -0.100375f, 0.083765f, -0.043510f, 0.101699f, 0.035580f, -0.020604f, -0.039310f, -0.071937f,
    0.005393f, 0.077976f, 0.101982f, 0.015095f, -0.010974f, -0.076084f, -0.079330f, 0.069222f, -0.021051f, 0.024629f,
    0.070797f, 0.052586f, 0.021877f, 0.060355f, -0.081579f, -0.070077f, 0.044573f, 0.035201f, -0.048210f, 0.029270f,
    0.052877f, -0.075177f, 0.018833f, -0.069769f, -0.004135f, -0.004468f, 0.003120f, -0.074833f, 0.025080f, 0.095208f,
    0.046947f, 0.055057f, -0.016036f, 0.071910f, -0.055764f, -0.088647f, -0.022564f, -0.062274f, 0.008020f, -0.033203f,
    -0.098381f, 0.084975f, 0.020318f, 0.007524f, -0.098698f, -0.096399f, 0.092813f, -0.035947f, 0.098914f, 0.009238f,
    -0.049359f, -0.081284f, 0.050715f, -0.004422f, -0.054685f, -0.064458f, -0.004836f, -0.049421f, -0.028868f, -0.047258f,
    0.089030f, 0.077514f, -0.095511f, 0.025907f, 0.027494f, -0.059903f, 0.041140f, 0.100018f, -0.090231f, -0.094347f,
    -0.019905f, -0.011670f, -0.080165f, 0.078320f, 0.086296f, 0.080144f, 0.089939f, 0.058148f, -0.080181f, -0.085855f,
    0.021386f, 0.055069f, 0.066996f, -0.003698f, -0.007767f, 0.048891f, -0.084188f, 0.096887f, 0.012982f, -0.096619f,
    0.007786f, -0.053642f, -0.059481f, 0.086699f, -0.090212f, -0.061715f, -0.077944f, 0.005293f, 0.065979f, 0.078352f,
    -0.033931f, 0.097966f, -0.023268f, 0.037284f, 0.099276f, 0.054580f, 0.062202f, 0.057708f, -0.007703f, -0.054859f,
    -0.044416f, 0.044409f, 0.001483f, -0.059750f, -0.025394f, 0.042967f, -0.013512f, 0.070195f, 0.097954f, -0.027193f,
    0.081276f, -0.080364f, 0.059856f, 0.081593f, 0.014611f, -0.058745f, -0.065359f, 0.099928f, 0.049607f, 0.041072f,
    0.022388f, -0.059473f, 0.101508f, -0.100133f, -0.017300f, -0.046992f, -0.027700f, -0.061344f, -0.088478f, 0.061423f,
    -0.041180f, 0.023528f, -0.101542f, -0.072565f, -0.008295f, 0.012911f, 0.076478f, 0.018316f, 0.036134f, 0.041519f,
    -0.101291f, 0.053955f, 0.049486f, 0.076539f, -0.044847f, 0.082554f, -0.073151f, -0.072785f, -0.058400f, -0.065813f,
    0.089996f, 0.066971f, -0.014340f, -0.098524f, -0.063331f, 0.054378f, -0.018924f, 0.058425f, -0.099521f, 0.008068f,
    0.008873f, -0.087175f, -0.099035f, -0.038343f, -0.068603f, 0.090594f, -0.004313f, 0.045887f, 0.060209f, 0.025478f,
    0.096055f, 0.027187f, -0.025972f, 0.030163f, 0.042548f, -0.043435f, -0.091619f, 0.082895f, 0.094572f, 0.016239f,
    -0.051059f, -0.048199f, -0.032245f, 0.025615f, 0.067673f, -0.014643f, -0.010466f, 0.085901f, 0.050190f, 0.016475f,
    -0.076309f, 0.101932f, -0.091631f, 0.081848f, 0.090078f, -0.037553f, -0.032673f, 0.072914f, 0.026118f, -0.069396f,
    -0.088972f, 0.096662f, 0.030094f, -0.095459f, -0.065233f, 0.089077f, -0.007258f, 0.091114f, 0.020880f, 0.085714f,
    -0.046946f, -0.057095f, -0.014867f, 0.070956f, 0.028151f, 0.064438f, -0.015690f, -0.090236f, 0.001972f, 0.078316f,
    0.056574f, -0.027366f, -0.024353f, -0.000247f, -0.012017f, -0.089938f, 0.096607f, -0.040465f, -0.070193f, 0.031139f,
    -0.077973f, 0.005025f, 0.059791f, 0.086067f, 0.001163f, -0.038456f, -0.051964f, -0.003107f, 0.097398f, -0.055159f,
    0.014932f, -0.073933f, -0.069320f, 0.044065f, 0.072426f, 0.092719f, -0.015700f, -0.001351f, 0.089030f, 0.045190f,
    0.068825f, -0.044203f, 0.005396f, 0.043092f, -0.040450f, 0.082804f, 0.040058f, -0.015998f, 0.081141f, -0.029503f,
    -0.091756f, 0.056494f, 0.070548f, 0.071679f, 0.065832f, -0.094452f, 0.089491f, -0.040070f, 0.090187f, -0.002026f,
    -0.021368f, 0.008053f, 0.031647f, -0.044327f, 0.007178f, 0.063822f, -0.031982f, 0.091147f, 0.053870f, -0.075880f,
    -0.057179f, 0.015694f, -0.026956f, -0.003621f, 0.026886f, 0.068451f, -0.097454f, 0.081522f, 0.007169f, 0.081861f,
    0.084795f, 0.067312f, 0.022499f, -0.027074f, -0.037281f, 0.055044f, 0.022026f, -0.000943f, -0.093320f, -0.097763f,
    0.040684f, -0.101658f, -0.030244f, 0.089159f, 0.034578f, 0.053215f, -0.098579f, -0.015517f, 0.048565f, -0.091958f,
    0.097534f, 0.056106f, -0.067904f, 0.083278f, 0.040794f, -0.010679f, 0.056034f, 0.043150f, 0.090527f, -0.071734f,
    0.102035f, -0.083057f, -0.005277f, -0.013666f, -0.049175f, -0.100019f, -0.039297f, -0.065556f, -0.040975f, 0.083650f,
    -0.033390f, 0.034559f, 0.054286f, 0.078457f, 0.077358f, -0.043601f, 0.066329f, 0.037305f, -0.083708f, -0.027743f,
    -0.027882f, -0.089333f, -0.090119f, -0.101602f, 0.082790f, -0.030082f, 0.061102f, 0.005010f, -0.091451f, -0.081886f,
    -0.076748f, 0.031188f, -0.073323f, 0.015520f, -0.062256f, -0.009136f, -0.040960f, 0.034715f, -0.029531f, 0.007993f,
    0.082151f, -0.022600f, 0.054062f, 0.005402f, 0.051104f, 0.089265f, 0.012661f, -0.021679f, 0.025282f, 0.072794f,
    -0.017508f, -0.059716f, 0.046559f, -0.088883f, -0.085865f, -0.054572f, -0.007783f, 0.016636f, -0.063683f, -0.026571f,
    -0.024799f, -0.015455f, -0.009255f, -0.087380f, -0.073265f, 0.090009f, 0.085116f, -0.071431f, -0.011379f, -0.053989f,
    -0.042939f, -0.055759f, 0.035226f, 0.021496f, -0.057806f, 0.044582f, 0.034668f, 0.015696f, 0.037996f, 0.095199f,
    0.049818f, 0.033651f, -0.068547f, -0.017583f, -0.015305f, 0.048367f, -0.062153f, 0.003615f, -0.015112f, -0.090784f,
    0.079368f, -0.058916f, -0.021170f, 0.080078f, 0.003927f, -0.049516f, -0.034506f, 0.001772f, 0.074824f, -0.022131f,
    0.087354f, 0.065499f, -0.072528f, -0.004615f, 0.021101f, 0.078591f, 0.057150f, 0.077325f, 0.098831f, 0.040841f,
    0.099234f, 0.072712f, -0.094327f, -0.019688f, 0.015556f, 0.074916f, -0.065330f, 0.011751f, 0.043480f, -0.023020f,
    -0.052924f, 0.029392f, -0.053728f, -0.073970f, -0.072595f, 0.092527f, -0.035141f, 0.008947f, 0.020691f, -0.028034f,
    -0.074040f, -0.065089f, -0.001887f, -0.039578f, 0.017625f, -0.012391f, -0.037842f, 0.019557f, -0.028808f, -0.015599f,
    -0.068438f, 0.093165f, -0.098049f, -0.060655f, 0.078314f, 0.023315f, 0.000673f, 0.086231f, 0.097677f, 0.070538f,
    -0.065766f, -0.098102f, -0.074656f, -0.045271f, -0.081653f, 0.025642f, -0.065500f, -0.065410f, 0.074165f, 0.012407f,
    -0.034877f, -0.034463f, 0.047007f, 0.094592f, -0.060175f, -0.038267f, 0.097136f, 0.049172f, -0.030680f, -0.024582f,
    0.065452f, -0.033904f, -0.067753f, 0.067603f, 0.067675f, 0.039970f, 0.032499f, 0.080972f, -0.019479f, -0.007543f,
    -0.046085f, 0.089210f, -0.000283f, -0.058671f, -0.044688f, -0.054509f, -0.018244f, 0.046033f, -0.079654f, 0.098197f,
    0.071773f, 0.026952f, -0.085117f, -0.020853f, -0.067595f, 0.042026f, -0.047066f, -0.080148f, -0.034779f, -0.012484f,
    -0.003810f, -0.023897f, 0.076406f, -0.080066f, -0.065296f, 0.062341f, -0.090727f, -0.021936f, 0.021643f, 0.032242f,
    0.058011f, 0.058554f, -0.074787f, -0.083498f, 0.048618f, -0.062450f, -0.038150f, 0.035750f, -0.027648f, 0.002847f,
    -0.055171f, -0.030435f, -0.025764f, 0.004992f, 0.039907f, 0.051142f, 0.090677f, 0.091823f, -0.047035f, 0.075671f,
    0.093122f, -0.047353f, 0.009045f, -0.091496f, -0.045432f, 0.050424f, 0.098329f, -0.065852f, -0.042978f, 0.054829f,
    -0.020736f, 0.014638f, 0.082814f, -0.024182f, -0.009973f, 0.037772f, 0.061077f, 0.052782f, 0.078756f, -0.027901f,
    -0.062902f, 0.054444f, 0.042591f, -0.041875f, 0.055368f, -0.051083f, -0.068810f, 0.071102f, 0.034195f, 0.052803f,
    -0.033398f, 0.012423f, -0.096902f, -0.043835f, -0.100777f, 0.026944f, -0.051228f, 0.098758f, 0.023752f, 0.004447f,
    -0.080166f, -0.084373f, -0.067723f, 0.051008f, -0.054024f, 0.023838f, 0.053986f, -0.025628f, 0.029597f, -0.014997f,
    0.037185f, 0.019909f, -0.048244f, -0.025119f, 0.037342f, 0.070902f, 0.081664f, 0.012425f, 0.098232f, 0.026524f,
    -0.037947f, 0.073353f, -0.056549f, -0.062836f, -0.093342f, -0.018124f, -0.051296f, 0.002492f, -0.046263f, -0.081758f,
    0.074342f, -0.043232f, 0.000803f, 0.089243f, 0.024909f, -0.076149f, -0.092526f, -0.060584f, -0.077906f, 0.079004f,
    -0.072251f, -0.065332f, 0.101900f, 0.004534f, 0.055949f, 0.093577f, -0.082415f, 0.069891f, 0.092315f, 0.014062f,
    0.086362f, 0.036316f, -0.041072f, -0.075995f, 0.077985f, 0.033819f, 0.002210f, -0.055859f, -0.072607f, 0.019419f,
    0.054083f, -0.011155f, -0.002889f, 0.004097f, -0.027768f, -0.082392f, 0.062659f, -0.091851f, 0.098834f, -0.094653f,
    0.003588f, 0.013267f, -0.049398f, 0.025169f, -0.087281f, -0.012653f, -0.026172f, -0.077916f, 0.065216f, -0.092948f,
    -0.019293f, -0.065315f, -0.007744f, -0.066472f, -0.051370f, 0.042437f, 0.092935f, -0.059377f, 0.035262f, 0.079943f,
    -0.047072f, -0.032337f, 0.059554f, -0.060948f, 0.064084f, -0.049114f, 0.059085f, -0.056984f, 0.062290f, -0.088247f,
    -0.093085f, 0.037075f, 0.045887f, 0.066179f, -0.073807f, -0.065609f, 0.094118f, 0.075449f, -0.017019f, -0.046766f,
    0.098184f, -0.026262f, -0.010617f, 0.094748f, 0.049832f, 0.075904f, 0.070550f, 0.059659f, 0.050883f, -0.055287f,
    -0.037013f, -0.017361f, 0.097091f, -0.069961f, -0.011091f, 0.041669f, 0.045910f, -0.095579f, -0.038301f, -0.041347f,
    0.029250f, -0.031838f, 0.100326f, -0.036445f, 0.068270f, 0.010805f, 0.089994f, -0.070273f, -0.074626f, -0.014011f,
    0.019860f, -0.068831f, -0.023565f, 0.081363f, -0.002592f, 0.079843f, 0.011093f, 0.043746f, 0.060726f, -0.007621f,
    -0.039036f, 0.040487f, -0.101618f, 0.068550f, -0.056725f, -0.056687f, -0.068743f, 0.000019f, -0.020198f, 0.019488f,
    0.055079f, 0.087208f, -0.026581f, -0.013403f, -0.067036f, -0.014073f, 0.020692f, -0.027269f, 0.060541f, 0.095783f,
    0.074951f, -0.040651f, 0.035984f, -0.067612f, 0.086399f, -0.048889f, -0.044826f, 0.099652f, 0.044708f, -0.010443f,
    -0.069066f, -0.099151f, 0.014908f, 0.080423f, 0.054636f, -0.080921f, -0.081682f, -0.060817f, -0.078075f, 0.037811f,
    0.011850f, -0.049028f, -0.046680f, 0.083076f, -0.069754f, 0.063244f, -0.001880f, -0.070558f, 0.059189f, -0.014667f,
    -0.028558f, -0.079048f, -0.090968f, -0.076827f, -0.070783f, 0.077223f, -0.023269f, -0.089782f, 0.093994f, -0.089193f,
    -0.017768f, -0.030049f, -0.005990f, -0.084517f, -0.099975f, -0.081585f, 0.036232f, 0.057904f, 0.067011f, 0.014938f,
    -0.076289f, 0.042079f, 0.004379f, 0.092501f, 0.043344f, -0.005025f, -0.029405f, 0.001813f, 0.008519f, 0.005877f,
    0.077761f, 0.012652f, -0.043506f, -0.097615f, 0.001782f, -0.020385f, -0.044359f, 0.062383f, 0.036998f, 0.069597f,
    0.069883f, 0.084842f, 0.002243f, -0.039442f, 0.075557f, -0.035362f, -0.090191f, 0.063780f, 0.005857f, 0.066053f,
    0.072805f, 0.090076f, 0.067287f, -0.031054f, 0.074078f, 0.093939f, -0.005297f, -0.041171f, -0.081968f, -0.027611f,
    -0.082700f, 0.013581f, -0.080131f, -0.027784f, 0.089871f, -0.065798f, 0.089259f, -0.048200f, 0.075390f, 0.072776f,
    0.096665f, 0.081821f, 0.060592f, 0.024857f, -0.039823f, -0.060448f, 0.072456f, -0.040315f, 0.007494f, 0.009304f,
    0.000332f, 0.054291f, -0.093142f, -0.097811f, 0.057060f, 0.039899f, -0.082860f, 0.097549f, 0.064254f, 0.046308f,
    0.042018f, 0.007649f, 0.053077f, -0.095812f, -0.056555f, -0.078825f, 0.057252f, -0.083666f, 0.018536f, 0.005113f,
    -0.018054f, 0.030620f, 0.049760f, -0.007529f, 0.092963f, 0.099853f, -0.021282f, 0.068711f, -0.044921f, 0.072017f,
    -0.057709f, -0.094042f, 0.057103f, 0.097889f, 0.086655f, -0.005845f, 0.053664f, -0.096889f, 0.028050f, 0.089543f,
    -0.059734f, 0.096574f, 0.048030f, 0.018954f, -0.057278f, -0.074323f, -0.009232f, 0.011054f, 0.053800f, 0.040378f,
    0.096200f, 0.057996f, 0.074884f, -0.012142f, -0.091988f, -0.000938f, -0.048989f, -0.075838f, -0.038259f, -0.049434f,
    -0.061084f, -0.011450f, -0.075557f, 0.029414f, 0.002120f, 0.094341f, -0.088066f, 0.094452f, -0.078284f, -0.069406f,
    0.067921f, 0.035790f, -0.039193f, -0.003598f, -0.056804f, -0.020221f, 0.028595f, 0.004652f, 0.082842f, 0.014484f,
    -0.043384f, 0.014598f, 0.016813f, 0.014579f, -0.098255f, -0.042221f, -0.063611f, -0.091185f, 0.006536f, 0.066581f,
    -0.082899f, 0.014342f, 0.055351f, -0.084077f, 0.091648f, -0.061091f, -0.013632f, 0.010074f, -0.091174f, 0.060495f,
    0.082952f, 0.039159f, -0.021335f, 0.047577f, 0.090331f, -0.034203f, -0.091353f, 0.064227f, 0.101167f, -0.053132f,
    0.017306f, -0.030660f, 0.094837f, 0.060430f, 0.026404f, 0.071511f, -0.010013f, -0.003092f, 0.020404f, 0.059006f,
    -0.090495f, 0.015584f, -0.093651f, -0.058136f, 0.091082f, -0.068186f, -0.031928f, 0.095940f, 0.062044f, 0.084650f,
    0.068868f, 0.072252f, -0.032639f, -0.027777f, 0.032888f, 0.040347f, -0.050141f, -0.063737f, 0.064384f, -0.098055f,
    0.023368f, -0.032725f, 0.023219f, 0.043807f, 0.052204f, -0.032613f, 0.081459f, 0.090217f, -0.061389f, -0.066705f,
    -0.024048f, 0.058067f, -0.056179f, -0.022076f, -0.098540f, -0.058335f, -0.006400f, 0.015649f, 0.024449f, 0.047965f,
    -0.014284f, 0.056694f, -0.030913f, 0.031625f, 0.090342f, 0.077747f, -0.001900f, 0.080644f, 0.043926f, -0.100326f,
    0.017526f, 0.067377f, -0.041030f, -0.069174f, -0.083004f, 0.097689f, 0.055467f, 0.093428f, -0.027985f, 0.050748f,
    -0.036544f, 0.065485f, -0.007260f, 0.091650f, -0.021069f, -0.010640f, 0.021157f, 0.019399f, -0.096552f, -0.085823f,
    -0.020461f, -0.014222f, 0.020985f, -0.006971f, -0.064731f, -0.039964f, -0.070336f, -0.028948f, 0.015955f, -0.066863f,
    -0.075197f, -0.068865f, -0.036744f, 0.068605f, -0.081276f, 0.041572f, -0.047605f, -0.092525f, -0.010553f, 0.023663f,
    0.076556f, 0.037389f, -0.071348f, -0.083333f, 0.077785f, 0.008398f, 0.034420f, -0.022607f, -0.050017f, -0.015449f,
    -0.052590f, 0.050998f, -0.042994f, -0.096039f, 0.032129f, -0.027302f, 0.063459f, -0.097604f, 0.024071f, 0.083259f,
    0.014909f, 0.045937f, -0.099574f, 0.062861f, 0.001095f, -0.069397f, -0.065690f, 0.000085f, 0.035071f, 0.095087f,
    0.009305f, 0.019389f, -0.001110f, 0.036034f, -0.040847f, -0.019582f, -0.068614f, 0.049196f, 0.064191f, -0.040479f,
    -0.051813f, -0.042542f, -0.079966f, -0.029491f, -0.025331f, 0.046418f, -0.050443f, 0.001845f, 0.006551f, 0.009774f,
    0.041791f, 0.003132f, 0.073040f, -0.099717f, -0.025588f, 0.028216f, 0.047551f, -0.079260f, -0.090514f, -0.058587f,
    0.086859f, -0.014591f, -0.071786f, -0.065627f, -0.029222f, -0.069454f, -0.037333f, 0.086196f, 0.101703f, 0.017931f,
    0.077720f, 0.045654f, 0.013024f, -0.064814f, -0.076122f, -0.021692f, -0.046404f, 0.085536f, -0.050398f, 0.010651f,
    0.034056f, 0.032650f, -0.053169f, 0.054729f, 0.077120f, -0.035746f, -0.078505f, -0.057186f, -0.040731f, 0.068528f,
    -0.023739f, -0.071006f, 0.081292f, 0.079013f, -0.001613f, -0.045445f, -0.070820f, 0.074664f, 0.014343f, 0.061574f,
    -0.038461f, -0.089661f, -0.014060f, 0.008381f, 0.095527f, 0.083851f, 0.023898f, 0.099167f, 0.028907f, 0.079381f,
    -0.084873f, -0.021645f, -0.052748f, 0.068940f, -0.030028f, -0.032631f, -0.002818f, 0.008603f, 0.028375f, -0.035960f,
    0.087482f, -0.073111f, 0.075284f, 0.084705f, 0.030349f, -0.092540f, -0.037531f, 0.029256f, 0.032156f, -0.094653f,
    0.041651f, 0.046635f, 0.025947f, -0.062696f, 0.088575f, 0.034300f, 0.073897f, 0.054482f, -0.062683f, 0.094016f,
    -0.074450f, 0.100421f, -0.025957f, -0.056290f, -0.059541f, -0.081724f, 0.011584f, 0.059543f, 0.074573f, 0.003965f,
    -0.101649f, -0.037471f, -0.016761f, -0.035730f, 0.010280f, 0.008134f, -0.030921f, -0.093184f, -0.100041f, 0.057765f,
    -0.065168f, 0.077440f, -0.087995f, 0.019365f, -0.096832f, 0.006314f, 0.077083f, 0.077319f, -0.003325f, 0.099217f,
    0.013685f, 0.073192f, 0.002933f, 0.101353f, -0.076276f, -0.028246f, -0.047677f, -0.066851f, -0.100318f, -0.072577f,
    -0.045923f, 0.101626f, 0.029015f, -0.084911f, 0.072911f, -0.058090f, 0.051519f, 0.023040f, -0.017802f, -0.013094f,
    -0.005680f, -0.040798f, -0.028883f, -0.062002f, -0.035645f, 0.075257f, 0.031222f, -0.004954f, 0.061104f, 0.022257f,
    0.019132f, 0.025121f, 0.074955f, -0.084732f, -0.076898f, -0.097435f, -0.038058f, 0.061233f, -0.081771f, 0.023086f,
    0.070169f, -0.072724f, -0.016160f, 0.027736f, 0.072048f, -0.042565f, -0.095421f, 0.029726f, 0.014470f, -0.043429f,
    -0.015106f, -0.070025f, -0.041042f, 0.083846f, 0.061804f, 0.064221f, -0.029694f, 0.068800f, 0.100639f, 0.087887f,
    -0.015725f, -0.037928f, 0.091888f, 0.004214f, -0.015219f, 0.037147f, -0.036352f, -0.077774f, -0.096438f, 0.032152f,
    0.092806f, -0.027546f, 0.038115f, 0.085682f, 0.047975f, 0.059986f, 0.032757f, -0.095844f, 0.016071f, -0.001754f,
    0.068460f, 0.084413f, -0.063262f, 0.014012f, -0.027029f, 0.017588f, 0.019342f, -0.005602f, 0.093035f, 0.048103f,
    -0.086971f, 0.005257f, 0.084468f, 0.010179f, -0.026633f, -0.060755f, -0.089348f, 0.000652f, 0.095306f, 0.064563f,
    0.029336f, -0.002308f, -0.051482f, -0.033416f, -0.087931f, 0.034626f, 0.098660f, -0.087492f, -0.022338f, -0.005378f,
    -0.029034f, -0.069334f, -0.006603f, 0.068929f, 0.031269f, 0.053837f, -0.008953f, 0.094158f, 0.081965f, 0.056429f,
    0.043361f, 0.019641f, 0.074867f, -0.011324f, -0.040940f, 0.034324f, 0.047187f, -0.059711f, -0.020652f, 0.064633f,
    -0.085679f, -0.011455f, 0.089656f, 0.085880f, 0.038528f, -0.009393f, -0.039458f, 0.042537f, 0.038881f, -0.073975f,
    -0.027052f, -0.009769f, -0.101433f, -0.089331f, 0.026704f, 0.053007f, 0.043235f, 0.004242f, 0.011697f, 0.009635f,
    -0.002325f, 0.055411f, 0.058331f, 0.020680f, 0.021400f, 0.068565f, 0.022417f, -0.015170f, 0.082268f, -0.051017f,
    0.088700f, -0.095733f, 0.027634f, -0.099533f, 0.055147f, 0.080151f, -0.027776f, 0.092111f, 0.013852f, -0.049451f,
    -0.012036f, 0.004727f, 0.099952f, 0.091602f, 0.033768f, -0.040176f, -0.017069f, -0.017106f, 0.081086f, 0.081527f,
    -0.099058f, 0.085178f, 0.100403f, -0.100141f, 0.073718f, 0.005257f, -0.033450f, -0.065384f, -0.021482f, -0.043005f,
    0.086818f, -0.059988f, 0.061331f, -0.067262f, 0.021574f, 0.035613f, 0.048578f, -0.030687f, 0.023988f, -0.005141f,
    -0.024848f, -0.011507f, -0.000528f, -0.099514f, -0.059035f, -0.039120f, 0.076737f, 0.080817f, -0.090820f, 0.020546f,
    0.043297f, -0.024996f, 0.079432f, -0.083400f, -0.003340f, -0.064763f, -0.041865f, 0.065629f, 0.011357f, 0.068168f,
    0.031144f, -0.031088f, 0.025129f, -0.095667f, -0.045005f, -0.028141f, -0.019374f, 0.081064f, -0.055457f, 0.082923f,
    -0.048257f, -0.064718f, -0.025024f, 0.038294f, -0.021102f, 0.055787f, -0.046129f, -0.089122f, -0.069168f, 0.069926f,
    0.043491f, -0.008901f, -0.018748f, -0.078985f, -0.065102f, -0.022498f, -0.006459f, -0.024679f, 0.063346f, -0.030736f,
    0.077302f, -0.086041f, -0.091734f, 0.042615f, -0.012228f, 0.085301f, -0.061138f, -0.054077f, -0.029500f, -0.068834f,
    -0.035273f, 0.050256f, -0.098510f, 0.071563f, -0.009384f, -0.070744f, -0.061371f, -0.096923f, 0.067021f, -0.012267f,
    -0.101113f, 0.038913f, -0.017861f, -0.072581f, -0.099500f, -0.024971f, -0.094668f, -0.022420f, -0.087094f, -0.004913f,
    0.030316f, -0.001677f, -0.032822f, -0.086863f, 0.019151f, 0.066830f, -0.085386f, -0.006001f, -0.066620f, -0.091594f,
    0.094961f, 0.045795f, -0.056626f, -0.060609f, 0.061113f, -0.036392f, 0.080481f, -0.026282f, -0.064047f, -0.002786f,
    -0.060078f, 0.026377f, 0.109038f, 0.078049f, 0.073851f, 0.001224f, 0.063979f, -0.038734f, -0.087749f, 0.066385f,
    0.015228f, 0.042383f, 0.077329f, -0.006184f, -0.099135f, -0.012464f, -0.037155f, 0.100341f, 0.025816f, 0.034158f,
    0.098059f, 0.070723f, -0.012133f, -0.052724f, 0.003751f, 0.013416f, 0.068768f, 0.043034f, -0.046660f, -0.015465f,
    0.101640f, -0.098710f, 0.050131f, -0.056810f, 0.065342f, 0.073875f, 0.050305f, 0.043099f, -0.051882f, 0.015540f,
    -0.006390f, -0.087118f, -0.060198f, -0.052228f, -0.015239f, 0.000342f, -0.071306f, 0.019488f, 0.028195f, 0.060825f,
    -0.100211f, 0.040963f, -0.039462f, 0.023452f, 0.041328f, -0.049106f, -0.065633f, 0.098799f, -0.022741f, -0.055216f,
    -0.004897f, 0.051962f, -0.046259f, 0.074912f, 0.094105f, -0.092684f, -0.004355f, 0.033024f, -0.058707f, -0.047623f,
    -0.071826f, 0.075815f, 0.025726f, 0.036728f, 0.037600f, 0.035034f, -0.073147f, -0.095806f, -0.042789f, 0.031063f,
    -0.002153f, 0.032898f, 0.029387f, 0.065303f, 0.067982f, 0.044926f, 0.023134f, 0.028187f, 0.027825f, 0.071667f,
    -0.061885f, -0.068832f, -0.006170f, -0.056876f, 0.082382f, -0.013224f, 0.043505f, 0.071362f, 0.058131f, -0.048791f,
    0.091707f, 0.058360f, 0.093235f, -0.053264f, -0.037640f, 0.064483f, 0.000148f, -0.024575f, -0.008662f, -0.080627f,
    0.064889f, 0.092477f, -0.059920f, -0.001390f, -0.009821f, 0.096346f, -0.078997f, -0.083022f, 0.005087f, 0.014088f,
    -0.060483f, 0.050553f, 0.092131f, 0.065304f, -0.097663f, 0.041179f, 0.089991f, 0.019852f, -0.091054f, -0.075438f,
    0.048170f, 0.085195f, 0.066570f, 0.076755f, -0.072566f, 0.082084f, 0.092139f, -0.029667f, 0.017800f, -0.091446f,
    0.019054f, -0.035301f, 0.072375f, 0.097030f, 0.081576f, -0.036417f, -0.027156f, 0.090791f, 0.070042f, -0.094940f,
    0.065333f, 0.065695f, 0.082595f, -0.083157f, -0.056222f, 0.033233f, 0.101669f, -0.051715f, 0.036294f, 0.058127f,
    0.059954f, -0.082827f, -0.065344f, -0.002188f, -0.009744f, -0.040308f, -0.056507f, 0.068782f, 0.076685f, -0.097943f,
    0.032072f, 0.058160f, 0.035222f, 0.077367f, -0.055619f, 0.071436f, 0.037330f, -0.054768f, 0.001573f, -0.063093f,
    -0.031525f, -0.040916f, 0.069123f, -0.087807f, -0.005991f, 0.068549f, 0.035102f, 0.048518f, 0.019024f, -0.013122f,
