// Auto-generated model weights for RAVN AI Engine
// Generated from: ../../artifacts/ravn_model.h5_weights.bin
// Total weights: 154563

#ifndef RAVN_MODEL_WEIGHTS_H
#define RAVN_MODEL_WEIGHTS_H

#include <stdint.h>

// Model architecture constants
#define INPUT_SEQUENCE_LENGTH 20
#define DENSE1_OUTPUT_SIZE 64
#define LSTM1_HIDDEN_SIZE 128
#define LSTM2_HIDDEN_SIZE 64
#define DENSE2_OUTPUT_SIZE 32
#define OUTPUT_CLASSES 3

// Layer weight counts
#define DENSE1_WEIGHT_COUNT 704
#define LSTM1_WEIGHT_COUNT 98816
#define LSTM2_WEIGHT_COUNT 49408
#define DENSE2_WEIGHT_COUNT 2080
#define DENSE3_WEIGHT_COUNT 99
#define TOTAL_WEIGHT_COUNT 154563

// All model weights (float32) - organized by layer
static const float all_model_weights[TOTAL_WEIGHT_COUNT] = {
    0.191886f, -0.125058f, 0.164081f, 0.139634f, -0.046167f, -0.100634f, -0.144372f, -0.042367f, 0.033186f, 0.187152f,
    -0.130157f, -0.141669f, 0.140657f, -0.198980f, -0.035324f, -0.145383f, 0.129509f, 0.135600f, 0.180876f, 0.061731f,
    0.038951f, 0.135329f, -0.130311f, -0.087439f, -0.160380f, 0.171279f, 0.100846f, 0.213305f, 0.153027f, 0.149470f,
    0.111046f, -0.165853f, -0.117993f, -0.118696f, -0.117011f, -0.100082f, -0.127540f, -0.160298f, -0.146624f, 0.093900f,
    0.041694f, 0.108317f, -0.038359f, 0.195183f, 0.052082f, 0.138197f, -0.187459f, 0.097237f, -0.115437f, 0.166125f,
    -0.058531f, 0.136123f, 0.048244f, 0.073085f, 0.031865f, -0.175012f, 0.092085f, 0.016272f, -0.208890f, 0.165133f,
    -0.104479f, 0.004637f, 0.195207f, -0.173853f, 0.121612f, 0.141770f, -0.041273f, -0.049456f, -0.109415f, 0.041830f,
    0.174063f, 0.133880f, 0.138067f, 0.114566f, -0.108290f, -0.196529f, -0.038302f, 0.193536f, 0.115250f, 0.039581f,
    0.022488f, 0.040652f, -0.159215f, -0.025628f, -0.094831f, -0.057454f, -0.087010f, -0.139796f, -0.004689f, 0.120941f,
    -0.009145f, -0.056094f, 0.086458f, 0.172239f, -0.176919f, 0.159524f, 0.046167f, 0.111273f, 0.165469f, 0.024687f,
    0.121559f, -0.071393f, -0.010876f, 0.076409f, 0.025454f, -0.136418f, -0.103861f, -0.193875f, 0.041028f, 0.076261f,
    0.041363f, -0.002855f, -0.033047f, 0.203754f, -0.181574f, 0.033500f, 0.185533f, -0.009203f, 0.032833f, -0.131699f,
    0.203561f, -0.195959f, -0.162536f, -0.066725f, -0.003221f, -0.163552f, 0.015720f, 0.073066f, -0.105989f, -0.037071f,
    -0.060881f, -0.148915f, -0.149321f, 0.077958f, -0.160446f, -0.041166f, 0.162445f, 0.196940f, 0.077385f, -0.047813f,
    0.177959f, -0.047658f, 0.213592f, -0.162862f, -0.150915f, -0.194147f, -0.142194f, -0.083711f, 0.080285f, -0.117509f,
    -0.111730f, 0.054882f, -0.164605f, 0.205961f, -0.099763f, -0.080239f, -0.175780f, 0.195684f, -0.046347f, -0.192484f,
    0.010198f, 0.194139f, -0.116528f, -0.157789f, -0.165494f, 0.132828f, 0.145371f, -0.006817f, -0.062910f, 0.022676f,
    -0.012751f, -0.198197f, 0.193311f, 0.061270f, 0.174225f, 0.003343f, 0.153711f, 0.106365f, -0.050394f, -0.113534f,
    -0.180540f, 0.109859f, -0.033060f, -0.016195f, -0.022132f, 0.032623f, 0.113896f, 0.009421f, -0.073066f, -0.049687f,
    0.155199f, 0.019808f, 0.081544f, -0.106382f, 0.001782f, 0.208651f, -0.038788f, 0.177856f, 0.156678f, 0.137709f,
    0.203463f, -0.102975f, 0.167948f, 0.191284f, -0.006715f, 0.105646f, -0.076902f, 0.147043f, 0.002168f, 0.094980f,
    0.166882f, 0.023065f, -0.141957f, -0.187364f, -0.093574f, -0.036829f, 0.215507f, -0.135949f, -0.120265f, 0.195288f,
    0.148560f, -0.102769f, -0.030902f, -0.165579f, 0.123713f, -0.187939f, -0.031412f, -0.066598f, 0.080211f, 0.150572f,
    -0.215567f, 0.176802f, 0.173021f, 0.007044f, 0.078963f, 0.064102f, 0.093662f, 0.177903f, 0.062726f, 0.021485f,
    0.063700f, -0.179781f, -0.125176f, 0.054049f, 0.178282f, -0.013027f, -0.202877f, 0.029112f, -0.167950f, 0.106323f,
    0.076862f, -0.059617f, -0.110144f, -0.203548f, 0.006632f, -0.125362f, 0.048452f, 0.156855f, -0.172547f, 0.185322f,
    0.015517f, -0.169039f, -0.015015f, -0.061005f, 0.025867f, -0.015283f, 0.022577f, 0.147704f, 0.212605f, 0.145338f,
    -0.124814f, 0.002976f, 0.170258f, -0.131784f, 0.080836f, -0.056772f, -0.023500f, -0.200493f, -0.055857f, -0.159883f,
    -0.058854f, -0.212228f, -0.186539f, 0.099711f, -0.064805f, -0.084452f, 0.177399f, -0.121341f, 0.202320f, 0.112120f,
    0.153674f, 0.131151f, 0.106588f, -0.036882f, -0.059147f, -0.124569f, -0.107927f, 0.145155f, 0.164822f, -0.054952f,
    0.158632f, 0.102435f, 0.023443f, 0.189952f, -0.020725f, -0.015561f, -0.118253f, 0.166187f, 0.195441f, 0.097989f,
    -0.071023f, -0.071877f, -0.051488f, 0.061170f, -0.089731f, -0.102102f, -0.017312f, -0.195212f, 0.033754f, 0.135161f,
    -0.174979f, 0.174812f, -0.021615f, -0.101273f, -0.212349f, -0.170170f, -0.086917f, 0.055417f, -0.061706f, -0.095529f,
    0.051995f, 0.174745f, -0.144863f, 0.119543f, -0.004660f, 0.005291f, 0.076809f, -0.136071f, -0.189849f, -0.057921f,
    0.040263f, 0.037965f, 0.124131f, -0.035696f, 0.083015f, -0.185269f, 0.045099f, 0.000667f, 0.102267f, -0.040586f,
    0.008897f, 0.040462f, 0.182055f, -0.199310f, -0.085568f, 0.037028f, -0.088994f, -0.166258f, 0.152413f, 0.068939f,
    0.005517f, 0.186274f, 0.011990f, 0.203649f, -0.124634f, -0.179678f, 0.093560f, -0.153206f, 0.158450f, 0.171018f,
    0.040597f, 0.083332f, 0.215722f, -0.202974f, -0.022227f, 0.167838f, -0.004670f, 0.091814f, 0.198450f, 0.160410f,
    0.190085f, 0.216390f, 0.209038f, -0.081735f, 0.169966f, 0.024259f, -0.138902f, -0.172982f, 0.180158f, -0.155571f,
    -0.021987f, 0.050009f, -0.143636f, -0.093877f, 0.150829f, 0.065900f, -0.028206f, -0.135562f, -0.153671f, 0.161315f,
    -0.140997f, 0.182542f, -0.133214f, -0.030754f, -0.005821f, -0.197143f, 0.166152f, -0.099917f, -0.053940f, 0.149344f,
    -0.052339f, -0.046748f, 0.203507f, 0.019053f, 0.127156f, 0.195627f, -0.093669f, -0.047447f, -0.008071f, 0.202751f,
    0.064679f, -0.164489f, 0.099398f, -0.127107f, 0.109374f, 0.154681f, -0.082546f, 0.025374f, 0.054769f, -0.051234f,
    -0.005367f, 0.143400f, 0.073991f, 0.038745f, -0.015120f, 0.006716f, 0.073227f, -0.172325f, 0.046677f, 0.109267f,
    0.161223f, -0.166972f, -0.197638f, -0.008932f, -0.173003f, 0.207169f, -0.205393f, -0.048306f, -0.189652f, 0.193855f,
    0.096660f, -0.186283f, -0.077405f, -0.149137f, -0.102613f, -0.082524f, 0.099141f, -0.065342f, 0.149438f, -0.024490f,
    -0.152077f, 0.160753f, 0.094110f, 0.203090f, 0.061272f, -0.009977f, 0.166896f, 0.138007f, 0.157725f, -0.087967f,
    0.039878f, 0.188267f, 0.175102f, -0.000662f, 0.198563f, -0.084677f, 0.160178f, 0.017525f, 0.007628f, -0.088861f,
    0.104532f, -0.143069f, -0.095470f, -0.128910f, 0.156080f, 0.136018f, -0.012647f, 0.005785f, -0.145046f, 0.164312f,
    -0.053296f, -0.094579f, -0.126105f, -0.102748f, 0.114066f, 0.126339f, -0.131872f, 0.038100f, 0.065262f, -0.209040f,
    0.042741f, -0.062176f, 0.146634f, -0.006063f, -0.039277f, 0.108662f, -0.169706f, -0.129140f, 0.032748f, 0.185642f,
    -0.029948f, -0.164389f, -0.092362f, -0.027954f, 0.203579f, 0.190773f, -0.021317f, 0.014252f, 0.110740f, -0.215221f,
    0.177083f, -0.128373f, -0.106642f, 0.060295f, 0.143536f, 0.008266f, -0.090910f, -0.067779f, -0.024825f, 0.152665f,
    -0.180240f, 0.107105f, 0.166783f, -0.057641f, 0.151583f, 0.147333f, 0.129951f, -0.192342f, -0.172000f, -0.057128f,
    -0.168181f, -0.166732f, 0.081011f, -0.079188f, 0.201355f, 0.032641f, -0.047123f, 0.208822f, 0.034981f, 0.083704f,
    -0.005430f, 0.128233f, -0.052619f, -0.075327f, 0.140222f, -0.119146f, 0.034386f, 0.044150f, 0.196681f, -0.161049f,
    -0.157516f, -0.033745f, -0.107151f, 0.134475f, -0.057535f, 0.097708f, 0.080674f, 0.004672f, 0.163115f, -0.060723f,
    0.076430f, -0.041344f, -0.075322f, 0.164185f, 0.207916f, 0.212628f, -0.183952f, 0.087421f, -0.116767f, -0.136098f,
    0.107628f, 0.134507f, 0.067034f, -0.038626f, 0.047732f, 0.053405f, -0.195571f, 0.210578f, 0.203127f, 0.009290f,
    0.016618f, 0.201402f, 0.106224f, 0.122198f, 0.060939f, -0.013678f, -0.054795f, -0.033867f, 0.177615f, -0.199684f,
    -0.086181f, 0.148161f, -0.186773f, 0.042321f, -0.192293f, 0.209541f, 0.191277f, -0.037839f, 0.126351f, 0.099679f,
    -0.048736f, -0.037568f, 0.075162f, -0.124347f, -0.190275f, -0.063022f, 0.189855f, -0.175020f, 0.204404f, 0.194119f,
    0.160112f, -0.123435f, 0.204970f, -0.120043f, 0.130366f, -0.142121f, 0.099015f, 0.149056f, -0.147323f, -0.019943f,
    -0.200894f, -0.035642f, 0.125366f, -0.049757f, 0.018087f, -0.164398f, 0.063174f, -0.131043f, 0.161019f, 0.198014f,
    0.028987f, 0.047303f, 0.056801f, -0.112852f, 0.203031f, 0.050308f, -0.031974f, 0.159280f, 0.205657f, -0.083168f,
    0.121784f, 0.132988f, 0.210447f, 0.076818f, 0.121195f, 0.011331f, -0.146812f, -0.157635f, -0.046587f, 0.018788f,
    0.074858f, 0.059586f, 0.105262f, -0.163535f, 0.106335f, 0.201190f, 0.174191f, -0.173858f, 0.006499f, 0.086694f,
    -0.073269f, -0.106522f, 0.154320f, -0.048412f, -0.041010f, 0.010733f, 0.103298f, 0.215194f, -0.149303f, -0.073944f,
    -0.189644f, -0.040247f, 0.034338f, 0.126737f, -0.197968f, -0.029200f, 0.151541f, -0.163440f, 0.103409f, -0.022909f,
    0.107973f, -0.072017f, 0.184008f, 0.209363f, 0.094160f, -0.188125f, -0.136523f, -0.193310f, 0.023636f, -0.003943f,
    -0.208369f, -0.038537f, -0.141879f, 0.080542f, 0.196564f, -0.211445f, -0.176276f, -0.151043f, -0.206957f, -0.157216f,
    0.061917f, -0.159910f, 0.177158f, 0.045884f, -0.112663f, 0.131094f, -0.079420f, 0.065415f, -0.204905f, -0.090449f,
    -0.061233f, 0.071730f, 0.119571f, -0.200296f, -0.099142f, 0.062158f, 0.109809f, 0.170935f, 0.008483f, 0.184994f,
    0.160732f, -0.169085f, 0.195132f, -0.159367f, 0.138684f, -0.167452f, -0.012258f, 0.081757f, -0.065815f, -0.143779f,
    -0.143622f, 0.064155f, 0.120881f, 0.054157f, 0.021599f, -0.160494f, -0.196777f, -0.164541f, 0.052477f, -0.047938f,
    -0.172190f, 0.116959f, -0.201961f, 0.074083f, 0.002442f, 0.093131f, -0.066995f, 0.160298f, 0.144346f, -0.004283f,
    -0.210017f, -0.134996f, 0.177365f, -0.076194f, -0.037039f, 0.048994f, -0.110285f, -0.128747f, -0.059348f, 0.033838f,
    -0.002225f, 0.093137f, -0.060673f, 0.068879f, -0.083163f, -0.186513f, 0.077372f, -0.036750f, -0.192830f, -0.159303f,
    -0.085874f, 0.180861f, 0.028751f, 0.176234f, 0.015006f, -0.174060f, -0.080886f, -0.187331f, -0.018975f, 0.025257f,
    -0.151810f, 0.045423f, 0.159684f, -0.025149f, 0.175437f, -0.013441f, 0.161386f, 0.016194f, -0.048823f, -0.044760f,
    0.005028f, -0.087847f, -0.081214f, -0.087697f, -0.026131f, -0.194151f, 0.199881f, 0.116271f, -0.108912f, -0.170277f,
    -0.142795f, 0.094858f, -0.178413f, -0.207798f, -0.132882f, -0.028305f, 0.206135f, -0.157808f, -0.099823f, -0.081325f,
    -0.191418f, 0.019455f, -0.165551f, 0.215056f, -0.116990f, 0.082397f, -0.015044f, -0.117900f, -0.133697f, -0.047492f,
    0.155649f, 0.117549f, 0.199616f, 0.138019f, 0.213822f, -0.080411f, -0.096256f, -0.027890f, 0.030539f, 0.179736f,
    -0.021627f, 0.014352f, -0.003776f, -0.041861f, -0.183542f, -0.195748f, 0.056533f, 0.168774f, -0.092622f, -0.080877f,
    -0.126112f, -0.171120f, 0.112210f, -0.213481f, 0.071583f, -0.194759f, 0.008740f, 0.184202f, 0.169967f, -0.192815f,
    -0.183855f, -0.163650f, -0.141994f, -0.089964f, -0.110841f, -0.119238f, -0.184887f, 0.177061f, 0.017635f, 0.173325f,
    0.191081f, 0.043177f, -0.040295f, 0.105668f, 0.097259f, -0.087493f, 0.163325f, -0.097256f, -0.174364f, -0.103293f,
    -0.030884f, -0.139637f, -0.090108f, 0.141619f, 0.177522f, -0.162415f, 0.083399f, 0.014119f, -0.166600f, 0.138998f,
    -0.106500f, -0.205812f, -0.085339f, 0.087096f, -0.146921f, -0.091536f, -0.128122f, -0.043189f, 0.022806f, 0.143377f,
    -0.060565f, 0.131472f, 0.122418f, -0.023963f, -0.136085f, -0.118128f, 0.044767f, -0.200526f, -0.138070f, 0.023058f,
    -0.078615f, 0.039052f, -0.103210f, 0.137785f, -0.085850f, -0.145549f, -0.186120f, 0.193193f, 0.169004f, -0.069366f,
    -0.119368f, -0.092420f, 0.094076f, 0.007779f, -0.142457f, -0.112970f, 0.144728f, 0.107500f, -0.189810f, -0.094958f,
    0.051242f, -0.184293f, -0.202922f, 0.178989f, -0.205226f, 0.086533f, -0.075371f, -0.194383f, 0.090842f, -0.156932f,
    -0.185816f, -0.020707f, -0.101162f, 0.213594f, -0.099463f, -0.207220f, 0.007283f, -0.116619f, -0.030319f, 0.037385f,
    0.189318f, 0.043585f, 0.207169f, -0.148193f, 0.192554f, -0.012622f, 0.117392f, 0.153012f, 0.092407f, 0.171803f,
    0.091860f, 0.001665f, 0.171476f, 0.188473f, -0.104936f, 0.093500f, 0.147490f, -0.020157f, 0.200422f, 0.048240f,
    -0.033392f, -0.083805f, -0.157679f, -0.084255f, -0.002784f, 0.069580f, -0.046088f, -0.094312f, 0.012313f, -0.089416f,
    -0.008458f, 0.115359f, -0.054774f, 0.019577f, -0.171554f, 0.021013f, -0.182147f, 0.031570f, 0.066161f, -0.208443f,
    -0.077022f, 0.193682f, -0.155601f, -0.170683f, 0.082601f, 0.106159f, -0.069195f, -0.119701f, -0.049521f, -0.059264f,
    -0.047185f, 0.161242f, -0.072974f, -0.179160f, -0.165999f, 0.077706f, 0.146357f, -0.068747f, 0.045812f, 0.135799f,
    -0.093390f, 0.128637f, -0.066080f, -0.204181f, 0.042501f, -0.068165f, 0.171560f, 0.065658f, 0.007198f, -0.149433f,
    -0.075366f, 0.074552f, -0.106204f, 0.031210f, -0.040837f, -0.173171f, -0.196219f, 0.168185f, -0.021136f, -0.094669f,
    -0.171042f, -0.136130f, -0.093404f, 0.075018f, 0.190412f, -0.140256f, 0.016469f, -0.089445f, -0.030164f, 0.014193f,
    0.107900f, 0.185661f, -0.183781f, 0.083615f, 0.082275f, 0.091488f, -0.042413f, 0.027669f, -0.137481f, 0.007282f,
    0.120752f, -0.109596f, 0.028534f, -0.163534f, 0.120678f, 0.087219f, -0.148693f, 0.170695f, 0.065336f, 0.175108f,
    0.055115f, 0.137523f, 0.050361f, 0.042533f, 0.215008f, -0.167778f, -0.091075f, 0.092278f, 0.149532f, 0.045741f,
    -0.063347f, 0.086212f, -0.096118f, -0.198081f, 0.171050f, -0.080345f, 0.063400f, -0.010880f, 0.075226f, -0.020944f,
    -0.052726f, -0.036683f, -0.143812f, 0.143194f, 0.086484f, -0.032194f, 0.022360f, 0.086501f, 0.106303f, 0.116193f,
    0.159157f, -0.144344f, -0.055295f, 0.007370f, -0.059594f, 0.013951f, -0.163709f, 0.118693f, 0.034970f, -0.182002f,
    -0.066306f, -0.139022f, 0.209004f, 0.057894f, -0.157551f, 0.054048f, -0.202012f, -0.170233f, -0.049063f, 0.203597f,
    0.020570f, -0.125691f, 0.078936f, 0.205873f, -0.056763f, 0.005095f, -0.060229f, 0.029064f, -0.134604f, -0.089015f,
    -0.215795f, -0.172209f, 0.174208f, -0.101277f, -0.160339f, 0.025312f, -0.176677f, -0.124120f, -0.132107f, 0.059834f,
    -0.123770f, -0.023597f, 0.163126f, 0.032839f, -0.066566f, -0.053758f, 0.125977f, -0.069179f, -0.210747f, 0.063170f,
    -0.140001f, -0.198734f, -0.067117f, -0.137529f, -0.109967f, 0.133895f, 0.170662f, 0.143947f, -0.082592f, 0.039867f,
    -0.034092f, 0.216058f, 0.091640f, 0.095113f, -0.055357f, -0.207676f, 0.083274f, -0.206822f, 0.185725f, 0.131437f,
    0.176571f, 0.129545f, -0.037437f, 0.041339f, -0.176188f, 0.057066f, 0.183269f, 0.013439f, 0.148828f, 0.006335f,
    0.198444f, -0.194886f, 0.172625f, 0.142522f, -0.169851f, -0.062821f, 0.012183f, 0.213945f, -0.161437f, -0.080691f,
    0.175170f, -0.205539f, 0.044873f, -0.074857f, -0.127403f, -0.114919f, 0.141604f, 0.211910f, -0.182442f, 0.136320f,
    -0.004708f, -0.144187f, -0.209409f, -0.117245f, -0.093499f, -0.104204f, 0.216146f, -0.092131f, -0.113474f, 0.052354f,
    0.050410f, 0.044001f, 0.208057f, 0.155300f, -0.118000f, 0.166002f, 0.187842f, -0.029154f, -0.037852f, -0.198706f,
    0.087925f, -0.066471f, -0.176771f, -0.189290f, 0.083507f, -0.105535f, 0.212723f, -0.084550f, -0.129167f, 0.170711f,
    -0.011923f, -0.172422f, 0.204869f, -0.170244f, 0.189004f, -0.199880f, -0.030590f, -0.117820f, -0.104083f, -0.120397f,
    -0.027721f, 0.209075f, -0.084861f, 0.002943f, 0.016604f, 0.134713f, -0.099118f, 0.065289f, -0.110734f, -0.214446f,
    0.001540f, -0.103304f, -0.086825f, 0.104060f, -0.141176f, -0.122662f, -0.211123f, 0.038852f, -0.197037f, 0.067354f,
    0.104824f, -0.034632f, -0.095498f, 0.124494f, -0.161266f, 0.166922f, 0.204921f, 0.133184f, -0.045967f, -0.010728f,
    -0.169171f, 0.123607f, 0.167287f, -0.019072f, 0.037202f, 0.101871f, -0.044555f, -0.163010f, -0.031472f, -0.042793f,
    -0.022312f, -0.106840f, -0.029973f, 0.054815f, 0.194278f, -0.204714f, -0.018416f, -0.034917f, -0.119018f, -0.101729f,
    -0.015277f, 0.199876f, 0.201830f, 0.156262f, 0.197520f, -0.206095f, -0.157054f, 0.033013f, -0.109048f, -0.041738f,
    -0.002262f, -0.135422f, -0.092339f, 0.083902f, -0.108367f, 0.203597f, -0.192232f, -0.182711f, -0.194505f, 0.087622f,
    0.210914f, -0.059592f, 0.126418f, 0.156288f, 0.077033f, 0.003575f, -0.043596f, 0.025205f, -0.174012f, 0.139736f,
    -0.024734f, 0.137159f, -0.179383f, 0.090691f, 0.032498f, 0.056709f, -0.167067f, -0.204227f, 0.173917f, -0.080356f,
    0.034325f, -0.136196f, -0.214249f, 0.013220f, -0.020769f, 0.058950f, 0.011531f, 0.006146f, 0.207225f, -0.130239f,
    -0.192053f, 0.040688f, -0.028827f, -0.011181f, -0.156096f, 0.165402f, 0.130109f, 0.143838f, 0.186771f, -0.102601f,
    -0.158822f, 0.073992f, -0.161756f, 0.047243f, 0.162085f, 0.169174f, -0.183355f, 0.117549f, 0.168542f, -0.128210f,
    0.049178f, -0.161361f, -0.033971f, 0.134457f, 0.041840f, -0.213677f, 0.216253f, 0.030052f, -0.051543f, -0.119395f,
    0.020004f, -0.065105f, -0.017806f, -0.205187f, -0.190922f, 0.024288f, 0.000126f, 0.165396f, 0.097297f, -0.056549f,
    0.180366f, 0.053238f, -0.180910f, 0.109566f, -0.014466f, 0.000556f, -0.031287f, 0.113518f, -0.042029f, 0.013495f,
    -0.028438f, 0.070997f, -0.203218f, -0.130304f, -0.140245f, -0.054456f, 0.109422f, 0.158357f, 0.105170f, 0.215083f,
    0.058574f, -0.118579f, 0.113381f, -0.076139f, 0.111183f, -0.152205f, -0.203469f, 0.013870f, 0.121290f, 0.041880f,
    0.214812f, -0.088808f, 0.167165f, -0.134736f, 0.133981f, -0.153961f, -0.202631f, -0.117885f, -0.071278f, 0.158542f,
    0.150795f, -0.183523f, 0.103810f, -0.076543f, 0.187870f, -0.160205f, -0.191283f, 0.041187f, -0.170460f, -0.159958f,
    -0.095747f, -0.004276f, -0.185020f, 0.190082f, 0.204064f, 0.106165f, -0.081897f, -0.048772f, -0.026159f, 0.157084f,
    -0.067823f, 0.088561f, 0.206730f, 0.206998f, -0.060702f, 0.080418f, -0.146536f, 0.153341f, -0.215410f, -0.093886f,
    0.110983f, 0.187059f, 0.179627f, 0.210163f, 0.110776f, 0.103004f, -0.152307f, 0.022698f, 0.103959f, 0.206565f,
    -0.126610f, 0.146111f, 0.056371f, 0.178582f, 0.159686f, -0.129099f, -0.120706f, -0.134891f, 0.108900f, -0.076696f,
    0.036473f, 0.188209f, -0.065867f, 0.127632f, 0.201193f, -0.143927f, 0.048353f, 0.004331f, -0.127347f, 0.018687f,
    0.075794f, 0.107184f, -0.144455f, 0.028008f, -0.008312f, 0.129276f, -0.090879f, 0.112996f, 0.173414f, 0.081710f,
    -0.174655f, -0.106784f, 0.144359f, -0.114421f, 0.135358f, 0.072436f, -0.098025f, 0.084703f, -0.109510f, -0.076490f,
    0.112727f, 0.155830f, 0.052199f, -0.006435f, 0.215253f, -0.106204f, 0.150702f, 0.000578f, 0.161228f, 0.005106f,
    0.150161f, -0.081070f, -0.020033f, 0.031691f, 0.179747f, 0.085367f, 0.112257f, -0.099555f, 0.015459f, -0.073519f,
    0.148502f, -0.205961f, 0.143982f, -0.078129f, -0.022577f, 0.087115f, -0.180194f, 0.160551f, 0.029060f, -0.019899f,
    0.206087f, 0.099620f, -0.070011f, 0.163514f, 0.185539f, 0.151521f, 0.078147f, 0.185028f, -0.160498f, -0.137330f,
    0.133861f, -0.203156f, 0.057109f, -0.053087f, -0.199394f, -0.028989f, 0.180843f, -0.151746f, -0.183856f, -0.195620f,
    -0.191130f, -0.144825f, -0.126942f, 0.130475f, 0.119345f, 0.020467f, -0.046191f, -0.084469f, -0.196406f, -0.116049f,
    -0.023568f, -0.183368f, -0.170125f, 0.106921f, -0.047182f, -0.176969f, -0.205918f, -0.203846f, -0.099157f, 0.015385f,
    0.188892f, 0.213204f, -0.204700f, 0.091905f, 0.172627f, -0.154291f, -0.100885f, -0.020975f, -0.179606f, 0.190723f,
    0.060700f, 0.064111f, 0.108202f, 0.067291f, 0.179580f, 0.050849f, 0.016372f, -0.102518f, 0.150638f, 0.042485f,
    -0.066696f, -0.010807f, -0.018096f, -0.116128f, -0.087771f, 0.125087f, 0.047446f, -0.215093f, -0.142060f, 0.079995f,
    -0.081262f, -0.048347f, -0.086745f, -0.065719f, 0.198378f, 0.005359f, 0.143034f, 0.047823f, 0.191176f, 0.132403f,
    -0.154326f, -0.075518f, 0.132855f, 0.096539f, -0.074199f, 0.110015f, 0.173899f, 0.162510f, 0.143505f, 0.114453f,
    0.190454f, 0.117105f, -0.179260f, 0.039617f, -0.098022f, 0.066126f, -0.029349f, -0.020497f, 0.186572f, -0.056273f,
    -0.041121f, -0.151705f, 0.080705f, -0.070563f, 0.133051f, -0.110850f, -0.033218f, 0.041147f, -0.066691f, 0.184361f,
    0.181728f, 0.032613f, -0.012552f, 0.164938f, -0.045232f, -0.076146f, -0.211100f, 0.027430f, -0.161314f, -0.091130f,
    -0.167358f, -0.185342f, -0.112690f, 0.038210f, -0.170556f, -0.069952f, 0.068191f, -0.185087f, -0.079793f, -0.159715f,
    -0.070754f, 0.194490f, 0.168477f, -0.174950f, -0.085775f, -0.069993f, -0.026758f, -0.088285f, 0.095235f, 0.124001f,
    0.164976f, -0.069829f, -0.069055f, 0.190337f, 0.048759f, 0.087046f, -0.137066f, -0.144296f, 0.166530f, 0.173155f,
    -0.079318f, -0.156772f, 0.117626f, 0.024051f, 0.064198f, 0.029833f, -0.198085f, 0.025514f, -0.136247f, 0.147115f,
    -0.000320f, 0.107497f, -0.124051f, -0.031971f, -0.195874f, -0.091988f, -0.208589f, 0.170516f, -0.022667f, 0.102943f,
    0.199160f, -0.095451f, -0.114116f, -0.016877f, 0.082145f, 0.214035f, -0.061509f, -0.201857f, -0.184782f, -0.210098f,
    0.134227f, -0.112964f, -0.177207f, -0.044977f, -0.077249f, -0.036792f, 0.180779f, 0.106357f, -0.135527f, 0.087158f,
    -0.213213f, 0.060899f, 0.188606f, 0.134468f, -0.046234f, -0.127130f, -0.056052f, -0.008906f, 0.199135f, 0.170971f,
    -0.179263f, 0.180517f, -0.140988f, -0.176485f, -0.184640f, 0.097916f, 0.062843f, -0.022758f, -0.000785f, -0.195200f,
    -0.010561f, -0.071746f, 0.207996f, 0.068518f, -0.193238f, -0.053921f, -0.027671f, 0.212746f, 0.187085f, 0.111629f,
    0.107436f, -0.055513f, 0.099629f, -0.053942f, 0.208863f, -0.185191f, -0.076586f, -0.166662f, 0.192955f, -0.027368f,
    -0.000294f, -0.156204f, 0.089788f, -0.031705f, 0.040417f, 0.083338f, 0.142759f, -0.160547f, 0.032860f, -0.123786f,
    0.057047f, -0.207683f, -0.005807f, 0.020883f, -0.162356f, -0.193131f, 0.194861f, -0.008981f, -0.108205f, -0.079540f,
    0.037046f, 0.025244f, -0.142699f, -0.191970f, 0.076696f, 0.098193f, 0.002591f, -0.029420f, 0.149381f, -0.194347f,
    -0.113312f, 0.115697f, 0.206427f, 0.130475f, 0.131881f, 0.203028f, -0.027939f, 0.145989f, -0.047382f, 0.199797f,
    0.122522f, 0.002017f, 0.064126f, 0.148730f, 0.055653f, -0.031254f, 0.174061f, -0.062987f, 0.133607f, -0.213437f,
    -0.042038f, 0.018721f, 0.107387f, -0.064508f, -0.020272f, -0.176955f, -0.011882f, 0.119604f, 0.103894f, -0.135252f,
    0.064983f, 0.127591f, 0.167607f, 0.009559f, 0.142485f, 0.124411f, -0.079781f, -0.114935f, 0.192135f, 0.112723f,
    -0.160000f, -0.147979f, 0.080298f, -0.076157f, 0.023539f, -0.193688f, -0.187725f, -0.190165f, 0.135960f, -0.153507f,
    -0.194848f, 0.175310f, 0.117232f, 0.095688f, -0.055236f, -0.122496f, -0.069478f, -0.015419f, -0.057985f, 0.202776f,
    0.075763f, -0.139496f, -0.002887f, 0.051028f, -0.156512f, 0.028018f, -0.193155f, -0.151007f, -0.058523f, -0.006699f,
    -0.041194f, 0.004098f, -0.170355f, 0.036688f, 0.088953f, 0.066495f, -0.038314f, -0.200923f, -0.002900f, 0.080330f,
    0.070664f, -0.057244f, 0.183036f, 0.191410f, 0.170610f, -0.098107f, 0.215999f, 0.179068f, 0.048281f, 0.033206f,
    0.175310f, 0.082652f, 0.048970f, 0.117356f, 0.058160f, 0.121612f, 0.176386f, -0.065090f, -0.157571f, -0.204894f,
    0.021449f, -0.131282f, -0.100113f, -0.044559f, -0.129230f, 0.095201f, -0.100254f, -0.121380f, 0.122653f, -0.089330f,
    -0.178524f, 0.207732f, -0.013663f, 0.002147f, 0.034216f, 0.041106f, 0.097825f, 0.037334f, 0.068813f, 0.076838f,
    -0.205496f, -0.194435f, -0.114736f, -0.052953f, 0.019910f, 0.126714f, 0.049769f, -0.201585f, 0.049191f, 0.047418f,
    -0.191535f, 0.150894f, -0.171626f, 0.194553f, -0.132784f, 0.115037f, 0.196912f, -0.176349f, 0.112755f, 0.149183f,
    0.046716f, -0.145380f, 0.007379f, 0.169927f, 0.159781f, -0.018606f, -0.054464f, -0.173001f, 0.011875f, -0.142860f,
    -0.185320f, -0.039644f, -0.034284f, 0.090252f, -0.168295f, 0.145310f, 0.006163f, 0.156459f, 0.191076f, -0.034705f,
    0.134033f, 0.166366f, -0.136185f, -0.075197f, 0.129009f, -0.078205f, -0.211632f, 0.096434f, 0.123361f, 0.160319f,
    -0.004840f, 0.200255f, 0.141893f, -0.159867f, -0.068204f, 0.111164f, 0.090987f, -0.131448f, -0.118640f, -0.190969f,
    -0.085363f, -0.213975f, 0.170308f, -0.170353f, -0.181860f, -0.130645f, -0.035091f, 0.015934f, -0.013958f, -0.068010f,
    0.160405f, -0.209773f, 0.155905f, 0.096052f, 0.148337f, 0.202941f, 0.034439f, -0.059236f, 0.175935f, -0.204901f,
    -0.090695f, 0.055791f, 0.075516f, 0.193074f, 0.111186f, 0.189764f, -0.166082f, 0.099687f, 0.021682f, 0.031219f,
    -0.182890f, -0.167922f, 0.152213f, 0.079824f, 0.156713f, -0.064796f, -0.127338f, 0.080591f, -0.014962f, -0.160825f,
    0.017032f, 0.164304f, 0.206169f, 0.168279f, -0.000976f, -0.108277f, -0.112024f, -0.180961f, 0.199399f, -0.088607f,
    -0.115647f, -0.171656f, -0.107625f, 0.107981f, -0.193078f, -0.055534f, -0.058664f, -0.126792f, 0.183633f, 0.154780f,
    -0.194763f, 0.108911f, 0.155177f, 0.199025f, -0.101325f, -0.010568f, -0.151467f, -0.022767f, 0.210710f, -0.104183f,
    -0.028735f, -0.055379f, -0.210184f, 0.037596f, -0.070374f, 0.159505f, 0.182710f, 0.107819f, -0.037921f, -0.153831f,
    -0.005647f, -0.086920f, 0.204559f, -0.071367f, 0.010883f, -0.069699f, 0.200044f, 0.110924f, 0.015378f, 0.213811f,
    -0.046889f, 0.075857f, 0.093175f, 0.139543f, 0.185531f, 0.131115f, -0.161917f, -0.087517f, -0.067206f, 0.022097f,
    -0.057327f, -0.102158f, -0.067862f, 0.181015f, -0.111252f, 0.144562f, 0.108237f, 0.215697f, -0.145891f, 0.127293f,
    -0.037065f, -0.048553f, 0.193641f, 0.169895f, -0.088594f, -0.069553f, -0.094835f, 0.104349f, 0.184696f, -0.213108f,
    0.032360f, -0.132669f, -0.207604f, -0.061530f, -0.192267f, -0.125214f, -0.000726f, -0.139808f, 0.004062f, -0.116598f,
    0.146356f, -0.021242f, 0.102914f, -0.087770f, 0.177976f, 0.188906f, -0.100383f, 0.170944f, -0.057769f, -0.180124f,
    0.002420f, -0.068970f, 0.002459f, -0.027119f, 0.052059f, -0.161335f, 0.205298f, -0.021295f, -0.210401f, -0.187148f,
    0.087012f, 0.020563f, 0.212098f, 0.132359f, -0.003200f, -0.015480f, 0.088900f, 0.209082f, 0.048858f, -0.060265f,
    0.002954f, -0.079189f, 0.088792f, 0.191226f, 0.048490f, 0.180218f, -0.148369f, -0.183156f, 0.104132f, -0.034597f,
    -0.125360f, 0.170208f, 0.195539f, 0.025216f, -0.037227f, -0.026440f, -0.070980f, -0.123405f, -0.055769f, -0.065097f,
    0.128330f, -0.210056f, -0.046625f, 0.127447f, 0.138000f, 0.196747f, 0.012421f, -0.120254f, 0.015206f, -0.037799f,
    -0.139803f, 0.121225f, -0.076042f, 0.101197f, -0.200390f, 0.111177f, -0.001987f, 0.137359f, -0.004737f, -0.011992f,
    0.102139f, -0.028509f, -0.164763f, -0.118186f, 0.180063f, 0.162885f, -0.029615f, 0.143559f, -0.015045f, -0.088352f,
    0.011998f, 0.022243f, 0.123119f, 0.084900f, -0.211068f, -0.163472f, -0.057873f, 0.175422f, 0.089884f, -0.114044f,
    -0.045609f, 0.045704f, 0.047606f, 0.110824f, -0.084041f, 0.009319f, -0.172339f, 0.088850f, 0.005953f, 0.019373f,
    0.180403f, 0.054146f, 0.120046f, 0.007529f, 0.129382f, -0.216253f, 0.135244f, 0.091663f, 0.174655f, 0.046465f,
    0.013980f, -0.082458f, -0.017253f, -0.209954f, -0.163672f, 0.211157f, -0.025706f, -0.192043f, -0.132567f, -0.156700f,
    0.150834f, 0.114402f, 0.097235f, 0.161109f, 0.171900f, 0.164406f, -0.183860f, -0.033404f, -0.031837f, -0.073172f,
    -0.156150f, 0.134339f, 0.037690f, -0.178550f, 0.089309f, 0.115704f, -0.074003f, 0.145843f, -0.096306f, 0.140114f,
    -0.093377f, -0.102884f, -0.112951f, 0.188706f, 0.060072f, 0.170090f, 0.060623f, 0.140941f, 0.088763f, 0.097175f,
    -0.176233f, -0.055700f, -0.005282f, 0.024319f, 0.025992f, 0.043296f, -0.161747f, -0.099704f, 0.105929f, 0.006593f,
    0.017060f, 0.162880f, -0.099643f, -0.093468f, 0.029230f, 0.191379f, 0.074915f, -0.089899f, 0.013445f, -0.190524f,
    -0.136840f, -0.112102f, 0.162474f, -0.103930f, 0.197719f, 0.150079f, 0.022218f, -0.125183f, 0.190654f, 0.200312f,
    -0.158888f, 0.163350f, 0.186117f, -0.090896f, -0.192812f, 0.087270f, 0.178753f, 0.096909f, -0.161274f, 0.202736f,
    -0.119219f, 0.124012f, -0.209701f, -0.207830f, -0.177618f, -0.127861f, 0.063736f, 0.109822f, 0.099913f, -0.021971f,
    0.144585f, 0.094322f, 0.113932f, 0.093579f, -0.162226f, 0.160587f, 0.126338f, 0.015256f, -0.002420f, 0.030479f,
    0.003863f, -0.102675f, 0.031300f, 0.029435f, -0.172639f, -0.020622f, 0.093358f, 0.073657f, 0.015129f, -0.021616f,
    -0.062589f, -0.154115f, -0.059868f, 0.019040f, 0.084997f, -0.125312f, -0.100343f, 0.154067f, 0.209951f, 0.178276f,
    -0.032656f, -0.187590f, -0.193254f, 0.163208f, -0.108694f, -0.033914f, -0.202472f, -0.172313f, 0.213411f, -0.146868f,
    -0.134717f, 0.199568f, 0.052545f, -0.094841f, -0.158859f, 0.160679f, -0.055608f, 0.031248f, -0.170140f, 0.066680f,
    0.111373f, -0.062121f, 0.101597f, -0.029018f, 0.015844f, -0.114722f, -0.025988f, 0.034448f, -0.210931f, -0.106034f,
    -0.104279f, 0.125317f, -0.197687f, 0.006707f, -0.082716f, -0.053035f, -0.094665f, -0.159231f, 0.141642f, 0.077230f,
    0.012439f, -0.047501f, -0.056358f, -0.143671f, 0.067750f, -0.031318f, 0.042307f, 0.207509f, -0.188257f, 0.034962f,
    0.018570f, -0.204357f, 0.025980f, -0.050019f, -0.041614f, 0.137345f, 0.076565f, 0.041336f, 0.010464f, 0.002720f,
    0.092837f, 0.115136f, -0.137585f, 0.055824f, -0.172662f, -0.171315f, 0.027853f, -0.109070f, -0.127733f, 0.034370f,
    0.148826f, -0.037004f, -0.126182f, 0.100202f, -0.108085f, 0.070516f, -0.166784f, -0.212877f, 0.056624f, -0.027626f,
    0.093165f, -0.005025f, 0.029413f, 0.069492f, 0.046223f, 0.188010f, 0.086317f, 0.114538f, 0.101108f, -0.040672f,
    0.100502f, 0.029491f, -0.169860f, -0.151793f, -0.167284f, -0.013691f, -0.057726f, 0.206165f, 0.040950f, 0.156777f,
    0.022800f, -0.042919f, -0.190967f, 0.083923f, -0.124041f, -0.120094f, -0.176715f, -0.162767f, 0.148834f, 0.178192f,
    -0.028644f, -0.001614f, 0.082186f, 0.126989f, -0.171128f, 0.204490f, -0.162197f, 0.080963f, -0.186531f, 0.053456f,
    -0.044069f, 0.025545f, 0.145397f, -0.077596f, -0.052084f, -0.130039f, -0.179965f, 0.168527f, -0.052675f, -0.156694f,
    0.039383f, -0.117936f, 0.017452f, 0.091262f, 0.049847f, 0.200541f, -0.180955f, -0.126431f, -0.123735f, 0.025995f,
    0.182510f, -0.127656f, -0.078250f, -0.112756f, -0.062651f, -0.078940f, -0.167048f, 0.044233f, -0.054306f, -0.100838f,
    0.212539f, -0.102522f, 0.160281f, 0.133128f, -0.205088f, -0.163159f, 0.118408f, 0.137279f, 0.132258f, 0.082051f,
    -0.119639f, -0.156918f, -0.015507f, -0.027396f, 0.037877f, -0.114199f, -0.185580f, 0.157799f, 0.063561f, 0.126075f,
    0.068521f, 0.180430f, -0.187185f, 0.078944f, -0.161854f, 0.198933f, -0.031829f, 0.153852f, -0.170742f, 0.075266f,
    -0.157889f, 0.166285f, 0.116225f, 0.051975f, 0.115976f, -0.202609f, -0.161689f, 0.064633f, 0.011011f, 0.200589f,
    0.102041f, -0.064607f, 0.174401f, 0.164850f, -0.211955f, -0.088626f, -0.067252f, -0.158400f, -0.079542f, 0.045470f,
    0.126385f, 0.058028f, 0.083656f, -0.191109f, -0.211561f, -0.103958f, 0.055534f, -0.137751f, 0.215269f, -0.030488f,
    0.018001f, 0.137909f, 0.047023f, 0.215844f, -0.057718f, -0.145787f, 0.110075f, -0.086836f, 0.024302f, -0.015806f,
    0.048187f, 0.094104f, 0.100909f, -0.176186f, 0.048919f, 0.159479f, 0.039646f, 0.209614f, 0.103448f, -0.042880f,
    0.167115f, 0.014902f, 0.152194f, -0.141767f, 0.133909f, 0.159223f, -0.210724f, 0.153151f, 0.107287f, -0.189789f,
    -0.103725f, -0.188551f, 0.057624f, 0.067171f, 0.125949f, -0.029107f, 0.190078f, -0.045487f, 0.173174f, 0.101373f,
    0.037871f, -0.031094f, 0.187320f, 0.179313f, 0.113988f, -0.070731f, -0.005123f, 0.208390f, -0.049262f, -0.124008f,
    -0.048351f, -0.039151f, -0.125210f, -0.179462f, -0.131972f, 0.059685f, -0.077388f, -0.162088f, -0.136978f, 0.128303f,
    -0.194586f, 0.043944f, -0.033028f, -0.182052f, 0.058107f, 0.201100f, -0.172171f, -0.062495f, 0.024903f, -0.103021f,
    -0.055029f, -0.207196f, -0.215823f, -0.123588f, 0.142392f, 0.115852f, -0.200855f, -0.063999f, 0.211428f, -0.113924f,
    -0.053145f, 0.073396f, 0.030840f, 0.001043f, -0.166230f, -0.137257f, -0.153293f, 0.050835f, 0.143058f, -0.203782f,
    -0.092106f, -0.169736f, -0.156833f, -0.172619f, -0.070709f, -0.037342f, -0.187651f, 0.174226f, 0.016026f, -0.018472f,
    -0.089736f, 0.062405f, -0.172724f, -0.185752f, -0.175407f, 0.131825f, -0.021490f, 0.197109f, -0.121479f, -0.091865f,
    -0.082587f, 0.184041f, 0.062497f, -0.054308f, 0.050617f, -0.080035f, -0.207084f, 0.209238f, -0.042449f, -0.015200f,
    -0.206566f, 0.122211f, -0.130114f, -0.135642f, 0.188386f, 0.006173f, 0.131749f, 0.103385f, 0.140407f, 0.094524f,
    -0.089162f, 0.025357f, -0.074106f, 0.043930f, 0.070619f, -0.058147f, 0.179257f, 0.113645f, -0.052620f, 0.145630f,
    0.048340f, -0.158031f, 0.142840f, 0.215563f, -0.213203f, 0.082722f, 0.036031f, 0.209725f, 0.140892f, -0.022155f,
    -0.052153f, 0.183963f, -0.043348f, 0.062723f, 0.215071f, -0.098986f, -0.022798f, 0.111153f, 0.030231f, 0.070756f,
    0.173699f, -0.087610f, 0.156376f, -0.107074f, 0.166125f, -0.208257f, -0.037189f, 0.100246f, 0.118271f, -0.067203f,
    0.179801f, 0.184453f, 0.048644f, -0.135547f, -0.126598f, -0.109929f, 0.050074f, 0.172413f, -0.112534f, -0.193159f,
    -0.000638f, -0.040223f, 0.173775f, -0.160643f, 0.185514f, 0.063977f, 0.163365f, 0.043109f, -0.069803f, -0.125182f,
    -0.002582f, -0.091207f, -0.120020f, 0.100284f, -0.200949f, -0.096770f, 0.136953f, -0.138592f, 0.211593f, -0.120938f,
    0.084034f, 0.118378f, -0.125613f, 0.192954f, 0.080396f, -0.071655f, 0.079283f, -0.089938f, 0.076233f, 0.054300f,
    -0.106925f, -0.088973f, 0.155325f, -0.044958f, -0.000886f, 0.149470f, 0.032182f, -0.138696f, -0.201435f, 0.026154f,
    0.058395f, 0.044486f, 0.073645f, 0.130279f, -0.187755f, 0.151131f, -0.157717f, 0.207260f, 0.109148f, -0.073480f,
    0.191862f, 0.122649f, -0.004639f, -0.075499f, -0.182296f, -0.082464f, 0.036422f, -0.167437f, -0.049198f, -0.005773f,
    0.044908f, -0.125943f, 0.153019f, 0.019373f, -0.098201f, -0.028769f, -0.183164f, -0.041829f, 0.104686f, -0.190671f,
    0.059544f, -0.118665f, -0.118101f, -0.208685f, 0.087582f, -0.059588f, 0.135753f, -0.160428f, -0.182686f, 0.089996f,
    0.134054f, 0.181190f, 0.126370f, 0.041212f, 0.046454f, -0.096115f, -0.067901f, -0.089542f, 0.138123f, 0.033327f,
    0.062841f, 0.114352f, 0.063121f, -0.147169f, 0.144532f, 0.044510f, -0.040064f, 0.013077f, -0.074649f, 0.028662f,
    0.003449f, 0.042258f, 0.136661f, 0.030754f, 0.084979f, 0.153925f, 0.026759f, -0.214871f, 0.047118f, -0.169340f,
    -0.147450f, 0.109797f, 0.125087f, 0.073031f, -0.020598f, 0.167529f, -0.019471f, -0.100509f, -0.098753f, -0.123357f,
    0.052792f, -0.127204f, 0.046024f, 0.082109f, -0.157077f, -0.092471f, 0.107451f, -0.034340f, -0.146782f, 0.033929f,
    0.108448f, 0.156893f, -0.169394f, -0.110910f, 0.086432f, -0.194143f, -0.094061f, -0.209948f, -0.130589f, -0.165700f,
    0.117300f, 0.089284f, -0.019888f, 0.140798f, -0.195588f, -0.134186f, -0.095985f, 0.138336f, 0.080533f, 0.019473f,
    0.006309f, -0.098615f, 0.155094f, -0.165802f, 0.152798f, 0.140064f, 0.168868f, -0.193387f, -0.053102f, 0.084246f,
    -0.121861f, 0.017610f, 0.199089f, 0.067329f, -0.106157f, 0.021316f, 0.030403f, -0.048875f, 0.140643f, 0.131783f,
    -0.125217f, 0.030289f, -0.040250f, 0.073613f, -0.160068f, -0.173978f, -0.035360f, -0.154711f, 0.165528f, 0.040570f,
    0.030294f, -0.037735f, -0.058948f, 0.165723f, -0.081051f, -0.075569f, -0.083091f, -0.186564f, 0.054347f, -0.185896f,
    -0.214025f, 0.006704f, 0.060752f, 0.214163f, 0.040712f, -0.052463f, 0.034693f, 0.195689f, 0.116457f, 0.066353f,
    -0.112479f, 0.212682f, 0.189990f, -0.167596f, 0.159143f, -0.029409f, -0.155734f, 0.121977f, 0.098229f, 0.019215f,
    0.055621f, 0.011660f, 0.007678f, -0.037456f, 0.076775f, 0.123668f, -0.056162f, -0.130585f, -0.117640f, 0.032482f,
    -0.198715f, -0.149483f, -0.149965f, -0.023576f, -0.030143f, -0.037035f, -0.046996f, -0.207466f, 0.081866f, 0.214823f,
    -0.008193f, -0.204836f, -0.015744f, 0.039703f, 0.192717f, 0.005609f, -0.054050f, 0.120948f, 0.183929f, -0.136849f,
    -0.187242f, -0.137747f, 0.055593f, -0.119149f, -0.090302f, 0.212367f, -0.058222f, -0.189038f, -0.169232f, 0.097869f,
    0.182543f, -0.174153f, 0.203405f, 0.101242f, -0.027112f, 0.002335f, -0.211966f, 0.135658f, -0.112398f, -0.185432f,
    -0.186552f, -0.008128f, 0.125325f, -0.183903f, -0.172253f, -0.092210f, -0.189290f, -0.140222f, -0.115617f, 0.109907f,
    -0.129356f, 0.182742f, -0.015856f, -0.036437f, 0.012432f, -0.120055f, 0.003214f, 0.060733f, -0.022346f, 0.117210f,
    -0.148335f, -0.094268f, -0.083033f, 0.041422f, -0.186625f, -0.161827f, -0.167591f, -0.105869f, -0.202253f, -0.054441f,
    0.077799f, 0.197670f, 0.138694f, -0.138318f, 0.164810f, 0.062946f, -0.107299f, -0.075084f, 0.097832f, 0.153909f,
    0.045518f, -0.155781f, 0.073773f, 0.194150f, 0.068889f, 0.144590f, -0.107082f, -0.111994f, 0.208772f, 0.009402f,
    -0.171757f, -0.180861f, -0.067011f, -0.096853f, -0.188735f, -0.171664f, 0.183735f, -0.207087f, -0.039935f, -0.205310f,
    -0.121895f, -0.191870f, 0.018005f, -0.194099f, -0.089939f, -0.040184f, 0.089818f, -0.201788f, 0.037424f, -0.066490f,
    0.215779f, 0.149666f, -0.144012f, 0.203962f, 0.073583f, -0.196148f, 0.194135f, 0.206889f, -0.119584f, -0.081779f,
    -0.096725f, 0.073050f, 0.132257f, 0.170080f, 0.195052f, 0.084309f, -0.094282f, -0.066899f, 0.027356f, 0.065526f,
    0.061650f, 0.208755f, 0.038204f, -0.206090f, -0.209220f, 0.000358f, 0.155232f, -0.101379f, -0.144910f, 0.205471f,
    0.136822f, 0.170172f, 0.056162f, -0.178400f, 0.056941f, -0.185873f, -0.157695f, 0.148339f, -0.106238f, -0.207004f,
    -0.022932f, -0.012330f, 0.084653f, 0.205894f, 0.078863f, -0.057836f, -0.067062f, -0.195245f, -0.191494f, -0.036801f,
    0.069106f, 0.168330f, -0.024061f, 0.030950f, -0.074191f, -0.106497f, -0.177835f, 0.060734f, 0.024638f, 0.089912f,
    0.062205f, -0.033773f, -0.177017f, -0.036290f, 0.188611f, 0.072027f, -0.020154f, 0.141594f, 0.037736f, 0.076521f,
    0.171085f, -0.214872f, 0.069045f, -0.170321f, -0.189491f, -0.173068f, -0.120319f, -0.101917f, -0.047358f, -0.095577f,
    -0.178289f, 0.161191f, -0.016621f, -0.024750f, 0.042354f, 0.086943f, 0.147012f, -0.080377f, -0.114359f, 0.005480f,
    0.206397f, 0.075979f, -0.213015f, -0.109952f, -0.005289f, 0.192761f, -0.094490f, -0.046172f, -0.157515f, -0.126598f,
    0.037847f, 0.081213f, 0.115098f, -0.128637f, 0.073260f, 0.151873f, -0.091279f, -0.143816f, -0.119305f, 0.082423f,
    0.002265f, -0.091150f, -0.028915f, 0.095059f, -0.139554f, 0.113436f, 0.072986f, -0.174480f, -0.085025f, -0.066868f,
    0.053564f, 0.175696f, 0.014523f, -0.014210f, 0.121243f, 0.144186f, 0.070099f, 0.036764f, 0.164637f, 0.113110f,
    0.087032f, -0.067349f, -0.064577f, 0.019901f, 0.200777f, -0.082547f, 0.123434f, -0.048353f, -0.143683f, -0.124930f,
    -0.008550f, -0.000963f, -0.011257f, -0.075818f, 0.019828f, -0.113307f, -0.131568f, 0.097960f, 0.071721f, 0.202666f,
    0.091420f, 0.002564f, 0.054718f, -0.046087f, -0.198950f, -0.195114f, 0.005438f, -0.095721f, -0.135428f, 0.007842f,
    0.120973f, 0.028545f, 0.088964f, -0.170866f, -0.094169f, 0.015654f, 0.213110f, -0.187911f, -0.174228f, -0.204505f,
    0.155679f, -0.151087f, 0.200263f, 0.032155f, -0.176258f, -0.135449f, 0.074724f, 0.064002f, -0.213446f, 0.111604f,
    0.157082f, 0.025504f, -0.118175f, 0.195840f, 0.038406f, 0.178404f, 0.010225f, 0.045001f, 0.142196f, 0.081057f,
    0.115930f, -0.061083f, -0.078796f, 0.111747f, -0.065228f, 0.208192f, 0.125907f, -0.005995f, -0.000010f, -0.140304f,
    -0.045074f, -0.014164f, -0.205603f, -0.128255f, 0.209931f, -0.132072f, -0.157752f, 0.082499f, 0.047487f, 0.136070f,
    0.212640f, -0.098753f, 0.189021f, -0.032450f, 0.013559f, 0.091273f, 0.176008f, -0.105605f, -0.146229f, -0.089711f,
    0.066199f, -0.080770f, -0.106614f, -0.084051f, 0.144118f, -0.104780f, 0.064810f, -0.116672f, -0.197507f, 0.044793f,
    0.009092f, 0.061255f, 0.080432f, -0.031327f, -0.162363f, 0.111438f, 0.092452f, -0.143132f, 0.005430f, 0.161656f,
    0.123134f, 0.209360f, -0.150945f, -0.083366f, -0.141500f, 0.086696f, -0.144977f, -0.035753f, 0.024844f, -0.180243f,
    -0.063910f, -0.137568f, -0.175025f, 0.124756f, -0.042380f, 0.149010f, -0.012235f, 0.097738f, -0.050186f, 0.000682f,
    -0.029459f, 0.075420f, 0.007370f, -0.099583f, -0.099767f, 0.071836f, 0.055292f, -0.133506f, 0.092192f, 0.142708f,
    0.105170f, 0.022675f, 0.007799f, -0.044009f, -0.207767f, -0.018285f, 0.145386f, 0.020501f, -0.173964f, -0.061487f,
    0.029885f, -0.190605f, 0.049702f, 0.165684f, 0.110018f, 0.209974f, -0.075374f, 0.071922f, -0.090126f, -0.115189f,
    -0.038619f, -0.063959f, -0.144606f, 0.071771f, 0.141472f, 0.138260f, -0.022733f, 0.140000f, 0.069529f, -0.003188f,
    -0.160707f, -0.043480f, -0.207968f, -0.193022f, -0.015512f, 0.085530f, 0.007032f, 0.107598f, -0.098016f, 0.167687f,
    -0.052834f, -0.173480f, -0.041955f, -0.175855f, -0.170803f, 0.083222f, -0.177073f, 0.132496f, -0.177243f, 0.072634f,
    0.019124f, 0.025873f, 0.058593f, -0.135184f, -0.089440f, -0.017827f, -0.012650f, -0.103829f, -0.156513f, -0.006470f,
    -0.190137f, -0.187084f, 0.190000f, 0.137662f, -0.160621f, -0.132113f, 0.129970f, -0.026135f, -0.208951f, 0.142324f,
    -0.103360f, 0.163720f, -0.092112f, 0.204542f, -0.011442f, -0.164376f, 0.170559f, -0.043310f, -0.064930f, -0.118903f,
    -0.075186f, -0.134998f, 0.180978f, -0.104874f, -0.137570f, -0.215782f, -0.096602f, -0.150473f, -0.123349f, -0.102667f,
    -0.147945f, 0.109213f, -0.170763f, 0.089261f, 0.168400f, -0.025639f, 0.093231f, 0.084654f, 0.024515f, -0.162466f,
    -0.131529f, -0.112257f, 0.049683f, -0.025847f, -0.051614f, 0.109620f, 0.079918f, 0.043342f, -0.130497f, 0.146629f,
    -0.136203f, 0.073798f, -0.102573f, -0.141758f, 0.155707f, -0.093968f, 0.178512f, 0.184469f, 0.216154f, 0.027673f,
    0.097040f, -0.039974f, 0.114084f, -0.123303f, 0.150862f, -0.031394f, -0.075396f, -0.057172f, 0.207841f, 0.043252f,
    -0.054823f, 0.134090f, 0.010135f, 0.140895f, -0.126248f, -0.000340f, 0.037900f, -0.204775f, 0.043376f, -0.094132f,
    0.189070f, -0.106639f, 0.021315f, 0.126306f, 0.132438f, -0.099298f, -0.184085f, -0.008174f, 0.142922f, -0.175399f,
    -0.122169f, -0.098680f, 0.145307f, -0.114176f, 0.155627f, 0.122900f, -0.151400f, -0.216010f, 0.003156f, -0.212321f,
    0.020912f, -0.143431f, 0.199755f, 0.110427f, -0.121890f, 0.148896f, 0.129335f, -0.035606f, -0.114594f, 0.011529f,
    0.164106f, -0.207626f, 0.046776f, -0.038088f, 0.067079f, -0.185306f, -0.020975f, -0.072796f, -0.069712f, -0.124886f,
    0.134324f, 0.040947f, -0.069248f, -0.108590f, -0.038271f, 0.001286f, 0.178162f, -0.043681f, -0.024549f, -0.001113f,
    0.050600f, -0.106147f, 0.023570f, -0.112418f, 0.144434f, 0.026033f, -0.205487f, 0.175961f, -0.123295f, 0.034752f,
    0.029471f, -0.165477f, 0.204810f, 0.078083f, -0.156237f, -0.071811f, -0.186534f, -0.076855f, -0.089469f, 0.197598f,
    0.050228f, -0.141747f, 0.087490f, -0.205679f, -0.023850f, 0.211444f, 0.153783f, 0.113702f, 0.086359f, 0.200040f,
    0.152327f, -0.154928f, -0.069528f, -0.150908f, -0.175536f, -0.156524f, -0.114785f, 0.073084f, 0.101915f, 0.178657f,
    -0.205178f, -0.107755f, 0.061724f, -0.199096f, 0.152307f, 0.199981f, -0.177479f, -0.054723f, -0.096630f, -0.027773f,
    0.178629f, -0.148626f, 0.039091f, -0.146182f, -0.082208f, 0.206098f, 0.162537f, -0.004997f, 0.167834f, 0.138017f,
    0.034165f, -0.011779f, 0.190257f, 0.084606f, 0.021139f, -0.030003f, 0.036103f, 0.117311f, -0.161503f, -0.160255f,
    0.111685f, -0.152360f, 0.140462f, 0.212483f, 0.052459f, 0.005430f, 0.147631f, -0.027707f, -0.023720f, -0.202209f,
    0.135259f, 0.103039f, 0.059468f, -0.030873f, -0.181387f, 0.078003f, -0.097980f, 0.086787f, -0.049908f, 0.019563f,
    0.020002f, -0.146531f, 0.153393f, 0.065000f, 0.063777f, -0.194753f, 0.153713f, 0.043390f, 0.010169f, -0.007913f,
    0.204831f, 0.048482f, -0.203273f, -0.162549f, 0.127988f, -0.151717f, -0.147191f, -0.099985f, 0.104668f, -0.063881f,
    0.084938f, -0.164662f, 0.011126f, 0.024652f, -0.111224f, 0.067631f, 0.088237f, -0.171085f, -0.065136f, -0.011613f,
    -0.082974f, 0.214200f, -0.005160f, 0.029602f, -0.058655f, -0.019578f, 0.081923f, -0.033961f, -0.211952f, -0.037898f,
    0.192926f, -0.085182f, 0.136946f, 0.061050f, 0.076687f, -0.196651f, 0.045384f, 0.035257f, -0.103558f, 0.213790f,
    0.170584f, 0.023572f, -0.104060f, 0.052200f, -0.039773f, -0.175329f, -0.016098f, 0.090760f, -0.114856f, -0.145615f,
    -0.002687f, -0.156270f, -0.060998f, -0.037012f, 0.171087f, 0.068447f, -0.066541f, -0.149421f, -0.015006f, 0.151769f,
    -0.036674f, 0.201486f, 0.190505f, -0.172810f, -0.187699f, -0.214120f, -0.182697f, -0.003441f, -0.148313f, -0.086551f,
    0.182424f, 0.159678f, 0.086852f, -0.020536f, -0.008685f, -0.004071f, 0.084496f, -0.087245f, 0.197438f, 0.150655f,
    0.087077f, -0.213098f, -0.015102f, -0.033406f, 0.066262f, -0.163250f, -0.189571f, 0.121420f, 0.061421f, 0.211558f,
    0.151188f, 0.028961f, 0.146731f, -0.133168f, 0.057391f, -0.039461f, -0.047713f, -0.129657f, -0.143600f, 0.211498f,
    -0.054901f, -0.065752f, 0.108441f, -0.169675f, 0.169722f, -0.193869f, 0.027479f, 0.216180f, -0.174120f, 0.004643f,
    0.204988f, 0.152925f, 0.090049f, 0.151514f, 0.208835f, -0.058776f, 0.022068f, -0.102880f, -0.146674f, 0.116766f,
    -0.122165f, 0.126508f, -0.157821f, -0.004165f, 0.073056f, 0.197587f, -0.171890f, -0.114508f, -0.065013f, -0.025386f,
    -0.182563f, 0.144449f, 0.201684f, -0.088995f, 0.054236f, -0.216453f, -0.097475f, -0.054171f, -0.214277f, 0.123027f,
    -0.114478f, -0.208383f, 0.016494f, 0.078178f, 0.006883f, 0.053959f, -0.069635f, 0.135577f, -0.184140f, -0.194670f,
    0.151050f, 0.103359f, -0.000340f, -0.144744f, 0.053698f, 0.025768f, 0.000291f, 0.055333f, -0.052864f, -0.129972f,
    0.112192f, 0.192206f, -0.139497f, -0.194185f, 0.192942f, -0.204965f, -0.098556f, 0.104309f, -0.194795f, -0.021827f,
    0.005238f, -0.062053f, 0.181680f, -0.102811f, 0.132408f, 0.049832f, 0.138434f, 0.118156f, -0.208727f, 0.158382f,
    0.137444f, -0.190021f, 0.159281f, -0.088362f, 0.127337f, -0.045144f, 0.117511f, -0.151551f, -0.208855f, -0.078924f,
    -0.201955f, -0.171092f, 0.088402f, 0.026058f, 0.211202f, -0.171940f, 0.009124f, 0.158436f, 0.182064f, -0.203925f,
    -0.050314f, 0.108173f, 0.028412f, 0.079757f, 0.091662f, -0.039532f, 0.168882f, -0.114155f, 0.197279f, 0.095746f,
    -0.055678f, 0.023890f, 0.048045f, 0.029794f, -0.026532f, -0.148561f, 0.134796f, 0.124853f, 0.022474f, 0.069582f,
    -0.052130f, -0.143883f, 0.008740f, 0.181556f, 0.142332f, 0.005919f, -0.185790f, 0.012763f, 0.070058f, -0.196632f,
    -0.125827f, -0.014748f, -0.049820f, -0.064825f, -0.177900f, -0.040169f, 0.208075f, 0.054160f, 0.001482f, -0.076614f,
    -0.058190f, 0.033047f, -0.109956f, -0.118666f, -0.089228f, 0.191691f, -0.191054f, -0.034225f, 0.097846f, 0.071389f,
    0.146694f, -0.111402f, -0.153388f, 0.046695f, 0.131709f, 0.152972f, -0.102099f, 0.202546f, 0.209622f, -0.051022f,
    0.083562f, -0.059290f, 0.161911f, -0.206339f, 0.103341f, 0.022638f, -0.129714f, -0.138208f, -0.154125f, 0.200489f,
    -0.115164f, -0.071071f, 0.175929f, 0.055343f, -0.039935f, -0.190741f, -0.145635f, 0.045848f, 0.018535f, 0.114746f,
    0.166321f, -0.053596f, 0.032072f, -0.075192f, 0.006785f, -0.189783f, 0.100506f, 0.039086f, -0.162694f, 0.097367f,
    0.060224f, 0.107567f, -0.001083f, 0.142289f, 0.074725f, 0.174414f, -0.165215f, 0.118048f, 0.075993f, 0.120019f,
    0.043317f, -0.108712f, -0.096242f, -0.137177f, -0.102962f, -0.148138f, -0.114570f, 0.018162f, 0.163653f, 0.194435f,
    -0.028289f, -0.030414f, 0.060701f, -0.183741f, -0.029934f, 0.001031f, 0.075647f, -0.212953f, 0.178181f, 0.120525f,
    0.181176f, -0.063569f, 0.072622f, 0.106418f, 0.187418f, 0.063306f, 0.002371f, -0.134803f, -0.040018f, 0.086580f,
    0.065795f, -0.071822f, 0.136861f, -0.179731f, 0.091287f, -0.194112f, 0.073502f, 0.119027f, -0.030650f, -0.024004f,
    -0.079086f, 0.143805f, -0.115742f, -0.198017f, 0.210412f, -0.150011f, -0.012233f, -0.200570f, -0.111514f, -0.038834f,
    0.214173f, -0.149974f, 0.063991f, -0.055707f, -0.196448f, -0.204282f, 0.162658f, 0.016995f, -0.141990f, -0.088947f,
    0.129563f, 0.165731f, 0.109571f, -0.115747f, 0.040063f, 0.192289f, -0.022266f, 0.114550f, -0.068853f, 0.045763f,
    0.045981f, 0.010606f, 0.075263f, -0.170859f, -0.125154f, -0.085610f, 0.057200f, 0.145014f, -0.046308f, 0.142872f,
    -0.110869f, 0.070661f, 0.006882f, -0.126548f, 0.202852f, -0.000946f, 0.181770f, 0.072094f, -0.187512f, -0.014922f,
    0.093857f, -0.096296f, -0.179701f, -0.005405f, -0.045839f, 0.126603f, -0.117018f, 0.097240f, -0.097728f, -0.134739f,
    -0.205919f, 0.088428f, 0.112820f, -0.057287f, -0.048646f, -0.172926f, -0.108329f, -0.025135f, -0.190633f, 0.127166f,
    0.204019f, -0.088957f, 0.183219f, 0.004600f, -0.193249f, 0.085237f, 0.013672f, 0.003677f, 0.019560f, 0.192082f,
    0.098265f, -0.084859f, -0.072928f, -0.172361f, 0.157593f, 0.082478f, 0.073971f, 0.083109f, -0.200283f, 0.021478f,
    -0.048456f, 0.125072f, 0.214577f, -0.060280f, 0.182392f, 0.210474f, 0.074416f, 0.201103f, 0.008809f, 0.166644f,
    -0.171860f, -0.192383f, -0.030050f, 0.066440f, -0.169229f, 0.038995f, 0.107880f, 0.171132f, 0.030719f, -0.034711f,
    0.202868f, 0.062294f, -0.003180f, 0.162683f, -0.083175f, 0.174038f, 0.039464f, -0.129331f, 0.129923f, 0.160261f,
    0.163341f, 0.008822f, -0.130792f, -0.161383f, 0.078749f, 0.006485f, -0.159889f, -0.059649f, 0.154448f, -0.016519f,
    0.179773f, -0.013142f, -0.065915f, -0.016258f, -0.202097f, 0.010996f, -0.014040f, 0.135996f, -0.059953f, -0.089306f,
    0.032178f, -0.120502f, 0.121425f, -0.004747f, 0.053860f, 0.135450f, -0.036195f, -0.117363f, 0.128290f, 0.182375f,
    -0.001277f, 0.020220f, 0.189921f, 0.164236f, 0.074235f, 0.038133f, 0.000000f, 0.000000f, 0.000000f, 0.000000f,
    0.000000f, 0.000000f, 0.000000f, 0.000000f, 0.000000f, 0.000000f, 0.000000f, 0.000000f, 0.000000f, 0.000000f,
    0.000000f, 0.000000f, 0.000000f, 0.000000f, 0.000000f, 0.000000f, 0.000000f, 0.000000f, 0.000000f, 0.000000f,
    0.000000f, 0.000000f, 0.000000f, 0.000000f, 0.000000f, 0.000000f, 0.000000f, 0.000000f, 0.000000f, 0.000000f,
    0.000000f, 0.000000f, 0.000000f, 0.000000f, 0.000000f, 0.000000f, 0.000000f, 0.000000f, 0.000000f, 0.000000f,
    0.000000f, 0.000000f, 0.000000f, 0.000000f, 0.000000f, 0.000000f, 0.000000f, 0.000000f, 0.000000f, 0.000000f,
    0.000000f, 0.000000f, 0.000000f, 0.000000f, 0.000000f, 0.000000f, 0.000000f, 0.000000f, 0.000000f, 0.000000f,
    -0.021101f, 0.071730f, -0.031209f, 0.076532f, -0.087996f, -0.041927f, -0.072253f, 0.047815f, -0.010435f, -0.004858f,
    0.020018f, 0.047457f, 0.087798f, 0.097244f, 0.028203f, 0.050451f, 0.060503f, 0.074185f, -0.022350f, -0.037036f,
    0.023547f, 0.033604f, -0.089060f, -0.016267f, -0.028242f, 0.055329f, -0.001310f, -0.074478f, -0.000776f, 0.042326f,
    -0.069830f, -0.083781f, -0.088858f, -0.040119f, -0.063299f, -0.037808f, -0.007498f, 0.060363f, 0.061432f, -0.064143f,
    -0.082599f, -0.087240f, 0.064659f, -0.074451f, -0.062063f, -0.072776f, 0.013157f, -0.055708f, -0.012154f, 0.028179f,
    0.062921f, 0.016194f, 0.047077f, -0.015779f, -0.092482f, -0.076450f, 0.043568f, -0.021131f, 0.071818f, -0.074896f,
    0.083531f, -0.066665f, 0.041233f, -0.029814f, 0.044339f, 0.038439f, -0.082023f, 0.066563f, -0.035448f, 0.042150f,
    0.004124f, -0.019294f, 0.029136f, -0.051186f, -0.053816f, 0.006247f, 0.068993f, -0.080232f, 0.025093f, 0.017946f,
    0.092414f, -0.058274f, -0.008677f, 0.042888f, 0.046130f, 0.028497f, -0.058202f, 0.046695f, -0.029847f, -0.067584f,
    0.017930f, -0.042177f, 0.063936f, 0.001842f, 0.082325f, -0.071253f, 0.101892f, 0.037472f, 0.001168f, 0.093750f,
    0.043676f, 0.042128f, 0.060967f, -0.025042f, 0.020960f, 0.088475f, -0.068286f, -0.012908f, 0.026909f, 0.024487f,
    -0.062454f, -0.092060f, 0.008611f, -0.092120f, -0.026965f, 0.061675f, 0.046887f, -0.009918f, 0.031612f, -0.058660f,
    -0.030870f, 0.073082f, -0.064708f, 0.099282f, -0.068371f, 0.023456f, 0.036959f, 0.037638f, -0.025364f, -0.047808f,
    0.092294f, 0.004650f, 0.036029f, 0.038361f, -0.091264f, -0.070941f, -0.019189f, -0.054273f, 0.015892f, 0.080202f,
    0.016401f, -0.063548f, 0.084945f, -0.078424f, 0.097800f, -0.015351f, 0.034242f, 0.050551f, -0.019564f, 0.081270f,
    0.092600f, 0.041591f, -0.013999f, -0.005945f, -0.061364f, -0.052148f, 0.073019f, 0.012166f, 0.044777f, 0.037269f,
    0.001274f, -0.069088f, -0.000712f, -0.065735f, -0.092893f, 0.015212f, -0.018186f, -0.066524f, 0.023261f, -0.088671f,
    0.032287f, -0.072209f, -0.055401f, 0.017482f, 0.035169f, -0.027998f, 0.094377f, 0.016455f, 0.063515f, -0.007977f,
    -0.046983f, 0.095587f, 0.074883f, 0.018014f, 0.048657f, -0.060417f, 0.090047f, -0.053118f, -0.099451f, 0.046634f,
    0.074030f, -0.080082f, -0.047499f, 0.019298f, -0.003395f, -0.000108f, 0.046856f, 0.004654f, 0.075195f, -0.079135f,
    0.003395f, 0.030074f, 0.005354f, 0.038499f, -0.052427f, 0.051333f, 0.065710f, 0.049793f, -0.070993f, -0.081471f,
    0.017518f, -0.060609f, -0.016831f, 0.007136f, -0.053506f, 0.006894f, -0.086664f, -0.078705f, 0.011788f, 0.020269f,
    0.062006f, -0.098290f, 0.043275f, -0.079740f, -0.012690f, 0.024507f, 0.054989f, -0.067102f, 0.061943f, 0.065317f,
    0.065566f, -0.006409f, 0.026494f, 0.002534f, -0.084657f, 0.073412f, -0.051479f, -0.029229f, -0.098820f, 0.048141f,
    0.030580f, -0.078718f, 0.055406f, -0.049233f, -0.045458f, -0.015200f, 0.100588f, 0.091489f, -0.053805f, -0.074678f,
    -0.000738f, 0.003997f, -0.061366f, -0.066047f, 0.006610f, -0.052392f, -0.095585f, -0.004610f, -0.041258f, 0.093944f,
    -0.057398f, 0.075051f, 0.017139f, 0.100833f, -0.084140f, -0.081015f, -0.081464f, -0.027973f, 0.001828f, -0.066013f,
    -0.059367f, -0.062135f, -0.075926f, -0.089598f, 0.062175f, -0.035385f, -0.046933f, 0.081445f, -0.061655f, -0.055136f,
    0.055007f, -0.022752f, -0.058552f, -0.018290f, -0.050802f, -0.052140f, 0.014019f, -0.067349f, -0.063790f, -0.013448f,
    0.023929f, -0.068944f, -0.023134f, 0.091132f, -0.039128f, 0.060500f, -0.018139f, -0.070103f, 0.062168f, -0.055134f,
    -0.060474f, 0.057296f, -0.005403f, -0.058124f, 0.081271f, -0.091685f, -0.048369f, 0.053447f, -0.050929f, -0.068476f,
    -0.081370f, 0.067920f, -0.071727f, -0.096988f, 0.001719f, -0.013297f, -0.059554f, -0.098085f, 0.019790f, -0.025858f,
    -0.003952f, 0.012696f, -0.011900f, 0.010054f, -0.055662f, -0.065027f, -0.079499f, 0.046171f, -0.055423f, -0.037908f,
    0.065980f, -0.059519f, 0.032625f, -0.020965f, -0.084725f, -0.089060f, 0.090722f, -0.053158f, 0.074961f, 0.014453f,
    0.049083f, -0.038235f, 0.035668f, 0.080913f, -0.075286f, -0.049247f, -0.029062f, 0.068699f, 0.074817f, 0.022484f,
    0.017809f, 0.017180f, -0.085592f, -0.078403f, -0.068519f, 0.015759f, 0.024920f, -0.005333f, 0.034833f, 0.084918f,
    0.080685f, -0.052498f, -0.091564f, -0.020985f, 0.101429f, -0.019991f, 0.013121f, 0.095928f, 0.046904f, -0.052233f,
    0.081799f, -0.007049f, -0.038344f, 0.036513f, 0.001758f, 0.030039f, 0.052786f, -0.081967f, 0.072277f, -0.054391f,
    -0.100961f, 0.093398f, -0.075420f, -0.048059f, -0.051025f, -0.075162f, 0.075487f, -0.016112f, 0.058007f, -0.084110f,
    -0.095440f, -0.049367f, 0.072921f, -0.066571f, -0.091068f, -0.071209f, 0.046961f, 0.086913f, 0.002604f, -0.047019f,
    -0.063170f, -0.059309f, 0.006696f, -0.008910f, 0.016934f, 0.016413f, -0.065093f, -0.092625f, 0.009003f, -0.077790f,
    -0.082226f, -0.001319f, -0.024489f, -0.003162f, 0.031770f, 0.067899f, -0.047507f, -0.075128f, -0.053829f, -0.028276f,
    -0.066690f, 0.076502f, 0.020761f, -0.041342f, 0.053066f, -0.053648f, -0.092260f, -0.005129f, 0.039421f, -0.037716f,
    -0.062996f, 0.054853f, 0.082068f, 0.005487f, -0.031658f, -0.052516f, -0.081461f, 0.075333f, -0.027478f, 0.096437f,
    -0.099791f, -0.074079f, -0.062345f, 0.011577f, 0.038329f, -0.024830f, -0.059501f, 0.021120f, -0.059660f, -0.001083f,
    -0.044179f, -0.033329f, 0.071933f, -0.021018f, -0.025325f, -0.054392f, -0.094995f, 0.040233f, -0.056211f, 0.027189f,
    -0.050856f, 0.050822f, 0.038117f, -0.024257f, -0.044881f, -0.050491f, -0.068873f, -0.078986f, 0.013061f, -0.054761f,
    -0.002289f, -0.030264f, 0.072717f, 0.002868f, -0.029409f, 0.096616f, -0.076397f, 0.015247f, 0.009053f, -0.010100f,
    -0.019221f, 0.038939f, -0.058700f, 0.029256f, 0.099898f, -0.002271f, -0.082166f, 0.080405f, 0.044736f, 0.073724f,
    -0.071614f, -0.053463f, -0.062563f, 0.060158f, 0.050023f, 0.072820f, 0.097342f, -0.004233f, -0.053206f, 0.045591f,
    -0.088208f, 0.052027f, 0.094427f, -0.080121f, 0.101407f, -0.017530f, 0.036797f, -0.030917f, -0.061037f, -0.070087f,
    0.032871f, 0.061192f, -0.020729f, -0.077631f, -0.054790f, 0.096380f, 0.072694f, -0.019702f, 0.089286f, 0.028828f,
    -0.037046f, 0.040897f, -0.015839f, -0.044424f, 0.064200f, 0.087858f, 0.063597f, 0.028519f, -0.094347f, 0.032791f,
    -0.047391f, 0.088435f, -0.076229f, 0.006635f, -0.012508f, -0.084141f, -0.027157f, 0.075612f, 0.049045f, 0.050071f,
    0.089473f, 0.102034f, -0.015605f, -0.045410f, -0.062516f, 0.034068f, -0.057461f, -0.065804f, -0.020623f, -0.050765f,
    0.052846f, 0.058409f, -0.010511f, -0.060666f, 0.020504f, -0.090556f, -0.014438f, 0.026360f, -0.054686f, -0.029832f,
    0.034812f, 0.002937f, 0.080902f, -0.020690f, -0.101635f, -0.094733f, 0.005674f, -0.075032f, 0.006710f, 0.057805f,
    0.070298f, 0.074993f, -0.041005f, 0.066201f, -0.052103f, 0.029972f, 0.008250f, 0.045055f, 0.045555f, -0.016162f,
    0.057809f, 0.037334f, -0.075207f, -0.022238f, 0.053424f, -0.039680f, 0.034326f, -0.081089f, 0.053492f, 0.011080f,
    -0.038429f, 0.080767f, -0.004058f, 0.003960f, 0.025684f, 0.101204f, -0.068574f, 0.048444f, -0.039040f, -0.013676f,
    -0.079538f, 0.009473f, 0.083504f, -0.032923f, -0.086612f, 0.099161f, 0.060315f, 0.098782f, 0.046005f, -0.071662f,
    -0.032952f, 0.022467f, -0.074635f, -0.024107f, 0.045897f, -0.085046f, 0.083824f, -0.091635f, 0.036537f, 0.074384f,
    0.063106f, 0.025423f, 0.000749f, 0.026313f, -0.072819f, 0.036245f, -0.078200f, -0.100000f, -0.037715f, 0.031696f,
    -0.033343f, -0.076542f, -0.024415f, 0.013934f, -0.055301f, -0.044260f, -0.044459f, -0.012811f, -0.014579f, -0.017636f,
    -0.100069f, 0.004568f, 0.054297f, 0.002823f, 0.091962f, -0.093864f, 0.001722f, 0.099376f, 0.066193f, -0.014539f,
    -0.069511f, -0.092965f, 0.022046f, -0.033048f, 0.101454f, -0.078868f, -0.092693f, -0.066474f, 0.040763f, -0.065237f,
    0.013332f, -0.010702f, -0.023556f, 0.002492f, -0.019219f, 0.077467f, 0.077488f, -0.023296f, -0.054660f, -0.024579f,
    -0.026368f, -0.062637f, 0.084972f, -0.071197f, 0.057425f, 0.093292f, -0.092724f, -0.035526f, -0.074597f, 0.035806f,
    0.014333f, 0.061454f, -0.078661f, -0.049985f, 0.007758f, -0.050218f, 0.038871f, -0.091135f, 0.003282f, -0.076713f,
    -0.000371f, -0.014138f, -0.053392f, 0.081809f, 0.008506f, 0.058723f, 0.065917f, 0.057363f, 0.039947f, 0.065476f,
    -0.080001f, 0.064195f, -0.086223f, 0.000064f, 0.080835f, 0.067466f, -0.013085f, -0.101206f, 0.056980f, -0.066948f,
    0.018305f, -0.086662f, -0.099930f, 0.073695f, -0.036704f, -0.088964f, 0.085673f, 0.081961f, 0.040389f, -0.090528f,
    0.010852f, -0.079995f, 0.075486f, 0.053564f, -0.027189f, 0.003746f, 0.016861f, 0.098009f, 0.029947f, 0.047166f,
    -0.064571f, 0.040082f, 0.020002f, -0.056918f, 0.014639f, -0.085590f, -0.078331f, -0.061250f, 0.036370f, 0.008625f,
    0.087792f, -0.059181f, -0.064474f, 0.049492f, 0.058034f, 0.002416f, -0.083661f, -0.064945f, -0.084018f, -0.082159f,
    0.075624f, -0.058913f, -0.044087f, -0.001598f, -0.025853f, -0.043854f, 0.078328f, 0.040734f, -0.034283f, 0.057191f,
    -0.053712f, -0.090485f, 0.101445f, 0.027822f, 0.062763f, -0.080251f, -0.082303f, -0.101083f, -0.093310f, 0.035969f,
    -0.075572f, -0.010580f, 0.010874f, -0.004934f, -0.056190f, -0.086104f, 0.013656f, 0.006572f, 0.013462f, -0.028744f,
    0.005172f, 0.031562f, 0.069030f, 0.072393f, 0.094812f, 0.042222f, -0.101090f, -0.069679f, -0.028644f, -0.000056f,
    0.033233f, 0.002110f, 0.021598f, 0.055618f, 0.026066f, -0.057984f, -0.050954f, -0.028382f, -0.067944f, 0.021354f,
    0.057517f, 0.074846f, -0.035867f, 0.012302f, 0.099428f, -0.097825f, 0.008072f, -0.059449f, 0.058816f, -0.040204f,
    0.077973f, -0.049014f, 0.088357f, 0.028330f, -0.020721f, 0.035123f, -0.010319f, 0.011482f, 0.016020f, 0.015079f,
    -0.042229f, -0.007316f, 0.056272f, 0.078112f, -0.047106f, 0.085664f, -0.098860f, -0.003380f, -0.043798f, 0.050840f,
    0.074478f, 0.016470f, 0.040267f, -0.017883f, 0.026521f, 0.076751f, -0.047453f, 0.043577f, -0.034447f, -0.063796f,
    0.007393f, -0.058543f, 0.000214f, 0.000382f, -0.046498f, 0.019774f, -0.070166f, -0.041031f, 0.016210f, 0.069816f,
    -0.042305f, -0.091741f, 0.044953f, -0.081251f, -0.098747f, -0.048188f, -0.073239f, 0.079891f, 0.016241f, 0.048794f,
    -0.026107f, -0.057785f, 0.022850f, -0.095733f, 0.044134f, 0.080988f, 0.089678f, -0.027921f, -0.023746f, 0.067955f,
    0.024717f, 0.058498f, 0.008177f, 0.030339f, 0.095870f, 0.068457f, -0.022477f, -0.018652f, 0.091122f, -0.060316f,
    -0.034309f, 0.047388f, -0.067988f, 0.049347f, 0.086905f, -0.094972f, 0.083884f, 0.033473f, 0.015110f, -0.006359f,
    0.093817f, -0.038758f, -0.006959f, -0.047015f, 0.018575f, -0.001445f, 0.074048f, 0.086545f, -0.062671f, -0.082405f,
    -0.021322f, -0.034887f, 0.062383f, 0.055615f, 0.047216f, -0.062466f, -0.061666f, 0.041106f, 0.056967f, -0.073914f,
    0.018171f, 0.014852f, -0.076291f, 0.051940f, -0.067211f, 0.015008f, 0.092055f, -0.010782f, -0.080248f, 0.050490f,
    -0.016276f, 0.034320f, -0.067010f, -0.058429f, -0.024085f, -0.047963f, 0.023902f, 0.005822f, 0.095912f, -0.015576f,
    0.060275f, 0.012662f, -0.019167f, 0.008710f, -0.076407f, -0.030990f, 0.101860f, -0.053895f, 0.041814f, -0.060952f,
    -0.065949f, 0.040769f, -0.097823f, 0.095175f, -0.005542f, 0.053561f, -0.086271f, -0.020878f, 0.064170f, -0.086317f,
    0.041777f, -0.057874f, -0.000395f, -0.024491f, 0.088096f, -0.051011f, 0.013963f, 0.012874f, -0.021973f, 0.001881f,
    -0.094433f, 0.048165f, 0.078435f, -0.053476f, -0.009115f, 0.058849f, 0.038912f, -0.052953f, 0.100869f, 0.064672f,
    -0.000853f, 0.052287f, 0.078803f, 0.095277f, 0.031336f, -0.047324f, -0.019086f, -0.083243f, -0.004420f, -0.079977f,
    -0.002379f, 0.016477f, 0.059373f, 0.083420f, -0.092446f, -0.055509f, -0.002741f, -0.101663f, -0.082467f, -0.033871f,
    0.015520f, -0.044473f, 0.034568f, -0.097193f, 0.069000f, -0.082546f, 0.062118f, -0.086463f, -0.031989f, 0.057103f,
    0.091379f, -0.025344f, 0.075508f, -0.099305f, -0.067725f, -0.091040f, 0.041058f, 0.020161f, -0.064932f, 0.000234f,
    -0.058849f, 0.097546f, 0.088632f, 0.084780f, 0.049010f, 0.043806f, -0.047352f, 0.018627f, 0.054681f, 0.073996f,
    0.008376f, 0.073982f, -0.009902f, -0.053286f, 0.076757f, 0.038204f, -0.039497f, 0.092679f, -0.092021f, 0.064225f,
    0.063954f, -0.093044f, -0.057298f, 0.011675f, 0.013798f, -0.054204f, -0.074361f, -0.041672f, -0.012322f, -0.082681f,
    -0.044193f, -0.012399f, -0.043536f, 0.022230f, 0.098868f, 0.061247f, -0.077648f, -0.085311f, -0.097473f, -0.021368f,
    -0.034115f, 0.023324f, -0.079845f, 0.020841f, -0.069154f, -0.025851f, -0.039752f, 0.006295f, 0.098885f, 0.035733f,
    0.057524f, 0.013952f, -0.064631f, -0.050742f, 0.069319f, 0.067828f, -0.039449f, 0.015331f, -0.041674f, 0.019182f,
    -0.013950f, 0.064983f, 0.033517f, -0.023369f, -0.063389f, -0.021445f, -0.073006f, 0.071544f, -0.006756f, -0.057154f,
    -0.080490f, 0.057279f, -0.059799f, 0.048070f, 0.005952f, -0.095558f, 0.001719f, -0.044766f, 0.017928f, -0.077639f,
    0.007051f, 0.023232f, 0.036596f, 0.046126f, 0.089322f, 0.082568f, 0.079181f, -0.062076f, -0.026273f, 0.010888f,
    0.061959f, 0.001617f, 0.048628f, 0.012977f, 0.057234f, -0.072970f, -0.003754f, 0.071715f, -0.010784f, 0.035171f,
    -0.014616f, -0.075534f, -0.070790f, 0.063590f, -0.091848f, 0.069699f, -0.006969f, 0.032953f, 0.093368f, -0.073172f,
    0.058405f, -0.083693f, -0.072003f, 0.009264f, 0.023620f, -0.066530f, 0.008959f, 0.100322f, -0.090127f, 0.083922f,
    0.010033f, -0.099123f, 0.082949f, 0.091712f, -0.085718f, 0.018846f, 0.088241f, 0.035303f, 0.068113f, 0.033752f,
    -0.026381f, -0.097178f, -0.089756f, 0.048320f, -0.049564f, -0.009481f, 0.005286f, 0.070536f, -0.056365f, -0.014375f,
    -0.028746f, -0.022468f, 0.054281f, 0.014806f, 0.003060f, -0.092303f, -0.017963f, -0.066449f, -0.098329f, -0.061561f,
    0.098353f, 0.058197f, 0.016754f, 0.058445f, 0.084234f, -0.099350f, -0.079510f, 0.029429f, -0.013975f, -0.058321f,
    -0.079012f, 0.048322f, 0.088999f, -0.038752f, 0.001411f, -0.029761f, -0.079742f, -0.035676f, 0.025595f, -0.001960f,
    -0.032618f, 0.055146f, 0.058542f, 0.064814f, 0.094642f, 0.017364f, 0.004934f, 0.015441f, 0.062500f, 0.090991f,
    0.089251f, 0.062667f, 0.043372f, -0.073071f, 0.023984f, 0.021566f, 0.032325f, 0.078506f, -0.087043f, -0.052400f,
    0.027910f, 0.053085f, -0.086067f, -0.050261f, 0.017740f, -0.007486f, -0.003241f, 0.004794f, 0.077297f, -0.028957f,
    0.096839f, 0.081135f, 0.018122f, 0.046298f, 0.078639f, 0.069328f, -0.020702f, -0.026481f, -0.049895f, -0.010922f,
    -0.087486f, -0.081994f, 0.066608f, -0.036115f, 0.059589f, -0.019629f, -0.071431f, 0.059079f, -0.048086f, 0.087188f,
    -0.046987f, 0.093824f, -0.054913f, 0.078499f, -0.053305f, 0.072914f, -0.006857f, 0.026591f, 0.091238f, -0.007736f,
    0.079386f, -0.028545f, 0.027923f, -0.083104f, 0.090784f, 0.018406f, 0.074914f, 0.070410f, -0.025947f, -0.076575f,
    -0.098097f, -0.016792f, 0.006397f, -0.046839f, 0.076715f, -0.079330f, -0.060130f, 0.065567f, 0.054650f, -0.034086f,
    0.091840f, 0.039757f, -0.100234f, -0.008350f, 0.057366f, -0.019438f, 0.097329f, 0.030410f, 0.042622f, -0.021832f,
    0.058674f, 0.037209f, 0.067369f, -0.067460f, 0.071256f, 0.021765f, -0.085973f, -0.041815f, 0.091972f, -0.032527f,
    0.012093f, 0.047078f, -0.100396f, -0.092933f, 0.101051f, -0.005829f, 0.033666f, -0.028499f, 0.013150f, -0.004673f,
    0.027986f, -0.027866f, 0.064302f, 0.046574f, -0.004946f, 0.038324f, 0.099540f, 0.099075f, -0.091641f, 0.098291f,
    0.056410f, 0.087485f, 0.086529f, 0.094700f, 0.036365f, 0.094467f, 0.062115f, -0.064582f, -0.056278f, -0.047665f,
    -0.089689f, 0.059089f, 0.069568f, -0.002430f, 0.068485f, 0.062533f, -0.007389f, 0.101053f, 0.054369f, -0.051722f,
    0.023236f, -0.076068f, 0.075315f, -0.071764f, 0.096958f, 0.023558f, 0.065190f, -0.037324f, 0.061606f, 0.017732f,
    -0.028984f, 0.052435f, -0.065315f, 0.025694f, -0.047172f, 0.087306f, -0.070315f, 0.084785f, 0.047867f, -0.062381f,
    -0.070448f, 0.090214f, 0.018731f, -0.052406f, -0.087087f, -0.068647f, 0.048310f, -0.092121f, -0.013848f, -0.060206f,
    -0.000918f, -0.063521f, -0.027294f, -0.098082f, 0.045682f, -0.029590f, 0.025414f, 0.014531f, 0.023569f, 0.011317f,
    -0.072867f, 0.053727f, 0.081493f, 0.001931f, 0.046179f, 0.081224f, -0.094047f, -0.065056f, -0.008484f, -0.058152f,
    -0.022478f, 0.064212f, 0.006373f, -0.047016f, 0.049093f, 0.027067f, -0.027912f, -0.030886f, -0.069015f, 0.093974f,
    0.039655f, 0.051805f, 0.050889f, 0.088239f, 0.025708f, -0.027053f, -0.037374f, 0.016322f, -0.064167f, -0.042389f,
    0.040943f, 0.032626f, -0.065780f, 0.040569f, -0.016640f, 0.081923f, 0.005130f, 0.082430f, 0.098874f, -0.100854f,
    -0.065238f, 0.087407f, 0.084003f, 0.034263f, -0.004359f, -0.089921f, 0.008557f, -0.006589f, -0.094044f, 0.049912f,
    -0.001261f, -0.030640f, -0.072404f, 0.058928f, -0.035355f, 0.031438f, -0.040081f, -0.002324f, 0.010319f, 0.082792f,
    0.047606f, -0.065281f, 0.071602f, -0.024345f, -0.006737f, -0.049461f, -0.097000f, 0.079867f, 0.037027f, 0.076739f,
    0.079119f, 0.082415f, -0.028589f, 0.046694f, -0.011789f, -0.016275f, 0.070119f, -0.008667f, -0.094820f, -0.009123f,
    -0.028959f, 0.079179f, 0.041657f, 0.065430f, -0.038981f, -0.041633f, 0.005169f, 0.006033f, -0.030341f, -0.011263f,
    0.030862f, 0.044262f, 0.037300f, -0.034580f, -0.007217f, 0.021978f, -0.032264f, 0.065732f, 0.026333f, 0.086292f,
    0.093970f, -0.013476f, -0.009156f, -0.015376f, 0.037800f, -0.042340f, -0.023471f, -0.046828f, -0.058063f, -0.053840f,
    0.081423f, -0.098772f, 0.048114f, -0.020293f, 0.006731f, 0.090515f, -0.095957f, -0.066945f, -0.061362f, 0.008520f,
    0.082500f, 0.033268f, 0.075804f, 0.019418f, -0.000015f, -0.004649f, -0.053232f, 0.075449f, 0.082685f, 0.070612f,
    -0.026659f, -0.032213f, -0.094691f, -0.044068f, 0.009785f, 0.022522f, 0.000742f, 0.044174f, 0.054381f, -0.024725f,
    0.086101f, 0.039455f, 0.092494f, -0.034176f, 0.083653f, 0.021721f, 0.034180f, 0.068288f, -0.019387f, 0.067585f,
    -0.006587f, 0.056100f, 0.068960f, -0.042354f, -0.041841f, -0.073407f, -0.080497f, -0.093762f, -0.008755f, -0.076655f,
    0.017940f, 0.090213f, 0.081743f, 0.097799f, 0.009622f, -0.092841f, -0.042571f, -0.041253f, 0.002108f, -0.036080f,
    -0.004125f, -0.092592f, -0.041875f, 0.072856f, 0.086445f, 0.005960f, -0.025270f, -0.052302f, 0.006663f, -0.041376f,
    -0.030981f, 0.070747f, -0.048907f, -0.065122f, -0.046970f, 0.075614f, -0.040197f, -0.065680f, 0.019873f, -0.005805f,
    0.003432f, -0.067358f, 0.042705f, -0.018958f, 0.063559f, 0.016370f, -0.064370f, -0.030606f, -0.066277f, -0.026164f,
    -0.010803f, 0.094048f, 0.075944f, -0.025549f, -0.053651f, 0.080991f, -0.082700f, 0.079889f, 0.007332f, -0.070132f,
    -0.063386f, -0.065932f, -0.021052f, -0.083901f, 0.094926f, -0.022390f, 0.061769f, -0.023717f, -0.081214f, -0.053320f,
    0.008461f, 0.047466f, -0.026149f, -0.026395f, 0.057773f, 0.036576f, 0.092655f, -0.078410f, -0.042273f, 0.031903f,
    0.020776f, 0.043604f, -0.027989f, -0.070785f, -0.054145f, -0.032686f, 0.048451f, -0.069791f, 0.048831f, 0.091548f,
    0.005705f, 0.086334f, 0.057244f, 0.052966f, -0.072609f, 0.090445f, 0.011626f, -0.065343f, 0.020913f, 0.042106f,
    -0.087678f, -0.069759f, 0.032701f, -0.071124f, -0.081267f, -0.097735f, 0.017579f, -0.078800f, 0.059489f, -0.033762f,
    0.019186f, -0.019219f, -0.061097f, -0.043449f, -0.013077f, 0.022458f, 0.087314f, 0.086064f, 0.083164f, 0.009557f,
    -0.017670f, 0.000059f, 0.009496f, 0.046035f, 0.088101f, 0.094267f, 0.012624f, 0.056293f, -0.053368f, -0.069438f,
    0.065100f, 0.099131f, -0.098582f, -0.022261f, 0.026159f, 0.031583f, 0.010526f, -0.017429f, -0.040277f, -0.098640f,
    -0.096100f, -0.000759f, 0.090174f, -0.094684f, -0.036627f, 0.027485f, -0.098179f, 0.048285f, 0.009405f, -0.091666f,
    -0.079490f, 0.035302f, -0.021055f, 0.060728f, -0.055497f, 0.098363f, 0.003162f, -0.089509f, 0.006797f, -0.053372f,
    0.046139f, 0.000940f, 0.000237f, 0.002330f, 0.080385f, 0.035185f, 0.054657f, -0.027441f, -0.048338f, -0.094996f,
    -0.023008f, 0.100126f, 0.014606f, -0.065039f, 0.023941f, -0.030839f, -0.065700f, 0.036107f, -0.099358f, -0.039085f,
    -0.043110f, -0.057773f, -0.077528f, -0.011788f, -0.053705f, 0.016732f, -0.017899f, -0.044205f, -0.075292f, 0.098048f,
    0.074677f, -0.097829f, -0.014471f, -0.045900f, 0.013506f, -0.043485f, -0.097810f, 0.091505f, 0.031798f, 0.014250f,
    0.092741f, -0.098174f, 0.006147f, -0.031684f, 0.087095f, 0.037758f, -0.075180f, -0.017716f, -0.094085f, -0.091619f,
    0.058369f, -0.098593f, -0.022977f, 0.011643f, -0.092787f, 0.083998f, 0.065771f, -0.069991f, 0.013808f, -0.013426f,
    0.018437f, 0.052112f, 0.078791f, 0.033186f, 0.059178f, -0.041042f, -0.086731f, -0.073630f, 0.094256f, -0.020572f,
    -0.019037f, 0.029232f, -0.059975f, -0.074130f, 0.010029f, 0.004895f, 0.087517f, 0.074290f, 0.100748f, -0.011397f,
    0.086169f, 0.022207f, 0.056172f, -0.017338f, 0.052618f, 0.078367f, -0.100981f, 0.075304f, 0.074660f, -0.007632f,
    -0.100071f, -0.067590f, -0.099755f, -0.009860f, -0.066648f, -0.004786f, 0.093025f, 0.021484f, -0.060889f, 0.085338f,
    -0.066568f, 0.051946f, 0.076550f, 0.084407f, 0.009744f, -0.072072f, -0.019013f, 0.097708f, -0.009264f, -0.067550f,
    -0.078734f, -0.023745f, 0.042121f, -0.059311f, 0.039560f, -0.082328f, 0.014629f, -0.019512f, -0.040093f, 0.046927f,
    0.067886f, 0.085843f, 0.052629f, 0.062002f, -0.022587f, -0.060740f, -0.049406f, 0.073925f, -0.009590f, 0.067375f,
    -0.055212f, -0.048399f, 0.072732f, 0.094491f, -0.071523f, -0.037816f, -0.035721f, -0.025468f, -0.007274f, 0.084028f,
    -0.054576f, 0.098357f, 0.011620f, 0.029923f, -0.016256f, -0.012957f, 0.087594f, -0.081821f, -0.055629f, 0.023032f,
    -0.038478f, -0.018194f, 0.014202f, 0.039327f, -0.059086f, -0.083249f, 0.008777f, 0.073707f, 0.023073f, -0.049431f,
    0.096155f, -0.082648f, -0.047967f, -0.057286f, 0.003873f, 0.007130f, -0.053177f, -0.098667f, -0.090325f, 0.061604f,
    0.057593f, 0.101331f, -0.027928f, 0.057304f, -0.015420f, -0.030581f, -0.050985f, 0.094417f, 0.032947f, 0.047155f,
    0.010338f, -0.088625f, -0.029402f, -0.059455f, -0.060529f, -0.005053f, -0.077947f, -0.098109f, -0.029406f, -0.085621f,
    0.039015f, 0.053855f, 0.034733f, -0.012281f, -0.018250f, -0.000028f, 0.066284f, 0.031762f, -0.048563f, 0.064010f,
    -0.017554f, -0.035264f, -0.061619f, 0.088317f, 0.084502f, 0.058992f, -0.089766f, 0.099679f, -0.073014f, 0.062724f,
    -0.096050f, -0.072064f, -0.037824f, 0.042095f, -0.043485f, 0.082954f, -0.069839f, -0.011636f, -0.066701f, 0.100568f,
    -0.006806f, -0.088262f, 0.043736f, -0.046793f, 0.043827f, 0.022679f, 0.050060f, 0.071827f, 0.015137f, 0.008242f,
    -0.088854f, 0.002489f, 0.034411f, 0.084221f, 0.076843f, -0.007952f, 0.031759f, -0.023841f, -0.094566f, 0.025401f,
    -0.006362f, -0.025115f, 0.010023f, 0.012423f, -0.016898f, -0.067380f, -0.098038f, -0.048281f, -0.024302f, 0.025476f,
    -0.034566f, -0.056915f, -0.068215f, 0.089705f, 0.038474f, 0.009333f, 0.010187f, -0.000095f, -0.016986f, -0.025096f,
    -0.101999f, 0.038083f, -0.015856f, 0.021550f, -0.016215f, -0.037146f, -0.023053f, 0.010813f, -0.024606f, -0.046468f,
    0.063530f, 0.063791f, 0.081650f, -0.071329f, -0.015855f, -0.074972f, 0.033954f, 0.089950f, -0.065555f, 0.080686f,
    0.034839f, 0.100282f, -0.096858f, 0.008769f, -0.073179f, -0.064474f, 0.046268f, 0.070705f, -0.028608f, 0.026337f,
    -0.064215f, 0.081507f, -0.002531f, 0.091054f, 0.033692f, -0.002601f, 0.074466f, 0.043430f, 0.059592f, 0.070383f,
    -0.078063f, 0.008206f, 0.024570f, -0.054977f, 0.084122f, 0.075488f, -0.043325f, 0.064594f, -0.001102f, 0.080018f,
    0.056327f, -0.011652f, 0.048024f, 0.091839f, -0.039466f, 0.067893f, 0.008847f, 0.087637f, -0.023018f, 0.080219f,
    0.097687f, 0.046761f, 0.011750f, 0.066294f, 0.074997f, 0.021295f, 0.095474f, -0.090766f, 0.048718f, 0.014524f,
    0.050895f, -0.100313f, 0.097929f, -0.031646f, 0.031499f, -0.095699f, 0.079823f, -0.044007f, -0.075544f, -0.058513f,
    0.000879f, 0.019299f, -0.098728f, -0.003923f, 0.056963f, -0.091952f, 0.086418f, 0.087984f, 0.032377f, 0.054999f,
    0.039664f, 0.019410f, 0.058847f, 0.039323f, 0.073445f, 0.011465f, 0.090084f, 0.101484f, -0.069146f, 0.033923f,
    0.092414f, -0.081576f, -0.003872f, 0.088103f, -0.085889f, -0.047831f, -0.079147f, -0.056113f, -0.062342f, -0.094752f,
    0.086022f, 0.075612f, -0.091048f, 0.072306f, 0.063155f, -0.066097f, 0.045493f, 0.048034f, -0.024726f, 0.096936f,
    -0.046795f, 0.033986f, 0.010945f, 0.033544f, 0.031448f, -0.018513f, 0.053973f, -0.031243f, 0.063063f, 0.096037f,
    -0.059593f, -0.034868f, 0.087318f, 0.031459f, -0.092143f, 0.101930f, 0.075228f, 0.010740f, -0.073896f, 0.034751f,
    0.012536f, 0.042454f, -0.003852f, 0.042198f, -0.022525f, -0.016076f, -0.016938f, 0.024549f, 0.073537f, 0.074161f,
    0.057088f, -0.032686f, 0.058309f, 0.067916f, -0.011117f, -0.069799f, -0.001632f, -0.013309f, 0.062476f, 0.100378f,
    0.069700f, 0.002341f, 0.003392f, 0.079535f, -0.057788f, -0.066356f, 0.017993f, 0.082189f, -0.087725f, -0.087913f,
    0.032022f, 0.054697f, 0.019666f, 0.081450f, 0.034300f, 0.016319f, -0.034918f, 0.052083f, -0.070468f, -0.050645f,
    0.091052f, -0.067104f, 0.018825f, 0.005805f, -0.005958f, 0.022799f, -0.087853f, 0.047511f, -0.016610f, 0.052557f,
    0.087119f, 0.020290f, 0.053961f, -0.098534f, -0.101217f, 0.085724f, -0.088108f, 0.073219f, -0.027774f, 0.008536f,
    0.033162f, 0.015487f, -0.026019f, 0.089389f, 0.095351f, 0.027623f, 0.071199f, 0.064834f, -0.002570f, -0.052855f,
    -0.037055f, -0.096256f, -0.023522f, 0.075058f, -0.021009f, -0.058893f, 0.025033f, -0.095074f, -0.076400f, -0.000561f,
    0.075671f, 0.003441f, 0.020965f, -0.075799f, 0.052868f, -0.089325f, 0.095460f, 0.061258f, 0.087639f, -0.014777f,
    -0.089041f, -0.076407f, -0.051946f, 0.002911f, -0.098529f, -0.093312f, 0.017562f, 0.008418f, 0.078967f, -0.026765f,
    0.036906f, 0.076611f, -0.075466f, 0.055377f, 0.029171f, -0.060596f, -0.037894f, -0.083519f, 0.046811f, 0.063784f,
    0.050146f, 0.060098f, -0.049380f, 0.101292f, 0.087960f, 0.014254f, -0.061975f, -0.024489f, -0.052110f, -0.086159f,
    -0.064436f, -0.034702f, 0.062024f, -0.048209f, 0.063406f, -0.101282f, -0.046064f, -0.002619f, -0.038503f, -0.056728f,
    -0.095989f, -0.074373f, 0.041656f, -0.069592f, -0.022091f, 0.008457f, -0.045305f, -0.091657f, -0.054019f, -0.038168f,
    -0.063510f, -0.090687f, -0.004071f, 0.039976f, -0.099526f, 0.018790f, -0.063055f, -0.037096f, 0.015421f, -0.044189f,
    -0.012776f, 0.075206f, -0.037723f, 0.006957f, 0.034002f, 0.009790f, -0.021693f, -0.016290f, 0.097289f, -0.003588f,
    0.065708f, 0.030298f, 0.050641f, -0.020525f, 0.049793f, 0.010025f, -0.074130f, -0.099385f, 0.034915f, -0.073903f,
    -0.081923f, 0.052265f, 0.076035f, 0.041150f, -0.007436f, 0.035689f, -0.060937f, -0.063273f, 0.092077f, 0.027455f,
    -0.031121f, -0.016521f, -0.052907f, 0.086575f, 0.041192f, -0.031532f, -0.038901f, -0.083477f, -0.029062f, 0.016295f,
    0.094771f, -0.042475f, -0.049989f, 0.083038f, -0.020633f, 0.027932f, -0.033354f, 0.059825f, -0.005623f, -0.069164f,
    0.041969f, -0.047579f, 0.046547f, -0.089593f, -0.093000f, 0.032779f, 0.102050f, -0.056579f, -0.078140f, -0.002240f,
    -0.072157f, -0.087323f, -0.035172f, -0.057510f, 0.048379f, -0.098159f, -0.068182f, 0.062708f, 0.053569f, 0.096760f,
    -0.089004f, 0.024280f, 0.012061f, 0.073463f, -0.013487f, -0.039832f, 0.075898f, 0.041521f, 0.010648f, 0.063261f,
    0.013621f, -0.040074f, 0.022874f, 0.090706f, -0.057200f, 0.019773f, 0.006689f, 0.027750f, -0.055782f, -0.071018f,
    -0.016425f, -0.077686f, -0.092494f, 0.070603f, -0.079227f, -0.015338f, 0.084537f, 0.038947f, 0.066402f, 0.084878f,
    0.039141f, -0.021741f, -0.057073f, 0.005526f, 0.020593f, -0.075497f, 0.101779f, -0.061751f, 0.089276f, -0.069139f,
    -0.092618f, 0.024742f, 0.025466f, -0.068598f, 0.003100f, 0.098314f, 0.017530f, -0.068475f, 0.019241f, -0.101594f,
    -0.018276f, 0.000785f, 0.096121f, -0.067241f, 0.080951f, -0.051438f, -0.020564f, 0.093363f, -0.006260f, 0.016942f,
    0.077706f, 0.086751f, 0.090270f, -0.048610f, -0.031828f, 0.048895f, -0.040959f, -0.044222f, 0.003037f, -0.057885f,
    0.081044f, -0.050768f, -0.082365f, 0.050820f, 0.068132f, 0.041989f, -0.027923f, -0.034079f, 0.098793f, -0.000883f,
    -0.078479f, 0.069436f, 0.088017f, -0.081390f, -0.100474f, -0.093866f, 0.035088f, -0.049465f, 0.005994f, 0.083529f,
    -0.030380f, 0.069543f, 0.046032f, -0.047403f, 0.093792f, 0.038279f, 0.025603f, 0.044583f, 0.002456f, 0.058490f,
    -0.057516f, 0.021542f, -0.097639f, -0.091070f, 0.052320f, 0.047501f, -0.033873f, 0.082635f, -0.061510f, -0.052537f,
    0.008376f, 0.028507f, -0.085977f, 0.042648f, 0.065018f, -0.026514f, 0.070901f, 0.032382f, 0.024391f, -0.090989f,
    0.094022f, 0.071742f, -0.097637f, -0.057337f, -0.031910f, -0.055483f, -0.072424f, 0.019100f, 0.019495f, -0.055393f,
    -0.028348f, 0.079780f, -0.005339f, 0.005232f, 0.072228f, 0.091530f, -0.069766f, 0.006412f, 0.095671f, -0.072415f,
    -0.020206f, 0.033622f, 0.082908f, 0.087959f, -0.079612f, -0.009623f, 0.079134f, 0.057527f, 0.092336f, -0.016702f,
    -0.057136f, -0.064162f, -0.001855f, -0.024306f, -0.010100f, -0.081839f, -0.012955f, -0.010984f, -0.006523f, -0.090474f,
    0.041751f, 0.081323f, -0.071801f, -0.049234f, 0.005813f, 0.004693f, -0.059642f, -0.090249f, 0.067022f, 0.057350f,
    -0.090549f, 0.071947f, 0.072772f, -0.101025f, 0.055630f, -0.098804f, 0.071508f, 0.014585f, -0.060656f, -0.080434f,
    -0.000976f, -0.096611f, 0.013132f, 0.051521f, 0.005024f, 0.092661f, -0.089524f, -0.068037f, -0.068929f, -0.056935f,
    -0.079075f, -0.078141f, 0.036373f, 0.001041f, 0.052149f, 0.089393f, 0.055905f, -0.030755f, 0.046572f, 0.019943f,
    -0.064366f, -0.091393f, 0.070462f, 0.017313f, 0.036029f, 0.084553f, 0.057403f, -0.053321f, 0.076302f, 0.093156f,
    -0.036364f, 0.091983f, -0.072851f, -0.065665f, -0.066433f, 0.091882f, -0.057436f, 0.068604f, -0.051280f, -0.041794f,
    -0.088757f, 0.003367f, 0.053635f, 0.040024f, 0.057759f, -0.062024f, -0.046884f, 0.084705f, 0.049762f, -0.060757f,
    0.101751f, -0.041429f, 0.053814f, 0.077861f, 0.032481f, 0.076252f, 0.020315f, -0.043148f, 0.076730f, -0.065464f,
    0.036839f, 0.089812f, 0.044756f, 0.054261f, -0.099364f, -0.080826f, -0.046848f, 0.030771f, 0.055349f, 0.034767f,
    -0.025583f, -0.069586f, 0.069899f, 0.079028f, 0.015843f, -0.085716f, 0.014337f, -0.036139f, -0.033733f, -0.086236f,
    -0.098437f, -0.086664f, 0.087773f, 0.046324f, 0.085914f, -0.058995f, -0.089541f, 0.035709f, -0.086450f, -0.066976f,
    -0.058868f, 0.081424f, -0.056069f, 0.022044f, -0.074155f, -0.063516f, 0.025637f, 0.094640f, -0.057320f, -0.046516f,
    0.066044f, 0.013696f, 0.085319f, -0.080261f, 0.077642f, -0.002910f, -0.018643f, -0.049610f, 0.100336f, -0.037707f,
    0.070711f, 0.035657f, -0.060625f, -0.059498f, -0.071493f, -0.077510f, -0.097701f, 0.016233f, -0.010522f, -0.055454f,
    -0.008210f, 0.076388f, -0.083676f, 0.094284f, -0.062538f, 0.099649f, 0.035243f, -0.061436f, -0.028246f, -0.023410f,
    -0.052155f, 0.018011f, 0.088152f, -0.066081f, 0.045742f, -0.051993f, 0.037302f, -0.030278f, -0.088169f, -0.015895f,
    -0.019057f, 0.017531f, -0.001785f, -0.100390f, -0.082815f, -0.014665f, 0.087769f, -0.083788f, 0.022925f, 0.063607f,
    -0.006217f, 0.011793f, 0.068749f, 0.046915f, -0.029931f, 0.068010f, -0.037777f, 0.036503f, -0.091736f, -0.100623f,
    -0.090362f, 0.014238f, 0.080428f, 0.055753f, 0.019477f, -0.014666f, 0.082818f, 0.005577f, 0.060658f, 0.072701f,
    0.006172f, 0.002999f, 0.049751f, -0.045888f, -0.063545f, 0.010042f, 0.071815f, 0.070763f, 0.084641f, 0.053323f,
    0.010494f, 0.061252f, -0.046290f, 0.084043f, 0.014186f, 0.021515f, -0.053829f, -0.015198f, -0.033488f, 0.087118f,
    -0.004234f, -0.047363f, -0.026629f, -0.057337f, 0.068593f, -0.098124f, 0.034434f, 0.038793f, -0.099126f, -0.029942f,
    -0.098295f, 0.085639f, -0.060847f, -0.044094f, 0.052027f, -0.038499f, -0.086131f, -0.012364f, 0.095456f, 0.075431f,
    0.089936f, -0.018248f, -0.033222f, 0.093952f, -0.023891f, -0.080899f, 0.010111f, -0.035884f, 0.054161f, -0.038207f,
    0.026394f, -0.085961f, 0.018552f, 0.068358f, -0.075309f, 0.069110f, 0.036723f, -0.036684f, -0.053490f, 0.005363f,
    -0.026087f, -0.031832f, 0.022759f, -0.002222f, -0.050570f, -0.034632f, 0.050792f, 0.007164f, -0.082103f, -0.017974f,
    -0.039908f, 0.031096f, -0.003563f, -0.089715f, 0.045953f, -0.064510f, -0.021868f, -0.015766f, -0.008371f, 0.031154f,
    -0.039172f, -0.004106f, 0.096398f, 0.013772f, -0.007064f, -0.026275f, 0.061127f, -0.027061f, -0.027770f, 0.101662f,
    -0.020821f, 0.076808f, 0.061417f, -0.007494f, 0.045259f, 0.085755f, -0.080519f, 0.003710f, -0.023048f, -0.099436f,
    0.030779f, 0.099933f, 0.082134f, 0.033931f, -0.094754f, -0.088833f, -0.053091f, 0.018733f, 0.075683f, 0.099428f,
    -0.010789f, -0.038212f, 0.088746f, -0.051763f, 0.068553f, -0.089645f, 0.007793f, -0.039323f, 0.014330f, -0.012708f,
    -0.035511f, -0.003853f, 0.076388f, 0.068790f, 0.076942f, 0.047532f, 0.058602f, -0.058803f, -0.000909f, -0.071988f,
    0.019012f, -0.043287f, -0.039065f, 0.090876f, -0.072559f, 0.100460f, -0.078132f, -0.010182f, -0.026873f, 0.062885f,
    -0.060171f, 0.009534f, -0.057061f, -0.083504f, 0.077578f, 0.042556f, -0.078375f, 0.016098f, 0.082406f, 0.028329f,
    -0.039023f, 0.021517f, 0.011395f, -0.077356f, -0.086311f, -0.067903f, -0.028368f, 0.084044f, -0.086063f, -0.010092f,
    -0.032884f, -0.023974f, -0.032735f, -0.049776f, -0.023658f, 0.078488f, -0.010107f, -0.098317f, -0.050219f, 0.041436f,
    0.007235f, -0.049249f, 0.047876f, -0.031089f, 0.074400f, -0.097441f, 0.074627f, 0.068597f, 0.004567f, -0.063690f,
    -0.081920f, 0.002717f, -0.096663f, 0.028519f, 0.062194f, 0.070210f, -0.024372f, 0.046247f, 0.028590f, 0.022324f,
    0.094807f, -0.048466f, 0.015691f, -0.093618f, -0.091253f, -0.009663f, -0.035445f, -0.097601f, -0.020887f, -0.080651f,
    0.073772f, 0.036272f, 0.002150f, -0.042194f, 0.049227f, 0.093951f, -0.028066f, -0.102045f, 0.022868f, -0.079714f,
    -0.032147f, -0.076905f, 0.034029f, 0.009045f, 0.038225f, 0.099121f, -0.086066f, -0.060000f, -0.066441f, 0.045775f,
    -0.099831f, 0.050273f, -0.006093f, -0.087775f, 0.040697f, -0.097971f, -0.091310f, -0.004649f, -0.087250f, -0.020119f,
    -0.047752f, -0.050252f, 0.083520f, -0.083704f, -0.068294f, 0.096449f, -0.074057f, -0.070196f, -0.048335f, -0.029728f,
    0.057950f, -0.077081f, -0.063676f, 0.040150f, -0.041880f, -0.012548f, -0.083325f, 0.025694f, -0.094927f, -0.031475f,
    0.058842f, -0.076455f, 0.043887f, 0.099263f, 0.035414f, 0.030141f, -0.059467f, -0.004583f, 0.064309f, -0.063129f,
    -0.046455f, -0.015561f, -0.100423f, 0.076737f, 0.055521f, -0.058217f, 0.009871f, 0.093791f, 0.037780f, 0.087763f,
    0.067898f, -0.029417f, -0.078043f, -0.059655f, 0.023501f, -0.049777f, -0.010312f, 0.095356f, -0.098865f, 0.032628f,
    -0.048630f, -0.092380f, -0.030842f, -0.066392f, 0.036712f, -0.081800f, 0.094143f, 0.007092f, 0.014645f, -0.029606f,
    0.062857f, 0.030346f, -0.093818f, 0.093505f, -0.010828f, 0.044791f, -0.049128f, 0.046583f, -0.024822f, -0.070027f,
    0.023760f, 0.001581f, -0.013972f, -0.009679f, -0.056313f, -0.085838f, 0.027191f, 0.073699f, 0.008773f, 0.027721f,
    -0.066168f, -0.048109f, 0.082325f, 0.042559f, 0.010511f, -0.063662f, 0.023562f, 0.011049f, 0.055096f, 0.028477f,
    -0.012117f, 0.076485f, -0.084286f, 0.059627f, 0.037766f, 0.095088f, 0.056633f, 0.079190f, -0.016753f, 0.092800f,
    0.047583f, -0.091593f, -0.098120f, -0.077086f, 0.053272f, -0.079913f, 0.091595f, 0.060570f, -0.096397f, -0.047777f,
    0.082576f, 0.087906f, -0.015962f, 0.029462f, -0.057917f, 0.086375f, 0.081932f, 0.014394f, 0.045985f, 0.068516f,
    0.006181f, -0.023031f, -0.068255f, -0.019416f, 0.074106f, -0.041627f, 0.036489f, -0.065632f, -0.013522f, 0.009071f,
    -0.079512f, 0.000271f, 0.068781f, 0.101228f, -0.018500f, -0.023942f, 0.040618f, -0.024521f, -0.091391f, 0.021843f,
    0.082264f, -0.094096f, -0.053134f, 0.004242f, 0.049097f, -0.092943f, -0.100853f, -0.084016f, 0.067737f, -0.095228f,
    0.100138f, -0.050293f, 0.017561f, -0.025072f, -0.028832f, 0.040948f, 0.083970f, 0.030866f, 0.009547f, -0.012022f,
    0.062107f, 0.034218f, 0.041303f, 0.074535f, -0.018945f, -0.100080f, -0.057489f, -0.000054f, -0.013889f, -0.042974f,
    -0.074892f, 0.002499f, 0.090087f, -0.015538f, -0.026574f, 0.012807f, -0.052216f, 0.027897f, -0.002736f, 0.024042f,
    -0.082599f, -0.057508f, -0.100133f, -0.056619f, -0.069248f, 0.077445f, 0.026586f, -0.076658f, -0.032530f, 0.084932f,
    -0.083217f, 0.026095f, -0.039200f, 0.085526f, -0.031640f, -0.094721f, -0.070575f, 0.078459f, 0.052996f, 0.075842f,
    0.006488f, -0.042702f, -0.038145f, 0.062590f, -0.067121f, 0.087361f, 0.036940f, 0.101983f, 0.091885f, -0.029823f,
    -0.023898f, -0.070677f, -0.004486f, -0.056024f, 0.043024f, -0.039729f, -0.029126f, -0.050978f, 0.084732f, 0.001390f,
    0.074071f, 0.003161f, -0.011871f, -0.060637f, -0.037339f, 0.082500f, 0.089366f, -0.086149f, 0.080952f, 0.088428f,
    0.100063f, 0.066543f, 0.063435f, -0.016151f, -0.039694f, 0.045144f, -0.027566f, 0.053215f, 0.062999f, -0.043581f,
    0.022898f, 0.079255f, -0.096568f, -0.087868f, -0.049611f, -0.070873f, 0.012799f, 0.037772f, 0.033701f, -0.014596f,
    0.020978f, -0.096795f, 0.004655f, 0.077147f, -0.014721f, -0.032856f, -0.083195f, -0.021496f, 0.083232f, -0.073094f,
    0.052041f, -0.085491f, 0.086928f, 0.037669f, -0.002665f, 0.056082f, -0.038766f, 0.057393f, -0.092110f, 0.010134f,
    0.052066f, -0.023744f, -0.091367f, 0.094934f, -0.053875f, -0.070740f, -0.010175f, -0.007907f, -0.071411f, 0.041438f,
    0.086131f, 0.070837f, 0.017799f, -0.049386f, 0.029510f, -0.090636f, -0.040794f, 0.082343f, 0.088056f, 0.021970f,
    0.049406f, 0.077036f, -0.050197f, 0.078669f, 0.001206f, -0.007825f, -0.041483f, -0.028768f, 0.067612f, -0.038194f,
    0.052513f, -0.002271f, -0.005194f, -0.024577f, 0.008508f, 0.022318f, -0.036369f, -0.086757f, -0.024741f, 0.011935f,
    -0.051226f, 0.033858f, -0.088138f, -0.055677f, 0.100542f, -0.051376f, 0.064327f, 0.036142f, 0.052687f, -0.096494f,
    0.010490f, 0.037094f, 0.048965f, -0.029808f, 0.092761f, 0.037926f, 0.095494f, -0.088926f, 0.074913f, 0.002518f,
    -0.084315f, -0.049902f, -0.012816f, 0.063242f, 0.077835f, 0.037870f, -0.073355f, 0.088641f, -0.001643f, 0.013211f,
    0.062768f, -0.040285f, 0.076287f, -0.098965f, 0.023839f, 0.081665f, -0.084102f, -0.036193f, 0.033703f, -0.032741f,
    -0.023824f, 0.041256f, -0.004257f, -0.013208f, -0.018886f, 0.025779f, -0.049916f, -0.072120f, 0.099489f, 0.016156f,
    0.020837f, 0.018628f, 0.081571f, -0.006866f, 0.085039f, -0.008206f, -0.043063f, -0.049410f, 0.018118f, 0.076951f,
    -0.087066f, -0.013120f, -0.037667f, -0.004482f, 0.027865f, 0.044012f, 0.016654f, -0.019140f, 0.068494f, 0.039349f,
    0.080098f, -0.022549f, 0.047580f, 0.083553f, -0.087924f, 0.066996f, -0.028119f, -0.043392f, -0.077227f, -0.034000f,
    0.034548f, 0.062741f, -0.014465f, -0.040687f, -0.053961f, -0.007383f, -0.081624f, -0.013968f, -0.101528f, 0.008074f,
    0.001406f, 0.044607f, 0.032030f, -0.095273f, 0.005270f, -0.086393f, -0.075778f, 0.081826f, 0.063802f, 0.054947f,
    0.000537f, 0.091074f, 0.009985f, 0.019137f, 0.083351f, -0.008260f, 0.093081f, -0.101455f, 0.053114f, -0.055803f,
    -0.039560f, 0.067525f, 0.075242f, -0.058158f, -0.034574f, 0.075741f, -0.075172f, 0.028763f, 0.004016f, 0.059952f,
    0.096910f, -0.078739f, -0.081603f, -0.045766f, -0.071241f, -0.011422f, 0.024369f, -0.037379f, 0.010835f, -0.010437f,
    -0.048861f, 0.039667f, -0.048594f, -0.035648f, 0.019655f, -0.007857f, 0.011623f, 0.058630f, -0.034448f, 0.090839f,
    -0.020660f, -0.062675f, -0.040694f, 0.070489f, 0.031732f, 0.006864f, 0.058275f, -0.037709f, 0.028375f, -0.030507f,
    -0.006688f, 0.021801f, -0.016625f, 0.036718f, 0.020768f, -0.084407f, -0.090888f, 0.037327f, -0.060893f, 0.012286f,
    0.044340f, -0.038155f, -0.030230f, -0.067819f, 0.000565f, 0.100732f, 0.051096f, 0.031178f, 0.069901f, -0.090886f,
    -0.093961f, 0.073897f, -0.083328f, -0.056002f, 0.000497f, -0.038433f, -0.006989f, -0.077688f, -0.085800f, -0.048751f,
    0.027663f, 0.055434f, 0.081845f, 0.095348f, 0.043480f, 0.020946f, -0.095191f, -0.024521f, -0.008915f, -0.062488f,
    -0.001019f, 0.095087f, -0.078028f, -0.028462f, -0.001640f, -0.095835f, -0.053214f, 0.024055f, 0.013578f, -0.101310f,
    -0.092569f, 0.053529f, -0.029875f, -0.035585f, 0.098287f, -0.093029f, 0.000880f, -0.091120f, -0.030592f, -0.047806f,
    0.029601f, 0.059757f, 0.018619f, 0.003436f, 0.046934f, 0.031348f, 0.048737f, -0.067852f, -0.073899f, 0.021820f,
    0.071828f, 0.013176f, 0.020778f, 0.026559f, 0.026984f, -0.029029f, -0.086106f, -0.027249f, 0.011511f, 0.067857f,
    -0.066564f, 0.078445f, -0.101761f, -0.038330f, -0.095451f, 0.059148f, 0.016213f, -0.065907f, 0.042943f, 0.098553f,
    -0.076893f, -0.011201f, -0.036446f, 0.001752f, -0.095939f, 0.017142f, 0.098405f, 0.066385f, -0.085110f, -0.088573f,
    -0.055539f, 0.036984f, 0.084745f, -0.039851f, -0.010065f, -0.008399f, 0.033718f, 0.065122f, 0.003414f, -0.041134f,
    0.004612f, 0.057971f, -0.081857f, 0.010034f, -0.098450f, -0.040375f, -0.058102f, 0.038563f, -0.036171f, 0.037233f,
    -0.062489f, 0.087371f, -0.006677f, -0.034382f, -0.044359f, 0.020119f, 0.056004f, 0.067266f, -0.048244f, 0.086923f,
    -0.052721f, 0.091683f, 0.078406f, 0.021207f, 0.056550f, -0.098221f, -0.031699f, -0.041228f, -0.029166f, 0.044885f,
    -0.101102f, -0.091057f, 0.038674f, 0.078201f, -0.050324f, -0.032763f, -0.084972f, 0.060828f, 0.019751f, -0.047381f,
    0.006368f, -0.042635f, -0.044289f, 0.018596f, 0.018522f, -0.022122f, 0.057175f, -0.007713f, -0.097762f, 0.030802f,
    -0.006774f, 0.005755f, 0.009840f, 0.008573f, 0.084649f, -0.015369f, 0.004150f, 0.089290f, -0.006089f, -0.091107f,
    -0.075891f, -0.079457f, -0.062404f, -0.008837f, -0.084600f, -0.060522f, -0.099735f, -0.051523f, 0.001511f, 0.072481f,
    -0.045689f, 0.053939f, 0.024418f, -0.028180f, 0.007149f, -0.093004f, 0.084505f, -0.026882f, 0.066787f, 0.044820f,
    0.088968f, 0.086251f, -0.028250f, -0.064839f, -0.096027f, -0.043119f, 0.089956f, 0.012512f, -0.099190f, -0.065950f,
    -0.015948f, 0.012118f, -0.051154f, 0.091461f, -0.070652f, 0.044651f, -0.096095f, 0.078744f, -0.023986f, -0.096459f,
    -0.035303f, 0.075065f, 0.039168f, 0.001088f, 0.059596f, 0.008026f, 0.044730f, -0.069938f, -0.091480f, 0.087799f,
    -0.072990f, -0.018217f, -0.012611f, -0.059663f, 0.070484f, 0.001425f, -0.038897f, -0.069187f, 0.011147f, -0.046838f,
    -0.092172f, 0.077143f, -0.074626f, -0.086454f, 0.100676f, 0.060154f, 0.089518f, -0.003462f, 0.010419f, -0.006269f,
    0.101236f, -0.044026f, 0.064809f, -0.071934f, 0.060196f, -0.023605f, 0.073633f, 0.090773f, 0.000397f, 0.033620f,
    -0.011750f, -0.082790f, -0.057316f, 0.042844f, 0.014459f, -0.006339f, -0.044785f, -0.037127f, 0.046618f, 0.046063f,
    -0.066547f, 0.010548f, -0.030309f, -0.029299f, 0.051844f, -0.086440f, 0.041974f, -0.068217f, 0.007327f, 0.015131f,
    0.052639f, -0.079380f, -0.069950f, 0.042501f, -0.085793f, -0.062014f, -0.025889f, -0.007592f, 0.077446f, 0.054740f,
    -0.014037f, -0.039473f, 0.017229f, 0.000786f, -0.088914f, 0.019963f, 0.041159f, -0.088596f, -0.039901f, -0.051343f,
    -0.057626f, 0.096093f, -0.008171f, 0.028647f, 0.083898f, 0.079072f, -0.039041f, 0.012840f, 0.032873f, 0.031021f,
    -0.028154f, -0.015229f, 0.088753f, 0.032583f, -0.093832f, 0.018513f, 0.070182f, 0.017240f, -0.073549f, -0.053221f,
    0.011281f, -0.066651f, 0.062159f, 0.084735f, 0.043416f, 0.012760f, -0.086693f, -0.079918f, 0.081826f, 0.045393f,
    -0.095072f, 0.037908f, -0.074706f, -0.058073f, -0.072869f, 0.095674f, 0.045697f, -0.040009f, -0.095696f, -0.055572f,
    -0.059220f, -0.093621f, 0.047644f, 0.024111f, 0.070982f, -0.049997f, 0.083371f, -0.088789f, 0.066142f, 0.024916f,
    -0.035201f, -0.087612f, 0.057498f, -0.033042f, 0.056899f, 0.085383f, 0.095681f, -0.010174f, -0.018881f, 0.067957f,
    0.020494f, -0.073355f, 0.056950f, -0.063419f, -0.096094f, -0.085519f, 0.026490f, -0.082081f, -0.029968f, -0.012362f,
    0.031679f, -0.014137f, -0.016314f, 0.087849f, 0.073689f, -0.059627f, 0.097864f, 0.035458f, 0.010066f, -0.060298f,
    0.002839f, -0.100264f, -0.008419f, -0.024159f, 0.054890f, 0.050791f, -0.066955f, -0.057091f, -0.044881f, 0.036079f,
    -0.092864f, 0.064383f, -0.090500f, -0.100266f, -0.097459f, 0.095697f, 0.064963f, -0.068593f, 0.073529f, 0.039763f,
    -0.053244f, 0.018869f, -0.076715f, 0.017867f, 0.010906f, 0.084352f, 0.022927f, 0.018083f, -0.005930f, 0.024569f,
    0.043741f, 0.042413f, 0.099756f, -0.091410f, -0.032703f, 0.049444f, -0.030394f, -0.069727f, 0.019242f, -0.017269f,
    0.009524f, -0.084096f, 0.029841f, 0.003014f, 0.091105f, 0.011850f, 0.036734f, -0.058748f, -0.101708f, 0.082210f,
    0.063000f, -0.079964f, 0.080768f, -0.012350f, 0.007051f, -0.070884f, -0.093941f, -0.062255f, -0.008055f, -0.036965f,
    -0.020245f, -0.049553f, -0.067027f, -0.063822f, 0.076726f, -0.046791f, -0.004646f, -0.089679f, 0.022288f, 0.015474f,
    0.074782f, 0.068984f, 0.069877f, 0.033626f, 0.031270f, 0.056440f, -0.034700f, 0.056823f, 0.000882f, -0.038921f,
    -0.074905f, 0.101905f, 0.016857f, -0.100392f, -0.026545f, 0.058625f, 0.005733f, 0.053749f, -0.082311f, 0.027348f,
    -0.037532f, 0.015275f, -0.005616f, 0.040342f, 0.008673f, -0.012829f, 0.076178f, 0.054031f, 0.038309f, 0.064268f,
    0.067874f, 0.014695f, 0.019709f, 0.048378f, -0.037805f, -0.081103f, -0.080014f, 0.007852f, 0.090920f, 0.044840f,
    0.099653f, 0.001599f, 0.075127f, 0.044011f, -0.093553f, -0.085646f, -0.008770f, 0.009582f, 0.018288f, -0.076748f,
    0.046679f, -0.034809f, -0.027211f, 0.012230f, 0.034068f, 0.075035f, 0.038662f, -0.074501f, 0.038786f, -0.034777f,
    -0.059827f, -0.088377f, 0.013008f, 0.025954f, -0.099920f, 0.087445f, 0.009843f, -0.057229f, 0.096314f, 0.031701f,
    -0.078466f, -0.014696f, -0.019782f, -0.093947f, -0.045233f, 0.014567f, -0.054818f, 0.049664f, -0.056780f, -0.033325f,
    -0.025564f, -0.031446f, -0.055296f, -0.074839f, -0.100684f, -0.089839f, 0.000433f, -0.070992f, 0.075460f, -0.016508f,
    -0.092252f, -0.020660f, 0.032042f, -0.056474f, 0.063948f, -0.009493f, -0.024120f, 0.016355f, 0.059170f, -0.012583f,
    -0.053168f, -0.014531f, 0.096823f, -0.055422f, 0.057755f, -0.100430f, 0.043137f, 0.055349f, -0.040752f, 0.084029f,
    0.005302f, -0.093719f, -0.010700f, -0.017554f, -0.025912f, 0.037525f, -0.059733f, -0.085632f, -0.068393f, -0.071009f,
    0.061336f, 0.012143f, 0.055323f, -0.063813f, -0.006522f, 0.063105f, -0.011000f, -0.094388f, 0.026181f, 0.085436f,
    -0.088356f, 0.088394f, -0.099881f, -0.086967f, -0.054448f, 0.002644f, 0.032433f, 0.090783f, -0.056751f, -0.087333f,
    0.034621f, 0.061734f, 0.084006f, -0.055331f, -0.014960f, -0.042157f, -0.047290f, -0.063597f, -0.018024f, 0.091806f,
    -0.085954f, -0.008189f, -0.089116f, 0.024675f, 0.076885f, 0.019394f, -0.098483f, -0.001857f, -0.002987f, -0.000826f,
    -0.047800f, 0.075809f, 0.012622f, 0.067466f, 0.023190f, 0.071978f, -0.003122f, -0.099622f, 0.079333f, -0.011389f,
    0.012512f, 0.061306f, -0.101811f, 0.012251f, -0.052300f, -0.049658f, -0.064563f, 0.051578f, 0.077409f, 0.018354f,
    0.053173f, -0.006061f, 0.002324f, -0.067919f, -0.032526f, -0.090415f, 0.075746f, -0.019591f, 0.021422f, 0.024885f,
    -0.072371f, -0.058123f, 0.045333f, 0.052316f, 0.006834f, -0.046866f, 0.075364f, -0.006935f, -0.090136f, -0.093493f,
    0.078365f, -0.070108f, -0.047640f, -0.099227f, -0.085706f, 0.069507f, 0.098511f, -0.098258f, -0.035820f, -0.083427f,
    0.081920f, 0.059719f, 0.074144f, -0.075334f, 0.074689f, 0.055700f, -0.017704f, -0.091018f, -0.044037f, 0.065924f,
    -0.048835f, 0.043717f, 0.051999f, -0.055320f, 0.017643f, -0.059230f, -0.013964f, -0.084957f, 0.080108f, -0.048664f,
    0.014344f, -0.062505f, 0.069637f, -0.078376f, -0.072468f, -0.059391f, 0.092006f, -0.051614f, 0.062141f, 0.008730f,
    -0.074166f, 0.031965f, -0.069336f, 0.027054f, -0.054917f, -0.001810f, 0.042016f, 0.057474f, 0.014936f, -0.087641f,
    -0.068671f, -0.093115f, 0.062971f, -0.023147f, 0.053806f, -0.088227f, 0.036972f, -0.094365f, 0.086553f, 0.023169f,
    -0.002804f, -0.043330f, -0.091227f, 0.091548f, -0.085492f, -0.076609f, 0.053468f, 0.092843f, 0.065412f, -0.096793f,
    0.089881f, -0.086294f, 0.069343f, -0.074700f, 0.074901f, -0.072444f, 0.101102f, -0.018960f, -0.094445f, -0.064206f,
    0.006422f, -0.085477f, 0.010275f, 0.058236f, 0.093348f, -0.093234f, -0.006384f, -0.026651f, 0.050724f, -0.087464f,
    0.090538f, -0.083344f, 0.067586f, 0.002388f, -0.040222f, -0.098553f, -0.072070f, -0.006154f, 0.001293f, -0.024437f,
    0.051261f, -0.072780f, -0.036979f, -0.039359f, -0.030333f, -0.072045f, 0.057125f, 0.084215f, 0.039574f, 0.025386f,
    -0.081261f, -0.020374f, -0.022093f, -0.076961f, 0.046295f, -0.073296f, -0.092778f, 0.001201f, 0.023873f, -0.069091f,
    -0.084658f, 0.094480f, 0.054066f, 0.069727f, 0.016955f, 0.011190f, 0.037371f, -0.080972f, -0.056001f, 0.059540f,
    0.008296f, 0.099895f, -0.063137f, 0.077268f, 0.087460f, -0.028788f, -0.025622f, -0.028060f, 0.100593f, 0.056924f,
    0.026389f, -0.056970f, -0.019578f, -0.059675f, -0.040897f, -0.039524f, 0.053308f, -0.012480f, -0.064261f, 0.040819f,
    0.054738f, -0.091917f, 0.031100f, -0.054531f, -0.050998f, -0.066826f, 0.071735f, 0.086995f, -0.061040f, -0.099179f,
    0.036223f, 0.034168f, -0.085775f, 0.092765f, -0.095382f, -0.004566f, -0.039075f, -0.087621f, 0.076684f, 0.097717f,
    -0.097845f, -0.008564f, 0.085477f, -0.033398f, -0.035998f, -0.035399f, -0.047243f, -0.012731f, 0.093453f, -0.008428f,
    0.081410f, 0.021429f, 0.082300f, 0.027267f, -0.082875f, -0.061800f, 0.000210f, -0.039650f, -0.098678f, 0.042066f,
    -0.034736f, -0.081130f, 0.074029f, 0.077455f, -0.031129f, -0.080594f, 0.096266f, -0.074184f, 0.062497f, 0.027361f,
    -0.096282f, -0.030044f, 0.007743f, -0.069094f, -0.050071f, -0.030234f, 0.042004f, -0.006350f, -0.066685f, -0.101757f,
