// Auto-generated model weights for RAVN AI Engine
// Generated from: ../../artifacts/ravn_model.h5_weights.bin
// Total weights: 154563

#ifndef RAVN_MODEL_WEIGHTS_H
#define RAVN_MODEL_WEIGHTS_H

#include <stdint.h>

// Model architecture constants
#define INPUT_SEQUENCE_LENGTH 20
#define DENSE1_OUTPUT_SIZE 64
#define LSTM1_HIDDEN_SIZE 128
#define LSTM2_HIDDEN_SIZE 64
#define DENSE2_OUTPUT_SIZE 32
#define OUTPUT_CLASSES 3

// Layer weight counts
#define DENSE1_WEIGHT_COUNT 704
#define LSTM1_WEIGHT_COUNT 98816
#define LSTM2_WEIGHT_COUNT 49408
#define DENSE2_WEIGHT_COUNT 2080
#define DENSE3_WEIGHT_COUNT 99
#define TOTAL_WEIGHT_COUNT 154563

// All model weights (float32) - organized by layer
static const float all_model_weights[TOTAL_WEIGHT_COUNT] = {
    0.150608f, -0.186206f, 0.021031f, -0.003379f, 0.067592f, -0.013083f, 0.139214f, 0.210089f, -0.188157f, 0.183834f,
    0.034634f, -0.145283f, 0.147882f, 0.192666f, -0.211225f, -0.184574f, -0.078665f, -0.115090f, -0.124116f, 0.129890f,
    0.100858f, 0.152188f, 0.203268f, -0.131568f, 0.165231f, -0.170450f, 0.191044f, 0.199050f, 0.161068f, 0.122592f,
    -0.032458f, 0.013172f, -0.014536f, 0.141605f, 0.183425f, -0.039105f, -0.049663f, 0.122473f, -0.157130f, 0.137489f,
    -0.029392f, 0.167796f, 0.193751f, 0.019542f, -0.129952f, -0.082273f, -0.065238f, -0.152525f, 0.159667f, -0.017209f,
    -0.071940f, -0.200784f, -0.121151f, 0.184188f, 0.138130f, 0.113530f, 0.126775f, -0.013821f, 0.186162f, -0.178687f,
    -0.016888f, 0.102675f, -0.197409f, -0.044797f, -0.018196f, -0.123789f, 0.032482f, 0.147114f, 0.213583f, 0.072286f,
    -0.209468f, -0.187372f, 0.058674f, -0.117751f, -0.159547f, -0.044920f, 0.104074f, -0.214879f, 0.141116f, -0.066707f,
    -0.074637f, -0.183523f, 0.164193f, -0.189366f, -0.209273f, -0.124658f, -0.069102f, 0.019835f, -0.157905f, -0.078418f,
    -0.199770f, 0.074886f, 0.130413f, -0.027878f, 0.197706f, -0.116145f, -0.016012f, -0.086222f, 0.056739f, 0.096565f,
    0.083781f, 0.213811f, 0.112721f, -0.061743f, 0.074874f, -0.114574f, 0.048778f, 0.171714f, -0.041804f, -0.096939f,
    -0.197038f, 0.073094f, 0.112583f, 0.001476f, -0.037353f, -0.167634f, -0.066838f, 0.006745f, 0.082094f, -0.110693f,
    0.129738f, -0.188228f, 0.088326f, -0.043782f, 0.141131f, -0.147851f, 0.045303f, 0.100943f, 0.207537f, 0.214675f,
    -0.035175f, 0.129407f, 0.038617f, -0.123918f, 0.108475f, -0.041818f, -0.131905f, -0.109002f, -0.088931f, 0.160513f,
    0.191725f, 0.000027f, 0.213840f, -0.175952f, 0.130798f, 0.136669f, -0.091651f, -0.127372f, 0.003283f, 0.063024f,
    -0.153086f, -0.141212f, -0.081743f, 0.142539f, 0.129153f, -0.181077f, -0.191815f, 0.063640f, -0.023366f, 0.082307f,
    0.187703f, -0.172151f, -0.048702f, -0.189379f, -0.007084f, -0.088446f, -0.151051f, -0.137195f, -0.090446f, -0.073308f,
    -0.039520f, 0.207505f, -0.148077f, -0.190514f, -0.039399f, 0.143930f, 0.159428f, -0.156511f, -0.018109f, 0.032832f,
    -0.023364f, -0.060291f, -0.013499f, -0.118376f, 0.112511f, -0.130299f, 0.199100f, -0.121136f, -0.033611f, -0.143514f,
    0.185908f, -0.131869f, 0.215543f, -0.181843f, -0.061756f, 0.063389f, -0.006806f, -0.132590f, -0.063990f, 0.137293f,
    -0.113882f, 0.029664f, -0.000727f, 0.065037f, 0.143836f, -0.097638f, 0.211479f, -0.078259f, 0.195293f, 0.043301f,
    0.116759f, -0.167052f, 0.051785f, 0.153067f, 0.113292f, 0.059090f, 0.016737f, 0.050943f, -0.024305f, 0.079836f,
    -0.000395f, 0.015469f, 0.130409f, 0.115095f, 0.077509f, -0.128501f, 0.137776f, -0.083752f, -0.077955f, -0.153591f,
    0.196159f, 0.129469f, 0.129816f, 0.033330f, -0.152493f, -0.214869f, 0.098394f, -0.194035f, 0.191668f, 0.199528f,
    -0.070983f, -0.051206f, -0.070075f, -0.147774f, -0.191323f, -0.112117f, -0.120797f, 0.148219f, -0.133809f, -0.200175f,
    -0.207186f, -0.175682f, 0.009386f, 0.120618f, -0.137812f, 0.214365f, 0.068219f, -0.064522f, -0.140164f, -0.167385f,
    0.075049f, -0.176210f, -0.097834f, 0.200765f, -0.210884f, -0.136598f, -0.141059f, 0.096566f, -0.158444f, -0.154541f,
    0.204552f, -0.152931f, -0.055832f, -0.201059f, -0.146813f, -0.094318f, -0.039913f, 0.060179f, 0.033934f, 0.064047f,
    -0.172955f, 0.011628f, 0.028885f, -0.144929f, 0.098616f, 0.035824f, 0.190775f, 0.127092f, -0.134970f, -0.026043f,
    0.190603f, 0.173366f, 0.052268f, -0.133797f, 0.174310f, 0.032746f, -0.203215f, -0.123998f, -0.148411f, 0.192281f,
    -0.144928f, 0.167590f, 0.060135f, -0.001819f, 0.106535f, 0.148923f, 0.072712f, 0.062218f, 0.145865f, -0.210144f,
    0.078042f, -0.052151f, 0.004233f, 0.070266f, -0.118827f, 0.172834f, -0.209464f, -0.157200f, -0.013553f, -0.138967f,
    0.182595f, 0.169731f, 0.017596f, -0.090910f, -0.037036f, 0.126732f, 0.075425f, 0.201113f, 0.152956f, 0.007575f,
    0.125439f, 0.112759f, -0.026015f, 0.051200f, -0.200029f, -0.111623f, 0.194603f, -0.179103f, 0.097118f, 0.001875f,
    -0.172707f, 0.192746f, 0.181858f, -0.029589f, -0.091196f, -0.122804f, 0.178640f, 0.139240f, -0.013431f, 0.003611f,
    0.057579f, 0.134846f, -0.000885f, -0.156271f, -0.150765f, 0.037332f, -0.197910f, 0.018409f, -0.038783f, -0.068040f,
    -0.104817f, 0.187618f, -0.119007f, 0.124702f, 0.106154f, -0.008962f, 0.096352f, -0.159467f, 0.061398f, -0.128986f,
    0.052499f, -0.080377f, -0.029429f, 0.171403f, -0.084985f, 0.100829f, -0.191311f, 0.033323f, -0.016138f, 0.051078f,
    0.038588f, -0.025800f, -0.205973f, 0.017548f, 0.213730f, 0.115630f, -0.066774f, -0.099018f, -0.153640f, -0.065362f,
    0.141803f, 0.073719f, -0.187155f, 0.133234f, 0.129548f, 0.019307f, -0.119859f, 0.140204f, 0.008585f, -0.171689f,
    0.136071f, -0.068998f, 0.185459f, -0.021481f, -0.047269f, 0.103191f, -0.085917f, -0.135057f, -0.102373f, 0.142034f,
    0.201381f, 0.082399f, 0.057489f, -0.136962f, -0.082995f, -0.132279f, -0.156487f, -0.023995f, 0.203489f, -0.093995f,
    0.074710f, -0.215933f, -0.174379f, 0.030036f, -0.167989f, 0.003388f, -0.110129f, 0.003367f, 0.020080f, 0.071242f,
    -0.126081f, 0.205193f, -0.082653f, 0.025676f, -0.018451f, -0.150576f, -0.091277f, -0.087317f, -0.079677f, 0.208903f,
    0.028834f, 0.153278f, -0.119292f, 0.106788f, 0.196144f, 0.200045f, -0.038620f, -0.198310f, -0.028376f, 0.078577f,
    0.003606f, 0.154857f, 0.068577f, 0.187717f, 0.127728f, 0.121847f, -0.075429f, -0.100086f, -0.007223f, -0.084422f,
    -0.177812f, -0.104257f, 0.194492f, -0.003111f, 0.017644f, 0.060637f, 0.191736f, -0.138900f, 0.167799f, 0.046356f,
    -0.177219f, -0.066689f, 0.103254f, -0.151817f, -0.066900f, -0.012965f, 0.114537f, 0.139860f, -0.156924f, 0.137933f,
    -0.099701f, -0.061477f, 0.187997f, 0.178186f, -0.013483f, 0.051971f, 0.058896f, -0.193031f, 0.118813f, 0.082745f,
    0.172545f, -0.044191f, -0.074682f, -0.040095f, -0.023770f, -0.048679f, 0.049908f, -0.004607f, 0.030714f, -0.014368f,
    0.084323f, 0.142530f, -0.062186f, -0.065898f, 0.041707f, 0.145795f, -0.209760f, -0.125411f, -0.070679f, 0.189131f,
    -0.180850f, 0.164725f, 0.052560f, 0.210473f, 0.007353f, 0.067053f, 0.019868f, 0.087246f, -0.047100f, -0.022344f,
    -0.075684f, 0.096596f, 0.215542f, -0.115421f, -0.185391f, 0.169396f, -0.056089f, 0.163595f, 0.031205f, -0.213325f,
    0.041483f, -0.002321f, -0.207648f, 0.092176f, 0.039482f, -0.151286f, 0.069722f, 0.004920f, 0.049117f, 0.153685f,
    0.111880f, 0.096110f, 0.070947f, 0.186457f, 0.164334f, 0.085669f, -0.014452f, 0.203923f, -0.050686f, 0.043714f,
    0.112832f, 0.030447f, 0.080337f, 0.119423f, -0.189597f, 0.211933f, -0.081180f, -0.156984f, -0.190066f, -0.173258f,
    -0.175351f, 0.043885f, -0.187624f, 0.011563f, 0.042011f, -0.083247f, -0.208015f, -0.073399f, -0.084396f, 0.156555f,
    -0.075130f, 0.121292f, 0.044891f, -0.090793f, 0.015051f, 0.123989f, 0.159284f, -0.017393f, 0.011794f, -0.056693f,
    0.078468f, -0.215418f, -0.150467f, -0.071941f, -0.042966f, 0.080533f, -0.031835f, -0.144942f, -0.154625f, 0.198412f,
    -0.010759f, -0.048735f, -0.147652f, -0.204160f, -0.196974f, 0.191628f, -0.163065f, -0.159833f, 0.029879f, -0.048480f,
    -0.126757f, -0.072081f, 0.134113f, 0.052223f, 0.091520f, -0.075032f, -0.017572f, 0.032498f, -0.003772f, -0.084667f,
    -0.041542f, -0.214651f, -0.031568f, -0.100907f, 0.043333f, -0.140481f, 0.202821f, 0.063995f, 0.123367f, 0.050611f,
    -0.125095f, -0.019831f, 0.019531f, 0.040492f, 0.070582f, 0.124063f, 0.124431f, 0.145685f, 0.178264f, 0.037886f,
    -0.031309f, -0.199235f, -0.059713f, -0.167654f, -0.144443f, -0.061271f, 0.077273f, -0.018739f, -0.127019f, -0.107812f,
    0.071522f, 0.001075f, 0.211991f, -0.078448f, 0.170057f, 0.109598f, -0.047214f, -0.135115f, -0.175459f, 0.181804f,
    -0.184057f, -0.189702f, -0.003169f, 0.000934f, -0.077758f, 0.204442f, -0.213154f, -0.090439f, 0.176188f, -0.146232f,
    0.031457f, -0.208034f, 0.059912f, -0.207548f, 0.004035f, -0.005995f, 0.214279f, -0.166229f, 0.052683f, -0.170696f,
    -0.154183f, -0.194015f, -0.095620f, 0.108906f, -0.122994f, -0.144925f, -0.005105f, -0.066337f, 0.149204f, -0.113462f,
    -0.062563f, 0.160437f, 0.152978f, 0.093631f, -0.125610f, 0.076619f, 0.137997f, -0.148346f, 0.067997f, -0.185385f,
    -0.103731f, 0.041946f, 0.131306f, -0.108387f, 0.143111f, -0.005690f, -0.139559f, 0.010812f, 0.078135f, -0.026458f,
    -0.063917f, 0.096532f, 0.118853f, -0.190640f, -0.053891f, -0.198508f, 0.129586f, -0.040006f, 0.135846f, 0.100474f,
    0.157090f, 0.030365f, -0.012304f, 0.213905f, 0.009107f, -0.131380f, -0.003233f, -0.041063f, -0.082304f, -0.037467f,
    0.103676f, 0.068036f, -0.026680f, 0.055755f, 0.000908f, -0.090380f, 0.206161f, -0.031176f, 0.014142f, 0.208800f,
    -0.044781f, -0.127549f, -0.064723f, -0.105781f, 0.194836f, -0.200420f, 0.162483f, -0.086641f, 0.175231f, 0.096240f,
    0.188509f, -0.075228f, 0.201724f, 0.128926f, -0.083289f, 0.062945f, 0.113600f, 0.004684f, 0.172777f, 0.079343f,
    0.054000f, 0.064109f, -0.153429f, 0.139699f, 0.170925f, -0.187580f, 0.170015f, -0.062954f, -0.099095f, 0.156667f,
    0.153264f, -0.149992f, -0.046432f, -0.180617f, -0.008490f, -0.030393f, 0.164328f, 0.035264f, -0.157868f, -0.116915f,
    -0.121979f, 0.012777f, 0.039102f, 0.178853f, -0.152432f, -0.102463f, 0.166131f, -0.113247f, -0.029324f, -0.034887f,
    -0.192180f, 0.193266f, -0.160651f, 0.105706f, -0.162550f, 0.062631f, -0.105579f, 0.214088f, 0.056116f, -0.108703f,
    0.209458f, 0.139898f, -0.147880f, -0.053282f, 0.026410f, -0.034777f, 0.148457f, -0.105028f, 0.200710f, 0.196057f,
    0.071511f, -0.057924f, -0.007779f, 0.018252f, -0.005162f, 0.003607f, 0.101769f, 0.138448f, 0.121354f, 0.188687f,
    0.167801f, -0.063816f, -0.096376f, 0.206386f, -0.215334f, -0.042235f, -0.014854f, 0.110895f, -0.040809f, 0.213519f,
    0.181598f, 0.216119f, 0.153986f, 0.215478f, 0.212106f, -0.074131f, 0.161711f, 0.092375f, -0.046957f, -0.024434f,
    0.059231f, 0.022844f, -0.001412f, 0.043421f, 0.103559f, 0.045284f, 0.061123f, -0.188298f, 0.172278f, 0.133268f,
    0.181569f, 0.159286f, -0.169659f, -0.018970f, -0.039540f, 0.000501f, -0.200938f, 0.015601f, 0.187346f, -0.077968f,
    0.211030f, -0.066801f, 0.209347f, 0.203158f, 0.097754f, -0.041292f, 0.212034f, -0.042075f, 0.074386f, 0.188534f,
    0.139449f, -0.212004f, 0.063758f, 0.080965f, 0.018638f, -0.169922f, -0.006094f, -0.144264f, 0.150844f, -0.077932f,
    0.034848f, 0.091521f, 0.160897f, 0.037913f, -0.059522f, 0.200035f, -0.022026f, -0.015965f, -0.061272f, -0.205867f,
    0.162110f, -0.103999f, 0.051630f, 0.074770f, 0.107471f, 0.080407f, -0.123420f, -0.061943f, -0.087785f, 0.078770f,
    -0.036850f, -0.056704f, 0.017940f, -0.137786f, 0.199176f, -0.174716f, -0.170352f, 0.054289f, -0.078384f, -0.192976f,
    0.134683f, 0.115071f, -0.023297f, -0.090669f, -0.033222f, -0.107687f, -0.041679f, 0.018053f, -0.176146f, 0.039038f,
    -0.082703f, 0.091410f, 0.077522f, -0.080735f, -0.206493f, 0.139275f, 0.044507f, -0.135362f, -0.048445f, -0.087055f,
    0.130333f, 0.014045f, -0.095898f, -0.171673f, 0.041189f, 0.192110f, 0.055956f, -0.139101f, 0.002556f, 0.132947f,
    -0.049015f, 0.007161f, 0.168986f, -0.138977f, 0.083743f, -0.204399f, -0.103557f, -0.190780f, 0.140686f, -0.015573f,
    -0.202580f, -0.125709f, -0.196097f, -0.163450f, -0.187155f, -0.046311f, -0.093177f, 0.190803f, -0.104909f, -0.172886f,
    -0.184255f, 0.013709f, 0.048848f, 0.159578f, 0.138662f, 0.061631f, 0.037351f, 0.017355f, 0.008317f, 0.156305f,
    0.108699f, -0.108310f, 0.200677f, -0.001865f, -0.192512f, 0.132766f, -0.082067f, 0.201158f, -0.028719f, -0.163193f,
    -0.020315f, 0.053664f, -0.129499f, -0.023527f, 0.169756f, 0.110342f, 0.089654f, 0.006365f, 0.144493f, 0.065318f,
    -0.101482f, 0.166661f, -0.028737f, 0.136967f, -0.169003f, 0.115279f, -0.129725f, -0.204918f, -0.047362f, -0.010325f,
    -0.090272f, -0.045312f, 0.062653f, -0.172555f, -0.078576f, -0.072908f, -0.195162f, -0.122296f, -0.030877f, -0.192504f,
    -0.033128f, 0.182941f, -0.190203f, -0.106741f, -0.080846f, 0.004031f, -0.121044f, -0.104887f, 0.120219f, -0.087869f,
    0.007855f, 0.028957f, 0.198482f, 0.158795f, 0.100664f, 0.064308f, -0.049336f, 0.153211f, -0.024026f, -0.094895f,
    0.209150f, 0.011030f, 0.056573f, -0.160272f, 0.197102f, -0.210227f, 0.102853f, -0.196290f, -0.162616f, -0.105563f,
    0.065737f, -0.153729f, 0.037622f, 0.143773f, 0.055061f, 0.026969f, -0.127933f, 0.044644f, 0.125708f, -0.187294f,
    -0.117210f, -0.059817f, 0.045017f, -0.120107f, -0.211607f, -0.037367f, 0.068542f, 0.015176f, 0.110576f, 0.123958f,
    0.206835f, 0.172212f, 0.020102f, 0.187686f, 0.159223f, 0.081357f, 0.028452f, -0.019266f, -0.170873f, -0.052502f,
    0.106421f, -0.202382f, 0.054945f, 0.017858f, 0.143482f, 0.041489f, 0.069958f, 0.073558f, 0.111427f, -0.150235f,
    0.060343f, -0.103157f, 0.073733f, -0.031672f, -0.046696f, 0.202214f, -0.122299f, -0.178709f, 0.103773f, -0.214749f,
    -0.210781f, 0.022887f, 0.133281f, 0.064954f, 0.104078f, 0.201855f, 0.104752f, 0.002406f, 0.028206f, 0.189858f,
    0.206851f, -0.197733f, -0.058441f, -0.191258f, -0.140190f, -0.214295f, 0.160863f, 0.070379f, 0.011108f, -0.078764f,
    0.015416f, -0.127235f, -0.143269f, 0.141899f, 0.134640f, 0.021867f, 0.070212f, 0.098757f, 0.006476f, 0.038490f,
    -0.146087f, -0.192981f, 0.161160f, -0.039801f, -0.171050f, -0.137527f, 0.085097f, -0.161145f, 0.215219f, 0.142836f,
    -0.092609f, 0.026618f, 0.009058f, 0.090946f, 0.037923f, 0.197563f, -0.099863f, -0.111902f, -0.193547f, 0.026801f,
    -0.173034f, 0.134183f, 0.109082f, 0.021457f, -0.025149f, 0.146695f, 0.166083f, 0.100791f, -0.012599f, 0.003170f,
    0.063184f, 0.130083f, -0.170790f, -0.077169f, 0.012909f, -0.144538f, 0.169375f, 0.183060f, -0.174816f, -0.083464f,
    0.144379f, -0.169751f, 0.000750f, -0.058300f, -0.060378f, 0.030132f, 0.025931f, 0.038140f, -0.195728f, -0.157151f,
    -0.133380f, -0.138571f, -0.116678f, -0.015417f, -0.001703f, 0.053423f, -0.052510f, 0.167765f, 0.214535f, -0.085966f,
    0.031103f, -0.181622f, 0.002601f, 0.213209f, 0.035973f, -0.121562f, 0.180550f, 0.151215f, -0.076512f, -0.024060f,
    -0.043906f, 0.003461f, 0.164004f, -0.176235f, 0.041692f, 0.087414f, -0.083462f, -0.180243f, -0.011005f, 0.048999f,
    0.005924f, -0.062833f, -0.063403f, -0.065810f, -0.027479f, 0.137789f, 0.078368f, -0.048743f, 0.003406f, -0.076851f,
    -0.029826f, -0.124093f, 0.081633f, 0.030760f, -0.109473f, 0.002035f, 0.189216f, -0.167617f, 0.049942f, 0.201151f,
    0.031658f, 0.016901f, 0.088613f, -0.131692f, 0.112395f, 0.119206f, -0.051225f, -0.198311f, 0.160689f, -0.016516f,
    -0.069877f, -0.062081f, -0.009768f, -0.133820f, 0.119830f, 0.127538f, 0.173583f, 0.192348f, -0.136408f, -0.166344f,
    0.080311f, -0.171793f, 0.072161f, -0.029766f, -0.005706f, -0.096234f, -0.131115f, -0.094867f, -0.028278f, 0.166713f,
    0.164762f, -0.101765f, 0.039398f, 0.117571f, 0.172974f, -0.123586f, -0.178937f, 0.158715f, 0.196599f, -0.031945f,
    0.114998f, 0.064146f, 0.003042f, 0.110665f, -0.160233f, 0.079837f, -0.072372f, -0.193460f, -0.091919f, 0.161769f,
    -0.182716f, 0.037227f, -0.041377f, 0.030964f, 0.027066f, -0.047448f, -0.144983f, -0.161951f, 0.160782f, 0.066750f,
    0.115959f, -0.098773f, -0.108576f, -0.172399f, 0.204218f, -0.210193f, 0.068359f, -0.197247f, 0.212656f, 0.066747f,
    0.151588f, -0.010358f, -0.052332f, 0.130349f, 0.102321f, 0.183219f, 0.068102f, 0.166514f, 0.115240f, -0.078284f,
    -0.020586f, 0.176338f, -0.187065f, 0.001462f, 0.174085f, -0.037565f, -0.186439f, -0.052347f, 0.204414f, -0.018945f,
    0.030426f, -0.159760f, -0.124979f, -0.142819f, 0.124827f, 0.140280f, -0.186177f, 0.184685f, -0.176098f, 0.086975f,
    -0.061801f, 0.104134f, -0.170004f, 0.197662f, -0.142057f, 0.000440f, -0.116631f, -0.149512f, -0.152718f, 0.104310f,
    -0.048955f, 0.035002f, 0.004149f, -0.045533f, 0.081807f, 0.123906f, -0.052915f, -0.207702f, 0.110932f, 0.101443f,
    -0.197496f, -0.164431f, 0.203508f, -0.172070f, -0.091845f, -0.012492f, 0.052493f, -0.118483f, -0.046728f, 0.154848f,
    0.073875f, -0.183277f, -0.010819f, -0.117251f, -0.062640f, 0.170279f, 0.138869f, -0.112935f, 0.152263f, 0.173777f,
    0.078285f, -0.216294f, 0.079901f, -0.188048f, 0.128608f, -0.116751f, -0.089147f, 0.196370f, -0.202399f, 0.173754f,
    0.001654f, 0.159740f, -0.126153f, 0.025126f, 0.167712f, 0.057504f, -0.149658f, -0.004824f, 0.105012f, 0.132191f,
    -0.203740f, 0.188792f, 0.032875f, 0.034403f, -0.058773f, 0.111868f, 0.157299f, 0.039442f, -0.103090f, 0.184691f,
    0.034011f, -0.117772f, 0.003368f, -0.185913f, -0.145657f, -0.201489f, -0.085081f, 0.116016f, 0.035511f, -0.136850f,
    0.178396f, -0.017493f, 0.013688f, -0.030752f, 0.176083f, 0.197016f, -0.146369f, -0.050224f, -0.081049f, 0.098403f,
    0.034474f, -0.194342f, -0.154835f, 0.024298f, 0.160422f, 0.013935f, -0.059280f, 0.125964f, -0.087622f, -0.085533f,
    0.096550f, -0.099925f, 0.023573f, -0.086677f, 0.205275f, -0.047738f, -0.081694f, -0.065915f, -0.124223f, -0.061066f,
    0.180429f, -0.065976f, -0.105724f, 0.099080f, -0.157169f, 0.012062f, 0.173994f, -0.121751f, -0.089088f, -0.021562f,
    0.108157f, -0.158316f, -0.175939f, -0.104162f, 0.015961f, 0.132313f, -0.003118f, 0.155377f, 0.198321f, -0.068450f,
    0.039360f, -0.208047f, -0.008439f, -0.168659f, -0.131871f, 0.033755f, -0.201375f, -0.145052f, 0.167651f, 0.097217f,
    -0.175487f, -0.021691f, -0.078892f, 0.095811f, 0.087359f, 0.115318f, -0.092649f, -0.101269f, 0.041435f, -0.012399f,
    0.080056f, 0.180730f, 0.216417f, 0.047831f, 0.003467f, 0.017534f, -0.157773f, 0.111732f, -0.140607f, -0.111895f,
    -0.153771f, -0.067588f, 0.020761f, -0.067285f, 0.014772f, -0.174954f, -0.129089f, -0.056725f, 0.027847f, -0.064879f,
    -0.014368f, -0.019468f, 0.170123f, 0.162118f, -0.001607f, -0.124128f, 0.185669f, 0.147758f, 0.005203f, -0.147054f,
    -0.091621f, 0.051564f, 0.117259f, 0.145212f, -0.093859f, -0.148063f, -0.163081f, -0.196734f, -0.056302f, -0.001933f,
    0.202658f, 0.100272f, -0.086636f, 0.052279f, 0.094360f, 0.122311f, 0.200438f, -0.005850f, 0.080839f, 0.008846f,
    0.065827f, -0.061222f, -0.106117f, 0.046759f, 0.099042f, -0.098432f, -0.025400f, 0.075729f, -0.028813f, 0.209288f,
    -0.071870f, -0.066516f, -0.100162f, 0.074681f, -0.073421f, 0.071655f, -0.021074f, -0.157087f, 0.013557f, -0.083936f,
    0.150809f, -0.168479f, 0.216081f, 0.158309f, -0.081660f, 0.195617f, -0.199802f, 0.095576f, -0.169015f, 0.132850f,
    -0.092490f, 0.130011f, 0.010908f, 0.036767f, -0.210981f, -0.176521f, 0.017069f, -0.184428f, 0.008627f, -0.174794f,
    -0.120948f, -0.012436f, -0.153554f, -0.072674f, -0.116622f, 0.165109f, 0.104384f, 0.191182f, 0.061527f, -0.116001f,
    0.049478f, 0.207115f, 0.034379f, 0.129866f, 0.211505f, -0.122598f, -0.196840f, -0.205375f, 0.101093f, -0.186091f,
    0.162750f, 0.204091f, 0.114003f, 0.093639f, 0.160647f, -0.143564f, 0.130777f, 0.006481f, 0.032485f, 0.153304f,
    -0.102826f, 0.033505f, -0.092875f, -0.056236f, 0.162674f, -0.169285f, -0.202281f, 0.029028f, -0.164460f, -0.167893f,
    0.171907f, 0.202649f, 0.148256f, -0.192188f, 0.207589f, 0.098998f, -0.004767f, 0.129629f, 0.207938f, 0.126815f,
    -0.037068f, -0.152066f, 0.081406f, -0.091010f, -0.092106f, 0.171816f, 0.131894f, 0.028045f, -0.165383f, -0.119046f,
    -0.130823f, 0.124661f, 0.178620f, 0.126649f, -0.123963f, -0.137454f, -0.053853f, 0.026802f, -0.032573f, -0.153768f,
    -0.158192f, -0.009122f, 0.086579f, -0.108804f, 0.100498f, 0.177175f, -0.177236f, 0.030877f, -0.208246f, 0.150162f,
    0.055790f, -0.091991f, -0.181452f, -0.020465f, -0.080051f, 0.154322f, -0.215286f, 0.142904f, 0.079166f, -0.180729f,
    0.175152f, 0.193166f, -0.016125f, -0.003926f, 0.152299f, -0.062852f, 0.206760f, -0.006792f, 0.105649f, 0.131999f,
    -0.135779f, 0.123540f, -0.034399f, -0.146840f, -0.015430f, -0.135510f, -0.181790f, -0.214939f, -0.004120f, -0.135390f,
    0.207701f, -0.017672f, 0.166327f, 0.137108f, 0.209945f, 0.043491f, -0.213278f, -0.069265f, 0.175613f, 0.043117f,
    0.072457f, -0.038660f, -0.075841f, -0.000131f, -0.061474f, -0.012048f, -0.136624f, -0.031129f, -0.015468f, 0.181834f,
    -0.188449f, -0.165018f, 0.038169f, 0.033117f, -0.068268f, 0.141272f, 0.090233f, 0.134762f, 0.177792f, -0.191936f,
    0.078755f, -0.012603f, 0.152799f, -0.120125f, -0.115249f, -0.093180f, -0.129805f, -0.160414f, -0.136417f, 0.166076f,
    0.203296f, 0.122414f, 0.090702f, 0.164013f, 0.198572f, -0.074794f, 0.139366f, -0.077024f, -0.089181f, -0.122225f,
    -0.064196f, 0.121817f, 0.150951f, -0.192352f, -0.002422f, -0.048695f, -0.123757f, -0.154857f, -0.158137f, 0.001379f,
    0.064386f, 0.126134f, -0.011662f, -0.127271f, -0.113456f, -0.047212f, -0.007313f, 0.171883f, -0.061857f, 0.024769f,
    0.014047f, 0.209565f, -0.008437f, -0.077481f, 0.047439f, -0.162810f, 0.133084f, 0.072024f, -0.198283f, -0.185636f,
    -0.083307f, 0.055449f, -0.060285f, 0.204119f, 0.138844f, 0.036043f, 0.120499f, 0.120159f, 0.025524f, 0.043634f,
    -0.165361f, -0.130144f, 0.114529f, -0.101638f, -0.044138f, -0.070627f, 0.076651f, -0.059302f, -0.004795f, -0.206112f,
    -0.005149f, -0.202262f, 0.005127f, -0.130092f, -0.189170f, -0.048351f, -0.047701f, 0.104123f, -0.023496f, 0.116329f,
    0.215858f, 0.151736f, 0.207756f, 0.109095f, -0.052617f, 0.137301f, -0.106514f, 0.164361f, 0.207621f, -0.052448f,
    -0.176516f, 0.009035f, 0.150787f, 0.024497f, 0.112942f, 0.164917f, -0.142138f, -0.160527f, -0.137137f, -0.114322f,
    -0.025342f, -0.121416f, 0.128529f, -0.190632f, -0.074645f, 0.207188f, -0.015155f, -0.181093f, 0.211763f, 0.034778f,
    -0.080302f, -0.176892f, 0.020867f, 0.188769f, -0.006427f, 0.026091f, -0.010046f, -0.190981f, -0.063893f, -0.052135f,
    -0.056149f, 0.023565f, -0.132474f, -0.068678f, -0.035508f, 0.029624f, -0.198889f, -0.002281f, 0.181041f, 0.149154f,
    0.085684f, 0.079945f, -0.015386f, 0.021363f, 0.117491f, -0.045235f, 0.083909f, 0.000310f, 0.130883f, 0.013316f,
    -0.209711f, -0.085957f, -0.112590f, 0.132402f, -0.060185f, -0.069918f, -0.012915f, -0.203734f, 0.143337f, 0.041814f,
    -0.202553f, -0.111719f, 0.185040f, -0.105769f, 0.115976f, 0.016151f, 0.119846f, 0.018898f, -0.088782f, 0.192920f,
    0.030164f, 0.063774f, -0.149464f, -0.178543f, -0.032119f, -0.005207f, -0.208476f, -0.127549f, -0.157567f, -0.014075f,
    0.013665f, 0.044375f, 0.105205f, -0.137193f, 0.165842f, -0.166075f, -0.062804f, 0.187048f, -0.198507f, -0.051616f,
    -0.087637f, 0.004753f, 0.021109f, -0.065761f, 0.116406f, -0.027755f, -0.121287f, 0.137839f, -0.127425f, 0.015244f,
    -0.013496f, -0.048383f, -0.113280f, 0.132368f, 0.076609f, 0.050890f, 0.054569f, 0.159070f, -0.174350f, -0.082805f,
    0.067271f, 0.124646f, 0.117221f, -0.077326f, -0.202364f, -0.095522f, -0.119858f, -0.162178f, 0.100639f, -0.204655f,
    -0.098590f, 0.066686f, -0.036425f, 0.203306f, 0.204727f, -0.141635f, 0.111473f, 0.107654f, 0.035216f, 0.032335f,
    -0.111376f, 0.035891f, -0.136278f, -0.011670f, -0.082565f, -0.003104f, -0.081526f, 0.146605f, -0.211351f, -0.173823f,
    -0.187745f, -0.120585f, 0.090314f, 0.180042f, -0.084103f, 0.181550f, -0.158401f, -0.158028f, -0.186989f, 0.131598f,
    -0.189841f, 0.073468f, -0.063507f, -0.026244f, -0.141112f, -0.172475f, -0.113186f, -0.085792f, -0.160764f, -0.077618f,
    -0.113735f, -0.214379f, 0.013961f, 0.159334f, 0.172738f, 0.191240f, 0.200088f, -0.061566f, 0.158921f, -0.190373f,
    -0.121331f, -0.177624f, -0.188486f, 0.002264f, -0.119015f, -0.034993f, -0.007223f, -0.093077f, -0.069224f, 0.029309f,
    0.028348f, 0.197749f, -0.028897f, -0.011220f, -0.215347f, -0.116894f, 0.124155f, -0.012614f, 0.157306f, -0.213495f,
    -0.171114f, 0.066661f, -0.031544f, 0.167802f, 0.166248f, 0.074441f, 0.080954f, 0.039616f, -0.211777f, -0.147663f,
    -0.025079f, 0.056734f, -0.101488f, -0.138546f, -0.074859f, 0.080447f, 0.175844f, -0.061197f, -0.061618f, 0.166814f,
    -0.046086f, -0.208912f, -0.011282f, -0.019094f, 0.064169f, 0.010069f, 0.194969f, 0.064385f, -0.099939f, 0.007624f,
    0.059647f, -0.051866f, 0.045764f, 0.174825f, 0.013086f, 0.186370f, -0.135773f, -0.077921f, -0.164260f, -0.128707f,
    -0.004549f, 0.092858f, -0.020913f, 0.085535f, 0.206953f, -0.095968f, -0.175063f, 0.132419f, -0.115037f, 0.125417f,
    0.161439f, -0.212539f, 0.199265f, -0.083882f, 0.089907f, -0.181244f, 0.092371f, -0.208992f, 0.115377f, -0.047322f,
    0.161121f, 0.145773f, 0.152863f, 0.112976f, 0.087372f, 0.095825f, -0.202150f, 0.057742f, -0.109660f, -0.123145f,
    -0.041770f, -0.198301f, -0.096698f, 0.024357f, -0.072665f, 0.070549f, 0.097472f, -0.105116f, -0.196568f, -0.070084f,
    -0.046276f, 0.195029f, 0.124829f, 0.200934f, -0.036446f, -0.080331f, 0.005415f, -0.190734f, -0.125734f, 0.002136f,
    0.190356f, -0.044389f, -0.083061f, -0.150838f, 0.011806f, -0.057215f, 0.171032f, 0.088639f, 0.057113f, 0.215021f,
    0.045941f, -0.028007f, -0.194468f, 0.112603f, -0.179280f, -0.056756f, 0.191677f, 0.102085f, -0.074265f, 0.031082f,
    -0.065741f, -0.202426f, -0.128338f, -0.159816f, 0.135491f, -0.036737f, 0.164800f, -0.002568f, 0.099050f, -0.030862f,
    -0.134477f, 0.064834f, 0.018018f, -0.203397f, 0.067119f, 0.058944f, -0.019936f, -0.048807f, 0.040515f, -0.206158f,
    0.161138f, 0.149318f, -0.099031f, -0.209064f, -0.058220f, -0.103616f, -0.029002f, 0.169437f, 0.101852f, -0.104243f,
    -0.062852f, 0.027830f, 0.055896f, 0.151286f, 0.179013f, 0.102221f, -0.071879f, 0.075065f, 0.162843f, -0.052782f,
    0.089317f, -0.174803f, 0.063682f, 0.165834f, -0.147895f, 0.008060f, 0.213179f, 0.086822f, -0.065828f, -0.073276f,
    0.142162f, -0.000183f, 0.123124f, -0.013543f, -0.057750f, -0.062443f, 0.138532f, 0.195002f, -0.023411f, -0.109604f,
    -0.128805f, -0.037766f, -0.136288f, -0.016991f, 0.050489f, 0.088542f, -0.026725f, -0.081753f, 0.160505f, 0.041212f,
    -0.060887f, -0.210881f, 0.002577f, 0.130028f, 0.216400f, 0.165330f, -0.066023f, 0.206091f, -0.204002f, 0.143558f,
    0.100236f, 0.092483f, 0.041910f, 0.181548f, -0.180074f, -0.056089f, -0.057341f, -0.164809f, -0.194144f, -0.082428f,
    0.019586f, -0.022372f, 0.061858f, -0.004562f, -0.014750f, -0.160451f, 0.145692f, 0.090604f, 0.038179f, -0.014332f,
    0.025299f, -0.128365f, 0.200504f, 0.198347f, 0.205810f, 0.199277f, -0.048244f, 0.187303f, -0.052794f, 0.028061f,
    0.144192f, 0.122941f, 0.040455f, -0.076798f, 0.064023f, -0.204164f, 0.110294f, 0.184802f, -0.030833f, -0.008882f,
    -0.139692f, -0.135610f, -0.040615f, -0.030699f, 0.034466f, 0.055786f, 0.052488f, 0.117649f, 0.060604f, -0.089854f,
    -0.121003f, 0.077649f, -0.090435f, 0.012461f, 0.207001f, -0.122401f, -0.095941f, -0.040798f, -0.141541f, -0.060776f,
    -0.164304f, 0.040741f, 0.133714f, 0.117993f, 0.186247f, 0.186428f, -0.126076f, -0.097490f, -0.096673f, 0.026996f,
    0.084102f, 0.130713f, 0.157520f, -0.167852f, -0.105312f, 0.028336f, -0.066963f, 0.070606f, -0.137543f, -0.115458f,
    -0.212248f, 0.031313f, 0.078504f, -0.140429f, 0.027719f, -0.030314f, -0.106185f, 0.006142f, 0.016786f, 0.204716f,
    -0.060147f, 0.154231f, -0.100745f, 0.171467f, 0.049540f, -0.102209f, -0.025006f, 0.004512f, -0.041248f, 0.106168f,
    -0.177070f, -0.164668f, 0.132646f, -0.053695f, -0.102088f, -0.141561f, -0.125520f, 0.034424f, 0.183852f, -0.148970f,
    0.025554f, 0.196818f, -0.147135f, -0.029090f, 0.062033f, -0.057831f, -0.197185f, 0.159596f, -0.122238f, 0.147761f,
    0.066553f, -0.073119f, 0.183224f, 0.127546f, -0.160815f, -0.157633f, 0.094757f, -0.162233f, -0.203484f, -0.163199f,
    -0.194701f, 0.003396f, 0.133353f, -0.142569f, -0.051756f, -0.084180f, 0.209655f, -0.212008f, -0.062006f, -0.153431f,
    -0.025125f, 0.125626f, -0.087486f, -0.065288f, -0.088247f, -0.173337f, 0.179412f, 0.207308f, 0.052791f, -0.049268f,
    0.159007f, 0.197006f, -0.030008f, -0.178631f, -0.042251f, 0.081346f, 0.044365f, -0.134760f, 0.185157f, 0.124973f,
    -0.026255f, 0.194625f, -0.103254f, -0.166541f, -0.202615f, 0.073364f, -0.053933f, -0.008378f, -0.167237f, -0.205118f,
    -0.168328f, -0.201383f, -0.053844f, -0.192989f, 0.054468f, -0.040825f, -0.155989f, 0.162947f, -0.118256f, 0.087899f,
    -0.051127f, -0.061784f, -0.033404f, 0.081771f, 0.095080f, 0.084875f, 0.017797f, -0.038647f, -0.158636f, 0.119322f,
    0.195206f, 0.169260f, -0.190717f, 0.069158f, -0.150992f, -0.105192f, 0.124121f, 0.148444f, 0.051335f, -0.149848f,
    0.111799f, 0.110184f, -0.075123f, 0.134778f, -0.109572f, 0.029101f, -0.091575f, -0.061827f, 0.097452f, 0.134710f,
    0.149976f, 0.202216f, -0.184364f, -0.200651f, 0.000370f, 0.037240f, 0.216411f, -0.199587f, 0.136765f, -0.155872f,
    -0.115464f, 0.027710f, 0.212204f, -0.047812f, 0.186535f, -0.212812f, 0.154060f, -0.013808f, -0.039603f, -0.156872f,
    0.076044f, -0.189206f, -0.208766f, -0.107683f, 0.111915f, -0.134441f, 0.081095f, -0.123900f, -0.197545f, -0.113327f,
    0.163422f, -0.152860f, 0.208678f, 0.023385f, 0.072509f, 0.059853f, 0.183354f, 0.104926f, 0.199032f, 0.159277f,
    -0.124296f, 0.163608f, -0.165007f, 0.100916f, -0.091828f, 0.014466f, -0.196196f, -0.005240f, 0.208252f, 0.047040f,
    -0.093438f, -0.184880f, -0.193447f, 0.164149f, -0.132570f, 0.160414f, 0.074740f, 0.068458f, 0.087590f, 0.215794f,
    0.115367f, 0.163862f, -0.196101f, -0.046333f, -0.169726f, 0.154760f, 0.096541f, -0.210469f, -0.052955f, -0.196080f,
    0.067985f, -0.030575f, -0.044108f, -0.181539f, 0.027286f, -0.022834f, -0.182653f, 0.073415f, 0.188708f, 0.167883f,
    0.022866f, 0.199557f, -0.185352f, -0.095684f, 0.095321f, -0.144707f, -0.098798f, -0.017823f, 0.034891f, 0.118101f,
    -0.162981f, 0.136053f, -0.159757f, -0.143977f, -0.129539f, -0.175443f, -0.214258f, -0.129473f, 0.120753f, -0.099291f,
    0.109535f, 0.016641f, -0.017131f, -0.022293f, -0.055725f, -0.041645f, -0.052198f, -0.063516f, 0.182590f, 0.121417f,
    0.146890f, -0.101847f, -0.062872f, 0.069356f, -0.170438f, -0.144471f, -0.134222f, -0.181952f, 0.127302f, 0.126735f,
    -0.040099f, -0.019593f, 0.209207f, 0.082467f, -0.199811f, 0.214831f, -0.098217f, -0.164250f, -0.190948f, 0.099915f,
    0.108071f, -0.001332f, 0.197945f, 0.157638f, -0.131710f, -0.080647f, -0.012028f, -0.035050f, 0.149513f, -0.067595f,
    0.009662f, -0.127785f, 0.080139f, 0.061485f, 0.109871f, 0.003582f, -0.036106f, 0.054771f, 0.051150f, 0.166065f,
    -0.037859f, -0.084803f, 0.125504f, 0.107495f, -0.205592f, -0.170474f, -0.032414f, -0.054813f, -0.003799f, -0.100031f,
    -0.204945f, 0.004636f, 0.054256f, 0.188272f, 0.141686f, -0.103751f, 0.021845f, 0.201204f, 0.152143f, -0.087257f,
    0.136183f, -0.157012f, -0.173676f, -0.041663f, 0.103172f, 0.079289f, 0.086024f, 0.149247f, 0.000157f, 0.011613f,
    -0.203928f, 0.183844f, -0.137667f, 0.004071f, -0.170689f, -0.023030f, -0.082680f, -0.100848f, -0.072419f, 0.153596f,
    -0.124483f, 0.160071f, -0.083904f, 0.010224f, 0.001590f, 0.133035f, 0.141188f, -0.188165f, 0.007099f, -0.098684f,
    -0.068058f, 0.071665f, 0.097265f, -0.133295f, -0.204793f, 0.106837f, 0.188430f, -0.134595f, -0.122389f, -0.148813f,
    -0.066481f, 0.159733f, 0.002941f, 0.177029f, -0.002022f, -0.165006f, 0.114316f, -0.195546f, -0.180625f, 0.005646f,
    -0.164366f, -0.022280f, 0.056955f, 0.106782f, -0.070438f, -0.168921f, 0.165088f, 0.041296f, -0.097363f, 0.079880f,
    0.075502f, 0.053277f, 0.191249f, -0.077419f, -0.102445f, 0.020515f, -0.086346f, 0.093085f, 0.206446f, -0.062593f,
    0.194953f, -0.122356f, -0.016420f, 0.068614f, 0.188612f, -0.059895f, 0.099154f, -0.212649f, -0.155377f, 0.067789f,
    0.033703f, -0.067502f, 0.183263f, 0.037411f, 0.012856f, 0.015466f, -0.199584f, -0.086305f, 0.199241f, -0.078581f,
    -0.168392f, -0.090315f, -0.200774f, 0.057472f, -0.058733f, -0.159604f, -0.072532f, -0.038838f, 0.187434f, 0.063101f,
    -0.077395f, 0.134177f, 0.038157f, 0.104630f, -0.022414f, 0.042285f, 0.169206f, 0.123084f, -0.144648f, 0.035298f,
    0.020765f, 0.111762f, -0.054497f, -0.054848f, 0.030020f, 0.049306f, 0.008065f, -0.154400f, -0.215388f, 0.202999f,
    0.089806f, -0.102074f, -0.140809f, -0.174281f, -0.108496f, -0.145738f, 0.177481f, -0.082033f, 0.097373f, -0.115697f,
    0.046329f, 0.097096f, -0.036207f, -0.107414f, -0.038843f, -0.205855f, 0.013743f, -0.043179f, -0.065153f, -0.039288f,
    0.177508f, -0.184144f, -0.095388f, -0.208666f, -0.037522f, 0.146736f, 0.117024f, 0.089795f, 0.049623f, 0.076649f,
    0.201745f, 0.093032f, 0.113317f, 0.030223f, 0.212140f, 0.161480f, -0.178033f, -0.114443f, 0.053788f, 0.093214f,
    -0.175897f, -0.204230f, -0.128520f, 0.022059f, 0.213963f, -0.164084f, 0.028897f, 0.011149f, 0.169871f, 0.211000f,
    -0.124082f, 0.140192f, -0.133422f, 0.031827f, -0.038747f, -0.122650f, 0.176173f, 0.012156f, 0.052501f, 0.181901f,
    0.051091f, -0.028688f, -0.002810f, -0.141826f, 0.199507f, 0.024271f, -0.162243f, 0.196730f, 0.097998f, 0.193368f,
    -0.194169f, 0.197823f, 0.066292f, -0.193468f, -0.082775f, 0.023631f, 0.067861f, 0.029521f, 0.088129f, -0.034501f,
    0.100088f, -0.013155f, 0.083891f, -0.173887f, -0.142141f, -0.184386f, -0.196869f, 0.172302f, -0.157608f, -0.039283f,
    -0.069284f, -0.071631f, -0.119952f, -0.050077f, 0.111982f, 0.051054f, 0.169696f, -0.116154f, 0.152667f, -0.083629f,
    -0.124876f, -0.181898f, 0.152914f, -0.065522f, -0.131288f, -0.204971f, -0.214643f, -0.012677f, -0.035625f, -0.117066f,
    0.062196f, -0.093214f, 0.032791f, 0.114562f, 0.059407f, 0.165938f, 0.114796f, -0.011486f, 0.151399f, 0.058364f,
    0.170602f, -0.089101f, -0.048833f, -0.098947f, -0.204528f, -0.206575f, -0.189783f, 0.175926f, 0.118202f, -0.009279f,
    0.030032f, 0.206779f, -0.010843f, 0.178171f, 0.065371f, -0.093200f, 0.144249f, 0.071203f, -0.099737f, -0.172369f,
    -0.114877f, -0.170581f, 0.130217f, 0.046812f, -0.011382f, 0.016316f, 0.061493f, 0.164477f, -0.007149f, -0.076170f,
    -0.061293f, 0.156699f, 0.033802f, -0.180864f, -0.202872f, 0.053042f, 0.174805f, -0.170401f, -0.048371f, 0.070240f,
    0.043188f, -0.121975f, 0.182954f, 0.160289f, 0.112902f, 0.180378f, 0.021129f, 0.181015f, -0.167775f, 0.085717f,
    0.142055f, -0.063294f, -0.171982f, -0.000697f, -0.040511f, -0.015096f, 0.077838f, 0.192357f, 0.143352f, -0.025541f,
    -0.055157f, 0.137364f, 0.053057f, -0.006990f, 0.022379f, -0.064845f, 0.106762f, 0.157048f, 0.005613f, -0.200683f,
    -0.053739f, 0.180141f, 0.078720f, -0.134237f, 0.033649f, 0.187453f, -0.028647f, -0.049625f, -0.026795f, 0.184225f,
    0.074105f, 0.039634f, -0.084377f, 0.042734f, 0.203786f, -0.183085f, 0.086266f, 0.035959f, 0.195280f, -0.216082f,
    -0.212606f, 0.161525f, 0.164627f, -0.005911f, 0.155519f, 0.168192f, -0.168592f, -0.137836f, 0.200504f, 0.199561f,
    -0.044222f, -0.050181f, -0.205089f, 0.111002f, 0.120276f, -0.033964f, 0.041009f, 0.163286f, 0.017458f, 0.072457f,
    -0.194298f, 0.071755f, -0.113874f, 0.216493f, -0.089549f, 0.053446f, -0.094313f, 0.190030f, 0.191526f, -0.204144f,
    -0.169510f, 0.105548f, -0.068710f, -0.078679f, 0.018141f, -0.140552f, -0.180388f, -0.006209f, 0.193017f, 0.143901f,
    -0.150185f, -0.055938f, -0.013405f, -0.159423f, 0.077677f, 0.035278f, -0.052966f, -0.125558f, 0.061372f, 0.209137f,
    -0.155230f, 0.032859f, -0.132700f, -0.209846f, -0.085386f, -0.019934f, -0.126227f, 0.049811f, -0.033688f, -0.142861f,
    -0.006465f, 0.200156f, -0.051023f, -0.153028f, 0.129542f, -0.089659f, -0.001684f, -0.024457f, 0.080285f, -0.161066f,
    0.035378f, -0.017341f, 0.071343f, -0.206548f, 0.130747f, 0.180173f, -0.129233f, 0.029273f, 0.094755f, -0.079215f,
    0.061252f, -0.209318f, -0.052912f, -0.009144f, -0.024285f, 0.061712f, -0.139274f, 0.214126f, -0.179039f, -0.162465f,
    -0.131938f, 0.025002f, 0.041734f, -0.097974f, -0.076871f, -0.195302f, -0.193972f, -0.063982f, 0.006372f, -0.061108f,
    0.017390f, 0.101867f, 0.172252f, 0.074746f, -0.182296f, -0.062349f, 0.043676f, -0.001459f, -0.098156f, -0.195656f,
    -0.034111f, 0.198028f, -0.068855f, -0.154940f, -0.058573f, -0.053027f, -0.149898f, -0.105972f, 0.086373f, -0.179468f,
    0.193245f, -0.052921f, -0.083744f, -0.178901f, 0.163172f, -0.212809f, 0.011943f, 0.139651f, 0.132546f, 0.108393f,
    0.171813f, 0.188424f, 0.019256f, -0.184931f, -0.043552f, -0.215352f, 0.073638f, 0.006211f, 0.212254f, 0.089574f,
    0.126553f, 0.127222f, 0.214882f, 0.018073f, 0.206696f, -0.002661f, 0.028410f, 0.004883f, -0.180804f, -0.119417f,
    -0.160819f, -0.151720f, -0.025968f, -0.084710f, -0.024315f, -0.115567f, 0.019245f, -0.193566f, -0.074989f, 0.045004f,
    -0.024874f, 0.058795f, 0.012343f, -0.010398f, -0.054137f, -0.008449f, -0.055291f, -0.142366f, -0.200934f, -0.172276f,
    0.096684f, 0.087277f, -0.175274f, -0.152104f, -0.165800f, 0.026977f, -0.216319f, -0.124331f, 0.191301f, -0.020790f,
    -0.110809f, -0.014866f, -0.031922f, 0.042635f, -0.022356f, 0.109481f, 0.199771f, -0.104103f, 0.199078f, -0.113525f,
    -0.136014f, -0.154747f, -0.134003f, -0.128789f, -0.198312f, -0.010087f, 0.072534f, 0.087952f, 0.036116f, -0.203359f,
    0.052151f, 0.208383f, 0.152407f, -0.212778f, -0.125494f, -0.149577f, 0.186365f, 0.099716f, 0.154673f, 0.141512f,
    0.079086f, 0.077760f, -0.115449f, -0.049374f, 0.136760f, 0.126123f, 0.182222f, 0.012541f, -0.201552f, 0.147878f,
    -0.206665f, 0.172449f, 0.080698f, 0.035189f, 0.058786f, 0.169690f, -0.145047f, 0.071403f, -0.165928f, -0.006192f,
    0.203909f, -0.178969f, -0.030216f, -0.171519f, -0.087556f, -0.184950f, -0.071453f, -0.162013f, 0.076200f, 0.138327f,
    0.193590f, -0.197015f, 0.199372f, -0.013953f, 0.189609f, 0.032207f, 0.175774f, -0.190753f, 0.054075f, 0.046183f,
    -0.033933f, 0.160894f, -0.210102f, -0.070351f, 0.148585f, -0.031007f, -0.083148f, -0.160839f, 0.158240f, -0.120576f,
    -0.075125f, 0.048691f, 0.009105f, -0.113486f, 0.011032f, -0.131056f, 0.077960f, -0.000865f, 0.130950f, 0.192113f,
    -0.080930f, -0.114192f, -0.141882f, 0.192864f, 0.006643f, -0.034289f, 0.106007f, 0.185678f, -0.148603f, 0.041968f,
    0.014733f, -0.131620f, -0.027865f, -0.044005f, -0.206600f, -0.163006f, -0.005186f, 0.067945f, -0.209571f, -0.076190f,
    0.074811f, -0.082344f, 0.121468f, 0.156779f, -0.212467f, -0.052359f, -0.099229f, -0.192838f, -0.036022f, -0.092929f,
    -0.015530f, 0.022013f, -0.034996f, -0.215449f, -0.168529f, 0.205977f, 0.153428f, -0.128148f, -0.060455f, -0.115084f,
    0.130408f, -0.011277f, -0.149251f, 0.093874f, 0.025081f, -0.082155f, 0.062969f, -0.197177f, 0.075054f, 0.190077f,
    0.018068f, -0.161800f, -0.084250f, 0.067990f, 0.122696f, 0.144484f, -0.004463f, -0.189513f, -0.081576f, -0.185328f,
    -0.191506f, -0.099915f, -0.014633f, 0.143311f, -0.103377f, 0.137384f, -0.201720f, 0.108953f, -0.023638f, 0.157733f,
    -0.213883f, 0.206900f, 0.129026f, 0.188749f, -0.132653f, 0.003801f, -0.040003f, -0.082697f, 0.121752f, -0.157291f,
    0.018496f, -0.198811f, -0.055699f, 0.052533f, 0.124486f, 0.205038f, 0.100500f, 0.201657f, 0.202524f, -0.170844f,
    -0.104320f, 0.199827f, 0.136539f, -0.012236f, 0.112948f, 0.119252f, 0.213232f, -0.145353f, -0.120478f, 0.165004f,
    -0.057155f, -0.188572f, -0.041951f, 0.098623f, 0.199678f, 0.149148f, -0.014884f, -0.017808f, 0.037694f, -0.001626f,
    0.009184f, -0.078087f, -0.073018f, 0.161124f, -0.048839f, 0.070773f, -0.041167f, -0.137585f, -0.096875f, -0.007456f,
    0.061106f, -0.201086f, -0.011870f, -0.017011f, 0.143230f, -0.191914f, -0.007702f, 0.173829f, -0.038137f, 0.129351f,
    0.076000f, 0.024543f, -0.161000f, -0.030865f, -0.151081f, 0.095428f, 0.196798f, 0.029470f, 0.065201f, 0.046314f,
    -0.025057f, -0.048811f, 0.106950f, 0.095410f, -0.072694f, 0.137584f, 0.164938f, 0.132651f, 0.050972f, -0.099639f,
    0.054211f, -0.033305f, -0.197826f, -0.183364f, 0.130915f, 0.036372f, -0.097983f, -0.153508f, 0.023781f, -0.150281f,
    0.193450f, 0.104553f, -0.061308f, 0.170418f, -0.045362f, -0.002156f, 0.005719f, 0.033132f, 0.050169f, -0.067377f,
    -0.121453f, -0.016161f, 0.025404f, 0.036477f, 0.080693f, -0.151880f, 0.021602f, 0.212111f, -0.196506f, -0.034618f,
    -0.078373f, -0.139531f, -0.173431f, 0.144934f, -0.034145f, 0.206223f, 0.074447f, 0.162402f, -0.183545f, -0.203773f,
    0.124098f, 0.108701f, 0.014367f, 0.043375f, 0.192664f, -0.113856f, 0.057944f, 0.160032f, 0.016289f, 0.074042f,
    0.166012f, 0.180774f, -0.198788f, -0.061434f, -0.153165f, 0.195539f, 0.188080f, 0.120703f, -0.174673f, -0.166271f,
    0.172774f, 0.145577f, -0.147914f, 0.021008f, -0.007218f, -0.106238f, -0.153254f, -0.023281f, 0.085725f, 0.106595f,
    -0.081944f, -0.061414f, 0.139524f, -0.115329f, -0.103738f, 0.034978f, -0.172261f, 0.011395f, 0.073636f, -0.007294f,
    0.140844f, -0.164076f, 0.102916f, -0.203810f, -0.006997f, -0.132615f, 0.137358f, 0.131612f, -0.083943f, 0.007290f,
    -0.189590f, -0.173238f, -0.155898f, -0.067289f, -0.008377f, -0.115430f, 0.064773f, 0.091813f, 0.060726f, -0.052131f,
    -0.032853f, 0.062330f, 0.043509f, -0.039982f, -0.041706f, 0.162519f, 0.113365f, -0.189961f, -0.106807f, 0.152116f,
    0.083713f, 0.045164f, -0.042070f, 0.000576f, 0.036879f, -0.195119f, -0.182535f, 0.067179f, 0.002336f, -0.068511f,
    0.110366f, 0.014237f, 0.139846f, -0.110906f, 0.069606f, 0.204320f, -0.136513f, 0.039557f, 0.175042f, -0.165945f,
    0.098290f, 0.055899f, -0.016277f, -0.124664f, -0.137483f, 0.122325f, 0.103661f, -0.082305f, -0.088714f, 0.136057f,
    -0.023744f, -0.201351f, -0.157381f, 0.041650f, 0.033389f, 0.094230f, 0.179378f, 0.048581f, -0.201252f, 0.032653f,
    0.075787f, -0.097106f, 0.168589f, 0.000157f, 0.193762f, -0.044083f, -0.096610f, 0.005554f, 0.112241f, -0.196737f,
    -0.173132f, -0.095266f, -0.097285f, -0.078533f, 0.126968f, 0.004456f, -0.097776f, 0.182058f, -0.145144f, -0.076335f,
    0.076331f, -0.120010f, 0.023999f, 0.087567f, 0.043271f, 0.028718f, 0.078475f, 0.048002f, -0.081107f, 0.132770f,
    0.150418f, 0.036880f, -0.202986f, 0.019260f, 0.118122f, 0.132768f, -0.109722f, 0.194200f, 0.209169f, 0.028223f,
    -0.036432f, -0.021296f, -0.026892f, 0.076534f, -0.213354f, -0.154970f, -0.076138f, 0.067744f, 0.150010f, 0.035679f,
    0.109328f, -0.058790f, 0.209348f, -0.106566f, -0.142698f, 0.174628f, -0.010136f, 0.209019f, 0.010304f, -0.113743f,
    0.161536f, 0.201591f, -0.142461f, -0.092650f, 0.184423f, 0.082809f, 0.210897f, -0.211233f, 0.074762f, 0.099634f,
    -0.197994f, 0.198953f, -0.065224f, 0.015260f, 0.044201f, -0.190902f, 0.175701f, 0.103903f, 0.177063f, 0.086450f,
    0.083564f, 0.125222f, 0.111868f, 0.054753f, 0.096806f, 0.160762f, 0.136327f, 0.017961f, -0.130041f, -0.119386f,
    0.128710f, 0.017081f, 0.045539f, -0.152643f, -0.158795f, 0.088053f, -0.048001f, -0.097073f, -0.090305f, 0.068936f,
    0.215126f, -0.012892f, -0.179294f, -0.180725f, -0.072683f, -0.035963f, 0.095047f, -0.074598f, 0.158700f, 0.216127f,
    0.126827f, -0.118633f, -0.150562f, -0.072887f, -0.092605f, -0.088174f, -0.193557f, -0.011938f, -0.215608f, -0.108343f,
    0.071263f, -0.076433f, 0.059844f, -0.041255f, 0.213210f, 0.084039f, 0.101996f, -0.097210f, 0.078728f, 0.040265f,
    -0.112150f, 0.065988f, -0.087004f, -0.106497f, 0.115126f, -0.096642f, 0.029272f, 0.109648f, 0.165704f, 0.011694f,
    -0.196735f, 0.133030f, -0.201923f, -0.126353f, 0.168044f, 0.212950f, 0.090621f, 0.133908f, -0.212446f, -0.157960f,
    -0.040230f, 0.150053f, -0.130793f, 0.152127f, 0.204895f, 0.133448f, 0.207075f, -0.181233f, -0.097213f, -0.062967f,
    0.026506f, -0.059740f, -0.092671f, 0.191210f, 0.005389f, -0.002813f, 0.143706f, -0.197814f, -0.025265f, 0.150590f,
    -0.123859f, -0.182212f, 0.190880f, -0.022806f, -0.081951f, -0.037022f, -0.169670f, -0.140250f, -0.083279f, 0.173168f,
    0.212877f, -0.184396f, 0.141171f, 0.052064f, 0.025694f, 0.067483f, 0.103740f, -0.093336f, -0.111461f, 0.126778f,
    0.139684f, -0.133592f, -0.002500f, -0.105162f, -0.201471f, -0.084696f, 0.142669f, -0.012283f, 0.101266f, 0.143046f,
    -0.156584f, -0.002066f, 0.127818f, -0.002021f, 0.163289f, -0.095525f, 0.088242f, -0.116504f, 0.145359f, 0.018132f,
    0.177719f, -0.076546f, -0.157860f, -0.016575f, 0.187985f, -0.016024f, 0.192628f, 0.070283f, 0.189470f, 0.030668f,
    -0.200407f, 0.018832f, 0.203349f, 0.038892f, -0.070932f, -0.210151f, -0.036554f, -0.164624f, 0.005681f, 0.172269f,
    -0.203416f, -0.106909f, 0.145818f, -0.193244f, -0.174138f, 0.186695f, -0.205855f, 0.141058f, -0.123355f, 0.110455f,
    -0.101781f, -0.046857f, -0.155729f, -0.187974f, -0.011501f, -0.189064f, 0.013847f, 0.030964f, -0.094851f, 0.059306f,
    0.199661f, -0.201966f, -0.208217f, 0.198435f, 0.065488f, -0.190312f, -0.080355f, 0.018149f, -0.132641f, 0.140039f,
    0.069541f, 0.051656f, -0.188212f, 0.190223f, -0.001421f, 0.099286f, 0.016426f, 0.089248f, 0.149535f, 0.016327f,
    -0.125938f, -0.044497f, -0.109857f, -0.151745f, 0.106414f, 0.161018f, 0.211739f, -0.027983f, -0.106437f, -0.123401f,
    -0.089355f, -0.155037f, 0.176686f, -0.164126f, 0.190677f, 0.204693f, 0.083866f, 0.206677f, 0.157416f, 0.117094f,
    0.010406f, 0.072233f, -0.181763f, -0.036003f, -0.061975f, -0.175645f, -0.012978f, 0.101724f, 0.052413f, -0.089602f,
    0.013981f, 0.199962f, -0.094475f, -0.206411f, -0.126195f, -0.022391f, -0.032178f, 0.144033f, -0.117566f, -0.161705f,
    -0.023316f, -0.183422f, -0.071696f, -0.206672f, -0.057188f, 0.164069f, 0.103123f, 0.177516f, 0.098459f, -0.018626f,
    0.073169f, 0.132352f, 0.147328f, -0.204585f, -0.159958f, -0.120572f, 0.175922f, -0.018171f, 0.027412f, 0.128315f,
    0.081718f, -0.098688f, -0.092345f, 0.011465f, 0.024156f, -0.074254f, 0.109728f, 0.146302f, 0.112478f, -0.113389f,
    0.146687f, -0.057829f, 0.026137f, -0.026362f, 0.206167f, -0.113179f, 0.184895f, -0.046370f, 0.172573f, 0.116779f,
    -0.180425f, 0.185651f, 0.168673f, -0.127500f, -0.170658f, -0.108854f, -0.012762f, 0.108943f, -0.012617f, -0.066311f,
    -0.110158f, -0.181845f, 0.143767f, -0.137688f, -0.131905f, -0.049398f, -0.028659f, -0.007579f, -0.067798f, 0.063971f,
    0.078661f, -0.004015f, 0.100363f, -0.090671f, -0.094158f, 0.070820f, -0.204575f, 0.037801f, 0.155869f, -0.008352f,
    -0.017483f, 0.157905f, -0.161989f, 0.131180f, -0.197662f, -0.113135f, -0.168235f, 0.012332f, -0.078146f, -0.158097f,
    -0.148642f, -0.075442f, 0.139019f, -0.190994f, -0.000369f, -0.168435f, -0.129863f, -0.177344f, -0.005392f, -0.080000f,
    -0.093280f, -0.166027f, 0.168186f, 0.128951f, -0.122555f, -0.185159f, 0.106276f, -0.181504f, 0.001544f, 0.005582f,
    0.045536f, -0.128617f, 0.137613f, 0.058943f, -0.187809f, -0.173642f, -0.189002f, 0.023793f, 0.189983f, 0.128332f,
    0.053682f, 0.020820f, -0.143873f, -0.169043f, 0.127148f, 0.132205f, -0.160341f, -0.132710f, 0.157732f, -0.085263f,
    0.177214f, 0.134430f, 0.014855f, 0.129214f, -0.096187f, -0.125056f, 0.087056f, 0.024843f, 0.186392f, 0.111901f,
    -0.122290f, 0.042476f, 0.200535f, -0.179348f, -0.178630f, 0.144120f, -0.080457f, 0.028678f, -0.064220f, -0.020570f,
    0.195442f, 0.065330f, -0.107672f, -0.097383f, 0.054076f, -0.140313f, 0.120223f, -0.048632f, -0.007300f, -0.188851f,
    -0.036507f, 0.024540f, 0.060667f, -0.035402f, 0.019684f, 0.060027f, 0.031616f, -0.002318f, 0.210652f, -0.137278f,
    -0.176483f, -0.099189f, -0.002086f, 0.160344f, -0.151931f, 0.094311f, 0.176111f, -0.080985f, 0.163228f, -0.023288f,
    -0.161503f, -0.208466f, 0.199340f, 0.161936f, 0.145047f, -0.090933f, -0.058338f, 0.005560f, -0.142537f, 0.175973f,
    0.092837f, -0.178898f, -0.155043f, -0.003300f, 0.052255f, -0.077124f, -0.113608f, -0.105255f, 0.001413f, 0.012415f,
    -0.124539f, 0.133051f, -0.094074f, -0.032346f, -0.138609f, -0.095764f, -0.207578f, -0.015793f, -0.155603f, 0.145812f,
    0.184858f, 0.122453f, -0.149697f, -0.094571f, 0.182726f, -0.216237f, -0.168547f, -0.191552f, 0.034202f, -0.175120f,
    0.121800f, 0.065890f, -0.078418f, 0.112204f, -0.023483f, -0.213165f, 0.003643f, 0.084641f, 0.210329f, -0.136749f,
    -0.027724f, 0.015982f, 0.169990f, 0.086762f, 0.067483f, -0.031789f, 0.137069f, 0.114532f, -0.203739f, 0.156132f,
    0.089650f, -0.179815f, -0.155330f, 0.146738f, -0.061609f, -0.077253f, -0.119877f, -0.075895f, -0.036220f, 0.149878f,
    0.142842f, -0.054433f, 0.131516f, 0.160392f, -0.144647f, 0.163587f, 0.102324f, -0.160730f, -0.135485f, -0.050004f,
    0.036140f, 0.141788f, -0.114284f, 0.124620f, 0.202426f, -0.102623f, -0.102266f, -0.127658f, -0.155341f, -0.151527f,
    -0.125201f, -0.118529f, 0.172130f, -0.034489f, -0.198991f, 0.210240f, -0.001098f, -0.086372f, 0.050507f, -0.036851f,
    -0.076259f, -0.118564f, 0.119821f, -0.101929f, -0.059270f, 0.086910f, 0.104061f, 0.207705f, -0.016961f, 0.214389f,
    -0.118642f, 0.029253f, -0.191996f, -0.053281f, 0.010290f, 0.098845f, 0.129297f, 0.193538f, -0.191141f, -0.046666f,
    -0.135032f, -0.164499f, 0.049673f, 0.054848f, 0.161611f, -0.139018f, -0.091214f, -0.041452f, -0.195750f, -0.173889f,
    0.148540f, -0.093802f, -0.201772f, -0.049644f, 0.059544f, -0.193139f, -0.018101f, 0.201187f, -0.057041f, 0.048399f,
    -0.161124f, -0.195534f, -0.009522f, 0.205186f, -0.211134f, 0.213730f, 0.211614f, 0.061943f, 0.158688f, -0.014990f,
    -0.019973f, -0.117958f, -0.185911f, -0.184232f, -0.034652f, -0.111812f, 0.115899f, 0.207144f, -0.073183f, -0.006995f,
    -0.099409f, 0.036309f, 0.205884f, 0.087683f, -0.152861f, 0.186296f, -0.027399f, 0.184035f, -0.189491f, -0.139802f,
    -0.169496f, 0.167585f, -0.021614f, 0.004609f, -0.135550f, -0.091389f, 0.000000f, 0.000000f, 0.000000f, 0.000000f,
    0.000000f, 0.000000f, 0.000000f, 0.000000f, 0.000000f, 0.000000f, 0.000000f, 0.000000f, 0.000000f, 0.000000f,
    0.000000f, 0.000000f, 0.000000f, 0.000000f, 0.000000f, 0.000000f, 0.000000f, 0.000000f, 0.000000f, 0.000000f,
    0.000000f, 0.000000f, 0.000000f, 0.000000f, 0.000000f, 0.000000f, 0.000000f, 0.000000f, 0.000000f, 0.000000f,
    0.000000f, 0.000000f, 0.000000f, 0.000000f, 0.000000f, 0.000000f, 0.000000f, 0.000000f, 0.000000f, 0.000000f,
    0.000000f, 0.000000f, 0.000000f, 0.000000f, 0.000000f, 0.000000f, 0.000000f, 0.000000f, 0.000000f, 0.000000f,
    0.000000f, 0.000000f, 0.000000f, 0.000000f, 0.000000f, 0.000000f, 0.000000f, 0.000000f, 0.000000f, 0.000000f,
    0.000479f, -0.069457f, 0.092462f, -0.096939f, 0.049471f, 0.011786f, 0.022289f, 0.053835f, -0.017932f, 0.062526f,
    0.007912f, 0.071781f, 0.007596f, -0.070730f, -0.058856f, 0.053602f, 0.054936f, -0.099686f, 0.004362f, -0.018471f,
    0.073241f, 0.082254f, 0.077610f, 0.019344f, 0.017980f, 0.064217f, -0.081825f, 0.004955f, -0.032383f, -0.052845f,
    0.048888f, 0.011655f, -0.095553f, 0.056650f, -0.097613f, -0.030057f, -0.017295f, -0.057992f, -0.070268f, -0.034052f,
    -0.035481f, -0.077036f, -0.016360f, 0.083172f, 0.002020f, 0.073265f, 0.066402f, 0.062722f, -0.072829f, -0.040694f,
    -0.031828f, 0.028323f, 0.039913f, 0.092573f, 0.101956f, 0.072076f, -0.056306f, 0.011011f, -0.043158f, 0.022212f,
    0.068342f, -0.093922f, 0.092492f, -0.037857f, 0.064659f, -0.092601f, 0.093397f, -0.067689f, 0.057771f, 0.065398f,
    0.060415f, 0.017207f, 0.003447f, 0.099537f, 0.080486f, -0.040019f, 0.012917f, 0.035362f, 0.022924f, -0.006486f,
    -0.086559f, -0.088863f, 0.060016f, -0.067628f, 0.032192f, -0.068059f, 0.063357f, -0.055506f, -0.012939f, -0.003179f,
    0.053572f, 0.017472f, 0.058963f, -0.083134f, -0.048130f, -0.006791f, -0.003670f, 0.066605f, -0.097510f, 0.082121f,
    -0.016333f, -0.000651f, -0.068298f, 0.088935f, 0.094852f, 0.094451f, -0.078521f, -0.033768f, 0.075071f, 0.087965f,
    -0.059662f, 0.047096f, -0.008065f, 0.006691f, -0.084456f, 0.034415f, 0.022499f, -0.059284f, -0.086531f, -0.025067f,
    -0.092663f, -0.040725f, 0.033920f, 0.010421f, 0.046610f, -0.088544f, -0.096488f, -0.052109f, 0.048068f, -0.098367f,
    0.086723f, 0.056896f, 0.078073f, -0.067171f, -0.096004f, 0.026562f, -0.044801f, 0.078189f, -0.020050f, 0.035788f,
    0.013006f, -0.042944f, -0.000399f, -0.073054f, -0.068771f, -0.085634f, 0.089781f, 0.101787f, 0.027945f, 0.083466f,
    0.067402f, 0.044937f, 0.067628f, -0.054088f, 0.096835f, -0.101619f, 0.035292f, -0.091390f, 0.075975f, 0.055933f,
    0.090734f, 0.101715f, -0.086531f, -0.001441f, 0.079872f, -0.012399f, 0.008421f, -0.024038f, -0.053772f, -0.049528f,
    -0.006156f, 0.074159f, 0.003393f, 0.098895f, -0.046783f, 0.012327f, 0.100609f, -0.076444f, 0.052436f, -0.086139f,
    0.100026f, -0.015585f, 0.077623f, -0.001923f, 0.044364f, -0.047351f, -0.072432f, -0.078109f, -0.034989f, 0.057043f,
    0.082265f, 0.080508f, -0.031335f, -0.086054f, -0.030796f, 0.056028f, 0.100307f, 0.075746f, 0.090957f, -0.014487f,
    0.067271f, 0.038459f, 0.041344f, 0.059036f, 0.018164f, 0.043740f, 0.000036f, 0.098686f, -0.089105f, 0.080660f,
    -0.007084f, -0.070978f, 0.070818f, -0.080971f, -0.080789f, 0.068048f, -0.006679f, 0.076455f, -0.015572f, 0.000048f,
    0.043113f, -0.064751f, 0.009780f, -0.040730f, -0.075611f, 0.074059f, -0.020358f, -0.097681f, -0.053219f, 0.070743f,
    0.060694f, -0.018836f, -0.088621f, 0.047724f, -0.090999f, 0.030394f, 0.072823f, -0.074556f, -0.067115f, 0.080403f,
    0.102062f, -0.008135f, 0.080505f, -0.026653f, -0.066980f, -0.023347f, 0.094062f, -0.088348f, 0.041551f, 0.077137f,
    0.016399f, -0.079300f, -0.064913f, -0.059562f, -0.065590f, 0.029066f, 0.046695f, 0.098274f, 0.026202f, -0.089230f,
    -0.032079f, 0.002705f, 0.015978f, 0.062573f, 0.029876f, -0.089251f, -0.025159f, -0.100478f, 0.078032f, 0.081357f,
    -0.097828f, 0.007393f, 0.078238f, 0.053038f, 0.086395f, -0.056415f, -0.009307f, -0.043474f, 0.081479f, 0.011306f,
    -0.032617f, -0.021229f, 0.034337f, 0.081253f, 0.085259f, 0.060456f, -0.057401f, 0.072672f, 0.043638f, -0.001933f,
    -0.013899f, -0.072306f, 0.095803f, -0.033446f, 0.025474f, 0.074048f, 0.066471f, 0.003646f, 0.054344f, 0.042944f,
    -0.078015f, 0.064016f, 0.009354f, 0.094093f, 0.076942f, -0.090879f, -0.096605f, -0.091419f, 0.094345f, 0.034127f,
    0.011373f, 0.094903f, -0.023527f, 0.091092f, 0.030893f, -0.038377f, 0.052256f, 0.019004f, 0.083022f, 0.063983f,
    0.002872f, 0.004813f, 0.088042f, 0.034362f, -0.017052f, 0.054258f, 0.069679f, -0.083976f, -0.083249f, 0.053906f,
    -0.005488f, 0.002397f, -0.011939f, -0.086772f, 0.070227f, -0.100971f, -0.033587f, 0.100431f, -0.083817f, 0.084087f,
    0.001884f, -0.007242f, -0.084440f, -0.011367f, 0.099312f, 0.054546f, 0.100972f, -0.062169f, -0.073687f, 0.052502f,
    -0.003019f, -0.096642f, 0.085570f, -0.060648f, 0.028878f, -0.024697f, -0.055189f, 0.094093f, -0.001620f, 0.088849f,
    0.058500f, -0.041892f, -0.038381f, 0.096604f, -0.054291f, 0.019242f, 0.035040f, -0.052158f, 0.037643f, 0.055813f,
    0.088025f, 0.030579f, -0.013503f, 0.057573f, 0.080861f, -0.008889f, 0.034454f, -0.029758f, 0.029756f, -0.045912f,
    0.022923f, -0.034461f, 0.015800f, 0.079707f, -0.051027f, 0.045373f, -0.078390f, 0.101980f, -0.012037f, -0.039091f,
    -0.068756f, 0.059277f, -0.069469f, 0.006326f, 0.016827f, 0.083117f, -0.054453f, 0.070929f, 0.044590f, -0.101897f,
    0.080466f, 0.000885f, -0.100443f, -0.064121f, 0.067985f, 0.032303f, -0.026921f, -0.024365f, 0.039013f, 0.051996f,
    0.095998f, 0.011868f, 0.020673f, -0.099916f, -0.083826f, -0.099794f, 0.034818f, 0.085892f, -0.036484f, -0.040099f,
    -0.005135f, -0.051742f, -0.080627f, 0.079850f, -0.095736f, 0.080375f, -0.007319f, -0.012066f, -0.011529f, -0.088759f,
    0.078253f, 0.079890f, -0.012350f, 0.078178f, -0.010572f, 0.049072f, 0.070406f, -0.100996f, -0.023480f, 0.076680f,
    0.080376f, -0.029024f, 0.043852f, -0.026528f, -0.090626f, -0.062537f, 0.081935f, 0.043108f, 0.039454f, -0.096099f,
    -0.058051f, 0.065067f, 0.080980f, 0.064817f, -0.026435f, -0.081125f, 0.052621f, 0.014173f, 0.096049f, -0.038713f,
    -0.077829f, -0.037360f, -0.077612f, -0.047354f, -0.016151f, -0.077821f, -0.035441f, -0.036126f, 0.031230f, 0.089198f,
    -0.039039f, -0.036844f, 0.044872f, -0.065230f, 0.018283f, -0.097828f, -0.051178f, 0.064464f, -0.050321f, 0.017783f,
    -0.041321f, 0.044935f, -0.057447f, -0.078670f, 0.070887f, -0.009155f, 0.099110f, 0.019638f, -0.003441f, -0.094944f,
    0.006157f, 0.045332f, 0.029166f, -0.060344f, 0.032684f, -0.053980f, 0.086786f, 0.092031f, 0.014468f, 0.061536f,
    -0.012048f, 0.045233f, 0.096405f, 0.042239f, 0.038497f, -0.101063f, 0.051433f, -0.043615f, 0.069503f, 0.093785f,
    -0.075457f, 0.075537f, -0.060557f, -0.006592f, 0.076890f, 0.058514f, -0.064648f, 0.002820f, 0.040835f, -0.065422f,
    -0.078245f, -0.097339f, -0.010351f, 0.028301f, -0.051843f, -0.043196f, 0.022071f, 0.056964f, -0.070341f, -0.046932f,
    0.084036f, -0.095819f, -0.077424f, -0.017951f, -0.015666f, -0.063386f, -0.064306f, 0.089292f, -0.036818f, 0.089939f,
    -0.009096f, 0.036442f, 0.045225f, -0.086467f, -0.048844f, -0.079964f, -0.030122f, 0.002831f, -0.071699f, 0.090731f,
    0.057164f, 0.099243f, -0.075707f, 0.066118f, 0.097084f, 0.055104f, 0.093122f, 0.054680f, 0.039877f, -0.080340f,
    0.044167f, 0.006196f, -0.058686f, -0.013589f, -0.091988f, -0.011057f, 0.062485f, -0.066292f, -0.083105f, -0.091680f,
    0.075604f, -0.100184f, 0.069357f, -0.048092f, 0.082855f, 0.046811f, -0.019381f, -0.032401f, 0.000208f, 0.058573f,
    -0.062292f, -0.085615f, 0.062318f, 0.086100f, 0.032183f, -0.081526f, -0.064007f, -0.068121f, 0.045415f, 0.021707f,
    0.033374f, -0.097324f, -0.018378f, -0.038176f, -0.096702f, -0.015545f, 0.094023f, -0.037846f, -0.091066f, -0.065040f,
    0.041608f, -0.081667f, 0.063861f, -0.066967f, -0.067003f, 0.093726f, -0.054345f, 0.044287f, 0.075369f, 0.087825f,
    -0.078722f, -0.025315f, -0.047935f, 0.023060f, -0.077363f, -0.036396f, 0.014290f, -0.001424f, -0.041730f, -0.054123f,
    0.066766f, -0.086985f, 0.057304f, -0.001498f, -0.038356f, 0.021640f, 0.011147f, 0.023566f, 0.080811f, 0.077937f,
    0.027587f, -0.010808f, 0.016917f, -0.007875f, -0.032084f, 0.070901f, -0.018506f, -0.095019f, 0.078235f, 0.101006f,
    -0.097199f, 0.083616f, -0.090622f, 0.046961f, -0.040910f, 0.065827f, 0.026654f, 0.083016f, 0.061749f, -0.001000f,
    -0.013026f, 0.058015f, 0.045455f, -0.049912f, -0.016348f, 0.090381f, -0.097982f, -0.002455f, 0.088304f, 0.032543f,
    -0.063015f, -0.057922f, -0.014197f, -0.043019f, 0.033416f, -0.091197f, 0.038097f, -0.055799f, 0.011905f, 0.080511f,
    0.093802f, -0.059215f, 0.021527f, 0.037337f, -0.052536f, -0.015931f, 0.099656f, -0.015723f, -0.072915f, -0.067685f,
    0.004235f, -0.053879f, 0.031492f, 0.095414f, 0.010366f, 0.007660f, -0.035472f, -0.032195f, -0.039145f, -0.022887f,
    -0.011844f, 0.020140f, -0.087959f, -0.011466f, -0.055939f, -0.099985f, -0.031788f, 0.012499f, -0.072699f, -0.073262f,
    0.049812f, -0.080528f, -0.069474f, -0.065821f, 0.036700f, -0.089587f, 0.052382f, 0.081245f, -0.048390f, 0.000704f,
    0.077638f, -0.080892f, -0.028607f, 0.025353f, 0.095607f, -0.003398f, 0.058198f, -0.083577f, -0.075591f, 0.022936f,
    -0.087772f, -0.056556f, 0.081112f, -0.079623f, -0.004999f, -0.022388f, 0.062925f, 0.056542f, 0.080419f, -0.076608f,
    -0.022189f, -0.046649f, 0.048756f, 0.078056f, 0.074559f, 0.054948f, -0.022871f, 0.068466f, -0.043347f, 0.040782f,
    0.025498f, 0.029573f, -0.018856f, 0.024881f, 0.022889f, -0.075548f, -0.057541f, 0.054294f, 0.085237f, 0.074057f,
    0.002762f, 0.086401f, 0.053119f, 0.101296f, -0.034944f, 0.053458f, -0.012906f, 0.069697f, -0.082301f, -0.097823f,
    -0.053310f, 0.055208f, -0.042395f, -0.025397f, 0.038189f, 0.057670f, 0.066552f, -0.008632f, 0.009640f, -0.042834f,
    -0.047088f, -0.072176f, 0.065321f, 0.051880f, 0.024063f, -0.075813f, -0.086620f, -0.068819f, -0.031712f, 0.061752f,
    0.085549f, -0.062068f, -0.016282f, -0.021185f, 0.022171f, -0.069997f, -0.018656f, 0.058907f, -0.035417f, 0.017284f,
    0.010227f, 0.035724f, 0.042174f, -0.084968f, -0.010658f, -0.054469f, 0.054168f, 0.048653f, 0.094578f, -0.073560f,
    -0.100091f, -0.041794f, -0.021218f, 0.050744f, 0.081880f, 0.066996f, 0.096751f, 0.026979f, 0.060692f, -0.061771f,
    -0.030372f, -0.070341f, -0.011208f, 0.036582f, 0.094380f, 0.075091f, 0.072018f, -0.097610f, -0.094574f, 0.092547f,
    0.072093f, -0.101396f, -0.004154f, 0.024889f, 0.085894f, 0.019632f, -0.025669f, 0.046106f, 0.041526f, -0.090903f,
    0.095636f, 0.047867f, -0.069405f, -0.004316f, 0.026777f, -0.007173f, -0.015730f, 0.009773f, -0.075484f, -0.090082f,
    -0.002627f, 0.016158f, 0.024974f, 0.084414f, 0.012472f, 0.003157f, 0.074989f, 0.064176f, -0.013036f, -0.078547f,
    -0.089422f, -0.003138f, -0.032577f, 0.060674f, -0.005410f, -0.004780f, 0.063337f, 0.055012f, 0.040640f, -0.056806f,
    -0.039710f, -0.069960f, -0.035318f, 0.012983f, 0.048464f, -0.098964f, -0.047048f, -0.063071f, -0.061650f, -0.056394f,
    -0.008610f, -0.048108f, 0.020025f, -0.094342f, 0.044073f, -0.094302f, -0.056866f, -0.037590f, -0.081117f, 0.066493f,
    -0.018383f, -0.063793f, -0.021529f, -0.059892f, 0.086597f, -0.078696f, -0.007599f, 0.082942f, 0.015309f, 0.029117f,
    0.050308f, -0.004335f, 0.066855f, -0.046376f, -0.080493f, -0.042039f, -0.089460f, -0.029560f, -0.065812f, 0.008338f,
    0.025568f, 0.032492f, 0.037242f, 0.101758f, -0.014939f, -0.038024f, 0.038194f, 0.029163f, -0.090583f, 0.003067f,
    -0.084203f, 0.029457f, 0.047389f, 0.084305f, -0.055368f, 0.068047f, 0.072925f, 0.054722f, -0.061319f, 0.082783f,
    -0.077225f, 0.057053f, 0.018385f, -0.009598f, 0.031712f, -0.012734f, -0.002928f, -0.084452f, -0.090877f, -0.040746f,
    0.068918f, 0.011550f, -0.091234f, 0.009981f, 0.029021f, -0.019085f, -0.017586f, 0.066362f, 0.037217f, -0.000357f,
    -0.016950f, 0.055565f, 0.068113f, -0.022669f, 0.036647f, -0.099096f, -0.075613f, 0.082292f, -0.100528f, -0.082908f,
    0.078153f, -0.041076f, -0.060225f, -0.077433f, 0.101885f, 0.027974f, -0.061611f, 0.099901f, 0.006888f, -0.079792f,
    0.100158f, 0.065304f, 0.059337f, -0.055664f, 0.023025f, -0.061694f, 0.051133f, -0.081475f, -0.037432f, -0.062394f,
    -0.065971f, -0.010763f, 0.053986f, -0.069773f, 0.018800f, -0.089146f, -0.087512f, -0.023649f, 0.098915f, 0.081823f,
    0.016515f, 0.078843f, -0.063891f, 0.070746f, -0.009291f, 0.067882f, 0.096808f, 0.047351f, 0.081188f, 0.046156f,
    -0.065782f, 0.098781f, 0.070051f, 0.050361f, -0.016657f, -0.024790f, -0.031285f, -0.039817f, 0.097920f, 0.076715f,
    0.085512f, -0.055393f, -0.092847f, -0.003459f, 0.038872f, -0.044801f, 0.061782f, 0.006485f, 0.091104f, 0.086125f,
    -0.094266f, -0.066036f, 0.036286f, 0.047490f, -0.031320f, 0.079801f, 0.083356f, 0.096755f, -0.026166f, 0.015798f,
    0.038861f, 0.061218f, -0.013818f, 0.067137f, 0.042070f, -0.082842f, -0.003623f, 0.053629f, -0.011009f, -0.056739f,
    -0.090157f, -0.063309f, 0.042605f, 0.022987f, -0.051588f, -0.083562f, -0.094944f, -0.055251f, 0.030732f, 0.077822f,
    -0.022478f, -0.022190f, 0.091129f, 0.042205f, -0.001140f, -0.070963f, -0.032767f, 0.045509f, -0.011407f, -0.007897f,
    -0.061544f, 0.095225f, 0.038528f, 0.018714f, -0.073507f, 0.016023f, 0.068778f, -0.020601f, -0.006763f, 0.008044f,
    -0.051808f, -0.045748f, 0.011294f, 0.050572f, 0.039605f, 0.070606f, 0.018694f, 0.098193f, -0.074883f, -0.037960f,
    0.079035f, -0.101675f, -0.014873f, -0.048105f, -0.080433f, -0.002645f, 0.100680f, -0.011922f, 0.004786f, -0.041740f,
    -0.008828f, -0.070394f, 0.001094f, -0.057043f, 0.058740f, 0.041656f, 0.074235f, -0.057930f, -0.006740f, -0.080179f,
    -0.100806f, 0.050971f, 0.049548f, -0.099934f, 0.088570f, 0.018642f, 0.023908f, 0.048743f, 0.004634f, 0.054910f,
    0.065632f, 0.008267f, 0.031054f, -0.013485f, -0.010745f, -0.101035f, -0.072619f, -0.028725f, 0.092178f, -0.008458f,
    0.013550f, 0.081565f, -0.005839f, 0.003239f, 0.011355f, 0.028419f, 0.022259f, -0.069115f, -0.011863f, -0.093184f,
    0.067313f, 0.087921f, -0.085288f, 0.009457f, -0.056168f, -0.025433f, 0.024471f, -0.095521f, -0.093243f, -0.043441f,
    -0.005425f, 0.097502f, 0.034462f, -0.084146f, 0.062096f, -0.010073f, -0.093604f, 0.087658f, -0.090561f, 0.003879f,
    -0.062854f, -0.020469f, -0.010571f, 0.057466f, 0.018100f, 0.013501f, -0.000108f, 0.096312f, -0.006025f, -0.041401f,
    0.007743f, 0.028889f, 0.097513f, -0.083235f, -0.096274f, 0.064274f, 0.082492f, 0.093921f, -0.066823f, -0.033317f,
    0.036710f, 0.068048f, -0.081604f, 0.017891f, -0.050110f, 0.053913f, 0.069721f, -0.013141f, 0.019888f, -0.015535f,
    0.045791f, 0.048952f, 0.066289f, 0.013597f, -0.052261f, -0.012305f, 0.033391f, -0.066303f, 0.050836f, 0.095624f,
    0.073767f, 0.000370f, 0.022008f, 0.020129f, 0.042874f, 0.086539f, -0.100776f, -0.020746f, -0.003743f, 0.066563f,
    -0.004912f, -0.032303f, 0.099738f, 0.082289f, -0.065337f, 0.028643f, -0.062047f, -0.054571f, 0.036604f, -0.040172f,
    -0.021671f, 0.023861f, 0.010017f, 0.080687f, -0.073465f, 0.002801f, 0.052426f, 0.076415f, 0.053163f, -0.007001f,
    -0.016343f, -0.037730f, -0.013242f, -0.000277f, 0.070808f, -0.010088f, 0.042755f, -0.047066f, 0.010693f, 0.060341f,
    -0.006146f, 0.092304f, 0.084140f, 0.041582f, -0.009874f, 0.023456f, 0.083584f, -0.084802f, 0.039123f, 0.081063f,
    0.095227f, 0.081397f, 0.098828f, 0.031073f, 0.065740f, 0.097935f, 0.006162f, -0.038284f, 0.098881f, -0.036066f,
    -0.064768f, -0.011045f, -0.088071f, 0.055609f, -0.058279f, 0.091570f, -0.101706f, -0.051399f, -0.035117f, -0.069229f,
    0.028029f, -0.056248f, 0.065293f, 0.041851f, -0.026605f, 0.044482f, -0.088606f, 0.026515f, 0.004590f, 0.076972f,
    -0.023315f, 0.057172f, -0.033390f, 0.000000f, -0.009379f, 0.010581f, 0.066271f, 0.015603f, 0.091727f, -0.076163f,
    0.058475f, -0.036735f, -0.097605f, -0.095138f, -0.054034f, 0.026742f, -0.055942f, 0.068520f, 0.089050f, 0.006044f,
    0.058825f, -0.006544f, -0.004987f, 0.020848f, 0.018006f, -0.003914f, 0.077004f, -0.030542f, -0.019873f, 0.056689f,
    0.010639f, -0.094877f, -0.055988f, -0.030262f, -0.038664f, -0.007854f, -0.063014f, 0.073023f, -0.084233f, -0.032524f,
    0.092363f, 0.096243f, 0.097239f, -0.039405f, 0.054170f, -0.059292f, 0.040680f, 0.071286f, -0.004293f, 0.067764f,
    -0.037200f, 0.043994f, 0.046018f, 0.070623f, 0.054329f, -0.073590f, -0.013738f, -0.056029f, 0.078921f, 0.076889f,
    0.024489f, 0.037506f, 0.066492f, -0.086466f, 0.009947f, -0.092525f, -0.007946f, 0.045468f, -0.011346f, -0.096917f,
    0.053295f, -0.039474f, 0.092498f, 0.000030f, -0.047450f, -0.092863f, -0.024818f, -0.037914f, -0.089516f, -0.042092f,
    -0.086419f, -0.003914f, 0.068390f, -0.057664f, -0.093984f, -0.098162f, -0.031163f, -0.028649f, 0.037616f, -0.029031f,
    0.032744f, 0.034601f, -0.063462f, 0.049840f, -0.081263f, 0.056688f, 0.048872f, 0.095169f, -0.099896f, -0.018146f,
    -0.068993f, 0.098783f, -0.087675f, 0.040547f, 0.066859f, 0.088845f, 0.051867f, -0.091198f, 0.044686f, -0.023891f,
    -0.020689f, -0.025625f, -0.029543f, -0.059606f, 0.022557f, 0.072108f, -0.057346f, 0.086759f, -0.023523f, -0.051572f,
    -0.045806f, -0.086325f, -0.076321f, -0.022939f, 0.092072f, -0.013344f, -0.094688f, -0.093681f, -0.040838f, -0.064400f,
    0.033799f, -0.098132f, 0.051505f, -0.010414f, -0.089944f, -0.086566f, 0.069550f, 0.021901f, -0.012790f, -0.057760f,
    0.047469f, -0.009249f, 0.064365f, 0.089152f, 0.035018f, 0.076689f, -0.078088f, -0.070762f, -0.089577f, -0.078294f,
    0.011175f, 0.057109f, -0.099479f, -0.000463f, 0.008161f, 0.064033f, -0.095014f, -0.012963f, -0.098985f, -0.092778f,
    0.081791f, 0.056923f, -0.024089f, 0.050329f, 0.073866f, -0.077430f, -0.092143f, 0.065166f, 0.053611f, -0.018243f,
    0.039980f, -0.082119f, -0.064819f, 0.042590f, 0.072572f, -0.029580f, -0.037491f, 0.073196f, 0.055688f, 0.016463f,
    -0.012338f, -0.057263f, 0.093879f, -0.033290f, -0.007050f, 0.068151f, -0.009790f, 0.039593f, 0.051260f, 0.046780f,
    -0.051287f, 0.018130f, -0.017410f, -0.013268f, -0.095050f, -0.063411f, 0.098385f, -0.082774f, -0.012391f, 0.101418f,
    -0.033968f, -0.034569f, 0.063932f, 0.034107f, -0.038961f, -0.082149f, 0.057297f, -0.068290f, 0.018865f, -0.025399f,
    -0.002892f, -0.067477f, -0.038864f, 0.039730f, 0.023923f, 0.088720f, 0.065301f, 0.086693f, 0.101188f, -0.083810f,
    -0.093085f, 0.061787f, -0.054792f, -0.029112f, -0.031044f, 0.041338f, 0.058244f, -0.010270f, 0.082468f, -0.071554f,
    0.095581f, -0.067026f, 0.026590f, 0.087497f, -0.024281f, -0.007535f, 0.032388f, 0.091134f, -0.024486f, 0.006235f,
    -0.098492f, 0.038743f, 0.054347f, 0.056647f, 0.026952f, -0.028912f, -0.068669f, 0.027569f, 0.034710f, 0.041045f,
    0.026521f, -0.081356f, -0.099259f, 0.032204f, -0.091714f, -0.086022f, 0.076862f, 0.048728f, 0.055480f, -0.077902f,
    -0.070394f, 0.024961f, -0.056098f, 0.020484f, 0.055553f, 0.075208f, 0.052917f, 0.038367f, 0.036726f, -0.037984f,
    -0.013078f, -0.050263f, 0.013799f, -0.083127f, 0.065072f, 0.060318f, 0.098676f, -0.057379f, 0.091167f, 0.088888f,
    0.060294f, 0.086645f, -0.068951f, -0.093430f, 0.009495f, -0.029926f, 0.090932f, 0.003692f, 0.020090f, -0.057688f,
    0.087186f, 0.092359f, 0.000466f, -0.080058f, -0.059277f, -0.060453f, 0.068716f, -0.043395f, -0.100428f, -0.099541f,
    0.023966f, -0.072536f, 0.030169f, 0.033308f, -0.072989f, -0.088152f, -0.043791f, 0.073784f, 0.079557f, -0.025188f,
    -0.004373f, -0.078968f, -0.021802f, -0.006875f, -0.022964f, 0.072074f, -0.100665f, -0.030588f, -0.061331f, 0.083383f,
    0.003327f, -0.075852f, 0.002382f, 0.051382f, -0.060880f, -0.094450f, 0.084628f, 0.018875f, 0.053767f, -0.049642f,
    0.081241f, 0.046031f, 0.029256f, 0.057288f, -0.017359f, 0.030677f, 0.059635f, 0.049228f, -0.008887f, 0.014669f,
    0.047535f, 0.028469f, 0.033568f, -0.090071f, 0.043449f, 0.030928f, 0.092768f, 0.069697f, 0.038534f, -0.079742f,
    -0.040738f, 0.002977f, -0.035003f, -0.086996f, 0.092239f, -0.035006f, 0.036966f, 0.062880f, -0.033484f, -0.081912f,
    -0.044787f, 0.025732f, -0.019765f, 0.029701f, -0.014844f, -0.052990f, 0.042767f, -0.049377f, 0.024185f, -0.004389f,
    -0.019059f, 0.034526f, 0.077771f, 0.066631f, -0.019063f, -0.072303f, 0.060760f, -0.022658f, -0.051315f, -0.101155f,
    -0.045174f, 0.033368f, 0.010185f, 0.052856f, 0.059624f, -0.087079f, -0.101528f, -0.084223f, -0.050118f, 0.046827f,
    -0.065284f, 0.002091f, 0.052034f, 0.027746f, 0.038793f, -0.016807f, 0.096473f, -0.094903f, -0.028516f, 0.097995f,
    0.092745f, 0.095751f, -0.012084f, 0.088351f, 0.029121f, -0.064478f, -0.060701f, 0.027879f, -0.034193f, 0.048960f,
    -0.071259f, -0.007392f, -0.022753f, -0.043046f, -0.013413f, -0.016766f, -0.095435f, 0.000673f, 0.100818f, -0.004118f,
    -0.051876f, -0.047382f, 0.089008f, 0.096124f, -0.019397f, -0.029667f, 0.010459f, 0.046109f, -0.101702f, -0.027909f,
    0.093812f, 0.053010f, 0.074328f, -0.082836f, 0.089315f, -0.090226f, 0.009723f, -0.055091f, 0.010860f, 0.082325f,
    0.072350f, -0.074712f, -0.047696f, 0.063630f, -0.035638f, 0.080553f, 0.045645f, 0.033358f, 0.036154f, 0.080728f,
    -0.003280f, 0.085676f, -0.046909f, -0.093711f, 0.060410f, 0.077835f, -0.015901f, -0.026875f, -0.087774f, 0.005208f,
    0.078312f, -0.084065f, 0.060276f, 0.030573f, 0.036375f, 0.028378f, 0.087911f, 0.047602f, 0.066022f, 0.007421f,
    -0.019482f, -0.080832f, -0.023694f, -0.014913f, -0.008708f, 0.100039f, -0.043901f, -0.002124f, -0.072659f, 0.075806f,
    0.007063f, -0.024889f, 0.039260f, -0.099891f, 0.052431f, -0.032230f, -0.019715f, -0.088299f, -0.082883f, -0.038233f,
    -0.019846f, 0.071355f, 0.077840f, 0.065197f, 0.014225f, 0.072692f, -0.092077f, -0.045909f, 0.095556f, -0.096999f,
    0.010526f, -0.057143f, -0.085861f, 0.000433f, 0.064720f, 0.091524f, 0.019059f, 0.049156f, 0.051002f, 0.009161f,
    -0.018373f, -0.078700f, -0.011308f, 0.050849f, -0.009764f, -0.099100f, 0.047851f, -0.004630f, 0.022525f, -0.022406f,
    0.032626f, 0.000002f, 0.058725f, -0.032827f, -0.037383f, -0.057274f, -0.076577f, 0.083545f, 0.051513f, 0.042412f,
    -0.071255f, 0.073448f, -0.092599f, 0.017156f, -0.022561f, -0.012389f, 0.095516f, 0.096772f, -0.059504f, -0.069527f,
    -0.101412f, -0.060539f, -0.101359f, 0.004943f, 0.058523f, 0.075688f, -0.046227f, 0.008769f, 0.049428f, 0.074579f,
    -0.055777f, 0.094123f, 0.002349f, 0.037749f, -0.090155f, -0.094111f, 0.067758f, -0.089691f, -0.058058f, -0.036650f,
    0.008229f, -0.051376f, 0.030502f, -0.099672f, 0.080559f, 0.009093f, 0.023940f, 0.054047f, -0.030622f, -0.072107f,
    0.058877f, 0.029524f, 0.069662f, -0.071952f, 0.067316f, 0.085507f, -0.005692f, 0.054537f, -0.032100f, 0.036990f,
    -0.067821f, -0.082606f, -0.000336f, -0.008099f, -0.042413f, -0.053201f, 0.034834f, 0.034087f, -0.073230f, -0.019129f,
    -0.097329f, 0.095904f, 0.091765f, -0.095551f, -0.018661f, -0.077314f, 0.054485f, 0.025948f, -0.024819f, -0.032185f,
    0.097889f, -0.064257f, 0.071738f, -0.013909f, -0.042097f, 0.078661f, -0.076550f, 0.056599f, -0.038465f, 0.034550f,
    0.011104f, -0.055232f, 0.066668f, 0.045630f, -0.014418f, -0.070551f, 0.030102f, 0.030840f, 0.064509f, 0.037485f,
    -0.071230f, 0.040790f, 0.019969f, 0.048385f, -0.005695f, 0.014088f, -0.018308f, 0.071844f, 0.013332f, -0.063150f,
    -0.100628f, -0.016763f, -0.057102f, -0.052508f, 0.045684f, 0.069999f, -0.076436f, 0.073233f, -0.027146f, 0.032968f,
    -0.072313f, -0.051540f, 0.051389f, -0.084346f, -0.082567f, -0.043878f, -0.022745f, 0.033251f, -0.075870f, 0.082883f,
    0.030188f, 0.019742f, 0.043059f, 0.077964f, -0.101478f, 0.097833f, -0.097684f, 0.101985f, -0.090438f, 0.088313f,
    0.076184f, 0.014746f, -0.096701f, -0.040888f, 0.003175f, -0.030070f, -0.022944f, -0.087301f, 0.018790f, 0.089508f,
    0.001509f, 0.008391f, -0.021339f, 0.006725f, 0.021760f, -0.066056f, -0.007133f, -0.079127f, -0.023266f, -0.038423f,
    -0.058296f, -0.038627f, -0.055400f, 0.037119f, 0.029108f, -0.099888f, 0.048262f, -0.043670f, -0.075506f, -0.054740f,
    0.073905f, -0.093807f, -0.081696f, -0.041272f, -0.029052f, -0.062031f, 0.042174f, 0.070121f, 0.048242f, 0.079460f,
    0.050843f, -0.009704f, 0.033935f, -0.095452f, -0.009682f, -0.067793f, 0.060609f, 0.072348f, 0.034770f, -0.095660f,
    0.051972f, -0.042615f, 0.073287f, -0.080340f, 0.012428f, 0.014383f, 0.046992f, 0.091546f, -0.033730f, -0.078889f,
    0.074493f, 0.086341f, -0.088677f, 0.055181f, -0.082000f, -0.027210f, 0.098777f, -0.067275f, 0.079238f, -0.062255f,
    0.061473f, -0.005942f, -0.100625f, -0.051350f, 0.074014f, -0.020942f, 0.100447f, -0.046657f, 0.004086f, -0.047895f,
    0.097917f, 0.055124f, 0.027482f, -0.005941f, -0.021522f, 0.021775f, 0.098293f, -0.061419f, 0.092443f, 0.087800f,
    0.061269f, -0.060911f, 0.067891f, 0.088337f, -0.073479f, -0.036928f, -0.095589f, -0.070757f, 0.001318f, 0.072592f,
    -0.068278f, 0.007529f, 0.047608f, -0.059665f, 0.032457f, -0.099720f, -0.016038f, 0.097134f, 0.007592f, -0.037675f,
    -0.039351f, 0.040096f, 0.040613f, -0.055273f, -0.085929f, -0.052186f, -0.029344f, 0.050357f, -0.087303f, -0.025315f,
    0.032737f, 0.088664f, -0.084507f, 0.048934f, 0.036128f, 0.066585f, 0.030368f, 0.003427f, 0.000604f, 0.073238f,
    0.013646f, -0.061070f, -0.095159f, 0.090759f, -0.093435f, -0.022987f, 0.068865f, 0.046750f, 0.091052f, -0.009161f,
    0.087518f, 0.079011f, 0.028862f, 0.052926f, -0.020925f, 0.066545f, 0.028014f, 0.027104f, 0.098867f, 0.042039f,
    -0.015002f, 0.046532f, -0.011606f, 0.069705f, 0.053316f, 0.062827f, 0.069251f, 0.079287f, 0.073979f, -0.031532f,
    -0.017932f, -0.015710f, -0.035268f, -0.088575f, -0.029458f, -0.031655f, -0.061848f, -0.077299f, 0.001277f, 0.037673f,
    -0.044505f, -0.039786f, -0.014094f, 0.038460f, -0.095253f, 0.000390f, 0.021603f, 0.029999f, 0.039957f, -0.033824f,
    0.083545f, 0.080782f, -0.022216f, 0.095834f, 0.013816f, 0.044565f, -0.058388f, -0.066985f, -0.052068f, 0.003171f,
    -0.012798f, -0.060661f, -0.081335f, -0.037139f, 0.100404f, -0.009589f, -0.101677f, -0.086910f, -0.086966f, 0.079793f,
    0.078580f, -0.044895f, -0.009444f, 0.043572f, 0.073106f, -0.081943f, 0.036227f, -0.029386f, 0.046802f, 0.029822f,
    -0.101670f, -0.099207f, -0.049172f, -0.009561f, -0.010598f, 0.065329f, -0.009368f, 0.095203f, 0.024623f, -0.073260f,
    0.008084f, -0.046546f, 0.089793f, 0.060258f, -0.086257f, -0.041075f, 0.050919f, -0.098499f, 0.011596f, -0.036718f,
    -0.095708f, 0.052828f, -0.057242f, 0.100512f, -0.025387f, 0.046571f, 0.036511f, 0.039770f, -0.007898f, 0.013912f,
    -0.041666f, 0.000121f, 0.026393f, 0.015716f, -0.019217f, -0.071274f, 0.075333f, -0.002712f, 0.098269f, 0.005773f,
    0.071655f, -0.069779f, -0.047700f, 0.009663f, -0.034647f, -0.035445f, 0.080217f, -0.019704f, 0.092236f, 0.082690f,
    -0.090466f, 0.027965f, -0.022597f, 0.001426f, -0.016371f, 0.093086f, -0.039549f, -0.040965f, 0.010079f, -0.013998f,
    -0.034398f, 0.018515f, -0.095922f, -0.085618f, -0.078287f, 0.034091f, 0.084709f, -0.047470f, -0.036192f, 0.095984f,
    -0.046427f, 0.007912f, 0.032606f, -0.083532f, -0.064539f, -0.035217f, -0.047814f, -0.098796f, 0.083383f, -0.007543f,
    -0.020959f, -0.016688f, -0.021300f, 0.020335f, 0.042270f, -0.090081f, -0.051188f, -0.004962f, -0.022706f, 0.074222f,
    -0.089452f, 0.005507f, 0.035668f, -0.049143f, -0.079915f, 0.015150f, -0.066719f, -0.028880f, 0.092533f, 0.047670f,
    0.095295f, -0.093731f, -0.069803f, 0.077299f, 0.039758f, 0.068252f, 0.017108f, 0.069558f, -0.060230f, 0.084438f,
    0.023733f, 0.090961f, -0.027146f, 0.035749f, 0.089009f, 0.011033f, 0.088342f, -0.093075f, 0.082117f, -0.076285f,
    -0.081388f, 0.066868f, 0.001698f, -0.086223f, -0.016010f, 0.054938f, -0.087955f, 0.011610f, -0.095520f, -0.099797f,
    -0.091622f, 0.002417f, 0.004130f, 0.069874f, 0.031282f, 0.092518f, 0.077757f, 0.073032f, -0.028751f, -0.028939f,
    -0.055024f, 0.096511f, 0.009753f, -0.077199f, 0.067947f, 0.067356f, 0.017331f, 0.008683f, 0.061909f, 0.098442f,
    0.024263f, 0.065485f, 0.044280f, -0.060196f, -0.090457f, 0.050939f, 0.034682f, 0.089902f, -0.068946f, -0.036103f,
    -0.008690f, -0.058643f, -0.092164f, -0.002550f, -0.074903f, 0.046696f, 0.065193f, -0.020694f, 0.082588f, -0.034444f,
    -0.071761f, 0.005125f, -0.029415f, 0.019722f, 0.023313f, -0.077943f, -0.063403f, 0.021261f, 0.092267f, 0.058257f,
    0.095929f, -0.000899f, 0.027299f, -0.025175f, -0.020659f, 0.024322f, -0.039188f, 0.059720f, 0.002870f, -0.085919f,
    0.068453f, 0.077156f, -0.021340f, -0.073601f, 0.064581f, 0.100977f, -0.051946f, 0.100517f, 0.059317f, -0.098061f,
    0.038061f, -0.035940f, 0.094904f, -0.065712f, 0.077565f, 0.053041f, 0.054140f, -0.025132f, -0.088230f, -0.090428f,
    -0.098838f, -0.024133f, -0.083075f, 0.056118f, -0.091406f, 0.025341f, 0.091242f, 0.051125f, 0.070588f, 0.000360f,
    0.007379f, 0.049234f, 0.087543f, 0.047336f, -0.020707f, 0.099286f, -0.074339f, 0.002625f, 0.051060f, 0.101733f,
    0.033935f, 0.074421f, 0.056402f, -0.058103f, 0.051187f, 0.010883f, 0.098399f, 0.015859f, -0.072337f, 0.005821f,
    -0.077886f, -0.056858f, -0.092959f, 0.056117f, 0.012291f, 0.096474f, 0.012712f, -0.071480f, -0.054942f, 0.053768f,
    -0.009886f, 0.088309f, 0.080775f, -0.053018f, -0.050901f, 0.096192f, 0.085547f, 0.067358f, -0.025496f, -0.094687f,
    0.036589f, -0.028730f, 0.100537f, 0.000011f, 0.032925f, 0.003044f, 0.072613f, -0.061947f, 0.018375f, 0.045799f,
    -0.071276f, 0.039827f, 0.098374f, 0.023552f, -0.086733f, -0.085701f, 0.078309f, -0.063554f, 0.082953f, 0.079820f,
    0.036426f, 0.032471f, 0.072509f, -0.073237f, -0.091138f, -0.070522f, 0.046700f, -0.045063f, -0.094108f, -0.052140f,
    0.087869f, -0.101739f, 0.031479f, -0.066479f, -0.090242f, 0.023302f, -0.015020f, -0.067939f, 0.045314f, -0.081545f,
    -0.016093f, 0.026217f, 0.093214f, -0.051873f, 0.036064f, 0.072296f, 0.050486f, 0.077956f, 0.022084f, -0.097611f,
    -0.101056f, -0.042181f, 0.064177f, -0.038559f, 0.053283f, -0.092070f, 0.023486f, -0.056846f, -0.033270f, -0.052485f,
    -0.100721f, 0.003006f, 0.085782f, -0.049683f, 0.011147f, 0.063298f, -0.056681f, -0.005395f, -0.073924f, -0.001179f,
    0.080839f, 0.075134f, 0.058937f, 0.067159f, -0.004688f, -0.002780f, -0.058876f, -0.085635f, -0.082582f, -0.056249f,
    -0.015972f, -0.021258f, 0.060188f, 0.029795f, -0.006328f, 0.100656f, -0.012785f, 0.092643f, 0.036549f, -0.083958f,
    0.051822f, 0.084161f, 0.045698f, 0.086666f, -0.097731f, -0.002812f, -0.091361f, -0.067264f, -0.036558f, 0.006875f,
    0.057345f, 0.062998f, 0.096193f, 0.004688f, -0.013685f, -0.053072f, -0.020985f, 0.068754f, -0.001685f, 0.000089f,
    0.082045f, -0.032181f, -0.051538f, -0.093688f, 0.084667f, 0.030417f, 0.028310f, 0.010934f, -0.009713f, 0.046581f,
    -0.100551f, -0.042791f, -0.027688f, -0.081305f, -0.078784f, -0.101288f, -0.071813f, 0.000096f, -0.054563f, -0.051642f,
    -0.044554f, -0.075556f, 0.058881f, 0.027430f, -0.092076f, -0.075292f, -0.014585f, -0.033594f, -0.084078f, 0.011914f,
    -0.082009f, 0.038272f, 0.005724f, -0.051900f, 0.030335f, 0.074102f, -0.078824f, 0.040979f, -0.001899f, 0.066889f,
    -0.025442f, 0.100591f, -0.084853f, 0.074941f, -0.025957f, -0.002252f, 0.046283f, -0.055498f, -0.090915f, 0.039050f,
    0.069522f, 0.033804f, 0.086491f, 0.066665f, -0.082133f, -0.009845f, -0.059216f, 0.066086f, 0.020517f, -0.015055f,
    0.093864f, -0.070005f, -0.048056f, -0.020439f, -0.080805f, 0.063905f, -0.025100f, 0.057887f, -0.044302f, -0.063723f,
    -0.094541f, -0.087830f, 0.053661f, -0.026542f, 0.100496f, -0.059464f, 0.008483f, -0.071739f, -0.009994f, 0.032499f,
    -0.041400f, -0.017705f, 0.032639f, -0.031873f, -0.092213f, 0.032771f, -0.033241f, 0.084957f, 0.054499f, 0.005425f,
    -0.099106f, 0.050845f, -0.020297f, 0.049373f, 0.051481f, 0.090033f, 0.090734f, 0.085123f, 0.092972f, -0.009484f,
    0.047631f, 0.064798f, -0.033548f, 0.004805f, -0.006801f, 0.004690f, -0.039276f, 0.094015f, 0.075276f, 0.006117f,
    -0.076983f, -0.075047f, -0.041323f, -0.095058f, 0.062392f, -0.048930f, 0.008147f, 0.018718f, -0.057192f, 0.014294f,
    -0.090691f, 0.037241f, 0.013244f, -0.014136f, -0.030372f, -0.027948f, 0.051770f, -0.067230f, 0.056279f, 0.084493f,
    0.071949f, -0.019218f, -0.063119f, 0.001358f, 0.048164f, -0.054289f, 0.091967f, 0.044802f, -0.074901f, -0.004071f,
    0.079468f, 0.035979f, -0.101590f, -0.041057f, 0.014630f, -0.013566f, 0.091258f, 0.019902f, 0.012689f, -0.097233f,
    0.018977f, -0.004161f, -0.012281f, 0.072351f, -0.064954f, -0.048273f, 0.063741f, -0.085680f, 0.075938f, 0.083306f,
    -0.013806f, 0.083017f, -0.041240f, 0.006173f, -0.059625f, 0.077558f, -0.055735f, -0.035145f, 0.021991f, 0.069124f,
    0.074216f, -0.080359f, -0.018739f, -0.053456f, -0.013776f, 0.076481f, -0.046028f, 0.054771f, 0.057197f, -0.089226f,
    -0.067250f, -0.013604f, 0.082835f, 0.068648f, -0.037576f, -0.076636f, 0.092464f, -0.096912f, 0.042881f, -0.006277f,
    -0.076232f, 0.046023f, 0.021935f, 0.084641f, 0.026319f, 0.023783f, -0.031792f, 0.077491f, -0.085934f, -0.045742f,
    -0.069298f, -0.004976f, -0.000722f, 0.079242f, -0.092904f, -0.059624f, -0.046959f, -0.048928f, 0.045147f, -0.015381f,
    0.087613f, -0.083566f, -0.008318f, -0.025670f, 0.019572f, -0.014643f, 0.074730f, 0.004710f, -0.081447f, 0.042339f,
    0.044449f, -0.021071f, -0.088272f, 0.040828f, 0.062441f, 0.072047f, -0.081708f, 0.086879f, -0.085230f, 0.100345f,
    0.033361f, 0.023306f, -0.074105f, -0.002275f, -0.073904f, 0.083945f, -0.036631f, -0.061667f, -0.067760f, 0.092718f,
    -0.051835f, 0.090907f, 0.013788f, 0.084208f, 0.045128f, -0.063243f, 0.040406f, 0.038234f, 0.029658f, 0.049203f,
    0.040096f, 0.029017f, 0.029698f, 0.085293f, -0.011168f, -0.036309f, 0.039326f, 0.074310f, 0.082750f, 0.044826f,
    0.098840f, -0.058060f, -0.015391f, -0.057569f, -0.009436f, 0.079478f, -0.041068f, 0.080562f, 0.054718f, -0.039255f,
    0.056845f, 0.061280f, 0.004155f, 0.050453f, -0.039018f, -0.084632f, 0.023575f, 0.037463f, 0.065495f, 0.021220f,
    0.078598f, 0.040709f, -0.032015f, 0.071205f, -0.064246f, 0.049573f, 0.062526f, 0.069997f, 0.035812f, -0.083666f,
    -0.061629f, 0.063487f, 0.077473f, -0.024758f, 0.076463f, -0.018453f, -0.081474f, 0.075731f, -0.034810f, -0.074562f,
    0.051848f, -0.027341f, 0.100125f, -0.056678f, 0.013857f, 0.087743f, 0.092313f, 0.035632f, -0.026629f, 0.006926f,
    -0.087502f, 0.052662f, -0.045199f, -0.080216f, 0.096435f, -0.066155f, -0.069717f, -0.002071f, -0.027370f, -0.058860f,
    -0.094165f, 0.036499f, 0.071355f, -0.071813f, 0.052996f, -0.021281f, 0.011355f, -0.074211f, 0.034945f, 0.034132f,
    0.058920f, 0.037572f, -0.018947f, -0.039242f, -0.009294f, -0.065056f, 0.088035f, 0.029312f, 0.040597f, -0.095105f,
    -0.041654f, 0.024870f, 0.068739f, 0.083009f, 0.085294f, -0.011988f, 0.029749f, -0.061960f, 0.069968f, 0.022385f,
    0.043989f, -0.020010f, -0.075324f, 0.010962f, -0.034291f, 0.061218f, 0.012633f, -0.073573f, -0.034971f, 0.082193f,
    0.055549f, 0.019339f, -0.068762f, 0.006039f, -0.076590f, 0.094712f, 0.060959f, -0.094581f, 0.074805f, -0.042920f,
    0.028217f, -0.051148f, -0.004109f, 0.081461f, 0.071775f, 0.045637f, -0.062709f, -0.044984f, 0.051890f, -0.068348f,
    0.050226f, 0.051641f, 0.089051f, 0.050090f, -0.097604f, 0.047448f, 0.091324f, -0.059793f, 0.029037f, 0.054922f,
    -0.048707f, 0.033988f, 0.086045f, 0.042208f, -0.064839f, 0.035230f, -0.101367f, -0.082967f, 0.064785f, 0.097566f,
    0.042425f, 0.007933f, -0.004892f, 0.026570f, 0.072313f, -0.052255f, -0.076417f, 0.024269f, -0.052958f, -0.018145f,
    -0.100671f, -0.100112f, -0.100512f, 0.057190f, -0.045493f, 0.082752f, 0.021265f, 0.043060f, 0.093275f, 0.081814f,
    0.080433f, 0.044488f, 0.041980f, 0.006729f, 0.043047f, 0.093897f, -0.037481f, 0.098521f, 0.092374f, -0.083580f,
    -0.022969f, -0.020808f, 0.093740f, 0.000787f, 0.089769f, -0.059786f, 0.020162f, -0.066290f, -0.017464f, -0.038579f,
    -0.003152f, -0.020329f, -0.034049f, 0.030806f, -0.078065f, 0.012798f, 0.068477f, -0.069001f, -0.001309f, -0.047398f,
    0.034258f, 0.090537f, -0.053179f, 0.095377f, -0.088442f, 0.099605f, -0.090522f, -0.094082f, 0.002256f, -0.085279f,
    0.034175f, 0.039639f, 0.065997f, 0.034638f, -0.016829f, 0.077718f, 0.080921f, 0.078852f, 0.070790f, 0.077215f,
    -0.101823f, 0.050122f, 0.029343f, -0.031585f, 0.100108f, 0.022989f, 0.030434f, 0.060227f, 0.084784f, -0.022078f,
    -0.052708f, -0.080031f, 0.046669f, -0.031293f, -0.003198f, 0.089537f, -0.028678f, 0.040280f, -0.090827f, 0.085894f,
    -0.052160f, -0.014150f, 0.056415f, 0.079062f, 0.001508f, -0.057479f, 0.065910f, 0.025565f, 0.051897f, 0.057495f,
    0.049943f, -0.063491f, -0.005766f, 0.080439f, 0.000041f, 0.010882f, 0.031321f, 0.035735f, 0.025927f, -0.007278f,
    0.097463f, 0.054432f, -0.050541f, 0.075074f, -0.044749f, 0.025151f, -0.032557f, 0.086424f, 0.076483f, 0.099306f,
    -0.057970f, 0.061579f, 0.050058f, -0.012925f, -0.021713f, -0.063130f, 0.055357f, 0.024555f, 0.055878f, 0.027708f,
    0.067296f, -0.066664f, -0.006203f, 0.073251f, -0.049636f, -0.095284f, 0.039329f, -0.046598f, -0.054990f, 0.086777f,
    0.083243f, 0.002801f, 0.051904f, -0.098877f, 0.098814f, 0.048156f, 0.030927f, -0.012796f, -0.023213f, -0.038507f,
    0.000459f, 0.057682f, -0.061777f, 0.083496f, -0.052741f, 0.084178f, -0.011282f, 0.052254f, -0.087056f, 0.086701f,
    0.035894f, 0.051737f, 0.043714f, -0.011194f, 0.082142f, 0.052311f, 0.084885f, 0.096685f, 0.061477f, 0.083356f,
    0.059144f, 0.072533f, 0.018026f, 0.043795f, -0.059698f, 0.099829f, -0.013521f, -0.076602f, 0.088551f, 0.012121f,
    -0.091811f, -0.031036f, 0.043173f, -0.067338f, -0.058657f, -0.026390f, -0.002120f, 0.101855f, 0.032697f, 0.067349f,
    0.048016f, -0.071276f, 0.067214f, -0.019749f, -0.085808f, -0.087125f, 0.075715f, -0.045946f, -0.000680f, -0.089043f,
    0.049053f, -0.001661f, -0.099565f, 0.095037f, 0.077769f, -0.086737f, 0.034989f, 0.011341f, 0.070651f, -0.014258f,
    0.090066f, -0.026623f, -0.037847f, 0.030662f, 0.030370f, 0.049020f, -0.099670f, -0.075370f, -0.043775f, -0.081276f,
    -0.076280f, -0.021439f, 0.056438f, -0.004000f, 0.068777f, -0.041224f, 0.081643f, 0.056562f, 0.086818f, 0.009427f,
    -0.048092f, 0.047161f, -0.074737f, -0.017778f, -0.003082f, -0.080398f, -0.068605f, 0.081622f, -0.002920f, 0.041297f,
    0.088383f, -0.000763f, 0.043962f, -0.006651f, -0.085347f, -0.015436f, -0.059864f, 0.076579f, -0.047786f, 0.053805f,
    0.071980f, 0.028423f, -0.013292f, 0.008026f, 0.079274f, -0.057949f, 0.040949f, -0.088470f, 0.030134f, -0.017589f,
    0.014076f, 0.002759f, 0.011742f, 0.034838f, -0.063078f, 0.002543f, -0.000960f, 0.074106f, -0.057332f, -0.028583f,
    -0.082803f, 0.073911f, -0.021799f, -0.075906f, -0.040478f, -0.087191f, -0.035343f, 0.033963f, 0.054416f, 0.063611f,
    -0.012918f, -0.091282f, 0.101952f, -0.056945f, 0.038743f, 0.086756f, 0.100670f, 0.031293f, 0.043867f, 0.048737f,
    0.021991f, -0.054587f, -0.049960f, 0.032310f, 0.095429f, -0.077432f, 0.016675f, -0.000053f, 0.058111f, -0.082928f,
    0.036361f, -0.062983f, 0.052483f, 0.091316f, -0.063714f, 0.082914f, 0.028134f, 0.020038f, 0.072244f, 0.038131f,
    -0.011134f, -0.034663f, 0.036600f, 0.005785f, -0.037917f, -0.066027f, 0.091223f, -0.065531f, 0.094928f, 0.005812f,
    -0.059540f, -0.092744f, -0.046703f, -0.040850f, -0.094036f, -0.021515f, -0.023469f, 0.047776f, -0.097458f, -0.065003f,
    -0.036684f, 0.020915f, -0.057795f, 0.062940f, 0.028987f, 0.068708f, -0.036631f, 0.020563f, 0.075962f, -0.013824f,
    0.066035f, -0.038789f, -0.032394f, -0.028311f, 0.023852f, 0.055244f, 0.064000f, -0.020023f, -0.098740f, 0.038611f,
    0.035211f, -0.055607f, -0.033444f, -0.070884f, -0.004993f, -0.073111f, 0.002610f, 0.086598f, -0.065342f, 0.002005f,
    0.100436f, 0.044463f, 0.018025f, 0.002301f, 0.006554f, -0.014161f, -0.061171f, -0.085092f, -0.049953f, -0.060490f,
    -0.009110f, -0.095784f, -0.056238f, 0.046600f, 0.074437f, 0.011480f, 0.069235f, -0.060458f, -0.027050f, -0.018563f,
    -0.068838f, -0.058345f, 0.090397f, 0.091936f, 0.087093f, 0.084454f, -0.028984f, 0.058708f, -0.094253f, -0.058314f,
    -0.087106f, 0.066622f, 0.084079f, 0.038737f, 0.046639f, -0.019637f, 0.051001f, 0.075018f, 0.058142f, -0.059357f,
    -0.023737f, -0.017458f, 0.082320f, 0.012620f, -0.045810f, -0.035170f, -0.051453f, -0.053862f, 0.050057f, 0.079777f,
    -0.010283f, -0.094353f, 0.005772f, 0.087029f, 0.050394f, -0.058991f, 0.027852f, -0.020826f, -0.046427f, -0.066335f,
    -0.043495f, 0.021279f, 0.005968f, -0.040014f, 0.006881f, -0.047608f, -0.032191f, 0.068695f, -0.066409f, 0.054565f,
    0.050784f, -0.050855f, 0.021065f, -0.071150f, -0.036078f, 0.031793f, 0.072840f, -0.007628f, 0.059815f, -0.063558f,
    0.090534f, -0.074847f, 0.073557f, -0.016427f, 0.094982f, -0.081764f, 0.000462f, 0.058784f, -0.077236f, 0.030852f,
    -0.012323f, 0.059617f, 0.009935f, -0.059812f, -0.047536f, -0.036904f, -0.022933f, -0.011709f, 0.007308f, 0.001231f,
    0.012023f, -0.099482f, 0.001167f, -0.094772f, -0.026667f, 0.017838f, 0.100803f, -0.082243f, 0.092889f, -0.100219f,
    -0.021711f, 0.029855f, -0.063633f, -0.043539f, -0.087458f, -0.084604f, 0.085709f, 0.000707f, -0.003429f, -0.081359f,
    0.073924f, -0.023198f, 0.007566f, -0.002032f, -0.088070f, -0.083551f, 0.058934f, -0.060195f, -0.035981f, -0.080560f,
    -0.016970f, 0.019232f, 0.020603f, -0.098053f, 0.001862f, -0.033562f, -0.075226f, 0.002862f, 0.000965f, 0.018310f,
    -0.082293f, 0.098204f, 0.015165f, -0.069719f, 0.075542f, 0.008472f, 0.004427f, 0.077209f, -0.006176f, 0.058533f,
    -0.061628f, -0.048900f, 0.029745f, -0.074427f, -0.097830f, -0.077621f, 0.090781f, 0.007368f, 0.047718f, -0.028916f,
    0.039892f, -0.007814f, 0.030688f, 0.006998f, 0.010933f, -0.048867f, 0.023987f, 0.051232f, 0.058229f, -0.045825f,
    0.019121f, 0.094642f, -0.099367f, 0.010467f, -0.075612f, 0.016454f, 0.038856f, -0.052571f, 0.007774f, 0.039098f,
    0.088459f, 0.053677f, 0.066386f, 0.076847f, -0.088089f, -0.002998f, 0.061361f, -0.063363f, -0.100727f, -0.087727f,
    0.059964f, -0.049231f, -0.007745f, -0.059330f, -0.016916f, -0.069566f, -0.076837f, -0.088450f, 0.058600f, 0.004233f,
    0.025294f, 0.006499f, 0.030872f, -0.051489f, -0.061583f, -0.015051f, 0.079799f, -0.023102f, -0.023375f, -0.008946f,
    0.048641f, -0.040494f, 0.098806f, 0.033276f, -0.006744f, -0.055554f, 0.003954f, 0.082311f, -0.024862f, 0.046463f,
    0.032105f, -0.035146f, -0.056966f, 0.084584f, 0.032161f, 0.018241f, 0.071277f, 0.078632f, 0.066242f, -0.029703f,
    -0.012783f, 0.086314f, 0.038858f, 0.011654f, -0.027271f, -0.095249f, 0.059725f, -0.037356f, -0.060122f, 0.015902f,
    0.035468f, -0.039552f, 0.000909f, 0.001923f, 0.021051f, 0.047271f, -0.091399f, 0.094227f, 0.015082f, -0.055677f,
    0.004906f, -0.041865f, 0.058106f, 0.054157f, -0.022317f, 0.013610f, 0.027796f, -0.027099f, -0.010413f, 0.032683f,
    -0.052858f, 0.027676f, 0.085585f, -0.010449f, 0.091548f, -0.080007f, 0.086726f, 0.041278f, 0.050875f, 0.048958f,
    0.061571f, 0.001004f, -0.094212f, -0.094755f, 0.032619f, -0.086582f, 0.020222f, 0.028032f, 0.062603f, -0.019305f,
    0.057217f, 0.002530f, 0.080704f, -0.004194f, 0.094155f, 0.072776f, 0.009005f, -0.014595f, -0.045522f, 0.089353f,
    0.064078f, -0.057803f, -0.100375f, 0.095401f, -0.090597f, 0.073322f, 0.002249f, 0.088043f, -0.002484f, -0.057535f,
    -0.046617f, 0.060613f, -0.001873f, 0.035459f, -0.029498f, -0.083303f, -0.075863f, -0.003194f, 0.019907f, -0.003248f,
    -0.006153f, -0.017695f, -0.038121f, -0.032733f, 0.063256f, 0.050109f, -0.010447f, -0.034704f, 0.089667f, -0.005253f,
    -0.051781f, 0.027000f, -0.074325f, -0.020893f, -0.030981f, -0.002572f, -0.065642f, 0.005546f, -0.099636f, 0.043834f,
    0.026029f, -0.004013f, -0.046184f, -0.093710f, -0.077229f, -0.030966f, 0.079262f, 0.012642f, 0.010534f, 0.051425f,
    -0.034146f, -0.097084f, -0.074438f, 0.010797f, 0.031387f, 0.082805f, -0.061261f, 0.023171f, -0.099753f, 0.077570f,
    0.075966f, -0.031044f, -0.063180f, 0.093437f, -0.099272f, -0.052777f, 0.049936f, 0.044107f, 0.037991f, 0.086879f,
    -0.039333f, 0.016794f, -0.063769f, 0.023041f, -0.002584f, 0.063956f, -0.022698f, 0.081544f, -0.092514f, 0.017604f,
    -0.099481f, 0.033436f, -0.060727f, 0.088875f, 0.043297f, 0.092740f, -0.020231f, 0.057495f, -0.025005f, -0.035558f,
    -0.032659f, -0.047059f, 0.082777f, -0.027753f, -0.043572f, 0.064331f, 0.067629f, -0.063682f, -0.050500f, -0.051953f,
    0.101624f, 0.000165f, -0.049263f, -0.011626f, 0.030772f, -0.089837f, -0.074849f, -0.047739f, -0.071356f, -0.079203f,
    0.045763f, -0.012116f, 0.022170f, 0.001137f, -0.047447f, -0.099107f, 0.035290f, -0.095712f, -0.054697f, -0.075231f,
    0.043819f, -0.026369f, -0.091718f, -0.038445f, -0.052378f, -0.080684f, -0.022807f, 0.040550f, -0.049505f, 0.057137f,
    -0.073552f, 0.009952f, -0.010554f, -0.046688f, 0.084173f, -0.033225f, -0.072046f, -0.027264f, 0.024560f, 0.093459f,
    0.041131f, 0.034179f, 0.086596f, -0.059410f, 0.041670f, -0.002613f, -0.035811f, -0.081346f, 0.000570f, -0.064115f,
    0.012592f, 0.017060f, 0.052702f, 0.033606f, -0.071712f, 0.065818f, -0.058154f, 0.068762f, -0.005215f, -0.099980f,
    -0.046933f, -0.046871f, 0.067525f, 0.039003f, -0.040882f, -0.045780f, 0.080702f, 0.098787f, 0.028728f, 0.035601f,
    0.019161f, 0.082494f, -0.031768f, 0.032423f, 0.059447f, -0.045666f, 0.033405f, -0.051935f, -0.083854f, -0.048890f,
    -0.095518f, 0.072299f, -0.068188f, 0.073240f, -0.084322f, -0.088965f, 0.003188f, -0.052225f, -0.017383f, 0.031899f,
    0.095806f, 0.021641f, -0.033530f, 0.099079f, 0.071265f, 0.043019f, 0.034769f, 0.053260f, 0.043833f, -0.091809f,
    0.008153f, 0.066565f, -0.094703f, -0.094820f, -0.098993f, 0.095420f, -0.070203f, 0.069697f, 0.071425f, 0.052309f,
    -0.073242f, -0.026808f, -0.023174f, 0.009521f, -0.052596f, -0.099667f, -0.007263f, -0.051095f, 0.066806f, -0.065258f,
    0.060952f, -0.019457f, -0.008308f, -0.026520f, 0.003504f, 0.010684f, 0.036245f, 0.075612f, 0.015758f, -0.000698f,
    -0.000128f, 0.032181f, -0.074459f, 0.076006f, 0.021443f, 0.064901f, 0.011157f, -0.000589f, 0.054066f, 0.009098f,
    -0.002704f, -0.037759f, 0.008099f, 0.012340f, -0.016502f, 0.084353f, -0.101749f, -0.045261f, -0.024988f, -0.016134f,
    -0.076085f, 0.017447f, -0.050102f, 0.033822f, -0.090230f, 0.003733f, -0.046468f, -0.097712f, 0.085224f, -0.034792f,
    -0.022554f, -0.045442f, -0.097701f, 0.029300f, 0.004236f, -0.048600f, -0.010553f, -0.069645f, 0.079245f, 0.055006f,
    -0.004769f, -0.076090f, -0.028292f, -0.054427f, -0.084446f, 0.018283f, -0.017508f, 0.087596f, -0.080819f, -0.028624f,
    -0.002293f, 0.032559f, -0.099140f, 0.010137f, 0.061832f, 0.012233f, 0.031122f, 0.012630f, 0.097064f, -0.084799f,
    -0.027724f, -0.031011f, -0.090840f, -0.011422f, 0.074027f, 0.000325f, 0.037953f, 0.009098f, -0.048722f, -0.068470f,
    0.009590f, -0.078966f, -0.026658f, 0.026745f, -0.074239f, -0.070350f, 0.067762f, 0.096069f, 0.095272f, -0.079950f,
    -0.033706f, 0.037848f, -0.080822f, -0.009373f, -0.004588f, 0.005891f, 0.049022f, -0.016200f, -0.082759f, -0.084784f,
    0.095920f, 0.095780f, -0.095292f, -0.055800f, 0.021061f, 0.064731f, 0.005764f, -0.049283f, 0.076401f, -0.101772f,
    -0.027865f, -0.089404f, -0.013537f, -0.014276f, -0.022821f, -0.029083f, 0.065969f, 0.048342f, 0.000388f, 0.001868f,
    0.046534f, -0.041477f, -0.008808f, -0.101834f, 0.026990f, 0.051897f, -0.096029f, -0.013366f, -0.076478f, -0.029897f,
    -0.084953f, 0.046140f, 0.038296f, 0.050485f, -0.031931f, 0.045057f, 0.013516f, 0.018456f, 0.042823f, -0.033168f,
    0.068308f, -0.082432f, -0.046990f, -0.058807f, -0.062936f, 0.077747f, 0.011222f, -0.100162f, -0.025428f, -0.014810f,
    0.090127f, 0.079697f, -0.058034f, -0.050040f, -0.012728f, 0.044389f, -0.056062f, -0.099654f, -0.065030f, -0.065267f,
    -0.094288f, 0.091548f, 0.069483f, 0.019256f, -0.067228f, -0.038225f, 0.015135f, 0.030974f, 0.096353f, 0.012378f,
    0.020774f, -0.066342f, 0.066227f, 0.025591f, 0.056772f, 0.057174f, 0.064001f, 0.057551f, -0.071128f, -0.087184f,
    0.084934f, 0.081365f, 0.030446f, -0.016645f, 0.049358f, 0.039527f, -0.097090f, 0.076660f, -0.059090f, -0.044781f,
    0.042657f, 0.000284f, 0.032558f, 0.088091f, 0.000167f, 0.014078f, -0.043115f, -0.019312f, 0.027978f, -0.066124f,
    -0.016211f, -0.047783f, -0.039029f, -0.076201f, -0.089441f, 0.018371f, -0.059602f, -0.076001f, -0.061800f, 0.050230f,
    -0.058298f, -0.083811f, 0.037380f, 0.096595f, 0.023192f, 0.014884f, 0.027389f, -0.094678f, -0.079818f, 0.068589f,
    0.068811f, -0.022971f, 0.047535f, -0.050141f, 0.044340f, -0.069988f, 0.042514f, -0.066362f, -0.011937f, 0.032961f,
    0.084232f, 0.065208f, 0.047720f, 0.044698f, -0.021464f, -0.088542f, 0.007977f, -0.013832f, 0.079102f, -0.005390f,
    0.016821f, 0.039250f, 0.092158f, 0.050876f, -0.082925f, 0.026640f, 0.060345f, -0.008094f, 0.008855f, 0.015200f,
    -0.044172f, -0.024143f, -0.089829f, -0.083005f, 0.047449f, 0.090916f, 0.030655f, 0.024616f, 0.097878f, -0.030867f,
    -0.042257f, -0.075950f, 0.012827f, 0.027797f, -0.098036f, 0.083634f, -0.085924f, 0.052021f, 0.015810f, 0.085916f,
    -0.088446f, -0.021419f, -0.071250f, 0.003597f, 0.030999f, 0.099931f, 0.089587f, -0.027727f, -0.018473f, 0.056760f,
    0.003140f, 0.046936f, -0.004485f, -0.058490f, 0.078809f, 0.008784f, -0.022839f, -0.050033f, -0.016870f, -0.004603f,
    -0.094234f, 0.061162f, -0.005476f, 0.047607f, 0.099032f, -0.006782f, -0.042724f, 0.039766f, -0.042556f, 0.059228f,
    -0.094612f, -0.036005f, 0.082677f, 0.012838f, -0.027462f, 0.092124f, 0.080325f, 0.024618f, -0.093337f, -0.014085f,
    0.044188f, -0.047634f, 0.088695f, -0.093885f, -0.059704f, -0.093144f, -0.075094f, 0.052562f, 0.074125f, 0.056969f,
    -0.008475f, 0.068001f, 0.058404f, -0.101397f, -0.096387f, 0.088349f, -0.034509f, 0.065037f, -0.020577f, 0.080460f,
    0.086824f, -0.077220f, 0.021233f, -0.027805f, 0.031752f, -0.007824f, -0.051698f, -0.075850f, 0.038024f, -0.077553f,
    0.040951f, -0.065895f, 0.074808f, -0.052615f, -0.006690f, -0.022359f, 0.016313f, 0.071113f, -0.029733f, -0.088192f,
    0.022030f, 0.068990f, 0.085670f, -0.064557f, -0.097364f, 0.074789f, -0.068837f, -0.038747f, -0.045383f, -0.018153f,
    -0.084562f, -0.061594f, -0.047210f, 0.047981f, 0.023688f, 0.026367f, -0.000862f, -0.091428f, -0.058423f, -0.010161f,
    0.079813f, 0.046941f, 0.018068f, 0.084165f, -0.052759f, 0.061415f, -0.071589f, -0.010347f, 0.027478f, -0.096450f,
    -0.080072f, -0.096275f, 0.076455f, -0.074417f, 0.023151f, 0.064799f, 0.067315f, 0.017219f, -0.092817f, -0.088925f,
    0.041622f, -0.035879f, 0.006667f, 0.094097f, -0.064256f, -0.064917f, 0.090128f, -0.098518f, 0.077729f, 0.088844f,
    0.085364f, 0.036261f, 0.026464f, 0.022315f, 0.009464f, -0.035194f, 0.083281f, -0.025126f, -0.068962f, -0.043218f,
