// Auto-generated model weights for RAVN AI Engine
// Generated from: ../../artifacts/ravn_model.h5_weights.bin
// Total weights: 154563

#ifndef RAVN_MODEL_WEIGHTS_H
#define RAVN_MODEL_WEIGHTS_H

#include <stdint.h>

// Model architecture constants
#define INPUT_SEQUENCE_LENGTH 20
#define DENSE1_OUTPUT_SIZE 64
#define LSTM1_HIDDEN_SIZE 128
#define LSTM2_HIDDEN_SIZE 64
#define DENSE2_OUTPUT_SIZE 32
#define OUTPUT_CLASSES 3

// Layer weight counts
#define DENSE1_WEIGHT_COUNT 704
#define LSTM1_WEIGHT_COUNT 98816
#define LSTM2_WEIGHT_COUNT 49408
#define DENSE2_WEIGHT_COUNT 2080
#define DENSE3_WEIGHT_COUNT 99
#define TOTAL_WEIGHT_COUNT 154563

// All model weights (float32) - organized by layer
static const float all_model_weights[TOTAL_WEIGHT_COUNT] = {
    0.102191f, -0.044613f, 0.075793f, 0.135902f, 0.161010f, 0.193537f, 0.108079f, -0.212430f, -0.081059f, 0.079252f,
    0.129166f, -0.144435f, 0.200505f, 0.127154f, 0.099230f, 0.026150f, -0.004886f, 0.119234f, -0.120594f, -0.089180f,
    0.021961f, 0.101912f, 0.077983f, 0.106730f, -0.148220f, 0.185272f, -0.189254f, -0.148291f, -0.098877f, -0.113894f,
    0.119208f, 0.006824f, -0.112643f, -0.172260f, -0.119416f, 0.032880f, 0.147664f, -0.091682f, 0.103347f, -0.095344f,
    0.039711f, -0.188120f, -0.044157f, 0.054891f, 0.200280f, 0.173185f, -0.046800f, 0.131987f, -0.141739f, 0.027280f,
    -0.074590f, -0.192642f, 0.161905f, 0.017273f, 0.016641f, -0.174506f, -0.074321f, -0.107522f, 0.153794f, -0.086116f,
    -0.129078f, 0.020517f, 0.101278f, -0.157025f, 0.118522f, 0.006095f, 0.059425f, 0.207720f, -0.153030f, -0.050765f,
    0.065472f, 0.082184f, 0.176440f, -0.041687f, -0.084048f, -0.131493f, 0.032693f, -0.206693f, -0.093079f, 0.086169f,
    -0.108543f, 0.058283f, -0.149396f, 0.012249f, 0.158081f, 0.000518f, 0.080104f, 0.135737f, 0.042751f, 0.132398f,
    0.076153f, -0.011994f, 0.016226f, 0.004321f, 0.106631f, -0.062737f, -0.011621f, 0.091940f, 0.014528f, 0.180814f,
    -0.185102f, -0.116234f, 0.142902f, -0.135890f, -0.005227f, -0.066308f, 0.119861f, -0.190449f, -0.185026f, 0.179663f,
    0.020102f, -0.044787f, 0.106790f, 0.095632f, -0.054437f, -0.070874f, 0.137597f, 0.185583f, 0.128525f, -0.206528f,
    0.201635f, -0.212198f, 0.090466f, -0.107800f, -0.094993f, 0.058172f, -0.138069f, -0.189747f, -0.070997f, -0.207118f,
    -0.182636f, 0.106794f, -0.174259f, -0.016189f, -0.117988f, -0.209477f, 0.069964f, -0.001841f, 0.057461f, 0.029657f,
    -0.169016f, 0.148207f, -0.091566f, 0.004854f, 0.077132f, -0.107203f, -0.035247f, -0.159758f, -0.177710f, 0.080424f,
    0.120069f, 0.155304f, 0.062384f, -0.009339f, -0.115020f, -0.079759f, -0.196719f, 0.172598f, 0.100299f, -0.099343f,
    0.097051f, 0.095688f, -0.013378f, 0.185205f, -0.161242f, -0.042090f, -0.036984f, -0.129922f, -0.130950f, 0.205850f,
    0.035804f, -0.156952f, 0.083661f, -0.168881f, 0.067173f, 0.068664f, -0.120065f, 0.211319f, 0.206078f, 0.206346f,
    -0.059475f, 0.003562f, -0.183885f, -0.014530f, 0.027785f, 0.123623f, -0.105501f, -0.148888f, -0.137064f, -0.102794f,
    -0.134597f, 0.179845f, 0.078251f, 0.149663f, 0.201090f, 0.079666f, -0.006765f, 0.030274f, -0.083237f, 0.155275f,
    0.015592f, -0.054371f, 0.022106f, -0.154712f, -0.084807f, 0.212828f, 0.046351f, -0.213210f, 0.209249f, -0.180874f,
    -0.050081f, 0.086906f, -0.091389f, -0.011781f, 0.177275f, -0.086209f, -0.200566f, -0.111260f, -0.089008f, -0.139162f,
    0.189787f, -0.025984f, 0.083254f, 0.168234f, 0.083740f, 0.053691f, -0.188438f, -0.126144f, -0.106551f, -0.119973f,
    0.066471f, 0.186475f, 0.120339f, 0.006948f, -0.102757f, 0.009584f, -0.197501f, 0.046317f, 0.029529f, 0.188809f,
    -0.158366f, 0.143950f, 0.056529f, -0.013260f, 0.004797f, 0.124332f, 0.213547f, 0.182462f, -0.159247f, 0.095346f,
    -0.021555f, -0.068289f, 0.112988f, -0.181600f, -0.134616f, 0.201745f, 0.100760f, -0.148155f, 0.196954f, -0.138494f,
    0.074098f, 0.214591f, 0.002351f, -0.156841f, -0.199040f, -0.034873f, 0.051198f, 0.041810f, -0.076880f, -0.188439f,
    -0.033054f, -0.126817f, 0.005904f, 0.073312f, 0.078302f, -0.193813f, -0.130926f, 0.050036f, -0.090262f, -0.001345f,
    -0.129982f, -0.066206f, 0.037011f, 0.058058f, -0.074853f, -0.041715f, -0.159988f, -0.184578f, 0.169466f, 0.119235f,
    -0.187796f, -0.041512f, -0.056272f, -0.065788f, -0.215136f, 0.161504f, -0.027205f, 0.123705f, -0.071002f, 0.038953f,
    -0.023473f, -0.107314f, -0.104161f, -0.103634f, 0.021932f, -0.020986f, -0.039096f, 0.033802f, -0.020449f, -0.124059f,
    -0.181211f, -0.148616f, 0.028620f, -0.024817f, 0.153520f, 0.053497f, 0.091593f, 0.019625f, 0.070953f, -0.171178f,
    -0.000659f, 0.160488f, -0.085458f, 0.177497f, 0.131665f, -0.178958f, 0.047828f, 0.105029f, 0.041760f, 0.030204f,
    -0.038109f, -0.131433f, 0.157358f, -0.085838f, -0.026834f, 0.181676f, 0.037538f, 0.001389f, -0.036958f, 0.132535f,
    0.032190f, -0.136920f, 0.089957f, -0.060065f, 0.017708f, 0.160210f, 0.104229f, 0.052351f, 0.081046f, -0.122893f,
    0.051190f, -0.201851f, -0.175951f, -0.099423f, -0.033546f, 0.038429f, 0.047795f, -0.176290f, 0.062103f, -0.108365f,
    -0.016271f, 0.163427f, -0.081790f, 0.019222f, 0.048867f, 0.067683f, 0.023823f, 0.155096f, -0.054783f, -0.188224f,
    0.161231f, -0.026243f, 0.128619f, 0.040583f, 0.111794f, 0.085102f, 0.198711f, -0.017673f, -0.022928f, 0.199273f,
    -0.099540f, 0.004714f, 0.054967f, -0.050587f, 0.127252f, 0.158987f, -0.116728f, 0.079536f, 0.023463f, -0.190068f,
    -0.163107f, -0.045607f, 0.144808f, 0.123641f, 0.011193f, -0.134737f, 0.194276f, -0.176285f, 0.019345f, 0.171396f,
    -0.000416f, -0.047202f, -0.066524f, -0.185335f, 0.021523f, -0.141069f, -0.117127f, 0.044429f, -0.122711f, 0.188734f,
    0.012333f, -0.052168f, 0.089246f, -0.001878f, 0.030665f, 0.158556f, -0.108087f, -0.208528f, 0.104832f, 0.184199f,
    0.131662f, 0.042992f, -0.044249f, -0.091116f, 0.052092f, -0.071119f, 0.065322f, -0.170896f, -0.215510f, -0.068732f,
    -0.112896f, -0.084059f, -0.097976f, -0.073231f, -0.084373f, 0.051210f, -0.197085f, 0.165234f, 0.162336f, 0.102262f,
    0.095845f, -0.142365f, 0.159896f, 0.120049f, -0.008494f, 0.118628f, 0.204096f, -0.095432f, 0.155795f, 0.169158f,
    -0.178262f, 0.198362f, 0.192765f, 0.136368f, 0.142876f, 0.120140f, -0.041694f, 0.123049f, -0.079993f, 0.213508f,
    -0.006222f, -0.212724f, 0.110300f, -0.030798f, 0.150563f, 0.055651f, -0.033374f, -0.021540f, -0.004310f, -0.093524f,
    0.211512f, -0.030548f, 0.029082f, 0.047842f, 0.014290f, 0.037093f, -0.048934f, 0.152199f, 0.041011f, -0.016493f,
    0.150072f, 0.149595f, -0.122170f, 0.016870f, 0.088370f, -0.164667f, 0.201118f, 0.014606f, -0.027130f, 0.131666f,
    0.065970f, -0.179569f, -0.098659f, 0.059505f, 0.109521f, -0.051962f, 0.134522f, -0.078087f, 0.040550f, 0.132436f,
    0.135875f, 0.075866f, 0.034787f, 0.124755f, -0.191090f, 0.025966f, 0.059235f, -0.151294f, 0.186175f, -0.190685f,
    -0.016938f, -0.094680f, 0.175214f, 0.028410f, -0.151707f, -0.060909f, -0.209673f, 0.152983f, 0.024607f, 0.197942f,
    -0.072354f, 0.208062f, -0.123364f, 0.065952f, -0.201182f, -0.084037f, 0.097917f, 0.096314f, 0.168281f, -0.029269f,
    0.061364f, 0.070646f, -0.172050f, -0.151060f, -0.120938f, 0.047996f, -0.120551f, 0.209300f, 0.004739f, 0.150464f,
    0.086197f, 0.082741f, -0.038420f, 0.038150f, 0.165327f, -0.018608f, -0.148316f, -0.102339f, -0.075885f, -0.149680f,
    0.147274f, 0.147358f, 0.088308f, -0.114386f, -0.202523f, -0.015103f, -0.191711f, 0.169945f, -0.091684f, 0.032638f,
    -0.022070f, -0.009525f, 0.024222f, 0.211639f, -0.140151f, 0.153314f, -0.176834f, -0.158423f, 0.156250f, 0.102909f,
    0.188662f, -0.105529f, 0.124344f, -0.202360f, -0.130716f, 0.091422f, -0.090035f, -0.098624f, -0.084651f, 0.038268f,
    0.014909f, 0.139366f, -0.095543f, 0.139980f, -0.121026f, -0.199915f, 0.200802f, -0.130530f, -0.189729f, -0.002742f,
    0.110651f, -0.011539f, -0.024006f, 0.215651f, 0.065358f, 0.048674f, 0.043220f, 0.141469f, 0.189684f, -0.048285f,
    0.123245f, 0.158710f, -0.103115f, -0.043677f, 0.146810f, 0.052677f, -0.198232f, -0.049367f, -0.018049f, 0.193027f,
    0.040588f, -0.116372f, 0.009042f, 0.003769f, -0.081826f, -0.196791f, -0.214187f, -0.146329f, -0.129717f, -0.210113f,
    -0.157390f, 0.151273f, -0.039635f, 0.108672f, -0.180383f, 0.067759f, 0.095280f, 0.118094f, 0.181306f, -0.206786f,
    0.064477f, 0.108013f, 0.199789f, 0.023426f, -0.155372f, 0.154502f, 0.009856f, 0.176038f, 0.103277f, 0.007454f,
    0.043234f, -0.144034f, -0.001048f, 0.196555f, -0.181021f, 0.081909f, -0.205562f, -0.183073f, -0.094190f, 0.115787f,
    -0.029167f, -0.041645f, -0.215438f, -0.065212f, -0.208457f, -0.187392f, -0.107202f, -0.031629f, 0.107444f, -0.103667f,
    0.082918f, -0.166653f, 0.045074f, 0.078940f, 0.060981f, -0.119392f, -0.084600f, -0.131922f, 0.150887f, -0.124230f,
    0.123849f, -0.065520f, 0.025471f, 0.007820f, -0.060283f, -0.179654f, -0.216016f, -0.113796f, -0.199201f, 0.140178f,
    -0.107671f, 0.200569f, 0.086929f, 0.005312f, -0.113713f, 0.094273f, 0.127896f, 0.067051f, 0.129323f, 0.119932f,
    -0.209344f, -0.037487f, -0.198883f, -0.117858f, 0.154819f, 0.178819f, -0.074356f, 0.070710f, 0.100656f, -0.179260f,
    0.140767f, -0.052048f, 0.023951f, -0.122882f, -0.119571f, 0.192175f, 0.115477f, -0.141349f, 0.184748f, -0.179909f,
    -0.100522f, 0.064525f, 0.212313f, -0.131623f, 0.121866f, -0.056164f, 0.198384f, 0.189687f, 0.168682f, -0.050064f,
    -0.186005f, 0.215828f, 0.138448f, 0.015644f, 0.129074f, 0.182145f, -0.032177f, 0.062183f, -0.135397f, -0.120043f,
    0.152020f, 0.140630f, 0.056451f, 0.096851f, 0.063051f, 0.078162f, 0.164471f, -0.011840f, -0.085660f, 0.117694f,
    0.156879f, 0.038537f, -0.195106f, -0.093766f, 0.171605f, 0.130356f, 0.055253f, 0.054082f, 0.116198f, 0.165838f,
    0.091989f, 0.188633f, 0.061156f, 0.019267f, -0.200169f, -0.072458f, 0.173664f, -0.000834f, 0.209665f, 0.063089f,
    -0.139530f, 0.190449f, -0.057278f, 0.148116f, 0.214700f, 0.191911f, -0.102068f, -0.017910f, -0.017904f, 0.119227f,
    0.045290f, -0.137128f, -0.068759f, 0.046675f, 0.110206f, -0.162638f, 0.072351f, 0.206555f, -0.185044f, 0.043897f,
    -0.075430f, -0.024458f, 0.007887f, -0.113908f, 0.051171f, -0.011616f, -0.060961f, -0.145678f, -0.097313f, -0.166935f,
    -0.009730f, -0.081457f, 0.146065f, 0.108291f, 0.190363f, -0.070767f, -0.189755f, 0.130642f, 0.167015f, -0.057568f,
    0.050074f, 0.120166f, 0.110543f, -0.133366f, -0.010616f, -0.188188f, -0.109592f, 0.053896f, -0.010210f, -0.162921f,
    -0.020788f, 0.127938f, -0.213176f, -0.102133f, 0.018892f, -0.067965f, 0.060658f, -0.050398f, 0.122859f, 0.168439f,
    0.117935f, -0.062712f, -0.190215f, 0.161706f, -0.130207f, -0.118934f, 0.121227f, -0.033274f, -0.160190f, 0.172700f,
    0.024288f, 0.162549f, 0.143694f, 0.085619f, -0.111227f, -0.123175f, -0.069624f, -0.140646f, -0.072816f, -0.009740f,
    -0.180165f, 0.105877f, -0.071470f, -0.081033f, 0.022805f, -0.209178f, 0.038079f, 0.148403f, -0.189178f, -0.049405f,
    0.060855f, 0.186694f, 0.158166f, -0.004277f, -0.051521f, -0.212258f, 0.033051f, 0.150041f, 0.089028f, 0.139021f,
    -0.117905f, 0.214514f, -0.058606f, 0.160740f, -0.112438f, 0.106288f, -0.142651f, 0.108022f, -0.154563f, -0.172611f,
    0.199335f, 0.164243f, 0.011031f, -0.072114f, 0.003970f, -0.115417f, -0.203731f, 0.189683f, -0.195397f, -0.176972f,
    0.163604f, 0.139960f, 0.011975f, -0.139753f, 0.213445f, 0.078003f, 0.079027f, 0.172471f, 0.152607f, 0.209909f,
    -0.211765f, 0.123988f, -0.126124f, 0.189829f, -0.081564f, -0.009923f, -0.155900f, -0.199917f, -0.138351f, -0.055039f,
    -0.180520f, -0.059567f, 0.137097f, -0.022031f, 0.135266f, 0.213754f, 0.076258f, 0.014624f, -0.058576f, 0.199844f,
    0.091241f, -0.023191f, -0.110320f, -0.050777f, -0.132412f, -0.034161f, -0.093103f, -0.002031f, 0.066251f, 0.148110f,
    -0.148462f, -0.061009f, -0.017090f, -0.058691f, 0.140918f, 0.167505f, -0.057310f, -0.048537f, -0.191958f, -0.190028f,
    -0.111121f, 0.195131f, 0.213335f, -0.029618f, -0.149164f, -0.181439f, 0.073294f, 0.131033f, 0.156112f, -0.137845f,
    -0.175491f, -0.132317f, 0.163723f, 0.081679f, -0.125939f, -0.134320f, 0.185079f, 0.039537f, -0.201411f, -0.025536f,
    -0.138711f, -0.029096f, -0.158965f, -0.042883f, 0.158262f, 0.058241f, 0.114485f, 0.109918f, 0.037666f, -0.192360f,
    -0.138704f, 0.157135f, -0.182260f, 0.036452f, 0.177076f, -0.077589f, -0.110381f, 0.044689f, -0.212186f, -0.189137f,
    -0.009243f, 0.062013f, -0.200342f, -0.071196f, 0.088823f, 0.083845f, -0.116484f, 0.014640f, -0.208603f, -0.185837f,
    0.142970f, 0.134570f, 0.027968f, 0.052693f, 0.032696f, -0.085214f, 0.203802f, -0.086243f, -0.058963f, 0.148184f,
    -0.152453f, -0.202103f, -0.029567f, -0.139475f, -0.009138f, -0.047179f, 0.172700f, -0.004243f, -0.053394f, 0.148301f,
    -0.080913f, -0.045054f, 0.166403f, 0.086516f, 0.197366f, 0.070477f, -0.045583f, -0.098468f, -0.005774f, 0.051226f,
    -0.004311f, -0.133892f, -0.189636f, 0.156211f, 0.043081f, 0.136587f, -0.043103f, 0.103061f, -0.199329f, -0.134158f,
    -0.019463f, 0.017561f, 0.198589f, 0.102493f, -0.161437f, -0.193281f, -0.136869f, -0.169992f, 0.177877f, 0.149653f,
    0.166408f, -0.193754f, 0.067452f, 0.007884f, -0.142988f, -0.183477f, -0.143052f, -0.063060f, 0.129560f, -0.208461f,
    0.033676f, 0.074363f, -0.150361f, -0.124404f, 0.038499f, 0.173253f, 0.103193f, -0.205525f, -0.044298f, -0.081931f,
    0.092708f, 0.156882f, -0.086342f, -0.167278f, 0.157754f, -0.136164f, -0.097599f, -0.004823f, 0.146924f, 0.051048f,
    0.087826f, 0.203897f, 0.141052f, -0.104303f, 0.137318f, 0.065831f, 0.142495f, 0.164842f, -0.160871f, -0.122376f,
    0.134873f, 0.065203f, -0.168461f, -0.101806f, -0.006987f, 0.132925f, 0.147009f, -0.019828f, 0.119048f, -0.014732f,
    0.013077f, 0.189659f, 0.081851f, -0.128123f, -0.004485f, -0.098060f, 0.108363f, -0.107648f, 0.099683f, 0.013200f,
    -0.190982f, -0.152890f, 0.072801f, 0.182003f, 0.153685f, -0.062596f, -0.016753f, -0.174903f, -0.025976f, 0.043443f,
    0.033023f, 0.072151f, -0.074885f, 0.068941f, 0.202778f, 0.124199f, 0.068621f, -0.027735f, 0.030440f, -0.178910f,
    -0.057004f, -0.144083f, 0.124888f, 0.211438f, -0.175795f, 0.181890f, -0.215049f, 0.083470f, 0.168119f, 0.097406f,
    0.042042f, 0.146542f, -0.076541f, -0.148562f, 0.031147f, 0.199100f, 0.182625f, -0.071335f, -0.141434f, 0.005905f,
    0.160265f, 0.140644f, -0.013331f, -0.068190f, 0.177089f, 0.055643f, 0.088994f, -0.157672f, -0.199172f, 0.097666f,
    -0.188787f, -0.072001f, -0.213897f, 0.208166f, -0.206452f, 0.213857f, -0.140524f, -0.103066f, -0.038774f, -0.150131f,
    -0.035315f, 0.197155f, 0.083402f, 0.120015f, 0.127034f, 0.088843f, -0.068177f, 0.070396f, 0.147199f, -0.148174f,
    0.146783f, 0.175224f, -0.027335f, 0.195316f, -0.034412f, 0.116845f, -0.107513f, -0.025310f, -0.082829f, 0.146405f,
    0.048974f, 0.074515f, -0.034320f, 0.009912f, -0.085086f, -0.205288f, -0.093417f, 0.014550f, 0.175469f, -0.013136f,
    0.082300f, 0.051942f, 0.140418f, -0.196769f, -0.150701f, -0.198401f, -0.015277f, -0.168092f, -0.178634f, -0.054691f,
    0.205742f, 0.186708f, -0.056713f, -0.008089f, 0.185537f, -0.041149f, -0.165892f, 0.193348f, 0.123952f, -0.123228f,
    -0.072243f, -0.047401f, 0.013294f, -0.102337f, -0.063193f, 0.009996f, 0.143812f, 0.164678f, -0.133564f, 0.192688f,
    -0.019100f, -0.166372f, 0.006500f, 0.049024f, 0.206492f, -0.080200f, -0.091671f, 0.214522f, 0.122022f, 0.125164f,
    -0.013832f, 0.156104f, 0.044674f, -0.197425f, -0.191558f, -0.123443f, -0.167187f, -0.155496f, 0.027135f, 0.210789f,
    -0.132418f, -0.112920f, 0.184640f, 0.105263f, 0.187722f, 0.215378f, -0.038981f, 0.037932f, 0.214684f, -0.136857f,
    -0.187767f, -0.152240f, 0.084918f, 0.008146f, 0.069277f, -0.132141f, -0.009009f, 0.076653f, -0.072580f, 0.122886f,
    -0.056070f, 0.199231f, -0.091610f, -0.073739f, 0.153817f, -0.164186f, -0.139567f, 0.079080f, -0.134872f, -0.191205f,
    -0.027791f, -0.107696f, 0.185470f, 0.070935f, -0.150302f, -0.039276f, 0.134707f, -0.167135f, -0.018069f, -0.100764f,
    -0.176258f, 0.068187f, 0.032308f, -0.017526f, 0.128986f, -0.110916f, -0.088399f, 0.123134f, 0.064413f, 0.173132f,
    0.063499f, -0.188391f, -0.044410f, -0.020294f, -0.207456f, -0.200407f, -0.028546f, 0.168763f, 0.131124f, -0.077474f,
    -0.095589f, 0.111759f, -0.005632f, -0.041213f, -0.077702f, 0.029035f, -0.037124f, -0.130952f, -0.178948f, 0.035570f,
    0.011227f, -0.040109f, 0.083536f, -0.054870f, -0.163916f, 0.161343f, 0.052108f, 0.212915f, 0.009567f, 0.179895f,
    -0.153084f, 0.106667f, 0.067292f, -0.103480f, 0.167391f, 0.168000f, 0.080119f, 0.139152f, 0.093918f, -0.036032f,
    0.026951f, -0.041133f, 0.008948f, -0.077291f, -0.090915f, 0.180059f, 0.199478f, 0.063762f, 0.113027f, 0.043429f,
    0.145456f, -0.063838f, -0.042852f, 0.036722f, 0.108179f, -0.195016f, -0.004116f, -0.109236f, -0.211524f, 0.144563f,
    -0.091013f, -0.051554f, 0.156414f, 0.150520f, -0.173488f, -0.207058f, 0.008087f, -0.090211f, -0.046121f, -0.030118f,
    0.212971f, 0.178144f, 0.210126f, 0.143016f, 0.035461f, -0.102822f, -0.118620f, -0.179261f, -0.002927f, -0.062956f,
    -0.022378f, -0.096639f, 0.169455f, -0.086501f, 0.002879f, -0.062899f, 0.150015f, -0.097857f, 0.119887f, -0.027255f,
    -0.180003f, -0.144632f, 0.056908f, 0.148013f, -0.192712f, -0.175320f, 0.142783f, -0.137250f, -0.152459f, -0.201852f,
    0.074404f, 0.209826f, 0.065091f, -0.135281f, -0.118519f, -0.005978f, -0.119495f, -0.100449f, 0.124336f, 0.136973f,
    -0.160013f, -0.148982f, -0.127346f, -0.102263f, -0.172777f, 0.023749f, 0.157766f, 0.002550f, -0.141556f, -0.135777f,
    -0.208203f, -0.180297f, 0.140672f, 0.193527f, 0.050774f, -0.096008f, 0.134997f, 0.214804f, -0.074730f, -0.181720f,
    0.037199f, 0.188099f, 0.120236f, -0.006916f, -0.211396f, 0.008516f, 0.120350f, -0.042407f, -0.125131f, 0.098060f,
    0.105315f, -0.127565f, -0.209665f, -0.092617f, -0.096233f, -0.101713f, -0.082599f, -0.208867f, -0.112809f, 0.149101f,
    -0.071667f, -0.089602f, 0.129446f, -0.097426f, -0.082078f, 0.039078f, 0.040989f, -0.207948f, 0.114612f, 0.198439f,
    -0.201749f, 0.117650f, -0.212508f, -0.209814f, 0.207062f, 0.045753f, -0.104733f, 0.046287f, 0.141267f, 0.166627f,
    -0.028839f, -0.191541f, -0.103346f, 0.074930f, 0.160046f, -0.057479f, 0.096679f, 0.065939f, -0.116670f, -0.175658f,
    -0.192397f, -0.067639f, 0.094783f, 0.194735f, 0.062868f, -0.085380f, -0.032905f, -0.106122f, -0.103233f, 0.160996f,
    0.195711f, 0.152395f, -0.089507f, -0.054176f, -0.085460f, 0.045919f, 0.214585f, 0.131394f, -0.011884f, 0.129642f,
    -0.118777f, 0.066306f, -0.177385f, -0.026239f, 0.110397f, -0.137084f, -0.164269f, -0.065170f, -0.143264f, -0.103208f,
    0.076562f, -0.058104f, -0.103126f, -0.193736f, -0.035170f, 0.075550f, 0.082259f, 0.025400f, -0.041454f, -0.166476f,
    -0.001811f, -0.035615f, -0.201235f, -0.055627f, -0.083290f, 0.077300f, -0.152186f, -0.088061f, 0.011570f, 0.038993f,
    -0.214373f, -0.092314f, -0.086967f, -0.053165f, 0.034199f, 0.024785f, 0.003521f, 0.051330f, 0.010072f, 0.203941f,
    -0.086771f, 0.184792f, 0.151383f, 0.086824f, 0.179258f, -0.094126f, -0.008190f, -0.117985f, 0.047575f, 0.086029f,
    0.182126f, -0.186771f, -0.121437f, 0.118029f, 0.080952f, 0.178121f, 0.066291f, 0.144110f, -0.136381f, -0.128224f,
    -0.126719f, 0.162025f, -0.062334f, -0.214701f, 0.045659f, 0.214053f, 0.069482f, 0.003210f, -0.047158f, 0.150959f,
    -0.135840f, -0.073736f, 0.091412f, -0.178431f, 0.065710f, -0.087342f, 0.008011f, -0.102602f, -0.149513f, -0.050249f,
    0.191342f, 0.213232f, -0.206808f, 0.190757f, -0.078481f, -0.023798f, -0.129430f, -0.168595f, -0.191196f, 0.057976f,
    0.118050f, -0.049125f, 0.042499f, -0.135786f, -0.099278f, -0.026514f, -0.079474f, 0.114262f, -0.161388f, -0.170578f,
    0.164879f, 0.190841f, 0.203798f, 0.099405f, 0.120348f, -0.185030f, -0.017512f, 0.022820f, 0.180966f, -0.136543f,
    -0.135560f, -0.075399f, 0.114509f, -0.121417f, -0.102100f, 0.107038f, 0.135224f, 0.032860f, -0.148524f, -0.063935f,
    -0.124240f, 0.199636f, 0.154700f, -0.024128f, -0.010379f, 0.013011f, -0.206380f, 0.026987f, 0.174435f, 0.002129f,
    -0.173176f, 0.100805f, 0.168565f, -0.215217f, -0.090618f, -0.199713f, 0.185217f, -0.130192f, 0.173861f, -0.077445f,
    0.079513f, 0.214326f, -0.196208f, -0.197516f, -0.036074f, -0.010611f, 0.028522f, 0.158086f, 0.190383f, 0.083535f,
    0.156494f, -0.092276f, 0.063513f, 0.056392f, 0.168680f, 0.108854f, -0.133340f, 0.012251f, 0.155588f, 0.204302f,
    0.005117f, 0.211243f, -0.074402f, -0.117361f, 0.161341f, -0.161222f, 0.047230f, 0.126287f, 0.048845f, -0.089238f,
    -0.019161f, -0.010835f, -0.163042f, 0.166357f, -0.015208f, 0.059046f, 0.112729f, 0.141908f, 0.047636f, 0.198614f,
    -0.113874f, -0.134956f, 0.211232f, 0.073556f, 0.180079f, -0.173696f, -0.198583f, 0.157969f, -0.048488f, -0.053663f,
    -0.049899f, -0.168688f, 0.024605f, -0.008874f, 0.078505f, 0.003453f, 0.083691f, -0.080756f, 0.215783f, 0.134740f,
    -0.128222f, 0.086631f, 0.037715f, 0.196952f, -0.155568f, 0.125382f, -0.038539f, 0.162409f, 0.065611f, -0.026678f,
    0.085736f, -0.059431f, -0.205497f, 0.105346f, 0.118650f, 0.023910f, 0.178689f, 0.075320f, -0.169896f, 0.048880f,
    -0.036744f, 0.038621f, 0.026152f, -0.213791f, -0.055026f, 0.037443f, 0.069991f, -0.115964f, 0.088841f, 0.025469f,
    0.015947f, 0.105878f, -0.014548f, 0.077014f, -0.109170f, 0.037499f, 0.078864f, 0.168943f, 0.066651f, -0.028266f,
    -0.113538f, 0.214998f, -0.140974f, 0.005707f, -0.072633f, -0.036296f, -0.203741f, -0.003908f, 0.117389f, 0.152293f,
    0.046111f, -0.184217f, -0.189225f, 0.012146f, 0.059153f, 0.060611f, 0.139841f, -0.199417f, 0.078919f, -0.195663f,
    -0.153686f, -0.130821f, -0.008794f, 0.136226f, -0.202740f, -0.019940f, -0.003687f, 0.186673f, 0.082435f, 0.065096f,
    -0.094559f, -0.010206f, -0.128295f, -0.115855f, -0.111429f, -0.017228f, 0.083017f, -0.164141f, 0.099963f, 0.045211f,
    0.077496f, -0.121349f, -0.026540f, 0.154279f, 0.195323f, -0.178924f, 0.180823f, -0.097125f, -0.108799f, 0.051648f,
    0.019613f, 0.082779f, -0.106816f, 0.094608f, 0.027486f, -0.030084f, 0.173394f, 0.187441f, -0.052417f, -0.132738f,
    0.165415f, -0.025206f, 0.195862f, 0.108430f, 0.171060f, 0.099323f, -0.082058f, 0.067799f, 0.212614f, 0.107122f,
    0.111117f, 0.030483f, -0.077774f, -0.107738f, 0.053289f, -0.137318f, 0.064182f, -0.184582f, 0.154493f, 0.156510f,
    0.001434f, -0.129386f, 0.133915f, -0.130190f, 0.013201f, 0.003728f, 0.127190f, 0.097289f, -0.134659f, 0.027209f,
    0.057747f, 0.027784f, 0.009240f, 0.074494f, 0.150372f, 0.107356f, -0.011151f, -0.073166f, 0.144683f, 0.134080f,
    0.088165f, -0.027923f, -0.041449f, -0.198155f, 0.014687f, 0.130200f, 0.110746f, -0.101351f, 0.148570f, 0.192674f,
    -0.164373f, 0.164572f, -0.168586f, -0.135782f, 0.019323f, -0.067162f, -0.114431f, -0.175132f, 0.161141f, 0.171151f,
    0.033712f, 0.171750f, -0.020934f, -0.123557f, 0.052616f, 0.117772f, -0.104862f, -0.150598f, 0.185173f, -0.123327f,
    0.201796f, -0.107771f, 0.103109f, -0.044781f, 0.136555f, 0.205521f, 0.000765f, 0.145971f, 0.043823f, 0.154679f,
    0.010513f, 0.016903f, 0.153651f, 0.183105f, -0.002665f, 0.127349f, 0.142061f, 0.083331f, 0.171465f, -0.026449f,
    0.193526f, -0.043499f, -0.170774f, -0.157032f, 0.167475f, 0.048507f, 0.010869f, -0.169151f, -0.087115f, 0.127370f,
    0.166197f, -0.167403f, 0.029530f, -0.101871f, 0.212326f, -0.014751f, 0.072616f, -0.089426f, -0.040007f, 0.186378f,
    0.003950f, -0.129917f, 0.086844f, -0.073921f, -0.036313f, 0.045006f, -0.195847f, 0.028002f, 0.142384f, 0.088875f,
    0.047393f, -0.205048f, 0.092137f, -0.205320f, 0.069707f, -0.052050f, -0.200831f, -0.082892f, -0.172088f, -0.069363f,
    0.161012f, 0.082495f, -0.115465f, -0.126587f, 0.088349f, -0.198945f, 0.083519f, -0.050997f, -0.169941f, -0.103704f,
    -0.016309f, 0.132326f, -0.019402f, 0.039418f, 0.008489f, 0.142011f, 0.082880f, -0.001899f, 0.169235f, 0.000068f,
    -0.194113f, 0.141866f, 0.216267f, -0.158247f, 0.060407f, -0.006446f, 0.091817f, 0.075284f, 0.215996f, 0.070235f,
    -0.027284f, 0.203609f, -0.052442f, 0.159296f, -0.200197f, 0.101656f, -0.192046f, -0.064397f, -0.184295f, -0.065362f,
    -0.054697f, 0.184844f, 0.024225f, 0.214053f, 0.111396f, -0.105155f, 0.089238f, 0.082642f, -0.132167f, 0.090209f,
    -0.093812f, 0.196388f, -0.164387f, 0.186245f, -0.197786f, 0.099396f, 0.200157f, 0.177766f, -0.030973f, -0.073465f,
    -0.198745f, -0.159475f, 0.123184f, -0.067161f, -0.089094f, 0.197672f, -0.132702f, 0.122876f, 0.078068f, 0.214790f,
    -0.039570f, 0.195042f, 0.215381f, -0.087829f, -0.054609f, 0.150551f, 0.053460f, -0.175731f, 0.178184f, -0.134042f,
    -0.118458f, -0.027328f, 0.215260f, 0.013981f, 0.079409f, -0.087187f, 0.014395f, 0.004770f, 0.214717f, 0.063611f,
    -0.209013f, -0.181081f, -0.148092f, 0.057809f, 0.107382f, 0.068702f, -0.082329f, 0.205513f, -0.107783f, -0.161004f,
    0.185697f, -0.097627f, 0.028752f, 0.140969f, 0.099766f, -0.169991f, -0.007669f, 0.006837f, -0.115237f, -0.072226f,
    0.146109f, -0.192126f, 0.002919f, 0.144112f, -0.056202f, 0.090112f, -0.035041f, 0.081811f, -0.120627f, 0.034128f,
    0.008718f, 0.210973f, 0.200279f, 0.070461f, -0.130765f, -0.009345f, -0.046600f, -0.059685f, -0.021475f, 0.163606f,
    -0.109045f, -0.170393f, -0.211627f, 0.011889f, 0.117262f, -0.101303f, -0.170191f, -0.191867f, -0.029743f, -0.156446f,
    -0.181757f, -0.163385f, 0.173449f, 0.213856f, 0.129277f, -0.169663f, -0.193991f, 0.182137f, -0.021200f, 0.189862f,
    -0.088497f, 0.188992f, 0.173778f, -0.210565f, -0.110555f, 0.104508f, -0.198056f, -0.021242f, 0.142274f, -0.201772f,
    0.007042f, 0.207523f, 0.183886f, -0.189908f, -0.176157f, -0.094746f, -0.136815f, 0.136669f, 0.100469f, 0.065935f,
    0.052487f, 0.126529f, 0.055922f, 0.190016f, -0.140140f, 0.130505f, 0.062597f, -0.025032f, -0.075012f, -0.128660f,
    0.189071f, 0.099826f, -0.170669f, -0.068038f, 0.129796f, -0.118666f, 0.183572f, 0.036031f, -0.161730f, 0.124189f,
    -0.079269f, -0.188998f, 0.147946f, -0.023136f, 0.101895f, 0.164498f, -0.136233f, 0.216184f, 0.033186f, 0.025225f,
    -0.094088f, -0.051875f, 0.101770f, -0.124429f, -0.057203f, 0.179009f, -0.116786f, 0.127588f, -0.079399f, -0.006014f,
    -0.111490f, 0.204679f, -0.070135f, 0.064623f, 0.060838f, -0.029203f, -0.124034f, -0.116839f, 0.002103f, 0.008990f,
    -0.128062f, 0.121102f, -0.125894f, 0.158133f, -0.115579f, -0.171851f, -0.037774f, -0.211866f, -0.077829f, 0.119492f,
    -0.035158f, -0.102742f, -0.085516f, 0.209460f, -0.094275f, -0.089606f, -0.011050f, -0.154522f, 0.192837f, -0.070943f,
    -0.176283f, 0.024941f, 0.006451f, 0.190214f, 0.130298f, -0.024161f, 0.004661f, -0.027166f, 0.188374f, -0.172629f,
    -0.160882f, -0.209956f, 0.213879f, 0.132395f, 0.154830f, -0.015641f, 0.050406f, -0.144529f, 0.074296f, -0.168880f,
    -0.084943f, -0.166496f, -0.105011f, 0.044932f, -0.071044f, -0.059146f, -0.095859f, -0.000096f, 0.043871f, -0.106584f,
    0.006117f, -0.183506f, 0.080376f, -0.094490f, 0.037939f, 0.120121f, 0.031820f, 0.181879f, -0.201782f, 0.122237f,
    -0.204639f, -0.059709f, 0.178381f, 0.193185f, 0.147721f, -0.133297f, -0.142465f, 0.085477f, 0.082863f, -0.042102f,
    -0.133185f, 0.056857f, -0.124515f, -0.030170f, 0.166584f, 0.017196f, 0.015128f, 0.112097f, -0.213904f, 0.206269f,
    -0.209289f, -0.098409f, 0.156008f, 0.096174f, 0.155859f, 0.079246f, -0.212337f, -0.002107f, -0.143110f, -0.112895f,
    -0.132978f, -0.036836f, -0.086094f, -0.008716f, 0.149596f, -0.071127f, -0.207427f, -0.178864f, -0.058634f, 0.053812f,
    0.165469f, -0.143786f, 0.190073f, 0.027950f, 0.034462f, 0.039565f, 0.032999f, -0.181940f, 0.119035f, 0.074725f,
    0.081423f, 0.157187f, -0.173881f, 0.148616f, 0.037444f, -0.149667f, -0.098861f, -0.091857f, -0.124137f, 0.137753f,
    -0.205930f, 0.073659f, 0.140978f, -0.046313f, -0.046354f, -0.026347f, 0.057831f, -0.130037f, 0.084166f, -0.081803f,
    0.070497f, 0.140633f, -0.140223f, 0.134106f, -0.143152f, 0.157113f, -0.125871f, -0.183564f, 0.087733f, 0.024954f,
    0.071784f, -0.083354f, -0.081612f, 0.072508f, 0.208066f, 0.170656f, -0.174919f, 0.073175f, 0.199193f, -0.084017f,
    -0.106025f, -0.039178f, -0.026395f, 0.034466f, 0.017734f, 0.204617f, 0.027736f, 0.117681f, 0.181404f, -0.170174f,
    0.033830f, -0.043921f, -0.172268f, -0.173070f, -0.037886f, 0.184419f, 0.215916f, 0.189962f, -0.169210f, 0.210641f,
    -0.194912f, 0.001029f, 0.026323f, -0.160037f, 0.171747f, 0.052787f, -0.192574f, 0.154894f, -0.118275f, -0.179582f,
    0.136637f, -0.007332f, -0.197161f, -0.139283f, -0.075509f, 0.035095f, -0.186183f, 0.163787f, 0.204396f, -0.074800f,
    -0.007238f, 0.039343f, -0.057858f, 0.057798f, 0.203830f, -0.125575f, -0.081141f, -0.192030f, -0.145663f, 0.155595f,
    -0.112570f, 0.085170f, -0.149090f, 0.045872f, 0.186580f, -0.087431f, 0.174261f, 0.112646f, 0.152741f, 0.202905f,
    -0.080088f, 0.060291f, -0.080487f, -0.137384f, -0.138385f, 0.193158f, 0.200158f, 0.185879f, 0.092089f, 0.136241f,
    -0.191515f, -0.042282f, -0.053630f, -0.182949f, 0.054998f, 0.114306f, -0.179690f, 0.213860f, 0.098121f, 0.063755f,
    0.004883f, 0.155294f, 0.033711f, 0.179035f, 0.001995f, -0.176062f, -0.071411f, 0.101891f, 0.161947f, 0.041393f,
    -0.107947f, -0.158434f, 0.054423f, -0.189001f, -0.167114f, 0.045872f, -0.031091f, 0.144773f, 0.157335f, -0.114534f,
    0.115531f, 0.002649f, -0.164784f, 0.168265f, 0.057682f, 0.048833f, 0.017053f, -0.144381f, 0.091310f, -0.168462f,
    -0.208904f, 0.204191f, 0.031110f, -0.193144f, 0.186199f, 0.134192f, -0.154301f, 0.121576f, -0.073582f, 0.017972f,
    -0.109769f, -0.052349f, 0.115839f, 0.052359f, -0.027198f, -0.067991f, 0.040870f, 0.093562f, 0.163360f, 0.065498f,
    -0.046558f, 0.143197f, -0.116825f, 0.047848f, 0.151531f, -0.205011f, 0.106777f, -0.128380f, -0.133737f, 0.025764f,
    -0.070582f, -0.120521f, -0.182924f, -0.211118f, 0.097316f, 0.089466f, -0.154865f, 0.096582f, -0.213501f, -0.033840f,
    -0.035615f, -0.071604f, 0.089913f, 0.022686f, -0.212520f, -0.080425f, 0.143301f, -0.039948f, 0.130783f, 0.152939f,
    -0.012652f, -0.165350f, -0.183043f, 0.174282f, -0.032106f, 0.089915f, 0.066308f, -0.201411f, -0.133597f, -0.179293f,
    0.161030f, -0.017867f, -0.145199f, 0.214337f, -0.020209f, 0.167537f, -0.048176f, 0.129655f, -0.084629f, -0.171496f,
    -0.015903f, -0.036359f, 0.169063f, 0.150884f, 0.184433f, -0.049106f, 0.200316f, -0.104691f, -0.183919f, -0.065767f,
    -0.191829f, 0.135554f, 0.134448f, -0.092004f, -0.006980f, -0.058340f, 0.158626f, -0.003905f, -0.195122f, -0.166348f,
    -0.132109f, -0.085700f, -0.189223f, -0.032805f, -0.200485f, -0.153974f, -0.156723f, 0.007777f, -0.083301f, 0.067073f,
    0.173426f, 0.169108f, 0.047281f, -0.072678f, -0.132134f, -0.213725f, 0.139114f, 0.167612f, 0.086987f, -0.176287f,
    0.133144f, 0.173483f, 0.101468f, 0.016174f, -0.109747f, -0.002524f, -0.042457f, -0.093679f, -0.142995f, -0.167179f,
    -0.114007f, 0.172230f, -0.004462f, 0.025714f, 0.095579f, -0.113610f, -0.022412f, 0.099996f, 0.172520f, 0.199521f,
    -0.125064f, -0.063757f, -0.001296f, -0.095135f, -0.070334f, 0.170466f, 0.181638f, 0.207745f, 0.128948f, -0.117041f,
    0.094633f, -0.213400f, 0.022072f, 0.160289f, -0.125854f, 0.143655f, 0.100370f, 0.059181f, 0.121793f, -0.185968f,
    0.163677f, -0.157793f, -0.014962f, -0.091270f, 0.111326f, 0.074558f, -0.116877f, -0.037105f, 0.142508f, -0.105711f,
    -0.132300f, 0.051404f, 0.088831f, -0.111376f, 0.202990f, 0.102613f, 0.016166f, 0.092899f, -0.148418f, 0.015624f,
    -0.209806f, 0.071614f, 0.095296f, -0.116492f, -0.138975f, -0.090285f, 0.003508f, -0.147789f, 0.078205f, 0.016090f,
    0.092045f, 0.066134f, 0.070988f, -0.008023f, 0.162108f, -0.120564f, -0.097962f, 0.186788f, -0.032338f, 0.075886f,
    0.157728f, -0.170345f, -0.191010f, 0.158814f, -0.128814f, -0.015139f, 0.012573f, -0.086336f, 0.121037f, -0.168296f,
    -0.147885f, -0.108252f, 0.184758f, 0.213528f, -0.012631f, 0.002965f, -0.094846f, 0.176878f, -0.202702f, -0.017030f,
    -0.158366f, -0.062399f, 0.069494f, -0.088201f, 0.035484f, -0.077174f, 0.150119f, -0.183448f, -0.062735f, -0.109060f,
    -0.125852f, 0.138860f, 0.133483f, -0.108792f, 0.011119f, 0.177923f, 0.191997f, -0.093927f, -0.099658f, 0.152697f,
    -0.062102f, -0.030666f, -0.152004f, 0.155900f, 0.132056f, 0.149240f, 0.184112f, -0.094945f, 0.134244f, 0.105316f,
    0.045713f, 0.089771f, -0.033448f, 0.018629f, -0.181279f, -0.212275f, 0.036683f, -0.172647f, 0.154638f, 0.201292f,
    -0.100715f, -0.048698f, -0.129068f, -0.131952f, -0.044838f, 0.042197f, 0.167404f, -0.054018f, -0.016750f, -0.148878f,
    0.154070f, -0.025723f, -0.060213f, 0.155726f, 0.122132f, -0.077923f, -0.068456f, 0.003807f, 0.036732f, -0.120134f,
    -0.014327f, 0.116331f, 0.181395f, -0.194265f, -0.156232f, 0.091277f, -0.080733f, 0.181945f, 0.043946f, -0.100823f,
    -0.200429f, 0.198068f, -0.163142f, 0.046647f, -0.162347f, -0.023188f, -0.056903f, -0.084114f, -0.045899f, 0.197082f,
    -0.016154f, -0.122434f, 0.104514f, -0.199920f, 0.117248f, -0.215596f, 0.095781f, 0.011591f, 0.138017f, -0.096968f,
    -0.215597f, 0.035200f, 0.140224f, 0.145249f, -0.207987f, 0.007777f, -0.200194f, -0.203475f, 0.161084f, 0.191437f,
    -0.031631f, -0.128945f, -0.115271f, -0.032015f, -0.027626f, -0.123334f, 0.154381f, 0.103637f, 0.186447f, 0.170111f,
    -0.161473f, -0.023953f, 0.210366f, -0.082631f, 0.212602f, 0.051728f, -0.071660f, -0.150299f, 0.166230f, 0.116669f,
    0.098255f, -0.008236f, -0.196945f, 0.097890f, -0.117116f, 0.064066f, -0.157303f, 0.188788f, 0.124835f, 0.136166f,
    -0.209815f, 0.118163f, -0.211223f, -0.138116f, 0.133009f, -0.196613f, -0.211152f, -0.109400f, -0.057715f, 0.145275f,
    -0.134593f, 0.216200f, 0.015161f, 0.122690f, -0.055071f, 0.153561f, 0.205616f, -0.030909f, 0.070527f, -0.171709f,
    0.189034f, -0.133644f, 0.101298f, -0.016535f, 0.096981f, 0.204932f, -0.162923f, 0.003200f, 0.180110f, -0.007044f,
    0.047297f, -0.158204f, 0.066497f, 0.061857f, 0.022649f, 0.024122f, -0.206608f, 0.175183f, 0.068221f, 0.163052f,
    0.132585f, 0.191960f, -0.186323f, -0.008822f, -0.052573f, -0.187741f, -0.044312f, -0.105477f, 0.038079f, 0.104342f,
    0.137233f, -0.067456f, -0.015047f, 0.050811f, 0.141160f, -0.105439f, 0.204452f, -0.207907f, 0.168197f, 0.033519f,
    -0.108008f, 0.004841f, 0.119150f, -0.085328f, 0.001516f, -0.016035f, 0.097396f, 0.120554f, -0.018284f, -0.081102f,
    -0.084319f, -0.044523f, -0.006792f, -0.169488f, 0.093827f, 0.131235f, -0.168317f, -0.192639f, -0.063090f, -0.019574f,
    -0.001776f, -0.072143f, -0.158803f, 0.061162f, -0.048314f, -0.116040f, 0.068064f, -0.095098f, 0.120179f, 0.184477f,
    -0.192289f, -0.119626f, -0.202927f, 0.143064f, 0.118207f, -0.110942f, -0.140296f, -0.056628f, -0.099645f, -0.154928f,
    0.165334f, -0.113327f, -0.208868f, -0.143903f, 0.077250f, 0.055974f, -0.030933f, -0.112846f, 0.013929f, -0.045167f,
    -0.108658f, 0.186530f, 0.054064f, 0.032525f, 0.025641f, -0.197342f, 0.059214f, -0.037440f, -0.216471f, 0.078584f,
    0.009154f, -0.174471f, -0.109334f, 0.215671f, -0.195352f, 0.023622f, -0.078626f, -0.131756f, -0.083622f, 0.165951f,
    -0.163060f, -0.172861f, -0.004817f, 0.005124f, 0.160866f, 0.048113f, 0.032226f, 0.008751f, 0.167210f, 0.074102f,
    -0.086357f, -0.162527f, -0.036942f, -0.066218f, -0.030494f, -0.002771f, 0.181231f, 0.159415f, -0.115415f, -0.062840f,
    -0.117237f, -0.013319f, 0.020572f, 0.188681f, -0.178417f, -0.154588f, 0.030754f, 0.162189f, 0.145302f, 0.172757f,
    0.148374f, -0.139010f, 0.038244f, 0.083818f, -0.155525f, 0.200485f, -0.176825f, 0.186715f, 0.006089f, -0.029244f,
    -0.071510f, -0.170787f, -0.104782f, -0.049678f, -0.110869f, 0.140993f, -0.074094f, -0.161676f, 0.025365f, 0.186920f,
    0.127096f, 0.191104f, -0.171767f, 0.102309f, 0.167705f, -0.213505f, 0.140186f, -0.139924f, 0.011024f, 0.190181f,
    0.133629f, -0.089436f, -0.189150f, 0.126099f, -0.027153f, -0.116663f, -0.202421f, -0.179554f, 0.032818f, 0.168522f,
    0.145267f, 0.029616f, -0.164416f, 0.189096f, 0.025971f, 0.210972f, 0.050386f, -0.059653f, 0.029710f, 0.060473f,
    -0.060391f, -0.152065f, 0.002017f, 0.206965f, 0.107363f, 0.110469f, 0.143221f, -0.014353f, -0.042696f, 0.145923f,
    -0.063721f, 0.046246f, -0.196918f, 0.027266f, -0.014896f, -0.088805f, 0.136798f, 0.183923f, -0.082110f, -0.088690f,
    -0.180580f, 0.203985f, -0.205866f, -0.109931f, 0.179985f, -0.169268f, 0.164081f, -0.041063f, 0.058109f, -0.207880f,
    -0.080375f, 0.173095f, 0.177341f, -0.194131f, -0.010710f, -0.062200f, 0.190733f, 0.110222f, -0.004537f, -0.132784f,
    -0.037053f, -0.085444f, 0.180678f, -0.062520f, 0.122424f, 0.187295f, -0.102543f, 0.199350f, -0.186911f, -0.188311f,
    0.005255f, 0.133695f, -0.022099f, 0.166759f, 0.120419f, -0.072966f, -0.136151f, 0.020376f, 0.000568f, 0.181892f,
    0.003228f, -0.204458f, -0.045609f, -0.130238f, -0.215727f, 0.066993f, 0.126599f, 0.077614f, -0.060310f, -0.080686f,
    -0.032269f, -0.196250f, -0.089761f, -0.163486f, 0.210961f, -0.163636f, -0.052415f, 0.207500f, -0.187778f, -0.184233f,
    -0.099825f, 0.127759f, -0.062747f, -0.087268f, 0.001031f, -0.050631f, -0.123338f, -0.156947f, 0.167125f, -0.204180f,
    0.082587f, -0.087989f, 0.124293f, 0.184863f, -0.024031f, -0.203758f, -0.008481f, 0.199139f, 0.099992f, -0.031490f,
    0.040622f, 0.187640f, -0.010010f, -0.155982f, -0.193679f, -0.164912f, 0.181394f, -0.148347f, 0.165958f, 0.181752f,
    0.197889f, 0.166496f, 0.051459f, -0.003414f, 0.132901f, -0.116153f, -0.053968f, -0.200313f, -0.181940f, 0.022965f,
    0.162276f, 0.138824f, -0.084308f, 0.140301f, -0.068465f, 0.150314f, -0.081575f, -0.093384f, 0.176087f, 0.072272f,
    0.108679f, 0.060418f, 0.182388f, 0.194444f, -0.181577f, 0.088883f, -0.070332f, 0.079655f, -0.150337f, 0.099006f,
    -0.024342f, -0.109499f, 0.034052f, -0.112128f, 0.054426f, 0.098193f, 0.204733f, -0.070387f, 0.157351f, 0.129912f,
    0.126072f, -0.169845f, -0.063590f, 0.206216f, -0.152113f, 0.145528f, 0.199757f, -0.136171f, 0.033719f, 0.194940f,
    -0.038615f, 0.060066f, 0.002536f, 0.095415f, -0.191576f, 0.084889f, 0.206541f, -0.001970f, 0.193874f, 0.043835f,
    -0.125236f, 0.054337f, 0.186767f, 0.204608f, -0.115451f, 0.032236f, -0.029132f, 0.115886f, 0.215504f, -0.043990f,
    0.171151f, -0.053993f, 0.098910f, 0.153634f, 0.124989f, 0.026188f, -0.146728f, 0.057848f, 0.125953f, 0.019628f,
    0.070629f, -0.216423f, 0.059883f, -0.127611f, 0.072934f, -0.157218f, -0.097029f, 0.043890f, 0.203425f, 0.185366f,
    0.103280f, -0.107655f, 0.085173f, 0.207648f, 0.148700f, 0.193652f, -0.014889f, -0.043974f, 0.081709f, -0.067341f,
    -0.018214f, -0.149669f, -0.107828f, -0.118050f, 0.037171f, -0.081126f, -0.201478f, -0.116164f, 0.154228f, 0.140322f,
    0.000549f, 0.174260f, -0.055049f, 0.210350f, 0.169161f, 0.155780f, -0.006035f, 0.092238f, -0.002703f, -0.043796f,
    -0.018232f, 0.026664f, -0.091333f, -0.126182f, -0.034998f, -0.127995f, 0.082170f, 0.177434f, -0.143460f, 0.175331f,
    -0.082952f, -0.084503f, 0.067164f, -0.170829f, 0.138841f, 0.055388f, 0.147141f, 0.079049f, 0.131209f, -0.043771f,
    0.055229f, 0.203291f, 0.215290f, -0.101520f, 0.210456f, 0.153110f, 0.013966f, 0.173370f, 0.046603f, -0.122329f,
    0.196768f, -0.146585f, -0.027666f, 0.080200f, 0.039197f, -0.004035f, -0.010938f, 0.018000f, 0.101398f, 0.097710f,
    -0.215971f, 0.082613f, 0.100064f, 0.211142f, 0.183978f, 0.069614f, -0.114747f, 0.028147f, 0.204506f, -0.106958f,
    -0.184531f, 0.080622f, 0.071370f, 0.052014f, 0.101226f, 0.064221f, -0.050563f, -0.036710f, 0.015968f, 0.086025f,
    0.150669f, 0.194474f, -0.113253f, 0.060795f, -0.002450f, -0.071531f, 0.050771f, 0.119163f, -0.013344f, 0.107782f,
    -0.212912f, 0.128709f, 0.109033f, -0.139790f, 0.092281f, 0.172926f, -0.190394f, -0.202738f, 0.154241f, -0.120613f,
    -0.178242f, -0.025679f, -0.160312f, -0.059654f, 0.075566f, 0.037624f, 0.138810f, -0.109555f, 0.123872f, -0.068482f,
    -0.147424f, 0.135197f, 0.181388f, -0.093962f, 0.124295f, -0.135131f, -0.150247f, -0.193066f, 0.039643f, 0.001067f,
    0.093558f, 0.194879f, -0.094777f, 0.128928f, -0.099490f, 0.137067f, -0.174304f, 0.152758f, 0.156696f, -0.137481f,
    -0.065220f, -0.051751f, 0.062525f, 0.203865f, 0.194233f, -0.000653f, 0.069224f, -0.210386f, -0.215026f, 0.109204f,
    -0.169384f, 0.188810f, 0.086212f, 0.160409f, -0.134776f, -0.001241f, -0.167166f, -0.030113f, 0.054703f, 0.067525f,
    0.003152f, 0.046405f, -0.166738f, -0.062378f, 0.166372f, -0.079466f, -0.142782f, 0.183103f, -0.132759f, 0.148501f,
    -0.172359f, -0.092600f, 0.207863f, 0.028943f, -0.000966f, 0.022938f, -0.059158f, 0.113280f, 0.171825f, 0.149167f,
    0.185985f, 0.016654f, 0.111810f, -0.075933f, -0.173223f, -0.156861f, -0.172901f, 0.046955f, -0.143413f, -0.023438f,
    -0.138777f, -0.080630f, 0.182378f, 0.027010f, -0.009629f, -0.037640f, -0.024952f, -0.125154f, 0.105212f, 0.165908f,
    -0.192431f, 0.213761f, -0.100459f, -0.068864f, 0.148950f, -0.208607f, 0.142020f, 0.041325f, 0.140929f, -0.010635f,
    0.015500f, 0.155475f, 0.204815f, -0.127992f, -0.084048f, 0.215463f, -0.085242f, -0.062924f, 0.103363f, 0.120726f,
    -0.053288f, 0.045771f, 0.079424f, 0.001570f, -0.192654f, 0.198973f, -0.190887f, -0.212075f, -0.118904f, 0.030061f,
    0.094664f, -0.089697f, -0.069842f, 0.100743f, 0.121869f, 0.178123f, -0.012444f, -0.132194f, -0.070848f, 0.055373f,
    -0.055112f, -0.146385f, -0.106363f, 0.095373f, -0.191163f, 0.005674f, -0.085919f, -0.123537f, -0.122229f, 0.012880f,
    -0.203940f, -0.142883f, 0.145355f, 0.130023f, 0.118741f, 0.168692f, 0.150154f, 0.099722f, -0.111633f, 0.070358f,
    0.039573f, -0.056002f, -0.123014f, 0.038459f, 0.080318f, 0.142643f, 0.079323f, 0.031198f, 0.174491f, -0.052921f,
    -0.056928f, -0.192295f, 0.011421f, -0.144155f, -0.086660f, 0.148833f, -0.068726f, -0.175888f, -0.136659f, -0.082048f,
    -0.162416f, -0.049876f, -0.132711f, -0.199044f, 0.064961f, 0.159446f, -0.212072f, 0.003907f, 0.160643f, 0.052119f,
    0.159958f, 0.097646f, 0.028026f, -0.045798f, 0.024087f, 0.175331f, -0.031704f, 0.075888f, 0.203521f, 0.001351f,
    -0.021294f, -0.107952f, -0.141694f, -0.046309f, 0.020980f, 0.199395f, -0.125474f, 0.143676f, -0.144126f, -0.040915f,
    -0.189916f, 0.129213f, -0.105926f, -0.195409f, 0.156561f, -0.017590f, 0.041050f, 0.095106f, 0.053573f, 0.126699f,
    -0.082903f, 0.024459f, -0.171600f, -0.141696f, -0.043837f, -0.114139f, -0.034959f, -0.140313f, -0.007655f, 0.029223f,
    0.038328f, 0.102692f, 0.108496f, -0.178257f, -0.038145f, -0.007966f, 0.176148f, 0.154815f, -0.147827f, 0.048128f,
    -0.116299f, 0.188927f, 0.087903f, 0.209703f, -0.099255f, -0.182557f, -0.140235f, -0.089195f, 0.205867f, 0.081335f,
    0.174123f, 0.192839f, -0.152980f, 0.094247f, 0.155197f, -0.159277f, -0.200345f, -0.117960f, 0.187741f, -0.072103f,
    -0.148321f, -0.010081f, -0.191284f, 0.162636f, 0.022499f, 0.114139f, 0.186723f, -0.146592f, -0.008633f, -0.004053f,
    0.041295f, -0.089993f, 0.054680f, -0.138687f, -0.115293f, -0.077611f, 0.117058f, 0.180123f, 0.192558f, 0.122271f,
    0.174204f, -0.214155f, -0.029775f, -0.157888f, 0.116383f, 0.156041f, 0.121522f, -0.060952f, -0.111352f, -0.016208f,
    0.180621f, 0.103277f, -0.021045f, 0.079075f, -0.172003f, -0.087295f, -0.018980f, -0.012048f, 0.188978f, 0.076783f,
    -0.071734f, 0.214787f, 0.008947f, 0.172411f, 0.207201f, 0.100616f, -0.186457f, -0.201349f, -0.064465f, 0.162965f,
    0.169170f, 0.099598f, 0.051881f, -0.203479f, -0.019200f, -0.126560f, 0.110064f, -0.183401f, 0.167034f, -0.182214f,
    -0.029641f, 0.045918f, -0.143174f, -0.155252f, -0.152945f, -0.011786f, 0.109719f, -0.105975f, -0.203562f, -0.056466f,
    -0.057792f, -0.196943f, 0.120860f, 0.081341f, -0.032971f, -0.192303f, -0.171004f, -0.037434f, 0.097078f, 0.050393f,
    -0.030953f, -0.166579f, 0.172012f, -0.204230f, 0.099792f, -0.163484f, -0.028811f, 0.097469f, -0.014756f, -0.033425f,
    -0.132776f, 0.160906f, -0.155633f, -0.180666f, 0.065764f, 0.214932f, -0.077013f, 0.021104f, 0.095111f, 0.165827f,
    -0.139138f, -0.009039f, 0.119586f, 0.063429f, 0.171059f, -0.101574f, 0.176778f, 0.173588f, -0.044267f, 0.156650f,
    0.030519f, -0.087204f, 0.204356f, 0.091272f, 0.112810f, -0.207644f, 0.003634f, 0.094031f, 0.023909f, -0.161978f,
    0.069226f, 0.115017f, -0.170162f, 0.089490f, 0.060257f, 0.075966f, -0.039307f, 0.129070f, 0.066982f, -0.120331f,
    0.092166f, 0.132277f, 0.214542f, 0.051330f, 0.109189f, 0.173524f, 0.015122f, 0.210111f, -0.095921f, -0.052270f,
    0.137878f, -0.079387f, -0.102263f, -0.175190f, 0.142411f, -0.110180f, -0.066518f, -0.064540f, -0.065586f, 0.070598f,
    -0.000837f, -0.054451f, 0.171515f, 0.046439f, 0.152305f, -0.020625f, 0.152638f, -0.121881f, 0.161717f, -0.128733f,
    -0.146699f, -0.095018f, -0.066486f, -0.140032f, 0.169260f, 0.063710f, -0.113195f, -0.135869f, 0.151774f, 0.062432f,
    -0.009250f, 0.029255f, 0.188254f, -0.074589f, -0.181636f, -0.093927f, 0.093680f, -0.058150f, 0.021693f, 0.087343f,
    0.194065f, 0.132158f, 0.111581f, -0.120137f, -0.153693f, -0.201861f, -0.003108f, -0.146425f, -0.190802f, -0.016343f,
    -0.089813f, 0.131918f, -0.043227f, -0.140838f, -0.086200f, 0.170139f, 0.101310f, 0.055289f, 0.190898f, -0.003576f,
    -0.140018f, -0.072769f, 0.086350f, 0.152024f, -0.069056f, 0.212057f, 0.105366f, -0.067297f, -0.104697f, -0.058701f,
    0.106094f, 0.092793f, -0.057246f, 0.057915f, 0.077310f, 0.184799f, 0.117782f, -0.013497f, 0.108305f, -0.112561f,
    0.009378f, -0.016340f, 0.156210f, 0.006125f, 0.124754f, -0.103205f, 0.024415f, -0.195009f, -0.165557f, 0.004033f,
    0.167298f, -0.092452f, 0.103806f, -0.029918f, 0.122157f, -0.122989f, -0.141797f, 0.021232f, 0.019379f, -0.031191f,
    0.033576f, -0.198020f, 0.074717f, -0.082687f, -0.072811f, 0.075990f, -0.119765f, -0.038428f, 0.037020f, 0.126165f,
    0.059572f, -0.087448f, 0.030425f, 0.206966f, 0.006242f, -0.200023f, 0.028479f, -0.048179f, -0.130003f, 0.096083f,
    -0.108112f, -0.202733f, 0.092926f, -0.195716f, -0.202362f, 0.110000f, 0.116582f, -0.191791f, 0.102198f, 0.067710f,
    0.188942f, -0.105824f, 0.084855f, -0.016118f, -0.079204f, -0.008974f, -0.130936f, -0.049159f, 0.089039f, -0.057500f,
    -0.052408f, -0.034952f, -0.078547f, -0.005907f, 0.032790f, -0.038366f, -0.156457f, 0.155385f, 0.096411f, -0.021108f,
    -0.064820f, 0.001319f, -0.162102f, 0.201489f, 0.211896f, 0.053879f, -0.139183f, -0.137986f, -0.063915f, -0.117507f,
    -0.167128f, 0.004774f, 0.004967f, -0.033781f, 0.213460f, 0.056558f, -0.118143f, -0.118504f, -0.093532f, -0.090953f,
    0.042564f, -0.029940f, -0.096510f, 0.040929f, 0.170664f, -0.021629f, -0.123801f, -0.131264f, -0.120982f, -0.185769f,
    -0.046143f, 0.023782f, -0.211948f, 0.167655f, 0.019631f, 0.044993f, -0.154155f, 0.192835f, 0.033119f, -0.213506f,
    -0.096952f, 0.130283f, 0.026688f, -0.026953f, 0.144490f, -0.067860f, 0.182466f, 0.137297f, -0.024675f, 0.113322f,
    0.165992f, -0.156428f, -0.055309f, -0.053849f, 0.197383f, -0.164966f, 0.056478f, -0.209104f, -0.032476f, 0.200937f,
    0.176701f, 0.024296f, 0.122265f, -0.061429f, 0.150917f, 0.157101f, -0.041485f, 0.050444f, -0.192058f, -0.050513f,
    0.007669f, 0.164611f, -0.023039f, -0.046153f, -0.066351f, -0.213177f, 0.016579f, -0.187094f, 0.046090f, -0.175058f,
    -0.214743f, -0.194948f, -0.126391f, 0.026165f, 0.103279f, -0.200684f, -0.031734f, -0.184632f, 0.074813f, -0.099481f,
    0.046917f, 0.037642f, 0.087881f, 0.113006f, 0.158774f, -0.206613f, -0.019802f, 0.160489f, -0.152674f, 0.045411f,
    0.161451f, -0.170202f, -0.028846f, 0.013334f, 0.060537f, 0.196739f, 0.117318f, 0.141619f, 0.147561f, 0.030945f,
    0.190317f, 0.054429f, -0.107893f, 0.045478f, -0.213830f, -0.140256f, -0.031393f, -0.079397f, 0.061079f, -0.152669f,
    -0.166088f, -0.134504f, -0.054050f, -0.025798f, -0.019352f, -0.007976f, 0.184625f, -0.009300f, -0.018796f, 0.144171f,
    -0.080061f, -0.088926f, -0.101310f, -0.116387f, 0.172462f, 0.151402f, 0.053748f, -0.216082f, -0.067267f, -0.092263f,
    -0.124360f, -0.078260f, -0.136513f, 0.028873f, 0.069829f, 0.086345f, -0.012969f, -0.095036f, -0.000444f, 0.067108f,
    -0.073434f, -0.140865f, 0.047822f, -0.014979f, -0.067369f, -0.154213f, 0.186321f, -0.092910f, -0.081082f, 0.166427f,
    -0.047201f, -0.034807f, 0.168203f, -0.213497f, 0.121585f, -0.013239f, 0.141594f, 0.069031f, 0.033079f, 0.093016f,
    0.059169f, 0.214247f, 0.089607f, -0.113870f, -0.143199f, -0.162240f, -0.133004f, -0.090009f, -0.112682f, -0.106436f,
    0.077822f, 0.103703f, -0.078446f, 0.017627f, 0.097605f, -0.208885f, 0.004575f, 0.157814f, -0.037824f, -0.089069f,
    -0.121395f, 0.013142f, -0.201780f, -0.081628f, -0.014721f, 0.080994f, -0.166057f, -0.160683f, 0.002475f, -0.131846f,
    -0.025188f, -0.055599f, -0.011595f, 0.117422f, 0.082962f, -0.156139f, -0.105312f, 0.115903f, 0.011074f, -0.058330f,
    -0.054762f, -0.045617f, -0.050192f, 0.078184f, -0.184994f, -0.157944f, -0.110073f, -0.028353f, 0.020208f, 0.156300f,
    -0.043382f, -0.088793f, -0.022546f, -0.090323f, 0.184804f, -0.133556f, -0.033014f, 0.010043f, 0.146131f, -0.078406f,
    -0.019241f, -0.121189f, 0.131518f, 0.185704f, -0.034924f, -0.004723f, 0.020565f, -0.054941f, 0.189328f, -0.074132f,
    -0.084372f, 0.126866f, 0.048682f, -0.093241f, 0.207205f, -0.200594f, -0.071662f, 0.183048f, 0.200601f, 0.131930f,
    0.044163f, -0.037460f, 0.167359f, 0.158697f, 0.159711f, 0.018676f, 0.186653f, -0.022998f, 0.053523f, -0.178933f,
    -0.079974f, 0.031563f, 0.087109f, 0.046023f, -0.214528f, -0.068624f, -0.186321f, 0.147385f, -0.106373f, -0.118021f,
    -0.009459f, -0.129050f, 0.035791f, -0.027774f, -0.138049f, -0.044318f, 0.087692f, -0.116060f, -0.175124f, 0.070263f,
    0.011283f, -0.207478f, -0.151765f, 0.162902f, -0.141208f, 0.020797f, 0.022159f, 0.014095f, 0.097042f, 0.082767f,
    -0.189649f, 0.066462f, 0.154329f, -0.113043f, 0.015390f, -0.157082f, 0.190534f, -0.066614f, -0.200339f, -0.153754f,
    -0.092409f, 0.000506f, -0.102172f, 0.121785f, 0.163625f, -0.122875f, -0.000000f, 0.000000f, 0.000000f, -0.000000f,
    0.000000f, 0.000000f, 0.000000f, -0.000000f, 0.000000f, 0.000000f, 0.000000f, 0.000000f, -0.000000f, 0.000000f,
    0.000000f, 0.000000f, 0.000000f, 0.000000f, 0.000000f, -0.000000f, 0.000000f, 0.000000f, 0.000000f, 0.000000f,
    0.000000f, 0.000000f, 0.000000f, 0.000000f, -0.000000f, -0.000000f, 0.000000f, 0.000000f, 0.000000f, -0.000000f,
    0.000000f, 0.000000f, 0.000000f, 0.000000f, 0.000000f, 0.000000f, 0.000000f, -0.000000f, -0.000000f, 0.000000f,
    0.000000f, 0.000000f, 0.000000f, 0.000000f, 0.000000f, 0.000000f, 0.000000f, 0.000000f, -0.000000f, -0.000000f,
    0.000000f, 0.000000f, 0.000000f, -0.000000f, 0.000000f, 0.000000f, 0.000000f, 0.000000f, 0.000000f, 0.000000f,
    -0.021371f, 0.046579f, -0.057645f, 0.004724f, -0.044403f, 0.100558f, -0.006586f, 0.005835f, 0.089626f, 0.059474f,
    -0.061069f, -0.017771f, -0.073381f, 0.049284f, -0.041121f, -0.004066f, -0.048703f, 0.096763f, 0.035135f, 0.004577f,
    0.001002f, -0.087863f, 0.095980f, -0.036780f, -0.025419f, 0.020934f, 0.046083f, -0.047762f, 0.079955f, -0.023765f,
    0.088352f, -0.087992f, -0.101409f, -0.065689f, 0.034455f, -0.005821f, -0.046322f, 0.056905f, -0.048528f, 0.030373f,
    -0.001906f, -0.027947f, 0.099323f, 0.068462f, -0.098470f, -0.009006f, 0.037272f, 0.039158f, 0.029568f, -0.019898f,
    -0.093322f, 0.030146f, 0.012059f, 0.044992f, 0.020205f, -0.016009f, -0.093944f, -0.048457f, -0.082490f, -0.010606f,
    -0.011813f, -0.022824f, 0.008755f, 0.089468f, -0.004357f, -0.079067f, -0.072904f, -0.091492f, 0.001904f, -0.088500f,
    0.040231f, -0.069088f, 0.086364f, 0.043048f, -0.094490f, 0.033305f, -0.029769f, -0.023053f, 0.100034f, -0.073486f,
    0.078036f, 0.016186f, -0.021106f, 0.088391f, -0.044598f, 0.057684f, 0.084990f, 0.099906f, 0.011763f, -0.085057f,
    -0.046900f, -0.088793f, 0.067593f, 0.019751f, 0.029823f, -0.004032f, -0.037750f, -0.047903f, -0.012265f, -0.037929f,
    0.029831f, -0.086711f, -0.019224f, 0.052225f, -0.049456f, -0.075367f, 0.078160f, -0.021791f, 0.023729f, 0.089354f,
    0.068221f, -0.063613f, 0.046322f, -0.038648f, 0.089839f, -0.087759f, -0.076746f, 0.091626f, -0.072296f, 0.047136f,
    0.099127f, -0.036096f, 0.089822f, -0.090039f, 0.058726f, -0.007448f, 0.075039f, 0.046492f, -0.016291f, -0.036079f,
    0.084825f, 0.098097f, 0.083758f, -0.056262f, 0.002156f, 0.060221f, 0.023294f, 0.019706f, -0.059774f, -0.064497f,
    -0.052056f, 0.065639f, 0.008544f, -0.008417f, 0.087495f, -0.070814f, -0.016762f, -0.061322f, -0.041906f, 0.028220f,
    -0.092675f, 0.011199f, 0.101551f, 0.069588f, 0.028013f, -0.087896f, 0.020455f, 0.099765f, -0.027553f, -0.083786f,
    -0.064824f, 0.080989f, -0.086955f, -0.048837f, 0.020018f, 0.050471f, -0.058488f, -0.097053f, 0.023789f, 0.093260f,
    0.098411f, 0.087745f, -0.092138f, 0.064196f, 0.099806f, 0.069622f, -0.009269f, 0.035161f, -0.059633f, -0.089764f,
    0.040945f, -0.095096f, 0.037085f, -0.000188f, -0.025233f, -0.049569f, 0.092635f, 0.023837f, -0.080032f, -0.092111f,
    0.077991f, 0.011227f, 0.003940f, 0.068373f, 0.029930f, -0.057984f, 0.100584f, 0.085524f, -0.079573f, -0.026454f,
    -0.100646f, -0.018577f, 0.055541f, -0.086277f, -0.067995f, 0.096869f, -0.050258f, 0.090838f, -0.056210f, 0.059677f,
    -0.055677f, 0.064023f, -0.039029f, 0.091499f, 0.047744f, -0.066921f, 0.054765f, -0.008825f, 0.049306f, 0.096700f,
    0.046485f, -0.061247f, 0.097681f, 0.001419f, -0.065362f, -0.027262f, 0.009124f, -0.090236f, 0.060842f, 0.054701f,
    0.014522f, 0.054304f, 0.013331f, 0.100362f, 0.052177f, -0.049926f, -0.043969f, 0.060198f, -0.019245f, -0.038042f,
    -0.071499f, 0.007565f, -0.053185f, -0.050044f, 0.066350f, -0.084262f, -0.054811f, 0.015863f, -0.047264f, -0.028107f,
    0.029429f, 0.015497f, -0.026627f, -0.067677f, 0.029408f, -0.053835f, -0.046392f, -0.078390f, 0.023491f, 0.059868f,
    0.062717f, -0.051832f, -0.053409f, 0.068309f, 0.060131f, 0.084601f, -0.075082f, -0.045887f, -0.092286f, 0.037588f,
    0.042899f, 0.097401f, 0.039775f, -0.000610f, -0.057962f, -0.081263f, -0.078463f, 0.008183f, 0.048271f, 0.080377f,
    -0.019082f, -0.001194f, 0.075418f, -0.028554f, -0.036083f, 0.033800f, 0.090976f, 0.045927f, -0.062224f, -0.002315f,
    -0.099067f, -0.070411f, -0.021425f, -0.097012f, 0.081312f, -0.087878f, -0.037152f, 0.053930f, 0.002024f, -0.035207f,
    -0.001286f, -0.013225f, -0.020358f, -0.016691f, -0.013805f, 0.087918f, 0.061188f, -0.069240f, 0.091151f, -0.000486f,
    -0.006064f, 0.098976f, -0.095764f, 0.057903f, -0.040656f, -0.091816f, -0.039637f, -0.088665f, -0.099764f, 0.068449f,
    0.019313f, 0.028404f, -0.098387f, 0.011418f, 0.083070f, 0.048891f, -0.055251f, -0.090717f, -0.085164f, 0.042441f,
    -0.045660f, 0.011851f, -0.036339f, -0.033627f, 0.010091f, -0.092149f, -0.020418f, 0.056843f, 0.024230f, -0.055635f,
    -0.066528f, -0.007131f, -0.008638f, -0.087457f, 0.002654f, -0.014128f, 0.047310f, 0.039081f, -0.101501f, 0.044044f,
    -0.036135f, 0.006799f, 0.058127f, 0.009666f, 0.086608f, 0.070979f, -0.047332f, -0.009090f, -0.096874f, -0.076807f,
    -0.026164f, -0.017331f, 0.036939f, 0.076216f, 0.065498f, -0.057030f, 0.012731f, -0.058048f, -0.058652f, -0.069721f,
    0.071535f, -0.030503f, -0.018005f, 0.050023f, 0.041441f, 0.029514f, 0.021909f, 0.034639f, 0.061947f, 0.079629f,
    -0.098779f, 0.099092f, -0.027938f, 0.075066f, 0.061625f, 0.084672f, -0.046103f, 0.052214f, 0.008203f, -0.011678f,
    -0.074076f, -0.065037f, 0.086518f, 0.077910f, 0.018605f, -0.034999f, -0.028358f, 0.008303f, -0.044642f, -0.038675f,
    -0.079787f, -0.030606f, 0.023779f, -0.033568f, -0.065248f, -0.072720f, -0.013195f, 0.095934f, -0.100489f, 0.042328f,
    0.080693f, -0.076476f, -0.066639f, -0.007586f, -0.059157f, -0.003233f, -0.070355f, -0.090433f, -0.040886f, -0.055805f,
    -0.040306f, -0.051916f, -0.048352f, 0.013496f, 0.038205f, -0.009176f, -0.006864f, 0.021102f, -0.055311f, -0.051866f,
    -0.020410f, -0.006039f, 0.054297f, -0.058638f, -0.058296f, 0.003169f, -0.007592f, 0.002778f, -0.082485f, -0.098825f,
    -0.091930f, 0.000436f, -0.038673f, -0.065204f, -0.097031f, -0.099337f, 0.020242f, -0.069183f, -0.022459f, 0.060063f,
    -0.087193f, 0.018760f, -0.065650f, 0.050261f, -0.048070f, 0.055821f, 0.051905f, -0.093781f, -0.041185f, 0.065462f,
    -0.016119f, -0.056929f, -0.066129f, -0.088095f, -0.014965f, -0.013626f, 0.003923f, -0.079175f, 0.072449f, -0.068226f,
    -0.068336f, -0.011163f, -0.083744f, 0.024291f, -0.043696f, -0.026215f, -0.028462f, 0.087725f, 0.041931f, -0.009043f,
    0.028575f, 0.092268f, -0.063225f, 0.058926f, 0.083933f, 0.095051f, 0.031201f, 0.038996f, -0.038652f, 0.067344f,
    -0.023947f, -0.079333f, -0.001458f, -0.091328f, -0.065766f, 0.071193f, -0.001746f, -0.006980f, -0.070595f, -0.008018f,
    0.030391f, -0.077486f, -0.062678f, 0.046796f, -0.095706f, 0.015586f, -0.060163f, 0.077944f, -0.044818f, 0.023368f,
    0.100140f, -0.028685f, -0.097503f, 0.041824f, 0.005053f, -0.058537f, 0.020184f, 0.043091f, 0.019376f, 0.050021f,
    0.032555f, -0.045110f, -0.047675f, -0.032088f, 0.026612f, 0.034309f, 0.055946f, 0.046292f, 0.033916f, 0.094295f,
    0.001651f, 0.074844f, 0.090837f, 0.052326f, -0.058492f, -0.048629f, -0.075424f, 0.065911f, 0.039090f, 0.044262f,
    -0.054004f, -0.024994f, -0.068201f, 0.060035f, 0.051939f, 0.065237f, 0.070907f, -0.098881f, 0.098272f, -0.001074f,
    -0.075192f, 0.077019f, -0.023846f, 0.004043f, 0.055588f, 0.086121f, 0.085276f, 0.075736f, 0.064719f, -0.097666f,
    -0.050762f, 0.003381f, -0.055239f, 0.074260f, -0.022334f, 0.081478f, -0.091686f, -0.086346f, -0.047829f, 0.086539f,
    -0.068261f, -0.061351f, 0.081449f, -0.094809f, 0.048947f, -0.081379f, -0.078583f, -0.012464f, -0.054005f, -0.035841f,
    0.093182f, 0.056857f, -0.089717f, 0.094258f, -0.054709f, 0.099630f, 0.044296f, -0.019249f, 0.074083f, -0.014070f,
    -0.049702f, -0.018999f, 0.036538f, 0.003569f, -0.060816f, 0.041232f, 0.038350f, -0.088770f, -0.063087f, -0.087797f,
    0.035426f, 0.088543f, 0.069328f, -0.085144f, -0.098400f, 0.100493f, 0.087383f, -0.022336f, 0.002171f, 0.048950f,
    -0.003138f, -0.017138f, 0.099923f, 0.029371f, -0.097008f, -0.059750f, -0.056951f, -0.085638f, 0.034704f, 0.019922f,
    -0.087350f, 0.067412f, -0.066708f, 0.015275f, -0.064871f, 0.061788f, 0.050953f, 0.095355f, -0.036891f, -0.047573f,
    0.041618f, 0.035973f, -0.062000f, -0.027389f, -0.070599f, 0.037811f, 0.019700f, 0.079529f, -0.055372f, -0.022992f,
    -0.060993f, -0.007307f, -0.064582f, -0.089568f, -0.099465f, -0.027190f, -0.010015f, 0.092760f, 0.055455f, -0.013853f,
    0.060454f, 0.040428f, -0.003676f, -0.044729f, 0.018407f, -0.009585f, -0.042211f, 0.056564f, -0.056588f, -0.054890f,
    0.070444f, 0.100644f, -0.097122f, -0.090388f, -0.028806f, 0.101604f, 0.096786f, -0.027021f, 0.021525f, 0.079806f,
    -0.088680f, -0.101814f, -0.025703f, 0.062844f, -0.069231f, 0.074413f, -0.095776f, 0.008896f, 0.096561f, 0.046629f,
    -0.035007f, 0.002270f, -0.058984f, -0.053842f, 0.084579f, -0.072336f, 0.036577f, 0.040509f, -0.029750f, 0.035208f,
    0.095517f, 0.079123f, -0.036646f, -0.095403f, 0.031872f, -0.073736f, -0.036644f, -0.017399f, 0.046854f, 0.085742f,
    0.082614f, 0.038983f, 0.044957f, -0.041575f, -0.057012f, 0.098932f, -0.004473f, -0.062537f, 0.037861f, -0.008905f,
    -0.008946f, 0.023665f, -0.045302f, -0.041793f, -0.019311f, -0.090986f, -0.000844f, -0.091314f, 0.011105f, -0.017778f,
    0.073400f, -0.060220f, -0.002336f, -0.082043f, -0.095444f, -0.020352f, 0.035405f, -0.082158f, 0.011248f, 0.085785f,
    0.028071f, 0.090105f, 0.056308f, -0.054730f, -0.033673f, -0.045711f, -0.058345f, 0.091061f, 0.083623f, -0.075381f,
    0.032674f, 0.045261f, -0.077358f, -0.057824f, 0.001856f, -0.037792f, 0.009483f, 0.057074f, 0.029618f, -0.019183f,
    0.031687f, 0.078731f, 0.001559f, -0.049985f, -0.030022f, 0.091630f, -0.095114f, 0.017100f, -0.073193f, -0.071732f,
    -0.051600f, 0.036633f, 0.023284f, -0.027818f, 0.055367f, 0.093521f, -0.093971f, -0.009631f, -0.023227f, -0.077262f,
    -0.037722f, -0.070972f, 0.033912f, 0.094215f, 0.089481f, 0.015321f, 0.002307f, 0.001081f, 0.084640f, -0.023247f,
    0.071404f, 0.088756f, -0.065541f, 0.032057f, -0.073411f, 0.035796f, 0.095734f, 0.082934f, 0.097698f, -0.097679f,
    -0.041341f, -0.050988f, -0.026555f, 0.062476f, 0.051351f, 0.002337f, 0.069460f, 0.036017f, 0.076167f, -0.098213f,
    0.071710f, 0.042064f, 0.074188f, -0.064358f, 0.051821f, 0.025788f, 0.009563f, -0.087387f, -0.037812f, 0.094632f,
    0.060323f, -0.005717f, -0.026041f, 0.082269f, 0.037036f, -0.101593f, -0.032254f, 0.046419f, 0.020850f, -0.079300f,
    -0.013215f, -0.028822f, -0.007689f, -0.054743f, -0.096682f, 0.101698f, -0.056308f, -0.070574f, -0.086386f, 0.058241f,
    -0.089260f, -0.050826f, 0.077407f, 0.041140f, -0.080541f, -0.031245f, -0.013839f, -0.071523f, -0.004177f, 0.037055f,
    0.036967f, 0.085964f, 0.071027f, -0.072919f, 0.049223f, 0.033219f, -0.021074f, 0.080320f, -0.007838f, 0.051053f,
    0.083332f, -0.064963f, 0.018668f, 0.018426f, 0.038799f, 0.012340f, 0.040593f, 0.099192f, 0.023320f, 0.099316f,
    0.061679f, -0.024327f, -0.093092f, -0.032866f, -0.088556f, -0.088337f, -0.085325f, 0.002453f, -0.017803f, 0.051184f,
    -0.058352f, 0.055824f, -0.056041f, 0.065003f, -0.003497f, 0.097921f, 0.081663f, 0.071313f, 0.060321f, -0.055753f,
    0.051766f, 0.043965f, 0.056971f, -0.030350f, 0.000333f, -0.013641f, -0.054535f, -0.006822f, 0.044780f, -0.071515f,
    -0.030964f, 0.053510f, 0.047987f, -0.071092f, 0.071187f, 0.075912f, -0.002637f, 0.036314f, -0.015723f, 0.060280f,
    0.081487f, 0.070852f, -0.063048f, -0.087829f, -0.070230f, 0.048073f, 0.042992f, 0.084350f, 0.064756f, 0.032219f,
    -0.015344f, -0.070870f, -0.008901f, -0.095861f, -0.053616f, 0.084174f, 0.042521f, -0.090756f, -0.003509f, 0.023771f,
    0.077319f, 0.079229f, 0.002573f, -0.029913f, 0.044341f, 0.079692f, 0.084772f, -0.009646f, -0.020279f, 0.058059f,
    0.048775f, 0.100658f, -0.016791f, 0.048328f, 0.082820f, 0.029682f, 0.074196f, -0.013353f, 0.069016f, -0.043330f,
    -0.056577f, 0.052827f, 0.022769f, 0.030713f, 0.018076f, 0.052090f, -0.061430f, 0.093108f, -0.025864f, 0.017891f,
    0.084947f, 0.056714f, 0.041360f, 0.071951f, 0.049313f, -0.029801f, 0.005344f, 0.096163f, 0.073891f, 0.093259f,
    0.046316f, -0.036928f, -0.066627f, -0.042634f, 0.039048f, 0.089820f, 0.089466f, 0.077241f, -0.081367f, 0.071945f,
    -0.038703f, 0.079399f, -0.067423f, 0.017898f, -0.070908f, -0.101100f, -0.051856f, 0.032564f, -0.053161f, 0.018867f,
    0.093864f, -0.055970f, 0.020433f, 0.091996f, 0.090274f, 0.034354f, 0.028743f, -0.072739f, 0.027058f, 0.046470f,
    0.060824f, -0.040810f, 0.055203f, -0.028562f, -0.090469f, -0.003005f, 0.011368f, -0.027794f, -0.094686f, 0.085698f,
    -0.041625f, 0.055662f, 0.048859f, 0.006047f, 0.005672f, -0.066784f, -0.077807f, -0.002150f, 0.008201f, 0.055261f,
    0.049472f, -0.063278f, 0.079836f, 0.049956f, -0.011011f, -0.050907f, 0.071503f, 0.066169f, -0.077821f, 0.008348f,
    0.033027f, -0.004968f, -0.057199f, 0.059064f, 0.050333f, -0.094571f, -0.008187f, -0.078838f, -0.034170f, -0.035573f,
    0.023791f, 0.074592f, 0.071187f, 0.003980f, -0.029762f, 0.039937f, -0.063041f, -0.065189f, 0.050831f, 0.083649f,
    0.077750f, 0.001521f, -0.022452f, -0.043352f, -0.037765f, 0.081903f, -0.051887f, 0.065402f, 0.057785f, -0.094224f,
    -0.056284f, -0.000591f, 0.009863f, -0.093649f, -0.057251f, -0.062491f, -0.049635f, -0.092878f, -0.055091f, -0.010359f,
    0.055031f, 0.101275f, 0.091951f, -0.022490f, -0.079924f, 0.095149f, 0.100884f, -0.060769f, 0.097473f, 0.015344f,
    0.091993f, 0.080476f, 0.068229f, 0.029159f, -0.008696f, -0.008467f, -0.042166f, -0.039924f, -0.093962f, 0.095006f,
    -0.085653f, -0.089163f, 0.008128f, -0.041931f, 0.042290f, 0.063336f, 0.068287f, 0.047716f, 0.098069f, 0.084638f,
    -0.057156f, 0.034107f, 0.090906f, -0.053636f, -0.087201f, 0.049763f, -0.007839f, -0.076246f, 0.058163f, 0.066756f,
    0.099281f, 0.069231f, -0.054367f, 0.062979f, -0.055518f, -0.047801f, -0.003051f, -0.056078f, -0.097447f, 0.013065f,
    -0.035043f, -0.073092f, 0.007641f, -0.018286f, 0.096867f, -0.100775f, -0.020140f, 0.013333f, -0.020842f, 0.023595f,
    -0.009664f, 0.034063f, -0.058624f, 0.052079f, -0.027016f, 0.073151f, -0.022600f, -0.093420f, -0.051367f, 0.101370f,
    0.016943f, 0.041483f, 0.096578f, -0.039010f, -0.092185f, -0.089892f, -0.022808f, 0.091494f, 0.051576f, -0.024577f,
    -0.060274f, -0.097800f, -0.077572f, -0.019989f, -0.011732f, -0.054265f, -0.033250f, -0.016197f, 0.013808f, -0.073085f,
    0.022234f, 0.094608f, 0.072794f, 0.090465f, 0.046941f, -0.043339f, -0.094407f, -0.064598f, -0.096420f, -0.007313f,
    -0.039835f, -0.079652f, -0.024544f, -0.017790f, -0.100593f, 0.081952f, -0.067769f, 0.013540f, 0.096675f, 0.061333f,
    0.049745f, 0.076872f, -0.081976f, 0.092705f, 0.004349f, 0.019955f, -0.055771f, -0.075789f, -0.008777f, 0.021224f,
    0.101680f, -0.049664f, 0.009342f, -0.059365f, 0.006730f, 0.076896f, -0.080532f, -0.052278f, -0.044109f, 0.043453f,
    -0.091633f, -0.073664f, -0.048320f, -0.017674f, 0.073648f, -0.009870f, -0.015005f, -0.101970f, -0.016404f, 0.101504f,
    0.068716f, 0.049361f, -0.002545f, -0.075843f, -0.098392f, -0.077163f, 0.080197f, -0.086727f, -0.041902f, -0.064332f,
    0.006477f, 0.065307f, -0.072229f, 0.045755f, 0.098442f, -0.015484f, -0.039115f, 0.090403f, 0.053456f, -0.015092f,
    -0.069932f, -0.007876f, 0.077900f, 0.059155f, -0.098482f, 0.004856f, 0.033147f, 0.037902f, 0.037373f, 0.067044f,
    -0.028970f, 0.068562f, -0.004699f, -0.035863f, -0.066178f, 0.009234f, 0.023290f, 0.073753f, 0.072219f, 0.071074f,
    0.027607f, 0.021842f, 0.072639f, -0.007956f, -0.002834f, -0.066224f, -0.091471f, -0.101208f, 0.082262f, -0.050010f,
    0.003797f, -0.083731f, 0.044386f, 0.023106f, 0.040103f, -0.042948f, -0.068966f, 0.032433f, 0.003076f, -0.024115f,
    -0.078608f, -0.049424f, -0.075015f, -0.082270f, -0.090959f, -0.100229f, -0.021016f, 0.056073f, 0.041055f, 0.031112f,
    -0.011985f, 0.018419f, 0.071318f, 0.029730f, -0.059463f, 0.045688f, 0.063689f, -0.021451f, -0.047924f, 0.078429f,
    -0.040080f, 0.074838f, 0.078031f, -0.013810f, 0.007257f, 0.062782f, 0.089282f, 0.019659f, 0.085318f, 0.033017f,
    0.045355f, -0.030700f, -0.092054f, 0.014952f, 0.042814f, 0.069349f, 0.034197f, 0.033909f, 0.021052f, -0.000971f,
    0.067251f, -0.055652f, 0.084943f, -0.045209f, 0.050038f, 0.021833f, 0.091322f, 0.077263f, 0.029229f, -0.066321f,
    -0.052496f, 0.009776f, -0.055297f, 0.003307f, -0.093792f, -0.017848f, 0.057632f, -0.000059f, 0.052421f, -0.002963f,
    -0.043760f, -0.089531f, 0.091498f, -0.046336f, 0.003691f, -0.048572f, 0.089592f, -0.089969f, 0.062750f, -0.080829f,
    -0.046773f, -0.091682f, 0.013589f, -0.101630f, -0.062789f, 0.081638f, 0.010485f, 0.035452f, -0.002183f, 0.091987f,
    0.045999f, -0.101283f, -0.026670f, -0.039568f, 0.062884f, -0.069135f, 0.006158f, -0.032808f, -0.012353f, 0.093894f,
    0.023450f, 0.002909f, -0.015548f, -0.003229f, -0.039926f, -0.010761f, -0.014783f, -0.101968f, -0.018153f, 0.082141f,
    -0.020332f, -0.060217f, -0.091095f, -0.070847f, -0.072961f, -0.077530f, -0.024937f, -0.019869f, -0.057612f, 0.096106f,
    0.093194f, 0.035613f, -0.070429f, -0.016086f, 0.095545f, -0.007333f, -0.016096f, 0.088724f, 0.097703f, 0.075702f,
    0.048784f, 0.004428f, 0.048898f, 0.015135f, 0.002966f, 0.008024f, 0.066291f, 0.047709f, 0.025698f, -0.009415f,
    0.021797f, 0.046160f, 0.005232f, -0.076915f, -0.059289f, 0.068393f, 0.043532f, -0.062638f, 0.067063f, -0.001641f,
    -0.048017f, -0.056490f, 0.090546f, 0.086390f, -0.079617f, -0.037280f, -0.009686f, -0.013542f, -0.070595f, -0.096872f,
    0.036744f, 0.063957f, 0.035409f, 0.004151f, -0.018050f, -0.010475f, 0.090172f, -0.006145f, -0.088452f, -0.074153f,
    0.028133f, -0.042378f, -0.044028f, -0.086021f, 0.042757f, -0.054324f, -0.096207f, -0.099665f, 0.101304f, 0.027012f,
    -0.037120f, -0.063656f, -0.005006f, 0.025180f, -0.025713f, -0.021495f, 0.099478f, 0.036116f, -0.068585f, -0.076007f,
    -0.026441f, -0.086107f, 0.100742f, 0.055349f, -0.021299f, 0.039172f, -0.020029f, -0.058861f, -0.053087f, -0.051571f,
    -0.008150f, -0.096194f, -0.030856f, 0.017513f, -0.100299f, 0.033514f, 0.046606f, 0.082673f, 0.023205f, 0.036259f,
    0.036657f, 0.036635f, -0.083185f, 0.029518f, -0.055026f, -0.090626f, -0.096421f, 0.041115f, -0.005397f, 0.083903f,
    -0.012438f, 0.028030f, 0.010530f, -0.021865f, 0.044252f, -0.066680f, -0.062658f, -0.055654f, -0.101824f, -0.049659f,
    -0.062494f, 0.072246f, 0.094880f, -0.068175f, -0.007402f, -0.092495f, 0.050896f, -0.065585f, 0.025811f, 0.003078f,
    0.066697f, 0.090371f, -0.047585f, -0.098313f, 0.067709f, 0.052575f, 0.068293f, 0.031643f, -0.037041f, 0.042604f,
    -0.056827f, 0.019315f, -0.060594f, -0.020763f, -0.078464f, -0.026374f, -0.079122f, 0.002573f, -0.027963f, -0.059418f,
    0.088087f, -0.009236f, 0.071912f, -0.092166f, -0.099598f, 0.077629f, -0.071355f, -0.074861f, 0.095318f, -0.002640f,
    0.061239f, -0.072969f, -0.083368f, -0.062266f, 0.082368f, 0.011846f, 0.060668f, 0.075468f, -0.094965f, -0.096309f,
    -0.007595f, 0.018717f, -0.059803f, 0.014133f, 0.004417f, -0.100376f, 0.014772f, -0.071587f, 0.024512f, 0.081626f,
    0.045496f, -0.032402f, 0.099062f, -0.012727f, -0.074960f, -0.042652f, -0.073778f, -0.085981f, -0.068559f, 0.008909f,
    -0.014999f, 0.095988f, 0.074505f, -0.047631f, 0.071954f, -0.086372f, -0.000406f, -0.051819f, -0.032785f, -0.037588f,
    -0.041849f, -0.076706f, 0.028753f, 0.051708f, 0.063914f, -0.018734f, -0.096648f, 0.054115f, 0.023428f, -0.038712f,
    0.008877f, -0.041618f, -0.067317f, 0.005398f, 0.027759f, -0.079831f, 0.055579f, 0.090558f, -0.060470f, 0.069007f,
    -0.019826f, 0.094713f, -0.018336f, -0.011667f, -0.063514f, -0.028210f, -0.030799f, 0.009174f, 0.101114f, -0.070235f,
    0.044055f, -0.026214f, 0.076611f, 0.058289f, -0.092777f, 0.013993f, -0.043532f, -0.039498f, 0.051560f, -0.089258f,
    -0.064752f, -0.014725f, 0.084169f, 0.067440f, 0.017086f, 0.067465f, 0.072429f, -0.096210f, 0.089566f, 0.063166f,
    -0.101586f, -0.055076f, -0.014685f, 0.051906f, 0.024565f, -0.091518f, -0.022696f, 0.062238f, -0.032452f, 0.069930f,
    -0.053611f, 0.022461f, -0.023411f, -0.063804f, 0.038379f, -0.043459f, 0.090069f, -0.052785f, 0.026569f, 0.000794f,
    0.021737f, 0.038893f, -0.053139f, -0.027767f, -0.092338f, -0.050276f, 0.010500f, 0.015088f, -0.068072f, 0.094390f,
    -0.094933f, -0.048089f, -0.025983f, 0.098340f, -0.004297f, 0.083850f, -0.031367f, 0.045831f, -0.100327f, 0.080499f,
    0.039470f, 0.022887f, 0.095052f, 0.030106f, -0.093724f, -0.023691f, -0.066499f, -0.077128f, 0.070040f, -0.098131f,
    0.070348f, 0.060668f, -0.055815f, 0.062706f, 0.002258f, -0.007451f, 0.037294f, 0.098318f, 0.060275f, -0.082350f,
    -0.035791f, 0.013441f, 0.069703f, 0.022286f, 0.081800f, 0.073319f, -0.076784f, 0.045000f, -0.054440f, -0.054584f,
    -0.061412f, 0.037587f, 0.036403f, -0.049534f, -0.045677f, -0.080200f, -0.037982f, 0.096105f, -0.022039f, -0.060799f,
    -0.036044f, -0.097377f, -0.015115f, -0.053467f, 0.015898f, -0.010845f, 0.039420f, 0.032406f, -0.026717f, 0.076763f,
    0.061742f, -0.041279f, -0.009202f, 0.036809f, -0.007906f, -0.081041f, 0.034143f, 0.088737f, -0.095419f, -0.085937f,
    -0.025204f, -0.009915f, 0.058772f, -0.076870f, 0.025702f, 0.041680f, -0.033643f, 0.025720f, -0.100639f, -0.034977f,
    -0.026677f, -0.025391f, 0.023545f, -0.062962f, -0.062836f, -0.061458f, 0.069641f, 0.100081f, 0.021777f, -0.065705f,
    -0.053090f, 0.025980f, -0.091083f, 0.080806f, 0.045739f, -0.100647f, -0.021891f, 0.010820f, -0.081091f, -0.033185f,
    0.012758f, 0.016213f, -0.000130f, 0.021094f, 0.038006f, 0.027140f, 0.000048f, 0.071399f, 0.001794f, -0.008783f,
    0.022695f, 0.033031f, 0.049029f, -0.033795f, -0.084060f, -0.091725f, 0.058325f, -0.045797f, 0.047539f, 0.092748f,
    0.005555f, 0.048869f, 0.078922f, -0.038853f, -0.034629f, -0.040096f, -0.034084f, 0.100135f, -0.067530f, 0.041892f,
    -0.088316f, -0.089947f, -0.043288f, -0.018444f, 0.089472f, -0.043144f, 0.069727f, 0.078343f, 0.021090f, 0.080764f,
    -0.078614f, -0.043322f, -0.014827f, 0.038676f, 0.072024f, 0.063149f, -0.095655f, -0.094951f, 0.038469f, 0.066333f,
    -0.052833f, -0.028737f, -0.038482f, 0.055031f, 0.075759f, 0.022489f, -0.029284f, -0.079189f, 0.002024f, -0.090637f,
    0.099661f, -0.101414f, -0.068442f, -0.008792f, -0.063095f, 0.071402f, -0.057055f, 0.057137f, 0.051080f, -0.049850f,
    0.097982f, -0.021144f, -0.050115f, -0.010806f, -0.092114f, 0.094118f, -0.016765f, 0.029670f, -0.000777f, 0.032102f,
    -0.039240f, -0.000998f, 0.028114f, -0.062745f, -0.042388f, 0.004113f, -0.081916f, 0.005677f, -0.073745f, 0.034884f,
    -0.059345f, 0.013610f, -0.052851f, -0.101347f, 0.025560f, 0.018304f, 0.050674f, -0.084383f, 0.034753f, 0.078685f,
    -0.077549f, 0.007536f, -0.052738f, -0.022951f, 0.100458f, 0.098517f, -0.100441f, 0.022052f, -0.030792f, -0.002502f,
    0.098558f, -0.060311f, 0.004458f, 0.095007f, 0.071333f, -0.009219f, 0.065081f, -0.002088f, -0.041640f, 0.073654f,
    0.049269f, 0.020350f, -0.057199f, -0.039594f, 0.084275f, -0.012362f, 0.064207f, 0.027817f, -0.015788f, 0.046946f,
    0.095199f, -0.033762f, 0.093553f, 0.000142f, -0.064436f, -0.047618f, -0.073149f, -0.021286f, -0.074363f, -0.067964f,
    -0.087581f, 0.027612f, -0.023921f, 0.075661f, 0.039423f, 0.024994f, 0.005716f, 0.000330f, 0.021293f, -0.011511f,
    0.066093f, -0.067172f, 0.083789f, -0.015361f, -0.024976f, -0.055171f, 0.019380f, 0.095741f, 0.101023f, -0.081184f,
    0.061324f, 0.061023f, -0.042902f, 0.081728f, -0.005241f, -0.089047f, -0.041228f, -0.101245f, -0.067867f, 0.012181f,
    -0.036272f, -0.047439f, 0.060701f, -0.010227f, -0.062911f, 0.097133f, 0.010240f, -0.048795f, 0.052459f, 0.025144f,
    0.041916f, -0.066572f, -0.016821f, -0.045961f, -0.017393f, 0.046606f, 0.033564f, 0.071542f, -0.029344f, 0.011736f,
    -0.030353f, -0.026853f, 0.007733f, 0.090745f, 0.035155f, -0.027030f, 0.022052f, 0.101268f, -0.001366f, 0.039013f,
    0.060150f, 0.051364f, -0.021643f, -0.034223f, -0.032204f, -0.076592f, -0.024122f, 0.013940f, 0.084852f, 0.075238f,
    -0.051932f, -0.072353f, 0.016267f, -0.084981f, -0.027803f, 0.070837f, -0.066205f, -0.001960f, -0.091481f, -0.083824f,
    0.062467f, -0.042423f, -0.088565f, -0.098957f, 0.014774f, -0.052953f, -0.069498f, -0.078444f, 0.020205f, 0.067805f,
    0.059931f, 0.096762f, -0.031249f, -0.086770f, 0.007946f, 0.055378f, 0.023226f, -0.008480f, -0.085551f, 0.099935f,
    -0.031349f, 0.087452f, 0.052992f, 0.012413f, -0.097768f, 0.003885f, -0.063544f, 0.047464f, -0.064512f, 0.084759f,
    -0.089081f, -0.087047f, 0.076627f, 0.059220f, 0.036062f, 0.084417f, -0.026076f, 0.015405f, 0.000991f, -0.050643f,
    -0.069559f, -0.093164f, 0.011964f, 0.089188f, 0.031730f, 0.047361f, 0.101910f, -0.014909f, -0.004822f, -0.090299f,
    -0.044827f, -0.047844f, -0.007861f, -0.060487f, 0.095198f, 0.062523f, -0.083290f, -0.086529f, -0.044280f, -0.070565f,
    0.073889f, -0.058863f, -0.075424f, -0.029595f, -0.068953f, 0.061313f, -0.096638f, 0.013977f, -0.022685f, -0.029969f,
    0.031223f, 0.015572f, -0.021865f, 0.039108f, 0.009986f, -0.099272f, 0.079971f, 0.012325f, -0.063022f, -0.069519f,
    0.020972f, 0.057670f, -0.100676f, -0.079509f, 0.058118f, 0.080485f, 0.088308f, 0.052876f, 0.071029f, 0.049670f,
    -0.008542f, 0.093031f, 0.047953f, 0.008623f, 0.055015f, -0.028833f, 0.025240f, -0.090258f, 0.101195f, -0.097067f,
    0.000073f, 0.024378f, -0.016814f, 0.016754f, 0.054486f, -0.087996f, 0.075121f, 0.015161f, -0.072539f, -0.076055f,
    -0.027842f, -0.047657f, -0.015328f, 0.095884f, 0.044616f, -0.087458f, -0.014220f, 0.055933f, -0.043221f, 0.010815f,
    -0.050654f, -0.091990f, 0.048672f, 0.042172f, -0.057896f, -0.033371f, -0.074812f, 0.041466f, 0.020388f, -0.027689f,
    -0.070809f, -0.023992f, -0.004689f, 0.004315f, -0.057124f, -0.021508f, 0.095577f, -0.030307f, 0.072618f, -0.012616f,
    -0.028848f, -0.011308f, -0.099751f, 0.077804f, 0.071577f, -0.050192f, -0.101802f, 0.076547f, 0.018634f, 0.080453f,
    0.062264f, 0.099793f, -0.061093f, -0.000382f, 0.094903f, -0.022135f, 0.089940f, -0.011841f, 0.014915f, -0.091935f,
    0.066544f, -0.093514f, 0.037503f, 0.038300f, -0.013044f, -0.091909f, -0.016519f, -0.029639f, 0.071034f, -0.023655f,
    -0.078843f, -0.035778f, -0.005072f, -0.094492f, -0.006971f, 0.015354f, -0.030550f, 0.097933f, -0.028965f, -0.032735f,
    0.050821f, -0.086216f, 0.039397f, 0.036423f, -0.024432f, 0.052336f, -0.056629f, -0.089218f, -0.095723f, -0.016800f,
    0.025440f, 0.083890f, -0.056230f, 0.007411f, -0.083482f, 0.050055f, -0.045120f, -0.050575f, 0.029383f, -0.029897f,
    -0.011087f, -0.011795f, -0.072730f, -0.034670f, -0.020011f, 0.071769f, 0.067530f, -0.026420f, 0.051791f, -0.017471f,
    0.013172f, 0.066960f, 0.096979f, -0.051284f, -0.019962f, 0.032675f, 0.087152f, -0.018071f, -0.007989f, 0.049541f,
    -0.060799f, 0.002879f, 0.037893f, -0.024222f, 0.042396f, -0.089747f, -0.065265f, 0.099518f, -0.058679f, 0.098513f,
    -0.046748f, 0.045186f, 0.066798f, 0.044134f, -0.054925f, 0.030899f, -0.036190f, 0.081177f, -0.014037f, -0.050385f,
    -0.031337f, -0.058557f, 0.006796f, -0.075757f, -0.100473f, -0.014699f, 0.035498f, -0.084922f, -0.031575f, 0.083443f,
    -0.003897f, 0.079067f, 0.064581f, 0.048766f, -0.049665f, -0.099792f, 0.101798f, -0.099058f, -0.082530f, 0.007346f,
    -0.019440f, 0.028523f, 0.054526f, 0.012614f, 0.081807f, -0.068669f, -0.075838f, -0.022005f, 0.065259f, 0.013170f,
    0.073054f, 0.050509f, 0.062663f, -0.051321f, 0.062421f, 0.045699f, -0.022020f, -0.040695f, 0.005390f, 0.064150f,
    0.051912f, -0.049444f, 0.100720f, 0.001270f, 0.085899f, -0.080268f, -0.089775f, -0.065534f, 0.095879f, -0.010833f,
    0.020111f, 0.035464f, -0.014383f, -0.028962f, 0.088358f, -0.065872f, 0.035311f, 0.050763f, 0.028600f, -0.084895f,
    -0.020699f, -0.003953f, -0.056598f, -0.047146f, -0.089303f, 0.003140f, 0.016850f, -0.031725f, 0.086804f, -0.011637f,
    0.093876f, -0.005193f, 0.084259f, 0.021562f, -0.059235f, -0.030681f, 0.017459f, 0.071189f, 0.030829f, -0.094223f,
    0.053317f, -0.028678f, -0.019958f, -0.024390f, 0.050468f, 0.093507f, -0.017769f, -0.030720f, 0.005113f, -0.043840f,
    0.042206f, -0.073166f, -0.041659f, -0.093496f, -0.019605f, 0.086844f, -0.021854f, 0.045556f, 0.013130f, 0.005325f,
    0.026940f, -0.034017f, -0.021542f, 0.005910f, 0.024896f, -0.040171f, 0.041638f, -0.017567f, 0.071566f, -0.069284f,
    0.010749f, 0.068950f, 0.014372f, 0.067840f, 0.054475f, -0.044428f, -0.022586f, -0.093944f, -0.051309f, 0.088898f,
    -0.068806f, 0.024239f, -0.058749f, -0.024732f, 0.006395f, 0.084905f, -0.092663f, 0.004796f, 0.008495f, 0.045440f,
    0.097559f, 0.062930f, 0.061036f, 0.005504f, -0.082658f, 0.052466f, -0.047134f, -0.007096f, 0.092686f, -0.017594f,
    0.098958f, -0.071386f, 0.065595f, -0.060110f, -0.089928f, 0.011606f, 0.076751f, -0.028467f, -0.063385f, 0.000019f,
    0.052832f, 0.007437f, -0.038630f, 0.032795f, 0.087196f, -0.074120f, 0.032176f, -0.034086f, -0.074871f, 0.055455f,
    -0.071137f, 0.095001f, 0.101558f, -0.071476f, -0.093604f, -0.032803f, -0.059327f, 0.080628f, 0.013301f, -0.051559f,
    -0.095309f, 0.087619f, -0.089389f, 0.013406f, -0.062815f, -0.086641f, -0.057513f, -0.066317f, -0.049109f, -0.029989f,
    -0.062863f, -0.031532f, -0.006457f, 0.040168f, -0.026333f, 0.034043f, -0.018793f, -0.048040f, -0.025282f, 0.024461f,
    0.039216f, 0.049855f, -0.050976f, 0.014009f, 0.048356f, 0.059210f, -0.006033f, 0.010267f, -0.048892f, -0.094540f,
    0.057987f, -0.051817f, 0.041580f, 0.090036f, 0.056985f, 0.035567f, -0.092431f, -0.033778f, -0.058822f, -0.036767f,
    -0.027291f, 0.092069f, 0.079115f, 0.064866f, 0.075627f, -0.090758f, -0.069793f, -0.078707f, 0.014735f, -0.019742f,
    0.003315f, -0.065756f, -0.054939f, -0.051168f, -0.085735f, 0.009510f, -0.023742f, -0.002795f, -0.067235f, 0.048975f,
    0.046001f, 0.015496f, -0.048580f, -0.063368f, 0.029717f, 0.022440f, 0.054220f, 0.004378f, -0.028089f, 0.032053f,
    0.069248f, -0.005264f, -0.003054f, -0.082002f, -0.098215f, 0.046843f, 0.008363f, 0.082609f, -0.088014f, -0.084506f,
    -0.029061f, -0.015213f, -0.015074f, -0.048089f, 0.062418f, 0.082340f, 0.079098f, 0.043420f, -0.097365f, 0.052059f,
    0.024913f, -0.094652f, -0.030353f, -0.078286f, -0.057707f, 0.061370f, 0.080862f, 0.086829f, 0.004455f, 0.027325f,
    -0.037708f, 0.031884f, 0.047338f, 0.065184f, 0.066253f, 0.074468f, 0.058648f, 0.051683f, -0.093745f, 0.085920f,
    0.085426f, 0.098716f, -0.082005f, 0.055752f, 0.016949f, 0.066872f, -0.100020f, -0.002226f, -0.079492f, 0.029454f,
    -0.021946f, -0.057616f, 0.100153f, 0.084378f, -0.008978f, 0.047937f, 0.098125f, 0.022044f, 0.076576f, 0.004153f,
    -0.052621f, -0.059176f, 0.054495f, 0.076346f, 0.042503f, 0.024518f, -0.079137f, -0.009766f, 0.033245f, 0.068121f,
    0.087879f, 0.097113f, 0.032318f, 0.060276f, -0.071337f, 0.080003f, -0.052761f, -0.032290f, -0.030245f, -0.102054f,
    0.067939f, 0.006828f, 0.018103f, -0.053879f, -0.014304f, -0.071146f, 0.056923f, 0.004447f, -0.067339f, -0.024969f,
    -0.020215f, -0.045746f, 0.013383f, -0.004200f, 0.003654f, -0.085261f, 0.087270f, 0.084825f, 0.029954f, -0.003790f,
    -0.012090f, 0.062703f, -0.000749f, -0.003601f, -0.096050f, 0.060751f, 0.087043f, 0.070725f, -0.014725f, 0.031146f,
    0.048923f, 0.033266f, 0.073184f, -0.082190f, -0.029599f, -0.030841f, -0.056364f, 0.076405f, -0.060319f, 0.020805f,
    -0.090914f, 0.068008f, 0.090093f, -0.100394f, 0.041007f, 0.083109f, 0.073807f, -0.049574f, 0.033712f, -0.074049f,
    0.035865f, 0.014646f, 0.059512f, 0.053266f, -0.095095f, 0.095634f, -0.021261f, -0.078435f, -0.004845f, 0.075675f,
    -0.000213f, -0.067737f, -0.073511f, 0.009019f, 0.038234f, 0.033885f, 0.068344f, -0.051829f, -0.018299f, -0.015893f,
    -0.036842f, -0.073439f, -0.074894f, -0.059258f, -0.045216f, -0.040133f, 0.043505f, 0.057156f, -0.065686f, -0.067125f,
    0.060485f, 0.084747f, -0.066233f, 0.096116f, 0.052511f, 0.005000f, -0.013669f, -0.050606f, -0.062901f, 0.021737f,
    -0.011474f, -0.017058f, 0.089410f, -0.060570f, -0.086772f, -0.007928f, -0.077310f, -0.011530f, -0.091288f, 0.019074f,
    -0.072658f, -0.074643f, -0.072667f, 0.051144f, -0.068625f, 0.069774f, 0.013896f, -0.023784f, -0.099287f, 0.089581f,
    -0.029617f, 0.008085f, 0.084073f, 0.035241f, -0.061303f, -0.086062f, -0.044215f, 0.047080f, -0.028119f, -0.059391f,
    -0.059934f, -0.066287f, -0.075318f, -0.001877f, 0.009053f, 0.091626f, 0.069029f, 0.007835f, -0.041345f, 0.047416f,
    -0.010739f, 0.003420f, -0.047108f, 0.050597f, -0.100385f, -0.071068f, -0.078190f, 0.078792f, 0.090435f, -0.065961f,
    -0.051840f, 0.097665f, -0.076134f, -0.046478f, 0.049571f, 0.083225f, 0.021373f, 0.020618f, 0.070790f, 0.098683f,
    -0.014802f, 0.027803f, -0.033533f, -0.101351f, 0.071510f, 0.073239f, 0.007132f, -0.081551f, 0.083179f, -0.056435f,
    -0.040417f, 0.047217f, 0.063438f, 0.084212f, -0.007295f, 0.043615f, -0.048942f, 0.081067f, 0.026468f, -0.094983f,
    0.011929f, -0.088713f, -0.000282f, -0.016037f, -0.086902f, -0.046795f, -0.038995f, 0.012969f, 0.027403f, 0.093531f,
    -0.000412f, -0.100775f, -0.048928f, 0.039812f, -0.031147f, 0.000189f, 0.051355f, 0.017632f, -0.089138f, -0.091439f,
    -0.087290f, -0.020248f, -0.099787f, 0.060454f, 0.016019f, -0.065749f, 0.030590f, -0.039504f, -0.022207f, -0.030325f,
    -0.096660f, 0.033017f, 0.028820f, 0.026673f, -0.074736f, -0.051245f, 0.041031f, -0.090819f, -0.015947f, -0.094461f,
    -0.048868f, 0.037119f, 0.021161f, 0.039228f, 0.083060f, 0.013754f, 0.045158f, 0.006478f, 0.032635f, 0.019839f,
    0.100419f, -0.075132f, -0.036645f, -0.082078f, 0.081441f, 0.081178f, -0.090718f, -0.097335f, 0.005537f, 0.099465f,
    0.058552f, 0.085876f, 0.059295f, 0.019606f, -0.003600f, 0.086980f, -0.002507f, -0.008968f, -0.098326f, -0.014434f,
    -0.049763f, -0.007592f, 0.041655f, -0.055556f, -0.003048f, -0.059185f, -0.058090f, 0.066481f, 0.024184f, -0.011300f,
    0.028912f, -0.092485f, 0.059507f, 0.017058f, 0.094132f, -0.046696f, 0.070362f, -0.046511f, 0.021581f, -0.070282f,
    0.000143f, -0.091608f, -0.092830f, -0.000025f, 0.079619f, -0.003705f, -0.100905f, 0.015645f, 0.060341f, 0.005007f,
    -0.048101f, -0.052455f, 0.042722f, -0.066026f, 0.015639f, -0.085756f, -0.098475f, 0.041932f, 0.095894f, -0.085057f,
    -0.055490f, 0.032367f, 0.025225f, 0.094275f, -0.022708f, 0.080977f, 0.054774f, -0.036858f, -0.098089f, -0.056589f,
    -0.080730f, -0.082413f, 0.017665f, -0.095107f, -0.009002f, 0.057216f, 0.087482f, -0.028736f, 0.066802f, 0.012953f,
    -0.038233f, 0.026345f, -0.028514f, -0.043284f, -0.005237f, -0.061299f, -0.088342f, 0.009840f, 0.063978f, -0.048267f,
    -0.009254f, 0.057779f, -0.075198f, -0.080316f, 0.017796f, -0.073505f, -0.063688f, 0.025040f, -0.099348f, 0.001839f,
    0.007494f, 0.062633f, -0.098840f, -0.032155f, -0.016930f, -0.011300f, 0.056347f, -0.014962f, 0.090322f, 0.086938f,
    -0.041492f, 0.075270f, 0.101805f, 0.032862f, -0.036014f, 0.052421f, -0.093293f, 0.000346f, 0.012626f, -0.090612f,
    -0.097842f, 0.096058f, 0.029749f, -0.010705f, -0.100525f, 0.095449f, 0.081545f, 0.081706f, 0.023127f, -0.014209f,
    0.100858f, 0.011880f, -0.076964f, 0.081716f, 0.085068f, -0.051322f, -0.018382f, 0.040785f, -0.017311f, 0.067922f,
    0.039197f, 0.029748f, 0.066135f, 0.020766f, -0.017506f, 0.048921f, -0.098542f, -0.058897f, -0.081043f, 0.005452f,
    -0.067243f, -0.072964f, -0.028277f, 0.001323f, -0.035657f, 0.058838f, -0.044638f, -0.093899f, -0.083340f, -0.023342f,
    0.060949f, 0.056096f, 0.062789f, 0.032410f, 0.075166f, 0.012981f, 0.041646f, 0.054122f, 0.004554f, 0.036870f,
    -0.061984f, 0.037491f, -0.022164f, 0.020109f, 0.004017f, -0.031217f, -0.074468f, -0.008692f, 0.025911f, 0.051161f,
    -0.054053f, 0.044921f, 0.056049f, -0.090857f, 0.008655f, 0.044383f, -0.084013f, 0.009250f, -0.092637f, 0.099122f,
    -0.035733f, 0.005203f, -0.091567f, 0.088784f, -0.040578f, -0.015041f, -0.023556f, 0.082086f, 0.082504f, -0.074879f,
    -0.051623f, -0.070643f, -0.008113f, 0.080485f, 0.086842f, 0.007238f, 0.064463f, 0.023779f, -0.016130f, 0.101873f,
    -0.003459f, -0.081187f, -0.026345f, -0.019176f, -0.066899f, 0.077073f, 0.046980f, 0.004223f, -0.027982f, -0.029216f,
    0.002921f, 0.004888f, 0.060329f, -0.024495f, 0.051406f, -0.023566f, 0.015985f, -0.039580f, -0.061242f, 0.091831f,
    0.091203f, -0.056695f, 0.021366f, 0.055311f, -0.030778f, -0.044862f, 0.004293f, 0.002019f, -0.087869f, 0.012881f,
    -0.039007f, -0.060513f, 0.067767f, 0.073704f, -0.100144f, 0.088855f, -0.039683f, 0.078061f, 0.085662f, 0.081716f,
    0.011658f, -0.056051f, -0.080611f, -0.090524f, -0.029150f, 0.058104f, 0.062657f, -0.061635f, 0.061737f, 0.005888f,
    -0.100844f, 0.059277f, -0.024094f, 0.099063f, -0.081230f, 0.028339f, -0.069455f, 0.077436f, -0.061797f, 0.092881f,
    -0.024013f, 0.002678f, 0.092630f, -0.082530f, 0.053977f, -0.068939f, 0.054125f, -0.086857f, -0.049464f, -0.093849f,
    -0.084540f, -0.097848f, 0.027733f, -0.078033f, 0.054538f, -0.032333f, 0.029776f, -0.095124f, -0.058036f, 0.032447f,
    0.017501f, 0.042718f, -0.029614f, -0.033851f, 0.042877f, 0.095487f, -0.016604f, 0.011352f, 0.017244f, -0.030707f,
    0.036353f, -0.068453f, -0.050148f, -0.100528f, 0.009543f, -0.093703f, -0.062840f, -0.070733f, -0.026582f, 0.081575f,
    -0.044653f, 0.023128f, 0.051530f, 0.075952f, -0.016991f, -0.084477f, -0.036760f, 0.014548f, -0.092405f, -0.011883f,
    -0.001466f, -0.007891f, 0.065807f, 0.066603f, 0.079187f, 0.075501f, 0.036139f, -0.072275f, -0.004596f, 0.075070f,
    0.014950f, 0.041626f, 0.044162f, 0.049874f, 0.058579f, 0.076343f, -0.041240f, -0.027392f, 0.076697f, 0.018722f,
    0.073802f, -0.051355f, -0.094877f, -0.061267f, 0.079131f, 0.025127f, 0.086443f, 0.067923f, -0.003955f, 0.034719f,
    -0.023136f, 0.019536f, 0.072422f, 0.021008f, -0.101052f, -0.074123f, 0.066058f, -0.034177f, -0.005761f, 0.084498f,
    -0.091339f, 0.088296f, 0.014756f, -0.024924f, 0.079060f, 0.026389f, -0.073442f, 0.063541f, -0.050587f, 0.005861f,
    -0.064993f, -0.046553f, -0.098794f, 0.074794f, -0.045573f, -0.048585f, -0.017492f, -0.057460f, -0.000015f, -0.101144f,
    -0.077002f, -0.097864f, 0.059660f, 0.088154f, -0.031549f, -0.014850f, 0.015574f, 0.004726f, 0.005733f, -0.017769f,
    0.096461f, 0.067374f, -0.062679f, -0.087863f, 0.038820f, 0.056451f, -0.093179f, 0.005516f, -0.053358f, 0.087157f,
    0.002754f, -0.075605f, -0.058734f, -0.009716f, 0.044102f, 0.046823f, -0.098063f, -0.077753f, 0.061212f, 0.043950f,
    -0.025845f, -0.095864f, 0.064451f, -0.011864f, 0.062837f, 0.021377f, 0.000082f, 0.072215f, -0.078017f, -0.021261f,
    0.033166f, -0.036464f, -0.046216f, -0.071628f, -0.071489f, -0.006041f, -0.078091f, 0.038214f, 0.063524f, 0.044957f,
    -0.075721f, -0.063931f, 0.082864f, -0.074851f, 0.083259f, -0.053304f, 0.093055f, -0.032130f, -0.003358f, -0.023071f,
    0.069960f, -0.058865f, 0.081984f, 0.072427f, 0.094560f, -0.036249f, 0.007156f, 0.095216f, 0.079827f, 0.024836f,
    0.060004f, 0.025942f, -0.010329f, 0.046027f, 0.058778f, -0.062426f, -0.057387f, -0.078545f, -0.026074f, 0.007663f,
    -0.088586f, -0.084726f, 0.029526f, 0.038958f, -0.043806f, 0.027242f, -0.066089f, 0.038272f, 0.057893f, -0.056611f,
    0.039776f, -0.085446f, -0.087394f, -0.024849f, 0.020834f, -0.084948f, -0.099194f, -0.078327f, -0.093678f, -0.064967f,
    0.044522f, -0.072295f, 0.042249f, 0.041573f, -0.026024f, -0.061634f, -0.061651f, -0.022916f, -0.027179f, -0.098682f,
    -0.027722f, -0.035562f, -0.078431f, -0.001250f, 0.041834f, 0.058602f, 0.014482f, 0.044837f, -0.005021f, 0.092514f,
    0.075255f, -0.014535f, -0.060502f, 0.084796f, -0.036916f, 0.076804f, 0.008838f, 0.101010f, -0.051544f, 0.065663f,
    -0.021383f, 0.065851f, 0.045464f, -0.023965f, -0.011862f, -0.003974f, -0.045175f, 0.035051f, 0.051944f, -0.090808f,
    0.010442f, -0.070357f, -0.033139f, -0.028103f, 0.079410f, 0.037902f, -0.087182f, 0.009352f, 0.088223f, -0.074809f,
    0.078680f, -0.053078f, -0.012867f, 0.043802f, -0.051577f, 0.039540f, 0.091018f, 0.000734f, -0.029597f, 0.040718f,
    0.091359f, -0.067198f, 0.061337f, 0.006017f, -0.043529f, -0.082204f, 0.095424f, -0.068577f, 0.084580f, -0.011532f,
    -0.020785f, -0.024549f, -0.036663f, -0.006871f, 0.027112f, 0.002365f, -0.006177f, 0.091985f, 0.066357f, 0.081394f,
    0.034958f, 0.036578f, -0.092760f, 0.078216f, -0.024588f, -0.029328f, -0.061357f, -0.092281f, 0.049828f, -0.074941f,
    -0.094065f, -0.066459f, 0.062356f, 0.008392f, 0.074136f, -0.008101f, 0.068520f, 0.020532f, 0.017125f, -0.015463f,
    -0.072998f, 0.020448f, 0.001519f, -0.089780f, -0.019542f, -0.047506f, -0.011550f, -0.064508f, -0.053512f, 0.012899f,
    -0.081069f, 0.059135f, -0.036309f, -0.087457f, -0.027909f, -0.094518f, 0.074604f, -0.082615f, 0.007474f, 0.020573f,
    -0.082325f, 0.100651f, 0.018517f, -0.097757f, 0.002692f, 0.078555f, -0.039688f, -0.047631f, -0.077956f, 0.024392f,
    -0.077025f, -0.011152f, -0.091004f, -0.002901f, -0.035474f, -0.000533f, -0.004802f, -0.072348f, -0.029120f, -0.051295f,
    -0.100728f, -0.081272f, 0.010915f, 0.082565f, 0.000786f, 0.085393f, -0.089423f, 0.067151f, 0.094525f, -0.101160f,
    -0.071710f, -0.093698f, 0.055342f, -0.058218f, -0.073110f, 0.067026f, -0.008837f, 0.053114f, 0.033492f, -0.072782f,
    0.024984f, 0.095278f, 0.078362f, -0.082456f, 0.007307f, 0.024017f, -0.078415f, 0.035331f, -0.028613f, -0.001859f,
    -0.084351f, -0.078871f, 0.046289f, -0.063235f, -0.052723f, 0.045053f, 0.022801f, 0.081181f, -0.100135f, -0.055110f,
    -0.070600f, 0.064393f, 0.056626f, 0.071388f, 0.037692f, -0.024080f, -0.102054f, -0.007849f, 0.066015f, 0.085269f,
    0.017604f, -0.095934f, 0.013301f, 0.077150f, -0.016162f, -0.043120f, 0.049131f, -0.072431f, -0.071500f, 0.044939f,
    -0.032988f, -0.045972f, 0.015497f, -0.024384f, 0.081888f, -0.101221f, 0.011491f, 0.012373f, 0.007667f, -0.090485f,
    0.018473f, -0.026163f, 0.048979f, 0.054260f, -0.092051f, -0.093469f, -0.021190f, 0.030969f, -0.013692f, 0.053124f,
    -0.061327f, -0.013635f, 0.090946f, 0.039776f, 0.048542f, -0.096844f, 0.003054f, -0.030683f, 0.021820f, 0.007847f,
    -0.011853f, 0.081751f, -0.082289f, -0.007610f, -0.020962f, -0.060070f, -0.001734f, 0.075609f, -0.078020f, 0.051813f,
    0.062932f, -0.025473f, 0.036061f, -0.079958f, -0.085085f, -0.026984f, -0.052474f, -0.056040f, 0.028769f, 0.088930f,
    -0.037636f, -0.032441f, -0.012637f, -0.000224f, -0.007162f, 0.052596f, -0.053259f, -0.080556f, -0.074445f, -0.025673f,
    -0.089580f, 0.009678f, 0.100736f, -0.064932f, 0.096092f, 0.090456f, 0.001997f, 0.019910f, -0.031600f, -0.007935f,
    0.036375f, 0.034812f, 0.069404f, 0.070425f, -0.082119f, -0.013832f, 0.012964f, -0.068643f, 0.039559f, 0.067351f,
    -0.037667f, 0.087867f, -0.005313f, -0.000573f, 0.030226f, -0.071928f, -0.024303f, 0.069167f, -0.031323f, -0.066398f,
    -0.056938f, 0.001330f, 0.072698f, 0.082765f, 0.016066f, 0.090821f, -0.036476f, 0.058009f, -0.023156f, -0.022274f,
    -0.009614f, -0.013393f, -0.024157f, -0.072872f, 0.084340f, -0.047137f, 0.016734f, 0.014121f, 0.021110f, -0.069405f,
    -0.003807f, -0.038674f, -0.056049f, 0.077467f, -0.081958f, -0.081324f, 0.051944f, -0.010746f, 0.034893f, 0.083608f,
    0.007108f, 0.084198f, 0.071219f, -0.025075f, -0.091845f, -0.019578f, 0.010923f, 0.086817f, 0.070086f, -0.099415f,
    -0.047856f, 0.016129f, 0.072910f, -0.036416f, 0.070020f, 0.087668f, -0.037728f, -0.089058f, 0.047334f, 0.092961f,
    -0.100949f, -0.075057f, 0.100325f, 0.096566f, -0.025247f, 0.059671f, -0.069226f, -0.072076f, -0.061135f, 0.004959f,
    0.060849f, -0.029126f, 0.022845f, -0.094974f, 0.010351f, 0.052583f, 0.061823f, 0.092611f, -0.021778f, 0.011812f,
    -0.029773f, 0.058792f, 0.014879f, 0.033046f, 0.036095f, -0.064919f, -0.006000f, -0.044443f, 0.038041f, 0.011632f,
    -0.049690f, 0.043880f, -0.030996f, -0.040632f, 0.090640f, -0.099754f, -0.089117f, -0.010481f, -0.040527f, -0.091908f,
    -0.032009f, -0.087123f, -0.069244f, -0.090540f, -0.007768f, -0.050554f, -0.024769f, -0.097063f, -0.019405f, 0.021745f,
    0.013065f, -0.076941f, 0.091013f, -0.029328f, -0.055213f, 0.019807f, -0.012168f, 0.037892f, -0.070115f, -0.079106f,
    0.094112f, 0.053518f, 0.087736f, 0.008037f, 0.063831f, 0.053369f, -0.059369f, -0.067603f, -0.039188f, 0.027968f,
    -0.101584f, 0.057391f, 0.027004f, 0.064502f, -0.077436f, 0.039879f, -0.071743f, -0.072797f, -0.053221f, 0.038467f,
    -0.051320f, -0.036162f, -0.088728f, -0.015229f, -0.064775f, -0.057208f, -0.099348f, 0.062470f, -0.100961f, 0.060023f,
    -0.087511f, 0.032377f, -0.081072f, 0.036641f, 0.030694f, 0.032637f, -0.073921f, 0.000272f, -0.055262f, 0.061942f,
    0.057878f, 0.091725f, 0.082494f, -0.012779f, 0.100787f, 0.034246f, 0.053217f, -0.055204f, -0.016992f, 0.012778f,
    0.008077f, -0.089847f, 0.089258f, -0.097108f, 0.052092f, 0.063633f, -0.070327f, -0.048219f, 0.077787f, 0.030730f,
    0.068260f, 0.035095f, -0.046873f, -0.072708f, -0.013287f, -0.063211f, 0.041685f, -0.008152f, 0.077618f, 0.053504f,
    -0.080380f, -0.047004f, 0.088941f, 0.032782f, 0.073163f, 0.097452f, 0.091579f, 0.053440f, 0.032219f, -0.025123f,
    -0.036114f, 0.083278f, -0.080481f, 0.048014f, -0.009071f, 0.033894f, -0.051764f, 0.044568f, 0.050531f, 0.076582f,
    0.037721f, 0.084086f, -0.081176f, 0.088708f, -0.076587f, -0.050290f, -0.101709f, 0.095850f, 0.065888f, 0.083077f,
    -0.040664f, -0.057945f, 0.053336f, -0.088293f, -0.011480f, -0.061924f, 0.059998f, 0.047522f, -0.045425f, -0.004026f,
    0.020188f, 0.067875f, 0.067143f, -0.099069f, 0.013915f, -0.097365f, 0.071028f, -0.000628f, -0.028674f, 0.064031f,
    -0.029524f, -0.047181f, 0.021965f, 0.050645f, -0.074944f, 0.086865f, 0.024544f, 0.015584f, -0.073444f, -0.036452f,
    0.025511f, -0.093675f, -0.080544f, -0.003488f, -0.002187f, 0.032918f, -0.038712f, 0.051100f, 0.081195f, 0.051390f,
    -0.074349f, 0.056426f, -0.065463f, 0.070926f, 0.026287f, 0.020989f, -0.007731f, -0.060756f, 0.094510f, -0.062095f,
    0.017768f, 0.052279f, 0.009766f, -0.009666f, -0.025136f, 0.085245f, -0.062660f, 0.016374f, 0.079380f, 0.049883f,
    0.094546f, -0.098984f, 0.101739f, 0.033291f, -0.031673f, 0.003738f, -0.080588f, 0.041896f, 0.063399f, -0.097181f,
    -0.076907f, -0.047199f, -0.008389f, -0.040819f, 0.031621f, 0.060027f, -0.088076f, 0.093001f, -0.003099f, -0.061529f,
    0.077649f, 0.056792f, 0.077734f, -0.081361f, 0.035443f, -0.083922f, -0.083112f, 0.067593f, -0.058137f, 0.073927f,
    0.039151f, 0.028438f, 0.066236f, 0.099763f, 0.049878f, 0.057023f, -0.060557f, -0.081773f, 0.053782f, 0.082194f,
    -0.007599f, 0.021102f, 0.049342f, 0.056424f, 0.049623f, 0.043771f, -0.075161f, -0.064508f, -0.070803f, -0.033547f,
    0.042802f, 0.006883f, 0.000547f, 0.064397f, -0.047390f, -0.029153f, -0.026438f, 0.057031f, -0.059693f, 0.085919f,
    0.097209f, 0.007646f, -0.047052f, -0.084917f, 0.055502f, 0.027031f, -0.034488f, -0.014777f, 0.005449f, -0.021952f,
    0.074210f, 0.037614f, -0.026108f, 0.060877f, -0.059550f, -0.011828f, 0.027983f, -0.072944f, 0.013244f, 0.089420f,
    0.086849f, -0.067298f, -0.075300f, 0.052427f, 0.025761f, 0.047983f, 0.018349f, -0.019233f, 0.017820f, -0.053962f,
    0.016960f, 0.096309f, -0.024569f, 0.078529f, -0.061567f, -0.068786f, -0.001871f, -0.065059f, -0.060184f, 0.040353f,
    -0.009928f, 0.038474f, -0.091498f, 0.052443f, -0.092809f, -0.031043f, -0.067898f, -0.072950f, -0.070730f, -0.006959f,
    0.005592f, 0.007202f, -0.069956f, 0.083540f, 0.037931f, -0.076002f, 0.001335f, -0.020261f, -0.027536f, -0.085419f,
    0.087863f, 0.046137f, -0.087975f, 0.078920f, -0.070007f, -0.047860f, 0.080183f, -0.053995f, 0.047090f, 0.027893f,
    0.060653f, 0.057920f, -0.050907f, -0.068547f, -0.032635f, 0.000038f, -0.025136f, -0.005852f, -0.014042f, 0.051905f,
    -0.073605f, -0.028230f, 0.085971f, -0.001884f, -0.048012f, -0.033357f, 0.092077f, 0.088470f, 0.045192f, -0.012686f,
    -0.057494f, 0.098074f, -0.019409f, -0.056509f, -0.062390f, 0.048303f, 0.051597f, -0.068773f, 0.096273f, 0.089642f,
    0.073427f, 0.022207f, 0.007852f, -0.024157f, 0.059157f, 0.020970f, -0.026755f, -0.043748f, -0.056269f, 0.022455f,
    0.057878f, -0.062188f, -0.019078f, 0.000393f, -0.066503f, 0.087120f, -0.006508f, -0.086420f, 0.084870f, -0.010077f,
    -0.099435f, 0.020458f, 0.001041f, -0.071207f, -0.043520f, -0.003742f, 0.045224f, -0.002264f, 0.078386f, 0.083160f,
    -0.071138f, -0.045437f, 0.009766f, -0.051771f, -0.013766f, 0.086293f, 0.028663f, -0.054119f, 0.093727f, -0.046908f,
    0.043362f, -0.051381f, 0.045195f, -0.094731f, 0.086501f, 0.081656f, 0.029132f, 0.050481f, -0.081409f, -0.067014f,
    -0.048262f, 0.025994f, 0.036928f, 0.003937f, 0.093045f, 0.037453f, 0.086929f, 0.048244f, -0.043893f, 0.001544f,
    -0.040668f, 0.100981f, 0.051132f, 0.016941f, 0.050184f, -0.024088f, -0.032642f, 0.101900f, 0.063329f, -0.071184f,
    0.045309f, 0.072126f, -0.060960f, -0.025823f, -0.013223f, -0.024808f, -0.035689f, 0.037021f, 0.007853f, -0.042789f,
    -0.048202f, 0.066021f, -0.042850f, -0.082600f, -0.032621f, -0.032986f, -0.060044f, -0.071581f, -0.019368f, -0.020357f,
    0.007002f, 0.082470f, -0.056434f, -0.011004f, -0.040040f, -0.001584f, 0.073199f, 0.083044f, -0.086644f, 0.040949f,
    -0.031579f, 0.082053f, -0.017189f, 0.089207f, 0.015373f, -0.032149f, -0.074591f, 0.050134f, 0.008030f, 0.084129f,
    -0.035567f, -0.038263f, -0.029056f, 0.064608f, 0.053679f, -0.027181f, 0.016062f, -0.040464f, 0.031553f, 0.048180f,
    -0.070924f, 0.070257f, 0.022227f, 0.085416f, 0.076813f, -0.015975f, -0.007017f, 0.010654f, 0.096571f, -0.041493f,
    0.089362f, 0.047892f, -0.034966f, 0.010438f, -0.043671f, 0.018888f, 0.026445f, 0.027883f, 0.043166f, 0.099731f,
    0.072267f, -0.041440f, 0.071293f, -0.060680f, 0.058438f, -0.096980f, 0.037590f, 0.014314f, 0.047791f, -0.040770f,
    -0.002307f, -0.063826f, 0.097839f, -0.005781f, -0.030659f, 0.019337f, 0.064413f, -0.060769f, -0.000842f, -0.061663f,
    0.006810f, 0.020707f, 0.024324f, 0.089546f, -0.054969f, 0.021605f, -0.101880f, -0.062423f, -0.085355f, 0.022015f,
    -0.083785f, -0.076991f, -0.082888f, 0.006179f, 0.009078f, -0.068584f, -0.077054f, -0.049057f, 0.084969f, 0.086714f,
    0.018012f, -0.023234f, -0.067769f, 0.004566f, 0.068560f, 0.056528f, 0.065819f, 0.058900f, 0.037657f, -0.068297f,
    0.055397f, 0.001414f, -0.039401f, 0.061210f, -0.014624f, 0.048913f, 0.073507f, -0.001971f, 0.101682f, -0.023378f,
    -0.001752f, 0.002143f, 0.053253f, -0.101194f, 0.078249f, 0.014484f, 0.075277f, 0.026596f, -0.020631f, 0.052940f,
    0.099735f, 0.022903f, 0.031652f, 0.065432f, -0.071343f, 0.041380f, -0.037255f, 0.019255f, -0.007434f, -0.038434f,
    0.068397f, -0.031903f, 0.080680f, 0.042146f, -0.030914f, -0.078740f, -0.032915f, -0.069126f, 0.002422f, -0.028542f,
