// Auto-generated model weights for RAVN AI Engine
// Generated from: ../../artifacts/ravn_model.h5_weights.bin
// Total weights: 154563

#ifndef RAVN_MODEL_WEIGHTS_H
#define RAVN_MODEL_WEIGHTS_H

#include <stdint.h>

// Model architecture constants
#define INPUT_SEQUENCE_LENGTH 20
#define DENSE1_OUTPUT_SIZE 64
#define LSTM1_HIDDEN_SIZE 128
#define LSTM2_HIDDEN_SIZE 64
#define DENSE2_OUTPUT_SIZE 32
#define OUTPUT_CLASSES 3

// Layer weight counts
#define DENSE1_WEIGHT_COUNT 704
#define LSTM1_WEIGHT_COUNT 98816
#define LSTM2_WEIGHT_COUNT 49408
#define DENSE2_WEIGHT_COUNT 2080
#define DENSE3_WEIGHT_COUNT 99
#define TOTAL_WEIGHT_COUNT 154563

// All model weights (float32) - organized by layer
static const float all_model_weights[TOTAL_WEIGHT_COUNT] = {
    0.183299f, 0.158392f, -0.030675f, -0.199186f, -0.088112f, -0.108541f, 0.050856f, -0.164943f, 0.047802f, 0.107579f,
    -0.154744f, -0.209319f, 0.192096f, -0.197936f, -0.194821f, -0.107824f, -0.137031f, 0.143946f, 0.026915f, -0.098034f,
    -0.125078f, 0.213608f, -0.107682f, 0.107230f, -0.122112f, 0.040002f, -0.088011f, 0.106937f, 0.131660f, -0.197514f,
    0.139630f, 0.009315f, 0.072089f, -0.030899f, 0.140822f, 0.094687f, 0.002361f, 0.035854f, -0.209466f, 0.049010f,
    0.008798f, 0.000397f, 0.024591f, -0.055044f, 0.082009f, 0.033512f, -0.077818f, 0.166122f, -0.113331f, 0.119553f,
    0.086070f, 0.162005f, 0.182470f, 0.071997f, -0.056793f, 0.172637f, 0.049124f, 0.044157f, -0.166329f, -0.216018f,
    0.050340f, -0.132730f, 0.001019f, 0.184379f, -0.216135f, -0.113690f, -0.004848f, -0.215853f, 0.114805f, 0.098801f,
    -0.013098f, -0.172657f, -0.143587f, 0.042281f, 0.063803f, 0.094465f, -0.061762f, -0.006508f, -0.074766f, 0.195000f,
    -0.036693f, 0.052540f, -0.210914f, -0.076287f, -0.170807f, -0.044932f, 0.084902f, 0.025586f, 0.006780f, -0.209753f,
    -0.137825f, 0.106041f, -0.071794f, -0.180523f, -0.063639f, -0.045389f, -0.095359f, 0.077197f, -0.006005f, -0.104766f,
    0.193983f, -0.058792f, 0.050015f, 0.042516f, 0.171322f, -0.178320f, -0.165820f, 0.103749f, 0.110398f, 0.088421f,
    -0.054958f, -0.067913f, 0.112139f, -0.030708f, -0.101554f, -0.060362f, -0.147419f, 0.076150f, -0.017080f, -0.092398f,
    -0.018463f, -0.121572f, -0.203285f, -0.165092f, -0.174543f, 0.079364f, 0.040390f, -0.000025f, -0.182341f, 0.051810f,
    0.147423f, 0.156932f, 0.136798f, -0.026631f, 0.172127f, 0.210359f, -0.004994f, 0.042015f, -0.049134f, -0.128221f,
    -0.018869f, -0.091856f, 0.146926f, 0.048763f, 0.194560f, 0.056129f, -0.202806f, 0.054433f, -0.067499f, -0.203985f,
    -0.044706f, 0.016561f, -0.132999f, -0.104691f, -0.114957f, 0.039321f, -0.146937f, 0.216437f, -0.102092f, 0.074791f,
    -0.122128f, 0.193555f, -0.203036f, -0.034629f, -0.057473f, 0.128618f, 0.162672f, 0.107274f, 0.206946f, 0.060457f,
    0.111284f, -0.062843f, 0.063658f, -0.173117f, 0.203350f, -0.032956f, 0.205514f, 0.207155f, 0.213835f, 0.016854f,
    -0.001846f, 0.046819f, -0.112344f, 0.016281f, 0.135522f, -0.022348f, 0.030918f, -0.033009f, 0.019217f, -0.085683f,
    0.174661f, 0.002920f, 0.152470f, -0.169954f, -0.024938f, -0.122075f, 0.088797f, 0.117749f, -0.083515f, 0.065513f,
    -0.055378f, -0.165588f, -0.164902f, 0.117515f, 0.076088f, 0.096015f, -0.021859f, 0.113327f, -0.072853f, -0.089569f,
    -0.092866f, -0.210336f, -0.182562f, -0.067990f, 0.191924f, -0.120533f, 0.077336f, 0.007542f, -0.064741f, 0.039313f,
    -0.207912f, 0.161647f, 0.075856f, 0.199039f, 0.138278f, 0.066902f, -0.046340f, 0.100323f, 0.161801f, 0.112917f,
    0.159193f, 0.048473f, -0.033878f, 0.109398f, -0.024681f, -0.166655f, 0.102121f, 0.145257f, 0.009577f, 0.056806f,
    -0.116386f, 0.007957f, -0.189187f, -0.069816f, -0.158773f, -0.177226f, -0.008971f, -0.028774f, -0.091592f, -0.143920f,
    -0.051851f, 0.121691f, -0.085586f, -0.080534f, 0.091290f, 0.096332f, -0.063091f, 0.003378f, 0.156704f, 0.020288f,
    -0.213731f, -0.033487f, -0.164445f, -0.070728f, 0.015718f, -0.017320f, 0.009680f, 0.108119f, -0.108947f, 0.172224f,
    0.200099f, 0.107184f, 0.121670f, -0.166019f, 0.128655f, -0.108312f, 0.147704f, 0.188890f, 0.137359f, -0.211053f,
    0.008044f, 0.170493f, -0.069322f, 0.167939f, 0.049104f, -0.116955f, -0.106953f, -0.055887f, 0.042821f, 0.068442f,
    -0.076811f, -0.040054f, -0.060356f, -0.109389f, -0.077483f, -0.076828f, -0.178424f, -0.190325f, -0.169291f, -0.060760f,
    0.097211f, -0.129920f, 0.204910f, 0.021260f, -0.192410f, -0.199812f, 0.176904f, 0.160218f, -0.123201f, 0.006698f,
    0.092829f, 0.006450f, 0.114813f, 0.113910f, -0.149611f, 0.170123f, -0.088821f, 0.095870f, 0.155870f, 0.109883f,
    0.116298f, 0.167285f, -0.189936f, -0.050083f, 0.207931f, 0.204643f, -0.096109f, -0.088509f, 0.044988f, -0.167784f,
    0.165590f, -0.075954f, -0.191433f, 0.123148f, 0.096691f, 0.117044f, -0.205765f, 0.133228f, 0.021990f, 0.072501f,
    -0.068200f, -0.147257f, 0.044321f, 0.006974f, 0.108153f, 0.001030f, 0.033122f, 0.206310f, 0.132100f, -0.040081f,
    -0.203717f, -0.057113f, 0.145934f, -0.199453f, -0.156417f, -0.117270f, -0.148299f, 0.022017f, 0.020809f, 0.045296f,
    -0.142050f, 0.107598f, -0.054290f, -0.038039f, -0.020691f, -0.166672f, 0.120702f, 0.003845f, -0.190945f, -0.012803f,
    -0.166693f, -0.118172f, -0.116338f, -0.196201f, 0.159530f, 0.095209f, 0.215539f, 0.190208f, 0.059195f, 0.035422f,
    0.211677f, -0.106413f, 0.006662f, 0.058735f, 0.100461f, 0.009373f, 0.043906f, 0.063333f, -0.023237f, 0.045767f,
    -0.012321f, -0.078605f, -0.123586f, 0.092948f, -0.057901f, 0.035355f, -0.202718f, -0.111787f, -0.093903f, -0.211812f,
    -0.005586f, -0.109092f, 0.011113f, -0.075167f, 0.022374f, -0.084935f, 0.059783f, -0.098607f, 0.089216f, 0.212777f,
    0.137248f, 0.152719f, -0.116774f, -0.153047f, 0.051773f, 0.018397f, -0.077010f, -0.144563f, -0.145258f, 0.132080f,
    -0.044997f, -0.141569f, -0.169904f, -0.120368f, 0.141594f, -0.065290f, -0.141058f, 0.008174f, 0.040581f, -0.046574f,
    0.170089f, -0.154454f, -0.200095f, -0.190980f, -0.028309f, -0.141919f, 0.138322f, -0.046752f, 0.171432f, -0.039246f,
    -0.046814f, 0.091968f, -0.108647f, 0.079131f, 0.121534f, -0.182081f, -0.047568f, 0.141473f, -0.131471f, 0.141324f,
    -0.204651f, 0.022407f, -0.023550f, 0.032266f, 0.190669f, 0.216159f, 0.029770f, -0.156513f, -0.043017f, 0.172714f,
    0.102712f, -0.126390f, 0.053602f, -0.063612f, 0.104579f, -0.178746f, -0.127106f, 0.011171f, 0.124382f, 0.179610f,
    -0.138640f, 0.214876f, -0.130176f, -0.155007f, -0.186014f, 0.191485f, 0.040857f, -0.210992f, -0.141751f, 0.185596f,
    -0.105088f, -0.144246f, -0.149256f, 0.091361f, 0.177791f, 0.182331f, -0.188784f, 0.094170f, -0.191272f, 0.140927f,
    0.140210f, -0.142297f, 0.084872f, 0.008175f, 0.162064f, -0.082204f, 0.150288f, -0.146617f, 0.216386f, 0.055333f,
    0.102548f, 0.092917f, 0.140981f, -0.182776f, -0.089597f, 0.126106f, 0.081300f, -0.103856f, 0.093022f, 0.130498f,
    -0.136759f, 0.073991f, 0.162765f, 0.064892f, 0.133458f, -0.050724f, -0.115648f, -0.193464f, 0.035560f, -0.107732f,
    -0.041336f, 0.079225f, 0.025279f, -0.017752f, 0.016532f, 0.002508f, 0.093729f, 0.048268f, -0.139895f, -0.156102f,
    0.114954f, 0.012323f, -0.179738f, -0.092734f, 0.052294f, -0.169569f, -0.197193f, -0.157367f, -0.170349f, 0.090568f,
    0.111855f, -0.065889f, -0.123773f, 0.051760f, -0.163428f, -0.197358f, 0.141374f, 0.075633f, 0.049203f, 0.132095f,
    -0.177548f, -0.042629f, -0.178038f, -0.053114f, -0.082113f, -0.027239f, -0.209243f, -0.052479f, 0.082763f, 0.178356f,
    0.213542f, -0.175025f, -0.038933f, -0.089523f, 0.068055f, -0.141830f, -0.112845f, 0.129929f, 0.181311f, -0.137583f,
    0.201380f, 0.124659f, -0.075202f, -0.165099f, -0.109893f, 0.158265f, -0.020773f, 0.107754f, 0.143353f, 0.043864f,
    -0.179913f, -0.104191f, -0.100379f, 0.072863f, 0.159023f, 0.018969f, -0.193298f, -0.139095f, 0.047352f, 0.023462f,
    0.122112f, 0.146068f, 0.078871f, 0.186312f, -0.154493f, 0.132007f, -0.084038f, 0.099669f, 0.136789f, 0.209178f,
    -0.014273f, -0.104178f, 0.212029f, -0.078316f, -0.206292f, -0.064784f, 0.058494f, 0.008296f, 0.071478f, -0.005487f,
    0.105784f, -0.032383f, -0.097630f, 0.190934f, 0.195807f, -0.210537f, 0.216228f, 0.067959f, 0.126784f, -0.034558f,
    -0.040636f, 0.065502f, 0.191356f, 0.080471f, 0.111839f, 0.213991f, -0.179612f, 0.029274f, -0.050427f, 0.136668f,
    -0.013394f, -0.184708f, -0.165883f, -0.084667f, 0.110422f, 0.116408f, 0.124910f, 0.072069f, -0.136969f, 0.059849f,
    0.170399f, 0.116425f, -0.085606f, 0.128187f, 0.077771f, 0.114774f, -0.160908f, 0.164091f, -0.211106f, 0.139992f,
    -0.054643f, 0.117498f, 0.126738f, -0.122604f, 0.082327f, -0.062685f, -0.211794f, 0.201175f, 0.000480f, -0.044153f,
    -0.028934f, -0.169076f, 0.007134f, -0.207881f, -0.090104f, -0.169839f, 0.124259f, 0.185287f, 0.146705f, -0.053784f,
    -0.091233f, 0.167804f, 0.193598f, -0.065644f, -0.147741f, 0.197163f, 0.194713f, -0.095481f, 0.191716f, -0.096620f,
    -0.216316f, -0.015508f, 0.004734f, -0.164747f, -0.013127f, 0.036720f, 0.188870f, -0.002675f, -0.080142f, -0.164811f,
    -0.056473f, 0.133705f, -0.205964f, 0.096331f, -0.047029f, -0.020886f, -0.082190f, -0.043620f, 0.185892f, 0.175518f,
    -0.001075f, 0.049613f, 0.023333f, -0.126473f, -0.018610f, -0.137401f, -0.198579f, 0.082006f, -0.152762f, 0.080805f,
    -0.170419f, 0.130139f, 0.160948f, 0.076200f, -0.061118f, -0.125174f, -0.019102f, 0.078921f, 0.105260f, -0.025141f,
    -0.125462f, -0.003243f, -0.208396f, -0.211598f, -0.161402f, 0.194800f, 0.101845f, 0.036696f, -0.134639f, 0.168104f,
    -0.037524f, 0.104649f, 0.125150f, -0.205410f, 0.039860f, 0.195057f, -0.123424f, 0.082656f, 0.068565f, -0.045324f,
    -0.037888f, 0.165346f, 0.070462f, -0.079193f, 0.127181f, 0.029728f, 0.015775f, -0.142135f, 0.120406f, -0.056151f,
    0.101589f, 0.122115f, 0.130832f, 0.104493f, -0.003464f, 0.044928f, 0.142750f, 0.208971f, -0.129654f, 0.027503f,
    -0.076288f, 0.047147f, -0.021311f, 0.137283f, 0.146699f, -0.184106f, 0.038993f, -0.130312f, 0.108012f, -0.156128f,
    -0.105228f, 0.160948f, -0.078392f, -0.132160f, -0.029709f, 0.001154f, 0.054415f, -0.047378f, -0.214103f, 0.124298f,
    0.118255f, -0.199818f, -0.164088f, 0.060760f, 0.214991f, -0.152640f, 0.114778f, -0.025648f, 0.088799f, -0.201935f,
    0.101088f, -0.210302f, 0.034075f, 0.139440f, -0.015066f, -0.150370f, -0.208788f, -0.183754f, -0.103162f, -0.166469f,
    0.043440f, 0.209936f, -0.057753f, -0.078311f, -0.204829f, -0.110411f, 0.198038f, 0.032956f, 0.171972f, -0.207515f,
    0.044358f, -0.176269f, -0.046528f, -0.176865f, -0.039823f, 0.031158f, -0.192470f, -0.196026f, -0.134668f, -0.145516f,
    -0.148182f, 0.011236f, 0.131769f, 0.167980f, 0.207884f, 0.080084f, -0.072634f, 0.061551f, -0.113553f, 0.088486f,
    -0.215847f, -0.196260f, 0.156073f, 0.222083f, -0.088222f, -0.145037f, -0.085782f, 0.031272f, 0.161961f, 0.126243f,
    0.187774f, 0.096870f, -0.018761f, 0.001970f, -0.103876f, 0.142441f, -0.025761f, 0.058183f, -0.211943f, 0.202944f,
    -0.144174f, 0.111356f, -0.147971f, -0.042808f, -0.022943f, 0.229818f, -0.029151f, -0.048720f, 0.099087f, -0.221461f,
    0.030742f, 0.089320f, 0.067086f, 0.218576f, -0.013931f, 0.043070f, -0.194535f, -0.212803f, -0.170081f, 0.181934f,
    0.196759f, -0.114335f, -0.001654f, 0.140705f, -0.153596f, -0.100784f, -0.149380f, -0.051051f, -0.196071f, 0.195254f,
    0.169165f, -0.111991f, 0.106284f, 0.125324f, -0.030792f, 0.065302f, -0.025998f, -0.198089f, 0.040020f, 0.086947f,
    0.063902f, -0.081682f, -0.209128f, 0.055609f, 0.003533f, 0.140559f, 0.195186f, 0.141928f, 0.074477f, 0.208054f,
    -0.109827f, 0.100490f, 0.016224f, 0.126046f, 0.001792f, 0.115889f, 0.051895f, 0.066330f, 0.060690f, 0.211276f,
    0.176206f, -0.085252f, -0.151104f, 0.188697f, 0.083321f, 0.216306f, -0.073442f, -0.090585f, -0.000783f, -0.197495f,
    0.148200f, -0.118797f, 0.067709f, -0.052802f, -0.214398f, 0.015524f, -0.003390f, -0.078945f, -0.167818f, -0.150525f,
    -0.185791f, 0.122782f, 0.181959f, -0.122051f, 0.202444f, 0.156386f, -0.082038f, -0.032983f, 0.039024f, 0.144720f,
    -0.199477f, -0.090908f, 0.089307f, -0.051789f, -0.074839f, -0.094397f, -0.024053f, 0.149107f, -0.154908f, -0.168059f,
    0.206588f, 0.145048f, -0.144480f, -0.074512f, 0.037824f, -0.044241f, -0.099360f, 0.057274f, -0.059992f, 0.110235f,
    -0.033165f, 0.132054f, -0.180426f, -0.070830f, 0.194312f, 0.044696f, -0.087610f, 0.157490f, 0.105631f, -0.045924f,
    0.043370f, -0.193495f, 0.133848f, -0.035347f, 0.154929f, 0.075656f, -0.081630f, 0.200020f, -0.196122f, 0.171323f,
    0.100971f, -0.103373f, -0.163948f, 0.201572f, -0.181470f, 0.105337f, -0.081382f, 0.007800f, -0.072957f, -0.054109f,
    -0.150755f, 0.145014f, -0.107482f, 0.007671f, -0.107118f, 0.167793f, 0.140052f, -0.003279f, 0.066612f, 0.120940f,
    0.101178f, 0.137950f, -0.167979f, -0.036326f, 0.175823f, 0.148356f, 0.037504f, 0.132467f, -0.150801f, -0.043905f,
    -0.184775f, -0.128712f, 0.147919f, -0.030244f, -0.024027f, 0.162107f, -0.155240f, -0.119561f, -0.172826f, -0.196119f,
    0.161081f, -0.010842f, -0.105746f, -0.008667f, -0.035892f, -0.014871f, 0.131532f, -0.197920f, 0.165839f, -0.105804f,
    -0.114960f, 0.201707f, -0.172263f, -0.187736f, -0.051108f, 0.151663f, 0.052358f, -0.168417f, 0.029615f, 0.122084f,
    -0.053808f, 0.031481f, 0.030679f, 0.065058f, 0.049740f, 0.207386f, -0.168389f, -0.134397f, -0.200106f, -0.002211f,
    0.009846f, -0.102691f, 0.155107f, -0.008479f, -0.085940f, 0.070533f, -0.145894f, -0.196376f, -0.111805f, 0.057031f,
    0.149458f, -0.044606f, 0.160225f, -0.038614f, -0.060877f, -0.182255f, 0.036230f, -0.177399f, 0.177422f, 0.102764f,
    0.057867f, -0.135401f, 0.037563f, -0.131021f, -0.049698f, -0.125299f, -0.193936f, 0.015439f, -0.138716f, 0.016702f,
    0.093572f, -0.052233f, -0.139976f, 0.177083f, 0.194182f, -0.166419f, 0.160093f, -0.162358f, 0.103164f, 0.070332f,
    0.200196f, -0.213636f, -0.173442f, 0.086225f, 0.130950f, 0.185858f, -0.189185f, -0.061425f, -0.039184f, -0.185206f,
    -0.138074f, -0.053101f, -0.101008f, 0.000502f, 0.056941f, -0.141730f, -0.162265f, -0.192126f, -0.110794f, 0.123668f,
    0.113101f, 0.212742f, 0.148441f, -0.131743f, 0.027253f, -0.042563f, -0.128511f, 0.030218f, 0.181273f, -0.064777f,
    0.016010f, 0.073601f, 0.023258f, 0.183673f, 0.008866f, 0.175250f, 0.046496f, -0.094552f, -0.150109f, -0.057624f,
    -0.065340f, 0.162646f, -0.003862f, -0.159587f, -0.055060f, -0.212551f, 0.045680f, -0.185024f, -0.139670f, -0.005158f,
    0.213569f, -0.059824f, -0.190496f, -0.197599f, -0.074090f, 0.137732f, 0.195431f, 0.121361f, 0.178497f, -0.196456f,
    0.042294f, 0.207568f, 0.178024f, 0.128014f, 0.049066f, -0.059652f, -0.119949f, -0.001522f, -0.052329f, -0.067086f,
    0.099172f, -0.183134f, 0.095698f, -0.059880f, -0.198593f, -0.020597f, 0.131634f, 0.090016f, 0.207137f, -0.142722f,
    -0.104439f, -0.148162f, -0.064872f, -0.011543f, 0.096434f, 0.184708f, -0.167097f, 0.088826f, -0.138041f, -0.180602f,
    0.011264f, -0.010374f, 0.089940f, 0.115075f, -0.083722f, 0.202666f, 0.063274f, -0.133274f, 0.150717f, 0.118443f,
    0.214921f, -0.039757f, 0.136183f, -0.157729f, 0.065128f, 0.215799f, 0.125489f, 0.078747f, -0.037907f, 0.205173f,
    0.120579f, -0.044222f, -0.007140f, 0.166109f, -0.031523f, -0.153714f, 0.098936f, -0.063190f, -0.142661f, 0.213195f,
    -0.066743f, 0.059307f, 0.108912f, 0.118661f, -0.027454f, -0.174393f, -0.020261f, -0.132223f, 0.188576f, -0.177607f,
    0.091968f, 0.183519f, 0.116545f, -0.182888f, -0.203198f, 0.185659f, 0.117313f, -0.066745f, -0.064867f, 0.154090f,
    -0.124751f, -0.052754f, -0.191623f, 0.049746f, 0.099788f, 0.126787f, 0.021940f, -0.116938f, -0.169415f, -0.083281f,
    -0.187583f, -0.131915f, 0.003639f, 0.014678f, -0.164754f, -0.030737f, 0.136829f, -0.028574f, -0.126596f, -0.042539f,
    -0.142768f, 0.123923f, -0.093064f, 0.035829f, 0.138606f, 0.076918f, -0.004795f, 0.175419f, -0.140613f, 0.084083f,
    -0.211650f, -0.162672f, -0.139578f, 0.107375f, -0.184425f, 0.184943f, 0.124931f, -0.184085f, -0.165812f, -0.052048f,
    0.111646f, -0.191529f, 0.197747f, 0.060203f, -0.055428f, 0.058383f, 0.179306f, -0.025554f, 0.066366f, 0.136481f,
    -0.106421f, -0.055985f, -0.054155f, 0.108451f, 0.122885f, 0.214938f, -0.054266f, 0.130565f, -0.078370f, 0.114114f,
    0.190764f, 0.089932f, 0.001743f, -0.170547f, -0.181291f, -0.029235f, 0.138342f, 0.132310f, 0.032459f, -0.174127f,
    0.159224f, 0.148242f, -0.130887f, 0.027478f, 0.162011f, -0.003738f, -0.023147f, -0.026457f, 0.196466f, -0.164863f,
    0.160526f, 0.134958f, 0.056140f, -0.114819f, -0.030802f, -0.111219f, -0.045437f, -0.057754f, -0.029872f, -0.099390f,
    -0.166109f, 0.141121f, 0.109632f, -0.165675f, 0.190035f, 0.065429f, 0.013598f, -0.139799f, -0.003336f, -0.171070f,
    -0.032644f, -0.143303f, 0.173211f, -0.124648f, 0.110305f, -0.198380f, 0.114565f, 0.149072f, -0.070712f, -0.089332f,
    -0.052436f, 0.132363f, -0.193598f, 0.075339f, 0.055801f, 0.174164f, -0.070781f, 0.079513f, 0.090998f, -0.015789f,
    0.208937f, -0.051036f, -0.151372f, -0.013746f, 0.013327f, -0.071099f, 0.122095f, 0.023170f, -0.193832f, 0.064442f,
    -0.194949f, -0.006626f, -0.189459f, 0.108455f, 0.081536f, -0.157155f, 0.115893f, 0.161272f, 0.017789f, -0.019339f,
    0.085536f, -0.150682f, -0.007115f, -0.057662f, 0.214131f, 0.061491f, -0.079620f, -0.093635f, 0.033957f, 0.005888f,
    -0.071757f, 0.210067f, -0.182070f, 0.111812f, -0.128883f, -0.073549f, 0.144633f, 0.200719f, 0.104443f, 0.213080f,
    -0.158127f, 0.101991f, -0.042771f, 0.159918f, 0.080024f, 0.126737f, -0.132638f, 0.137480f, -0.198044f, -0.200600f,
    0.004498f, 0.114432f, -0.099961f, -0.095076f, -0.155102f, 0.205004f, 0.044256f, 0.032877f, -0.078427f, -0.190281f,
    0.079122f, -0.075770f, -0.044971f, -0.171714f, -0.130210f, 0.018606f, -0.110949f, -0.035620f, 0.098634f, -0.157717f,
    -0.053783f, 0.160384f, -0.190769f, 0.205931f, -0.047911f, -0.007030f, -0.090497f, -0.059127f, 0.032634f, -0.049247f,
    0.112191f, 0.206167f, -0.079216f, -0.183740f, 0.061817f, -0.184488f, -0.179480f, -0.185658f, 0.111595f, 0.092295f,
    0.126038f, -0.161512f, -0.208111f, 0.124577f, -0.142408f, -0.007762f, 0.095187f, -0.113415f, -0.195670f, 0.023148f,
    0.204079f, -0.192290f, -0.203799f, 0.153442f, 0.212722f, -0.115911f, 0.002233f, 0.149830f, 0.105582f, 0.145965f,
    -0.007550f, -0.112066f, -0.035243f, 0.092435f, 0.162619f, 0.007549f, -0.104842f, 0.121434f, -0.116262f, -0.190778f,
    0.085593f, -0.138776f, 0.151024f, 0.044125f, -0.142104f, -0.146810f, -0.173029f, 0.079228f, 0.084268f, -0.059114f,
    0.224294f, 0.004359f, 0.083141f, 0.101999f, -0.070837f, -0.095403f, -0.103756f, -0.137294f, -0.098434f, -0.214060f,
    -0.125605f, 0.030406f, 0.098406f, -0.002392f, -0.147078f, 0.027249f, -0.052022f, 0.122433f, 0.095732f, 0.152263f,
    0.164452f, 0.053589f, 0.156453f, 0.009868f, 0.194466f, -0.135483f, 0.101740f, -0.095975f, -0.089321f, 0.004482f,
    0.123084f, -0.008279f, -0.101749f, -0.166302f, 0.105473f, -0.009572f, -0.064328f, 0.180186f, 0.151082f, -0.097978f,
    -0.174916f, 0.107483f, -0.151537f, 0.050445f, 0.073710f, 0.052189f, 0.018323f, 0.059868f, 0.127495f, 0.022889f,
    -0.050310f, -0.045233f, -0.163702f, 0.016482f, 0.005459f, -0.179391f, -0.167100f, -0.144110f, 0.039966f, 0.169502f,
    0.041715f, -0.169614f, -0.135021f, 0.156671f, 0.026107f, -0.047231f, -0.039520f, -0.137093f, -0.160801f, -0.117208f,
    0.038614f, 0.064749f, 0.192699f, -0.004256f, 0.002116f, -0.113396f, 0.203202f, -0.131872f, -0.195474f, -0.052140f,
    0.067641f, -0.009514f, -0.201762f, 0.111262f, -0.109408f, -0.016024f, -0.026128f, -0.130797f, 0.000317f, -0.029841f,
    0.179196f, 0.041588f, 0.177449f, -0.042594f, 0.201541f, 0.024049f, 0.100750f, -0.095350f, 0.071289f, -0.197297f,
    0.021825f, -0.123556f, 0.113949f, 0.104301f, 0.200163f, 0.207577f, 0.141827f, 0.206037f, 0.050541f, 0.107105f,
    0.044920f, 0.143264f, 0.101249f, 0.120021f, -0.125961f, -0.214503f, 0.025284f, 0.121179f, -0.026762f, -0.025253f,
    -0.203558f, -0.079651f, -0.051418f, -0.103213f, 0.120663f, -0.165273f, 0.165809f, -0.168484f, -0.201823f, 0.021324f,
    -0.141044f, 0.036602f, 0.062976f, -0.202756f, -0.037410f, 0.190227f, -0.004261f, -0.078216f, -0.127994f, 0.152501f,
    0.154199f, -0.054610f, 0.146521f, -0.095611f, 0.083726f, 0.155776f, -0.082152f, 0.086664f, 0.082581f, -0.090360f,
    -0.152768f, -0.021883f, 0.017601f, 0.033859f, 0.041493f, 0.134109f, 0.090477f, 0.092991f, -0.087019f, 0.208783f,
    -0.102195f, 0.151126f, -0.111910f, 0.198495f, -0.205204f, 0.002189f, -0.061818f, 0.080218f, -0.030481f, -0.054693f,
    0.181262f, -0.098646f, 0.056306f, 0.039559f, 0.039730f, 0.182451f, 0.153641f, -0.064787f, -0.061449f, 0.023079f,
    0.084778f, -0.025017f, 0.179488f, -0.104782f, 0.187983f, -0.137598f, -0.033294f, 0.106036f, 0.138646f, -0.203556f,
    0.163546f, -0.131330f, -0.043903f, -0.039107f, -0.159210f, 0.151490f, -0.177013f, 0.021226f, -0.042693f, -0.034436f,
    0.020916f, 0.055421f, -0.178512f, 0.092400f, 0.182569f, -0.022760f, -0.061080f, 0.048570f, -0.202716f, 0.112036f,
    -0.203981f, -0.066200f, -0.102524f, -0.115588f, -0.007354f, -0.189520f, -0.045317f, 0.167587f, 0.043630f, -0.165367f,
    -0.152893f, 0.184335f, 0.125157f, -0.117798f, -0.045243f, 0.060042f, 0.113113f, -0.183033f, 0.083788f, 0.058151f,
    -0.040344f, -0.175866f, -0.112540f, -0.060932f, 0.162536f, -0.115719f, -0.064607f, -0.125719f, -0.163056f, 0.049385f,
    0.197007f, -0.099072f, -0.151850f, 0.107532f, 0.075783f, -0.197733f, 0.022251f, -0.209853f, -0.171876f, -0.099070f,
    0.091363f, -0.003798f, -0.158927f, 0.173450f, 0.031054f, 0.125337f, -0.211592f, 0.081803f, 0.071127f, 0.176066f,
    0.085035f, -0.112090f, -0.161139f, -0.083622f, -0.172554f, 0.092913f, 0.019801f, 0.199336f, 0.043705f, -0.160800f,
    0.205413f, -0.126394f, -0.138642f, -0.172909f, 0.193452f, -0.029633f, -0.155207f, 0.203158f, 0.137336f, 0.059014f,
    0.213230f, -0.111119f, 0.096595f, -0.054746f, -0.132906f, 0.128230f, 0.099954f, 0.008494f, -0.155108f, 0.071739f,
    -0.085134f, -0.009908f, 0.064052f, 0.180736f, 0.157438f, 0.018363f, 0.118601f, 0.114112f, 0.022542f, -0.178928f,
    -0.036109f, -0.104159f, -0.192654f, -0.020193f, -0.094720f, 0.049250f, 0.134673f, 0.202257f, 0.156093f, 0.187773f,
    0.181027f, 0.068407f, -0.009709f, -0.011290f, -0.153196f, 0.068472f, 0.129876f, -0.051999f, -0.121324f, 0.166299f,
    -0.043445f, -0.138935f, -0.103546f, 0.058912f, -0.153874f, -0.207471f, 0.167838f, -0.066370f, -0.194532f, -0.132970f,
    0.085942f, 0.019857f, 0.097957f, 0.191028f, -0.108541f, 0.123781f, 0.065473f, -0.067566f, -0.008220f, -0.095012f,
    0.099448f, -0.207664f, -0.078751f, -0.139009f, -0.091408f, 0.072115f, 0.151763f, 0.025701f, 0.083414f, -0.159169f,
    0.049156f, -0.107487f, -0.011062f, -0.071234f, -0.183403f, -0.190886f, -0.127885f, -0.156315f, 0.152700f, -0.136392f,
    -0.051520f, 0.125870f, 0.088439f, -0.175482f, -0.080985f, -0.016522f, -0.024439f, -0.057419f, -0.113165f, -0.129916f,
    0.116515f, 0.181626f, -0.117464f, -0.134568f, -0.196105f, 0.135185f, -0.120137f, -0.090967f, -0.140987f, -0.107620f,
    0.086490f, 0.071265f, -0.065820f, 0.160673f, -0.164608f, 0.061329f, 0.187104f, 0.118291f, -0.107077f, -0.023019f,
    0.057359f, 0.161098f, -0.159940f, 0.061344f, 0.158851f, -0.018122f, -0.153303f, 0.059417f, 0.135267f, -0.048597f,
    -0.110434f, -0.121387f, 0.120782f, -0.048803f, -0.182198f, 0.179156f, -0.138800f, -0.099981f, 0.190580f, 0.022623f,
    -0.047410f, -0.200098f, -0.048023f, 0.150130f, 0.091459f, 0.077028f, -0.064183f, -0.186000f, -0.063053f, 0.075529f,
    -0.032608f, 0.144147f, -0.118853f, 0.137009f, -0.013654f, -0.123967f, -0.152033f, -0.147796f, -0.135338f, 0.079484f,
    0.156887f, -0.001876f, -0.002464f, 0.198723f, -0.111483f, 0.079419f, -0.147164f, -0.152943f, 0.037326f, -0.111757f,
    -0.056637f, -0.185852f, 0.133384f, 0.148743f, -0.013905f, 0.210457f, -0.100414f, -0.027858f, 0.098034f, -0.177918f,
    -0.010366f, -0.140204f, -0.126395f, 0.012156f, 0.046846f, 0.140111f, -0.197100f, -0.080541f, -0.015519f, 0.100649f,
    0.062476f, 0.086576f, 0.017840f, -0.004847f, 0.119327f, 0.190095f, 0.116939f, -0.080109f, 0.207297f, 0.149831f,
    -0.128118f, 0.167784f, 0.062276f, 0.024961f, -0.188672f, 0.189534f, -0.153654f, -0.093543f, 0.072298f, -0.133790f,
    0.168576f, -0.130792f, -0.163346f, 0.053162f, 0.169337f, -0.088031f, 0.061308f, 0.157036f, 0.106175f, -0.006836f,
    -0.011778f, 0.194450f, 0.084221f, 0.074219f, 0.087761f, -0.050998f, -0.151421f, -0.122480f, -0.215323f, -0.101945f,
    0.011203f, -0.071868f, -0.091282f, 0.103516f, -0.115145f, -0.150612f, 0.104061f, 0.148614f, 0.039765f, 0.096830f,
    -0.205897f, -0.008395f, -0.170116f, 0.135959f, 0.215193f, -0.072709f, 0.060010f, -0.084483f, 0.159506f, -0.138975f,
    -0.062686f, 0.202827f, -0.048009f, 0.055851f, -0.002793f, 0.158446f, 0.090980f, -0.019395f, 0.017473f, 0.191135f,
    -0.088734f, 0.157487f, -0.082023f, 0.091530f, 0.193705f, 0.167033f, -0.174028f, -0.172224f, 0.066664f, 0.103033f,
    0.035225f, 0.021052f, -0.152295f, 0.058838f, -0.058459f, -0.098854f, 0.100957f, -0.145994f, 0.167227f, -0.046924f,
    -0.099873f, 0.092002f, 0.094166f, 0.099856f, -0.198564f, -0.013975f, -0.145214f, -0.193738f, 0.084781f, -0.078262f,
    -0.027772f, 0.063925f, 0.135925f, -0.039576f, -0.189177f, -0.122478f, -0.198012f, -0.039664f, 0.178838f, -0.091596f,
    -0.047390f, -0.008876f, -0.153441f, -0.177934f, 0.051047f, -0.157196f, 0.207041f, -0.058665f, 0.106833f, 0.077762f,
    0.164555f, -0.023084f, 0.025812f, -0.129105f, 0.072553f, -0.207307f, -0.058624f, -0.151735f, 0.181159f, 0.192091f,
    0.014503f, -0.142598f, -0.101113f, -0.183321f, -0.047995f, -0.146444f, 0.090402f, 0.208394f, 0.216390f, 0.200822f,
    0.177943f, 0.168762f, 0.055306f, -0.063714f, -0.142593f, 0.084496f, 0.197815f, -0.122341f, 0.031189f, -0.082806f,
    0.038742f, 0.049653f, -0.110363f, 0.076860f, -0.143204f, -0.100939f, -0.197582f, -0.167519f, 0.046770f, -0.094799f,
    0.009856f, 0.146496f, -0.074085f, 0.189235f, -0.005938f, 0.215101f, -0.044637f, 0.176558f, 0.216355f, 0.029484f,
    -0.071278f, 0.013524f, -0.164540f, -0.196248f, -0.136986f, 0.151715f, 0.111309f, -0.092361f, 0.039541f, -0.029890f,
    -0.115814f, 0.194029f, 0.047121f, -0.035159f, -0.192949f, 0.120576f, 0.195633f, -0.170181f, -0.167233f, -0.196240f,
    -0.094804f, 0.125347f, 0.148934f, 0.183172f, -0.117395f, 0.209057f, -0.087986f, -0.203924f, -0.004331f, 0.156356f,
    -0.003492f, 0.166496f, -0.194196f, 0.033843f, 0.006024f, 0.062081f, 0.146047f, -0.060272f, -0.168665f, 0.072027f,
    0.096105f, -0.198704f, -0.200198f, 0.059549f, -0.200782f, -0.111396f, -0.159146f, 0.066336f, -0.024964f, 0.175078f,
    -0.131123f, 0.006073f, 0.150129f, 0.023494f, -0.079893f, 0.146382f, -0.190086f, -0.133149f, -0.183634f, 0.009101f,
    0.118491f, -0.023438f, -0.051546f, 0.204279f, -0.111301f, -0.154981f, 0.079347f, 0.132122f, -0.025290f, -0.010004f,
    0.172318f, 0.134233f, -0.004731f, 0.038728f, 0.122238f, -0.067326f, -0.084978f, 0.112432f, -0.140549f, 0.194813f,
    -0.199908f, 0.207455f, 0.186347f, 0.127149f, -0.024228f, -0.087032f, 0.175973f, -0.164247f, 0.007392f, -0.126553f,
    -0.155516f, -0.046419f, -0.079214f, 0.095992f, 0.193165f, 0.178580f, -0.076182f, -0.027184f, -0.202355f, 0.166030f,
    -0.027597f, 0.184083f, 0.116444f, -0.077470f, 0.201407f, 0.054750f, -0.119847f, -0.076390f, 0.093972f, -0.086104f,
    -0.111077f, 0.099482f, -0.169627f, -0.102467f, -0.110591f, -0.204223f, 0.027748f, -0.164053f, 0.118172f, -0.090988f,
    0.193969f, 0.052462f, 0.062912f, 0.104090f, 0.162114f, 0.173462f, 0.068842f, 0.176648f, 0.121225f, 0.125531f,
    -0.114485f, 0.011207f, 0.036846f, 0.160952f, -0.072434f, 0.145769f, 0.070458f, -0.166462f, 0.120528f, 0.091904f,
    -0.126150f, -0.196262f, -0.088066f, 0.193290f, -0.089147f, 0.068616f, -0.159489f, -0.162141f, 0.111864f, 0.142003f,
    0.140118f, 0.016103f, -0.093430f, 0.075242f, 0.109918f, -0.007492f, 0.128061f, 0.032576f, 0.033415f, -0.039369f,
    0.039725f, 0.021955f, -0.010198f, 0.000955f, -0.062645f, -0.021850f, -0.182798f, -0.071619f, 0.119402f, 0.194508f,
    -0.204835f, 0.209249f, -0.089682f, 0.214815f, -0.114867f, 0.126087f, 0.181412f, -0.069269f, 0.139930f, 0.119453f,
    -0.146617f, 0.063446f, 0.039675f, -0.164442f, 0.191731f, -0.031148f, -0.042081f, 0.125893f, -0.193704f, -0.004312f,
    0.037007f, -0.048359f, -0.166110f, 0.205796f, 0.069674f, -0.066692f, 0.211676f, -0.007729f, 0.020703f, -0.212758f,
    0.186507f, -0.005585f, -0.020268f, -0.041679f, -0.081265f, -0.177808f, -0.114883f, 0.093121f, 0.159163f, -0.095684f,
    -0.058390f, -0.150651f, -0.019253f, 0.050043f, 0.005388f, 0.178672f, -0.163491f, 0.047203f, -0.039359f, 0.176865f,
    -0.044281f, 0.213140f, 0.022790f, 0.206374f, -0.136316f, -0.079766f, 0.121347f, 0.088093f, 0.105131f, 0.037476f,
    -0.096582f, -0.168566f, 0.144145f, -0.105859f, 0.195629f, -0.113414f, 0.125126f, 0.128653f, -0.129343f, -0.169626f,
    0.094511f, -0.163441f, 0.028460f, -0.019880f, -0.112928f, -0.080036f, -0.133650f, -0.056127f, -0.205046f, -0.173928f,
    -0.130553f, -0.086313f, 0.035601f, 0.115184f, 0.143227f, 0.178317f, 0.090260f, -0.006797f, -0.036662f, 0.145558f,
    -0.007583f, 0.190244f, -0.042762f, 0.005093f, 0.123131f, -0.215005f, -0.083398f, -0.173707f, -0.012631f, -0.041832f,
    -0.065387f, -0.063127f, -0.163672f, 0.084591f, -0.063357f, 0.112652f, 0.018526f, -0.162267f, -0.024363f, -0.076410f,
    0.189245f, 0.173886f, -0.135017f, 0.047026f, 0.137315f, -0.154948f, 0.197924f, -0.021029f, -0.193459f, 0.130713f,
    0.085401f, -0.067169f, 0.015886f, 0.026343f, 0.040197f, -0.132791f, -0.114506f, -0.173201f, 0.198238f, -0.115789f,
    -0.207754f, -0.016159f, 0.102067f, -0.129380f, 0.165250f, 0.132249f, -0.078580f, -0.034532f, 0.168784f, -0.144174f,
    -0.207643f, -0.125369f, -0.078807f, -0.179980f, -0.187759f, -0.175664f, 0.103898f, 0.131616f, -0.157588f, -0.103400f,
    0.203361f, 0.095723f, -0.069038f, 0.147848f, -0.096273f, 0.056351f, 0.014148f, -0.002227f, -0.045304f, 0.173307f,
    -0.152572f, 0.022483f, 0.176493f, 0.087951f, -0.214421f, -0.063933f, 0.067869f, 0.059301f, -0.093338f, -0.102427f,
    -0.189735f, 0.091726f, 0.043860f, -0.043050f, 0.102044f, -0.157687f, -0.036089f, -0.072516f, 0.100738f, -0.046585f,
    0.160648f, 0.207360f, 0.127192f, -0.202853f, 0.053684f, 0.123999f, 0.215562f, 0.134199f, 0.214440f, 0.059140f,
    0.071314f, -0.184492f, 0.071653f, 0.106307f, -0.182499f, 0.173064f, 0.128838f, -0.107382f, 0.017166f, 0.012028f,
    0.001682f, 0.111123f, -0.128384f, -0.205707f, 0.057672f, -0.177322f, -0.056013f, 0.123048f, 0.152634f, 0.061390f,
    0.144581f, -0.105811f, 0.157837f, -0.196134f, 0.197477f, -0.111086f, 0.134173f, 0.099595f, 0.022754f, 0.064891f,
    0.105500f, 0.137887f, 0.170212f, -0.096804f, 0.038640f, 0.160522f, -0.115613f, -0.050879f, 0.077126f, 0.203143f,
    0.017470f, -0.078996f, -0.151070f, -0.110900f, -0.134714f, -0.025300f, 0.056417f, 0.170978f, 0.192044f, 0.090537f,
    0.006673f, 0.063446f, -0.112278f, -0.062130f, 0.195262f, 0.109297f, -0.213942f, -0.006234f, -0.186197f, 0.050254f,
    -0.096482f, -0.144268f, -0.163956f, 0.164784f, -0.123153f, -0.181398f, -0.028664f, 0.108782f, -0.057951f, 0.133290f,
    0.091619f, -0.008894f, 0.128706f, -0.113164f, -0.043993f, -0.064177f, 0.029445f, 0.169251f, -0.118098f, -0.136825f,
    0.199590f, 0.069382f, 0.212130f, 0.137756f, -0.073692f, -0.117398f, 0.144749f, 0.046885f, -0.100555f, 0.185561f,
    0.055075f, -0.182327f, -0.209956f, -0.068694f, -0.200071f, 0.069087f, -0.214251f, -0.189323f, 0.162246f, 0.102722f,
    0.180317f, 0.083344f, 0.169377f, 0.041633f, -0.043953f, 0.177303f, 0.012089f, 0.115177f, -0.208717f, -0.154739f,
    -0.127648f, 0.001724f, 0.197284f, -0.181305f, 0.026349f, -0.139398f, 0.031532f, -0.096891f, -0.102389f, 0.215293f,
    -0.165449f, -0.070919f, 0.090039f, -0.184226f, -0.063163f, -0.107069f, 0.080396f, 0.189013f, 0.013950f, -0.166765f,
    0.083865f, -0.090347f, -0.067874f, -0.013037f, 0.035541f, -0.114936f, 0.182601f, 0.072864f, 0.003889f, 0.010373f,
    0.208200f, -0.075709f, 0.156784f, -0.050616f, 0.044479f, 0.009360f, 0.205109f, -0.216490f, -0.151209f, 0.212938f,
    0.123576f, 0.025324f, -0.019823f, -0.035244f, 0.055704f, 0.086663f, -0.061809f, -0.058162f, 0.136079f, 0.049223f,
    0.059021f, 0.108807f, -0.197052f, 0.143194f, 0.046306f, 0.020230f, -0.078501f, -0.032496f, 0.040402f, -0.148573f,
    -0.037787f, -0.033043f, -0.022622f, -0.140421f, 0.068066f, -0.147113f, 0.172288f, 0.086506f, -0.193049f, 0.059102f,
    -0.074109f, -0.082924f, 0.022316f, 0.214676f, -0.115543f, -0.193505f, 0.079664f, 0.126824f, -0.190504f, -0.042240f,
    -0.031596f, -0.193893f, 0.083579f, 0.176886f, -0.100611f, 0.120361f, 0.076215f, -0.001034f, 0.035916f, -0.173596f,
    0.019943f, -0.063879f, -0.164253f, -0.065133f, -0.086271f, 0.063349f, -0.176838f, -0.021933f, -0.077383f, -0.090645f,
    -0.082951f, -0.032129f, 0.042752f, -0.137089f, -0.200626f, 0.129586f, -0.038667f, 0.151829f, -0.178621f, 0.090093f,
    0.087803f, -0.000188f, 0.095267f, -0.121635f, -0.042426f, 0.159587f, 0.001273f, -0.091232f, -0.023890f, 0.167368f,
    0.055840f, -0.106082f, -0.076436f, -0.018779f, -0.129849f, 0.107798f, -0.037604f, 0.154845f, -0.208949f, 0.096547f,
    0.044049f, -0.139438f, -0.085149f, -0.038549f, -0.131933f, 0.029509f, 0.157410f, 0.106028f, 0.022258f, -0.198541f,
    0.123834f, 0.176819f, 0.077296f, 0.206712f, 0.166518f, -0.027727f, 0.199596f, -0.207832f, 0.108132f, 0.085940f,
    0.174931f, -0.049941f, 0.149996f, -0.003027f, 0.184425f, 0.064866f, 0.128703f, -0.039058f, 0.116805f, -0.115587f,
    0.139711f, 0.213428f, -0.005026f, -0.044598f, -0.118137f, 0.059263f, -0.150893f, -0.163433f, 0.179208f, -0.214759f,
    0.046884f, -0.081517f, 0.205492f, -0.045553f, 0.070605f, 0.044840f, 0.076435f, -0.151142f, 0.213534f, 0.157633f,
    0.107957f, 0.047342f, 0.109450f, 0.006347f, 0.161886f, 0.036151f, 0.023928f, 0.094838f, -0.061764f, 0.078102f,
    -0.171347f, -0.003264f, 0.060747f, -0.112783f, -0.080946f, -0.129925f, -0.159564f, 0.210339f, 0.073871f, 0.213751f,
    0.193318f, -0.121241f, 0.000322f, 0.018529f, -0.136525f, -0.160091f, -0.138025f, 0.145754f, 0.119686f, 0.169349f,
    0.152102f, -0.120409f, 0.103417f, -0.107530f, -0.014133f, 0.035515f, 0.061269f, -0.206028f, -0.041043f, -0.199089f,
    -0.161385f, 0.210935f, -0.091523f, -0.151801f, 0.102564f, 0.188491f, 0.167805f, -0.001658f, 0.166826f, 0.059666f,
    0.028483f, -0.136243f, 0.212166f, 0.181705f, 0.047653f, 0.124143f, 0.017827f, -0.137791f, -0.215459f, -0.180349f,
    -0.160695f, 0.131287f, -0.075282f, 0.011960f, 0.162304f, -0.126563f, 0.070299f, 0.115579f, 0.186324f, 0.014728f,
    -0.058458f, 0.039773f, 0.122035f, -0.016960f, 0.162796f, 0.164344f, 0.208588f, 0.156697f, 0.021548f, -0.193470f,
    -0.082078f, 0.144873f, -0.044174f, -0.190468f, -0.126777f, -0.014981f, 0.116367f, -0.116430f, -0.062446f, 0.124392f,
    0.042126f, 0.046922f, 0.095399f, 0.097496f, -0.111351f, -0.110901f, 0.004796f, 0.213789f, 0.208591f, -0.096934f,
    -0.063761f, -0.001771f, -0.015997f, -0.130678f, -0.138276f, -0.140664f, -0.018524f, -0.096539f, 0.194508f, -0.082050f,
    0.136148f, 0.186884f, -0.110091f, -0.065879f, -0.188576f, 0.164710f, -0.156298f, 0.009625f, 0.181537f, -0.042880f,
    -0.004101f, -0.063705f, -0.091172f, 0.122565f, -0.053303f, 0.019466f, 0.209232f, 0.205319f, 0.105814f, -0.148114f,
    0.119710f, 0.078288f, 0.159644f, -0.026489f, -0.167566f, 0.208176f, -0.182128f, 0.065689f, 0.157464f, -0.200474f,
    0.114379f, -0.032524f, -0.080653f, -0.059340f, -0.034512f, 0.214895f, 0.060331f, 0.103861f, 0.060590f, 0.111839f,
    -0.048762f, -0.107416f, 0.032876f, -0.079694f, 0.035491f, 0.100772f, -0.152835f, 0.004637f, 0.057815f, 0.121885f,
    0.172503f, 0.139843f, -0.085225f, -0.044053f, -0.006105f, 0.206919f, 0.105470f, -0.050250f, 0.119617f, 0.098756f,
    -0.150211f, 0.067674f, -0.027129f, -0.148481f, 0.008567f, 0.081706f, -0.009461f, -0.085066f, 0.090092f, -0.014016f,
    -0.087246f, -0.105467f, -0.162718f, -0.086290f, -0.130399f, -0.169972f, -0.185838f, -0.164787f, -0.169181f, -0.103686f,
    0.090174f, 0.173690f, -0.143241f, 0.192119f, -0.198058f, -0.201619f, 0.139353f, -0.108278f, 0.140516f, 0.014175f,
    0.168614f, -0.066046f, -0.192711f, -0.085183f, -0.205499f, 0.210337f, -0.135500f, 0.067024f, -0.120448f, -0.100527f,
    0.073807f, 0.129048f, -0.074225f, -0.019167f, 0.131942f, -0.165204f, 0.156543f, 0.100976f, -0.043295f, 0.041885f,
    -0.085757f, 0.035709f, 0.084565f, 0.035463f, 0.015239f, 0.184066f, -0.034378f, -0.027484f, -0.014535f, 0.038443f,
    -0.000802f, -0.154755f, -0.203728f, 0.197139f, 0.209467f, -0.124674f, 0.202493f, -0.121720f, -0.114556f, -0.161794f,
    -0.181226f, 0.117036f, 0.036907f, -0.055591f, -0.054121f, 0.006339f, 0.085858f, -0.143080f, -0.103220f, 0.147066f,
    0.129035f, -0.160442f, 0.171289f, 0.190268f, -0.166157f, 0.174694f, 0.175038f, -0.086052f, -0.111341f, 0.199189f,
    -0.043737f, -0.186608f, 0.075431f, 0.162942f, 0.085191f, 0.146074f, 0.132677f, -0.172098f, 0.158285f, -0.209230f,
    0.145558f, 0.148476f, -0.088561f, 0.079741f, 0.004810f, -0.196748f, 0.154793f, 0.142530f, 0.028782f, 0.075989f,
    0.092951f, 0.131528f, 0.006870f, 0.051155f, 0.039320f, 0.027092f, 0.162217f, 0.077370f, -0.154827f, 0.022112f,
    0.203935f, 0.069412f, -0.140997f, 0.152566f, 0.212737f, 0.015289f, 0.181963f, 0.148729f, 0.008951f, 0.065669f,
    -0.100001f, -0.197421f, 0.014122f, 0.152857f, -0.009580f, -0.001480f, -0.109834f, -0.061283f, 0.182468f, -0.180355f,
    0.028427f, 0.042205f, -0.195129f, 0.048121f, 0.109701f, 0.098684f, 0.036925f, 0.170871f, -0.091270f, -0.088878f,
    0.133311f, 0.178372f, -0.036685f, 0.160448f, 0.212887f, -0.200644f, 0.115834f, 0.042563f, -0.092601f, -0.034741f,
    -0.125033f, -0.025220f, 0.124795f, 0.082020f, -0.106126f, 0.178661f, -0.189670f, -0.173498f, -0.125725f, 0.082147f,
    -0.110430f, -0.074493f, 0.209728f, -0.136738f, -0.119591f, 0.164615f, 0.126177f, 0.040064f, 0.108743f, 0.074018f,
    0.195668f, 0.115618f, 0.075275f, -0.126185f, 0.065242f, -0.089740f, 0.059521f, -0.199965f, -0.031773f, 0.008665f,
    -0.175437f, -0.019141f, -0.108498f, -0.000368f, -0.096373f, -0.128063f, 0.211131f, -0.108945f, -0.069198f, -0.034872f,
    0.186191f, 0.002334f, 0.012147f, 0.060469f, 0.119596f, -0.132805f, -0.140610f, -0.050722f, -0.061113f, -0.020073f,
    0.144487f, 0.161569f, -0.102767f, -0.172367f, 0.149520f, -0.144811f, -0.006606f, -0.065773f, 0.135196f, 0.169204f,
    -0.028443f, 0.171017f, 0.009866f, 0.155585f, 0.108409f, 0.210616f, -0.209221f, -0.151629f, -0.079411f, -0.059688f,
    -0.155190f, -0.056799f, 0.054237f, -0.214878f, 0.083426f, -0.049517f, -0.111841f, 0.103398f, -0.193967f, 0.083616f,
    -0.128442f, -0.093245f, -0.013321f, -0.136739f, 0.128725f, 0.058542f, 0.125876f, -0.080134f, 0.207011f, -0.009953f,
    0.120813f, 0.108537f, -0.188565f, 0.098092f, 0.162130f, -0.171400f, 0.046180f, 0.011622f, -0.066483f, 0.129673f,
    0.143962f, 0.023346f, -0.168215f, -0.158650f, -0.168311f, -0.197618f, -0.083413f, -0.022490f, 0.075894f, -0.067323f,
    0.119274f, 0.097189f, -0.155963f, -0.125195f, -0.152338f, 0.195322f, 0.056295f, 0.212848f, 0.058514f, -0.129244f,
    0.065184f, 0.038304f, -0.028353f, -0.158306f, -0.033124f, 0.204425f, 0.158603f, -0.102949f, 0.020123f, -0.099875f,
    -0.007659f, -0.092111f, 0.134241f, -0.178786f, -0.007139f, -0.137335f, 0.026956f, -0.118473f, -0.061209f, -0.214363f,
    -0.145043f, 0.093900f, 0.139323f, -0.061196f, 0.006088f, -0.081499f, -0.175640f, 0.094977f, 0.116917f, -0.046835f,
    0.037980f, -0.139203f, -0.045865f, -0.209787f, 0.146082f, 0.048803f, 0.158600f, -0.047461f, -0.063393f, 0.063786f,
    0.063440f, 0.065430f, -0.190580f, -0.075159f, -0.215660f, -0.054135f, -0.199498f, 0.024813f, -0.026665f, 0.022627f,
    -0.067121f, -0.140163f, -0.186890f, -0.034677f, -0.103059f, -0.086504f, -0.173506f, 0.203081f, -0.124703f, -0.114967f,
    0.021728f, 0.037175f, -0.061089f, -0.015942f, -0.121892f, 0.002313f, 0.153499f, -0.135244f, 0.155661f, 0.089401f,
    -0.022095f, 0.112519f, 0.020691f, 0.185368f, -0.017123f, -0.114732f, 0.083995f, -0.089256f, -0.153095f, -0.032240f,
    0.159273f, 0.002679f, -0.022493f, -0.030943f, 0.215783f, 0.203991f, 0.201802f, 0.146608f, -0.211149f, 0.062357f,
    0.044912f, 0.189104f, -0.178779f, -0.037253f, -0.040067f, -0.033175f, 0.212680f, -0.104337f, -0.054661f, -0.131206f,
    -0.117750f, 0.140808f, -0.197018f, 0.061176f, -0.056902f, -0.100144f, -0.205714f, 0.134126f, 0.211097f, -0.071449f,
    -0.092730f, 0.063550f, -0.177407f, -0.169730f, 0.024850f, -0.063643f, -0.114617f, -0.170872f, 0.141781f, -0.216364f,
    0.203207f, -0.138766f, -0.151994f, -0.069880f, 0.105816f, -0.131158f, -0.107373f, 0.018592f, 0.060136f, 0.173084f,
    0.125588f, -0.173388f, -0.149517f, 0.155456f, 0.005484f, 0.121831f, -0.113816f, -0.027443f, -0.163632f, 0.035321f,
    0.122545f, 0.138142f, -0.155029f, -0.073256f, -0.180461f, 0.152144f, 0.103869f, -0.108782f, 0.195435f, -0.112362f,
    -0.177519f, 0.031625f, 0.010154f, 0.163705f, -0.148948f, 0.122700f, -0.206931f, 0.048141f, 0.167935f, 0.134898f,
    -0.201593f, -0.088030f, -0.149162f, 0.069352f, 0.087935f, 0.148885f, 0.120251f, 0.019586f, 0.001109f, -0.183501f,
    0.166906f, -0.209827f, 0.093878f, -0.148500f, -0.190211f, 0.169844f, 0.135775f, -0.104884f, -0.168524f, 0.078272f,
    0.012717f, 0.162345f, -0.121565f, -0.092473f, 0.118093f, -0.132675f, -0.027678f, 0.048267f, -0.171607f, 0.165011f,
    -0.005918f, -0.107707f, 0.098229f, 0.064404f, 0.173322f, 0.006483f, 0.093455f, 0.203219f, 0.028918f, -0.085320f,
    0.042549f, -0.180393f, 0.116325f, 0.185049f, -0.063708f, 0.058103f, -0.110758f, -0.169651f, 0.058024f, 0.063762f,
    -0.009939f, 0.051048f, 0.144496f, 0.116635f, -0.190268f, 0.108503f, -0.027489f, 0.025944f, -0.158190f, 0.162147f,
    -0.034095f, -0.054832f, -0.032566f, -0.131834f, -0.045617f, -0.022706f, -0.150807f, -0.203397f, 0.083726f, 0.023914f,
    -0.211170f, 0.100143f, 0.132419f, -0.094742f, 0.139213f, -0.203945f, -0.101860f, -0.187295f, -0.186255f, 0.031712f,
    0.113418f, -0.047753f, -0.215546f, -0.182605f, -0.181772f, -0.194514f, 0.135547f, -0.142430f, 0.188236f, -0.107963f,
    0.041647f, -0.209113f, 0.046055f, -0.141434f, 0.173276f, 0.084058f, 0.057683f, 0.104242f, 0.184026f, 0.160831f,
    0.150673f, 0.181204f, -0.186892f, 0.120637f, -0.048523f, 0.108348f, -0.091793f, 0.083327f, -0.085829f, -0.003289f,
    0.017960f, -0.066771f, 0.126815f, -0.131715f, -0.071434f, 0.192683f, -0.186480f, 0.054309f, -0.066719f, -0.104938f,
    0.198370f, 0.002297f, -0.130629f, -0.030413f, 0.034779f, 0.203350f, -0.026579f, -0.181438f, 0.132992f, 0.058536f,
    0.037678f, -0.087128f, -0.065187f, 0.147540f, -0.202798f, 0.025974f, -0.084740f, 0.205417f, -0.096657f, -0.152041f,
    -0.129996f, -0.027092f, -0.026126f, -0.081972f, 0.152607f, -0.123266f, -0.042652f, -0.154213f, -0.025762f, -0.030620f,
    -0.109250f, -0.203381f, -0.161438f, -0.201535f, -0.010023f, 0.211107f, -0.001195f, -0.121543f, 0.096044f, -0.148800f,
    0.057094f, -0.169036f, -0.183222f, -0.178901f, 0.008575f, -0.024267f, 0.142600f, 0.126664f, 0.015965f, 0.129237f,
    0.011737f, 0.129191f, -0.167496f, -0.052687f, -0.192680f, 0.045040f, -0.139308f, -0.211965f, 0.003647f, -0.056429f,
    0.191016f, -0.104666f, 0.216296f, -0.020430f, 0.025380f, -0.171983f, 0.191350f, -0.109296f, -0.186980f, 0.006278f,
    -0.183179f, -0.051846f, 0.175457f, -0.132154f, -0.016282f, -0.201111f, -0.082653f, 0.147342f, -0.075010f, -0.092698f,
    -0.146307f, -0.106559f, -0.120035f, 0.084590f, 0.166731f, 0.118773f, -0.133325f, 0.162618f, 0.001708f, -0.016574f,
    -0.044962f, 0.068738f, -0.079788f, 0.146247f, -0.153140f, 0.100641f, -0.196625f, 0.210922f, 0.185565f, 0.011321f,
    0.116733f, -0.009184f, 0.052149f, -0.053216f, -0.052045f, 0.116860f, 0.179658f, -0.134046f, -0.038248f, -0.018446f,
    -0.056348f, -0.101905f, 0.062087f, -0.112892f, -0.119517f, -0.127446f, -0.080783f, 0.034891f, 0.003156f, -0.028850f,
    -0.141698f, 0.100745f, -0.060740f, -0.160655f, -0.046317f, -0.013489f, 0.179336f, 0.096230f, -0.022041f, 0.183508f,
    -0.037217f, 0.145121f, 0.044671f, -0.137100f, 0.078176f, 0.146734f, 0.109577f, 0.181119f, -0.110322f, -0.058193f,
    0.055284f, 0.109123f, -0.000334f, -0.213021f, 0.032325f, 0.121178f, 0.049668f, -0.124260f, 0.017072f, 0.103021f,
    -0.112532f, 0.029688f, 0.027432f, -0.130887f, 0.160839f, -0.154660f, -0.170971f, 0.124362f, 0.215235f, -0.048975f,
    -0.046892f, -0.152758f, -0.002652f, 0.207102f, 0.125401f, -0.112298f, -0.216105f, -0.065244f, -0.151061f, -0.189310f,
    0.097194f, -0.131540f, -0.171300f, 0.123856f, 0.046477f, 0.102046f, 0.126722f, 0.185186f, -0.186834f, -0.067174f,
    0.030833f, -0.150311f, -0.106480f, -0.126548f, 0.104630f, -0.076617f, 0.142538f, -0.102377f, 0.196388f, -0.173919f,
    -0.134479f, -0.177754f, 0.091615f, 0.215760f, -0.183705f, -0.038150f, 0.024394f, -0.107103f, 0.078885f, 0.028754f,
    0.028546f, -0.127670f, 0.142804f, 0.201606f, -0.184645f, -0.186742f, -0.025301f, -0.108872f, 0.194872f, 0.086298f,
    -0.131636f, -0.101047f, -0.055638f, -0.152413f, 0.095179f, -0.174300f, -0.031449f, -0.160312f, -0.102876f, -0.106986f,
    0.176762f, 0.041419f, 0.001653f, 0.207278f, -0.184465f, 0.099170f, 0.031925f, 0.055581f, -0.195457f, 0.114389f,
    0.212838f, 0.090008f, -0.189153f, -0.095190f, 0.063935f, 0.148377f, 0.051422f, 0.037214f, 0.035983f, 0.036220f,
    0.079896f, -0.021922f, -0.053476f, -0.029389f, 0.031350f, -0.214404f, -0.175181f, 0.182302f, 0.178879f, 0.058259f,
    -0.042486f, 0.109833f, 0.166675f, -0.128535f, -0.017786f, -0.207083f, -0.027118f, 0.170606f, 0.109065f, 0.119810f,
    0.195168f, 0.028332f, 0.206822f, 0.140798f, 0.058397f, 0.170378f, -0.015968f, 0.195614f, 0.189586f, -0.200697f,
    0.184805f, 0.068170f, -0.144703f, -0.015302f, -0.054298f, 0.195691f, -0.155397f, 0.066719f, -0.150971f, -0.196949f,
    -0.100120f, 0.095002f, 0.116407f, 0.038888f, 0.177070f, 0.069277f, 0.018669f, -0.181882f, 0.084444f, 0.214531f,
    0.198706f, 0.041177f, 0.207778f, -0.114898f, -0.139765f, 0.204014f, 0.150777f, -0.130743f, 0.023487f, 0.009857f,
    -0.103915f, -0.128982f, -0.198388f, -0.107272f, -0.066465f, -0.097551f, 0.079052f, 0.078693f, 0.078742f, 0.127647f,
    -0.054088f, -0.144820f, -0.033042f, -0.044739f, -0.201893f, 0.149908f, -0.110989f, -0.084090f, 0.121826f, 0.146493f,
    -0.033747f, 0.105959f, -0.146879f, 0.167368f, -0.182088f, 0.128566f, 0.088403f, 0.188849f, -0.111585f, 0.191233f,
    0.123173f, -0.077149f, 0.076870f, 0.006519f, -0.132860f, -0.211398f, -0.083700f, 0.160403f, -0.131065f, 0.021106f,
    0.099450f, 0.102678f, 0.172581f, 0.172516f, -0.201663f, 0.074892f, 0.065863f, 0.089777f, -0.012026f, -0.039414f,
    0.107459f, -0.112239f, -0.041345f, -0.208378f, 0.109905f, 0.026449f, 0.068874f, 0.065741f, -0.213014f, 0.162071f,
    0.027825f, 0.033229f, 0.039565f, 0.024553f, -0.108966f, 0.045443f, 0.063805f, -0.003092f, 0.029575f, 0.198425f,
    -0.195992f, 0.087572f, -0.161916f, -0.122903f, -0.212755f, -0.022388f, -0.056059f, 0.139285f, 0.164673f, 0.193553f,
    -0.114209f, -0.203353f, -0.121669f, -0.135254f, -0.174247f, -0.024879f, 0.128802f, -0.121591f, 0.170241f, -0.027051f,
    0.007741f, -0.127381f, 0.123615f, -0.055924f, 0.198583f, 0.062575f, 0.131872f, 0.183901f, 0.081065f, 0.118684f,
    -0.156044f, 0.048828f, 0.178185f, 0.090185f, -0.208499f, 0.054299f, -0.168681f, -0.090975f, 0.196578f, 0.036758f,
    -0.152308f, -0.000482f, -0.211867f, 0.012644f, -0.031716f, -0.171139f, -0.131612f, 0.203468f, -0.083632f, 0.208373f,
    -0.059207f, -0.019272f, -0.005887f, 0.017163f, 0.009921f, 0.018360f, -0.189172f, -0.065341f, -0.069222f, -0.203621f,
    -0.005172f, 0.108319f, -0.176873f, 0.210477f, 0.190122f, 0.064379f, 0.079651f, -0.052395f, -0.046872f, -0.024875f,
    0.109594f, 0.165153f, -0.150282f, -0.118417f, -0.114570f, -0.081831f, -0.121486f, -0.203032f, -0.056791f, -0.007158f,
    -0.007140f, 0.034188f, 0.040317f, 0.188610f, -0.019836f, -0.080841f, -0.054269f, -0.195013f, -0.062021f, 0.003913f,
    -0.163996f, 0.102659f, 0.044158f, -0.004521f, -0.110587f, -0.039604f, -0.162796f, -0.154896f, 0.038188f, -0.067424f,
    0.060167f, 0.140683f, 0.014632f, -0.054179f, 0.056245f, 0.158339f, 0.097641f, 0.135515f, -0.001438f, 0.002454f,
    -0.157803f, -0.013417f, -0.176262f, 0.199381f, -0.066201f, -0.150268f, -0.012235f, -0.026971f, -0.128455f, -0.038180f,
    0.215734f, -0.204439f, 0.163333f, -0.102708f, -0.056502f, 0.111046f, -0.078780f, -0.089977f, -0.111277f, 0.016918f,
    -0.141223f, 0.166882f, 0.079766f, -0.076656f, 0.072566f, -0.168836f, -0.175930f, 0.009640f, 0.079268f, 0.067864f,
    0.054890f, 0.140975f, -0.119582f, -0.063427f, -0.102378f, 0.057307f, 0.013263f, 0.093172f, -0.091302f, 0.064397f,
    -0.205495f, 0.151947f, -0.057876f, -0.025090f, -0.009052f, 0.014985f, 0.134491f, 0.160977f, 0.059952f, -0.083737f,
    -0.144928f, -0.169324f, 0.204737f, 0.175226f, -0.207574f, -0.207753f, 0.023372f, -0.180442f, -0.103910f, -0.160600f,
    0.091236f, 0.170087f, -0.060780f, 0.138714f, 0.144473f, 0.005444f, -0.162022f, 0.130898f, 0.100287f, -0.096683f,
    0.022162f, 0.148691f, -0.126482f, 0.060236f, 0.194067f, 0.131009f, -0.045871f, -0.145129f, -0.024591f, -0.159292f,
    0.121481f, -0.031027f, 0.089675f, 0.037363f, -0.034905f, 0.006009f, 0.087507f, 0.036134f, 0.139910f, 0.138807f,
    -0.189170f, -0.062733f, -0.196041f, 0.022004f, -0.122576f, 0.097001f, 0.076838f, -0.163832f, 0.064039f, 0.037017f,
    -0.103134f, -0.205991f, -0.004805f, 0.076512f, -0.175167f, -0.131234f, 0.116865f, 0.035264f, 0.106931f, -0.186842f,
    -0.093266f, 0.115990f, -0.074652f, 0.079998f, -0.054691f, 0.116042f, -0.021732f, 0.187365f, 0.000821f, 0.130097f,
    0.191708f, -0.017924f, 0.015510f, -0.041444f, 0.048671f, 0.118800f, 0.000000f, 0.000000f, 0.000000f, 0.000000f,
    0.000000f, 0.000000f, 0.000000f, 0.000000f, 0.000000f, 0.000000f, 0.000000f, -0.000000f, 0.000000f, 0.000000f,
    0.000000f, -0.000000f, 0.000000f, 0.000000f, 0.000000f, 0.000000f, 0.000000f, 0.000000f, -0.000000f, 0.000000f,
    0.000000f, 0.000000f, 0.000000f, -0.000000f, 0.000000f, 0.000000f, 0.000000f, 0.000000f, -0.000000f, -0.000000f,
    0.000000f, 0.000000f, 0.000000f, -0.000000f, 0.000000f, 0.000000f, 0.000000f, -0.000000f, 0.000000f, 0.000000f,
    0.000000f, -0.000000f, 0.000000f, -0.000000f, 0.000000f, 0.000000f, 0.000000f, 0.000000f, 0.000000f, 0.000000f,
    -0.000000f, 0.000000f, -0.000000f, -0.000000f, -0.000000f, -0.000000f, 0.000000f, 0.000000f, 0.000000f, 0.000000f,
    -0.022489f, 0.098136f, 0.001675f, 0.039695f, -0.023303f, 0.044341f, 0.073040f, -0.044264f, -0.025635f, 0.087057f,
    -0.061458f, 0.068058f, 0.058896f, 0.053822f, -0.081610f, 0.035017f, -0.001089f, 0.040523f, -0.073632f, 0.093662f,
    -0.036281f, -0.023120f, -0.051025f, -0.024156f, 0.027953f, -0.020076f, 0.060212f, 0.043117f, -0.008107f, 0.091147f,
    0.006517f, 0.009769f, -0.086302f, 0.017903f, 0.041783f, 0.075333f, -0.058868f, 0.009286f, -0.077642f, -0.074693f,
    0.021124f, 0.038815f, 0.066837f, -0.098344f, -0.073792f, 0.054536f, -0.087885f, 0.029699f, 0.010051f, -0.085809f,
    0.089746f, 0.068954f, -0.096531f, 0.058444f, -0.010073f, 0.076739f, -0.057053f, -0.071123f, 0.097557f, -0.031926f,
    0.055319f, -0.091838f, 0.031275f, -0.050097f, -0.055735f, -0.031305f, -0.063605f, -0.051215f, 0.032123f, -0.040079f,
    -0.006558f, -0.092002f, 0.091518f, 0.086545f, -0.070408f, -0.022743f, 0.076671f, -0.005916f, -0.027272f, 0.012372f,
    0.062516f, -0.074449f, -0.066394f, 0.073477f, -0.098026f, 0.032429f, 0.011900f, 0.047192f, -0.089345f, -0.068400f,
    0.024668f, -0.019844f, 0.088564f, -0.095315f, 0.043372f, -0.057909f, 0.013841f, 0.041886f, -0.089888f, -0.044352f,
    -0.082586f, 0.054151f, 0.021538f, 0.101083f, 0.087387f, -0.065511f, -0.073570f, -0.040150f, -0.020369f, -0.033490f,
    -0.015406f, 0.026772f, 0.054046f, -0.019083f, -0.059928f, -0.005834f, 0.067602f, 0.081683f, 0.002915f, 0.035176f,
    0.078306f, 0.010027f, -0.000010f, -0.000108f, -0.086501f, -0.090116f, 0.051382f, 0.012845f, 0.011216f, 0.017118f,
    -0.007679f, 0.026309f, 0.092205f, 0.042616f, -0.098374f, 0.019520f, -0.008354f, 0.098222f, -0.036773f, -0.014480f,
    -0.040206f, -0.052066f, 0.063880f, -0.072772f, 0.045639f, -0.058352f, 0.027253f, -0.032372f, 0.009032f, -0.099527f,
    0.087496f, -0.053915f, 0.087139f, 0.097911f, -0.036953f, 0.011238f, 0.100377f, -0.062417f, 0.061100f, 0.029193f,
    -0.039046f, -0.072992f, 0.065972f, -0.078514f, 0.012454f, -0.071040f, 0.032134f, 0.085221f, -0.040572f, 0.029385f,
    0.015437f, 0.046862f, -0.097972f, 0.024347f, 0.046376f, 0.022536f, 0.084292f, 0.083912f, -0.061077f, -0.086120f,
    -0.026762f, -0.036426f, -0.035955f, 0.045309f, 0.074004f, 0.075627f, 0.080700f, 0.098859f, 0.062114f, -0.058960f,
    -0.081853f, -0.049413f, 0.045045f, 0.096731f, -0.007791f, 0.054979f, 0.090477f, -0.088863f, 0.064088f, -0.014897f,
    0.015567f, -0.029626f, -0.047975f, -0.030313f, -0.030654f, 0.098812f, -0.041611f, 0.004445f, -0.076587f, -0.064528f,
    -0.001528f, 0.057239f, -0.021837f, -0.075917f, -0.028875f, -0.036554f, -0.046097f, 0.067487f, 0.039236f, 0.026227f,
    -0.075455f, -0.077713f, -0.088046f, -0.034627f, 0.096791f, -0.026194f, 0.096666f, 0.071914f, -0.017252f, 0.067065f,
    0.030096f, -0.001294f, 0.022600f, -0.004507f, -0.014229f, -0.007686f, 0.005670f, -0.062548f, -0.025713f, -0.098817f,
    0.028993f, 0.081727f, 0.015176f, -0.046705f, 0.048551f, -0.095536f, 0.048771f, -0.069222f, 0.086241f, 0.100575f,
    -0.048613f, -0.068485f, -0.006729f, -0.023609f, -0.069760f, -0.047602f, -0.022124f, -0.031768f, 0.049013f, -0.045412f,
    0.088158f, -0.014366f, -0.036849f, -0.065087f, 0.033803f, -0.010658f, -0.036032f, -0.029581f, -0.028639f, -0.035278f,
    -0.062000f, -0.068465f, -0.095145f, 0.078027f, 0.022691f, 0.031462f, -0.057081f, -0.011295f, -0.023981f, -0.084703f,
    -0.006769f, 0.038119f, -0.004179f, -0.028884f, -0.094060f, -0.096856f, 0.090756f, 0.034458f, -0.100162f, 0.096433f,
    0.081228f, 0.021466f, -0.079267f, -0.071434f, -0.046896f, 0.081606f, 0.032948f, 0.020539f, 0.031082f, 0.041176f,
    0.019778f, -0.040259f, 0.013899f, 0.000788f, 0.059882f, -0.056438f, 0.008830f, -0.000251f, -0.094160f, 0.041700f,
    0.074371f, -0.043195f, -0.099655f, 0.092161f, -0.076931f, 0.039457f, 0.003204f, -0.094258f, 0.015725f, -0.005301f,
    -0.013219f, -0.041640f, 0.071725f, -0.010818f, -0.098083f, -0.036656f, 0.063834f, 0.061707f, -0.042555f, -0.040920f,
    -0.027668f, -0.039436f, 0.032436f, -0.022106f, 0.050010f, 0.001251f, 0.083095f, -0.046027f, 0.050685f, 0.101305f,
    0.083788f, 0.006843f, 0.069992f, 0.025606f, -0.014402f, 0.058532f, 0.018390f, 0.084046f, 0.026137f, -0.044901f,
    -0.070103f, -0.010613f, -0.035079f, 0.092697f, -0.051726f, -0.000783f, -0.008730f, 0.032838f, 0.018655f, 0.050511f,
    -0.000480f, -0.085360f, 0.004078f, -0.052766f, -0.086466f, -0.046312f, -0.096355f, 0.079355f, 0.067171f, 0.014313f,
    0.018259f, -0.091083f, 0.087176f, -0.095424f, -0.035926f, 0.022625f, -0.065804f, 0.076509f, -0.084387f, -0.020905f,
    0.089759f, 0.094566f, -0.082905f, -0.041262f, -0.082822f, -0.031986f, -0.092381f, 0.099727f, -0.013643f, 0.066131f,
    -0.078147f, -0.013248f, 0.062476f, -0.008037f, -0.092385f, -0.084470f, 0.059688f, 0.020990f, 0.031691f, -0.096804f,
    0.071925f, -0.092314f, -0.011785f, -0.014674f, 0.092586f, -0.029246f, 0.060531f, -0.076321f, -0.094413f, 0.040031f,
    -0.045133f, -0.073141f, -0.063548f, -0.006094f, 0.064915f, 0.015088f, -0.092913f, -0.038597f, 0.072654f, 0.041408f,
    -0.099609f, 0.053918f, -0.055727f, -0.062426f, 0.100376f, 0.052551f, -0.012369f, -0.001050f, -0.005110f, 0.035655f,
    -0.093995f, 0.019826f, -0.052228f, -0.002242f, -0.019956f, 0.064724f, -0.053446f, -0.065236f, -0.064324f, 0.086096f,
    0.057292f, -0.045212f, -0.060238f, -0.002714f, 0.064334f, 0.064856f, 0.040243f, 0.023741f, 0.013299f, -0.065854f,
    0.088437f, -0.025094f, 0.042989f, -0.069395f, 0.072425f, 0.000863f, -0.038479f, -0.096340f, 0.076739f, 0.027293f,
    0.026567f, -0.052616f, 0.026314f, -0.077741f, 0.033702f, -0.021158f, -0.023715f, 0.032348f, 0.037014f, 0.054376f,
    -0.086783f, 0.065676f, 0.097247f, -0.018311f, 0.016122f, 0.032413f, -0.059734f, -0.063093f, 0.037075f, -0.076000f,
    -0.075090f, 0.059367f, 0.087256f, -0.086501f, 0.093399f, 0.080578f, -0.003958f, -0.096280f, -0.034099f, 0.070076f,
    0.016083f, 0.055647f, -0.067233f, -0.100739f, 0.053761f, -0.094350f, -0.045401f, 0.032440f, -0.047958f, 0.064232f,
    0.046270f, 0.072920f, 0.058114f, -0.034409f, 0.032998f, 0.062085f, 0.001921f, 0.018231f, -0.026238f, -0.058340f,
    -0.009905f, 0.053381f, -0.019271f, 0.003467f, 0.022233f, -0.020617f, -0.030436f, 0.020028f, -0.081073f, -0.073108f,
    -0.101225f, 0.053192f, 0.040069f, -0.045159f, 0.006346f, 0.064604f, 0.042211f, -0.061846f, 0.032657f, 0.010233f,
    0.062090f, 0.085793f, 0.036141f, -0.010073f, 0.054595f, 0.095128f, -0.086173f, -0.089444f, -0.099401f, -0.036802f,
    -0.002493f, 0.003309f, 0.000602f, 0.100099f, 0.053891f, 0.031290f, -0.037766f, 0.077048f, -0.040647f, -0.058994f,
    -0.024923f, -0.078380f, 0.067298f, -0.079214f, -0.045607f, -0.077100f, 0.001546f, 0.022302f, 0.022297f, -0.094831f,
    -0.081243f, 0.086164f, 0.044957f, 0.027700f, 0.056048f, 0.010277f, 0.063050f, -0.057935f, -0.085110f, -0.074694f,
    -0.053001f, 0.014326f, -0.008976f, -0.036703f, 0.063248f, -0.026462f, -0.077235f, -0.000853f, 0.018987f, -0.037631f,
    -0.077511f, 0.067630f, 0.051783f, -0.083492f, 0.014405f, -0.074651f, 0.004199f, -0.071012f, 0.005080f, 0.089165f,
    0.072081f, 0.018329f, 0.076138f, -0.065979f, -0.072136f, -0.075372f, -0.056461f, 0.031723f, 0.095305f, 0.003355f,
    0.065555f, 0.044553f, 0.042087f, -0.002418f, -0.092901f, 0.090548f, 0.066785f, -0.049852f, 0.072944f, -0.028226f,
    0.051437f, 0.063747f, -0.017986f, 0.072828f, -0.029865f, 0.030547f, 0.063235f, 0.019099f, -0.030424f, -0.098829f,
    0.049867f, 0.032649f, 0.029454f, 0.000044f, -0.022028f, -0.066826f, -0.039035f, 0.047647f, 0.099302f, -0.064823f,
    0.073556f, 0.000299f, -0.052287f, -0.077507f, 0.097553f, -0.029591f, -0.056181f, 0.020538f, -0.083419f, 0.086499f,
    -0.022415f, 0.098498f, -0.072145f, 0.046854f, 0.030047f, -0.023878f, -0.031884f, 0.034007f, -0.023032f, -0.054400f,
    0.081854f, -0.009130f, -0.030556f, -0.081273f, 0.004671f, -0.038563f, -0.067756f, 0.080344f, 0.011193f, -0.072449f,
    -0.001228f, 0.052833f, -0.092919f, 0.060442f, 0.006285f, -0.041062f, -0.095318f, 0.020346f, -0.060530f, 0.057355f,
    0.086041f, 0.074591f, 0.059497f, -0.060214f, -0.063743f, -0.053713f, 0.096168f, -0.057801f, 0.022090f, 0.079935f,
    0.086802f, 0.080869f, 0.031611f, -0.015920f, 0.047603f, 0.099887f, 0.054648f, 0.062938f, -0.051108f, 0.062393f,
    -0.042753f, -0.059357f, 0.099611f, -0.004669f, 0.053830f, 0.088264f, -0.089327f, 0.031561f, 0.066314f, -0.067713f,
    0.043080f, 0.005123f, -0.073676f, 0.020767f, -0.065528f, -0.100224f, 0.072565f, 0.100535f, -0.018324f, -0.094308f,
    0.023596f, 0.017620f, -0.029727f, 0.076341f, 0.028320f, -0.048553f, -0.012100f, 0.017273f, -0.063200f, 0.096636f,
    -0.020292f, -0.062546f, -0.033343f, 0.012113f, 0.056435f, 0.041541f, 0.087679f, 0.045594f, 0.065364f, -0.010057f,
    -0.018694f, 0.068218f, -0.093066f, -0.099483f, 0.038360f, -0.086649f, 0.013726f, 0.035271f, -0.024960f, 0.034152f,
    -0.079009f, -0.046062f, -0.028228f, -0.045170f, -0.054541f, 0.021109f, -0.008206f, -0.008411f, 0.006667f, -0.053381f,
    -0.046992f, -0.099053f, -0.010673f, -0.052614f, 0.080510f, -0.083908f, -0.043260f, 0.077381f, 0.002867f, 0.028432f,
    0.066796f, 0.086185f, -0.035095f, 0.010410f, 0.059341f, 0.027520f, -0.005116f, 0.092401f, -0.065142f, 0.047169f,
    -0.019975f, -0.057713f, 0.091991f, -0.019044f, -0.031898f, 0.064895f, -0.000037f, 0.075343f, 0.015426f, 0.014676f,
    0.004694f, -0.076186f, 0.101819f, -0.022415f, -0.054927f, 0.025526f, 0.040555f, 0.061375f, -0.073729f, -0.098324f,
    -0.047704f, -0.052003f, 0.091685f, 0.029833f, -0.096026f, 0.015244f, 0.052046f, -0.030466f, 0.091056f, 0.044668f,
    -0.077884f, -0.040011f, 0.066053f, -0.082618f, -0.098450f, 0.012920f, -0.099584f, -0.044660f, -0.010361f, -0.032918f,
    -0.071197f, 0.063404f, -0.038822f, -0.084290f, 0.100107f, -0.046226f, -0.078900f, 0.017324f, -0.060934f, -0.069175f,
    -0.075212f, -0.078368f, -0.071670f, 0.000273f, 0.036127f, 0.043001f, 0.090836f, -0.019125f, -0.094200f, -0.041123f,
    0.085451f, 0.031333f, -0.039429f, 0.038334f, -0.100171f, 0.090325f, 0.023549f, 0.067452f, 0.004011f, 0.068303f,
    0.050565f, 0.048062f, -0.074876f, -0.047420f, 0.034016f, 0.065135f, -0.015514f, 0.026980f, -0.038607f, -0.068371f,
    -0.075854f, -0.073416f, 0.004113f, -0.047870f, 0.035365f, 0.063269f, 0.009796f, 0.085492f, 0.099969f, -0.075604f,
    0.022024f, -0.004449f, 0.075821f, 0.040041f, -0.026303f, -0.013623f, 0.071835f, 0.051367f, -0.034035f, -0.024623f,
    -0.081748f, -0.038303f, 0.044240f, 0.006433f, -0.063183f, -0.046412f, 0.081847f, 0.038827f, 0.089337f, 0.093789f,
    -0.036299f, 0.075532f, -0.029410f, 0.036604f, -0.042005f, -0.026758f, 0.076259f, 0.040352f, 0.023730f, 0.008296f,
    -0.040471f, 0.050941f, 0.028478f, 0.049861f, 0.009110f, 0.058522f, -0.037643f, -0.035521f, -0.094202f, -0.078252f,
    0.036433f, 0.059133f, -0.014702f, -0.047972f, -0.010508f, 0.037783f, -0.062870f, 0.047544f, -0.075410f, 0.046065f,
    0.066641f, -0.036620f, 0.080498f, 0.005513f, -0.042011f, 0.093274f, 0.083101f, -0.060142f, 0.045114f, 0.046487f,
    0.013985f, 0.092433f, -0.068002f, 0.062951f, -0.049237f, 0.094966f, 0.023353f, 0.016393f, 0.042437f, -0.047109f,
    -0.005822f, 0.099028f, 0.000344f, 0.078433f, -0.067875f, -0.063994f, 0.032213f, -0.030197f, -0.073088f, -0.013744f,
    -0.053578f, -0.062057f, -0.034853f, 0.057079f, 0.012661f, 0.011440f, -0.051061f, 0.059279f, 0.017458f, 0.071860f,
    -0.042815f, -0.059030f, -0.031159f, 0.076730f, 0.095796f, 0.079906f, -0.066757f, 0.057455f, 0.039777f, 0.085578f,
    -0.063499f, -0.002386f, 0.092564f, 0.033849f, 0.061109f, 0.055964f, -0.012862f, 0.065093f, -0.093603f, -0.064418f,
    -0.080378f, -0.076130f, 0.085012f, -0.018645f, 0.036073f, -0.086516f, -0.037942f, 0.093987f, -0.018501f, -0.013960f,
    0.099711f, 0.028580f, 0.002262f, -0.100219f, 0.068503f, -0.100283f, 0.038146f, -0.005665f, -0.038620f, -0.003362f,
    0.057139f, -0.032155f, 0.090827f, 0.088255f, -0.029837f, -0.050367f, 0.079866f, -0.043415f, 0.072935f, -0.058212f,
    -0.015598f, 0.028266f, -0.056317f, 0.067656f, -0.055821f, 0.015255f, -0.082458f, -0.029256f, -0.050133f, 0.067243f,
    0.000740f, 0.089872f, 0.096949f, -0.071569f, 0.085886f, 0.032467f, 0.082639f, -0.061270f, -0.100328f, -0.008484f,
    -0.097720f, 0.069319f, 0.040544f, 0.022405f, 0.016321f, -0.074582f, -0.079423f, -0.022515f, 0.027231f, 0.037011f,
    0.025078f, -0.022206f, 0.099119f, 0.019395f, -0.094130f, -0.009955f, 0.006014f, 0.003347f, 0.022810f, 0.050789f,
    0.056844f, -0.081207f, 0.062874f, 0.043667f, -0.066678f, 0.015274f, -0.050979f, -0.069629f, 0.047666f, 0.044321f,
    0.026629f, -0.079623f, 0.046307f, 0.059958f, 0.028816f, -0.101690f, -0.089352f, -0.022307f, 0.032782f, -0.101730f,
    -0.066418f, -0.019646f, -0.032507f, -0.058670f, 0.057555f, -0.090790f, 0.056888f, -0.085623f, 0.077694f, -0.043795f,
    0.030742f, 0.036085f, -0.090554f, 0.037379f, 0.002958f, -0.031047f, 0.029314f, 0.084128f, 0.004477f, 0.064541f,
    0.067715f, 0.080792f, 0.042945f, -0.064950f, 0.006786f, -0.082598f, 0.004604f, -0.082523f, -0.030834f, 0.080132f,
    -0.063964f, -0.092280f, -0.058166f, 0.006433f, 0.004756f, 0.089283f, -0.057730f, -0.045593f, 0.066393f, -0.088351f,
    0.033776f, -0.008694f, -0.000375f, 0.006889f, -0.009507f, -0.061990f, 0.077007f, 0.095093f, -0.057959f, 0.063823f,
    0.048835f, -0.009696f, 0.022366f, 0.093287f, 0.088931f, -0.076677f, -0.027352f, 0.086360f, -0.031555f, 0.042231f,
    -0.041610f, -0.088017f, -0.015260f, -0.033216f, -0.101409f, 0.067995f, -0.032640f, -0.007054f, -0.027108f, -0.080023f,
    -0.013499f, -0.024674f, 0.056806f, -0.021032f, -0.074673f, 0.069312f, 0.062558f, -0.057409f, 0.073037f, -0.074700f,
    0.097647f, -0.090166f, -0.074769f, 0.047507f, 0.064443f, 0.084370f, -0.102041f, -0.078338f, -0.029085f, -0.025088f,
    0.075613f, -0.067752f, -0.023850f, 0.029124f, 0.053355f, -0.087178f, -0.074085f, -0.099332f, -0.010497f, -0.087022f,
    0.035742f, -0.018042f, -0.016800f, -0.067045f, 0.076794f, -0.063384f, 0.058425f, -0.009548f, 0.010488f, 0.072541f,
    0.057387f, 0.053197f, -0.068879f, 0.055856f, -0.014439f, 0.085089f, 0.049727f, -0.056482f, 0.056583f, 0.002982f,
    -0.033257f, -0.074004f, -0.011313f, -0.019502f, 0.009407f, -0.008915f, -0.013555f, -0.035201f, -0.053743f, -0.013834f,
    0.016099f, 0.046854f, -0.054002f, -0.027552f, -0.039537f, 0.048600f, 0.007017f, 0.023133f, 0.059924f, -0.048989f,
    0.032655f, 0.008394f, -0.009391f, 0.012561f, 0.045195f, -0.032200f, 0.048845f, -0.007964f, -0.095633f, 0.027323f,
    0.026015f, -0.070584f, -0.098778f, -0.022814f, 0.024755f, 0.062279f, -0.016017f, 0.100629f, -0.064046f, 0.051011f,
    -0.018431f, -0.056996f, -0.058527f, -0.019427f, -0.055684f, 0.061362f, -0.047313f, 0.018491f, -0.096096f, 0.071542f,
    0.024440f, -0.088597f, 0.074351f, 0.000001f, 0.032605f, -0.086966f, 0.057628f, -0.090463f, 0.005965f, -0.084906f,
    0.047851f, -0.029561f, -0.052694f, -0.025234f, 0.048482f, 0.100499f, 0.098206f, -0.075510f, 0.073127f, -0.035562f,
    -0.071970f, -0.026757f, 0.048315f, -0.005757f, 0.052841f, -0.017277f, -0.086272f, 0.011287f, 0.058848f, 0.076970f,
    0.062487f, -0.055951f, 0.089811f, 0.088319f, -0.075043f, 0.015813f, -0.024572f, -0.089451f, -0.019494f, -0.060700f,
    0.063380f, 0.019031f, -0.076234f, -0.024479f, 0.082073f, 0.029491f, -0.083027f, 0.056223f, -0.011133f, 0.051732f,
    0.010167f, -0.093756f, -0.051267f, -0.081666f, -0.063484f, 0.037074f, -0.094939f, 0.041119f, -0.004084f, -0.087293f,
    -0.013455f, -0.086602f, -0.023169f, -0.034294f, 0.089896f, 0.072865f, -0.018971f, 0.059589f, -0.016318f, 0.014084f,
    -0.054220f, -0.028074f, -0.085529f, -0.002342f, 0.078320f, 0.031182f, 0.083215f, -0.048171f, -0.006447f, -0.032063f,
    0.001495f, 0.047018f, -0.051496f, -0.062166f, -0.050750f, 0.068276f, -0.047815f, 0.086608f, -0.026974f, 0.058432f,
    0.084286f, 0.051207f, 0.041927f, -0.062379f, 0.045087f, -0.099780f, 0.054836f, -0.015546f, -0.062167f, -0.093253f,
    0.050176f, 0.014110f, -0.045800f, -0.063996f, 0.018676f, 0.002535f, 0.101947f, 0.093419f, 0.050992f, -0.026443f,
    -0.024033f, -0.000451f, 0.042592f, 0.084792f, 0.095086f, -0.042898f, 0.015005f, 0.055703f, -0.018856f, -0.043074f,
    0.021191f, 0.044786f, 0.019496f, 0.053647f, 0.088448f, 0.024250f, -0.035123f, -0.033221f, 0.043915f, 0.005688f,
    0.073859f, -0.088577f, 0.045639f, -0.100094f, -0.010930f, -0.100559f, 0.004015f, 0.045000f, 0.006179f, 0.084520f,
    -0.040411f, 0.011097f, 0.093543f, 0.044123f, -0.084031f, 0.069232f, 0.089294f, 0.023417f, -0.055034f, 0.023698f,
    -0.047021f, 0.092910f, -0.072933f, -0.087640f, -0.059700f, -0.056721f, -0.063283f, -0.058091f, -0.058857f, -0.012717f,
    0.041063f, 0.060646f, 0.056145f, 0.083681f, -0.045999f, -0.041410f, 0.071442f, 0.026247f, 0.028047f, 0.035297f,
    -0.071310f, 0.018060f, -0.040437f, 0.082425f, 0.045893f, 0.011853f, -0.034860f, -0.045153f, -0.045611f, 0.099257f,
    0.036589f, -0.039396f, -0.091407f, -0.010663f, 0.067894f, 0.064965f, -0.033960f, -0.044930f, -0.071125f, -0.008990f,
    -0.017363f, -0.057184f, -0.033517f, -0.099167f, 0.064385f, 0.057463f, 0.038142f, -0.032852f, -0.092628f, 0.056663f,
    0.007887f, -0.071414f, 0.044256f, 0.017395f, -0.022029f, -0.014971f, 0.043115f, -0.093760f, 0.009572f, -0.082739f,
    0.020369f, 0.081630f, -0.039017f, 0.035040f, -0.080780f, -0.032775f, 0.068426f, 0.030171f, 0.089344f, 0.083186f,
    -0.001892f, 0.072010f, -0.025916f, 0.085606f, 0.067195f, 0.076690f, 0.029319f, 0.019934f, 0.100722f, -0.096676f,
    0.026588f, 0.015829f, -0.016800f, 0.032822f, -0.081809f, -0.015696f, 0.058545f, -0.065961f, 0.021384f, 0.096277f,
    0.021067f, -0.015071f, -0.036469f, 0.085524f, 0.028175f, 0.099161f, -0.025129f, -0.079909f, 0.060668f, -0.034775f,
    -0.027950f, -0.011413f, -0.085028f, -0.002976f, 0.062193f, -0.050372f, -0.038676f, -0.006286f, 0.076766f, 0.087429f,
    0.083205f, 0.056152f, 0.073352f, 0.093203f, 0.069912f, -0.078164f, -0.029109f, -0.079204f, -0.080547f, 0.068354f,
    0.010947f, 0.098760f, 0.097772f, -0.090076f, 0.043882f, 0.054591f, -0.086173f, -0.009104f, 0.047973f, -0.043982f,
    0.086031f, 0.020343f, -0.062334f, -0.041616f, 0.038185f, -0.048302f, 0.053350f, 0.029581f, 0.040705f, 0.089840f,
    0.083254f, 0.066218f, 0.081593f, -0.026700f, 0.028462f, 0.016709f, 0.087343f, 0.099052f, -0.084056f, 0.095056f,
    0.052876f, -0.009031f, 0.016463f, 0.054086f, -0.001320f, 0.083751f, -0.025840f, 0.040883f, -0.034368f, 0.062512f,
    0.049459f, 0.093252f, -0.088971f, -0.083765f, 0.062979f, 0.059454f, -0.011351f, 0.011625f, 0.028828f, -0.001526f,
    0.036781f, 0.094638f, 0.098928f, -0.001774f, 0.031163f, 0.073668f, 0.090974f, -0.080991f, -0.010183f, 0.007704f,
    0.069095f, 0.093961f, 0.052682f, 0.018504f, 0.063360f, -0.035018f, 0.033202f, 0.011354f, 0.026956f, 0.099728f,
    0.002544f, -0.080408f, 0.056092f, -0.040895f, -0.090509f, -0.096483f, 0.029357f, -0.029319f, 0.006796f, -0.043884f,
    0.079685f, 0.042273f, -0.027291f, 0.071739f, -0.045516f, 0.052399f, -0.025750f, 0.003904f, -0.042430f, 0.055976f,
    0.014825f, -0.074522f, 0.041730f, -0.025826f, -0.096580f, 0.090605f, -0.095992f, -0.007573f, 0.082770f, -0.030617f,
    0.073055f, -0.045898f, 0.034876f, 0.095040f, 0.054797f, 0.075895f, 0.004317f, 0.028762f, 0.037181f, -0.006445f,
    0.050474f, -0.018820f, 0.017096f, 0.006722f, 0.011915f, -0.099533f, 0.099862f, -0.017642f, 0.085383f, 0.043571f,
    0.087689f, 0.072904f, 0.096436f, -0.094086f, 0.075253f, -0.014792f, -0.086101f, -0.027529f, 0.023291f, -0.097395f,
    -0.034046f, 0.073701f, -0.021857f, -0.043476f, 0.047140f, -0.093092f, -0.060367f, 0.068616f, -0.082831f, -0.022670f,
    -0.005133f, -0.042010f, 0.046779f, -0.093964f, -0.027144f, -0.008198f, 0.092915f, -0.004071f, 0.044631f, -0.025967f,
    0.013140f, 0.038287f, -0.079570f, -0.059146f, -0.096501f, 0.001361f, 0.009937f, 0.033449f, -0.044099f, -0.036139f,
    0.013572f, 0.065844f, 0.079328f, -0.039796f, 0.067838f, -0.075241f, 0.042999f, -0.034742f, 0.007409f, 0.101523f,
    0.092982f, 0.036032f, -0.016302f, -0.092625f, 0.026386f, 0.073718f, -0.020151f, -0.040550f, 0.047672f, -0.031152f,
    0.043351f, -0.077900f, -0.043078f, -0.028319f, -0.085496f, -0.022001f, 0.097710f, -0.013197f, -0.016807f, -0.037327f,
    -0.082158f, -0.088111f, 0.009247f, 0.062596f, -0.033784f, -0.064357f, -0.081699f, -0.027538f, -0.062987f, 0.040137f,
    0.031663f, 0.004279f, 0.004701f, -0.040596f, -0.088044f, 0.003102f, 0.093568f, 0.015632f, 0.012173f, 0.044089f,
    0.083683f, 0.003750f, -0.064648f, -0.033699f, -0.002920f, -0.083094f, 0.083892f, -0.012122f, 0.010321f, -0.017056f,
    0.086215f, 0.101046f, -0.022494f, -0.072087f, -0.089109f, 0.036798f, -0.069999f, 0.066645f, 0.036908f, -0.034272f,
    0.053323f, -0.086654f, 0.063736f, -0.022281f, -0.101068f, -0.049688f, 0.036226f, -0.018069f, -0.055971f, -0.019951f,
    0.087147f, 0.015767f, -0.084745f, -0.089461f, 0.006633f, -0.081516f, -0.083525f, 0.056679f, 0.038032f, 0.033003f,
    0.092940f, -0.003204f, -0.008595f, -0.090171f, -0.052767f, -0.040707f, 0.016627f, -0.021304f, -0.030338f, -0.067482f,
    -0.080343f, -0.005092f, 0.078103f, -0.042840f, -0.014263f, -0.052127f, 0.097759f, 0.019913f, -0.018502f, -0.075005f,
    -0.081068f, 0.062571f, 0.064927f, -0.032786f, 0.000484f, -0.011484f, -0.067086f, 0.032745f, 0.001107f, 0.005143f,
    0.033640f, -0.058841f, -0.018208f, -0.076298f, -0.086199f, -0.027810f, 0.098854f, 0.015204f, -0.089756f, 0.042346f,
    -0.070716f, 0.075016f, -0.090560f, -0.098405f, -0.000328f, 0.049430f, -0.008291f, -0.004255f, 0.049190f, 0.098852f,
    -0.090443f, 0.042613f, -0.045070f, -0.061646f, -0.031960f, -0.051105f, 0.043433f, 0.005745f, -0.071212f, -0.100442f,
    0.059932f, 0.042741f, -0.079571f, 0.081146f, -0.018974f, 0.011284f, 0.045014f, 0.049540f, -0.082919f, -0.033622f,
    -0.075372f, -0.029586f, 0.099395f, 0.062492f, -0.078915f, 0.068861f, -0.062961f, 0.006138f, 0.035787f, 0.002361f,
    0.087858f, -0.048575f, -0.013976f, -0.053790f, 0.027230f, -0.060792f, -0.077053f, 0.006355f, 0.072375f, -0.020591f,
    -0.058551f, -0.067305f, 0.002342f, 0.033455f, 0.010150f, -0.017687f, 0.076665f, 0.088313f, -0.030989f, 0.013294f,
    -0.078297f, 0.035020f, 0.101666f, 0.008576f, -0.087890f, 0.097689f, -0.020093f, -0.039414f, -0.067886f, -0.099944f,
    -0.015283f, 0.043976f, -0.046086f, -0.035282f, 0.064832f, -0.098468f, 0.041324f, 0.050491f, 0.090505f, 0.097356f,
    0.066465f, -0.049721f, 0.064380f, -0.005256f, 0.000061f, -0.069718f, -0.017154f, -0.052342f, 0.048394f, -0.069505f,
    0.003970f, 0.089032f, -0.059447f, -0.027553f, -0.093726f, 0.059720f, -0.051285f, 0.016544f, -0.092161f, 0.031156f,
    0.088886f, -0.056667f, -0.035560f, -0.023656f, 0.062139f, -0.088687f, 0.030824f, 0.058049f, 0.002069f, -0.087624f,
    -0.024442f, -0.044074f, -0.010557f, 0.017393f, -0.061242f, 0.037457f, -0.003688f, -0.018268f, 0.067617f, -0.090760f,
    0.082161f, -0.062449f, 0.035250f, -0.096350f, 0.023821f, -0.030531f, 0.092348f, -0.050118f, 0.079084f, 0.064359f,
    -0.096343f, 0.020121f, -0.039283f, -0.101184f, -0.064891f, -0.047368f, 0.095036f, 0.077775f, 0.019994f, 0.101149f,
    -0.064735f, -0.014848f, -0.069899f, -0.033135f, -0.055015f, -0.021094f, -0.068972f, -0.088696f, -0.019341f, -0.040374f,
    0.071112f, 0.066648f, 0.003281f, -0.027344f, -0.003329f, 0.050423f, -0.073025f, -0.037576f, -0.054000f, 0.009222f,
    0.073079f, -0.066053f, 0.036341f, 0.023897f, 0.039312f, 0.061143f, 0.067697f, 0.025053f, -0.093302f, -0.070634f,
    0.087760f, 0.062972f, -0.070099f, 0.027778f, 0.027278f, 0.068325f, -0.054733f, -0.018563f, -0.028284f, 0.055300f,
    -0.070842f, -0.097565f, 0.092656f, -0.097918f, 0.041985f, -0.034425f, 0.026893f, 0.023201f, -0.030708f, 0.073686f,
    -0.068314f, 0.072217f, -0.083055f, -0.067032f, -0.036866f, -0.025515f, 0.060942f, 0.021838f, 0.059858f, -0.039733f,
    0.009930f, -0.061319f, -0.068389f, -0.014863f, -0.060255f, 0.002105f, -0.082460f, -0.033559f, 0.085032f, 0.043785f,
    0.006960f, -0.075904f, 0.007793f, 0.036318f, -0.034747f, 0.001349f, 0.051878f, 0.050330f, 0.019525f, 0.073598f,
    0.059391f, 0.012952f, 0.044903f, -0.046372f, -0.019527f, -0.075993f, -0.068289f, -0.006720f, -0.008677f, 0.071181f,
    0.097746f, 0.064864f, 0.050640f, 0.010931f, 0.082239f, 0.015124f, -0.048554f, 0.059892f, 0.074729f, -0.005418f,
    -0.042360f, 0.101096f, 0.060623f, 0.054976f, -0.036657f, -0.011828f, -0.086466f, 0.004830f, 0.011131f, 0.050374f,
    -0.002522f, -0.099696f, -0.041358f, 0.042550f, -0.094876f, -0.068766f, 0.000935f, 0.059734f, -0.063025f, -0.087478f,
    -0.072653f, -0.053936f, 0.022646f, 0.084963f, -0.022817f, 0.058237f, 0.076618f, 0.075716f, -0.020233f, 0.069588f,
    0.089977f, -0.075221f, -0.003474f, 0.043820f, 0.039065f, -0.084884f, 0.069331f, 0.055784f, 0.012948f, 0.097804f,
    0.053496f, 0.035147f, -0.057934f, -0.092345f, -0.044928f, 0.098922f, -0.064991f, -0.014490f, -0.030075f, -0.017974f,
    -0.038731f, -0.071855f, 0.072711f, -0.072591f, 0.074493f, 0.009673f, -0.094971f, 0.098256f, 0.101800f, 0.073801f,
    -0.021738f, 0.045679f, 0.041730f, 0.092518f, 0.099000f, 0.023611f, -0.094510f, -0.029635f, -0.063590f, 0.100573f,
    -0.085034f, -0.085063f, -0.089026f, 0.059382f, -0.068951f, -0.074836f, -0.037242f, -0.078118f, -0.059074f, -0.083531f,
    -0.009013f, -0.087104f, -0.047187f, -0.097563f, -0.070290f, -0.100782f, 0.077754f, 0.090302f, -0.091816f, -0.044126f,
    -0.009796f, 0.100584f, -0.049916f, -0.044306f, -0.014655f, -0.044514f, -0.031888f, 0.070159f, -0.070648f, -0.038391f,
    -0.089133f, -0.029590f, 0.044485f, 0.043330f, 0.048049f, -0.071014f, -0.065948f, -0.068691f, 0.030885f, -0.061128f,
    0.085695f, 0.029282f, -0.025866f, 0.055275f, 0.098129f, -0.088505f, 0.027886f, 0.085884f, -0.027515f, -0.030571f,
    -0.096335f, -0.076550f, 0.054046f, 0.071478f, 0.024816f, -0.036193f, -0.082682f, 0.057091f, 0.064322f, 0.027733f,
    0.050634f, 0.068074f, -0.099539f, 0.079417f, -0.054492f, -0.024846f, -0.065643f, 0.034285f, -0.084698f, -0.064034f,
    0.080358f, -0.009774f, 0.017647f, 0.001518f, 0.080012f, -0.042971f, 0.058248f, -0.091626f, 0.099250f, 0.091891f,
    0.005725f, -0.011636f, -0.006052f, -0.006038f, -0.045359f, -0.053794f, -0.062113f, 0.073231f, 0.065765f, 0.092649f,
    0.025497f, -0.084757f, 0.043203f, 0.045275f, 0.056075f, -0.004540f, 0.090883f, 0.054770f, -0.049199f, 0.077885f,
    0.089408f, -0.038841f, -0.073461f, -0.028563f, 0.030148f, -0.001845f, 0.091556f, 0.045529f, 0.080733f, -0.068635f,
    0.001829f, -0.066782f, 0.027380f, 0.062139f, 0.023384f, -0.040295f, -0.050118f, 0.037563f, 0.050789f, 0.011822f,
    -0.090318f, -0.049888f, 0.082410f, -0.080041f, 0.035727f, 0.028589f, -0.086561f, -0.028442f, -0.052298f, 0.083419f,
    -0.093688f, -0.094032f, -0.019696f, -0.100696f, 0.059642f, -0.006079f, -0.011250f, 0.096185f, -0.059667f, 0.090866f,
    -0.007643f, 0.100573f, -0.086544f, 0.033667f, -0.045829f, 0.015811f, 0.035357f, -0.010601f, -0.055583f, -0.064454f,
    -0.063770f, -0.017365f, 0.047799f, 0.018748f, 0.075637f, 0.073212f, -0.010378f, 0.054517f, 0.025099f, -0.071531f,
    -0.037373f, -0.027668f, 0.024713f, 0.073932f, 0.035095f, 0.101701f, -0.087345f, -0.085554f, -0.048206f, -0.040820f,
    -0.036194f, 0.037271f, -0.092465f, -0.033243f, 0.078279f, -0.017188f, -0.066068f, 0.050517f, 0.079320f, -0.041326f,
    -0.089294f, 0.092694f, 0.013532f, -0.024546f, 0.076726f, -0.083168f, 0.051355f, 0.001868f, -0.075193f, -0.024775f,
    -0.044272f, -0.030129f, 0.058074f, 0.056486f, 0.048570f, 0.074455f, -0.083201f, -0.078955f, 0.073112f, 0.004761f,
    -0.017300f, -0.026707f, 0.082272f, -0.099153f, 0.101404f, -0.006104f, -0.066075f, -0.027497f, 0.076584f, -0.088495f,
    0.066246f, -0.091865f, 0.079758f, 0.008017f, -0.032845f, 0.079461f, -0.040801f, -0.017857f, -0.080983f, -0.000729f,
    -0.087392f, 0.010497f, -0.058473f, -0.065341f, -0.050457f, 0.041057f, -0.024971f, -0.059991f, -0.049487f, -0.058127f,
    0.041998f, 0.100341f, -0.044769f, -0.077092f, 0.016898f, 0.041469f, 0.008265f, -0.002710f, -0.045389f, -0.086810f,
    -0.001853f, -0.050450f, 0.092261f, -0.089615f, 0.101182f, -0.035598f, 0.100206f, -0.018284f, 0.095224f, 0.000684f,
    -0.088099f, 0.069787f, -0.023105f, 0.014117f, -0.031024f, -0.049817f, -0.044827f, 0.061231f, 0.019348f, 0.086330f,
    -0.064246f, -0.083114f, -0.036720f, 0.032229f, 0.022852f, -0.087535f, -0.084520f, -0.090611f, 0.082485f, -0.101698f,
    -0.027466f, 0.053257f, 0.068671f, -0.026931f, 0.059090f, 0.061301f, 0.054685f, -0.082610f, 0.066567f, 0.009323f,
    0.028516f, -0.074040f, 0.066638f, 0.076457f, -0.028122f, 0.013623f, 0.059462f, -0.026516f, -0.009989f, 0.033723f,
    0.023964f, -0.019304f, 0.020575f, 0.038901f, 0.021751f, -0.020061f, -0.024628f, 0.065947f, -0.077438f, 0.087351f,
    0.065014f, -0.075501f, 0.062541f, 0.101117f, -0.088160f, 0.090736f, -0.065551f, 0.076674f, -0.055498f, 0.098742f,
    -0.088202f, 0.009385f, 0.012874f, -0.030158f, 0.018675f, -0.048730f, -0.095322f, -0.012776f, 0.025795f, -0.036756f,
    0.016508f, -0.087758f, -0.089514f, -0.076096f, -0.075559f, 0.012415f, 0.027351f, -0.006517f, 0.047422f, 0.060184f,
    -0.033914f, -0.065029f, 0.052234f, -0.090855f, 0.047675f, -0.079312f, -0.100629f, -0.014890f, -0.076036f, 0.093890f,
    0.008229f, 0.076355f, -0.016176f, -0.046574f, 0.068622f, -0.062873f, 0.035718f, 0.024852f, 0.070026f, 0.009643f,
    0.066371f, -0.092159f, -0.025980f, -0.016688f, 0.046455f, -0.092812f, 0.024354f, -0.074930f, 0.011374f, -0.041166f,
    -0.093113f, 0.022290f, 0.036743f, -0.016145f, 0.035767f, -0.019172f, 0.003575f, -0.091182f, 0.034566f, -0.008478f,
    -0.094956f, 0.096927f, 0.013897f, -0.092208f, -0.071222f, -0.049582f, -0.047141f, -0.009734f, -0.035947f, 0.098004f,
    -0.096819f, 0.019007f, -0.006454f, 0.032301f, -0.032776f, 0.065135f, 0.040447f, -0.085750f, -0.085258f, -0.045509f,
    -0.014476f, -0.036139f, 0.002057f, 0.055652f, -0.068728f, 0.057617f, 0.076921f, -0.061925f, 0.008024f, 0.067476f,
    -0.096099f, 0.088733f, 0.078586f, 0.092445f, -0.001717f, -0.080946f, 0.038001f, 0.009433f, -0.023826f, 0.068006f,
    0.023400f, 0.038654f, 0.013122f, 0.069896f, 0.005378f, -0.000202f, -0.037438f, -0.038181f, -0.065339f, 0.019387f,
    -0.011532f, 0.092908f, -0.025657f, 0.050400f, -0.025984f, -0.010116f, 0.040673f, 0.075921f, -0.079283f, 0.094302f,
    0.041336f, -0.017552f, -0.036086f, 0.005740f, 0.051277f, -0.021204f, -0.049381f, -0.097850f, -0.026922f, 0.052925f,
    -0.019388f, -0.096065f, 0.090587f, -0.017456f, 0.089951f, 0.096103f, -0.053507f, 0.047615f, 0.074536f, 0.062613f,
    -0.099558f, -0.022692f, -0.098410f, -0.076218f, 0.101478f, 0.021081f, -0.006139f, 0.005093f, 0.087963f, 0.070317f,
    0.076186f, 0.053357f, 0.009396f, -0.070241f, -0.080253f, -0.076647f, 0.051557f, -0.008141f, 0.042297f, -0.010989f,
    -0.055122f, 0.025051f, -0.024542f, -0.089576f, 0.085697f, 0.058415f, 0.025443f, -0.093195f, 0.070051f, 0.056186f,
    -0.032658f, 0.076795f, 0.021363f, 0.070090f, -0.018883f, 0.075542f, 0.037354f, 0.070395f, 0.015011f, -0.071470f,
    0.083636f, 0.093853f, 0.020387f, 0.051093f, 0.038253f, -0.075949f, 0.000574f, 0.035280f, 0.066616f, 0.078775f,
    -0.097395f, 0.031920f, 0.020075f, 0.035810f, 0.066576f, -0.082101f, 0.082006f, -0.097513f, -0.046921f, -0.069137f,
    -0.099199f, -0.088032f, -0.091864f, -0.016795f, 0.093050f, 0.097422f, 0.029465f, 0.008604f, 0.044140f, -0.093538f,
    -0.043495f, -0.054289f, 0.071629f, -0.043921f, -0.073588f, 0.038482f, -0.084169f, -0.029404f, 0.027718f, 0.054045f,
    -0.081995f, -0.083546f, 0.035357f, 0.099238f, 0.090554f, 0.099841f, -0.021482f, -0.068188f, -0.054301f, 0.057639f,
    0.037720f, -0.000678f, -0.003350f, 0.098004f, -0.021092f, -0.097271f, -0.094475f, -0.046325f, 0.002207f, 0.017281f,
    0.041506f, -0.085713f, -0.063781f, -0.060589f, 0.055029f, 0.095536f, 0.025361f, 0.050099f, 0.023440f, 0.024014f,
    -0.047034f, -0.013239f, 0.065171f, 0.068162f, 0.011997f, 0.092752f, 0.025460f, -0.026829f, 0.037479f, 0.010818f,
    0.021955f, 0.027515f, 0.017003f, -0.087017f, 0.062966f, 0.069052f, 0.050610f, -0.058190f, -0.063265f, 0.061783f,
    -0.047111f, -0.066876f, -0.068708f, -0.094890f, -0.009980f, 0.050141f, -0.013098f, -0.051902f, 0.011517f, 0.063719f,
    -0.000742f, -0.068135f, 0.058777f, 0.069316f, -0.073232f, 0.007740f, -0.027596f, -0.011959f, 0.026361f, 0.036065f,
    0.024499f, 0.100887f, 0.081304f, 0.021237f, 0.081293f, 0.040309f, -0.080148f, -0.037310f, -0.072593f, 0.062904f,
    -0.062739f, 0.020929f, 0.006076f, 0.040445f, 0.039766f, 0.049246f, 0.096833f, -0.088939f, 0.062182f, 0.037570f,
    -0.018791f, 0.006904f, -0.086252f, 0.101812f, 0.008175f, 0.002461f, -0.050259f, 0.020531f, -0.036598f, 0.096830f,
    0.036290f, 0.044823f, -0.070626f, 0.001317f, 0.001694f, 0.069993f, -0.006958f, 0.025149f, 0.013466f, -0.082353f,
    -0.032427f, -0.049303f, -0.088105f, -0.097840f, -0.038194f, -0.091669f, 0.047640f, -0.010169f, -0.000498f, -0.004081f,
    -0.048677f, 0.100604f, -0.086623f, 0.039823f, -0.054589f, -0.002927f, 0.004745f, 0.072808f, -0.064315f, 0.041337f,
    0.028463f, 0.041220f, 0.071826f, -0.043000f, 0.006050f, -0.070091f, -0.037179f, 0.059136f, 0.085527f, -0.093267f,
    -0.044101f, 0.067964f, -0.004242f, -0.084201f, 0.013303f, 0.088215f, -0.027401f, -0.086094f, -0.094158f, 0.089107f,
    -0.082662f, 0.037838f, 0.012000f, -0.006112f, 0.036492f, 0.093811f, 0.059441f, 0.020965f, 0.040944f, 0.098184f,
    -0.086109f, 0.054916f, -0.066054f, -0.003137f, 0.005557f, 0.081816f, 0.035759f, 0.052984f, 0.085156f, -0.068439f,
    0.081303f, -0.075457f, -0.036846f, -0.010592f, -0.017127f, 0.100364f, 0.061227f, 0.035619f, -0.041926f, -0.070724f,
    0.049185f, -0.097490f, -0.043152f, 0.038177f, 0.012464f, 0.100069f, -0.018501f, -0.040611f, -0.097635f, 0.029470f,
    0.043770f, 0.090143f, 0.100747f, -0.091167f, 0.056251f, -0.068568f, -0.020657f, -0.089884f, 0.072340f, 0.069971f,
    -0.072025f, -0.066329f, 0.036558f, -0.101195f, -0.085819f, -0.039429f, -0.049401f, 0.070657f, -0.088712f, 0.101892f,
    0.029034f, 0.034697f, 0.000453f, 0.077036f, 0.100080f, -0.059954f, -0.089045f, 0.027700f, 0.027721f, 0.079000f,
    0.012046f, -0.056881f, 0.062887f, -0.086915f, 0.034009f, -0.017929f, -0.028059f, -0.002413f, -0.080872f, 0.073963f,
    -0.020357f, -0.064009f, 0.038023f, 0.096251f, 0.010340f, -0.015542f, -0.081249f, -0.083321f, 0.026422f, 0.021534f,
    -0.003709f, -0.040484f, 0.093376f, 0.009771f, -0.096299f, 0.062945f, -0.011657f, -0.030173f, -0.084305f, 0.009233f,
    0.032891f, 0.064044f, 0.029050f, -0.008218f, -0.076722f, -0.090724f, -0.054517f, -0.101241f, -0.017624f, 0.029041f,
    0.034128f, -0.079788f, 0.060889f, -0.011747f, 0.004477f, 0.054333f, -0.022796f, -0.084684f, -0.038164f, 0.023328f,
    0.090213f, 0.074250f, 0.015695f, 0.091829f, -0.055412f, 0.095909f, 0.073740f, -0.015614f, -0.072238f, -0.007598f,
    -0.037066f, -0.065780f, 0.069313f, 0.022992f, -0.061369f, 0.051640f, -0.065461f, -0.100487f, 0.096764f, 0.071517f,
    0.076239f, -0.092022f, -0.076571f, -0.069315f, -0.031677f, 0.060754f, 0.009854f, 0.017132f, 0.079494f, 0.053302f,
    0.026386f, 0.074475f, 0.036275f, 0.019602f, -0.014109f, 0.078197f, -0.044714f, 0.002862f, 0.067740f, -0.085261f,
    -0.081330f, -0.058103f, 0.010010f, -0.073736f, 0.016479f, -0.031184f, 0.022101f, -0.067548f, 0.057529f, 0.039889f,
    0.008199f, -0.043783f, 0.050564f, 0.093470f, -0.008018f, 0.084129f, -0.063996f, -0.047074f, -0.079624f, 0.011798f,
    0.002733f, 0.063607f, -0.081264f, -0.030264f, -0.081523f, -0.091602f, -0.002570f, 0.086909f, 0.026730f, -0.061614f,
    0.053769f, 0.095820f, -0.025225f, 0.078701f, -0.045620f, -0.098721f, 0.068050f, 0.077855f, 0.075077f, -0.030440f,
    -0.065078f, 0.024436f, -0.097424f, -0.063532f, 0.019414f, 0.021709f, -0.059186f, -0.036881f, -0.044520f, 0.003791f,
    -0.037104f, 0.071874f, -0.015380f, 0.039849f, -0.073462f, -0.001071f, 0.066989f, 0.098677f, -0.018167f, 0.066319f,
    0.014859f, 0.012584f, -0.057450f, -0.036957f, -0.042071f, -0.000006f, 0.048573f, 0.056815f, 0.044130f, 0.005451f,
    -0.008185f, -0.054319f, 0.063724f, 0.021780f, -0.051844f, -0.034748f, -0.015441f, 0.013179f, 0.038574f, 0.034285f,
    -0.096432f, -0.033722f, 0.036695f, 0.057293f, 0.045612f, 0.074432f, -0.059035f, 0.055959f, 0.058669f, -0.099529f,
    -0.025256f, -0.020478f, 0.008764f, -0.034764f, 0.095802f, 0.012267f, 0.082020f, 0.040410f, 0.072290f, 0.006548f,
    0.029740f, -0.073422f, -0.034592f, 0.013755f, -0.027402f, 0.095694f, -0.005782f, 0.026982f, 0.086334f, -0.077979f,
    -0.002181f, 0.086562f, -0.045229f, -0.090119f, 0.015712f, -0.101367f, -0.041531f, 0.019658f, -0.022933f, 0.064823f,
    0.056828f, 0.076063f, 0.000019f, 0.086962f, 0.082490f, -0.084538f, -0.047080f, -0.033580f, 0.053866f, 0.063963f,
    0.067962f, -0.064856f, -0.078723f, -0.061292f, 0.072164f, -0.090105f, -0.027487f, 0.013537f, -0.018677f, -0.041963f,
    -0.025284f, 0.072095f, 0.084179f, -0.012609f, -0.076719f, -0.073084f, 0.032101f, 0.030314f, -0.092971f, -0.033670f,
    -0.006110f, -0.027936f, -0.044922f, 0.012532f, 0.028359f, -0.083806f, -0.039266f, 0.096488f, 0.065477f, 0.021122f,
    -0.017266f, 0.077370f, 0.025670f, 0.096683f, -0.040324f, 0.086962f, -0.043638f, 0.042882f, 0.017794f, -0.010748f,
    -0.074059f, -0.057176f, 0.020778f, -0.015308f, 0.048203f, -0.027112f, -0.047988f, 0.049118f, -0.076547f, 0.005889f,
    0.076941f, -0.099796f, 0.045683f, -0.097450f, 0.039472f, -0.058300f, -0.099278f, -0.092436f, 0.037093f, 0.088101f,
    -0.040494f, -0.092783f, 0.061859f, 0.082587f, -0.043707f, 0.061845f, 0.014364f, 0.062508f, 0.007513f, -0.053712f,
    -0.068728f, -0.021550f, 0.041871f, -0.032862f, -0.091918f, 0.035353f, -0.029093f, 0.064943f, -0.095186f, 0.011344f,
    -0.087782f, -0.041486f, -0.101205f, -0.075154f, -0.053405f, 0.057042f, -0.043993f, 0.078789f, 0.094818f, -0.004519f,
    -0.077882f, -0.062473f, 0.020453f, -0.101280f, 0.060436f, -0.001569f, 0.083570f, 0.014505f, -0.045490f, -0.082903f,
    0.045452f, 0.017900f, 0.069048f, -0.021961f, -0.056919f, -0.056426f, 0.015109f, -0.023387f, 0.075081f, 0.025669f,
    -0.049123f, 0.032384f, 0.013084f, 0.083693f, 0.090120f, -0.056433f, -0.062682f, 0.054117f, 0.028121f, -0.012062f,
    -0.005356f, -0.047219f, 0.046078f, 0.025380f, -0.047068f, 0.089569f, -0.053292f, 0.007522f, 0.035076f, -0.050637f,
    0.016046f, -0.084536f, -0.015095f, 0.073239f, -0.010361f, 0.038915f, -0.001099f, -0.096088f, 0.074583f, -0.071753f,
    -0.057439f, -0.087994f, -0.065572f, 0.036694f, -0.038760f, 0.015597f, 0.010550f, 0.001442f, 0.007542f, -0.091556f,
    0.069020f, -0.094289f, 0.067365f, 0.074422f, 0.076822f, -0.068043f, 0.096251f, -0.080655f, 0.028952f, -0.093214f,
    -0.070325f, -0.089790f, 0.056018f, 0.092158f, 0.002709f, 0.041246f, 0.090315f, 0.020980f, -0.003265f, -0.056623f,
    0.025310f, 0.033750f, -0.037801f, -0.051589f, -0.033283f, -0.002578f, -0.084244f, -0.068886f, -0.002049f, 0.092034f,
    -0.088779f, 0.071639f, 0.064921f, -0.029249f, 0.005998f, 0.026037f, 0.019945f, -0.039154f, 0.060982f, 0.081682f,
    0.079522f, -0.086103f, -0.028372f, -0.051693f, 0.034469f, -0.047421f, -0.057065f, -0.056271f, -0.021945f, -0.060941f,
    -0.037630f, 0.078201f, -0.005676f, -0.087585f, 0.020064f, -0.024918f, -0.026410f, 0.011543f, -0.067158f, 0.002520f,
    0.012829f, 0.015842f, 0.064553f, -0.023458f, 0.057429f, -0.043427f, 0.059888f, -0.056685f, -0.071042f, -0.060325f,
    -0.084549f, 0.043435f, -0.025171f, -0.021764f, -0.028148f, 0.100036f, 0.074267f, -0.020395f, -0.002624f, 0.034456f,
    -0.023860f, -0.039539f, 0.092487f, 0.030231f, 0.101667f, -0.063520f, -0.028188f, -0.084943f, 0.072230f, -0.073132f,
    0.045017f, 0.030603f, 0.045250f, 0.032467f, 0.065024f, 0.066770f, 0.094306f, -0.015651f, 0.015898f, 0.031082f,
    -0.032691f, -0.016383f, -0.039038f, 0.093088f, 0.034961f, 0.034294f, -0.012558f, 0.062533f, 0.065766f, 0.081337f,
    -0.012253f, 0.032237f, 0.084854f, -0.050345f, 0.063587f, -0.093563f, -0.049378f, 0.063115f, 0.012907f, 0.052042f,
    0.042610f, 0.101589f, 0.042634f, 0.017587f, -0.057461f, -0.034168f, 0.062023f, -0.018508f, 0.094097f, -0.049040f,
    -0.066076f, -0.000882f, -0.020378f, 0.012822f, 0.048203f, 0.056002f, 0.072216f, 0.021912f, 0.087716f, -0.031530f,
    -0.002313f, -0.086472f, 0.097910f, -0.014043f, -0.049041f, -0.003296f, 0.032847f, 0.020283f, 0.008331f, 0.070999f,
    0.081735f, 0.064780f, -0.046897f, -0.035930f, -0.015913f, -0.011972f, -0.044758f, 0.022742f, -0.098491f, 0.009528f,
    -0.053468f, -0.041577f, 0.096108f, 0.033762f, -0.057305f, -0.048100f, -0.062612f, -0.033834f, -0.025735f, 0.092473f,
    -0.077209f, 0.000529f, -0.021676f, 0.021183f, -0.008654f, -0.083007f, -0.016453f, -0.013972f, -0.100992f, 0.080246f,
    0.056817f, -0.090368f, -0.093428f, -0.032899f, -0.026235f, -0.068990f, -0.054988f, 0.093844f, -0.091682f, -0.083008f,
    -0.028828f, -0.043994f, -0.089961f, -0.039285f, 0.012407f, 0.035233f, 0.024143f, -0.056492f, -0.077462f, -0.087911f,
    0.084333f, -0.067636f, 0.075605f, -0.031382f, 0.081075f, -0.072029f, 0.099341f, 0.020443f, -0.086403f, 0.070975f,
    -0.013018f, -0.097585f, 0.053677f, -0.069835f, -0.034121f, -0.021263f, 0.033470f, 0.031278f, -0.071690f, 0.017991f,
    0.036702f, -0.045447f, -0.055669f, 0.076971f, 0.058919f, 0.098836f, -0.016606f, 0.047946f, 0.076560f, 0.095864f,
    0.059809f, -0.087577f, 0.083993f, 0.039846f, -0.044443f, -0.066393f, 0.092300f, -0.038841f, -0.047948f, 0.080645f,
    0.070599f, 0.075925f, 0.037484f, -0.032541f, -0.036247f, -0.025694f, -0.101640f, 0.074932f, 0.077530f, 0.092581f,
    -0.040270f, 0.090018f, 0.021998f, 0.049527f, 0.048983f, 0.080001f, 0.027168f, 0.102004f, -0.071111f, 0.037698f,
    0.100352f, -0.088438f, -0.009140f, 0.063489f, 0.097057f, 0.034674f, -0.033388f, 0.058060f, 0.042882f, -0.058791f,
    -0.101673f, 0.068860f, -0.022549f, -0.058230f, -0.073111f, 0.082768f, 0.092771f, -0.060390f, -0.069576f, -0.059299f,
    -0.087383f, 0.031572f, 0.020981f, -0.005238f, 0.099286f, 0.006707f, 0.099425f, -0.006073f, 0.012993f, 0.055162f,
    -0.037495f, 0.034728f, 0.008487f, 0.006609f, -0.020500f, -0.016559f, -0.047682f, 0.080867f, -0.005059f, -0.004221f,
    -0.093527f, -0.010800f, 0.009316f, 0.026375f, 0.021361f, -0.002048f, -0.073669f, 0.033244f, -0.066721f, -0.061787f,
    0.050256f, -0.032301f, 0.088088f, 0.090122f, -0.091531f, -0.092780f, -0.030911f, 0.006260f, 0.021907f, -0.044045f,
    0.048682f, 0.021404f, -0.012277f, -0.087761f, 0.009116f, 0.082345f, 0.100358f, 0.005929f, -0.021119f, 0.060575f,
    0.000415f, -0.085599f, -0.081062f, 0.075769f, 0.041373f, 0.070536f, 0.100578f, -0.074124f, -0.069306f, 0.019662f,
    0.005895f, 0.056867f, 0.086145f, 0.097075f, -0.026179f, 0.050485f, 0.081741f, -0.033124f, 0.058027f, 0.041402f,
    0.033430f, 0.078660f, -0.091380f, -0.001342f, -0.076001f, 0.089616f, -0.021278f, -0.081204f, -0.053070f, 0.036482f,
    -0.089300f, 0.088114f, -0.095104f, 0.040922f, 0.005983f, 0.006417f, 0.061341f, 0.067145f, -0.073014f, -0.032402f,
    0.009271f, -0.022254f, -0.097319f, -0.020009f, 0.045916f, 0.030824f, -0.063197f, -0.082808f, -0.011938f, -0.038599f,
    0.049420f, -0.001791f, 0.061019f, -0.089184f, -0.033839f, 0.039896f, 0.073184f, -0.035433f, -0.079641f, 0.038180f,
    0.074642f, 0.024224f, -0.076332f, 0.062803f, 0.013872f, -0.074486f, -0.039350f, 0.001098f, 0.050787f, -0.037512f,
    0.085859f, -0.083999f, 0.023840f, 0.065097f, 0.046266f, 0.049166f, -0.081754f, 0.035378f, -0.098040f, -0.022374f,
    0.094767f, -0.079484f, 0.052889f, -0.043426f, 0.032791f, 0.066837f, 0.071778f, 0.008309f, 0.047557f, 0.038561f,
    -0.036423f, -0.036436f, -0.015559f, 0.002501f, -0.015623f, 0.057338f, 0.003424f, -0.087344f, 0.006762f, -0.014878f,
    0.085423f, 0.095587f, -0.002125f, -0.047194f, 0.032177f, 0.052958f, 0.095273f, 0.093076f, 0.095728f, -0.061553f,
    -0.100250f, -0.091222f, 0.080386f, 0.026064f, -0.077789f, 0.009962f, -0.057349f, 0.056273f, 0.056695f, -0.055907f,
    0.054099f, 0.080657f, 0.083490f, 0.091952f, -0.064278f, -0.021777f, 0.034973f, -0.022099f, 0.029462f, 0.101741f,
    -0.026122f, -0.098503f, 0.082432f, 0.019265f, 0.094874f, 0.099663f, 0.014658f, 0.099782f, 0.020055f, -0.057422f,
    -0.056878f, -0.028170f, 0.097413f, 0.049157f, 0.028083f, -0.027535f, 0.081704f, 0.076614f, -0.081982f, 0.097832f,
    0.051081f, -0.007864f, 0.004126f, 0.062784f, -0.010558f, -0.063484f, 0.048562f, 0.021049f, 0.080321f, -0.032062f,
    0.048572f, 0.029186f, 0.066208f, 0.040615f, 0.040473f, -0.089514f, 0.037654f, -0.098773f, -0.014230f, -0.015084f,
    -0.061030f, 0.028896f, 0.069739f, -0.029881f, -0.075723f, -0.098450f, 0.012431f, 0.079219f, -0.087436f, -0.056739f,
    0.071722f, 0.055549f, 0.044689f, -0.026024f, 0.094453f, -0.081236f, -0.055626f, -0.022452f, 0.042499f, 0.017222f,
    -0.040023f, -0.095190f, -0.067995f, 0.081892f, 0.039840f, -0.033638f, 0.060130f, -0.042795f, 0.092992f, -0.006144f,
    0.077558f, 0.087132f, -0.020356f, 0.092718f, -0.031952f, -0.088006f, -0.098539f, 0.041164f, -0.000202f, 0.003504f,
    0.079574f, -0.065865f, 0.034579f, -0.035474f, -0.087282f, 0.020207f, -0.018457f, 0.085026f, 0.006540f, 0.065440f,
    -0.063873f, 0.043118f, -0.052766f, -0.072892f, -0.000215f, -0.028625f, -0.089978f, 0.092307f, -0.051444f, 0.052397f,
    -0.003563f, -0.057567f, -0.031692f, 0.038663f, -0.094900f, -0.000012f, 0.002517f, 0.086359f, -0.007057f, -0.014702f,
    0.100673f, 0.016379f, 0.079710f, 0.031570f, -0.029679f, 0.073352f, -0.035278f, 0.045219f, 0.003338f, 0.029063f,
    0.031549f, 0.039123f, 0.087889f, -0.005799f, 0.051454f, -0.003132f, -0.009667f, -0.055725f, -0.101728f, 0.077142f,
    -0.034703f, 0.079076f, -0.087920f, 0.089429f, -0.016965f, -0.001782f, 0.083949f, -0.007606f, -0.042251f, -0.010384f,
    -0.059494f, 0.066110f, -0.001764f, 0.054175f, 0.054513f, 0.075476f, 0.089200f, 0.036673f, 0.061877f, -0.010008f,
    0.099711f, -0.046244f, 0.027880f, 0.007315f, 0.054956f, -0.070396f, -0.021072f, -0.077654f, 0.045352f, -0.027898f,
    0.032316f, 0.086427f, -0.079873f, -0.025656f, 0.095908f, 0.016083f, 0.016456f, 0.086278f, -0.101895f, 0.027202f,
    -0.061466f, -0.026565f, 0.080471f, -0.027218f, -0.059406f, 0.013870f, -0.056908f, 0.099266f, 0.078314f, 0.023305f,
    -0.006025f, -0.058175f, -0.097032f, 0.021768f, -0.014518f, -0.035219f, 0.024074f, -0.100225f, -0.001127f, -0.039421f,
    -0.041644f, 0.021921f, 0.094399f, 0.093768f, 0.011766f, 0.031428f, 0.077289f, -0.009794f, -0.090573f, 0.029738f,
    -0.061698f, 0.018128f, 0.097087f, 0.056357f, -0.086427f, 0.056229f, -0.059902f, 0.044604f, 0.069352f, -0.092613f,
    -0.057060f, 0.096346f, 0.016009f, -0.001658f, 0.074391f, -0.032275f, -0.063427f, -0.050388f, 0.088146f, -0.087002f,
    -0.020881f, -0.033946f, -0.005320f, 0.006822f, 0.055239f, 0.064098f, 0.092968f, 0.036964f, 0.019434f, 0.083625f,
    0.065474f, -0.047458f, 0.035718f, -0.045685f, -0.094342f, -0.027614f, 0.060426f, 0.028483f, -0.021960f, 0.089485f,
    -0.010559f, 0.002367f, 0.060318f, -0.009893f, 0.087994f, -0.041860f, 0.028514f, -0.054301f, 0.049254f, 0.062921f,
    -0.011192f, -0.058387f, -0.030210f, -0.084103f, -0.098781f, 0.096578f, -0.033961f, -0.090441f, 0.049516f, 0.076237f,
    0.020586f, 0.080834f, 0.096792f, 0.020701f, -0.035465f, 0.097577f, 0.091314f, 0.061570f, -0.080331f, 0.100531f,
    -0.055302f, -0.098978f, 0.086080f, -0.042830f, 0.039430f, 0.048231f, 0.082720f, 0.003515f, -0.023000f, -0.023426f,
    0.095668f, -0.008345f, -0.005822f, -0.082965f, 0.058558f, 0.033090f, 0.036771f, -0.014224f, 0.090523f, 0.064815f,
    -0.088885f, -0.073629f, 0.002132f, -0.017249f, 0.097676f, -0.023073f, -0.015807f, 0.068304f, -0.054687f, 0.089507f,
    -0.073674f, -0.096076f, -0.100284f, 0.004786f, 0.014570f, -0.054194f, 0.011975f, -0.082444f, 0.019033f, -0.029168f,
    -0.006293f, -0.098072f, 0.091704f, -0.043116f, 0.000669f, -0.080794f, -0.086426f, 0.087625f, -0.097665f, -0.023454f,
    0.098731f, 0.051347f, 0.049369f, 0.074093f, -0.043336f, 0.085603f, 0.050763f, -0.091377f, 0.020890f, 0.009514f,
    -0.068681f, -0.096530f, 0.049316f, -0.044999f, 0.046859f, -0.069510f, -0.027685f, -0.045241f, -0.078710f, 0.095412f,
    -0.021061f, 0.094708f, -0.022720f, 0.092143f, 0.013519f, 0.067770f, -0.065098f, 0.094981f, -0.085783f, -0.093611f,
    -0.005956f, 0.075560f, 0.033246f, 0.011731f, 0.057818f, -0.096262f, 0.084102f, -0.087083f, 0.014767f, -0.050726f,
    0.100804f, 0.033883f, 0.084685f, 0.056452f, 0.019947f, -0.092106f, -0.092069f, 0.092769f, 0.079061f, 0.087599f,
    0.000930f, -0.005675f, 0.068234f, 0.078894f, -0.051615f, -0.034530f, 0.048920f, -0.082528f, 0.089638f, -0.016901f,
    -0.025062f, 0.015348f, 0.058032f, 0.008902f, -0.054238f, -0.041883f, 0.006941f, 0.076778f, -0.098260f, 0.080293f,
    -0.094904f, 0.040560f, 0.041636f, -0.075684f, -0.083954f, 0.098141f, -0.036439f, 0.003524f, -0.003243f, 0.013074f,
    0.043923f, 0.031924f, -0.053545f, -0.041405f, 0.070738f, -0.082925f, 0.099398f, 0.036255f, -0.023132f, 0.037422f,
    0.056308f, 0.051056f, 0.094020f, 0.076025f, 0.046615f, -0.049885f, -0.061083f, -0.017116f, 0.020906f, -0.063029f,
    -0.089756f, -0.032336f, 0.021616f, -0.032776f, 0.098698f, 0.039721f, 0.069502f, 0.088469f, 0.063208f, -0.083134f,
    -0.007355f, -0.036984f, 0.086710f, -0.096033f, -0.016568f, 0.100757f, 0.086475f, 0.087955f, -0.064587f, 0.075550f,
    0.029489f, 0.076417f, -0.073644f, 0.098966f, 0.022933f, -0.034980f, -0.028012f, -0.082564f, -0.034757f, -0.036789f,
    -0.018791f, 0.096220f, -0.081234f, -0.075729f, 0.056245f, -0.053605f, -0.066813f, 0.009075f, 0.046075f, -0.063272f,
    -0.014590f, 0.021659f, -0.056913f, -0.017958f, -0.045992f, 0.097739f, -0.019988f, -0.031005f, -0.071604f, -0.086600f,
    -0.018335f, -0.054954f, 0.096976f, -0.026824f, 0.085374f, 0.081172f, -0.060472f, 0.009132f, -0.049734f, -0.059057f,
    -0.073326f, -0.014445f, 0.066167f, 0.076825f, 0.049222f, 0.023432f, -0.052614f, -0.053332f, -0.092863f, -0.047384f,
    -0.064772f, -0.034299f, 0.067281f, 0.023769f, -0.048442f, -0.018452f, 0.101379f, -0.050070f, -0.015510f, -0.031433f,
