// Auto-generated model weights for RAVN AI Engine
// Generated from: ../../artifacts/ravn_model.h5_weights.bin
// Total weights: 151107

#ifndef RAVN_MODEL_WEIGHTS_H
#define RAVN_MODEL_WEIGHTS_H

#include <stdint.h>

// Model architecture constants
#define INPUT_SEQUENCE_LENGTH 20
#define INPUT_FEATURE_DIM 10
#define DENSE1_OUTPUT_SIZE 64
#define LSTM1_HIDDEN_SIZE 128
#define LSTM2_HIDDEN_SIZE 64
#define DENSE2_OUTPUT_SIZE 32
#define OUTPUT_CLASSES 3

// Layer weight counts
#define DENSE1_WEIGHT_COUNT 704
#define LSTM1_WEIGHT_COUNT 98816
#define LSTM2_WEIGHT_COUNT 49408
#define DENSE2_WEIGHT_COUNT 2080
#define DENSE3_WEIGHT_COUNT 99
#define TOTAL_WEIGHT_COUNT 151107

// All model weights (float32) - organized by layer
static const float all_model_weights[TOTAL_WEIGHT_COUNT] = {
    -0.046766f, -0.104234f, 0.211284f, 0.047123f, 0.202782f, -0.020711f, 0.234743f, -0.049652f, -0.207224f, -0.222904f,
    0.132195f, 0.171943f, 0.278289f, 0.294243f, 0.037017f, -0.046294f, -0.208478f, -0.276739f, 0.142367f, -0.139062f,
    0.023679f, 0.055639f, -0.125345f, 0.269661f, 0.256108f, -0.108043f, -0.220250f, 0.278956f, -0.093081f, -0.029790f,
    0.235442f, 0.165168f, 0.132839f, -0.209861f, -0.150273f, -0.255069f, -0.106126f, 0.052352f, -0.052224f, -0.203168f,
    -0.249727f, -0.071988f, -0.166553f, 0.290800f, 0.254668f, -0.197751f, 0.055603f, 0.064570f, 0.146452f, 0.096445f,
    0.181576f, 0.259232f, 0.102547f, -0.064944f, -0.000852f, 0.191864f, -0.246761f, 0.066388f, 0.235066f, 0.214382f,
    0.161494f, -0.021242f, -0.132357f, 0.138476f, 0.215015f, 0.247008f, -0.182203f, 0.229569f, 0.104839f, 0.098147f,
    0.067871f, 0.134243f, -0.219540f, -0.272075f, -0.183408f, -0.066745f, 0.167856f, -0.153701f, 0.229128f, 0.234853f,
    0.249697f, 0.252524f, -0.230066f, -0.208883f, -0.024562f, -0.218715f, -0.079971f, -0.146852f, 0.070957f, 0.212316f,
    0.088288f, 0.208270f, -0.223942f, 0.060706f, -0.136680f, -0.062216f, 0.076787f, -0.022134f, -0.173553f, 0.034673f,
    0.019343f, -0.161133f, 0.160162f, -0.174349f, -0.160751f, -0.002527f, 0.034153f, -0.060697f, 0.280089f, -0.030479f,
    -0.199547f, 0.012287f, -0.247848f, 0.137427f, 0.141335f, 0.180134f, 0.247990f, -0.067985f, -0.278877f, -0.000338f,
    0.194640f, 0.146846f, -0.099340f, -0.083710f, 0.194153f, 0.240118f, -0.062537f, -0.028721f, 0.284004f, -0.051943f,
    -0.052879f, 0.189633f, -0.046220f, -0.110463f, -0.200520f, 0.140835f, -0.162582f, -0.015500f, -0.008725f, -0.245418f,
    -0.047058f, 0.050017f, -0.070132f, 0.212253f, 0.118109f, -0.202564f, -0.037627f, -0.004053f, 0.040930f, 0.168163f,
    -0.123481f, 0.209758f, 0.172756f, -0.155984f, -0.122361f, -0.006792f, -0.189755f, 0.216146f, -0.198546f, -0.119887f,
    -0.124825f, -0.069711f, 0.161334f, -0.049270f, -0.179128f, -0.019207f, -0.056126f, 0.207280f, -0.085963f, -0.107043f,
    0.069956f, 0.192283f, 0.015278f, -0.172739f, 0.172643f, -0.096746f, -0.126119f, 0.092360f, -0.140447f, -0.052486f,
    0.174224f, -0.010918f, 0.173030f, 0.113998f, -0.080894f, -0.091629f, -0.055846f, 0.049602f, 0.046372f, -0.059132f,
    0.271966f, -0.038435f, 0.130328f, -0.280957f, 0.203965f, 0.208827f, -0.157743f, 0.054316f, 0.159300f, 0.079776f,
    0.151071f, -0.000144f, 0.039851f, -0.206079f, -0.013495f, 0.212681f, 0.265764f, 0.213338f, -0.064192f, -0.077923f,
    -0.038180f, 0.046958f, 0.041484f, 0.238651f, 0.266777f, -0.162634f, 0.265064f, 0.031799f, -0.055327f, -0.014315f,
    -0.105237f, 0.204406f, 0.007877f, 0.114097f, -0.270984f, -0.113357f, 0.013007f, -0.022431f, 0.098544f, -0.017126f,
    -0.188719f, -0.194442f, 0.085878f, 0.088117f, 0.165251f, 0.082059f, 0.105241f, 0.173854f, -0.186609f, -0.048497f,
    -0.037826f, -0.044744f, 0.089102f, 0.053181f, 0.169948f, -0.121509f, 0.133361f, -0.049801f, 0.246156f, -0.214059f,
    -0.025863f, 0.150262f, -0.078492f, -0.281833f, -0.042914f, 0.039473f, -0.095919f, -0.277568f, 0.046526f, -0.269855f,
    -0.137896f, 0.030932f, 0.118641f, -0.109433f, 0.174446f, -0.109736f, -0.021792f, -0.261675f, 0.216355f, 0.284136f,
    -0.259056f, 0.284008f, -0.041954f, 0.107356f, -0.062894f, 0.118665f, -0.090167f, 0.206262f, 0.113021f, 0.277373f,
    -0.165796f, -0.091449f, 0.129626f, -0.059103f, 0.248378f, -0.248363f, 0.138001f, -0.059057f, 0.046636f, 0.170513f,
    0.238549f, -0.159980f, -0.096208f, 0.114076f, -0.212364f, -0.109051f, 0.201193f, -0.278630f, 0.070090f, -0.253353f,
    -0.180564f, -0.189395f, 0.034819f, -0.130047f, 0.155940f, -0.020853f, 0.193738f, 0.144399f, -0.091064f, 0.222829f,
    -0.220924f, 0.201338f, -0.206019f, 0.103338f, 0.272153f, -0.082655f, -0.047723f, -0.207664f, 0.166467f, 0.168003f,
    0.079154f, 0.166162f, -0.088578f, 0.014825f, 0.085252f, -0.065476f, 0.210002f, -0.077744f, -0.211390f, 0.234935f,
    0.068803f, 0.074549f, 0.151941f, 0.123408f, -0.146258f, 0.251406f, 0.128917f, -0.079179f, 0.172711f, 0.019242f,
    -0.079783f, 0.095973f, -0.260844f, -0.284476f, 0.094548f, 0.264770f, -0.030617f, 0.148597f, -0.081030f, 0.224514f,
    0.058469f, -0.043421f, 0.164902f, -0.253855f, 0.237329f, 0.186244f, 0.157428f, 0.112726f, 0.094302f, 0.080850f,
    -0.171902f, -0.209016f, -0.217379f, 0.155564f, 0.257149f, -0.157659f, 0.018318f, -0.155836f, 0.240678f, -0.244388f,
    0.164423f, 0.180018f, -0.226700f, 0.038159f, 0.162342f, -0.278124f, -0.110017f, 0.227063f, 0.135324f, 0.046236f,
    0.106346f, -0.167095f, 0.064858f, -0.058054f, 0.111432f, -0.065025f, -0.069616f, -0.096851f, 0.017749f, -0.063473f,
    -0.161538f, 0.098572f, 0.147758f, -0.199465f, 0.259163f, 0.175213f, -0.079569f, 0.196500f, -0.149106f, 0.233053f,
    0.183426f, -0.216983f, 0.039142f, -0.243505f, 0.013163f, 0.066374f, -0.016628f, -0.083517f, 0.246767f, -0.061729f,
    -0.205841f, -0.077889f, 0.260239f, 0.191887f, 0.091681f, -0.138541f, -0.026794f, 0.252837f, -0.222099f, -0.121297f,
    -0.173759f, -0.023187f, -0.238001f, 0.015310f, -0.252051f, -0.219707f, 0.148507f, -0.119269f, -0.256643f, -0.124200f,
    -0.168918f, 0.199780f, 0.168006f, 0.245300f, 0.254512f, 0.054790f, -0.082509f, 0.051829f, 0.098784f, -0.163044f,
    -0.035389f, 0.164239f, -0.246810f, -0.275448f, 0.267117f, 0.229787f, -0.065352f, -0.094715f, 0.072648f, 0.272754f,
    -0.064797f, 0.171004f, 0.229175f, 0.145804f, -0.245744f, -0.182389f, -0.245459f, 0.046758f, 0.170601f, 0.123290f,
    -0.173883f, 0.223685f, 0.094094f, -0.085354f, -0.243082f, -0.257157f, -0.233695f, 0.256985f, 0.205350f, 0.111526f,
    -0.227653f, 0.150529f, -0.143324f, 0.183742f, 0.049346f, -0.244396f, -0.004551f, 0.035744f, -0.257162f, 0.108749f,
    0.207825f, -0.241346f, 0.275858f, 0.155780f, -0.016543f, -0.078478f, 0.179386f, 0.147893f, -0.065041f, -0.213233f,
    -0.138323f, 0.221269f, 0.205500f, -0.005999f, -0.163857f, 0.158017f, 0.153681f, 0.031453f, -0.008524f, -0.237058f,
    -0.129054f, -0.149038f, -0.113564f, 0.283718f, -0.158096f, -0.001448f, -0.273740f, -0.116877f, 0.027767f, 0.099458f,
    0.243721f, -0.192939f, -0.010289f, 0.272500f, -0.241013f, 0.242220f, 0.105402f, -0.133959f, 0.257983f, -0.191748f,
    -0.089964f, -0.196559f, 0.171453f, 0.277732f, -0.045856f, -0.201441f, -0.059483f, 0.167643f, 0.264578f, -0.122769f,
    -0.066832f, -0.101209f, 0.028236f, 0.152796f, -0.237081f, 0.132369f, 0.027817f, -0.237174f, 0.199783f, 0.018003f,
    0.118847f, -0.072150f, -0.052075f, 0.167031f, -0.148937f, 0.056129f, -0.260027f, 0.069405f, 0.136861f, 0.125228f,
    0.169311f, 0.066239f, 0.020501f, 0.140257f, 0.168089f, 0.278519f, 0.063675f, 0.044283f, 0.126015f, 0.011710f,
    -0.172715f, 0.170360f, 0.219921f, -0.195407f, -0.235987f, 0.268586f, -0.196550f, -0.064551f, -0.259206f, -0.089430f,
    -0.195346f, 0.199582f, 0.027990f, 0.109513f, -0.005890f, -0.118423f, -0.238215f, -0.165816f, -0.164895f, 0.057803f,
    -0.006713f, -0.186621f, 0.217534f, 0.269593f, 0.164472f, 0.183905f, -0.059952f, -0.076690f, -0.209250f, -0.104926f,
    -0.044655f, 0.005438f, -0.027165f, 0.087307f, 0.083704f, -0.256240f, 0.086863f, 0.084822f, 0.269977f, -0.115674f,
    0.133931f, 0.205956f, -0.027961f, -0.204884f, -0.226648f, -0.244167f, -0.193647f, -0.159364f, -0.228842f, 0.156664f,
    -0.070450f, 0.115909f, 0.022280f, -0.124899f, -0.190508f, 0.227707f, 0.014236f, 0.113118f, 0.085084f, -0.039108f,
    -0.282883f, 0.262501f, 0.210407f, 0.037403f, 0.128422f, -0.194260f, 0.039738f, 0.277245f, 0.207900f, 0.276556f,
    0.258390f, 0.071049f, -0.265609f, -0.106427f, 0.277917f, -0.261894f, 0.141620f, 0.005449f, 0.018119f, 0.037005f,
    -0.000506f, 0.000000f, -0.015395f, -0.015452f, 0.000000f, -0.009929f, -0.021846f, -0.000459f, -0.000246f, -0.000562f,
    -0.000754f, 0.000000f, 0.000000f, -0.015432f, -0.010293f, -0.015407f, 0.000000f, 0.000000f, 0.000000f, -0.003750f,
    -0.004120f, -0.000159f, -0.013463f, 0.000000f, -0.020861f, -0.009930f, 0.000000f, 0.000000f, 0.000000f, -0.005410f,
    -0.000758f, -0.000639f, 0.000000f, 0.000000f, -0.000841f, 0.000000f, -0.009925f, -0.018598f, 0.000000f, 0.000000f,
    -0.015455f, -0.013463f, -0.005700f, -0.004885f, -0.000372f, -0.004241f, 0.000000f, 0.000000f, 0.000000f, 0.000000f,
    -0.001508f, -0.009919f, -0.004830f, 0.000000f, -0.015851f, 0.000000f, -0.004095f, 0.000000f, 0.000000f, -0.005419f,
    0.000000f, 0.000000f, 0.000000f, -0.010555f, 0.011206f, -0.011416f, -0.088021f, 0.075136f, -0.039999f, -0.101006f,
    -0.042183f, 0.091500f, -0.059463f, 0.093544f, -0.002645f, -0.012617f, 0.005104f, -0.040314f, -0.073947f, -0.010958f,
    -0.087453f, 0.033056f, -0.081548f, 0.014555f, -0.045221f, -0.072702f, 0.053191f, -0.069425f, -0.056005f, -0.082944f,
    -0.062619f, -0.000540f, 0.056672f, 0.084063f, -0.065337f, 0.035768f, 0.068347f, -0.100841f, -0.030545f, -0.065452f,
    -0.049949f, -0.072225f, 0.063890f, -0.078678f, 0.063387f, 0.040890f, 0.013839f, -0.098600f, -0.045069f, 0.056308f,
    0.009357f, -0.026690f, -0.024850f, 0.054815f, 0.004631f, -0.045387f, 0.027642f, 0.073252f, -0.020500f, -0.028158f,
    0.042677f, 0.100310f, -0.014922f, 0.029846f, 0.030860f, 0.057641f, 0.061651f, 0.035248f, 0.038318f, 0.088825f,
    0.007637f, -0.032248f, -0.066888f, -0.094437f, -0.067976f, -0.020057f, 0.068023f, 0.058889f, -0.085398f, 0.071800f,
    0.025017f, -0.085518f, -0.044490f, 0.010767f, -0.002698f, 0.037216f, -0.073945f, -0.003679f, -0.097967f, 0.009521f,
    0.008174f, 0.017384f, 0.067241f, -0.031291f, -0.032183f, 0.035369f, 0.015175f, 0.046382f, 0.086368f, -0.082196f,
    0.083073f, -0.022877f, 0.079558f, -0.056839f, 0.011534f, 0.021629f, 0.068755f, -0.100565f, -0.081948f, -0.080598f,
    0.031073f, -0.089896f, 0.028887f, 0.072115f, -0.057117f, -0.066314f, -0.078988f, -0.089750f, 0.003854f, -0.009274f,
    -0.004786f, -0.035818f, 0.084767f, -0.075308f, -0.071204f, 0.035824f, -0.031861f, -0.028508f, 0.041007f, -0.031963f,
    0.088305f, 0.068681f, 0.049525f, -0.073430f, 0.076157f, -0.089287f, 0.041589f, 0.066492f, -0.040531f, 0.049098f,
    -0.051569f, 0.082211f, 0.047430f, -0.020389f, -0.093817f, 0.058633f, -0.037123f, 0.056658f, -0.068336f, 0.042288f,
    0.079069f, 0.020212f, 0.044594f, -0.062012f, -0.045878f, -0.015748f, -0.061868f, -0.008629f, -0.056449f, 0.069297f,
    -0.030358f, 0.009568f, -0.082913f, -0.024032f, -0.077661f, -0.058128f, -0.032467f, -0.001164f, -0.058446f, -0.044741f,
    0.095998f, -0.075437f, 0.002870f, -0.003110f, 0.006637f, 0.013025f, 0.064908f, -0.068183f, -0.067585f, 0.016807f,
    -0.096576f, 0.047090f, -0.053014f, -0.090440f, -0.039206f, 0.005253f, -0.101276f, 0.035704f, 0.082067f, 0.085058f,
    0.094182f, -0.047995f, -0.015889f, -0.031427f, -0.033340f, 0.049576f, -0.087639f, 0.053373f, 0.090741f, 0.034448f,
    -0.076948f, 0.007989f, 0.057840f, 0.075085f, -0.097788f, 0.011664f, -0.054710f, 0.059999f, 0.053630f, -0.096781f,
    0.015698f, -0.095219f, 0.065679f, -0.087432f, 0.010870f, -0.002702f, 0.093470f, 0.041337f, 0.087929f, 0.064095f,
    0.084284f, -0.090768f, 0.000699f, 0.044112f, 0.097906f, -0.026210f, -0.071093f, 0.062743f, 0.052295f, 0.007562f,
    -0.065911f, 0.043614f, -0.091391f, 0.094439f, 0.012587f, -0.011508f, -0.079236f, -0.046158f, 0.009100f, -0.034413f,
    0.035350f, 0.093824f, -0.100346f, 0.005638f, -0.025867f, -0.083214f, -0.006653f, 0.030812f, -0.036592f, 0.089176f,
    0.062737f, 0.001156f, 0.025059f, -0.025492f, 0.037961f, 0.095104f, 0.057683f, -0.068760f, -0.012856f, -0.057127f,
    0.024349f, -0.059069f, -0.082054f, 0.066718f, 0.017086f, 0.005771f, -0.083420f, -0.010185f, -0.045726f, -0.073135f,
    0.011729f, -0.003046f, 0.048670f, 0.037606f, -0.034874f, -0.004540f, -0.001752f, -0.094345f, -0.007920f, 0.085381f,
    0.062303f, 0.027630f, 0.033712f, -0.070323f, 0.077759f, -0.024807f, -0.078751f, 0.074087f, 0.048324f, -0.053746f,
    -0.069016f, 0.069226f, -0.026018f, -0.014630f, 0.000234f, -0.024051f, 0.007064f, -0.007080f, 0.097738f, -0.097449f,
    0.034502f, 0.015163f, 0.040011f, 0.055152f, -0.028507f, 0.016562f, 0.004367f, -0.079102f, -0.011608f, 0.086454f,
    0.082999f, -0.098585f, -0.002259f, 0.042068f, -0.027140f, 0.098668f, -0.018922f, 0.010953f, -0.030645f, -0.063848f,
    0.066764f, -0.042671f, 0.056588f, 0.080207f, 0.021215f, 0.066297f, -0.099359f, -0.085297f, -0.080834f, 0.040381f,
    -0.040004f, -0.048843f, 0.097929f, 0.095772f, 0.011743f, 0.006688f, -0.012100f, -0.046223f, -0.070085f, -0.053348f,
    0.008091f, -0.087884f, 0.090184f, 0.075638f, -0.071306f, 0.042213f, 0.071355f, -0.010022f, 0.063077f, 0.032072f,
    -0.072550f, 0.080941f, 0.085248f, -0.042205f, 0.070526f, -0.030483f, -0.019673f, -0.098196f, 0.013923f, -0.030387f,
    -0.083455f, 0.051804f, 0.040247f, -0.011036f, 0.079436f, -0.088852f, -0.024395f, 0.026106f, -0.015168f, -0.051850f,
    -0.073026f, 0.036917f, 0.056856f, -0.035272f, -0.069870f, 0.018798f, -0.093890f, -0.000747f, 0.068995f, 0.070552f,
    -0.066070f, 0.006458f, 0.006975f, -0.047784f, -0.063711f, 0.088995f, -0.026137f, 0.073189f, -0.040151f, 0.022735f,
    -0.010559f, -0.092481f, -0.063253f, 0.014722f, -0.051748f, -0.012194f, -0.087061f, 0.019639f, -0.052160f, -0.046008f,
    -0.014458f, 0.061209f, 0.093750f, 0.082340f, 0.052270f, 0.003702f, -0.088646f, -0.014256f, -0.095765f, -0.035250f,
    -0.012289f, 0.048372f, -0.041917f, -0.092578f, 0.074135f, 0.051953f, -0.071928f, -0.067068f, 0.010804f, 0.028814f,
    -0.054594f, 0.018482f, -0.072483f, 0.070612f, -0.054172f, 0.066864f, 0.072592f, 0.092102f, 0.008296f, 0.086573f,
    0.009929f, -0.059348f, -0.031925f, -0.091372f, 0.082625f, 0.058052f, -0.088504f, -0.074521f, 0.051467f, -0.026856f,
    0.085853f, 0.085696f, 0.020913f, 0.084619f, -0.037046f, 0.098283f, 0.074057f, 0.059822f, -0.018823f, -0.066211f,
    0.040485f, -0.075829f, 0.064775f, -0.051803f, -0.048423f, 0.055350f, 0.058731f, -0.021776f, 0.056767f, -0.090810f,
    0.067428f, 0.075595f, 0.056121f, 0.075519f, 0.099323f, -0.023282f, -0.007067f, -0.089396f, -0.068780f, -0.059225f,
    0.016437f, -0.074560f, 0.045289f, -0.030174f, 0.007522f, 0.019327f, 0.018344f, 0.037022f, 0.078044f, 0.039805f,
    0.009624f, -0.020144f, -0.070113f, -0.100826f, -0.025577f, 0.023754f, -0.085662f, 0.005704f, -0.017186f, 0.002133f,
    0.043037f, 0.089767f, -0.098613f, 0.099876f, -0.057265f, -0.055036f, 0.101819f, 0.049693f, -0.071297f, -0.052751f,
    0.001849f, 0.012515f, -0.095993f, 0.015044f, -0.093664f, -0.061639f, 0.027879f, 0.092440f, 0.065760f, -0.032683f,
    -0.022903f, -0.032203f, -0.008562f, -0.057517f, 0.081562f, -0.044198f, -0.012082f, 0.044615f, 0.021030f, -0.074506f,
    -0.083738f, -0.032519f, -0.101420f, -0.060075f, -0.058895f, 0.083538f, 0.078269f, -0.043370f, 0.061626f, -0.065316f,
    -0.016288f, 0.066718f, -0.042015f, 0.071522f, -0.046427f, -0.011146f, -0.059276f, -0.062819f, -0.017417f, 0.025789f,
    0.087989f, -0.062170f, -0.030441f, 0.011416f, 0.008763f, -0.098507f, -0.037696f, -0.027710f, -0.027878f, 0.025818f,
    0.020223f, -0.056349f, 0.053243f, 0.010119f, -0.072159f, 0.056476f, -0.011867f, -0.008745f, -0.030221f, -0.064358f,
    0.073457f, -0.008645f, -0.024324f, 0.077464f, -0.090303f, -0.030699f, 0.070387f, 0.097006f, -0.049813f, 0.047263f,
    0.052669f, -0.012193f, -0.061810f, -0.078719f, -0.036927f, 0.031432f, -0.089897f, 0.057763f, 0.088230f, -0.080219f,
    0.036126f, 0.004403f, 0.036180f, 0.051839f, 0.015376f, -0.053136f, -0.084130f, -0.051748f, 0.069732f, 0.035784f,
    0.079308f, -0.066787f, 0.015973f, 0.025498f, 0.021133f, 0.015293f, 0.002685f, -0.101739f, -0.084753f, -0.031683f,
    0.035218f, 0.099886f, -0.086901f, -0.101147f, 0.066422f, 0.063233f, -0.029302f, 0.013766f, -0.007824f, 0.041759f,
    -0.066302f, -0.087778f, 0.004216f, -0.002178f, -0.089650f, -0.010582f, -0.041883f, -0.047419f, -0.067675f, -0.059306f,
    0.011639f, -0.017890f, 0.020678f, -0.057138f, 0.089847f, 0.001660f, 0.015225f, -0.072409f, 0.061381f, 0.061978f,
    0.058719f, 0.057880f, -0.004539f, 0.035109f, 0.009026f, 0.078052f, 0.028310f, 0.053417f, 0.088496f, 0.056230f,
    0.029580f, 0.051126f, -0.059205f, -0.037861f, 0.031594f, 0.061240f, 0.007235f, -0.048330f, 0.004331f, -0.083575f,
    -0.034656f, 0.005214f, -0.021941f, -0.056683f, 0.088183f, -0.054201f, -0.033557f, -0.063037f, -0.037360f, 0.099038f,
    0.092020f, -0.093724f, 0.044646f, 0.084687f, 0.025825f, -0.087411f, -0.031925f, 0.090976f, 0.098086f, -0.033519f,
    0.083032f, 0.069224f, 0.008819f, -0.090455f, -0.040837f, -0.001032f, 0.071514f, 0.031861f, -0.022158f, -0.013912f,
    0.041915f, -0.084369f, 0.074697f, 0.019551f, 0.046226f, 0.024616f, 0.029344f, 0.010581f, -0.053925f, 0.055638f,
    0.066611f, 0.034927f, 0.088091f, -0.098067f, -0.039456f, 0.014472f, -0.012199f, 0.012842f, 0.084085f, -0.057047f,
    0.043352f, 0.066936f, 0.051840f, 0.027839f, -0.078682f, -0.008741f, -0.064746f, -0.022553f, 0.055976f, -0.028824f,
    -0.045184f, 0.088166f, 0.082801f, -0.101121f, 0.048880f, -0.018484f, 0.008825f, -0.005278f, 0.004654f, -0.006794f,
    0.029076f, -0.042222f, 0.053952f, -0.086367f, -0.064098f, 0.010326f, 0.096822f, 0.083112f, -0.064209f, -0.083866f,
    0.022595f, -0.041568f, -0.068932f, 0.015756f, -0.091182f, 0.027463f, 0.040021f, 0.035096f, -0.086995f, 0.029028f,
    -0.022151f, 0.067826f, 0.072276f, 0.057728f, -0.069887f, -0.059860f, -0.000230f, -0.082300f, -0.083674f, -0.037535f,
    -0.097431f, 0.093228f, -0.011825f, 0.027539f, -0.081160f, -0.065484f, 0.067314f, 0.073096f, 0.013439f, -0.018608f,
    -0.017685f, -0.100454f, -0.000800f, -0.048261f, -0.076432f, -0.044747f, 0.049731f, -0.038897f, 0.044893f, 0.056516f,
    -0.020764f, 0.031579f, -0.093893f, -0.078049f, 0.083444f, 0.066645f, -0.101147f, -0.085306f, -0.003398f, -0.012650f,
    -0.008055f, 0.022753f, 0.053418f, 0.040448f, 0.049257f, 0.046020f, -0.038563f, -0.062366f, 0.079879f, -0.086108f,
    -0.009669f, -0.070566f, -0.049060f, 0.066472f, 0.012530f, 0.073299f, -0.028117f, 0.066971f, 0.072413f, 0.095992f,
    -0.034705f, 0.012314f, -0.099182f, -0.011884f, -0.092791f, 0.083495f, 0.007833f, -0.089149f, -0.069405f, -0.029664f,
    -0.010286f, 0.050400f, -0.026383f, -0.076401f, -0.085064f, 0.089877f, -0.019409f, -0.058493f, -0.066116f, 0.011630f,
    -0.053512f, -0.048349f, 0.011253f, -0.002889f, 0.070479f, -0.064099f, -0.068457f, 0.057900f, -0.032207f, -0.097253f,
    0.068103f, 0.045451f, 0.101289f, -0.028102f, -0.089484f, -0.017797f, 0.060118f, 0.008410f, -0.072403f, -0.081037f,
    0.097033f, -0.048662f, 0.058476f, 0.024788f, -0.079673f, -0.097151f, 0.094229f, -0.079962f, 0.051130f, 0.012368f,
    -0.078219f, -0.019396f, -0.094290f, -0.037005f, -0.021684f, -0.090673f, -0.075506f, 0.098884f, -0.069601f, 0.080206f,
    -0.020588f, 0.099458f, 0.007734f, 0.020319f, -0.077275f, 0.016505f, 0.018993f, -0.030849f, 0.049189f, 0.100025f,
    0.098960f, -0.004262f, -0.058993f, 0.006014f, 0.060019f, 0.081008f, 0.073294f, 0.030705f, 0.006228f, -0.038787f,
    -0.094811f, 0.096687f, 0.097420f, -0.033490f, -0.079007f, 0.095446f, -0.045894f, -0.048626f, -0.038212f, 0.073894f,
    0.096021f, -0.044096f, 0.009533f, -0.066809f, 0.096181f, 0.051550f, -0.062706f, 0.064645f, 0.065023f, 0.070455f,
    -0.099469f, 0.035611f, 0.079597f, 0.079739f, 0.024529f, 0.041030f, 0.030964f, 0.012618f, 0.082489f, 0.017631f,
    -0.006369f, 0.015562f, 0.017619f, -0.092618f, -0.043561f, 0.054615f, -0.046239f, -0.064846f, 0.095909f, 0.013404f,
    -0.039747f, 0.008074f, 0.029997f, 0.042072f, -0.016940f, 0.042121f, 0.008955f, 0.005120f, -0.087603f, 0.028346f,
    -0.042883f, -0.021025f, -0.039785f, 0.077301f, -0.082086f, -0.047979f, 0.097646f, 0.031007f, -0.100043f, 0.042950f,
    -0.010027f, 0.073922f, -0.097927f, 0.055996f, 0.087819f, 0.042348f, -0.007664f, 0.054826f, 0.008941f, -0.061481f,
    -0.021192f, 0.057193f, -0.062872f, 0.065009f, 0.098681f, 0.007557f, -0.043496f, -0.043344f, 0.054774f, 0.062456f,
    -0.038061f, -0.077478f, 0.076110f, 0.043328f, 0.084939f, -0.053678f, 0.034342f, -0.033409f, 0.044927f, -0.036560f,
    -0.066312f, 0.059012f, 0.054981f, 0.085828f, 0.037000f, 0.060513f, 0.021039f, -0.076271f, -0.048755f, -0.089188f,
    -0.034973f, -0.077682f, 0.084364f, 0.024049f, -0.008974f, -0.075050f, -0.084425f, 0.029166f, -0.098668f, 0.090373f,
    0.048121f, 0.037980f, -0.035130f, -0.082275f, -0.086446f, 0.043451f, 0.063620f, 0.089863f, 0.009090f, 0.011265f,
    -0.050428f, -0.049200f, 0.021188f, 0.099626f, -0.060411f, 0.077683f, 0.071398f, -0.026043f, 0.034344f, 0.019119f,
    -0.082225f, -0.004285f, -0.019127f, -0.091201f, 0.086949f, -0.032540f, -0.011689f, -0.008537f, 0.099024f, -0.030572f,
    0.020703f, -0.039617f, 0.051079f, 0.031940f, 0.070140f, -0.096017f, -0.049184f, 0.059392f, 0.050331f, 0.021328f,
    -0.011670f, -0.022804f, 0.080954f, -0.029879f, 0.007207f, -0.090883f, 0.073908f, -0.088296f, -0.045105f, 0.008527f,
    -0.077265f, 0.039116f, 0.062932f, -0.062942f, 0.080523f, 0.042530f, 0.032873f, -0.041535f, 0.055902f, -0.054083f,
    0.099476f, -0.078931f, -0.015006f, 0.067904f, 0.015839f, 0.010557f, -0.099957f, 0.067995f, -0.028142f, -0.049933f,
    -0.029703f, 0.071941f, 0.018978f, 0.016420f, 0.055148f, 0.056896f, -0.041936f, 0.094487f, -0.076990f, -0.092282f,
    -0.052044f, 0.001450f, -0.024540f, 0.012814f, 0.016049f, 0.029695f, 0.048891f, -0.014988f, -0.003196f, 0.070129f,
    -0.019288f, 0.071352f, -0.046130f, 0.086150f, -0.002357f, 0.003577f, 0.061533f, 0.036938f, -0.022448f, 0.060427f,
    -0.070056f, -0.053437f, -0.006503f, 0.026227f, -0.029388f, -0.077921f, -0.083700f, -0.050995f, 0.019508f, -0.006790f,
    -0.003188f, 0.003574f, -0.019371f, -0.009705f, -0.022344f, 0.065384f, 0.046547f, -0.067369f, 0.017684f, 0.078532f,
    -0.097303f, -0.082947f, 0.014216f, 0.071544f, -0.081502f, -0.093284f, -0.093271f, -0.056440f, -0.032333f, -0.083564f,
    0.013575f, -0.035739f, -0.053015f, 0.051445f, -0.027017f, -0.039509f, -0.056814f, -0.041664f, -0.038577f, 0.088154f,
    0.030181f, 0.102108f, 0.008863f, -0.020805f, -0.028738f, -0.094740f, -0.044964f, -0.058884f, 0.013753f, 0.059933f,
    0.084643f, 0.004596f, 0.076723f, -0.072712f, 0.040088f, -0.076955f, 0.021150f, -0.033744f, 0.012655f, -0.041993f,
    0.077965f, -0.003167f, -0.086872f, 0.022368f, 0.025129f, 0.022897f, 0.080394f, -0.002707f, 0.085150f, -0.017597f,
    -0.063798f, 0.097241f, 0.082637f, -0.067208f, 0.082417f, -0.081560f, -0.055484f, 0.076789f, -0.024981f, -0.005776f,
    -0.085908f, 0.011780f, 0.093399f, -0.081814f, 0.031065f, 0.086394f, -0.099477f, -0.003005f, 0.088065f, -0.028519f,
    0.052289f, -0.034347f, 0.010494f, 0.093389f, 0.083053f, 0.017404f, 0.066946f, 0.028788f, -0.064695f, 0.061482f,
    0.065151f, -0.023676f, -0.056573f, 0.004382f, 0.023439f, -0.058113f, -0.087687f, -0.045523f, 0.078447f, -0.015462f,
    0.004861f, 0.037033f, -0.093937f, -0.052807f, -0.037308f, 0.084931f, -0.069884f, 0.038312f, 0.014859f, 0.025262f,
    -0.084775f, 0.014359f, -0.066208f, 0.048377f, -0.026496f, -0.074718f, -0.024892f, -0.043097f, 0.031755f, 0.041219f,
    -0.040217f, 0.013638f, 0.053369f, 0.054642f, -0.090213f, 0.041290f, -0.057208f, -0.014403f, 0.009535f, -0.048083f,
    0.095589f, -0.070338f, 0.100613f, 0.032824f, -0.072784f, -0.061756f, 0.024182f, 0.005182f, 0.001391f, -0.019694f,
    -0.068310f, -0.021628f, 0.042116f, 0.063469f, 0.085517f, 0.084326f, -0.016522f, -0.013812f, -0.017137f, 0.095979f,
    0.090389f, 0.043228f, -0.067438f, -0.091494f, -0.025502f, 0.086709f, -0.084966f, 0.096342f, -0.067189f, 0.010092f,
    0.021732f, -0.049199f, 0.009065f, -0.079162f, -0.036040f, 0.082538f, 0.073351f, -0.021823f, 0.042094f, 0.094562f,
    0.045016f, -0.071878f, 0.014196f, -0.067012f, -0.032868f, -0.040652f, -0.071170f, 0.022058f, 0.063478f, 0.027589f,
    0.052926f, 0.066166f, -0.061825f, -0.099481f, 0.086413f, 0.089514f, 0.077380f, 0.051485f, -0.024826f, -0.059184f,
    -0.007319f, 0.048406f, -0.026394f, 0.064222f, -0.063001f, -0.038118f, -0.094909f, -0.076235f, -0.044685f, -0.061152f,
    -0.037711f, -0.037717f, 0.025802f, 0.074521f, 0.090724f, -0.050394f, 0.044497f, 0.084415f, -0.011171f, 0.027362f,
    0.096377f, 0.093632f, -0.009003f, -0.047932f, -0.068660f, -0.031053f, -0.071981f, 0.005200f, 0.035503f, 0.032243f,
    0.072422f, 0.026452f, -0.088355f, 0.065319f, 0.078143f, 0.060071f, -0.030431f, 0.042207f, -0.021929f, 0.029652f,
    -0.024792f, 0.028795f, 0.097779f, 0.093655f, -0.062186f, 0.080975f, 0.089743f, -0.083191f, -0.070844f, -0.007250f,
    0.093545f, 0.006650f, -0.036733f, 0.005568f, 0.015730f, 0.078327f, -0.074211f, 0.078264f, -0.015347f, -0.020784f,
    0.053662f, 0.035996f, 0.087951f, 0.053884f, -0.002875f, -0.044509f, 0.049577f, -0.014348f, -0.031390f, -0.019075f,
    -0.014923f, 0.023322f, -0.058838f, -0.017148f, -0.072347f, -0.092933f, -0.054965f, -0.007545f, 0.011183f, 0.086319f,
    0.092291f, -0.088066f, -0.055224f, -0.031604f, 0.084550f, 0.028807f, -0.046040f, -0.046700f, -0.080092f, -0.043734f,
    -0.076876f, -0.044435f, 0.096054f, -0.051985f, 0.004154f, -0.002557f, 0.049541f, -0.091282f, -0.079711f, -0.059988f,
    -0.049958f, 0.068008f, 0.050965f, -0.102728f, -0.023385f, -0.036775f, -0.012640f, 0.102910f, -0.092204f, 0.048702f,
    -0.096902f, 0.054063f, 0.078820f, -0.006776f, -0.031519f, 0.083172f, -0.011309f, -0.082715f, 0.085163f, 0.047452f,
    0.001487f, 0.044023f, -0.084714f, 0.068415f, 0.093061f, 0.039972f, 0.090547f, -0.088182f, 0.030014f, 0.008823f,
    -0.004260f, 0.013161f, -0.056219f, -0.081536f, -0.037510f, -0.073251f, 0.011707f, 0.001180f, -0.090917f, -0.099507f,
    0.013649f, 0.098167f, 0.037203f, 0.078589f, 0.004583f, -0.042694f, 0.069344f, -0.022043f, -0.022392f, 0.087421f,
    0.042882f, -0.051542f, -0.023537f, 0.015340f, 0.035936f, 0.067311f, 0.036452f, 0.044712f, 0.093892f, 0.052284f,
    -0.002106f, -0.023525f, -0.092475f, 0.096193f, 0.035439f, 0.054961f, 0.016000f, 0.001000f, -0.020682f, -0.091848f,
    -0.092491f, 0.023170f, 0.004961f, 0.098271f, -0.092041f, -0.073791f, 0.089754f, 0.082233f, -0.089668f, 0.077545f,
    0.083325f, -0.054475f, -0.009455f, -0.091964f, 0.009179f, -0.037523f, 0.037956f, 0.094200f, -0.045089f, -0.070000f,
    -0.056377f, -0.035233f, -0.040903f, -0.012734f, -0.085550f, -0.041382f, 0.095880f, 0.093059f, 0.089059f, -0.011171f,
    -0.017027f, 0.100916f, 0.059781f, 0.063807f, 0.093558f, -0.089277f, 0.093627f, -0.072043f, 0.081067f, -0.044788f,
    -0.053488f, -0.026125f, 0.055435f, -0.094640f, 0.007839f, 0.029473f, 0.051280f, 0.015524f, -0.036259f, 0.031913f,
    -0.079670f, -0.011408f, -0.066745f, 0.073371f, 0.023316f, -0.020974f, -0.090351f, -0.001420f, -0.080712f, -0.053828f,
    0.096710f, -0.038353f, 0.092153f, 0.010822f, -0.087033f, -0.038875f, 0.056796f, -0.069782f, -0.036320f, 0.093170f,
    -0.083551f, -0.010185f, -0.090159f, 0.039270f, -0.068463f, 0.067524f, -0.013238f, 0.002381f, -0.070905f, -0.070954f,
    -0.012460f, 0.051011f, -0.086175f, 0.016276f, -0.055787f, -0.055746f, 0.052566f, 0.018817f, -0.091097f, 0.025195f,
    -0.023270f, -0.050629f, 0.034862f, 0.051632f, 0.034854f, 0.017665f, 0.064501f, 0.029659f, 0.018598f, 0.003161f,
    -0.040345f, 0.030806f, 0.016075f, -0.087522f, -0.011339f, -0.074040f, 0.099374f, 0.039248f, -0.071837f, 0.085820f,
    -0.073311f, 0.084913f, -0.090923f, -0.043978f, 0.036232f, -0.032248f, -0.026956f, 0.000690f, -0.060642f, -0.009709f,
    0.099767f, 0.057482f, 0.051494f, -0.059423f, 0.003621f, 0.008156f, -0.009046f, 0.069132f, 0.009905f, 0.099954f,
    0.031126f, -0.089663f, 0.089621f, 0.069406f, 0.082300f, -0.080161f, 0.032029f, 0.018467f, 0.014909f, -0.049375f,
    -0.039987f, 0.054309f, -0.084098f, -0.005025f, -0.053719f, -0.032712f, 0.072862f, -0.020336f, 0.015569f, 0.039748f,
    0.072947f, -0.071869f, 0.100946f, 0.071535f, -0.081321f, -0.006388f, -0.066170f, 0.064679f, -0.094560f, 0.054688f,
    -0.027441f, 0.012593f, -0.115883f, 0.022550f, -0.077057f, 0.095608f, 0.024472f, 0.081156f, -0.037524f, -0.007185f,
    0.024870f, -0.062810f, 0.004170f, 0.008244f, -0.027470f, 0.053433f, 0.050746f, -0.098120f, -0.001950f, 0.039684f,
    -0.054984f, -0.087851f, -0.012233f, -0.053578f, -0.034568f, -0.095626f, -0.015716f, -0.045552f, -0.095290f, 0.031246f,
    0.062742f, 0.018554f, 0.081159f, 0.009971f, -0.003338f, 0.019322f, -0.025926f, 0.057249f, -0.088548f, 0.065110f,
    -0.013196f, 0.049491f, 0.039616f, -0.021472f, -0.072570f, -0.090364f, -0.010666f, -0.100250f, -0.068543f, 0.065879f,
    0.058526f, 0.025565f, -0.035034f, 0.060322f, -0.066902f, 0.099719f, 0.097596f, 0.082500f, -0.048030f, 0.066595f,
    -0.100872f, 0.088152f, -0.015117f, 0.044356f, -0.020991f, 0.021265f, 0.031960f, -0.088071f, 0.020537f, 0.052553f,
    0.041469f, -0.072658f, 0.082438f, 0.076543f, -0.072549f, -0.047301f, -0.006417f, 0.066694f, 0.007266f, -0.080581f,
    0.060842f, -0.070810f, 0.042842f, -0.017940f, 0.097745f, 0.079999f, -0.015512f, 0.057562f, -0.022384f, 0.094457f,
    0.012634f, -0.088502f, 0.096072f, 0.074226f, -0.085040f, 0.025848f, -0.093834f, -0.100579f, 0.065754f, -0.033588f,
    0.101548f, 0.059445f, -0.044548f, 0.009244f, -0.030538f, 0.086307f, -0.099048f, 0.070418f, 0.029979f, 0.065775f,
    -0.055829f, 0.007552f, -0.034474f, -0.056065f, 0.071214f, 0.028998f, -0.035649f, -0.014652f, -0.099110f, 0.053308f,
    -0.097254f, -0.067914f, 0.034369f, 0.023781f, -0.032974f, 0.051170f, 0.092769f, 0.044914f, -0.062111f, -0.011304f,
    0.101802f, -0.049334f, -0.093791f, 0.039912f, 0.009195f, -0.053878f, -0.041290f, 0.076514f, 0.040302f, 0.064077f,
    0.064947f, -0.041882f, -0.052338f, 0.038157f, -0.012886f, 0.077104f, -0.031155f, -0.027846f, 0.003237f, -0.074050f,
    0.064991f, -0.004338f, 0.099469f, 0.098151f, -0.091777f, -0.086749f, -0.067962f, 0.075429f, -0.074601f, -0.006532f,
    -0.065268f, 0.079968f, -0.055968f, 0.059174f, 0.061113f, -0.051321f, 0.072058f, -0.006074f, 0.033836f, -0.014710f,
    -0.081376f, 0.018543f, -0.068500f, 0.090512f, 0.057629f, 0.028789f, -0.070659f, 0.091285f, 0.027213f, -0.015306f,
    0.092805f, 0.014935f, 0.018965f, 0.065002f, -0.017449f, -0.005462f, -0.050647f, -0.056883f, 0.007233f, 0.012963f,
    -0.051504f, 0.059772f, -0.000082f, 0.081122f, -0.028521f, -0.040646f, -0.094638f, 0.091994f, -0.073149f, 0.094247f,
    0.066412f, 0.088745f, -0.059677f, 0.040285f, -0.067463f, -0.014450f, -0.000941f, 0.059627f, -0.055516f, -0.064219f,
    -0.015252f, 0.074250f, -0.039537f, 0.088341f, 0.092983f, 0.010882f, 0.050821f, -0.066871f, -0.059782f, -0.047771f,
    -0.039415f, -0.019176f, 0.059458f, -0.019649f, -0.012444f, 0.052048f, 0.002413f, -0.000074f, 0.016000f, -0.036133f,
    0.076066f, -0.019158f, -0.047355f, -0.084743f, -0.022322f, -0.087598f, 0.084068f, -0.007645f, 0.011012f, -0.018948f,
    0.080246f, 0.002339f, 0.060385f, 0.054353f, 0.082511f, -0.101371f, 0.090285f, 0.085607f, -0.101423f, -0.084771f,
    0.087935f, -0.070803f, -0.022142f, -0.011882f, -0.060659f, -0.000201f, -0.098038f, -0.093575f, 0.041838f, -0.091554f,
    0.080476f, 0.047507f, 0.101225f, 0.099226f, 0.041735f, -0.027218f, 0.037288f, 0.073052f, 0.079754f, -0.090414f,
    -0.087632f, 0.003098f, 0.006387f, -0.093218f, 0.066891f, 0.065126f, 0.024519f, -0.025843f, 0.018266f, 0.006404f,
    0.009650f, 0.016868f, -0.014569f, -0.064870f, 0.085782f, 0.052904f, -0.033133f, 0.081975f, -0.038965f, 0.003483f,
    -0.028565f, -0.026260f, -0.046661f, -0.054556f, -0.039624f, -0.040923f, 0.021923f, 0.007280f, -0.006627f, 0.026291f,
    0.092870f, -0.080918f, -0.101273f, -0.029585f, -0.006505f, 0.093580f, 0.015555f, -0.007213f, 0.012760f, -0.058223f,
    -0.022967f, 0.008294f, -0.075454f, 0.060994f, 0.041871f, -0.000368f, -0.005145f, 0.082925f, 0.030444f, 0.018341f,
    -0.049181f, 0.044476f, 0.043690f, 0.090819f, -0.003032f, -0.091742f, 0.086325f, -0.034389f, 0.074072f, 0.071065f,
    0.065468f, -0.050846f, -0.028291f, -0.007266f, -0.033366f, -0.030045f, 0.051253f, 0.079891f, 0.062434f, -0.100242f,
    -0.023412f, -0.021796f, -0.039883f, -0.042358f, -0.050558f, 0.059603f, -0.095927f, -0.073207f, -0.016745f, -0.018277f,
    0.057898f, -0.050406f, 0.002762f, -0.064344f, -0.074187f, 0.047326f, -0.050781f, -0.005164f, -0.017711f, 0.079691f,
    0.091791f, 0.039109f, -0.077587f, 0.020575f, 0.063560f, 0.030682f, -0.048510f, -0.052101f, 0.040911f, 0.006748f,
    -0.098015f, 0.006569f, -0.010763f, -0.045019f, -0.014297f, 0.002151f, -0.053295f, 0.099949f, -0.026527f, -0.083431f,
    -0.083631f, -0.040940f, -0.089529f, -0.084000f, 0.056337f, -0.082148f, -0.031185f, 0.014577f, 0.058657f, 0.015066f,
    0.060577f, -0.039854f, -0.015250f, 0.063442f, 0.057117f, -0.097605f, 0.008360f, -0.057947f, 0.091815f, -0.035080f,
    0.052513f, -0.072497f, 0.011108f, 0.046808f, -0.100326f, -0.057541f, 0.045314f, -0.044581f, -0.035765f, -0.061257f,
    0.008625f, -0.071624f, -0.014454f, -0.100159f, 0.063048f, -0.033882f, 0.051447f, -0.058148f, 0.019005f, -0.006911f,
    0.064736f, 0.084502f, 0.009963f, 0.040053f, 0.023058f, -0.051027f, 0.045063f, 0.043700f, 0.051443f, 0.033634f,
    -0.020891f, -0.014552f, 0.014345f, -0.037456f, -0.030087f, 0.051827f, 0.014390f, 0.028498f, -0.043958f, 0.068929f,
    -0.023760f, 0.037659f, -0.006016f, -0.050926f, 0.063337f, -0.029246f, 0.068465f, 0.096624f, 0.005782f, 0.006842f,
    -0.018252f, 0.053847f, -0.030485f, 0.058612f, 0.074591f, -0.072086f, -0.069180f, 0.007010f, -0.093230f, -0.088663f,
    0.031883f, 0.033170f, 0.060930f, 0.081669f, -0.101009f, -0.029358f, 0.040726f, -0.085124f, 0.016166f, -0.009650f,
    0.056059f, -0.055497f, -0.053083f, -0.037474f, 0.066209f, 0.027769f, -0.028716f, -0.081323f, 0.081444f, 0.017654f,
    -0.023754f, -0.083863f, -0.035360f, -0.037808f, -0.020886f, -0.004359f, -0.021171f, -0.067128f, -0.083719f, -0.058206f,
    -0.078070f, -0.066015f, -0.048572f, -0.051220f, 0.043118f, 0.036853f, -0.020597f, -0.029845f, 0.037303f, -0.068180f,
    -0.089911f, -0.024955f, 0.003795f, 0.085507f, 0.040378f, 0.001771f, 0.088057f, -0.048334f, 0.035829f, -0.098487f,
    -0.024918f, -0.028633f, -0.096856f, -0.028692f, 0.084745f, -0.081281f, 0.041292f, -0.073451f, -0.099698f, 0.072422f,
    -0.047414f, 0.011085f, 0.031670f, 0.088278f, -0.006340f, -0.025582f, -0.049238f, 0.033497f, -0.073555f, -0.009035f,
    0.086696f, -0.076514f, 0.052729f, 0.098723f, -0.099410f, 0.038997f, 0.039435f, 0.083907f, 0.047242f, -0.028997f,
    0.027486f, -0.064317f, -0.035363f, 0.036644f, -0.052154f, 0.099004f, -0.036874f, 0.091739f, 0.076891f, -0.068798f,
    0.051375f, -0.038495f, 0.031777f, -0.080755f, 0.042735f, -0.016103f, 0.054944f, -0.066059f, 0.039978f, -0.037898f,
    -0.006197f, 0.031822f, 0.000299f, 0.076127f, 0.053430f, 0.072796f, -0.025932f, 0.056933f, 0.045393f, -0.063634f,
    0.023000f, 0.062252f, -0.022025f, -0.043616f, -0.006308f, 0.016647f, -0.002064f, 0.023402f, 0.002314f, -0.050205f,
    0.001481f, -0.099030f, -0.021083f, 0.100640f, 0.008124f, -0.047356f, -0.052001f, -0.047930f, 0.098042f, -0.033683f,
    0.003967f, 0.091185f, 0.067642f, -0.082429f, 0.082761f, -0.006840f, -0.013409f, -0.101425f, -0.057796f, 0.035941f,
    -0.039080f, -0.049948f, 0.073912f, 0.101410f, 0.065044f, -0.036765f, -0.013816f, -0.087150f, 0.047075f, 0.054913f,
    -0.014486f, 0.016606f, -0.056781f, -0.049207f, 0.020795f, -0.059714f, 0.084727f, 0.039564f, -0.001391f, -0.008250f,
    0.005289f, 0.030423f, 0.025585f, 0.060948f, -0.005622f, -0.067129f, 0.063081f, -0.009376f, -0.048905f, -0.044040f,
    0.051123f, -0.007297f, 0.012799f, 0.062177f, -0.033614f, -0.016655f, 0.099472f, -0.066737f, -0.010215f, 0.042082f,
    -0.031632f, -0.039166f, -0.055695f, -0.081635f, -0.060288f, -0.067159f, 0.068883f, -0.101125f, -0.014102f, -0.081338f,
    -0.012660f, 0.004409f, -0.040491f, 0.014205f, 0.001898f, 0.070020f, -0.010506f, -0.047932f, 0.084572f, 0.101707f,
    -0.000531f, 0.007771f, -0.015861f, -0.078992f, 0.053630f, -0.081100f, -0.055320f, 0.093647f, -0.060548f, -0.000329f,
    0.089487f, -0.078875f, -0.010235f, -0.039145f, -0.085547f, -0.081831f, -0.013423f, -0.017674f, 0.050993f, -0.057633f,
    -0.099991f, 0.078317f, 0.052931f, 0.050326f, -0.025739f, -0.015946f, -0.078637f, -0.064365f, 0.051635f, 0.067562f,
    -0.075389f, 0.032027f, 0.093351f, 0.048702f, -0.046897f, -0.082924f, -0.096173f, -0.088668f, -0.001505f, -0.101248f,
    0.069928f, 0.019595f, 0.055221f, 0.029731f, -0.042328f, 0.044478f, -0.019807f, 0.041787f, -0.101131f, 0.087519f,
    -0.036728f, 0.074368f, 0.087854f, -0.060042f, 0.008873f, 0.029399f, -0.055510f, -0.054747f, -0.010424f, -0.008264f,
    0.038134f, -0.001673f, -0.032339f, -0.015916f, -0.049559f, -0.027045f, 0.099788f, 0.058489f, -0.015374f, 0.063213f,
    0.022621f, 0.050418f, -0.073662f, 0.059888f, 0.018816f, 0.059102f, 0.100081f, -0.010820f, -0.082734f, 0.095152f,
    -0.022344f, 0.058849f, -0.044841f, 0.030166f, 0.008097f, 0.098321f, 0.050523f, 0.058382f, 0.052832f, 0.101872f,
    0.029689f, -0.018519f, 0.018327f, 0.068943f, -0.013389f, 0.017345f, -0.024087f, -0.077969f, 0.060232f, -0.072581f,
    0.022661f, -0.082793f, -0.056601f, 0.075445f, -0.071387f, -0.039801f, -0.031764f, 0.043131f, 0.099724f, -0.013497f,
    0.012112f, 0.035463f, 0.042248f, -0.088368f, 0.078086f, -0.002446f, -0.014446f, 0.041231f, -0.083064f, 0.029832f,
    -0.025045f, -0.072415f, 0.096606f, 0.091827f, -0.024157f, 0.063766f, 0.059478f, -0.010420f, 0.030471f, 0.065147f,
    -0.060843f, -0.089747f, -0.083611f, -0.071867f, 0.051270f, 0.054276f, -0.075077f, -0.075687f, -0.087820f, -0.046338f,
    0.041893f, -0.097868f, 0.070137f, -0.086880f, 0.009128f, -0.077786f, 0.047064f, 0.093345f, -0.012222f, -0.096700f,
    -0.073879f, 0.025174f, -0.039204f, 0.089081f, -0.039652f, -0.067467f, -0.046359f, -0.035888f, -0.059797f, -0.060393f,
    -0.006968f, -0.056612f, 0.084174f, -0.066609f, -0.006725f, -0.063269f, 0.087955f, 0.071547f, -0.031228f, 0.074768f,
    0.083014f, 0.097590f, 0.055993f, 0.015995f, 0.024802f, 0.083327f, 0.092041f, 0.101989f, 0.048368f, -0.050462f,
    0.066071f, 0.035131f, -0.100303f, 0.083865f, 0.020880f, 0.080418f, -0.053248f, 0.093589f, -0.081966f, -0.062228f,
    0.073485f, -0.101908f, 0.062722f, 0.076494f, 0.070134f, 0.090194f, -0.003458f, -0.007460f, 0.089732f, -0.030349f,
    0.048414f, 0.088456f, 0.031031f, -0.031220f, -0.101222f, -0.061112f, 0.015807f, 0.000601f, 0.069798f, -0.049628f,
    0.074821f, -0.042483f, -0.073604f, 0.095817f, 0.002078f, 0.057620f, 0.073969f, -0.083925f, 0.054703f, 0.062448f,
    -0.009683f, 0.048209f, 0.006130f, 0.039683f, -0.095842f, -0.025700f, 0.052944f, -0.011285f, 0.041936f, -0.093465f,
    0.066692f, -0.048416f, 0.004600f, -0.052646f, -0.096584f, -0.034404f, -0.019690f, 0.050098f, -0.006955f, 0.095499f,
    0.070303f, 0.064632f, -0.081758f, 0.098296f, 0.035473f, -0.030913f, 0.073367f, -0.101125f, -0.057110f, 0.014616f,
    -0.034396f, 0.036887f, -0.016826f, 0.057612f, 0.027537f, -0.085028f, -0.053329f, -0.018989f, 0.058501f, -0.085186f,
    0.060084f, -0.001006f, -0.006112f, 0.073467f, -0.069663f, 0.082235f, 0.027673f, -0.013022f, 0.002671f, -0.056837f,
    0.013293f, 0.065818f, 0.034406f, 0.098030f, -0.061423f, -0.089266f, 0.061942f, -0.092970f, 0.006765f, -0.001900f,
    0.004418f, -0.100142f, -0.037096f, -0.004778f, -0.002139f, -0.099454f, -0.063960f, -0.100717f, 0.037318f, 0.014950f,
    0.054034f, 0.017550f, -0.051242f, 0.082768f, -0.048416f, 0.069133f, 0.052683f, -0.002896f, 0.091466f, 0.046567f,
    0.010338f, 0.022443f, 0.066393f, 0.059716f, 0.056459f, 0.083813f, 0.075377f, 0.025932f, 0.083474f, -0.073512f,
    -0.070955f, -0.005291f, -0.040380f, 0.096309f, 0.075644f, -0.084580f, 0.024762f, -0.029142f, 0.095333f, -0.072780f,
    0.083307f, 0.077054f, 0.080753f, 0.054943f, -0.089278f, -0.099073f, 0.090751f, 0.019702f, -0.075318f, 0.076511f,
    0.096069f, 0.036840f, 0.081181f, -0.022279f, -0.062834f, -0.022171f, -0.064374f, -0.094023f, -0.061665f, -0.018052f,
    -0.007624f, -0.097067f, 0.074215f, 0.026296f, -0.082534f, 0.083176f, 0.017199f, 0.044017f, 0.069397f, -0.086785f,
    0.063529f, -0.065153f, 0.064792f, -0.077482f, -0.093103f, 0.009988f, 0.095367f, -0.040291f, -0.071064f, 0.053837f,
    -0.093928f, 0.002950f, -0.069531f, 0.094416f, 0.007374f, 0.060868f, -0.070665f, 0.018163f, 0.008995f, -0.083815f,
    0.084179f, -0.062095f, -0.058676f, 0.015390f, -0.001344f, 0.086191f, 0.083156f, -0.044560f, -0.049134f, 0.070475f,
    0.053923f, -0.095053f, 0.032583f, -0.077301f, 0.067943f, 0.007998f, 0.062164f, 0.094548f, 0.063412f, -0.070383f,
    -0.004778f, 0.004139f, 0.080096f, -0.067525f, 0.090905f, -0.016472f, -0.061987f, -0.048644f, -0.051362f, 0.076869f,
    -0.033556f, 0.035071f, -0.041340f, -0.096752f, 0.045069f, 0.021137f, 0.014652f, 0.050935f, -0.023617f, -0.067862f,
    -0.007369f, -0.092667f, 0.006943f, -0.007837f, 0.068104f, -0.086163f, -0.007582f, -0.015966f, 0.097220f, -0.058548f,
    -0.071544f, 0.091991f, -0.021452f, -0.002014f, -0.060739f, -0.043042f, 0.006979f, -0.039832f, -0.064645f, -0.040913f,
    0.076756f, 0.023706f, -0.100323f, 0.072855f, -0.073677f, 0.079522f, 0.063050f, 0.086901f, 0.097005f, -0.065983f,
    -0.074185f, -0.059902f, -0.016922f, 0.092516f, 0.072721f, -0.062539f, 0.061352f, 0.038984f, 0.098967f, 0.037229f,
    0.093215f, -0.012805f, -0.099862f, -0.091174f, 0.021973f, -0.076365f, -0.052688f, -0.057379f, -0.066507f, -0.022358f,
    -0.009777f, 0.092919f, 0.100110f, 0.056506f, 0.046282f, -0.078634f, 0.089047f, -0.087844f, 0.019994f, 0.102062f,
    0.000130f, -0.062671f, -0.005267f, -0.048586f, 0.033669f, -0.078134f, 0.084564f, -0.089857f, -0.055230f, -0.066479f,
    0.058129f, 0.006378f, -0.063045f, -0.072671f, -0.040750f, -0.048664f, 0.078106f, 0.093084f, -0.087380f, -0.078503f,
    0.030906f, 0.065537f, -0.090038f, 0.015710f, -0.041123f, -0.053278f, -0.086102f, 0.033476f, -0.003980f, -0.082425f,
    -0.061686f, -0.083137f, 0.088289f, 0.005542f, 0.075799f, -0.062126f, 0.032553f, 0.029029f, 0.096452f, -0.062222f,
    -0.038724f, -0.079044f, 0.016993f, 0.020174f, 0.034580f, -0.052239f, 0.034971f, 0.002823f, -0.032108f, 0.026394f,
    0.078176f, 0.037433f, -0.080609f, -0.011215f, 0.025938f, -0.065278f, -0.088699f, 0.100717f, 0.001799f, -0.070240f,
    0.093325f, -0.049564f, -0.069084f, -0.086327f, -0.072445f, 0.041020f, 0.091267f, -0.039956f, -0.094542f, 0.094083f,
    -0.006825f, -0.039516f, -0.048735f, 0.015802f, 0.042508f, -0.034720f, -0.087570f, 0.048673f, 0.073126f, 0.030882f,
    0.088343f, -0.099380f, 0.030088f, -0.052508f, -0.095604f, 0.092352f, -0.055491f, 0.021290f, 0.092626f, -0.076802f,
    0.041344f, 0.017126f, 0.004955f, -0.080544f, -0.050828f, 0.031547f, 0.043778f, -0.049534f, 0.023446f, -0.023954f,
    0.033892f, -0.006695f, -0.008511f, 0.087073f, -0.020466f, 0.000415f, 0.012944f, 0.083493f, 0.045110f, 0.089650f,
    -0.016348f, 0.077417f, -0.088421f, -0.091566f, 0.022069f, 0.097563f, -0.034880f, -0.002149f, -0.092215f, 0.087372f,
    -0.092764f, -0.070488f, -0.012676f, 0.084450f, 0.094645f, -0.022347f, -0.001297f, -0.049484f, -0.046094f, 0.000091f,
    0.033557f, 0.071548f, -0.058405f, -0.019950f, 0.044104f, 0.121923f, 0.051672f, -0.011989f, -0.041040f, -0.029094f,
    0.006691f, 0.045659f, 0.075226f, -0.097138f, 0.054532f, 0.100650f, -0.030336f, -0.079904f, -0.076316f, -0.004144f,
    0.053488f, -0.057166f, -0.069093f, -0.017416f, -0.011165f, 0.089027f, -0.064887f, -0.038268f, 0.009838f, -0.015189f,
    -0.051496f, -0.062093f, 0.059939f, -0.037817f, 0.060787f, -0.009482f, 0.027911f, -0.039331f, 0.037715f, 0.077839f,
    -0.061869f, 0.089935f, -0.069771f, 0.049190f, -0.008690f, 0.031326f, -0.094506f, -0.030655f, -0.040741f, -0.084788f,
    0.014284f, 0.033821f, -0.054095f, 0.000340f, 0.015992f, 0.046976f, 0.003358f, -0.042769f, 0.042348f, 0.022463f,
    0.091392f, -0.055841f, 0.077641f, 0.032669f, 0.021150f, -0.082295f, 0.022060f, -0.023790f, -0.053112f, 0.073394f,
    -0.019020f, -0.006260f, -0.054926f, 0.046709f, -0.096355f, -0.088475f, -0.014802f, 0.019242f, -0.021071f, 0.029059f,
    0.084166f, 0.093226f, 0.022628f, 0.011532f, -0.087224f, 0.041293f, -0.002502f, -0.080746f, -0.030730f, 0.090859f,
    0.086884f, -0.072202f, 0.009896f, -0.003299f, 0.031271f, 0.015983f, -0.072403f, -0.096927f, 0.098575f, 0.025190f,
    -0.074680f, 0.085408f, -0.070676f, 0.043961f, 0.039065f, 0.076455f, 0.089882f, -0.027514f, 0.093565f, -0.038782f,
    0.032561f, 0.082403f, 0.046980f, -0.017750f, 0.016806f, 0.069738f, 0.046757f, -0.050894f, -0.020391f, 0.059237f,
    0.012158f, 0.065482f, -0.088623f, -0.068267f, 0.023765f, 0.099321f, 0.059788f, 0.050622f, 0.007928f, -0.063015f,
    -0.019611f, -0.016888f, 0.057624f, 0.073630f, 0.055496f, -0.005676f, -0.087549f, -0.028280f, -0.075393f, 0.026357f,
    0.064876f, -0.041831f, -0.001095f, -0.096737f, -0.048460f, 0.064979f, -0.001685f, 0.018606f, -0.020043f, 0.085805f,
    0.084878f, -0.001756f, 0.087481f, -0.008953f, -0.052169f, 0.056489f, 0.088159f, 0.007457f, 0.081968f, 0.097976f,
    0.014540f, 0.036335f, -0.050579f, -0.047570f, -0.044027f, 0.030759f, 0.056905f, -0.055295f, -0.090731f, 0.023985f,
    -0.000806f, -0.086393f, -0.066068f, 0.011330f, 0.062621f, 0.020774f, -0.062433f, -0.063483f, -0.091261f, 0.055031f,
    -0.011101f, 0.092165f, 0.061255f, -0.059910f, -0.044575f, 0.010220f, -0.015137f, 0.085283f, 0.064817f, -0.036922f,
    -0.043894f, 0.101772f, -0.095539f, -0.050192f, 0.082933f, -0.041070f, 0.030538f, -0.087631f, -0.001492f, 0.040238f,
    -0.062216f, -0.008052f, -0.085865f, 0.060943f, 0.020681f, -0.085548f, 0.014632f, -0.070166f, -0.017367f, -0.100131f,
    -0.098116f, 0.034446f, -0.032037f, -0.022313f, 0.054301f, 0.028155f, 0.000212f, -0.020259f, -0.052685f, 0.015908f,
    -0.014561f, 0.097198f, 0.009844f, -0.095837f, -0.035653f, -0.021477f, -0.080756f, 0.047811f, -0.074725f, 0.021531f,
    0.015239f, -0.093518f, 0.067472f, 0.040201f, 0.045186f, -0.017049f, -0.062417f, -0.020253f, 0.049071f, 0.068789f,
    -0.062662f, -0.039131f, -0.024881f, -0.060123f, 0.099778f, 0.057208f, -0.003840f, 0.017578f, 0.043043f, 0.020371f,
    0.047201f, 0.056544f, -0.098390f, 0.019978f, 0.001876f, 0.027848f, -0.016731f, -0.024563f, -0.059366f, 0.075314f,
    0.072352f, 0.097444f, -0.096549f, 0.066664f, -0.032458f, -0.093469f, -0.008432f, 0.066430f, -0.079613f, -0.056566f,
    0.020610f, -0.031585f, 0.042287f, -0.075124f, 0.064627f, 0.090955f, -0.046784f, 0.069761f, -0.107521f, 0.050545f,
    -0.000393f, -0.037378f, 0.001364f, 0.035418f, 0.035531f, 0.024060f, 0.016374f, 0.044126f, 0.086099f, 0.031822f,
    -0.028480f, -0.009583f, -0.028964f, -0.026524f, 0.029714f, -0.095185f, -0.063175f, 0.074634f, -0.089290f, -0.009310f,
    0.026181f, 0.011604f, -0.015602f, -0.045464f, -0.069387f, 0.016135f, 0.088421f, -0.091464f, 0.023979f, -0.095347f,
    0.034384f, 0.094110f, -0.048999f, -0.020873f, -0.003489f, -0.000058f, 0.066348f, 0.045331f, 0.084569f, -0.055659f,
    -0.089200f, -0.095097f, 0.062327f, -0.023382f, 0.072035f, 0.041995f, -0.022505f, 0.006956f, -0.038543f, 0.035291f,
    0.042193f, -0.023541f, 0.049183f, 0.036668f, -0.047278f, -0.038429f, -0.015309f, -0.082817f, -0.098655f, 0.014768f,
    0.061923f, -0.038391f, 0.048148f, 0.019551f, -0.056772f, 0.034884f, 0.080942f, 0.011423f, -0.017943f, -0.088829f,
    -0.034919f, 0.038006f, -0.061666f, 0.042092f, -0.040384f, -0.026699f, -0.079331f, 0.088114f, -0.093630f, -0.081409f,
    -0.079202f, 0.025217f, 0.008976f, 0.029991f, -0.024021f, 0.020283f, -0.076875f, -0.038081f, -0.088990f, 0.080495f,
    -0.001771f, 0.074431f, -0.020019f, -0.065134f, -0.046566f, -0.087876f, 0.079787f, 0.053775f, -0.067828f, -0.029503f,
    -0.096514f, 0.079237f, -0.023422f, -0.029293f, 0.067256f, -0.010263f, -0.011182f, 0.097982f, 0.088320f, -0.085432f,
    -0.009242f, 0.013884f, 0.036862f, -0.019284f, -0.054204f, -0.019220f, 0.084231f, -0.063390f, 0.094117f, -0.080826f,
    -0.081710f, -0.057179f, -0.022267f, 0.078491f, 0.017925f, 0.028245f, 0.075655f, -0.090437f, 0.083107f, 0.049958f,
    -0.052624f, -0.047792f, -0.078151f, -0.001921f, -0.069438f, 0.096670f, 0.037006f, 0.040062f, -0.026162f, 0.044383f,
    0.074990f, 0.066485f, 0.074661f, -0.098133f, 0.065485f, 0.030181f, -0.039870f, -0.096968f, 0.013774f, 0.060471f,
    -0.026641f, -0.088597f, 0.077565f, 0.004460f, -0.016869f, -0.074355f, -0.002064f, 0.043827f, -0.004905f, -0.033551f,
    -0.060377f, 0.068522f, -0.083122f, 0.077334f, -0.026649f, -0.052234f, -0.018628f, -0.095026f, 0.080415f, -0.024690f,
    -0.079203f, -0.026850f, -0.001002f, -0.098732f, 0.004866f, -0.001981f, -0.026828f, 0.049370f, -0.086803f, -0.094946f,
    -0.005957f, 0.013375f, -0.013461f, 0.024217f, -0.064182f, -0.086249f, -0.090112f, -0.067168f, 0.033683f, -0.025374f,
    -0.077693f, -0.093225f, -0.054909f, 0.024700f, -0.054924f, 0.030500f, 0.023388f, -0.018550f, -0.042708f, 0.023767f,
    -0.032427f, 0.089239f, -0.041735f, 0.042177f, -0.017729f, -0.096677f, -0.082663f, 0.073173f, 0.002058f, -0.032769f,
    -0.065031f, -0.038543f, 0.017692f, -0.044939f, 0.059970f, 0.032494f, -0.036749f, -0.012832f, 0.026204f, 0.046728f,
    0.098344f, 0.079656f, -0.003117f, 0.025074f, -0.023240f, 0.002658f, 0.087729f, 0.088977f, 0.042763f, 0.026658f,
    -0.024754f, -0.010637f, 0.066987f, 0.061761f, 0.033922f, 0.045286f, 0.044174f, 0.105466f, 0.018658f, -0.041501f,
    -0.076656f, -0.066335f, 0.045323f, 0.022452f, 0.008244f, 0.066310f, -0.016063f, 0.040632f, -0.014467f, 0.089731f,
    -0.051893f, 0.069448f, 0.092774f, 0.025639f, -0.015149f, 0.097823f, 0.044322f, -0.069339f, 0.001144f, 0.023781f,
    0.009220f, -0.045703f, 0.060527f, -0.037553f, -0.017961f, -0.027610f, -0.031745f, 0.033574f, -0.010999f, 0.087553f,
    -0.004983f, -0.017081f, -0.046262f, 0.051514f, 0.088935f, 0.061858f, 0.045296f, 0.071543f, 0.080142f, -0.022367f,
    0.033192f, -0.098651f, 0.032232f, 0.048487f, -0.041746f, 0.072384f, -0.009917f, -0.101498f, 0.019590f, -0.006557f,
    0.001830f, -0.055377f, 0.024580f, 0.080026f, 0.097201f, 0.010766f, -0.037896f, 0.047276f, -0.044215f, 0.075608f,
    -0.030577f, -0.012765f, -0.000861f, -0.006210f, 0.083249f, 0.068212f, -0.097725f, -0.002637f, 0.098272f, -0.071696f,
    0.016175f, -0.029036f, -0.079336f, 0.038710f, 0.099483f, 0.100037f, -0.077476f, 0.068240f, 0.052403f, -0.000507f,
    0.092897f, 0.003456f, 0.026136f, -0.046162f, -0.006391f, -0.059598f, -0.063492f, -0.067880f, -0.056393f, 0.047360f,
    -0.067963f, 0.057075f, 0.018849f, 0.000352f, 0.038443f, -0.056822f, 0.053776f, -0.028730f, 0.027960f, -0.022741f,
    0.079521f, 0.097006f, 0.098621f, 0.087214f, -0.009116f, 0.090292f, -0.030292f, 0.059423f, -0.040604f, 0.013774f,
    -0.024606f, -0.078551f, -0.096628f, 0.040445f, 0.026761f, -0.086516f, 0.044620f, -0.007144f, 0.093211f, 0.056027f,
    0.010979f, -0.038711f, 0.018761f, 0.016328f, -0.031699f, -0.053905f, 0.020431f, -0.034583f, -0.055989f, -0.027499f,
    0.050676f, 0.025110f, 0.077495f, -0.063183f, 0.048266f, 0.035766f, 0.022125f, -0.044651f, 0.077253f, 0.069046f,
    0.101147f, 0.038722f, 0.091250f, -0.081741f, -0.057684f, 0.039214f, -0.060342f, -0.045877f, -0.062583f, -0.004357f,
    -0.072288f, -0.045048f, 0.022518f, -0.005627f, -0.040202f, -0.018209f, 0.093155f, -0.003059f, 0.006126f, 0.059266f,
    0.067036f, 0.081261f, -0.079820f, 0.037974f, -0.096833f, 0.050013f, 0.063996f, 0.068334f, 0.032576f, -0.076627f,
    0.042341f, -0.050229f, 0.090214f, 0.096506f, -0.091824f, -0.068186f, 0.072200f, 0.024813f, -0.008899f, 0.027255f,
    0.086607f, 0.057718f, -0.028977f, -0.099361f, 0.085005f, -0.030452f, 0.068847f, 0.031366f, -0.040362f, 0.053820f,
    -0.014774f, 0.099307f, -0.041602f, 0.095387f, -0.009345f, -0.036952f, 0.090450f, 0.026079f, 0.100946f, -0.016469f,
    0.051548f, 0.024149f, 0.023391f, -0.032823f, -0.062854f, -0.073109f, -0.087808f, 0.082029f, 0.031958f, -0.098320f,
    0.094565f, -0.101211f, -0.049749f, -0.048279f, 0.042566f, -0.064398f, -0.092396f, -0.061521f, 0.013554f, -0.039062f,
    -0.080317f, -0.090406f, -0.079645f, -0.017965f, -0.014012f, -0.010623f, -0.014682f, 0.088569f, 0.017524f, -0.044006f,
    0.060776f, 0.062843f, 0.033465f, 0.095879f, 0.091074f, -0.015148f, 0.080363f, 0.010494f, -0.086045f, 0.000582f,
    -0.097056f, -0.023961f, 0.060458f, -0.019808f, -0.011927f, -0.007568f, -0.032279f, 0.016790f, -0.028886f, -0.010955f,
    -0.025004f, -0.003033f, -0.100741f, 0.082466f, 0.078288f, -0.077769f, 0.057061f, -0.033567f, 0.069833f, -0.080632f,
    0.056397f, 0.009006f, -0.057900f, -0.030711f, 0.052083f, -0.083951f, 0.073720f, 0.002945f, 0.054521f, 0.034901f,
    0.076773f, 0.063050f, 0.023353f, 0.022498f, -0.055348f, -0.010892f, 0.040227f, -0.046076f, 0.001379f, -0.067219f,
    0.031260f, 0.042638f, -0.092550f, 0.099911f, -0.048444f, -0.045232f, -0.043160f, -0.078011f, 0.038015f, -0.071522f,
    -0.033209f, 0.076842f, -0.017189f, -0.020522f, 0.096468f, 0.059144f, 0.020656f, -0.087918f, 0.044490f, 0.012237f,
    -0.069790f, 0.046825f, -0.085325f, -0.075882f, -0.002341f, 0.091421f, -0.069031f, -0.034368f, 0.071895f, -0.036239f,
    0.051166f, -0.056615f, 0.005567f, 0.031170f, 0.053029f, -0.039575f, -0.084449f, 0.090441f, -0.100036f, -0.059838f,
    0.080928f, 0.002938f, -0.055602f, 0.044089f, 0.074726f, 0.080482f, 0.014131f, -0.013228f, -0.097022f, 0.035397f,
    0.021588f, 0.010892f, -0.005621f, -0.011248f, -0.013276f, -0.036576f, 0.024675f, 0.095295f, -0.017489f, -0.056344f,
    -0.007097f, 0.023046f, 0.101355f, -0.026857f, 0.066137f, 0.027109f, 0.056382f, -0.078727f, -0.010113f, 0.038763f,
    -0.101379f, -0.010814f, -0.056879f, 0.099514f, -0.010808f, -0.096622f, -0.098961f, 0.094733f, 0.036586f, 0.088398f,
    -0.016645f, -0.002788f, 0.019890f, -0.031899f, -0.020745f, -0.082329f, 0.021155f, -0.059084f, 0.046657f, 0.036815f,
    -0.093876f, -0.078062f, -0.035378f, 0.097527f, -0.041050f, 0.026738f, 0.058850f, 0.092817f, 0.041046f, -0.053087f,
    -0.100960f, -0.007209f, -0.064677f, 0.101702f, -0.003233f, 0.065922f, 0.015179f, -0.005029f, 0.082261f, -0.011655f,
    -0.003514f, 0.070969f, -0.040468f, -0.011366f, -0.033546f, -0.000439f, -0.093649f, 0.076252f, 0.092804f, 0.044097f,
    0.100393f, -0.008643f, 0.097633f, -0.013230f, 0.077897f, 0.072413f, 0.096275f, 0.013705f, -0.100257f, 0.021245f,
    0.028066f, 0.034205f, 0.065726f, -0.003481f, 0.034125f, -0.053696f, -0.014335f, 0.001908f, -0.040178f, -0.087349f,
    0.080450f, -0.011597f, -0.098565f, -0.028650f, -0.059371f, 0.064296f, -0.006770f, 0.085932f, 0.054422f, -0.021429f,
    0.056933f, 0.081137f, 0.076894f, -0.016734f, 0.016433f, -0.078057f, -0.026828f, 0.092831f, 0.024199f, -0.040627f,
    0.073577f, -0.101987f, 0.073801f, -0.001524f, 0.048159f, -0.091070f, 0.015868f, -0.034905f, 0.047623f, -0.090442f,
    -0.020013f, 0.083102f, 0.056649f, -0.057494f, 0.076016f, 0.092288f, -0.080705f, -0.003679f, 0.067751f, -0.098533f,
    0.021443f, 0.042535f, 0.040890f, 0.005748f, -0.074506f, 0.089724f, 0.012273f, -0.071960f, -0.030996f, -0.028712f,
    -0.059606f, 0.000482f, -0.090557f, -0.045845f, -0.092434f, -0.036601f, -0.047910f, 0.049229f, -0.034020f, 0.030317f,
    -0.039262f, 0.080397f, 0.067547f, 0.001279f, -0.012961f, 0.089814f, -0.013528f, 0.056749f, -0.044759f, 0.030211f,
    -0.008409f, 0.035646f, 0.008582f, 0.087037f, 0.094327f, -0.036144f, -0.003153f, -0.046032f, 0.055403f, 0.022547f,
    -0.022415f, 0.015622f, 0.091503f, -0.038933f, -0.018197f, -0.072094f, -0.032469f, 0.033910f, 0.075783f, -0.063272f,
    -0.046771f, 0.080505f, 0.056553f, -0.039812f, -0.101572f, -0.008248f, 0.044487f, 0.010689f, -0.056950f, -0.030706f,
    0.096141f, -0.027856f, -0.019857f, -0.084450f, -0.007082f, 0.089357f, 0.015728f, -0.088238f, 0.051909f, 0.077967f,
    0.006627f, 0.037764f, -0.043579f, 0.062304f, 0.009876f, 0.050072f, 0.100889f, -0.033776f, 0.001239f, -0.048759f,
    0.052404f, -0.093714f, 0.019775f, -0.096451f, 0.035968f, 0.004719f, 0.094822f, 0.039236f, -0.068942f, -0.065491f,
    0.035437f, -0.040376f, 0.072494f, 0.081115f, -0.033699f, 0.026402f, -0.076540f, -0.011762f, -0.005710f, 0.059112f,
    -0.025913f, -0.066970f, -0.078578f, -0.034830f, 0.015155f, -0.039545f, 0.053904f, -0.051334f, 0.094175f, -0.080211f,
    -0.033446f, 0.013073f, -0.069870f, -0.012699f, -0.029825f, 0.069397f, -0.078391f, -0.020248f, 0.040824f, 0.007793f,
    0.064150f, -0.006778f, -0.036691f, 0.086103f, -0.064923f, 0.038295f, 0.047461f, -0.044912f, -0.004853f, 0.049593f,
    0.020238f, -0.070939f, 0.015594f, 0.074254f, -0.063569f, 0.058036f, -0.099827f, -0.101650f, 0.015323f, -0.053483f,
    -0.050158f, -0.090324f, 0.063127f, 0.010567f, -0.053894f, -0.020398f, -0.100888f, 0.027164f, -0.002202f, 0.037964f,
    -0.009276f, 0.084333f, -0.006091f, -0.036842f, 0.066651f, 0.008640f, -0.034239f, 0.000016f, 0.017319f, 0.096384f,
    -0.025741f, 0.068022f, -0.064558f, 0.032800f, -0.084272f, -0.014391f, -0.046886f, -0.080978f, -0.100615f, -0.047448f,
    -0.059538f, 0.032155f, 0.045128f, -0.101276f, -0.046900f, -0.062848f, -0.073447f, 0.041277f, 0.044248f, -0.071633f,
    -0.034694f, 0.032452f, -0.094288f, -0.030740f, 0.063062f, -0.044240f, 0.043763f, -0.097352f, 0.101895f, 0.010276f,
    -0.067912f, -0.092712f, 0.086888f, 0.018999f, 0.052972f, 0.042906f, 0.049832f, 0.021862f, -0.036612f, -0.019432f,
    0.085384f, -0.095922f, 0.085929f, 0.088977f, 0.092849f, 0.091638f, 0.066167f, 0.052916f, -0.056209f, 0.040325f,
    0.006973f, -0.032413f, 0.012776f, 0.019267f, -0.039682f, -0.074895f, -0.049255f, -0.063596f, -0.018754f, -0.094508f,
    0.051211f, -0.094895f, 0.013070f, 0.024606f, -0.022835f, -0.101738f, 0.079020f, 0.088489f, 0.056456f, 0.019336f,
    0.038018f, -0.090181f, 0.014724f, -0.093517f, -0.074038f, -0.030312f, 0.083669f, -0.027632f, 0.074020f, 0.091215f,
    -0.042489f, -0.041060f, -0.062996f, 0.085325f, 0.011350f, -0.043993f, -0.077669f, 0.016160f, -0.011167f, -0.011319f,
    0.010859f, -0.038379f, -0.095395f, 0.036486f, 0.049156f, 0.002828f, -0.073544f, -0.070656f, 0.090210f, 0.098143f,
    0.061832f, -0.093164f, -0.074374f, 0.066808f, 0.101313f, 0.048889f, 0.006325f, -0.066606f, 0.019679f, 0.094166f,
    0.098825f, 0.009896f, -0.070436f, -0.004984f, -0.000196f, 0.049698f, -0.084541f, -0.023539f, 0.021508f, -0.027673f,
    0.083141f, -0.070801f, 0.082745f, 0.089647f, -0.021132f, -0.059210f, -0.098601f, -0.101679f, 0.024422f, -0.075848f,
    -0.052240f, -0.052333f, 0.033889f, -0.004327f, -0.058380f, 0.045020f, 0.089965f, 0.010863f, 0.082092f, -0.031392f,
    -0.021150f, 0.005459f, 0.073385f, -0.054353f, 0.095443f, -0.040128f, 0.081256f, 0.044632f, 0.003960f, -0.072604f,
    -0.014989f, 0.068278f, -0.095833f, -0.002431f, 0.073499f, -0.010136f, 0.096769f, 0.050009f, 0.076351f, -0.087626f,
    0.054079f, -0.072386f, 0.006126f, -0.088639f, -0.055684f, -0.101633f, 0.097229f, -0.067990f, 0.058621f, 0.034378f,
    -0.061933f, -0.014059f, 0.068872f, 0.020779f, -0.081550f, -0.021929f, -0.002548f, -0.070682f, 0.008930f, -0.093244f,
    0.011763f, 0.002142f, 0.083986f, -0.093274f, 0.008572f, -0.088558f, -0.075882f, 0.016969f, -0.090134f, 0.003745f,
    0.035547f, 0.095583f, -0.090818f, 0.047950f, -0.012475f, -0.018474f, 0.044367f, -0.086082f, -0.004837f, 0.018450f,
    0.041336f, -0.042917f, 0.056267f, 0.021462f, 0.038473f, -0.003356f, -0.018868f, -0.050212f, 0.083723f, 0.071562f,
    0.046832f, -0.004279f, -0.080952f, -0.095407f, 0.070071f, 0.098990f, -0.016282f, -0.099799f, -0.025086f, 0.029689f,
    -0.095124f, -0.019050f, -0.088823f, 0.013190f, 0.020531f, -0.025766f, 0.053194f, -0.035518f, -0.000190f, 0.075832f,
    -0.025764f, 0.101040f, -0.083035f, 0.032721f, -0.034506f, 0.040814f, -0.101597f, 0.030263f, -0.008336f, 0.039184f,
    -0.053120f, -0.002989f, -0.045941f, 0.075568f, 0.020859f, -0.084587f, 0.048417f, 0.070014f, -0.068980f, -0.070079f,
    -0.068110f, -0.086485f, -0.009103f, 0.042405f, 0.076261f, 0.008586f, -0.021434f, -0.077107f, 0.007977f, -0.048800f,
    0.067416f, -0.056190f, 0.074434f, 0.056649f, 0.003823f, 0.042321f, 0.047517f, -0.023012f, 0.071076f, 0.096120f,
    0.051735f, -0.042032f, -0.080908f, -0.063355f, 0.025204f, -0.084081f, -0.100984f, -0.099472f, -0.080132f, 0.035016f,
    -0.042944f, 0.095466f, 0.096679f, 0.081066f, 0.055523f, 0.053971f, 0.049794f, 0.032397f, -0.020548f, 0.097851f,
    0.018163f, -0.049417f, 0.068725f, -0.097835f, -0.095487f, 0.093788f, 0.099874f, 0.032499f, 0.010392f, 0.057843f,
    -0.086783f, -0.014724f, 0.074272f, 0.052077f, -0.016676f, -0.073909f, -0.089789f, 0.086158f, -0.023882f, 0.080311f,
    -0.018177f, -0.062491f, -0.068530f, 0.072592f, -0.088800f, -0.089702f, -0.049069f, -0.092529f, 0.053863f, -0.079334f,
    -0.026198f, 0.065096f, -0.077724f, 0.047636f, 0.029964f, 0.013828f, -0.097690f, 0.013922f, 0.046345f, 0.018630f,
    -0.087151f, 0.029349f, 0.033695f, -0.066392f, 0.069809f, -0.053294f, -0.009023f, 0.090415f, 0.056569f, -0.090299f,
    -0.074616f, -0.039935f, -0.083724f, 0.065549f, 0.021093f, 0.015586f, 0.038352f, 0.060000f, 0.012561f, -0.033791f,
    -0.101071f, -0.095914f, -0.041947f, 0.002949f, 0.047480f, -0.026412f, -0.037700f, -0.067032f, 0.036323f, -0.041455f,
    0.001041f, 0.033827f, 0.046939f, -0.017275f, 0.035146f, -0.019238f, 0.031681f, -0.075147f, 0.029712f, -0.015243f,
    0.006425f, 0.009276f, -0.047439f, -0.015712f, -0.056757f, 0.083551f, -0.079891f, 0.022965f, 0.023268f, 0.073579f,
    -0.097420f, 0.036684f, -0.093476f, 0.036517f, -0.027577f, -0.003788f, 0.084291f, -0.079520f, -0.085660f, 0.005601f,
    0.082691f, -0.028670f, 0.090116f, 0.043122f, -0.020286f, 0.028645f, -0.027406f, -0.032363f, -0.072018f, 0.006552f,
    -0.067847f, 0.112977f, 0.067140f, -0.047279f, -0.017644f, 0.098552f, 0.010896f, 0.020186f, -0.007057f, -0.049752f,
    -0.034747f, -0.052402f, 0.031280f, -0.063454f, 0.074998f, 0.063431f, -0.032938f, 0.007396f, -0.041375f, 0.098268f,
    -0.085440f, -0.040838f, -0.053395f, 0.059071f, 0.039140f, -0.086904f, -0.028261f, 0.097683f, -0.059902f, 0.048233f,
    0.023661f, 0.050271f, 0.033608f, -0.073416f, -0.081634f, 0.091530f, 0.049387f, 0.032015f, -0.048951f, -0.012798f,
    0.032757f, -0.090305f, -0.038258f, -0.063069f, 0.086162f, -0.054487f, -0.062794f, 0.061222f, 0.005550f, -0.031335f,
    0.041802f, -0.038829f, 0.059250f, -0.069441f, -0.063777f, -0.016084f, 0.031948f, -0.101176f, 0.056717f, 0.015071f,
    0.000075f, 0.095210f, -0.082500f, 0.058365f, -0.053773f, 0.091571f, 0.022586f, -0.062970f, -0.017294f, -0.010025f,
    -0.076830f, -0.038296f, -0.076403f, 0.070322f, -0.012375f, 0.073592f, 0.090443f, -0.050277f, -0.020163f, 0.039094f,
    0.097704f, -0.066420f, -0.035978f, 0.086719f, -0.080141f, -0.100687f, 0.023766f, 0.073554f, 0.099633f, -0.031466f,
    -0.017589f, -0.022646f, 0.058048f, 0.056533f, -0.045526f, -0.072382f, 0.074488f, -0.080786f, -0.067306f, 0.039159f,
    -0.034721f, 0.033892f, -0.098875f, -0.067707f, -0.050565f, -0.022202f, 0.074527f, -0.074283f, -0.048736f, -0.090911f,
    0.021325f, 0.073329f, 0.097363f, 0.038232f, -0.089036f, 0.003717f, -0.003325f, 0.021519f, 0.052280f, 0.094499f,
    -0.023930f, 0.081144f, -0.048878f, 0.002901f, 0.048318f, -0.030762f, -0.057749f, -0.064226f, 0.009736f, 0.003743f,
    -0.054093f, 0.096676f, -0.097972f, 0.080252f, -0.008229f, 0.052681f, 0.070006f, -0.030228f, -0.002371f, -0.092806f,
    0.020346f, 0.090637f, 0.084133f, -0.062699f, -0.034863f, 0.101037f, -0.080213f, 0.000864f, 0.022546f, 0.057447f,
    -0.046420f, -0.055772f, -0.061967f, -0.068222f, -0.077265f, 0.032790f, 0.057585f, -0.078525f, 0.073012f, -0.074285f,
    -0.005877f, 0.008073f, -0.002009f, -0.020721f, 0.015586f, 0.041283f, -0.068603f, -0.041055f, -0.079846f, -0.021676f,
    -0.101773f, 0.098731f, -0.005607f, -0.061554f, -0.002762f, 0.081991f, 0.007678f, 0.088123f, -0.050295f, -0.024179f,
    0.034067f, 0.068484f, -0.091196f, -0.044260f, 0.068575f, -0.073206f, -0.015528f, -0.057620f, 0.055314f, -0.025161f,
    -0.033187f, -0.086395f, -0.072771f, 0.038395f, 0.090726f, 0.002737f, 0.046498f, -0.045649f, 0.057549f, -0.013685f,
    -0.089820f, -0.029215f, -0.078519f, 0.048963f, -0.068879f, 0.069182f, -0.087240f, 0.007949f, -0.090734f, -0.010095f,
    -0.091543f, -0.047190f, 0.023702f, -0.062410f, 0.046217f, -0.091232f, 0.016739f, 0.001944f, -0.043694f, -0.032244f,
    -0.047607f, -0.047413f, -0.036533f, 0.054277f, -0.073487f, -0.093538f, 0.030640f, 0.001158f, 0.034230f, 0.045176f,
    -0.015574f, 0.049190f, -0.044821f, -0.007638f, 0.061857f, -0.076484f, 0.013863f, -0.056638f, -0.035285f, -0.076628f,
    0.043689f, -0.028752f, -0.017281f, -0.082751f, 0.030172f, 0.014786f, -0.092760f, 0.056647f, 0.026119f, -0.079653f,
    -0.043631f, 0.057741f, -0.036330f, 0.057229f, -0.081263f, -0.057116f, -0.056425f, 0.043314f, 0.085360f, -0.091962f,
    -0.057631f, 0.001116f, 0.047554f, 0.016364f, 0.062652f, -0.062636f, -0.095107f, -0.005115f, 0.036693f, -0.074782f,
    0.040562f, 0.039442f, 0.015360f, 0.086750f, -0.046658f, 0.003046f, -0.096719f, -0.005049f, -0.014660f, 0.068085f,
    -0.066134f, -0.030880f, -0.049867f, 0.019794f, -0.015896f, 0.090297f, 0.087753f, 0.007870f, 0.044776f, 0.085600f,
    -0.098529f, -0.025303f, -0.036339f, 0.066356f, 0.051149f, -0.080116f, -0.055021f, -0.021824f, -0.001945f, -0.063804f,
    -0.059989f, -0.099726f, -0.089079f, -0.068979f, -0.074859f, 0.022646f, 0.001706f, 0.057194f, 0.076521f, 0.054912f,
    0.082484f, 0.084044f, -0.043365f, -0.017449f, -0.054638f, -0.058393f, 0.073166f, -0.099566f, 0.081072f, 0.089635f,
    0.028723f, -0.022048f, -0.018490f, -0.014500f, -0.058195f, -0.031561f, -0.061800f, -0.016163f, -0.065745f, 0.051243f,
    0.035424f, 0.009433f, 0.049522f, 0.082518f, 0.035925f, -0.028020f, -0.039040f, 0.077722f, -0.068284f, -0.100971f,
    -0.014936f, -0.029216f, -0.044661f, 0.082014f, 0.027597f, 0.047850f, -0.094816f, -0.030560f, 0.070473f, 0.045827f,
    0.003706f, -0.082195f, 0.088854f, 0.067818f, -0.029070f, 0.084463f, -0.023136f, -0.051031f, 0.101159f, 0.035374f,
    -0.033606f, -0.010120f, 0.091726f, -0.077586f, -0.005488f, -0.022223f, 0.089336f, 0.019086f, 0.040912f, 0.034868f,
    -0.050344f, -0.033595f, -0.056427f, 0.003950f, -0.069229f, -0.006593f, 0.054187f, 0.079041f, -0.099773f, 0.060675f,
    -0.047282f, 0.085740f, 0.054273f, -0.054378f, -0.038615f, 0.034222f, 0.030868f, -0.093473f, -0.063190f, -0.002592f,
    -0.085363f, -0.014791f, 0.001789f, 0.090337f, -0.052835f, 0.089937f, -0.012296f, 0.039801f, -0.036492f, -0.020817f,
    -0.069624f, -0.076203f, 0.018913f, 0.082247f, 0.025800f, 0.065228f, -0.000484f, -0.090815f, -0.012687f, -0.086826f,
    0.028659f, -0.054781f, 0.081083f, 0.035690f, 0.021396f, -0.001045f, -0.021118f, -0.007336f, -0.091520f, -0.023676f,
    0.051521f, 0.096947f, -0.080973f, 0.041763f, -0.039076f, 0.062320f, 0.099064f, 0.077850f, -0.020107f, -0.093536f,
    0.027240f, 0.069448f, 0.020482f, -0.061724f, -0.100641f, -0.079641f, -0.033792f, -0.050087f, 0.091954f, 0.093328f,
    -0.066498f, 0.100745f, 0.051732f, -0.039033f, -0.085551f, 0.024516f, 0.034045f, -0.056129f, -0.072787f, 0.007068f,
    -0.017816f, -0.056036f, 0.088645f, -0.085901f, 0.037064f, 0.044948f, 0.022653f, 0.049477f, 0.007459f, -0.087024f,
    -0.018474f, 0.046518f, -0.013010f, -0.035904f, 0.080335f, -0.041499f, -0.095042f, 0.014483f, -0.077068f, -0.050053f,
    -0.079750f, 0.099112f, 0.004529f, 0.080522f, 0.042596f, 0.018997f, -0.067494f, 0.087917f, 0.005640f, -0.093452f,
    0.055463f, 0.028155f, 0.048188f, -0.035434f, 0.004297f, 0.092711f, -0.043044f, 0.002232f, -0.072126f, -0.023686f,
    0.072677f, -0.004949f, 0.009902f, 0.038160f, -0.081535f, -0.018801f, -0.016821f, -0.080334f, 0.073916f, -0.075538f,
    0.078434f, -0.002584f, 0.057409f, -0.089164f, -0.070718f, 0.012131f, -0.063669f, 0.022439f, -0.051911f, 0.072781f,
    -0.009913f, -0.024654f, -0.068825f, -0.083475f, -0.052884f, -0.088273f, -0.008140f, -0.100028f, -0.050079f, -0.047716f,
    0.065259f, -0.004592f, 0.016767f, -0.065473f, -0.024903f, 0.000640f, -0.019905f, -0.080250f, 0.008389f, -0.031839f,
    -0.019134f, -0.067729f, 0.031603f, -0.011608f, -0.020054f, 0.022537f, 0.004566f, -0.089615f, -0.026157f, 0.005199f,
    0.027263f, 0.001782f, -0.026854f, -0.055184f, 0.019373f, 0.095668f, -0.009085f, 0.009381f, -0.072187f, 0.007115f,
    0.025314f, 0.023773f, 0.031072f, -0.098755f, 0.005060f, -0.071255f, -0.006398f, -0.003907f, -0.032141f, -0.100219f,
    -0.093479f, 0.068596f, 0.067591f, -0.097502f, 0.057917f, 0.092773f, 0.024824f, 0.078593f, -0.056973f, 0.004530f,
    0.003393f, 0.040835f, 0.003683f, 0.031815f, -0.080098f, -0.041516f, 0.077113f, 0.054000f, 0.050791f, -0.083736f,
    0.093727f, 0.019332f, 0.003665f, -0.050359f, 0.085399f, -0.019662f, 0.003909f, -0.002457f, 0.025017f, -0.095088f,
    -0.084840f, 0.042060f, 0.027230f, -0.020824f, -0.005250f, 0.032611f, -0.101311f, -0.029467f, 0.039082f, -0.074048f,
    -0.080040f, -0.018634f, -0.064116f, 0.035548f, -0.089617f, 0.094419f, -0.053368f, 0.093970f, 0.099208f, 0.009997f,
    -0.018469f, 0.085587f, -0.046874f, -0.074310f, -0.047606f, -0.002137f, -0.077350f, -0.072330f, -0.083432f, -0.092171f,
    -0.090246f, -0.099065f, 0.057049f, -0.073701f, 0.002692f, -0.007687f, -0.089846f, -0.062141f, 0.092184f, 0.091656f,
    -0.084040f, -0.049853f, -0.015525f, 0.065038f, -0.087616f, 0.046104f, -0.028346f, 0.091206f, -0.091489f, 0.075211f,
    0.067535f, -0.050316f, -0.057241f, 0.073679f, 0.057636f, 0.068163f, 0.009841f, -0.001352f, -0.053476f, -0.026212f,
    -0.085251f, 0.048921f, 0.086310f, 0.053595f, -0.047973f, 0.043815f, -0.040830f, -0.095983f, -0.058042f, -0.069424f,
    -0.049652f, 0.091970f, 0.011459f, -0.074140f, 0.041842f, 0.013117f, -0.015547f, 0.033545f, 0.062489f, -0.041166f,
    -0.101092f, 0.010188f, -0.013140f, 0.073874f, -0.027399f, -0.008539f, 0.088393f, -0.039803f, -0.000817f, -0.052976f,
    -0.016251f, 0.020835f, 0.094037f, -0.022297f, 0.034879f, 0.035724f, 0.059009f, 0.085496f, 0.063040f, -0.083245f,
    0.077894f, 0.053113f, 0.050916f, -0.038019f, -0.045555f, 0.069854f, -0.010551f, 0.007638f, -0.084803f, 0.063555f,
    0.087470f, -0.090875f, 0.077647f, -0.053215f, -0.054334f, -0.045979f, 0.094349f, 0.046380f, 0.059364f, 0.027275f,
    -0.046323f, 0.061760f, -0.100657f, 0.014017f, -0.035970f, -0.089279f, -0.056504f, 0.019048f, 0.075600f, 0.071376f,
    0.062299f, -0.047627f, 0.074878f, 0.063679f, 0.022216f, 0.059056f, 0.096782f, 0.058674f, 0.038138f, -0.025627f,
    -0.045357f, 0.076170f, -0.075736f, -0.039957f, -0.048151f, -0.078279f, -0.070188f, -0.054004f, -0.083554f, 0.086772f,
    0.009615f, -0.049036f, 0.026800f, -0.039020f, -0.055396f, 0.028860f, 0.039239f, 0.017381f, -0.080756f, -0.001312f,
    0.034843f, 0.100574f, 0.017396f, 0.007265f, 0.073681f, 0.006059f, 0.026853f, 0.066573f, -0.039789f, 0.005889f,
    -0.069249f, -0.081843f, -0.076836f, -0.101563f, 0.033716f, -0.036389f, -0.005745f, 0.061066f, -0.077485f, 0.080474f,
    -0.100412f, 0.062600f, 0.012842f, -0.083949f, 0.033035f, 0.009062f, -0.054087f, 0.061772f, 0.048767f, -0.063029f,
    0.011589f, 0.019550f, 0.015237f, 0.078100f, -0.008216f, 0.029776f, -0.061827f, -0.060116f, -0.036891f, -0.009145f,
    -0.075369f, -0.034426f, 0.065710f, -0.083587f, 0.001521f, 0.030956f, -0.010102f, 0.052336f, 0.011527f, 0.017445f,
    -0.026189f, 0.037512f, 0.001398f, -0.042272f, -0.028577f, -0.093064f, 0.031707f, -0.076075f, -0.039684f, 0.004176f,
    -0.101371f, -0.005908f, -0.064540f, -0.097716f, 0.100764f, 0.019124f, 0.076705f, 0.030589f, 0.088153f, -0.030147f,
    0.088193f, 0.013672f, -0.030285f, 0.005069f, 0.009603f, -0.097848f, -0.015585f, -0.027848f, 0.094877f, -0.070864f,
    -0.057063f, -0.017518f, 0.032521f, -0.034585f, -0.081848f, -0.061781f, -0.051796f, -0.025141f, -0.040725f, -0.013870f,
    -0.084034f, -0.088120f, -0.086206f, 0.073687f, 0.071193f, -0.047776f, -0.083799f, -0.060818f, 0.007735f, 0.007544f,
    0.011970f, 0.092906f, -0.089784f, 0.026136f, -0.065883f, -0.059977f, -0.027916f, 0.091617f, 0.007011f, -0.014567f,
    0.049942f, -0.033175f, -0.069068f, -0.080255f, -0.065349f, 0.035325f, 0.064739f, 0.065161f, 0.087398f, 0.068493f,
    0.035482f, 0.020868f, 0.006781f, 0.035084f, -0.094202f, -0.003030f, -0.071566f, 0.097789f, -0.045034f, 0.087507f,
    -0.015388f, -0.023046f, 0.028669f, 0.033503f, -0.099877f, -0.071937f, 0.058633f, 0.058148f, 0.041096f, -0.065639f,
    -0.003986f, -0.068098f, 0.079852f, 0.014741f, 0.059365f, 0.088397f, -0.041033f, 0.029114f, -0.071383f, -0.064978f,
    0.038957f, -0.073797f, -0.038224f, -0.043104f, -0.009535f, 0.085803f, 0.013393f, 0.010806f, -0.071665f, -0.049148f,
    -0.003338f, 0.068681f, 0.079154f, 0.036437f, -0.086928f, 0.007385f, 0.036200f, 0.089002f, 0.042707f, 0.011858f,
    -0.102039f, 0.073931f, -0.037101f, -0.055519f, -0.081003f, 0.003941f, 0.092850f, 0.096968f, 0.025397f, 0.049230f,
    0.097745f, -0.058292f, 0.087452f, -0.067645f, -0.099944f, 0.075478f, -0.025340f, 0.067793f, 0.034107f, 0.100450f,
    -0.089657f, 0.063909f, -0.075129f, -0.035719f, -0.042784f, -0.056235f, 0.003415f, -0.027664f, -0.021983f, -0.087763f,
    0.101089f, -0.039844f, -0.000874f, 0.023281f, -0.053919f, -0.055264f, 0.034113f, 0.065606f, -0.082546f, -0.079063f,
    0.094708f, 0.021403f, 0.070264f, -0.073574f, 0.041094f, -0.085089f, 0.072334f, 0.014307f, 0.068920f, 0.044732f,
    0.070640f, 0.094435f, 0.092949f, 0.067073f, 0.013395f, -0.035945f, 0.066226f, 0.091098f, 0.017745f, -0.062779f,
    -0.009928f, 0.051788f, -0.070388f, -0.003687f, -0.086153f, -0.074291f, -0.080788f, 0.098003f, 0.003835f, -0.069578f,
    -0.090124f, -0.085986f, -0.087805f, 0.089374f, 0.007546f, 0.005704f, -0.032654f, 0.025962f, 0.060044f, -0.001637f,
    -0.009472f, -0.070220f, -0.001930f, 0.040012f, -0.101631f, 0.065157f, 0.068331f, 0.097180f, -0.035990f, 0.065753f,
    0.099240f, -0.074958f, -0.022035f, 0.025665f, 0.043988f, -0.059177f, 0.088328f, -0.099566f, -0.010447f, -0.101842f,
    -0.073674f, 0.062333f, 0.035903f, -0.021135f, -0.066042f, 0.023502f, 0.068049f, 0.039130f, 0.067316f, 0.095053f,
    -0.101622f, 0.094113f, 0.004090f, 0.004406f, -0.053329f, 0.082628f, -0.046877f, 0.030780f, -0.083311f, 0.038293f,
    -0.051644f, 0.076100f, -0.049011f, 0.045382f, 0.009984f, 0.072391f, -0.034940f, -0.079938f, -0.069680f, -0.046576f,
    -0.039148f, 0.072392f, 0.099175f, -0.062127f, 0.058487f, -0.070839f, -0.013908f, 0.072012f, 0.078393f, -0.052342f,
    -0.006249f, 0.080460f, -0.003958f, -0.013084f, 0.095918f, -0.068401f, 0.082392f, 0.048540f, 0.070380f, -0.035608f,
    0.065362f, -0.094190f, -0.030509f, -0.059103f, -0.052527f, 0.051759f, -0.091758f, -0.053424f, -0.007823f, 0.000385f,
    0.056514f, 0.062833f, 0.097266f, 0.091381f, -0.075396f, -0.086364f, 0.012185f, -0.065783f, -0.078532f, 0.015679f,
    0.034973f, 0.022104f, -0.022422f, -0.084016f, -0.001402f, -0.012592f, 0.011336f, 0.041646f, 0.044587f, -0.032135f,
    0.000416f, -0.080610f, 0.098714f, 0.063438f, 0.021684f, -0.001962f, 0.060047f, 0.013577f, 0.050562f, -0.067588f,
    -0.053224f, 0.034640f, 0.067142f, -0.100096f, 0.056190f, -0.082818f, 0.039426f, 0.012930f, -0.078787f, -0.032442f,
    -0.015366f, -0.087991f, -0.064197f, -0.032906f, -0.013821f, -0.084349f, -0.020945f, -0.031724f, 0.098753f, -0.078909f,
    -0.071623f, -0.100304f, -0.059137f, -0.031752f, -0.089229f, -0.066048f, 0.073969f, 0.000967f, -0.049574f, -0.013581f,
    -0.096639f, -0.060629f, -0.090680f, -0.044728f, -0.059446f, 0.034251f, 0.065500f, -0.095224f, 0.041564f, -0.014333f,
    -0.072043f, 0.036093f, -0.096647f, 0.018946f, -0.064578f, -0.065673f, -0.041414f, 0.089039f, 0.100487f, 0.013061f,
    0.079519f, 0.099150f, -0.039712f, -0.042181f, 0.012179f, 0.019085f, -0.092981f, 0.010022f, -0.042161f, 0.000803f,
    0.096508f, -0.046444f, -0.007385f, 0.053920f, -0.038012f, 0.038571f, 0.054826f, 0.072593f, -0.091159f, -0.070742f,
    0.040086f, -0.008883f, -0.039731f, -0.008984f, -0.046406f, -0.049788f, 0.028160f, 0.048606f, -0.062147f, -0.039372f,
    0.031780f, -0.007818f, -0.029033f, -0.014792f, -0.013879f, 0.021938f, 0.015721f, 0.087161f, -0.099023f, 0.045910f,
    0.024305f, -0.065433f, -0.014118f, 0.078168f, -0.073580f, 0.096648f, -0.026165f, 0.092061f, 0.038646f, 0.100842f,
    0.047038f, 0.043207f, -0.044390f, 0.018762f, -0.020274f, -0.093069f, 0.022853f, -0.040928f, 0.075873f, 0.014167f,
    0.034794f, -0.084477f, 0.039810f, 0.048914f, -0.060243f, 0.075001f, -0.025702f, 0.050071f, -0.025440f, 0.030412f,
    0.004361f, 0.071140f, -0.019484f, -0.019433f, -0.077257f, 0.014619f, 0.028775f, 0.101644f, 0.065527f, 0.073897f,
    -0.094905f, -0.086888f, -0.028228f, 0.001382f, 0.044904f, -0.062982f, 0.011988f, -0.094387f, -0.070177f, -0.054575f,
    0.026355f, -0.077897f, -0.088886f, 0.064078f, 0.063433f, -0.090006f, 0.037032f, 0.055226f, -0.099570f, 0.034473f,
    -0.097532f, 0.039975f, 0.006576f, 0.040642f, 0.045305f, -0.022346f, 0.057708f, 0.023608f, 0.016778f, -0.022519f,
    -0.077491f, 0.017360f, 0.062704f, 0.040128f, -0.094096f, 0.072704f, 0.048189f, 0.053144f, -0.036122f, 0.020688f,
    -0.041140f, 0.037331f, 0.005561f, -0.091930f, 0.041849f, -0.000845f, 0.062633f, 0.017624f, -0.020786f, -0.061824f,
    0.032578f, -0.091645f, -0.029569f, 0.019299f, 0.002908f, 0.039388f, 0.093773f, -0.016335f, 0.001139f, -0.052937f,
    0.009244f, 0.025298f, -0.082557f, 0.013912f, 0.101835f, 0.074982f, -0.041165f, -0.069922f, -0.101223f, -0.064519f,
    -0.081765f, -0.091174f, 0.019187f, 0.036635f, 0.100978f, 0.007421f, -0.072528f, -0.057535f, -0.087825f, 0.045787f,
    -0.065875f, -0.026844f, 0.010975f, 0.045411f, 0.088713f, 0.002403f, -0.055102f, 0.041889f, 0.005105f, 0.019244f,
    -0.021646f, -0.052168f, -0.026972f, -0.036351f, -0.043925f, -0.079082f, 0.073032f, -0.078213f, -0.063008f, -0.028396f,
    0.049184f, 0.007892f, -0.000191f, 0.008524f, -0.042408f, 0.028955f, -0.092650f, 0.050199f, 0.077837f, 0.078016f,
    -0.077816f, 0.084286f, -0.087083f, 0.048073f, 0.090604f, -0.083605f, 0.061843f, -0.046774f, 0.011873f, 0.093505f,
    -0.021356f, -0.000177f, -0.077467f, -0.033782f, -0.014971f, -0.087705f, 0.075197f, 0.076142f, -0.039082f, -0.017786f,
    -0.043195f, 0.047141f, -0.084258f, -0.035371f, -0.025509f, 0.038877f, 0.014506f, 0.051383f, 0.038071f, 0.063333f,
    -0.076382f, -0.077235f, 0.001247f, -0.030700f, 0.001034f, -0.057505f, -0.081160f, -0.023154f, 0.075647f, -0.037160f,
    0.095766f, -0.052757f, -0.032299f, 0.006408f, -0.020269f, 0.063110f, -0.098784f, 0.027436f, -0.023286f, -0.084977f,
    0.021239f, -0.019571f, -0.041031f, 0.022106f, -0.006945f, 0.023751f, -0.092240f, -0.069292f, 0.046785f, 0.077510f,
    0.098253f, -0.046101f, 0.049909f, 0.036830f, -0.029806f, 0.090870f, -0.026419f, -0.050676f, 0.009403f, 0.051767f,
    -0.022013f, -0.053731f, -0.058448f, 0.043993f, -0.090493f, 0.036305f, -0.023829f, -0.026141f, 0.064334f, -0.051863f,
    0.036572f, 0.009587f, -0.021827f, 0.092944f, 0.100014f, -0.049382f, 0.013832f, 0.056251f, -0.005066f, 0.075149f,
    0.021940f, -0.065155f, -0.001422f, -0.040352f, -0.019310f, -0.012597f, -0.028918f, -0.029502f, 0.000292f, 0.059444f,
    -0.022414f, 0.036446f, -0.100604f, 0.015928f, -0.038595f, -0.026466f, 0.057370f, 0.026591f, 0.078985f, 0.070216f,
    -0.093380f, -0.066894f, -0.019483f, -0.000829f, -0.002093f, 0.094612f, 0.095402f, -0.012915f, -0.004403f, -0.069937f,
    0.089936f, 0.069660f, 0.083147f, -0.086092f, -0.030472f, 0.045548f, -0.027845f, 0.015654f, -0.046589f, -0.073106f,
    -0.020340f, -0.089276f, 0.093912f, -0.081214f, -0.077886f, 0.021071f, 0.042021f, -0.014294f, 0.091094f, -0.037928f,
    0.090768f, 0.086687f, -0.016605f, -0.078963f, -0.048662f, -0.044245f, -0.065791f, -0.008081f, -0.069284f, -0.097509f,
    -0.023365f, 0.060993f, -0.058106f, -0.020702f, -0.073427f, 0.045569f, 0.028293f, 0.056221f, -0.093563f, -0.007784f,
    0.082906f, 0.067167f, 0.002291f, 0.043083f, -0.012121f, -0.073867f, 0.021470f, -0.047905f, 0.041695f, -0.054493f,
    0.052222f, -0.045417f, 0.008570f, -0.090624f, 0.001099f, -0.011285f, -0.050257f, 0.085644f, 0.035343f, -0.020264f,
    0.000200f, -0.092461f, 0.002320f, 0.061353f, 0.008817f, 0.072674f, -0.008522f, -0.024339f, 0.048800f, 0.099979f,
    0.083501f, -0.002247f, 0.081314f, 0.097619f, 0.034337f, 0.017810f, 0.084644f, 0.046103f, 0.008397f, -0.085080f,
    0.004928f, -0.055282f, 0.015598f, 0.059064f, -0.081658f, -0.079856f, 0.086123f, -0.003305f, 0.082786f, 0.026199f,
    -0.059309f, -0.035275f, -0.003265f, -0.025816f, 0.001341f, 0.100912f, 0.000083f, -0.030944f, 0.026492f, 0.040327f,
    -0.073904f, 0.051727f, 0.045974f, 0.057970f, -0.020209f, -0.016769f, 0.036677f, -0.025732f, -0.072423f, 0.026620f,
    -0.011376f, 0.092358f, 0.034543f, -0.079412f, -0.079603f, 0.063699f, 0.001333f, -0.037304f, -0.096503f, -0.082891f,
    -0.046956f, -0.064637f, -0.015522f, -0.006260f, -0.091160f, 0.012300f, -0.012032f, 0.098915f, 0.088628f, -0.007618f,
    0.067900f, 0.036014f, 0.034367f, -0.073241f, -0.008365f, -0.009158f, 0.001463f, 0.079813f, 0.026613f, -0.012776f,
    -0.057386f, -0.060025f, 0.005951f, 0.065679f, 0.034048f, 0.100529f, 0.070999f, 0.061253f, -0.088585f, -0.026156f,
    0.006782f, -0.015539f, -0.095639f, -0.097051f, -0.039400f, 0.050377f, 0.010165f, -0.084438f, 0.022330f, 0.089815f,
    0.089343f, -0.083709f, 0.095728f, -0.093118f, -0.035999f, 0.022477f, 0.050150f, 0.064308f, -0.041678f, -0.092429f,
    0.087896f, -0.081627f, 0.044103f, -0.022192f, 0.093354f, -0.052583f, 0.088692f, -0.018107f, 0.049797f, -0.096880f,
    0.096283f, -0.028637f, 0.060042f, -0.030058f, 0.023290f, 0.090163f, -0.015367f, 0.090538f, 0.038390f, 0.019084f,
    -0.060646f, -0.046298f, 0.032860f, -0.058010f, 0.009965f, 0.025106f, -0.001674f, 0.089892f, 0.037267f, 0.099131f,
    0.032651f, -0.034106f, -0.052320f, -0.015970f, -0.079197f, -0.033579f, 0.026440f, -0.074091f, -0.023890f, 0.015019f,
    -0.073565f, 0.000992f, -0.073276f, 0.008080f, -0.101546f, -0.051803f, -0.090420f, 0.011392f, 0.036284f, -0.084054f,
    -0.081837f, 0.066876f, 0.047666f, -0.002740f, 0.020518f, 0.064441f, 0.060443f, -0.006438f, -0.068231f, -0.048433f,
    -0.097393f, 0.067102f, 0.030808f, 0.035663f, 0.051247f, -0.092837f, 0.083112f, -0.022974f, -0.017976f, 0.072304f,
    0.034322f, 0.077783f, 0.018245f, -0.084885f, -0.002939f, 0.089865f, -0.053216f, -0.036761f, -0.057776f, 0.091057f,
    0.072836f, -0.089589f, 0.084704f, -0.010820f, -0.018392f, -0.043532f, -0.003272f, -0.074272f, 0.068583f, -0.029732f,
    0.069060f, 0.071617f, -0.053919f, 0.040968f, 0.012254f, -0.002587f, -0.001970f, 0.064699f, -0.086703f, -0.087116f,
    0.101254f, 0.051819f, 0.013356f, -0.054186f, -0.101077f, 0.071752f, -0.024956f, -0.070543f, -0.004909f, -0.001214f,
    0.035217f, -0.022616f, -0.086125f, 0.056616f, 0.059066f, -0.018541f, -0.013693f, 0.063893f, 0.008299f, 0.025146f,
    -0.019298f, 0.024148f, 0.050171f, 0.085396f, 0.092551f, 0.043879f, 0.047666f, 0.083304f, 0.016403f, 0.044902f,
    -0.064882f, 0.071427f, -0.077326f, 0.083098f, -0.078585f, -0.075287f, -0.100733f, 0.028294f, 0.082573f, 0.035279f,
    0.082524f, 0.054524f, -0.015866f, -0.071081f, 0.025176f, -0.039664f, -0.009035f, 0.058790f, 0.005955f, -0.099298f,
    0.075884f, 0.085888f, 0.086172f, -0.069280f, -0.018289f, 0.018891f, 0.096247f, -0.053081f, -0.068934f, 0.084773f,
    -0.074389f, -0.006594f, -0.006518f, -0.031110f, 0.094968f, -0.093679f, -0.085636f, -0.090053f, 0.020331f, 0.029511f,
    0.056342f, 0.015400f, 0.040755f, -0.030087f, 0.041604f, -0.069615f, 0.004984f, -0.053851f, -0.086910f, 0.010686f,
    -0.087064f, 0.015700f, -0.029985f, -0.085568f, -0.037722f, 0.091953f, 0.074467f, 0.086322f, -0.008998f, 0.016153f,
    -0.009575f, -0.045527f, 0.083579f, -0.026710f, 0.024014f, 0.013428f, 0.001444f, -0.064385f, 0.038506f, 0.001835f,
    0.044195f, -0.000563f, 0.045235f, 0.066845f, -0.063644f, -0.042424f, -0.011536f, 0.043476f, 0.008590f, 0.078611f,
    -0.093845f, 0.012407f, -0.095166f, 0.045805f, -0.089325f, -0.064245f, 0.055179f, 0.062859f, -0.014295f, 0.060142f,
    -0.073374f, -0.091270f, -0.014754f, -0.055052f, -0.025261f, 0.070264f, 0.069945f, 0.062180f, -0.083533f, 0.069258f,
    -0.090194f, -0.055305f, -0.009015f, -0.094817f, 0.086146f, -0.033970f, -0.080264f, 0.074694f, -0.040340f, 0.046551f,
    0.019056f, -0.024604f, 0.057671f, 0.016994f, 0.087522f, 0.053272f, 0.047325f, -0.072542f, -0.012058f, 0.004156f,
    0.031504f, 0.094199f, -0.093008f, -0.015593f, 0.044367f, -0.000096f, -0.033716f, 0.044750f, -0.024634f, -0.064485f,
    0.095061f, -0.034200f, -0.040502f, 0.006068f, -0.097145f, -0.002839f, -0.038421f, -0.049031f, 0.004391f, -0.085317f,
    -0.011929f, -0.098005f, 0.081415f, -0.008407f, -0.030311f, 0.091144f, 0.088207f, -0.088739f, 0.021498f, 0.013365f,
    -0.058921f, -0.097449f, -0.086220f, -0.069391f, -0.014817f, -0.096377f, 0.005656f, -0.020595f, -0.001683f, -0.004927f,
    -0.078539f, -0.040522f, -0.041410f, -0.064093f, 0.062245f, -0.080153f, -0.094031f, -0.089784f, -0.094354f, -0.090389f,
    -0.031238f, -0.076463f, -0.090428f, -0.001463f, 0.000882f, -0.002994f, 0.084774f, 0.088810f, 0.041439f, 0.038629f,
    -0.089798f, -0.039718f, -0.092560f, 0.011810f, -0.068901f, -0.059723f, 0.079488f, 0.080480f, 0.041229f, 0.041671f,
    -0.031624f, -0.013793f, 0.011098f, -0.086597f, -0.053043f, 0.049271f, -0.063451f, 0.082370f, -0.060654f, -0.011912f,
    -0.091900f, 0.060271f, -0.086135f, -0.077992f, -0.039703f, -0.049094f, -0.093689f, 0.049990f, 0.069660f, 0.047110f,
    0.048235f, 0.069172f, -0.048027f, -0.091814f, 0.069119f, 0.080897f, -0.044367f, -0.020148f, 0.013241f, 0.008853f,
    0.098734f, -0.036566f, 0.094343f, -0.021335f, 0.088377f, 0.061424f, 0.080396f, 0.039355f, 0.009241f, -0.061631f,
    0.004218f, 0.082676f, 0.092649f, -0.076986f, 0.079911f, -0.026855f, 0.007752f, -0.035908f, -0.038782f, -0.054132f,
    -0.101415f, -0.039884f, -0.089870f, 0.063974f, 0.067378f, -0.030702f, 0.046684f, 0.055722f, 0.051812f, -0.021139f,
    0.062409f, -0.057337f, 0.043991f, 0.098923f, 0.020983f, -0.009520f, 0.083571f, -0.009478f, -0.030268f, -0.020739f,
    0.027881f, -0.081309f, -0.050068f, 0.012531f, -0.029989f, 0.100081f, 0.028336f, 0.052107f, -0.009967f, -0.065129f,
    -0.014377f, -0.011302f, 0.063003f, 0.010628f, -0.074923f, -0.028073f, 0.066763f, 0.008866f, 0.044328f, -0.002154f,
    -0.010697f, -0.051588f, -0.044749f, -0.022742f, -0.033863f, 0.094154f, 0.029771f, -0.092773f, -0.071913f, -0.015338f,
    -0.011940f, 0.035504f, -0.098123f, 0.100866f, 0.058473f, -0.092372f, -0.057797f, 0.082911f, -0.096804f, 0.073839f,
    -0.100688f, -0.006046f, -0.054355f, -0.036071f, 0.050326f, -0.091111f, 0.057769f, 0.019431f, -0.060273f, -0.030796f,
    0.020842f, 0.063610f, -0.008092f, -0.056703f, 0.004193f, -0.042914f, -0.091352f, 0.075449f, -0.029957f, 0.037822f,
    0.014447f, 0.085633f, 0.098419f, 0.024426f, 0.047636f, -0.063879f, -0.089811f, 0.056411f, -0.024840f, -0.088716f,
    0.074007f, -0.046164f, 0.042798f, 0.015083f, 0.035025f, 0.050517f, -0.086934f, 0.057388f, 0.093826f, 0.068687f,
    -0.059540f, -0.058934f, 0.063633f, -0.088117f, 0.100808f, -0.089471f, 0.025788f, -0.067949f, -0.097540f, 0.090534f,
    0.089077f, -0.095453f, -0.078937f, 0.100068f, 0.039529f, -0.060979f, -0.061773f, 0.021769f, 0.027668f, -0.082290f,
    0.095898f, 0.064766f, 0.080850f, 0.060768f, 0.049678f, 0.016050f, 0.091197f, -0.015596f, 0.045721f, 0.044938f,
    -0.030278f, -0.044266f, 0.023842f, -0.057261f, 0.074392f, -0.041234f, -0.045020f, -0.004739f, -0.084985f, 0.004714f,
    0.079746f, 0.076161f, 0.045946f, 0.043336f, 0.055159f, 0.096817f, -0.002491f, 0.033438f, 0.092573f, 0.082099f,
    -0.032978f, 0.071046f, 0.018257f, -0.071408f, 0.080565f, -0.032833f, 0.020327f, 0.083188f, -0.032768f, 0.086744f,
    -0.025595f, 0.005467f, 0.077284f, -0.004702f, -0.088498f, -0.005376f, 0.085482f, 0.084987f, 0.029301f, 0.073055f,
    -0.026716f, -0.045548f, -0.022612f, -0.000919f, -0.025327f, -0.020434f, 0.056277f, 0.036845f, -0.068251f, -0.002373f,
    0.017538f, -0.003191f, 0.083480f, -0.013108f, 0.026663f, 0.062738f, -0.010949f, -0.057947f, 0.094675f, 0.020117f,
    0.005104f, 0.000896f, 0.043103f, 0.095484f, -0.013438f, 0.082487f, -0.050615f, 0.063407f, -0.076068f, -0.013922f,
    -0.025951f, -0.087748f, 0.032104f, -0.094501f, -0.036273f, -0.081796f, -0.055652f, -0.019591f, -0.079462f, -0.037586f,
    0.099004f, 0.038507f, -0.100595f, 0.028215f, -0.066485f, -0.031268f, -0.093511f, -0.008899f, 0.048895f, 0.061739f,
    0.008877f, -0.056187f, 0.054509f, -0.011854f, -0.051438f, -0.013465f, 0.001024f, 0.037882f, 0.093302f, -0.093624f,
    0.000885f, 0.060239f, -0.042003f, -0.054198f, 0.061170f, -0.023134f, -0.098689f, -0.050438f, 0.015587f, -0.072394f,
    0.018806f, 0.096228f, -0.032115f, -0.056515f, -0.014034f, 0.025012f, 0.061870f, 0.009718f, 0.033006f, 0.091289f,
    -0.096944f, 0.005355f, 0.101756f, 0.080906f, 0.042119f, -0.084811f, -0.053914f, 0.057085f, 0.067857f, -0.003824f,
    -0.015206f, 0.000050f, 0.092987f, 0.034372f, -0.049220f, 0.043377f, 0.048097f, -0.071230f, 0.001925f, -0.099889f,
    -0.023719f, 0.033103f, -0.026289f, 0.040407f, -0.004712f, 0.057873f, -0.081470f, 0.056911f, -0.016138f, 0.038653f,
    -0.041997f, 0.021898f, 0.030581f, -0.066983f, -0.073639f, -0.088858f, 0.022928f, -0.024859f, 0.043293f, -0.027555f,
    -0.050677f, 0.065460f, -0.048830f, 0.038049f, -0.006122f, -0.012126f, -0.056475f, 0.035350f, -0.052739f, -0.009844f,
    -0.005840f, 0.037147f, 0.027578f, 0.041733f, 0.071329f, -0.076347f, 0.032906f, 0.001849f, -0.009204f, -0.069064f,
    0.039750f, -0.054517f, -0.059868f, -0.081654f, -0.098902f, 0.040629f, 0.007959f, -0.037491f, -0.075832f, 0.053239f,
    0.046971f, -0.018624f, 0.064223f, -0.017516f, -0.069455f, 0.101394f, 0.074320f, 0.044935f, 0.043176f, -0.068680f,
    -0.071433f, -0.026238f, -0.078210f, 0.006385f, -0.047156f, 0.065157f, -0.004518f, 0.028835f, -0.029069f, -0.027918f,
    -0.037315f, -0.001211f, -0.100708f, -0.018141f, 0.058987f, 0.010818f, -0.046562f, 0.027926f, 0.008294f, 0.096445f,
    -0.085604f, -0.022071f, -0.073609f, -0.071022f, 0.008295f, 0.100078f, 0.035795f, -0.070636f, -0.046286f, 0.029190f,
    -0.093482f, -0.093415f, -0.012865f, -0.017336f, -0.027415f, 0.005032f, -0.078032f, 0.043602f, 0.096601f, 0.079547f,
    -0.045480f, 0.058390f, 0.096336f, -0.025786f, 0.046126f, -0.012279f, 0.005454f, 0.010185f, -0.098421f, -0.048214f,
    0.055011f, -0.013297f, 0.051246f, -0.056656f, 0.030356f, 0.088905f, -0.084024f, -0.097563f, 0.058065f, -0.053523f,
    -0.063854f, -0.070448f, -0.035933f, 0.004420f, -0.016878f, 0.042834f, 0.083668f, -0.056007f, 0.074810f, -0.018849f,
    0.036056f, -0.003718f, 0.062756f, -0.027181f, 0.100624f, 0.024459f, 0.005458f, 0.033537f, 0.010270f, -0.048740f,
    0.064527f, 0.089408f, 0.008100f, -0.026897f, -0.028277f, 0.007410f, 0.012255f, -0.021160f, 0.014270f, 0.015104f,
    -0.080005f, 0.014941f, 0.094743f, 0.005443f, 0.044375f, -0.013560f, -0.061245f, -0.019200f, -0.085526f, -0.009221f,
    -0.064409f, 0.017054f, 0.063964f, 0.008243f, -0.087031f, -0.073845f, -0.096677f, -0.043338f, 0.038693f, 0.036338f,
    -0.043378f, -0.079196f, 0.003830f, -0.011659f, -0.057064f, -0.024371f, 0.090356f, -0.050671f, 0.007072f, 0.034141f,
    0.021677f, 0.022218f, -0.020983f, -0.095333f, -0.035097f, 0.011970f, 0.101088f, -0.024617f, 0.060033f, 0.047569f,
    -0.053296f, 0.035059f, -0.004970f, -0.054960f, 0.075631f, -0.036628f, -0.090725f, 0.089518f, 0.029943f, 0.081270f,
    0.088473f, 0.067154f, -0.051638f, 0.079269f, 0.089536f, 0.038429f, 0.082022f, -0.029822f, 0.058213f, -0.102183f,
    -0.091766f, -0.045426f, -0.026164f, 0.096573f, 0.028983f, -0.014616f, -0.021398f, -0.011038f, 0.099107f, 0.090582f,
    -0.082166f, 0.010095f, -0.085390f, 0.019953f, 0.092161f, -0.052895f, -0.046530f, 0.003854f, -0.003446f, -0.004992f,
    -0.012084f, -0.063846f, 0.042156f, 0.030599f, 0.022737f, -0.081214f, 0.086111f, -0.066813f, 0.055870f, 0.009816f,
    -0.095412f, -0.088386f, 0.082620f, -0.069946f, 0.023356f, 0.004749f, -0.045198f, 0.031550f, -0.035912f, 0.002107f,
    0.048191f, -0.078831f, -0.021654f, -0.054775f, 0.071095f, 0.091822f, -0.007864f, 0.061577f, -0.057666f, -0.009008f,
    0.041916f, -0.042510f, -0.010992f, -0.042447f, 0.065780f, 0.086987f, -0.014714f, 0.013097f, -0.008956f, -0.036102f,
    -0.063288f, -0.093696f, -0.052898f, -0.068338f, 0.046613f, -0.064699f, 0.016984f, 0.045365f, -0.022250f, 0.050413f,
    0.101447f, 0.081094f, -0.047372f, 0.034552f, 0.067998f, -0.021170f, -0.087282f, -0.069116f, -0.069085f, 0.010837f,
    -0.007155f, 0.066963f, -0.033688f, 0.062465f, 0.067994f, -0.022797f, 0.033622f, 0.032418f, 0.100381f, 0.053762f,
    0.064445f, -0.035808f, 0.058899f, -0.056210f, 0.022766f, -0.072671f, -0.095799f, -0.012166f, 0.048822f, 0.000238f,
    0.042679f, 0.084033f, 0.014433f, -0.066409f, -0.038252f, 0.002695f, -0.007036f, 0.098190f, -0.029573f, 0.083791f,
    -0.016158f, -0.071449f, -0.070020f, -0.060102f, -0.029296f, 0.063111f, -0.016188f, 0.087018f, -0.001648f, 0.003048f,
    0.042458f, -0.008742f, 0.079664f, -0.059723f, -0.026933f, 0.049831f, -0.000639f, 0.061280f, 0.019505f, 0.095828f,
    -0.012656f, 0.097409f, -0.029478f, 0.060136f, -0.021287f, -0.077497f, 0.016010f, 0.072658f, -0.046303f, 0.059923f,
    0.073659f, -0.091626f, -0.037139f, 0.058368f, 0.085396f, 0.018933f, -0.085915f, -0.053658f, -0.024015f, 0.068770f,
    -0.044673f, 0.073713f, -0.050713f, 0.037500f, -0.090806f, 0.038059f, -0.069764f, 0.025672f, 0.043896f, -0.030623f,
    -0.084975f, -0.070992f, 0.031442f, 0.064225f, -0.029759f, 0.048287f, 0.040929f, -0.031207f, 0.005516f, 0.055618f,
    0.096405f, -0.015200f, 0.027051f, 0.036351f, 0.078876f, 0.023820f, 0.075595f, 0.006152f, 0.078906f, 0.091869f,
    -0.010996f, 0.028236f, -0.028461f, -0.000693f, -0.015386f, 0.002617f, -0.028950f, -0.009046f, 0.032369f, -0.060793f,
    -0.044970f, 0.047802f, 0.017294f, 0.091972f, -0.084288f, -0.069674f, 0.071470f, 0.096407f, 0.059262f, -0.098067f,
    0.096204f, -0.007241f, -0.058945f, 0.031326f, 0.071375f, -0.015845f, 0.090328f, 0.085219f, 0.054826f, 0.041933f,
    -0.032410f, -0.021358f, 0.094796f, 0.007468f, 0.032862f, 0.097073f, -0.050194f, -0.010434f, -0.064614f, -0.023074f,
    -0.076038f, 0.050287f, 0.021718f, 0.008628f, 0.050291f, 0.022742f, 0.022017f, -0.058804f, 0.069219f, -0.068225f,
    0.100373f, 0.093333f, 0.044192f, -0.018060f, 0.024345f, 0.092646f, -0.101659f, -0.097500f, 0.035696f, 0.057840f,
    -0.045447f, 0.039362f, 0.012532f, -0.073707f, -0.061634f, 0.005454f, -0.080477f, -0.086694f, 0.065737f, -0.044323f,
    0.066636f, -0.088046f, 0.040891f, -0.053836f, -0.087712f, -0.088420f, 0.062283f, -0.011788f, -0.009128f, -0.041281f,
    0.015287f, 0.063712f, -0.054814f, 0.091755f, 0.035156f, -0.079342f, -0.068016f, 0.108999f, 0.081125f, 0.002677f,
    0.088996f, -0.041268f, -0.102918f, -0.080299f, -0.037903f, 0.066140f, 0.018367f, 0.020702f, -0.090993f, -0.025707f,
    -0.057368f, 0.043550f, 0.049189f, -0.020533f, 0.063555f, -0.090442f, -0.028008f, 0.054586f, -0.026117f, 0.017372f,
    -0.084527f, 0.009393f, 0.005275f, 0.032464f, 0.008867f, 0.087066f, -0.058359f, -0.029902f, -0.030960f, 0.064263f,
    -0.028523f, -0.071582f, 0.087324f, -0.052256f, 0.067874f, 0.031894f, 0.082530f, -0.083811f, 0.092075f, 0.051515f,
    0.069900f, -0.020836f, -0.021043f, 0.059896f, -0.053715f, 0.036598f, 0.084651f, -0.006021f, -0.030367f, 0.084880f,
    0.065319f, 0.064033f, 0.037099f, -0.096872f, -0.040213f, -0.041582f, -0.048454f, 0.082563f, -0.082188f, -0.024476f,
    -0.111838f, -0.078808f, 0.047312f, 0.082790f, -0.059929f, 0.083230f, 0.040031f, -0.027421f, 0.102368f, 0.020746f,
    0.038704f, 0.101592f, 0.008768f, -0.030720f, -0.001247f, 0.020823f, 0.027609f, -0.017321f, 0.088018f, 0.039479f,
    0.071116f, 0.100455f, 0.049315f, 0.099500f, -0.045428f, 0.058209f, -0.014330f, 0.032381f, 0.088936f, 0.059309f,
    0.092027f, 0.062183f, -0.006042f, -0.013138f, 0.057157f, -0.086846f, 0.027879f, -0.038570f, -0.032179f, -0.034483f,
    0.042815f, -0.036620f, -0.090827f, -0.064073f, 0.013636f, -0.084775f, 0.001810f, -0.015928f, 0.030847f, 0.042147f,
    -0.001176f, -0.017089f, 0.019536f, -0.100260f, 0.037981f, -0.004060f, -0.041969f, 0.027677f, -0.090049f, 0.102346f,
    -0.020642f, -0.019246f, 0.028074f, -0.003456f, 0.005811f, -0.019214f, -0.091460f, -0.062570f, -0.062761f, -0.056242f,
    0.051567f, 0.005791f, 0.059792f, 0.032341f, 0.039617f, -0.054927f, -0.065760f, 0.018941f, 0.101522f, -0.003148f,
    0.036985f, -0.011539f, -0.080400f, 0.067613f, -0.107312f, 0.063677f, -0.055011f, -0.043307f, -0.019902f, -0.077300f,
    -0.091667f, 0.029628f, 0.047447f, -0.009741f, -0.090066f, 0.082851f, 0.047478f, 0.030221f, -0.068806f, 0.107239f,
    -0.070170f, -0.074889f, 0.044426f, 0.003840f, 0.048900f, 0.026642f, 0.090950f, -0.093950f, -0.062391f, -0.062232f,
    -0.104236f, -0.005750f, -0.074377f, -0.049646f, 0.086998f, 0.103820f, 0.027580f, 0.058290f, -0.100450f, 0.083949f,
    -0.031919f, 0.090324f, 0.099047f, -0.014304f, -0.068838f, -0.070617f, 0.073542f, 0.008689f, -0.004564f, 0.091529f,
    -0.009234f, -0.069696f, 0.068311f, -0.075264f, -0.076032f, 0.018456f, 0.033254f, -0.095326f, -0.043930f, 0.009284f,
    0.073616f, -0.041106f, -0.099981f, 0.071833f, -0.036277f, 0.074924f, 0.037209f, 0.016364f, 0.019769f, 0.072345f,
    -0.062313f, 0.019643f, -0.041980f, 0.052399f, -0.094768f, -0.041295f, -0.053354f, -0.110791f, -0.075950f, 0.075330f,
    0.056688f, 0.005886f, 0.072562f, -0.021097f, -0.089784f, -0.026589f, 0.035561f, 0.028907f, 0.017041f, 0.096862f,
    -0.023645f, 0.036202f, 0.089079f, 0.060263f, -0.049251f, -0.090645f, 0.070843f, 0.080926f, 0.053037f, 0.072821f,
    -0.064699f, 0.016790f, -0.067402f, -0.079760f, -0.003708f, -0.031473f, 0.017358f, 0.019222f, -0.052118f, -0.070520f,
    0.035047f, -0.012839f, 0.023025f, 0.033684f, -0.047386f, -0.041154f, -0.061323f, 0.001720f, -0.019849f, -0.075057f,
    0.051483f, -0.066487f, -0.062903f, 0.036566f, -0.049857f, 0.034097f, 0.092803f, 0.083638f, -0.107993f, -0.072618f,
    -0.093078f, -0.032491f, 0.074110f, 0.032198f, 0.016213f, -0.019619f, 0.083661f, -0.090480f, 0.081820f, 0.094663f,
    -0.081977f, -0.105120f, 0.068959f, 0.087737f, 0.068685f, 0.018051f, -0.057272f, -0.048930f, -0.076149f, 0.010594f,
    0.015734f, -0.006618f, -0.017478f, -0.083128f, 0.023532f, -0.003948f, 0.056220f, 0.063559f, 0.100998f, 0.048884f,
    -0.009630f, -0.004208f, 0.022047f, 0.030552f, -0.057466f, -0.059605f, -0.052097f, -0.075052f, -0.085585f, 0.073477f,
    -0.078844f, -0.031931f, 0.023381f, -0.043971f, 0.006863f, -0.085556f, -0.000944f, -0.037351f, 0.032278f, -0.004230f,
    -0.102024f, 0.032212f, -0.063413f, -0.071313f, 0.038879f, -0.063438f, 0.005608f, 0.086778f, 0.063160f, -0.085268f,
    -0.062794f, -0.035771f, -0.020380f, -0.026254f, 0.038366f, 0.032072f, 0.088589f, -0.011881f, -0.038261f, 0.070418f,
    0.013659f, -0.009623f, -0.033029f, 0.050651f, -0.041902f, 0.040349f, -0.066768f, -0.092072f, -0.012341f, -0.078719f,
    -0.017523f, 0.070255f, -0.081512f, -0.102379f, 0.023942f, 0.085128f, -0.071583f, 0.062609f, -0.042661f, 0.036357f,
    -0.081106f, 0.108042f, -0.080063f, 0.014477f, -0.106151f, -0.059294f, 0.009251f, 0.051723f, -0.024192f, -0.063601f,
    0.007982f, 0.024724f, 0.038890f, 0.044736f, -0.036033f, 0.073672f, -0.062341f, -0.065649f, -0.048480f, -0.001754f,
    -0.045845f, -0.083111f, 0.042214f, -0.069335f, 0.021954f, -0.069090f, -0.105393f, -0.061164f, 0.085555f, -0.061329f,
    -0.060527f, 0.057417f, 0.044397f, -0.001602f, 0.031107f, 0.073615f, -0.028009f, 0.094984f, -0.065348f, 0.057269f,
    0.024501f, -0.092934f, 0.098676f, -0.054568f, 0.049797f, -0.081431f, -0.033319f, 0.043724f, 0.073375f, -0.017363f,
    -0.080861f, 0.038836f, -0.006036f, -0.046548f, -0.055343f, 0.084601f, 0.053673f, 0.059125f, -0.049896f, 0.101808f,
    -0.099616f, -0.044318f, -0.000712f, 0.003983f, 0.038623f, -0.027933f, 0.079495f, -0.069126f, -0.062436f, -0.027101f,
    0.028000f, 0.076877f, 0.064643f, 0.057727f, 0.092424f, 0.102492f, 0.026977f, 0.052787f, -0.073604f, 0.036561f,
    0.057410f, 0.097623f, -0.100692f, 0.042076f, 0.078967f, 0.047861f, -0.016092f, 0.097789f, 0.023495f, -0.016866f,
