// Auto-generated model weights for RAVN AI Engine
// Generated from: ../../artifacts/ravn_model.h5_weights.bin
// Total weights: 151107

#ifndef RAVN_MODEL_WEIGHTS_H
#define RAVN_MODEL_WEIGHTS_H

#include <stdint.h>

// Model architecture constants
#define INPUT_SEQUENCE_LENGTH 20
#define INPUT_FEATURE_DIM 10
#define DENSE1_OUTPUT_SIZE 64
#define LSTM1_HIDDEN_SIZE 128
#define LSTM2_HIDDEN_SIZE 64
#define DENSE2_OUTPUT_SIZE 32
#define OUTPUT_CLASSES 3

// Layer weight counts
#define DENSE1_WEIGHT_COUNT 704
#define LSTM1_WEIGHT_COUNT 98816
#define LSTM2_WEIGHT_COUNT 49408
#define DENSE2_WEIGHT_COUNT 2080
#define DENSE3_WEIGHT_COUNT 99
#define TOTAL_WEIGHT_COUNT 151107

// All model weights (float32) - organized by layer
static const float all_model_weights[TOTAL_WEIGHT_COUNT] = {
    0.032434f, -0.122722f, -0.194088f, -0.041776f, 0.143098f, -0.029020f, 0.101921f, -0.187934f, 0.175586f, 0.072757f,
    -0.101824f, -0.212900f, -0.100459f, -0.178746f, 0.042293f, -0.255071f, -0.072167f, -0.268881f, 0.158324f, -0.165732f,
    -0.155885f, 0.199193f, -0.053662f, 0.280354f, -0.039746f, -0.082243f, 0.212044f, 0.235818f, 0.115619f, 0.023679f,
    0.115581f, -0.179561f, 0.216143f, 0.210461f, 0.264603f, -0.245100f, 0.164074f, -0.119927f, 0.063169f, -0.128052f,
    0.059764f, 0.206991f, -0.000470f, -0.278717f, -0.056460f, -0.226039f, 0.063651f, -0.041197f, 0.020295f, -0.135795f,
    -0.246909f, -0.075144f, -0.173938f, -0.151401f, -0.157900f, 0.276508f, -0.191965f, -0.101004f, 0.282666f, 0.086760f,
    0.141981f, 0.020049f, 0.097628f, 0.118923f, -0.167215f, 0.048332f, 0.275378f, 0.149753f, -0.064807f, -0.173211f,
    -0.025738f, -0.093281f, -0.096187f, 0.117409f, 0.252781f, -0.244109f, -0.224483f, 0.154713f, 0.001864f, -0.075390f,
    0.144074f, -0.158192f, -0.123939f, -0.069975f, -0.282349f, 0.164329f, -0.247287f, -0.018075f, 0.027674f, -0.027102f,
    0.263884f, 0.205933f, 0.262015f, -0.266150f, 0.280913f, -0.276627f, 0.058975f, 0.212022f, 0.032682f, 0.069135f,
    -0.131249f, -0.047852f, -0.190642f, -0.204763f, -0.109568f, -0.078799f, -0.167893f, -0.169546f, -0.056276f, 0.011707f,
    0.261813f, 0.142995f, -0.245761f, -0.148390f, -0.142371f, -0.170284f, 0.175027f, -0.086675f, -0.257229f, -0.134185f,
    -0.142092f, 0.020043f, 0.228605f, 0.188240f, -0.010339f, -0.052894f, 0.203249f, -0.236426f, 0.073936f, -0.044579f,
    0.021365f, -0.260798f, -0.126221f, -0.245619f, -0.243623f, 0.011155f, 0.188865f, 0.041677f, 0.216203f, -0.087899f,
    -0.025289f, -0.155437f, -0.251014f, 0.247740f, -0.022072f, -0.174165f, -0.138124f, -0.133992f, 0.211678f, 0.152170f,
    0.131280f, 0.003756f, 0.141693f, -0.030998f, -0.129065f, 0.124733f, 0.265306f, -0.029563f, 0.212068f, 0.151091f,
    -0.278160f, 0.089401f, 0.019089f, -0.120460f, -0.270218f, 0.211558f, -0.160552f, -0.099811f, -0.026083f, 0.192974f,
    -0.091990f, -0.238358f, 0.061117f, -0.252452f, 0.067026f, 0.245329f, -0.172765f, -0.149245f, -0.007621f, 0.037957f,
    0.056922f, -0.029251f, -0.259581f, 0.209000f, -0.167621f, -0.198924f, 0.160715f, 0.215656f, -0.250767f, 0.068818f,
    -0.237799f, 0.041411f, -0.035661f, -0.045348f, 0.159214f, -0.192056f, 0.099673f, 0.225101f, 0.143638f, -0.075772f,
    -0.119609f, -0.276439f, -0.131247f, 0.055242f, -0.272942f, -0.260853f, -0.228881f, -0.234323f, -0.057964f, 0.013946f,
    0.031047f, -0.093882f, 0.194026f, -0.263748f, 0.065986f, 0.125664f, -0.223958f, 0.085084f, -0.002810f, -0.017137f,
    -0.117580f, -0.213805f, 0.238631f, -0.160558f, -0.244087f, 0.048460f, -0.076986f, 0.181737f, -0.168375f, -0.191163f,
    0.140330f, 0.026624f, 0.303414f, -0.068996f, 0.047561f, 0.055266f, 0.013166f, -0.281993f, 0.291341f, 0.066129f,
    0.283129f, -0.106007f, -0.073072f, 0.070799f, 0.232573f, -0.257452f, 0.279057f, -0.057331f, 0.232587f, 0.086386f,
    0.054576f, 0.052497f, -0.084357f, -0.116194f, 0.184240f, -0.266409f, 0.078340f, -0.076384f, 0.088788f, 0.230545f,
    -0.221723f, 0.016937f, 0.159021f, 0.214544f, -0.238948f, -0.069077f, -0.158690f, 0.211099f, 0.027807f, -0.014188f,
    -0.161139f, 0.257799f, -0.209407f, 0.133507f, -0.190214f, -0.019492f, -0.115670f, -0.276911f, 0.106562f, 0.156254f,
    0.203710f, -0.040418f, 0.236064f, -0.020967f, -0.018586f, 0.024197f, -0.255726f, -0.120021f, -0.200779f, -0.191401f,
    -0.146611f, 0.173666f, -0.066896f, -0.220485f, 0.046885f, -0.238251f, 0.101940f, 0.116905f, -0.119603f, -0.269147f,
    0.202392f, -0.035225f, -0.024395f, 0.188952f, 0.048210f, 0.238946f, 0.013689f, -0.221575f, 0.280100f, 0.271474f,
    -0.150824f, -0.146650f, -0.110838f, 0.021813f, -0.208325f, -0.058406f, -0.101849f, -0.248521f, 0.151601f, -0.234423f,
    -0.019464f, -0.115081f, 0.080926f, 0.158468f, -0.011510f, 0.004454f, 0.108308f, -0.282629f, 0.042045f, -0.045890f,
    0.099267f, 0.110538f, 0.060623f, -0.124986f, -0.112800f, 0.122867f, 0.003871f, 0.021245f, 0.143467f, -0.238035f,
    0.228886f, -0.023900f, -0.184294f, 0.210041f, 0.073462f, 0.149344f, 0.107111f, -0.025455f, 0.165230f, -0.245392f,
    0.016158f, -0.151922f, 0.030045f, 0.150440f, 0.141306f, -0.106782f, -0.178145f, 0.261005f, 0.215115f, 0.215391f,
    0.084086f, -0.080159f, -0.084365f, -0.124648f, -0.239554f, -0.144361f, 0.119706f, 0.074143f, -0.193277f, -0.112760f,
    0.226232f, 0.164406f, -0.059448f, 0.203704f, -0.114481f, 0.095002f, 0.019389f, 0.008861f, 0.052671f, -0.011868f,
    -0.134967f, 0.100073f, 0.122118f, -0.215659f, -0.070002f, -0.043792f, 0.053968f, 0.060110f, -0.084970f, -0.096371f,
    0.089236f, 0.115895f, -0.013664f, 0.089321f, -0.238667f, 0.124455f, -0.192694f, -0.139592f, -0.004827f, -0.143760f,
    -0.246260f, -0.035257f, -0.232241f, 0.278829f, 0.090214f, -0.237259f, -0.175993f, -0.104089f, 0.002990f, -0.241232f,
    -0.208358f, -0.143269f, 0.018489f, -0.281465f, -0.064965f, 0.095930f, 0.258856f, 0.198379f, 0.208206f, 0.018165f,
    -0.277642f, -0.231957f, 0.127957f, 0.183303f, 0.004079f, -0.254184f, -0.181696f, -0.220252f, 0.094067f, -0.186405f,
    -0.145940f, 0.213651f, 0.062631f, 0.199023f, 0.195616f, 0.155594f, -0.224067f, 0.094524f, 0.270382f, -0.200349f,
    0.189038f, 0.225655f, -0.197306f, 0.119329f, -0.236979f, 0.014247f, -0.212681f, 0.233552f, -0.144418f, 0.126453f,
    -0.281583f, 0.236618f, 0.054051f, 0.139860f, 0.238882f, 0.246589f, -0.045221f, -0.042214f, -0.206600f, -0.262284f,
    -0.178585f, -0.025025f, 0.139484f, 0.134965f, 0.030842f, 0.033661f, 0.134973f, 0.260328f, 0.224216f, -0.051591f,
    -0.215223f, -0.087020f, 0.181774f, -0.146377f, 0.222836f, 0.280432f, -0.137327f, 0.097228f, -0.008680f, 0.108951f,
    -0.043335f, 0.229527f, 0.108331f, 0.219640f, -0.274391f, -0.094206f, -0.086630f, -0.055815f, -0.130881f, 0.178289f,
    -0.008728f, -0.143103f, 0.162180f, 0.180438f, -0.247198f, -0.049647f, -0.180985f, 0.034085f, 0.078435f, 0.036275f,
    -0.256152f, 0.281083f, 0.034971f, 0.105410f, -0.091541f, 0.259644f, -0.013387f, 0.252486f, 0.068108f, 0.055470f,
    -0.096752f, 0.273678f, 0.185405f, 0.126021f, 0.199631f, 0.034175f, 0.087170f, -0.108358f, 0.034448f, -0.011497f,
    0.010403f, 0.182230f, -0.136271f, -0.196125f, 0.084879f, 0.003490f, -0.076373f, 0.065413f, 0.216862f, 0.006745f,
    -0.029113f, 0.029935f, -0.102406f, 0.072281f, -0.244577f, 0.032786f, -0.103401f, 0.118987f, -0.053136f, -0.175684f,
    0.078629f, 0.060138f, -0.037577f, 0.234483f, 0.170656f, 0.192321f, 0.073162f, -0.098322f, 0.069048f, 0.238013f,
    -0.044730f, 0.086052f, -0.132447f, -0.166422f, 0.110736f, 0.025648f, -0.214615f, 0.200948f, -0.008814f, -0.230731f,
    -0.047183f, 0.239663f, 0.274491f, -0.206279f, 0.161012f, 0.032720f, -0.103192f, -0.010210f, 0.284330f, 0.019464f,
    -0.007892f, -0.277105f, 0.003949f, 0.056053f, -0.163047f, -0.088024f, 0.150210f, 0.192673f, 0.144884f, -0.148299f,
    -0.120808f, 0.165987f, 0.117434f, -0.100612f, -0.013814f, -0.167784f, -0.243353f, 0.212327f, -0.107123f, 0.195866f,
    0.004008f, 0.105495f, -0.106135f, 0.110276f, -0.004712f, -0.095114f, 0.160369f, -0.159885f, -0.071287f, 0.142476f,
    0.032198f, 0.075159f, 0.247267f, -0.238357f, -0.124576f, -0.024381f, 0.136344f, 0.081067f, -0.069076f, -0.104483f,
    -0.238248f, 0.104084f, -0.266733f, 0.062511f, -0.249394f, 0.040078f, -0.199717f, -0.081249f, 0.086142f, -0.053211f,
    0.140532f, 0.086692f, -0.181815f, -0.062912f, 0.266574f, 0.191037f, 0.171539f, 0.073284f, -0.226616f, 0.098942f,
    0.018046f, 0.037497f, -0.142168f, 0.033178f, -0.267624f, 0.161600f, 0.191848f, 0.243428f, -0.086309f, -0.103075f,
    0.000000f, 0.000000f, -0.012490f, 0.000000f, -0.020166f, -0.000299f, -0.012288f, 0.000000f, 0.000000f, 0.000000f,
    0.000000f, -0.000246f, 0.000000f, 0.000000f, 0.000000f, 0.000000f, 0.000000f, -0.005953f, -0.000027f, 0.000000f,
    -0.000000f, 0.000000f, -0.012314f, -0.000209f, 0.000000f, -0.011154f, -0.000170f, 0.000000f, 0.000000f, 0.000000f,
    -0.000330f, 0.000000f, 0.000000f, -0.009585f, 0.000000f, -0.000010f, 0.000000f, 0.000000f, -0.012295f, -0.000001f,
    -0.022222f, 0.000000f, -0.012311f, -0.000012f, -0.004646f, 0.000000f, -0.012302f, -0.000226f, -0.012288f, 0.000000f,
    0.000000f, -0.012264f, -0.009159f, 0.000000f, -0.001639f, 0.000000f, -0.000317f, -0.012298f, -0.000358f, -0.023538f,
    0.000000f, 0.000000f, -0.012304f, 0.000000f, 0.047519f, 0.043325f, 0.086652f, 0.045922f, -0.082637f, 0.023296f,
    0.018261f, -0.024392f, -0.068394f, -0.011323f, 0.047402f, 0.019911f, -0.081745f, -0.046631f, 0.062299f, 0.036034f,
    0.079603f, 0.076478f, -0.007394f, 0.035372f, 0.045745f, -0.098774f, 0.000834f, 0.014745f, -0.093435f, 0.084191f,
    0.062662f, 0.025647f, -0.020733f, -0.048921f, -0.071966f, -0.096851f, -0.078218f, -0.011684f, -0.059542f, 0.005914f,
    -0.015454f, -0.009969f, -0.093707f, 0.086113f, -0.091969f, -0.016265f, 0.101943f, -0.070342f, 0.050667f, 0.065174f,
    -0.083310f, 0.038464f, -0.094647f, -0.045984f, 0.024898f, -0.002183f, 0.031024f, 0.101137f, -0.053884f, -0.068714f,
    0.080458f, 0.085509f, -0.026807f, -0.036513f, 0.094963f, -0.068773f, -0.006236f, 0.095635f, 0.085308f, -0.076070f,
    -0.062651f, 0.053718f, 0.000264f, 0.090284f, -0.032132f, 0.049636f, -0.056098f, -0.046813f, 0.022125f, 0.007636f,
    0.020615f, -0.101924f, -0.066346f, 0.060602f, -0.032233f, -0.068124f, -0.005009f, 0.007587f, 0.029903f, -0.074914f,
    -0.062355f, 0.009023f, 0.096833f, -0.076364f, -0.010458f, 0.097075f, -0.006568f, 0.052614f, -0.007868f, 0.067098f,
    0.007066f, 0.043232f, 0.058782f, 0.000574f, -0.068274f, 0.025097f, 0.096185f, -0.094142f, -0.030850f, -0.015825f,
    0.029024f, -0.095931f, 0.009088f, 0.010314f, -0.075103f, 0.028302f, 0.074987f, -0.073742f, -0.027461f, -0.059245f,
    -0.093284f, -0.030121f, -0.037271f, -0.075819f, 0.006668f, 0.082999f, 0.061384f, -0.043923f, -0.002489f, 0.010962f,
    0.068128f, 0.095163f, 0.021773f, 0.082620f, 0.027994f, -0.080187f, -0.093389f, 0.045041f, -0.086880f, 0.093789f,
    -0.030646f, -0.025338f, -0.012686f, 0.022550f, -0.067708f, 0.000076f, 0.015939f, 0.061006f, 0.021800f, -0.081790f,
    0.010707f, 0.099316f, -0.008321f, -0.050900f, 0.038203f, 0.088140f, -0.096194f, 0.042840f, 0.051093f, -0.055994f,
    0.093587f, 0.030049f, 0.056322f, -0.034915f, 0.060284f, 0.092399f, -0.006523f, -0.074921f, 0.010947f, -0.073573f,
    -0.057980f, 0.024260f, -0.051317f, 0.060575f, -0.014557f, -0.100601f, -0.101566f, 0.039709f, -0.079976f, 0.020425f,
    -0.010542f, 0.029104f, 0.016875f, 0.004612f, -0.040273f, 0.017170f, -0.056963f, -0.022162f, 0.076958f, -0.014231f,
    0.050907f, -0.080293f, 0.078658f, -0.039636f, 0.073452f, 0.017249f, 0.013591f, -0.068473f, 0.051551f, 0.054519f,
    -0.101794f, -0.044897f, -0.087266f, -0.063099f, -0.003385f, -0.099409f, 0.092871f, -0.077708f, -0.022633f, -0.006072f,
    0.029773f, -0.043109f, -0.055556f, -0.030036f, -0.027621f, 0.056039f, -0.032219f, 0.052111f, -0.038994f, 0.003184f,
    0.068665f, 0.012756f, 0.046805f, -0.057410f, 0.032308f, 0.006508f, 0.031224f, 0.074554f, -0.068664f, 0.061199f,
    0.009472f, 0.001365f, -0.038239f, 0.052972f, -0.011597f, -0.026516f, -0.051800f, 0.015106f, -0.089419f, 0.086034f,
    -0.064220f, -0.040123f, 0.081172f, -0.029954f, 0.034316f, -0.045289f, -0.023757f, 0.076419f, 0.033391f, 0.032052f,
    0.008576f, 0.007464f, 0.036572f, 0.027066f, -0.070545f, 0.093694f, 0.021753f, 0.093575f, -0.002892f, -0.033764f,
    -0.045540f, 0.085391f, 0.066500f, 0.092493f, -0.032772f, 0.008823f, 0.021449f, 0.015837f, -0.066975f, -0.086244f,
    -0.025017f, 0.049383f, 0.093368f, 0.083733f, 0.013268f, 0.025594f, 0.072285f, 0.043059f, 0.050544f, -0.035529f,
    0.053842f, 0.006644f, -0.055981f, -0.020177f, 0.044020f, 0.073054f, 0.073705f, 0.068547f, -0.098086f, -0.094405f,
    -0.015402f, 0.061337f, 0.097353f, -0.076254f, -0.090971f, -0.068649f, -0.089061f, 0.039174f, -0.055776f, 0.069390f,
    0.053110f, -0.095092f, -0.070653f, -0.017087f, 0.016465f, 0.040116f, -0.099230f, -0.034741f, 0.046022f, 0.002272f,
    0.002962f, -0.072860f, 0.016894f, -0.000559f, 0.068077f, 0.075911f, -0.065404f, 0.089705f, -0.055587f, -0.011424f,
    -0.069563f, -0.073259f, 0.022615f, 0.000292f, -0.047974f, -0.071070f, -0.082641f, -0.032441f, 0.094930f, 0.029542f,
    0.083336f, -0.054681f, 0.094534f, 0.085872f, 0.091414f, -0.006290f, -0.021507f, -0.076918f, 0.077010f, 0.054631f,
    0.027299f, -0.090608f, -0.060394f, -0.068373f, 0.004925f, 0.032624f, 0.016063f, 0.077688f, -0.053220f, 0.088642f,
    -0.086877f, 0.059658f, -0.029311f, 0.045506f, 0.072393f, -0.026058f, -0.003511f, 0.058766f, 0.025021f, 0.048969f,
    0.081138f, -0.097851f, 0.039674f, 0.086058f, -0.000692f, -0.091402f, -0.065492f, -0.055895f, -0.047762f, 0.101855f,
    -0.008500f, 0.073771f, -0.040057f, 0.099151f, -0.006533f, -0.093178f, 0.048007f, 0.062639f, 0.005091f, -0.071206f,
    0.036416f, -0.085034f, -0.079068f, -0.020292f, -0.009580f, 0.070605f, -0.006805f, -0.047698f, 0.088786f, -0.026183f,
    0.096553f, 0.022414f, -0.097458f, 0.090561f, 0.021668f, -0.094531f, 0.033806f, -0.040489f, 0.048189f, -0.031690f,
    0.035005f, 0.051945f, 0.067489f, -0.047944f, 0.010328f, 0.036020f, 0.101504f, 0.012064f, 0.040525f, -0.093609f,
    0.060337f, -0.061099f, 0.032905f, 0.000959f, 0.056916f, 0.071361f, 0.044796f, 0.071787f, -0.096009f, 0.013733f,
    0.079282f, 0.040747f, 0.095300f, 0.049451f, 0.002436f, -0.027370f, -0.066857f, 0.007626f, -0.043429f, -0.015394f,
    -0.024725f, -0.093975f, 0.033474f, 0.046478f, -0.048858f, -0.053248f, 0.041767f, -0.008474f, -0.027650f, -0.073659f,
    0.055031f, 0.010645f, 0.019798f, -0.020944f, 0.087858f, 0.069053f, 0.016456f, 0.049223f, -0.061801f, -0.019058f,
    0.061192f, -0.019509f, 0.087821f, -0.076317f, 0.016554f, 0.097749f, 0.038337f, -0.070297f, 0.015268f, 0.028034f,
    0.086862f, -0.057708f, 0.089640f, -0.097529f, 0.025731f, 0.071232f, -0.039797f, 0.100791f, -0.031448f, -0.048878f,
    -0.028254f, -0.000814f, -0.024746f, -0.060657f, -0.043485f, -0.055969f, -0.033988f, 0.059017f, 0.080593f, -0.026277f,
    -0.009669f, 0.006430f, -0.073839f, 0.047468f, 0.043057f, 0.040402f, 0.030203f, 0.025774f, 0.067400f, -0.002438f,
    0.081243f, 0.033895f, -0.100094f, 0.084587f, -0.071096f, -0.036449f, -0.007464f, 0.051392f, -0.026204f, -0.090154f,
    -0.041276f, 0.002580f, -0.035239f, -0.041527f, -0.084960f, 0.008106f, -0.026697f, 0.017759f, -0.052221f, 0.093770f,
    0.049663f, -0.052795f, -0.098204f, -0.063230f, -0.033452f, 0.021973f, -0.045641f, -0.099792f, 0.035956f, 0.016955f,
    0.039493f, -0.054882f, -0.088791f, 0.011373f, -0.081794f, 0.049588f, 0.032752f, -0.070634f, -0.085506f, 0.082098f,
    0.017995f, -0.012299f, -0.045495f, 0.031489f, 0.038960f, -0.073911f, 0.013162f, -0.077867f, 0.052489f, 0.043366f,
    -0.096200f, -0.031967f, 0.055992f, 0.041139f, -0.017131f, -0.089200f, 0.017033f, 0.097190f, -0.036406f, -0.083514f,
    -0.067455f, -0.009056f, 0.088859f, 0.057381f, 0.057298f, -0.068271f, 0.003867f, -0.052601f, 0.053740f, 0.076990f,
    -0.015262f, -0.014222f, 0.081048f, -0.077400f, 0.061647f, -0.089488f, -0.008077f, -0.040929f, 0.029924f, 0.029134f,
    0.070749f, 0.092640f, 0.081207f, -0.056826f, -0.000722f, -0.096181f, 0.060733f, -0.020797f, -0.068577f, -0.079514f,
    0.091902f, 0.049000f, 0.049292f, 0.079045f, -0.058537f, 0.036956f, 0.014748f, 0.007227f, 0.072618f, 0.002565f,
    -0.049831f, -0.002976f, -0.005935f, -0.008701f, -0.055906f, -0.059564f, -0.017585f, -0.009551f, 0.053182f, 0.041831f,
    -0.057289f, -0.067405f, -0.053967f, -0.021755f, 0.006145f, -0.068496f, -0.042150f, -0.068305f, -0.051158f, -0.072617f,
    0.079377f, 0.078862f, -0.031511f, 0.055396f, 0.022463f, 0.050332f, 0.079215f, 0.054687f, -0.026275f, -0.039833f,
    0.056325f, 0.020286f, 0.049148f, 0.092159f, -0.022887f, -0.055152f, -0.042084f, -0.043282f, -0.028685f, 0.091355f,
    0.022265f, 0.093953f, 0.073932f, -0.008471f, 0.070584f, -0.054555f, 0.098584f, 0.079071f, -0.066669f, 0.075169f,
    -0.089108f, 0.040415f, 0.042699f, 0.084096f, -0.087389f, 0.017233f, -0.097624f, 0.037655f, -0.031621f, -0.051487f,
    -0.000262f, -0.069932f, -0.101532f, 0.038206f, -0.010814f, 0.053091f, 0.028902f, 0.089258f, 0.039374f, 0.062258f,
    -0.093340f, 0.071877f, 0.045117f, 0.063339f, -0.021142f, -0.095819f, -0.024629f, 0.057459f, 0.089731f, -0.079930f,
    0.064059f, 0.023692f, 0.024320f, -0.000448f, -0.003865f, -0.096127f, -0.031006f, -0.043926f, 0.060049f, 0.044301f,
    -0.075681f, 0.085902f, -0.018011f, 0.011648f, 0.008265f, 0.044932f, -0.063151f, -0.006820f, 0.061331f, -0.035895f,
    -0.029547f, -0.031689f, 0.021985f, 0.079704f, -0.008661f, -0.072328f, -0.011664f, -0.080928f, 0.050556f, -0.085565f,
    -0.028315f, -0.037955f, -0.022238f, 0.029010f, 0.055733f, 0.035006f, 0.065532f, -0.032102f, 0.021127f, 0.013918f,
    -0.092947f, 0.096895f, 0.042373f, -0.009790f, -0.082446f, -0.080070f, 0.100830f, 0.037351f, -0.011492f, 0.025317f,
    0.083685f, -0.057281f, -0.016194f, -0.065357f, -0.001359f, 0.072979f, 0.058156f, -0.087856f, 0.024501f, 0.050902f,
    -0.042600f, -0.022623f, -0.011149f, 0.020301f, -0.004296f, -0.087671f, -0.080007f, 0.095167f, 0.042140f, 0.059285f,
    -0.090245f, -0.018353f, -0.069495f, 0.008553f, 0.015987f, -0.099470f, -0.067193f, 0.075547f, -0.081991f, 0.030873f,
    -0.003296f, 0.045632f, -0.074325f, 0.034336f, -0.000277f, -0.046794f, 0.088859f, 0.045893f, 0.033936f, -0.055992f,
    -0.085677f, -0.045711f, 0.045966f, 0.075207f, 0.096052f, -0.081510f, -0.011716f, 0.067344f, -0.068307f, -0.013045f,
    0.047076f, -0.069867f, 0.082913f, 0.066129f, -0.021250f, -0.085893f, 0.016734f, -0.041299f, 0.051152f, 0.047397f,
    -0.075833f, 0.056573f, 0.075084f, -0.052420f, -0.054260f, -0.045975f, -0.078178f, 0.093282f, 0.085210f, -0.025115f,
    -0.053077f, -0.075141f, -0.040238f, -0.004355f, 0.079726f, -0.052970f, 0.064476f, -0.043473f, 0.072885f, 0.036186f,
    0.021893f, -0.049011f, 0.017513f, 0.019757f, -0.000288f, 0.071177f, 0.045086f, 0.028284f, 0.022534f, 0.070700f,
    -0.066399f, -0.053925f, 0.030342f, -0.100468f, -0.061058f, 0.035784f, 0.019585f, -0.012241f, -0.069170f, -0.079804f,
    -0.064760f, -0.074253f, -0.057889f, -0.087141f, 0.068220f, -0.074869f, 0.083356f, 0.015369f, 0.037380f, -0.058843f,
    -0.021182f, 0.100175f, -0.091749f, -0.089271f, -0.012907f, 0.023884f, 0.092729f, 0.037815f, 0.067513f, -0.001675f,
    -0.072509f, 0.040470f, -0.039282f, -0.050564f, -0.024952f, -0.053996f, -0.017083f, 0.024190f, 0.015386f, 0.009219f,
    0.015186f, 0.067123f, -0.004881f, 0.056695f, 0.013384f, 0.070857f, 0.072192f, -0.070520f, -0.058621f, -0.074796f,
    0.086014f, 0.056956f, 0.071676f, 0.000813f, 0.007964f, -0.092673f, -0.099138f, -0.040233f, 0.030230f, 0.084140f,
    -0.076250f, 0.009197f, 0.004722f, 0.058576f, 0.060904f, 0.097399f, -0.058697f, -0.011553f, -0.065380f, -0.012404f,
    0.039892f, 0.006788f, 0.001287f, 0.019196f, -0.029103f, -0.085534f, -0.082888f, 0.003600f, 0.053522f, 0.094804f,
    -0.039973f, -0.090010f, 0.072430f, -0.079723f, 0.042572f, 0.056088f, 0.042047f, -0.050093f, -0.068844f, 0.016545f,
    0.041127f, -0.039539f, -0.015071f, 0.014224f, -0.019493f, -0.072107f, 0.009934f, -0.088294f, -0.027575f, 0.083087f,
    -0.037655f, -0.081008f, 0.070064f, 0.049722f, 0.005273f, 0.035341f, -0.044229f, 0.100854f, 0.019759f, 0.052243f,
    -0.065433f, 0.019423f, 0.013490f, -0.009444f, -0.077337f, 0.049825f, -0.056489f, -0.087142f, 0.010028f, 0.084816f,
    -0.065900f, -0.022521f, -0.086072f, -0.002865f, 0.072803f, 0.081921f, 0.078977f, -0.028421f, 0.092773f, 0.053801f,
    0.085448f, 0.036031f, 0.090093f, 0.030928f, -0.072349f, -0.022258f, 0.014997f, -0.064521f, -0.070572f, 0.033350f,
    -0.041148f, 0.064432f, 0.014882f, -0.096198f, 0.100464f, -0.037777f, 0.064962f, -0.061431f, 0.099524f, -0.045760f,
    -0.001826f, 0.039561f, -0.083288f, 0.091547f, 0.029926f, 0.017755f, 0.002642f, 0.037288f, 0.045561f, 0.064431f,
    -0.097711f, -0.035694f, 0.024549f, -0.022736f, 0.017403f, 0.008549f, 0.013187f, 0.098282f, -0.070420f, 0.036558f,
    0.067538f, -0.038462f, -0.083404f, 0.020957f, 0.062484f, -0.017934f, 0.097887f, -0.019264f, 0.073403f, -0.077835f,
    0.068982f, 0.025200f, -0.013764f, 0.084461f, -0.016830f, -0.070449f, -0.076391f, -0.087039f, -0.089086f, 0.033021f,
    0.084828f, -0.030040f, 0.048478f, -0.047929f, 0.079134f, -0.007480f, 0.076905f, -0.041882f, -0.000237f, 0.086648f,
    -0.031053f, 0.062712f, 0.099117f, -0.076113f, -0.091905f, -0.018263f, 0.057940f, 0.089914f, -0.026477f, 0.074488f,
    0.085217f, 0.083460f, 0.000776f, 0.029459f, 0.060286f, -0.059011f, -0.085654f, 0.049259f, 0.011698f, 0.005867f,
    -0.024832f, 0.101454f, 0.039280f, 0.011034f, 0.062951f, 0.087750f, -0.005635f, -0.004354f, -0.071618f, 0.026334f,
    -0.058153f, -0.005678f, 0.082463f, 0.110056f, -0.054068f, -0.017925f, 0.105053f, 0.102834f, 0.058367f, 0.116287f,
    0.068800f, 0.026733f, -0.014978f, 0.014717f, 0.074750f, -0.045358f, -0.047831f, -0.050740f, 0.052413f, -0.000429f,
    0.029277f, 0.100215f, 0.089275f, 0.063197f, 0.120473f, -0.025737f, -0.009502f, -0.028324f, 0.080708f, 0.126532f,
    0.025908f, -0.055556f, 0.112281f, 0.068576f, -0.025263f, -0.027407f, 0.076944f, 0.105700f, -0.015565f, 0.078519f,
    0.018439f, -0.014335f, 0.102288f, 0.074087f, 0.121056f, -0.020287f, -0.081539f, 0.044684f, -0.081784f, -0.016523f,
    0.093217f, 0.107077f, 0.023006f, -0.067403f, -0.002269f, 0.089761f, 0.032220f, -0.059390f, 0.130458f, 0.022115f,
    0.025763f, 0.030877f, -0.000365f, -0.000940f, -0.050370f, -0.047271f, 0.011205f, 0.089762f, 0.021454f, -0.015054f,
    -0.065749f, -0.024324f, 0.112953f, 0.026511f, -0.068375f, -0.051808f, -0.003218f, -0.070464f, -0.049931f, -0.060612f,
    0.020480f, 0.017191f, 0.100181f, 0.003445f, 0.039741f, -0.053610f, 0.007360f, 0.100828f, 0.058256f, 0.017301f,
    -0.058489f, 0.053619f, 0.097451f, 0.050240f, 0.061640f, 0.039317f, 0.040521f, -0.034962f, -0.041515f, 0.044597f,
    0.034411f, 0.090842f, -0.051968f, -0.029307f, 0.082483f, 0.119090f, 0.064083f, -0.009104f, 0.008823f, 0.092089f,
    -0.036576f, -0.053748f, -0.002231f, 0.099641f, 0.008003f, 0.033785f, 0.090638f, 0.061607f, 0.032156f, -0.023908f,
    0.022570f, 0.019306f, 0.046748f, 0.034158f, -0.034065f, 0.061633f, -0.034130f, -0.051721f, 0.082498f, 0.025063f,
    -0.082880f, 0.067791f, -0.008745f, 0.070549f, 0.038669f, -0.005644f, -0.059629f, 0.074350f, 0.100205f, -0.085079f,
    -0.064680f, -0.069451f, 0.016137f, 0.066916f, -0.043451f, 0.024806f, 0.050272f, -0.028253f, 0.025884f, -0.038378f,
    -0.009081f, -0.089080f, -0.061047f, -0.015151f, -0.034677f, -0.053860f, 0.077071f, 0.043642f, -0.085859f, -0.022041f,
    0.069579f, -0.031483f, -0.055938f, 0.016376f, -0.073832f, 0.025604f, -0.041714f, 0.038213f, -0.120819f, -0.009392f,
    -0.010275f, -0.010712f, 0.006553f, 0.088201f, 0.039671f, 0.010786f, -0.046610f, 0.026419f, 0.029377f, -0.052281f,
    -0.046997f, 0.029427f, 0.034626f, 0.051161f, -0.068656f, 0.086095f, -0.082695f, -0.032561f, 0.015994f, -0.058460f,
    0.044690f, 0.034043f, 0.009790f, 0.055131f, 0.039097f, -0.101221f, -0.006798f, 0.038779f, -0.102055f, 0.058776f,
    -0.085724f, -0.032094f, 0.040899f, 0.038641f, -0.043102f, 0.012838f, -0.053515f, 0.023359f, 0.073217f, 0.096839f,
    -0.045539f, 0.014785f, -0.023666f, 0.045741f, 0.097848f, -0.030503f, 0.094748f, -0.088151f, -0.061401f, 0.045645f,
    0.058453f, -0.047267f, -0.052106f, -0.078299f, 0.025420f, 0.071810f, -0.103227f, -0.059369f, 0.037243f, 0.075731f,
    0.098120f, 0.030342f, 0.072747f, -0.076854f, -0.085868f, -0.074735f, -0.061600f, -0.108251f, 0.049552f, -0.116423f,
    -0.040790f, -0.058558f, -0.042228f, -0.060654f, -0.001655f, 0.077689f, 0.125076f, -0.110885f, -0.027325f, -0.086238f,
    -0.033415f, -0.094249f, -0.057481f, 0.126978f, -0.036707f, 0.040436f, 0.018028f, 0.094899f, -0.063752f, -0.008871f,
    0.049821f, -0.041774f, -0.025258f, 0.133431f, -0.079894f, 0.079625f, 0.024937f, -0.083739f, -0.045172f, -0.112029f,
    -0.035810f, 0.115935f, -0.054555f, 0.055300f, 0.098210f, 0.008485f, -0.022230f, 0.082911f, -0.049994f, 0.055845f,
    -0.096731f, -0.016413f, 0.001985f, 0.066454f, 0.029840f, 0.000754f, -0.048932f, -0.001364f, -0.062299f, -0.069155f,
    -0.026306f, 0.023621f, -0.022104f, -0.095139f, 0.131570f, -0.005475f, -0.069983f, -0.052750f, -0.058787f, 0.119390f,
    0.015523f, 0.024839f, 0.023979f, 0.066941f, -0.069965f, -0.032119f, -0.037450f, -0.006560f, 0.090878f, 0.120938f,
    0.049044f, -0.048325f, 0.094440f, -0.007694f, 0.075120f, 0.077254f, 0.052202f, 0.008764f, -0.023041f, -0.077038f,
    0.118082f, 0.041674f, 0.113122f, -0.013187f, -0.025047f, -0.030763f, -0.039093f, 0.053570f, 0.051160f, 0.059293f,
    0.045954f, -0.099715f, -0.096245f, -0.064987f, -0.027831f, 0.021135f, -0.064970f, 0.041060f, -0.049445f, -0.014867f,
    0.091863f, 0.021526f, -0.101598f, 0.004112f, 0.010869f, 0.034413f, -0.131656f, 0.060794f, 0.026545f, -0.054498f,
    -0.093805f, 0.008731f, 0.125949f, -0.045027f, 0.057425f, -0.089089f, -0.098735f, 0.051356f, 0.124278f, -0.026286f,
    0.002776f, 0.000916f, -0.059303f, -0.072777f, 0.061024f, 0.044981f, -0.080902f, -0.065382f, 0.108727f, 0.009289f,
    -0.022917f, 0.000838f, 0.109027f, 0.098011f, 0.111312f, 0.049435f, 0.084078f, -0.038764f, 0.104021f, 0.058451f,
    0.107695f, -0.067212f, 0.105523f, -0.020639f, -0.091436f, 0.096329f, 0.084284f, 0.077418f, -0.038139f, 0.100266f,
    -0.064909f, 0.096662f, 0.080194f, -0.078097f, -0.077596f, -0.031653f, 0.026795f, -0.073537f, 0.025215f, 0.093997f,
    0.099379f, 0.109853f, 0.009344f, 0.085915f, -0.029220f, 0.069428f, -0.063215f, 0.037497f, -0.051850f, -0.072099f,
    0.065423f, -0.012961f, -0.079235f, 0.005559f, -0.082067f, -0.011566f, 0.107056f, -0.028272f, 0.026829f, -0.002445f,
    -0.006193f, -0.070058f, -0.082550f, -0.045160f, 0.077137f, -0.025273f, -0.038324f, -0.066467f, -0.069791f, -0.060277f,
    0.007862f, 0.109318f, -0.037965f, -0.071227f, 0.006840f, 0.054551f, 0.034308f, 0.119789f, -0.038693f, -0.035395f,
    0.072394f, 0.063797f, 0.055250f, 0.017041f, 0.116195f, -0.035310f, -0.020592f, -0.057967f, -0.073828f, -0.034040f,
    -0.050384f, 0.056863f, 0.063841f, 0.018957f, 0.054355f, 0.093957f, -0.095315f, 0.002505f, 0.044531f, -0.087103f,
    0.072970f, 0.076182f, 0.062444f, 0.037735f, 0.019518f, 0.088363f, -0.099127f, -0.070480f, 0.099537f, 0.041575f,
    0.060318f, -0.024618f, -0.041060f, -0.041731f, -0.038398f, -0.055029f, 0.094888f, 0.081267f, 0.119469f, 0.067716f,
    0.096675f, -0.017375f, -0.014929f, 0.013998f, 0.002387f, 0.065156f, 0.114641f, 0.000709f, 0.031875f, 0.057591f,
    -0.039482f, 0.063572f, -0.045632f, -0.008207f, 0.031959f, 0.061275f, 0.043224f, -0.001263f, 0.006061f, -0.053511f,
    -0.096604f, 0.048773f, -0.015353f, -0.055318f, 0.067591f, 0.048503f, -0.081668f, -0.082780f, -0.026819f, 0.062706f,
    -0.071457f, 0.009414f, 0.005305f, -0.002378f, -0.097234f, -0.034469f, 0.051783f, 0.073981f, 0.046654f, 0.063830f,
    -0.088091f, -0.050504f, -0.093942f, 0.050298f, 0.061164f, 0.004861f, -0.087571f, -0.003773f, 0.059854f, 0.074970f,
    0.084103f, -0.013769f, 0.046267f, 0.001023f, 0.040889f, 0.003664f, 0.062030f, 0.086817f, 0.051199f, 0.075355f,
    0.100249f, 0.014938f, 0.029225f, 0.099703f, -0.066221f, -0.060796f, -0.082859f, -0.004938f, 0.047232f, -0.026147f,
    0.020750f, 0.096460f, 0.007716f, 0.070119f, 0.083525f, 0.078751f, 0.056502f, 0.061537f, -0.011592f, 0.096461f,
    0.048844f, 0.018298f, -0.014356f, -0.093558f, -0.002332f, -0.094391f, 0.013199f, -0.072608f, 0.072760f, 0.079478f,
    -0.016949f, -0.043539f, 0.008569f, 0.060438f, 0.073793f, 0.006266f, 0.055366f, -0.049560f, 0.085620f, 0.089725f,
    0.065514f, 0.033186f, -0.060588f, -0.032425f, 0.084777f, 0.076460f, -0.068854f, -0.083233f, 0.001020f, -0.073629f,
    0.078187f, 0.099161f, 0.087226f, 0.049428f, 0.036501f, 0.055117f, 0.005977f, -0.092919f, -0.054125f, 0.051437f,
    -0.024989f, 0.091477f, -0.095693f, 0.036274f, 0.032914f, 0.090936f, -0.053881f, -0.013032f, 0.053425f, 0.013230f,
    -0.012399f, 0.011619f, -0.028559f, 0.067456f, -0.041376f, -0.045721f, -0.043914f, -0.025321f, -0.049394f, -0.064607f,
    -0.052318f, 0.096836f, -0.008454f, -0.056892f, 0.033655f, -0.053709f, -0.071170f, 0.001387f, 0.031094f, -0.083519f,
    0.032426f, -0.023926f, 0.023285f, 0.083341f, -0.008218f, -0.091144f, 0.100020f, -0.067896f, -0.055412f, 0.091708f,
    0.098092f, 0.094502f, -0.095490f, 0.028209f, -0.090579f, 0.030501f, 0.085357f, 0.072646f, 0.071977f, 0.096295f,
    -0.013708f, -0.023931f, 0.019077f, 0.024642f, -0.069428f, 0.078548f, -0.001401f, 0.051663f, 0.083723f, 0.095623f,
    0.022465f, 0.062957f, 0.008458f, -0.099959f, 0.051355f, 0.087499f, -0.086819f, -0.032013f, -0.006489f, 0.052949f,
    -0.031350f, 0.029841f, -0.056687f, 0.101330f, -0.021283f, 0.046480f, 0.087962f, 0.040428f, -0.056220f, -0.003654f,
    0.056803f, -0.038365f, 0.013285f, -0.016078f, 0.080412f, -0.044582f, -0.092261f, -0.069325f, -0.041941f, -0.058187f,
    0.051554f, -0.071022f, 0.085020f, -0.088644f, 0.034896f, 0.013976f, -0.004602f, -0.070811f, 0.037109f, 0.063635f,
    0.088193f, -0.028177f, 0.098337f, -0.023160f, 0.017035f, -0.056634f, -0.005025f, -0.001621f, -0.094628f, 0.058486f,
    0.028496f, -0.041070f, -0.053991f, -0.029967f, -0.058521f, -0.088545f, -0.005101f, -0.087468f, -0.076451f, -0.030220f,
    0.048456f, 0.039617f, -0.089652f, -0.029947f, 0.018281f, -0.032714f, -0.066657f, 0.000523f, 0.047788f, 0.067157f,
    0.092836f, -0.077336f, -0.058771f, -0.017466f, -0.064157f, -0.056039f, -0.019956f, 0.034410f, -0.029774f, 0.088538f,
    0.099770f, -0.042654f, 0.059270f, -0.010162f, -0.008309f, -0.006347f, 0.088471f, 0.030162f, 0.016382f, -0.036664f,
    -0.075159f, 0.004435f, -0.061658f, -0.085851f, 0.083358f, -0.040695f, 0.081714f, 0.001450f, -0.070523f, 0.073424f,
    0.091248f, 0.095155f, 0.066288f, 0.076779f, -0.012344f, 0.080369f, 0.027152f, -0.031108f, -0.009073f, -0.021462f,
    -0.073867f, 0.059720f, 0.052964f, -0.041757f, -0.083644f, 0.039323f, -0.075090f, -0.051164f, -0.085371f, 0.005921f,
    -0.089300f, 0.098358f, -0.045747f, 0.061998f, -0.062867f, 0.078673f, -0.040525f, 0.027990f, -0.037384f, -0.023378f,
    -0.089363f, -0.040833f, -0.073158f, 0.085880f, -0.023511f, -0.009767f, 0.016807f, 0.013422f, -0.074272f, 0.047650f,
    -0.041423f, -0.084706f, -0.082511f, 0.038467f, -0.050399f, 0.034425f, 0.083103f, -0.028910f, -0.012918f, 0.038606f,
    -0.021638f, -0.090874f, 0.083741f, -0.045387f, 0.042619f, -0.044599f, 0.097013f, -0.075723f, 0.024606f, 0.057839f,
    -0.087793f, -0.041684f, 0.098155f, 0.005293f, 0.027034f, 0.032104f, -0.085193f, -0.093426f, -0.001817f, -0.022531f,
    -0.052849f, 0.054861f, -0.100212f, 0.014053f, 0.047394f, -0.045796f, -0.090748f, -0.003683f, 0.081937f, -0.090638f,
    0.061009f, 0.064774f, -0.041283f, -0.031092f, -0.063729f, -0.077576f, 0.013491f, -0.076450f, 0.000685f, -0.052063f,
    0.063710f, -0.071772f, 0.036536f, -0.064055f, 0.085034f, -0.033287f, 0.086529f, 0.057337f, 0.100163f, -0.086896f,
    0.001031f, -0.083421f, 0.028043f, 0.061039f, -0.016208f, -0.001851f, -0.084895f, 0.028773f, 0.021786f, -0.071776f,
    0.022683f, -0.009415f, -0.004413f, -0.073114f, -0.014814f, 0.026457f, -0.090564f, 0.079034f, -0.070045f, 0.068038f,
    -0.081211f, -0.047242f, -0.083290f, 0.093436f, 0.033420f, 0.023916f, 0.081396f, 0.010692f, 0.068618f, 0.091078f,
    -0.061379f, 0.026103f, -0.024780f, 0.073888f, 0.097671f, -0.086571f, 0.001213f, -0.096244f, -0.065511f, 0.026551f,
    0.101464f, -0.099482f, -0.073516f, -0.018158f, 0.021900f, 0.060671f, 0.041026f, -0.017490f, -0.033961f, 0.046629f,
    -0.009597f, 0.004675f, 0.057148f, -0.072639f, -0.003690f, 0.044655f, 0.078033f, -0.099718f, 0.001856f, 0.091802f,
    0.054382f, 0.095106f, -0.026077f, 0.010576f, 0.068536f, -0.078067f, -0.093911f, 0.080790f, 0.071951f, -0.089928f,
    -0.031585f, -0.073571f, -0.060031f, -0.065940f, 0.027505f, 0.053701f, 0.016026f, -0.044138f, -0.045227f, -0.082872f,
    -0.023014f, 0.043111f, 0.024046f, -0.028896f, -0.034827f, -0.101907f, 0.089004f, 0.069812f, 0.099536f, -0.032491f,
    -0.024276f, -0.008553f, -0.023581f, 0.010986f, -0.066911f, -0.028684f, 0.020755f, 0.072140f, 0.076551f, -0.074613f,
    0.066526f, -0.036369f, 0.033762f, 0.047748f, 0.039474f, -0.048405f, -0.019512f, 0.062047f, -0.088592f, 0.014545f,
    0.088638f, 0.065693f, -0.051698f, -0.066941f, -0.100854f, -0.065260f, 0.020092f, 0.020126f, 0.077621f, 0.063847f,
    -0.071747f, -0.074141f, -0.032476f, -0.061876f, 0.049822f, 0.054200f, -0.097760f, -0.034966f, -0.063109f, -0.097008f,
    0.091012f, -0.045602f, -0.006956f, -0.059964f, -0.017440f, -0.037568f, 0.091911f, 0.090854f, 0.066627f, 0.069512f,
    -0.039169f, -0.019435f, -0.062344f, 0.056242f, 0.046822f, -0.066545f, -0.031489f, -0.090821f, -0.042650f, 0.015368f,
    0.081997f, 0.094976f, 0.035751f, 0.061200f, -0.047714f, 0.070964f, 0.081629f, -0.025021f, -0.014804f, 0.093048f,
    0.092524f, 0.013360f, 0.014119f, 0.043546f, 0.090753f, -0.023520f, -0.075942f, 0.106247f, 0.085670f, 0.020070f,
    0.007052f, 0.037468f, 0.007436f, -0.061503f, -0.061004f, 0.027804f, -0.032339f, 0.066361f, 0.076202f, -0.030612f,
    0.049763f, 0.033188f, 0.025405f, 0.030188f, 0.042177f, -0.060011f, 0.010505f, 0.068964f, 0.035875f, -0.057724f,
    0.049386f, 0.081024f, 0.090819f, -0.062680f, 0.068388f, -0.047462f, -0.015797f, 0.110459f, -0.015639f, -0.025777f,
    -0.011597f, -0.091384f, 0.026666f, 0.078969f, -0.011777f, -0.075615f, -0.041623f, 0.020167f, 0.034712f, -0.021345f,
    0.054197f, 0.037884f, 0.001984f, 0.106530f, -0.079478f, 0.094197f, 0.005077f, 0.120024f, 0.103450f, -0.065065f,
    0.006735f, 0.067889f, 0.125796f, 0.107334f, 0.057983f, 0.114537f, -0.062402f, 0.094493f, 0.063857f, -0.069351f,
    0.068638f, 0.083016f, 0.070435f, -0.059978f, 0.109692f, 0.003028f, -0.003041f, 0.021844f, -0.068431f, 0.101128f,
    0.013741f, 0.116049f, 0.073961f, -0.023704f, -0.031614f, 0.073071f, 0.047049f, 0.007637f, -0.009112f, 0.031819f,
    -0.085686f, -0.062686f, 0.088979f, 0.117285f, 0.114415f, 0.011416f, 0.043891f, -0.027143f, 0.111951f, 0.082452f,
    0.055275f, -0.003762f, 0.026571f, 0.094549f, -0.031252f, 0.013510f, 0.127539f, 0.011416f, -0.000578f, 0.111823f,
    -0.015304f, -0.035717f, 0.003667f, 0.009743f, -0.029995f, -0.061033f, -0.027171f, 0.067626f, 0.069427f, -0.081477f,
    0.001440f, 0.049228f, 0.034794f, 0.039076f, -0.015929f, -0.041913f, -0.059405f, -0.081181f, -0.095051f, -0.047072f,
    -0.070489f, 0.079185f, -0.094087f, 0.098479f, -0.071836f, -0.036009f, 0.013250f, 0.055620f, -0.118875f, 0.009679f,
    -0.063356f, 0.075489f, -0.031675f, 0.013333f, 0.073596f, -0.002702f, 0.009155f, -0.060641f, 0.078966f, -0.014091f,
    0.000336f, -0.055436f, -0.016324f, 0.042654f, -0.037168f, -0.065733f, -0.036629f, 0.022656f, 0.038288f, -0.043236f,
    -0.105999f, 0.057579f, 0.020696f, 0.018446f, 0.010758f, 0.061011f, -0.006052f, -0.116771f, -0.063351f, -0.016565f,
    0.014323f, -0.038670f, -0.050412f, -0.019342f, 0.035157f, -0.127425f, -0.044780f, 0.064337f, -0.091023f, 0.093942f,
    -0.059875f, 0.068944f, -0.000193f, -0.040905f, -0.002866f, -0.084457f, 0.089726f, -0.101066f, -0.070519f, -0.042332f,
    0.069016f, 0.005756f, 0.006648f, -0.026980f, 0.108958f, -0.086673f, -0.054999f, -0.030476f, 0.037745f, -0.050657f,
    0.113912f, 0.006535f, 0.014838f, -0.103074f, -0.095944f, -0.092912f, -0.044082f, -0.052936f, 0.000849f, 0.064877f,
    -0.080421f, 0.000170f, -0.053386f, 0.022401f, -0.070681f, 0.082892f, -0.093848f, -0.065110f, -0.032935f, 0.028134f,
    -0.004549f, -0.039761f, -0.053415f, -0.019182f, 0.058089f, -0.050455f, -0.078451f, 0.042743f, -0.047285f, 0.041913f,
    -0.052286f, -0.014485f, -0.017910f, -0.100397f, 0.040648f, -0.078617f, 0.042914f, 0.067195f, 0.009128f, -0.010368f,
    0.027853f, 0.002837f, -0.101128f, 0.046813f, 0.094040f, 0.063150f, -0.075313f, -0.077659f, 0.033715f, 0.000116f,
    -0.007172f, -0.068956f, -0.042132f, -0.072101f, 0.051983f, -0.015654f, -0.021297f, -0.017991f, 0.081412f, 0.040813f,
    0.031500f, -0.050983f, -0.077001f, -0.006565f, -0.064179f, 0.011181f, -0.058983f, 0.039950f, 0.039843f, 0.075592f,
    0.064594f, -0.024454f, 0.068368f, -0.014058f, -0.030390f, 0.089136f, 0.091441f, 0.044341f, 0.017718f, -0.074808f,
    0.056762f, -0.000857f, -0.052808f, -0.013583f, 0.031868f, 0.042346f, 0.102505f, -0.056094f, 0.118667f, 0.008418f,
    -0.110874f, 0.052198f, -0.037980f, 0.039960f, -0.063235f, -0.053061f, 0.063277f, -0.065794f, -0.019381f, 0.011998f,
    -0.010530f, 0.007811f, -0.130396f, 0.132877f, 0.064173f, -0.052154f, -0.104207f, -0.072987f, 0.027219f, -0.077419f,
    -0.072927f, -0.007893f, 0.014311f, -0.049946f, 0.035985f, -0.031449f, 0.049259f, 0.033894f, -0.027443f, 0.102454f,
    -0.121424f, 0.020645f, -0.111942f, -0.062650f, 0.080100f, -0.001887f, 0.035307f, 0.048930f, 0.023963f, -0.059356f,
    -0.046967f, -0.037997f, 0.064540f, 0.047571f, -0.038994f, -0.012450f, -0.095938f, 0.047788f, 0.025261f, 0.021384f,
    0.033471f, -0.034273f, 0.039393f, 0.016615f, -0.060523f, 0.076747f, -0.099385f, 0.097491f, 0.066003f, -0.026031f,
    -0.013986f, 0.061259f, 0.104801f, -0.070556f, -0.102940f, 0.016677f, 0.001959f, -0.018233f, 0.056237f, -0.053028f,
    0.057575f, 0.056606f, 0.042710f, -0.060628f, -0.113656f, -0.123533f, -0.052816f, 0.084043f, 0.057989f, -0.010338f,
    0.083380f, -0.027481f, -0.015465f, -0.063348f, 0.058798f, -0.009498f, 0.052272f, -0.034802f, 0.000203f, 0.046373f,
    0.084465f, 0.023978f, 0.053796f, -0.073290f, 0.062959f, 0.053365f, 0.053230f, 0.092982f, 0.072067f, -0.078425f,
    -0.097271f, 0.048305f, -0.024028f, 0.079577f, -0.082423f, 0.029261f, -0.053908f, 0.000813f, 0.007635f, -0.067243f,
    0.068887f, -0.040903f, 0.054372f, 0.099618f, 0.113851f, -0.040743f, 0.084398f, 0.004901f, -0.019462f, -0.039198f,
    -0.032799f, 0.076744f, 0.046574f, -0.034364f, 0.042981f, 0.053735f, 0.080081f, -0.072846f, -0.058877f, -0.063427f,
    0.109077f, -0.050132f, 0.023850f, -0.052572f, -0.060583f, 0.097317f, 0.034766f, 0.068551f, 0.063239f, 0.115436f,
    -0.005303f, 0.003671f, 0.002686f, 0.001341f, -0.066933f, 0.035481f, 0.067913f, 0.088458f, -0.076638f, 0.063625f,
    -0.114290f, 0.052372f, 0.024389f, -0.102036f, 0.049610f, -0.048263f, 0.098280f, 0.054167f, 0.111817f, -0.077639f,
    0.055242f, 0.088970f, -0.026557f, -0.067492f, 0.066959f, 0.037330f, -0.005941f, -0.021971f, -0.050010f, 0.072309f,
    -0.066857f, -0.076840f, 0.037875f, 0.029030f, 0.019509f, -0.003854f, -0.006369f, 0.001940f, -0.096783f, 0.077430f,
    -0.113671f, -0.081164f, 0.044412f, 0.061967f, 0.088839f, 0.014457f, 0.117173f, -0.044269f, -0.000318f, 0.002500f,
    0.088550f, 0.103568f, 0.035748f, 0.031020f, 0.063701f, -0.010569f, 0.066571f, 0.070601f, 0.078898f, 0.103501f,
    -0.019225f, -0.061471f, -0.028621f, 0.081384f, -0.003604f, -0.044443f, 0.070318f, -0.025646f, -0.014265f, -0.056016f,
    -0.076831f, -0.020067f, -0.026575f, -0.014304f, 0.007828f, 0.017696f, -0.081552f, 0.083015f, -0.006552f, -0.042140f,
    0.072749f, -0.099420f, 0.071265f, 0.079884f, 0.004195f, 0.008902f, 0.062192f, -0.027401f, 0.033776f, 0.074363f,
    -0.066549f, -0.065853f, -0.096765f, 0.055863f, -0.021219f, 0.046053f, 0.059629f, 0.059994f, -0.058497f, -0.074087f,
    -0.079986f, 0.012811f, -0.016799f, 0.057628f, -0.032038f, -0.008300f, 0.064832f, 0.034839f, -0.084501f, 0.042798f,
    0.041473f, -0.086812f, -0.036223f, -0.010802f, -0.100962f, -0.037912f, -0.085700f, -0.002999f, 0.062290f, -0.006733f,
    -0.071252f, -0.051524f, 0.068997f, -0.002586f, -0.095543f, 0.071295f, 0.062921f, -0.053961f, 0.064985f, 0.100243f,
    -0.051443f, 0.000259f, 0.059562f, 0.091721f, 0.068378f, -0.045344f, 0.023411f, 0.031638f, -0.021809f, 0.051181f,
    0.086047f, -0.006975f, 0.075804f, 0.063140f, -0.050434f, 0.071938f, 0.092958f, -0.095422f, 0.045051f, 0.014013f,
    0.093550f, 0.090279f, -0.095656f, 0.059190f, 0.096583f, -0.064620f, -0.054051f, -0.053219f, 0.037435f, -0.055987f,
    -0.049562f, -0.045460f, 0.016361f, 0.052693f, -0.059609f, 0.081495f, -0.022729f, -0.075881f, 0.054497f, 0.090118f,
    -0.096367f, 0.033999f, -0.090389f, 0.039179f, 0.021823f, -0.101400f, -0.040255f, 0.072743f, -0.051492f, -0.001636f,
    0.005280f, 0.085785f, -0.031987f, 0.051999f, 0.081736f, 0.023335f, -0.096133f, 0.008429f, -0.037242f, -0.000807f,
    0.029350f, -0.049910f, -0.016294f, -0.008340f, 0.034893f, -0.046511f, 0.098677f, 0.086997f, -0.001364f, 0.057046f,
    0.069319f, -0.026091f, 0.029069f, 0.041827f, 0.026354f, -0.062483f, -0.072868f, 0.019116f, 0.005799f, -0.065571f,
    0.026924f, -0.078031f, 0.047021f, -0.014030f, -0.046291f, 0.078914f, 0.091599f, -0.046665f, 0.018367f, -0.035305f,
    -0.070877f, 0.047803f, -0.095432f, -0.042124f, -0.004264f, 0.004294f, 0.043445f, 0.043835f, 0.100194f, -0.057911f,
    0.027250f, 0.067441f, -0.096520f, -0.069290f, -0.039514f, -0.049806f, -0.025810f, -0.062813f, 0.097544f, -0.031388f,
    0.013796f, 0.008411f, -0.064923f, -0.068917f, 0.085748f, -0.048846f, 0.006598f, 0.080451f, 0.063615f, -0.037880f,
    0.018257f, -0.029860f, 0.049467f, -0.041814f, -0.096872f, -0.023372f, -0.087799f, 0.011509f, 0.080192f, 0.090860f,
    0.026661f, 0.033374f, -0.033588f, -0.005904f, -0.030615f, 0.025928f, -0.011302f, 0.071851f, -0.054149f, -0.039055f,
    0.001311f, -0.067925f, -0.005240f, -0.068242f, 0.048867f, -0.038404f, 0.022427f, 0.010386f, -0.053979f, 0.040072f,
    -0.014068f, 0.049866f, 0.026151f, 0.089341f, -0.065584f, -0.095548f, 0.062185f, -0.079475f, 0.086466f, -0.081519f,
    -0.061227f, -0.043532f, -0.090511f, 0.086152f, 0.086976f, 0.022876f, -0.003755f, -0.087308f, 0.087433f, 0.019459f,
    0.007653f, -0.101267f, 0.078688f, -0.098530f, 0.031696f, -0.097982f, 0.072902f, -0.047091f, -0.096502f, 0.088760f,
    0.056154f, 0.064594f, -0.092247f, -0.018685f, -0.004097f, 0.005735f, -0.061875f, -0.017725f, -0.100487f, -0.083575f,
    -0.070282f, -0.095233f, 0.053965f, 0.027091f, 0.100115f, 0.057381f, -0.021487f, 0.061440f, -0.098649f, 0.002092f,
    -0.064876f, -0.067563f, 0.044027f, 0.010040f, -0.018867f, 0.043004f, 0.000841f, -0.017146f, 0.004222f, 0.065664f,
    -0.063910f, 0.024698f, 0.034530f, 0.069034f, -0.053557f, -0.071833f, 0.101431f, -0.039278f, -0.042824f, -0.044046f,
    -0.038495f, -0.067744f, -0.016720f, 0.047314f, -0.028783f, -0.035588f, 0.031165f, 0.070964f, -0.025665f, 0.019964f,
    -0.074841f, -0.037706f, -0.004426f, 0.029965f, -0.084416f, -0.034423f, 0.014408f, 0.001703f, -0.070466f, 0.095069f,
    -0.071802f, 0.010684f, 0.096461f, -0.089438f, -0.076190f, -0.023584f, 0.004558f, 0.072807f, -0.089252f, 0.069772f,
    0.001953f, 0.006591f, 0.055230f, 0.072130f, -0.006864f, -0.003607f, 0.045413f, -0.063879f, 0.014210f, 0.081216f,
    -0.058145f, -0.047627f, -0.090555f, 0.085221f, -0.048993f, -0.082354f, -0.047645f, 0.032670f, -0.058850f, 0.034913f,
    0.090190f, -0.035999f, 0.074624f, 0.034550f, 0.020039f, -0.098592f, 0.067334f, 0.087501f, -0.066129f, 0.058387f,
    0.008798f, 0.031563f, -0.041392f, 0.077207f, 0.050875f, -0.031991f, 0.094120f, 0.083071f, -0.000484f, -0.030772f,
    -0.052930f, -0.068608f, -0.016203f, -0.013581f, 0.027979f, 0.080995f, -0.009092f, -0.076682f, -0.012152f, -0.001051f,
    -0.037985f, 0.013810f, 0.035298f, 0.061422f, 0.099816f, -0.086437f, -0.048810f, -0.086042f, 0.032038f, -0.097075f,
    0.039529f, -0.006261f, 0.079151f, 0.064582f, -0.009914f, -0.019765f, 0.023988f, 0.068904f, -0.035100f, 0.097178f,
    -0.028979f, -0.013842f, 0.015059f, -0.030901f, 0.026990f, 0.071058f, -0.100360f, 0.019674f, -0.057899f, 0.093067f,
    -0.070712f, -0.098993f, -0.059556f, -0.092872f, 0.089459f, 0.046516f, 0.065460f, 0.050882f, -0.033938f, -0.052911f,
    0.070021f, 0.051113f, -0.020386f, -0.031779f, 0.044959f, -0.006878f, -0.007473f, -0.024540f, -0.037852f, 0.012942f,
    0.080103f, -0.060966f, 0.051607f, 0.045814f, -0.045551f, -0.020536f, -0.016199f, 0.086408f, -0.068217f, -0.082445f,
    0.100330f, 0.031735f, 0.081728f, -0.082418f, 0.031545f, 0.077302f, -0.004356f, 0.013594f, -0.087810f, 0.087280f,
    -0.094275f, -0.009385f, 0.094975f, 0.001314f, -0.048716f, -0.053248f, -0.076206f, -0.087543f, -0.099350f, -0.029584f,
    0.042586f, -0.087518f, -0.058823f, -0.021573f, -0.062130f, -0.040641f, -0.021831f, 0.086699f, -0.027461f, -0.064775f,
    0.007313f, 0.078324f, -0.077698f, -0.100778f, -0.037608f, -0.009880f, 0.050187f, -0.088375f, 0.020864f, 0.031793f,
    -0.095129f, 0.013834f, -0.056860f, -0.096361f, 0.072400f, -0.082504f, -0.027394f, 0.067631f, -0.074513f, 0.014975f,
    0.037367f, -0.019210f, -0.031609f, -0.015286f, -0.073263f, -0.014814f, 0.005015f, 0.072463f, 0.064716f, 0.048075f,
    -0.008416f, -0.094597f, -0.030488f, 0.065508f, 0.089858f, -0.026647f, 0.015648f, 0.030033f, -0.051984f, 0.077285f,
    -0.082076f, -0.088855f, 0.094453f, 0.009711f, -0.096198f, -0.053798f, 0.000085f, -0.057273f, 0.055374f, -0.041505f,
    0.028278f, 0.025963f, -0.016437f, -0.024000f, 0.025834f, 0.065884f, -0.041508f, -0.027621f, -0.089687f, 0.051755f,
    0.011200f, -0.020926f, -0.061493f, -0.049368f, 0.094620f, 0.000316f, -0.018684f, 0.059471f, -0.036039f, 0.090523f,
    0.095009f, -0.089910f, -0.081753f, 0.003728f, 0.034771f, 0.095323f, 0.096388f, 0.021342f, -0.060689f, -0.097439f,
    0.021476f, -0.089430f, 0.023195f, -0.053812f, -0.050420f, 0.102088f, 0.091940f, 0.089210f, 0.089871f, -0.044754f,
    -0.082647f, -0.007410f, -0.067818f, 0.076616f, 0.051231f, -0.086128f, 0.037602f, -0.084854f, 0.087639f, 0.017084f,
    -0.087493f, -0.025947f, 0.073038f, 0.065815f, -0.058520f, -0.087026f, 0.099741f, 0.076408f, -0.004155f, -0.050507f,
    0.013803f, -0.014906f, -0.055965f, -0.080314f, -0.036894f, 0.031846f, 0.014312f, -0.014362f, 0.068279f, 0.067144f,
    -0.096122f, -0.007621f, 0.023413f, -0.051104f, 0.091112f, -0.026477f, 0.002140f, -0.030284f, -0.054241f, -0.024876f,
    0.090869f, 0.008167f, -0.062214f, 0.029342f, -0.056743f, -0.003614f, -0.079147f, -0.056677f, 0.072937f, -0.089503f,
    0.044921f, -0.037718f, -0.051867f, -0.052886f, 0.017383f, 0.079336f, -0.010499f, 0.001865f, 0.092556f, 0.058263f,
    -0.004305f, -0.090401f, -0.091107f, 0.095712f, -0.025747f, 0.090283f, 0.017024f, 0.012162f, 0.013416f, 0.033009f,
    -0.099838f, -0.006117f, -0.063035f, 0.027819f, 0.089899f, 0.055265f, -0.041677f, -0.008387f, -0.013043f, -0.010280f,
    -0.092389f, 0.007783f, -0.073611f, 0.032736f, 0.085846f, -0.069409f, -0.048944f, -0.049743f, -0.050929f, 0.053712f,
    -0.078166f, -0.090688f, 0.083018f, 0.013632f, 0.026697f, -0.076587f, -0.089683f, -0.021358f, -0.026595f, -0.031980f,
    -0.004924f, 0.098787f, -0.012249f, -0.081330f, 0.070141f, 0.029615f, 0.036350f, 0.019858f, 0.009605f, -0.073367f,
    0.000230f, -0.006953f, 0.033502f, -0.008804f, 0.026739f, 0.079506f, -0.045859f, 0.019456f, -0.098720f, -0.091151f,
    -0.044111f, -0.054302f, 0.076803f, 0.077858f, -0.076243f, 0.009067f, -0.098596f, 0.092404f, -0.008147f, 0.031765f,
    -0.006776f, -0.053023f, 0.092942f, -0.054249f, -0.024828f, 0.095265f, 0.029032f, -0.052641f, 0.037102f, -0.035419f,
    0.014490f, -0.088169f, -0.083374f, 0.067268f, -0.029360f, -0.000263f, -0.070299f, 0.029434f, 0.023681f, 0.044345f,
    -0.078733f, 0.099866f, 0.003236f, -0.080844f, -0.063656f, -0.010909f, -0.008633f, 0.003892f, -0.002997f, -0.065048f,
    0.041039f, -0.043737f, -0.003267f, -0.006945f, -0.027097f, 0.076688f, -0.089102f, 0.094509f, -0.028200f, -0.043861f,
    -0.010739f, -0.052253f, -0.019054f, -0.065097f, 0.008737f, 0.014903f, -0.019772f, -0.067492f, -0.052096f, 0.077416f,
    0.018474f, 0.099521f, -0.065297f, -0.049095f, 0.050342f, -0.085194f, -0.057494f, 0.048201f, 0.071701f, -0.059756f,
    0.080550f, 0.025826f, 0.072121f, -0.060218f, 0.001469f, 0.100003f, 0.009493f, -0.055416f, 0.025107f, -0.065090f,
    0.010584f, 0.010738f, 0.061444f, -0.019537f, -0.099418f, -0.053892f, 0.052418f, -0.042360f, 0.094720f, 0.097323f,
    -0.038660f, 0.099020f, -0.067125f, -0.049222f, 0.080232f, 0.078862f, 0.095923f, -0.081939f, -0.000306f, -0.072438f,
    -0.089585f, 0.013127f, 0.002986f, -0.064717f, -0.087423f, -0.008825f, 0.025093f, -0.012352f, 0.080453f, 0.012376f,
    -0.056750f, -0.095424f, -0.032867f, 0.007711f, -0.046391f, 0.027166f, 0.054879f, 0.039679f, -0.061817f, 0.020575f,
    -0.054911f, -0.060243f, -0.053645f, -0.011057f, -0.072220f, -0.080152f, -0.090642f, -0.001896f, 0.086138f, -0.057297f,
    -0.053555f, 0.054160f, -0.003107f, 0.092814f, -0.079428f, -0.035442f, -0.094441f, -0.071923f, 0.036687f, 0.054931f,
    -0.019906f, 0.084372f, 0.053796f, 0.045369f, -0.016963f, -0.006354f, 0.041907f, -0.047563f, -0.013954f, -0.059340f,
    0.015966f, 0.058670f, -0.003867f, 0.051776f, 0.001272f, -0.037974f, -0.049008f, 0.051759f, 0.094529f, 0.010324f,
    0.023923f, -0.002755f, -0.071646f, -0.062611f, 0.031861f, 0.024953f, -0.038056f, 0.003869f, 0.010018f, -0.073868f,
    0.018271f, 0.045689f, 0.054178f, 0.001904f, -0.066933f, -0.059548f, -0.060871f, -0.020087f, 0.091418f, -0.073718f,
    -0.022915f, -0.017240f, -0.050482f, 0.020319f, -0.017636f, -0.039301f, 0.030837f, 0.068230f, 0.062650f, -0.096653f,
    -0.092738f, -0.046092f, -0.012049f, -0.054003f, -0.072640f, -0.037979f, -0.065021f, -0.014592f, 0.097290f, 0.061696f,
    -0.036401f, -0.069046f, 0.006926f, 0.024757f, 0.012178f, -0.086803f, -0.046164f, -0.085921f, -0.022846f, -0.053723f,
    -0.017039f, -0.032462f, -0.035399f, -0.094570f, -0.037291f, 0.057366f, -0.096525f, -0.021256f, -0.030316f, 0.089307f,
    0.087171f, 0.036170f, -0.091917f, 0.092678f, -0.018665f, -0.066546f, -0.093364f, 0.049389f, 0.016744f, -0.065593f,
    0.043897f, -0.001699f, 0.037379f, 0.059791f, 0.043478f, -0.047803f, -0.087666f, -0.002058f, -0.077238f, -0.017057f,
    0.047599f, 0.049168f, 0.028312f, -0.027462f, 0.091182f, 0.014775f, -0.087997f, 0.046418f, 0.077829f, -0.053419f,
    0.023317f, -0.023664f, -0.020364f, 0.002529f, 0.057357f, 0.066964f, -0.054087f, -0.066413f, -0.101593f, 0.038710f,
    -0.053261f, 0.094667f, 0.080039f, 0.058356f, -0.049386f, -0.077158f, 0.058964f, -0.045083f, 0.017325f, -0.073433f,
    0.050862f, -0.003531f, -0.019344f, 0.048014f, 0.033504f, 0.051422f, -0.072446f, 0.083519f, 0.024972f, -0.082653f,
    -0.036941f, 0.077572f, 0.027020f, 0.058903f, -0.032757f, 0.074160f, 0.000671f, -0.043429f, 0.073688f, -0.041315f,
    0.054918f, 0.001791f, -0.031094f, -0.020837f, -0.051148f, -0.072370f, 0.049812f, -0.096569f, -0.090263f, -0.041848f,
    -0.030342f, -0.012018f, -0.054700f, -0.075373f, -0.073108f, 0.057148f, -0.044767f, -0.052739f, 0.072542f, 0.044538f,
    -0.011176f, -0.067745f, -0.068988f, 0.082398f, 0.031016f, -0.098640f, 0.032239f, -0.006541f, -0.022382f, 0.069579f,
    0.023540f, 0.042315f, -0.077232f, 0.003685f, 0.090494f, -0.024505f, -0.068589f, -0.007412f, 0.085104f, -0.092844f,
    0.006879f, -0.004623f, 0.024161f, -0.012944f, -0.079470f, 0.076698f, 0.050195f, 0.076103f, -0.100321f, -0.032297f,
    0.086847f, -0.097578f, 0.085652f, 0.037885f, -0.083452f, 0.021600f, 0.036582f, 0.002969f, -0.086071f, -0.099512f,
    0.086219f, -0.001413f, 0.083843f, -0.060627f, 0.067289f, -0.025144f, -0.085083f, -0.077110f, 0.083525f, -0.031979f,
    -0.006120f, 0.014307f, -0.095996f, 0.059469f, 0.058158f, 0.123637f, -0.096143f, 0.078260f, 0.081367f, 0.095794f,
    0.017120f, -0.088208f, 0.035608f, -0.068323f, 0.089379f, -0.040728f, -0.007723f, 0.052190f, -0.002151f, -0.003321f,
    0.087154f, -0.092293f, -0.064255f, 0.060745f, 0.035071f, 0.014242f, 0.001675f, -0.044022f, 0.058791f, 0.100193f,
    0.020381f, 0.095326f, -0.021243f, -0.016279f, 0.077791f, -0.097747f, 0.038433f, 0.076844f, -0.048452f, -0.100394f,
    0.078399f, -0.027237f, 0.072308f, 0.010043f, 0.017043f, -0.041609f, 0.061523f, 0.063390f, 0.050900f, 0.024546f,
    0.075244f, -0.026550f, -0.019885f, 0.002974f, 0.086430f, -0.065209f, 0.056484f, -0.086429f, -0.085769f, 0.007125f,
    0.064052f, -0.036158f, 0.088050f, -0.080258f, -0.099999f, -0.093023f, -0.039173f, 0.022829f, 0.092172f, 0.058795f,
    -0.019268f, 0.011289f, -0.089102f, -0.064856f, -0.058326f, 0.024035f, 0.082404f, -0.023937f, -0.045272f, -0.034534f,
    -0.019349f, 0.023480f, 0.075056f, 0.026438f, 0.100322f, 0.023225f, -0.013064f, 0.045007f, 0.089591f, 0.061838f,
    0.061766f, 0.047047f, -0.058950f, -0.065071f, -0.074836f, 0.007351f, 0.021425f, 0.069791f, -0.054828f, 0.080819f,
    -0.100006f, -0.001111f, -0.024036f, -0.000359f, -0.098086f, -0.037237f, -0.079613f, -0.076402f, 0.075504f, -0.039089f,
    -0.064498f, -0.031360f, -0.020334f, -0.057804f, -0.019009f, 0.013339f, -0.020139f, 0.062494f, -0.001067f, 0.083953f,
    -0.036851f, 0.050513f, 0.067134f, -0.046910f, 0.056578f, -0.088076f, 0.018362f, -0.089464f, 0.026957f, 0.020022f,
    0.033974f, -0.070660f, -0.002532f, 0.087977f, -0.066013f, 0.011814f, -0.060504f, -0.032920f, -0.003111f, -0.028032f,
    0.022549f, -0.009528f, 0.065437f, -0.072896f, 0.052007f, 0.052472f, 0.008596f, -0.012171f, 0.054886f, -0.015127f,
    0.063757f, -0.051884f, 0.077705f, 0.004226f, -0.072431f, -0.068899f, -0.055631f, 0.067939f, -0.044055f, 0.027760f,
    0.047652f, -0.072885f, 0.010522f, 0.068397f, 0.082471f, 0.004133f, 0.081184f, 0.064271f, 0.067699f, -0.087597f,
    0.015346f, 0.008096f, -0.021479f, -0.008691f, -0.041276f, -0.026341f, 0.012197f, -0.044334f, 0.082339f, 0.059208f,
    0.086473f, -0.049207f, -0.022701f, 0.031458f, 0.043433f, -0.036755f, -0.065454f, 0.056062f, -0.099918f, -0.020920f,
    -0.018299f, 0.023696f, 0.096184f, 0.085841f, -0.002304f, -0.018985f, 0.057181f, -0.061212f, -0.074524f, -0.096505f,
    0.064482f, -0.056377f, 0.009881f, 0.094461f, -0.059638f, 0.067899f, -0.044973f, -0.064879f, -0.047315f, -0.092518f,
    -0.041631f, -0.056612f, 0.031087f, 0.065317f, -0.032481f, 0.040919f, 0.032130f, -0.023897f, 0.089523f, -0.085755f,
    0.021264f, 0.073567f, 0.084790f, 0.013847f, -0.067891f, -0.053723f, 0.081167f, 0.093634f, -0.012219f, 0.010579f,
    0.040771f, 0.011819f, 0.060880f, -0.083131f, 0.049322f, -0.015464f, -0.095562f, -0.011882f, -0.011264f, 0.091871f,
    -0.092050f, 0.001109f, 0.020666f, -0.023779f, -0.034235f, -0.060352f, -0.027697f, 0.039978f, 0.089774f, 0.038599f,
    0.023896f, -0.098989f, 0.076577f, 0.001358f, 0.012676f, -0.032275f, 0.011488f, -0.090716f, -0.002220f, 0.026492f,
    0.053431f, -0.041805f, -0.012496f, 0.017154f, 0.032107f, 0.081805f, -0.023798f, -0.047830f, 0.009066f, 0.082054f,
    0.094719f, -0.062232f, -0.038160f, -0.076861f, -0.033229f, -0.087255f, -0.022478f, -0.090829f, -0.054931f, -0.032311f,
    0.084387f, 0.016026f, -0.095437f, -0.088114f, 0.076539f, -0.021093f, 0.061228f, -0.071329f, -0.095727f, -0.087624f,
    -0.080452f, 0.028878f, -0.039511f, -0.048641f, -0.050923f, -0.056783f, -0.003603f, 0.099964f, 0.002961f, 0.084231f,
    -0.019045f, -0.068170f, 0.049526f, 0.080944f, 0.017342f, 0.081170f, -0.096681f, -0.070544f, -0.062948f, 0.029351f,
    -0.014978f, -0.031600f, 0.100464f, -0.052610f, -0.088360f, -0.026652f, 0.094074f, -0.043627f, 0.015402f, 0.020950f,
    0.016712f, 0.064928f, -0.004534f, 0.029958f, -0.091085f, -0.060737f, 0.081386f, -0.038392f, -0.050263f, 0.094130f,
    0.077836f, 0.018673f, 0.055905f, -0.041119f, -0.014521f, -0.097841f, 0.085544f, -0.006317f, 0.076770f, -0.058881f,
    0.088082f, 0.098843f, 0.058075f, -0.049480f, 0.018847f, 0.072922f, 0.015595f, 0.099862f, 0.046988f, -0.096264f,
    0.064384f, -0.059710f, 0.015518f, 0.097181f, -0.001095f, 0.096515f, -0.049801f, 0.028572f, -0.011888f, -0.028560f,
    -0.067722f, -0.003157f, -0.079295f, -0.000921f, 0.040766f, -0.042492f, -0.082097f, 0.083950f, 0.093624f, -0.046184f,
    0.086560f, 0.038468f, -0.096668f, -0.077298f, -0.091347f, 0.033769f, -0.061770f, -0.070339f, 0.052926f, 0.008298f,
    0.041069f, 0.003439f, -0.034816f, -0.076181f, -0.020455f, 0.098589f, -0.005449f, 0.002688f, 0.009897f, 0.051535f,
    0.092083f, 0.031068f, -0.095854f, -0.053081f, -0.003926f, 0.046514f, 0.059798f, 0.101692f, -0.086016f, -0.090477f,
    -0.069707f, 0.066973f, -0.027517f, -0.034913f, 0.029796f, -0.098771f, -0.005895f, -0.024723f, -0.096588f, 0.036328f,
    0.015784f, 0.003447f, -0.060807f, -0.088914f, -0.014080f, -0.004247f, 0.076618f, -0.058018f, -0.031159f, -0.065411f,
    0.043086f, -0.002290f, 0.029123f, 0.068262f, -0.019213f, -0.017753f, 0.058107f, 0.021608f, -0.094682f, 0.097030f,
    0.032009f, 0.090550f, 0.066007f, -0.016485f, -0.036390f, 0.074581f, -0.052087f, 0.013053f, -0.100623f, 0.024827f,
    0.051178f, 0.095904f, 0.095267f, -0.040237f, -0.080057f, 0.064644f, 0.096978f, 0.039961f, -0.045522f, -0.056008f,
    0.020337f, 0.076236f, 0.001035f, 0.039957f, 0.034885f, 0.017779f, 0.057124f, -0.078657f, -0.025940f, 0.063903f,
    0.071028f, 0.007854f, -0.013753f, -0.060873f, 0.055958f, -0.010569f, 0.063897f, 0.006208f, -0.097988f, 0.028151f,
    0.053397f, -0.096524f, -0.087497f, 0.047643f, -0.051729f, 0.019953f, 0.009326f, -0.021218f, -0.051062f, 0.051671f,
    -0.007068f, -0.010731f, -0.021486f, 0.070757f, 0.030062f, 0.027965f, 0.101918f, -0.086168f, -0.067216f, -0.040353f,
    -0.053169f, 0.066871f, -0.032590f, -0.049130f, -0.045180f, 0.005882f, 0.061929f, -0.068356f, 0.056531f, 0.073395f,
    0.060568f, 0.041562f, -0.040258f, -0.053872f, 0.079696f, -0.082802f, -0.002002f, -0.059894f, 0.002579f, 0.057210f,
    -0.035999f, 0.021202f, 0.090351f, -0.099525f, -0.028868f, -0.053736f, -0.029682f, -0.055525f, 0.067837f, 0.085847f,
    -0.035135f, 0.083861f, 0.038922f, 0.004006f, -0.044254f, 0.029611f, -0.083021f, 0.036067f, -0.015490f, -0.031742f,
    -0.060791f, 0.033659f, 0.065215f, 0.090143f, 0.088833f, 0.061687f, -0.064663f, 0.011072f, 0.022269f, -0.097648f,
    -0.037510f, -0.012702f, -0.019678f, -0.003960f, -0.100102f, 0.060439f, 0.021738f, 0.076215f, -0.044466f, -0.046104f,
    -0.055398f, 0.061415f, 0.062781f, -0.029350f, 0.051454f, 0.019098f, -0.057132f, 0.073260f, 0.078518f, 0.033181f,
    0.034342f, 0.033145f, 0.021616f, 0.095155f, 0.101331f, 0.033815f, 0.042502f, 0.021983f, 0.099810f, -0.049918f,
    0.031873f, 0.088207f, -0.016813f, -0.047175f, 0.098840f, -0.023671f, -0.011155f, 0.014568f, 0.010625f, 0.101862f,
    -0.053179f, 0.029513f, -0.037736f, -0.092912f, -0.024607f, 0.026576f, 0.047540f, -0.094093f, -0.088885f, 0.052823f,
    0.005627f, 0.051171f, -0.062404f, -0.082031f, 0.020974f, -0.064754f, -0.084768f, -0.021889f, 0.079845f, 0.031840f,
    0.100404f, -0.074010f, 0.075832f, -0.063861f, 0.098260f, 0.085643f, 0.019113f, -0.059172f, -0.030767f, -0.067051f,
    -0.078998f, -0.072064f, -0.053227f, -0.024934f, 0.078091f, 0.072280f, -0.000573f, -0.059097f, -0.033956f, 0.091789f,
    -0.022005f, 0.051652f, 0.026513f, 0.004627f, -0.010164f, -0.015199f, -0.063809f, -0.001273f, 0.083393f, 0.044205f,
    0.052396f, 0.091329f, 0.061889f, -0.038391f, 0.017399f, -0.079613f, 0.002944f, -0.096919f, 0.069043f, 0.029946f,
    -0.077566f, 0.086702f, 0.028337f, 0.076182f, -0.006337f, 0.065720f, 0.069941f, -0.001086f, 0.024881f, -0.015815f,
    -0.076171f, -0.087106f, -0.010227f, 0.068722f, 0.034770f, -0.004829f, 0.056739f, -0.053518f, 0.028442f, 0.036975f,
    0.099590f, 0.002086f, -0.015269f, 0.011724f, 0.033235f, -0.003512f, -0.014345f, 0.004208f, 0.095649f, 0.019878f,
    0.067946f, 0.048912f, -0.027684f, -0.076300f, 0.091676f, -0.006366f, 0.091028f, -0.084851f, -0.093645f, -0.072675f,
    0.031357f, -0.019881f, -0.000789f, -0.084509f, 0.045599f, 0.028063f, -0.001216f, 0.004713f, -0.086688f, -0.092948f,
    -0.057118f, 0.010310f, 0.077060f, -0.013889f, 0.037667f, 0.064368f, 0.045979f, 0.092262f, 0.079327f, 0.080121f,
    0.047096f, -0.037336f, 0.020402f, 0.081225f, -0.081291f, -0.048776f, 0.069300f, 0.036166f, -0.058805f, 0.069673f,
    0.086616f, -0.057315f, 0.100815f, -0.030623f, -0.001136f, 0.058680f, 0.034607f, -0.048241f, 0.019163f, 0.032694f,
    0.021955f, -0.008072f, 0.070447f, -0.034905f, -0.017084f, 0.036902f, 0.065222f, -0.088425f, 0.092192f, 0.028931f,
    0.046085f, 0.003032f, 0.050235f, 0.051431f, 0.064354f, -0.063836f, 0.066719f, -0.065155f, -0.081746f, 0.073606f,
    -0.039357f, 0.043133f, -0.005387f, 0.030238f, -0.017125f, -0.093445f, 0.035370f, 0.050453f, 0.048837f, 0.069995f,
    0.047872f, -0.065476f, -0.089607f, -0.008045f, -0.042754f, 0.099754f, -0.085133f, -0.018066f, -0.084000f, -0.023182f,
    0.021483f, 0.016322f, 0.046424f, -0.063516f, -0.016554f, -0.068312f, 0.096723f, -0.021215f, -0.055225f, 0.050887f,
    0.047893f, -0.090402f, -0.092145f, 0.016368f, -0.004198f, 0.085940f, 0.012333f, -0.017262f, -0.034864f, -0.050399f,
    0.005780f, 0.068703f, -0.038075f, -0.045536f, 0.050041f, -0.049960f, 0.012324f, 0.076112f, -0.012195f, 0.059178f,
    0.031905f, -0.021262f, -0.065529f, -0.092336f, 0.073573f, -0.088575f, 0.072955f, -0.050908f, -0.093599f, -0.076725f,
    -0.035386f, -0.017292f, 0.013997f, 0.028072f, -0.098468f, -0.001716f, -0.028741f, 0.045354f, 0.028903f, 0.095685f,
    0.005281f, -0.049117f, 0.002952f, -0.040215f, 0.034898f, 0.035865f, 0.048392f, -0.022388f, -0.054386f, -0.019577f,
    0.099115f, 0.037520f, 0.040120f, -0.069801f, -0.035852f, 0.058667f, -0.033907f, 0.015484f, 0.046343f, -0.061120f,
    -0.033977f, -0.081382f, 0.079873f, -0.079200f, -0.055503f, -0.033156f, 0.068251f, -0.091767f, -0.011700f, -0.048192f,
    -0.052445f, 0.009240f, 0.090923f, -0.062259f, 0.052928f, -0.037566f, -0.023293f, -0.009727f, -0.059025f, -0.083379f,
    0.050044f, -0.054686f, 0.028893f, 0.025075f, 0.000890f, 0.020308f, -0.067663f, -0.010306f, 0.096571f, -0.088115f,
    -0.019890f, -0.029219f, 0.077096f, 0.031179f, -0.079564f, 0.080254f, 0.001284f, 0.055791f, -0.039394f, -0.030234f,
    0.069179f, -0.084248f, 0.072315f, -0.015158f, 0.071299f, -0.059588f, -0.063238f, 0.098571f, 0.065006f, 0.062345f,
    0.087672f, 0.018276f, -0.066467f, -0.028816f, -0.013689f, -0.001533f, -0.035252f, 0.053460f, 0.060393f, 0.010195f,
    0.030331f, -0.058729f, 0.074650f, 0.077680f, 0.090073f, -0.097090f, -0.061834f, -0.054209f, 0.024502f, -0.084103f,
    0.002646f, 0.040643f, -0.050865f, -0.090705f, -0.059007f, 0.004388f, -0.037524f, 0.085534f, -0.041188f, 0.095295f,
    -0.028764f, -0.095770f, -0.040066f, -0.016223f, 0.075651f, 0.008826f, 0.039132f, 0.008490f, 0.047513f, -0.094492f,
    -0.033624f, 0.087624f, -0.008118f, 0.081796f, -0.037215f, 0.005263f, 0.065883f, -0.010475f, 0.016605f, -0.097149f,
    0.006241f, 0.081444f, 0.025095f, -0.057646f, 0.095616f, 0.082228f, -0.097390f, 0.047437f, -0.032588f, 0.065936f,
    -0.098781f, -0.057164f, 0.049035f, 0.013162f, -0.088903f, -0.079362f, 0.073574f, -0.092641f, -0.101577f, 0.039011f,
    -0.038495f, 0.089827f, -0.006891f, -0.065288f, -0.061180f, 0.016603f, 0.076967f, 0.028176f, -0.078343f, 0.059937f,
    0.086945f, -0.034315f, -0.006597f, -0.047652f, 0.078689f, 0.090765f, 0.003388f, -0.050773f, -0.037108f, -0.016917f,
    -0.005356f, -0.068236f, 0.096499f, -0.056889f, -0.013669f, -0.099452f, 0.010101f, 0.036325f, 0.020331f, -0.086503f,
    0.078975f, 0.030044f, 0.058874f, 0.027378f, 0.035408f, 0.006917f, -0.067965f, 0.098999f, -0.062905f, 0.038713f,
    -0.051747f, -0.025443f, 0.063278f, -0.098638f, 0.024010f, 0.015232f, 0.020255f, 0.015565f, -0.087931f, -0.030450f,
    0.091116f, -0.080458f, -0.077393f, -0.002078f, -0.071583f, -0.096269f, -0.073493f, 0.051119f, 0.018843f, -0.040719f,
    0.097293f, -0.010102f, 0.072966f, -0.083472f, -0.084925f, 0.100969f, -0.091192f, -0.092017f, 0.077026f, 0.097897f,
    0.030888f, 0.070351f, -0.035247f, 0.026143f, 0.030770f, -0.099427f, -0.069066f, -0.002917f, 0.048794f, 0.011196f,
    0.067256f, 0.052911f, 0.006392f, -0.003968f, 0.051545f, 0.085348f, 0.036837f, 0.026321f, 0.009315f, 0.061166f,
    -0.041443f, -0.015919f, -0.045515f, -0.086609f, -0.031244f, -0.024863f, -0.005660f, 0.084426f, -0.022136f, -0.056137f,
    -0.040224f, 0.017897f, 0.028926f, -0.037330f, 0.039631f, -0.074043f, -0.068088f, -0.064040f, -0.075984f, 0.004913f,
    -0.019885f, -0.064739f, 0.089251f, -0.017241f, -0.088572f, -0.012912f, 0.002391f, -0.095895f, 0.012385f, -0.004886f,
    -0.092672f, -0.077113f, -0.051630f, -0.018182f, 0.030052f, 0.056657f, 0.061991f, -0.097411f, -0.054068f, -0.074295f,
    0.096401f, -0.067384f, -0.069765f, 0.052614f, -0.030237f, 0.042999f, 0.045194f, 0.089434f, -0.048580f, -0.038036f,
    0.102000f, -0.050036f, 0.089056f, -0.021538f, -0.019618f, -0.054643f, 0.016015f, -0.009314f, -0.074636f, 0.030053f,
    -0.015444f, 0.003731f, 0.026153f, -0.031789f, -0.026984f, -0.098178f, -0.086778f, 0.062952f, 0.004198f, -0.003000f,
    0.098311f, -0.098341f, -0.032983f, 0.097496f, 0.014557f, 0.086012f, 0.002760f, -0.010741f, -0.030819f, -0.050074f,
    0.020911f, -0.062712f, -0.035207f, 0.018722f, -0.071387f, 0.027228f, -0.043365f, 0.094962f, 0.014381f, 0.076537f,
    0.094390f, -0.031776f, -0.092130f, -0.071885f, -0.024800f, 0.040316f, -0.030910f, -0.004993f, -0.056667f, -0.029254f,
    0.085414f, -0.026258f, -0.010145f, 0.048593f, 0.046883f, -0.096899f, 0.096830f, -0.048358f, 0.070441f, 0.102026f,
    -0.029059f, -0.086656f, 0.044875f, -0.062470f, 0.052339f, -0.081405f, -0.058671f, -0.089422f, 0.006411f, 0.094801f,
    -0.094336f, 0.020608f, -0.095205f, -0.052600f, -0.055326f, 0.044556f, 0.070939f, -0.078672f, 0.008829f, 0.048513f,
    0.081564f, -0.062528f, -0.060665f, -0.047632f, 0.017809f, -0.028618f, -0.017554f, -0.096177f, 0.074631f, 0.012817f,
    -0.091106f, -0.004555f, -0.082018f, 0.083965f, -0.029078f, -0.067037f, -0.088227f, 0.075157f, -0.020188f, 0.016650f,
    -0.060573f, 0.074011f, -0.095918f, -0.050569f, 0.085045f, -0.079213f, 0.089669f, -0.000559f, -0.095116f, -0.049174f,
    -0.032241f, 0.060667f, -0.076229f, 0.021907f, -0.063704f, -0.056515f, -0.043749f, -0.099408f, -0.098911f, 0.025248f,
    0.050795f, 0.031812f, -0.100334f, 0.100357f, -0.086878f, 0.026134f, -0.001552f, -0.062040f, -0.046343f, 0.017963f,
    0.058946f, 0.093368f, 0.029167f, -0.063751f, -0.044914f, 0.094343f, 0.057045f, -0.024437f, -0.079005f, -0.052600f,
    0.060712f, 0.033825f, -0.079134f, -0.088812f, 0.049223f, 0.066391f, 0.042581f, 0.056377f, 0.086154f, 0.039459f,
    0.038316f, -0.032152f, -0.099880f, 0.098374f, -0.081553f, -0.053035f, -0.080983f, 0.040728f, -0.056416f, 0.076883f,
    -0.061379f, 0.052519f, 0.055463f, -0.084657f, 0.090202f, 0.050257f, -0.098845f, -0.057872f, 0.022944f, -0.071356f,
    -0.058033f, 0.025501f, 0.061606f, 0.082776f, -0.053895f, 0.070055f, 0.039399f, -0.028478f, 0.085402f, -0.044168f,
    -0.027877f, 0.013799f, -0.078132f, -0.012376f, 0.053592f, 0.049960f, 0.081359f, -0.037659f, 0.081962f, -0.030663f,
    0.043600f, 0.035758f, 0.003423f, 0.041980f, -0.100407f, 0.051307f, -0.025976f, -0.055676f, 0.007264f, 0.042224f,
    0.010143f, 0.086429f, -0.058908f, 0.037843f, -0.025226f, 0.012175f, -0.006973f, -0.030812f, -0.090401f, -0.085410f,
    0.081327f, -0.075681f, 0.064285f, 0.042505f, 0.047165f, -0.067585f, 0.079100f, -0.028730f, 0.015407f, 0.003197f,
    0.084979f, -0.087097f, -0.037013f, 0.031780f, -0.005191f, 0.035663f, 0.011363f, -0.049275f, -0.051500f, 0.073958f,
    -0.084062f, -0.077388f, 0.015589f, 0.094321f, -0.070026f, 0.093503f, 0.044513f, -0.045413f, -0.079574f, -0.068384f,
    -0.010589f, 0.005770f, -0.082979f, -0.063887f, 0.098803f, -0.096366f, -0.100321f, 0.087551f, 0.059182f, -0.028177f,
    -0.023757f, -0.040284f, -0.043732f, -0.070660f, -0.094609f, 0.100335f, 0.058148f, 0.053751f, 0.013240f, 0.058339f,
    -0.023995f, -0.004469f, -0.004764f, 0.011985f, 0.022262f, -0.083207f, 0.094904f, -0.073165f, 0.041669f, -0.021634f,
    0.017957f, 0.053639f, -0.059127f, -0.019675f, -0.031954f, -0.093509f, -0.058508f, 0.054994f, -0.034923f, 0.068683f,
    0.085541f, -0.014651f, -0.027569f, 0.040270f, 0.040914f, 0.045169f, 0.066464f, -0.044218f, -0.038795f, -0.080347f,
    0.060458f, -0.049653f, 0.076115f, 0.065703f, -0.077865f, 0.064074f, 0.066670f, -0.006412f, -0.048030f, 0.101125f,
    -0.017005f, 0.075856f, 0.060144f, -0.068955f, -0.072019f, -0.084565f, 0.044308f, -0.064851f, 0.056070f, 0.018043f,
    0.005422f, -0.063173f, 0.076181f, -0.079124f, -0.084988f, 0.072152f, 0.077711f, 0.041473f, 0.074461f, 0.066650f,
    0.044323f, 0.074042f, -0.066940f, 0.042976f, -0.021246f, 0.086915f, 0.015292f, 0.046594f, 0.085803f, 0.052311f,
    -0.030623f, 0.080749f, 0.089810f, -0.051314f, 0.048468f, 0.034622f, 0.058100f, -0.061165f, -0.066641f, 0.062427f,
    0.030554f, -0.039903f, 0.050495f, -0.069236f, 0.056710f, -0.100704f, -0.024087f, -0.010487f, 0.033070f, -0.018678f,
    -0.004193f, -0.015459f, -0.077024f, 0.059386f, -0.061150f, 0.010320f, -0.072576f, -0.099949f, -0.057557f, 0.085841f,
    -0.035219f, 0.088819f, -0.032763f, -0.080024f, 0.050242f, -0.014863f, -0.056589f, 0.057497f, 0.065331f, 0.030063f,
    -0.092226f, 0.059820f, 0.049894f, -0.084746f, 0.057097f, 0.068940f, 0.014587f, -0.082427f, -0.050146f, -0.101056f,
    0.022547f, 0.035763f, 0.074050f, -0.035533f, -0.033161f, 0.056439f, 0.044215f, -0.006988f, -0.034930f, 0.034630f,
    0.082616f, 0.034670f, -0.000440f, 0.026790f, 0.040002f, 0.073218f, 0.087068f, 0.053431f, -0.041460f, 0.088520f,
    0.038243f, 0.085707f, 0.096539f, -0.001618f, 0.091291f, -0.065833f, -0.036924f, 0.086388f, -0.091131f, 0.047981f,
    0.049305f, -0.088339f, -0.066114f, -0.065830f, 0.099735f, 0.100596f, -0.087041f, 0.079187f, -0.063233f, 0.063734f,
    -0.083112f, 0.035949f, -0.099572f, 0.091816f, 0.035171f, 0.058192f, 0.061744f, -0.020782f, 0.094732f, -0.081968f,
    0.072136f, 0.008117f, -0.077855f, 0.011998f, -0.011998f, 0.027736f, -0.058153f, -0.049510f, -0.063650f, 0.015274f,
    0.012772f, -0.101680f, -0.075979f, 0.048916f, 0.091861f, 0.057635f, 0.050357f, -0.071498f, -0.076872f, -0.013549f,
    0.015444f, -0.065027f, -0.041523f, 0.061478f, 0.020429f, -0.100732f, -0.101352f, 0.020007f, -0.043923f, -0.059598f,
    -0.005733f, 0.101132f, 0.070074f, -0.084726f, 0.027318f, 0.004700f, -0.065062f, -0.065456f, -0.011786f, -0.038295f,
    -0.045239f, 0.032190f, -0.046104f, -0.038304f, -0.041979f, 0.039667f, 0.035625f, -0.061343f, 0.078952f, -0.010335f,
    0.015616f, -0.041711f, -0.047979f, -0.096521f, -0.019373f, 0.078747f, 0.071322f, 0.056293f, -0.049543f, 0.020481f,
    0.050086f, -0.076901f, -0.089289f, 0.090269f, 0.025844f, -0.056254f, -0.097379f, 0.018563f, -0.062346f, 0.010254f,
    -0.027555f, -0.068847f, 0.031150f, 0.026290f, 0.002395f, -0.002072f, 0.078185f, 0.054899f, -0.015310f, 0.024489f,
    0.059636f, 0.051934f, -0.061660f, 0.096573f, -0.007224f, 0.088345f, 0.036481f, -0.018257f, -0.088215f, -0.079010f,
    0.085714f, 0.064960f, 0.028282f, -0.101884f, 0.003310f, 0.048113f, 0.060289f, -0.020732f, 0.084025f, -0.060128f,
    -0.051557f, -0.054341f, -0.092161f, 0.070222f, 0.075499f, -0.002751f, 0.062454f, -0.093026f, 0.004095f, 0.019164f,
    -0.063551f, -0.039471f, -0.020963f, 0.083059f, 0.059293f, 0.020559f, -0.043233f, 0.009777f, -0.092340f, 0.037412f,
    0.000057f, 0.036240f, 0.001721f, -0.076390f, -0.019926f, 0.000302f, 0.101631f, 0.082572f, 0.065344f, 0.013127f,
    0.007656f, 0.059885f, -0.011237f, 0.045183f, 0.088185f, 0.069333f, -0.058878f, -0.052317f, -0.077154f, -0.072597f,
    -0.057592f, -0.063350f, -0.004944f, -0.094609f, 0.093476f, -0.025229f, -0.050009f, -0.014194f, 0.052346f, 0.090700f,
    -0.040335f, 0.068353f, -0.076660f, 0.097899f, -0.031276f, -0.100607f, -0.058802f, -0.011727f, -0.029213f, -0.063487f,
    -0.074212f, 0.044216f, 0.096494f, -0.032384f, -0.088998f, 0.063982f, -0.028627f, -0.052040f, 0.058162f, 0.030771f,
    0.062408f, -0.034095f, -0.051841f, 0.067583f, -0.047971f, -0.032602f, -0.078488f, 0.015759f, -0.062528f, 0.086857f,
    -0.017272f, 0.009659f, -0.027819f, 0.026600f, 0.069610f, -0.010756f, -0.084777f, -0.002717f, -0.020178f, -0.095880f,
    -0.015429f, -0.016725f, 0.000544f, 0.066722f, -0.040458f, -0.042885f, 0.070422f, -0.008895f, 0.095251f, -0.019967f,
    -0.091914f, -0.070085f, -0.070621f, 0.006475f, 0.067120f, 0.046126f, 0.095750f, 0.071092f, 0.070316f, 0.088493f,
    0.070709f, -0.081630f, 0.061200f, -0.049917f, 0.012175f, 0.003619f, 0.095696f, 0.054062f, 0.063038f, -0.023619f,
    -0.043598f, -0.072094f, -0.031313f, 0.087391f, -0.005324f, -0.089245f, 0.066505f, -0.089334f, -0.017170f, 0.081751f,
    0.085554f, 0.033592f, -0.001855f, -0.080471f, -0.051898f, 0.025106f, -0.086979f, -0.052881f, 0.065764f, 0.034586f,
    -0.012319f, -0.055097f, 0.101653f, 0.099685f, 0.006134f, -0.014275f, 0.056081f, -0.016649f, 0.058589f, -0.000796f,
    0.089182f, 0.065183f, 0.100150f, -0.007268f, 0.045048f, -0.009590f, 0.084998f, -0.097747f, -0.094047f, 0.028410f,
    0.042080f, -0.051125f, 0.000139f, -0.074943f, -0.016077f, -0.011981f, 0.010243f, -0.047137f, -0.029986f, 0.030373f,
    0.068255f, -0.089103f, -0.028110f, -0.007108f, 0.096014f, 0.045980f, 0.046097f, -0.096496f, -0.063523f, 0.063145f,
    0.012899f, -0.074915f, -0.025858f, 0.094976f, -0.003940f, 0.007973f, -0.062957f, -0.067378f, -0.014044f, -0.053528f,
    -0.007346f, -0.001416f, -0.000417f, -0.079117f, -0.082332f, 0.011554f, 0.028651f, 0.101294f, 0.026637f, 0.072903f,
    0.073415f, -0.011176f, -0.090597f, 0.019782f, 0.056475f, -0.031796f, -0.064299f, 0.068311f, -0.041481f, 0.007607f,
    0.024238f, -0.082921f, -0.085259f, -0.057757f, -0.000228f, -0.033978f, 0.079254f, 0.046988f, -0.061620f, 0.010392f,
    -0.054974f, 0.071695f, 0.089737f, 0.069444f, -0.071722f, -0.076441f, -0.093033f, 0.000254f, 0.043970f, 0.008696f,
    -0.031126f, 0.017294f, -0.081864f, -0.001964f, -0.001901f, -0.031794f, 0.010379f, -0.019365f, -0.023525f, -0.021607f,
    0.037764f, -0.039507f, -0.026760f, -0.048223f, 0.004723f, 0.074490f, 0.034502f, 0.089410f, 0.020344f, -0.093108f,
    0.018032f, -0.051043f, 0.021251f, -0.027942f, 0.073192f, -0.038492f, -0.013427f, -0.021680f, 0.029380f, -0.010496f,
    0.070520f, -0.060471f, 0.038778f, -0.016066f, -0.094838f, 0.055862f, -0.034908f, 0.055667f, 0.041719f, 0.083062f,
    0.032436f, -0.005321f, -0.093598f, -0.030904f, 0.030679f, -0.043732f, -0.035210f, 0.038229f, -0.042929f, 0.088982f,
    -0.009076f, 0.076859f, -0.029696f, 0.002429f, -0.045248f, 0.021614f, -0.005461f, 0.002551f, 0.081502f, -0.070610f,
    0.048613f, 0.101409f, 0.055868f, 0.080020f, 0.001368f, -0.026066f, 0.056252f, -0.074976f, -0.038390f, -0.069952f,
    -0.038692f, -0.073465f, -0.064846f, -0.026835f, -0.040162f, 0.020656f, -0.088066f, 0.068061f, -0.041633f, -0.026060f,
    0.078602f, 0.057342f, -0.023595f, 0.031200f, -0.023023f, 0.071375f, 0.001454f, 0.016598f, -0.023463f, -0.017808f,
    0.017847f, -0.096015f, 0.045012f, -0.028177f, 0.010634f, -0.040246f, 0.022734f, 0.055829f, -0.014912f, -0.049067f,
    -0.068124f, 0.094544f, 0.042238f, -0.044068f, 0.082422f, -0.004284f, 0.062991f, 0.057812f, 0.069511f, -0.096935f,
    -0.017277f, -0.088897f, 0.087888f, -0.083113f, -0.030573f, 0.093366f, -0.006797f, 0.058323f, -0.058304f, 0.033596f,
    -0.079630f, -0.046376f, -0.039259f, 0.051764f, 0.066201f, 0.063774f, 0.083438f, -0.017406f, -0.047622f, -0.081856f,
    0.087243f, -0.072856f, -0.089522f, 0.045133f, 0.053034f, 0.028831f, 0.099921f, 0.095905f, 0.015167f, -0.020546f,
    0.038271f, -0.071810f, 0.045425f, 0.002620f, 0.086956f, -0.086489f, 0.024509f, 0.085194f, 0.014546f, -0.008715f,
    0.063906f, 0.084761f, -0.063558f, -0.056236f, 0.046541f, 0.019375f, -0.021968f, 0.007104f, 0.080092f, -0.036076f,
    0.084409f, -0.027563f, 0.010481f, -0.051572f, -0.050689f, 0.023769f, -0.064190f, -0.088807f, 0.098220f, -0.034512f,
    -0.051111f, 0.079137f, 0.050415f, -0.014159f, -0.082286f, -0.085165f, 0.019113f, 0.041820f, 0.072087f, 0.035224f,
    0.029228f, 0.062672f, 0.059641f, -0.032601f, 0.023023f, -0.029559f, 0.097476f, -0.049046f, -0.070667f, -0.017932f,
    0.082969f, 0.020370f, 0.078027f, 0.078699f, -0.008959f, -0.066856f, -0.079135f, -0.019527f, -0.022990f, -0.036066f,
    0.063110f, -0.042734f, 0.088729f, 0.040481f, -0.070482f, 0.067120f, -0.099141f, -0.023697f, -0.008348f, 0.075720f,
    0.053949f, 0.000741f, -0.089486f, -0.068952f, -0.059400f, -0.052012f, 0.067149f, -0.056166f, 0.065077f, -0.090390f,
    -0.016047f, 0.022225f, -0.084941f, -0.050419f, 0.026738f, 0.085702f, 0.020652f, 0.101801f, 0.034595f, -0.051279f,
    0.077867f, 0.037327f, -0.024064f, 0.040790f, 0.037045f, 0.066029f, -0.062405f, 0.042884f, -0.020535f, -0.077706f,
    -0.061391f, 0.047991f, -0.067162f, -0.023222f, -0.013247f, 0.013382f, 0.017318f, -0.075688f, 0.081859f, 0.078947f,
    0.071744f, -0.000608f, 0.020948f, 0.054841f, -0.040054f, 0.013310f, -0.082001f, -0.037950f, 0.099164f, -0.079482f,
    -0.077425f, 0.014027f, 0.064390f, -0.031275f, -0.039360f, -0.084828f, -0.080004f, -0.098229f, 0.043885f, 0.039331f,
    -0.042095f, 0.076691f, -0.076088f, 0.050468f, 0.100413f, -0.023928f, 0.028998f, 0.018967f, 0.025788f, 0.098702f,
    0.055325f, 0.033333f, 0.018061f, 0.069135f, -0.014935f, 0.080250f, 0.025171f, 0.075113f, 0.051573f, 0.087572f,
    0.060673f, 0.060758f, -0.036264f, -0.078181f, -0.086367f, -0.015956f, -0.060978f, -0.031123f, -0.028933f, 0.030987f,
    0.092080f, -0.100681f, 0.047298f, 0.073409f, -0.040926f, -0.037157f, 0.026892f, 0.041843f, -0.076190f, -0.090790f,
    0.035587f, 0.080004f, 0.077997f, -0.054739f, -0.026849f, -0.021312f, -0.028593f, -0.099395f, 0.037780f, -0.056354f,
    -0.011523f, 0.032167f, -0.034027f, 0.089746f, -0.023750f, 0.005600f, 0.095350f, -0.061039f, 0.061788f, 0.034763f,
    0.069931f, -0.062764f, -0.015300f, 0.019936f, -0.032274f, 0.065464f, 0.072916f, 0.002214f, -0.001638f, -0.029136f,
    -0.015560f, -0.028042f, 0.068677f, -0.025209f, 0.093282f, -0.069789f, 0.012208f, 0.012448f, -0.016639f, -0.014226f,
    -0.057963f, -0.069504f, -0.078059f, 0.067208f, 0.031401f, 0.056708f, -0.023626f, 0.055568f, -0.096233f, 0.010497f,
    -0.033439f, 0.083047f, 0.032763f, -0.037131f, 0.065188f, -0.030021f, 0.065975f, -0.021642f, 0.055163f, -0.009363f,
    -0.071959f, 0.042673f, 0.057422f, 0.047850f, -0.011945f, -0.052250f, -0.070602f, -0.073536f, 0.054612f, 0.005825f,
    -0.085743f, 0.029116f, 0.083977f, -0.043757f, -0.061869f, 0.077691f, -0.028705f, 0.019963f, 0.022242f, 0.026490f,
    -0.069501f, -0.063963f, 0.093565f, -0.101843f, 0.065028f, -0.021708f, -0.089843f, -0.065519f, -0.008275f, -0.005263f,
    -0.019694f, 0.043914f, 0.086713f, -0.046397f, 0.081755f, -0.004782f, 0.065367f, 0.057253f, 0.008893f, 0.093959f,
    -0.068583f, 0.035840f, -0.070188f, 0.075602f, 0.054532f, -0.018380f, 0.094856f, 0.096745f, 0.055048f, 0.038143f,
    0.062829f, 0.078744f, -0.011783f, 0.090519f, -0.068377f, 0.000450f, 0.058214f, -0.082547f, -0.027910f, 0.049990f,
    -0.014759f, 0.053238f, 0.058367f, 0.020326f, -0.014275f, -0.022474f, -0.040366f, -0.027454f, 0.093728f, -0.031188f,
    0.071378f, 0.029446f, -0.048287f, 0.055449f, -0.090130f, -0.043478f, -0.081048f, 0.013490f, -0.067972f, 0.049563f,
    -0.068608f, 0.070413f, 0.014740f, 0.069818f, 0.086177f, 0.021888f, -0.068177f, -0.042074f, -0.021504f, -0.078153f,
    -0.025084f, -0.096312f, 0.075019f, 0.094459f, 0.082192f, -0.068538f, 0.018665f, 0.006184f, -0.002206f, 0.094654f,
    0.089265f, 0.080016f, -0.019850f, -0.081254f, 0.084198f, 0.040820f, -0.028425f, -0.095719f, 0.013100f, 0.002380f,
    0.051284f, -0.042506f, -0.072044f, -0.053446f, 0.020335f, -0.031088f, -0.098325f, 0.027451f, -0.090746f, 0.052240f,
    0.084533f, -0.003473f, 0.034135f, 0.010795f, 0.036637f, -0.051086f, -0.081585f, -0.030061f, 0.015858f, -0.066479f,
    -0.053691f, -0.046334f, 0.096133f, 0.023994f, 0.029575f, 0.005843f, 0.074345f, 0.058623f, -0.058269f, 0.091045f,
    0.057497f, 0.009433f, 0.018869f, 0.063067f, -0.061432f, -0.061181f, -0.038881f, 0.031664f, 0.057043f, -0.063867f,
    -0.043120f, 0.048124f, 0.068884f, 0.054105f, 0.040546f, 0.075639f, 0.098118f, 0.089919f, -0.024948f, -0.004338f,
    0.017143f, -0.049354f, -0.004957f, -0.045231f, -0.066367f, -0.074385f, 0.041768f, -0.001261f, -0.091989f, -0.011131f,
    0.053366f, 0.075996f, -0.050377f, 0.087043f, 0.070325f, -0.072958f, 0.072601f, -0.059351f, -0.040197f, 0.041232f,
    -0.096067f, 0.079847f, -0.060605f, -0.071926f, -0.072680f, 0.019402f, 0.092825f, -0.022944f, 0.052092f, 0.023313f,
    -0.005816f, 0.018729f, 0.053040f, 0.001415f, 0.094606f, 0.048411f, -0.035390f, 0.071253f, -0.071810f, -0.091902f,
    -0.002657f, 0.050559f, 0.030992f, 0.088077f, -0.072114f, 0.004405f, 0.066019f, 0.000241f, 0.010039f, -0.101004f,
    0.067470f, 0.022236f, -0.009177f, -0.035828f, 0.049616f, 0.058338f, -0.038589f, 0.069512f, 0.088228f, 0.061227f,
    0.090879f, -0.026072f, -0.098212f, -0.086951f, 0.062242f, -0.051952f, -0.059749f, 0.040682f, -0.084151f, 0.089429f,
    -0.007997f, 0.091985f, -0.080695f, 0.042677f, -0.013303f, 0.013684f, 0.056661f, 0.004333f, -0.014631f, 0.091606f,
    -0.063226f, -0.002403f, -0.010464f, -0.079552f, 0.009251f, 0.083261f, -0.002915f, 0.036545f, -0.045606f, 0.011081f,
    0.072437f, 0.083418f, 0.086485f, 0.056807f, -0.052096f, 0.011654f, -0.064858f, -0.102025f, -0.081776f, -0.096576f,
    0.069278f, 0.023936f, -0.000809f, 0.024790f, 0.043064f, -0.037920f, -0.097852f, 0.089722f, -0.004341f, 0.086287f,
    -0.033220f, 0.019462f, -0.037221f, -0.016833f, 0.089841f, -0.060804f, -0.071833f, 0.031440f, -0.054641f, -0.064824f,
    0.046833f, 0.069743f, -0.077403f, -0.008248f, -0.087924f, 0.073312f, 0.098400f, 0.043131f, -0.063437f, 0.037470f,
    -0.019121f, -0.038053f, 0.072831f, 0.098635f, -0.019315f, -0.085877f, 0.085638f, -0.035988f, -0.097024f, 0.060053f,
    0.022191f, 0.014886f, 0.001059f, -0.096555f, 0.042609f, -0.098140f, -0.047842f, 0.096773f, -0.101751f, -0.094297f,
    -0.085726f, -0.020211f, -0.091875f, -0.079452f, -0.023250f, -0.028785f, 0.043183f, -0.086443f, -0.046746f, 0.034243f,
    -0.042897f, -0.008342f, 0.018891f, 0.091802f, 0.074866f, -0.035568f, -0.024509f, 0.042508f, 0.101108f, 0.020949f,
    -0.003884f, 0.085108f, -0.100628f, 0.010439f, -0.072183f, -0.098267f, 0.063033f, 0.056962f, 0.030353f, 0.060374f,
    0.048504f, 0.102053f, 0.043389f, 0.065417f, 0.075046f, 0.065576f, -0.024796f, 0.076514f, 0.088200f, -0.017989f,
    0.044528f, -0.006200f, 0.010601f, -0.068846f, 0.031919f, 0.043137f, -0.020666f, -0.061500f, 0.080223f, 0.059820f,
    0.081048f, -0.089739f, 0.001281f, 0.069283f, 0.009392f, 0.017875f, 0.017669f, -0.024161f, 0.009171f, 0.073658f,
    -0.073205f, 0.071047f, 0.083140f, 0.094455f, -0.046777f, -0.007065f, 0.002651f, 0.079618f, -0.086199f, -0.095695f,
    -0.071550f, -0.062386f, 0.092208f, -0.078674f, 0.014529f, 0.040876f, 0.066876f, 0.046649f, 0.029364f, 0.052903f,
    -0.031272f, 0.045261f, -0.028299f, 0.065136f, 0.030315f, -0.095372f, 0.063727f, 0.033218f, -0.046893f, 0.005307f,
    0.019879f, -0.032103f, -0.039722f, 0.015922f, -0.013785f, 0.077704f, 0.001295f, 0.048006f, -0.010252f, 0.049867f,
    0.074939f, -0.014546f, 0.037176f, 0.018677f, 0.051839f, 0.078717f, -0.049743f, 0.072453f, -0.031637f, -0.064026f,
    0.039396f, -0.084344f, 0.022139f, -0.059484f, -0.037442f, 0.069524f, 0.088441f, -0.063835f, 0.070523f, -0.093021f,
    0.034031f, 0.033909f, -0.091512f, -0.000422f, -0.001598f, 0.093948f, -0.045447f, -0.063365f, -0.018195f, 0.000577f,
    0.037274f, 0.017454f, 0.064320f, -0.069384f, -0.060723f, -0.057496f, 0.054621f, 0.076206f, -0.084842f, -0.073551f,
    -0.026431f, 0.089429f, 0.098742f, -0.030878f, -0.078073f, -0.099042f, 0.060729f, -0.015756f, -0.050787f, -0.065776f,
    0.031730f, -0.054975f, -0.016324f, -0.033085f, -0.085615f, 0.041598f, 0.000606f, -0.025868f, -0.005084f, -0.067933f,
    0.044357f, 0.047901f, -0.047343f, 0.043074f, -0.033265f, -0.068791f, -0.042397f, -0.009279f, -0.087992f, 0.063248f,
    -0.079714f, 0.046909f, -0.025380f, 0.018922f, 0.002000f, -0.041062f, -0.101586f, 0.039143f, 0.007529f, -0.062964f,
    0.064998f, 0.060773f, 0.000345f, -0.021194f, -0.018533f, -0.031368f, -0.012030f, 0.099719f, -0.036156f, -0.071697f,
    -0.004179f, 0.094720f, -0.007438f, -0.092269f, 0.039024f, 0.004401f, -0.053836f, 0.074787f, -0.005147f, -0.039312f,
    -0.023546f, 0.067118f, -0.031096f, 0.000954f, 0.093338f, -0.022323f, 0.048586f, 0.052328f, -0.021265f, 0.078632f,
    -0.058818f, 0.086413f, 0.083734f, 0.013636f, 0.091302f, -0.042112f, -0.099207f, -0.076714f, -0.052463f, -0.095796f,
    0.076319f, -0.071610f, -0.078379f, -0.053532f, 0.022514f, -0.082867f, 0.067342f, -0.033253f, -0.073273f, -0.024319f,
    0.026672f, 0.038462f, -0.012139f, 0.018037f, 0.048286f, 0.079718f, 0.100571f, 0.024943f, -0.048111f, 0.042336f,
    0.017677f, -0.062050f, -0.087925f, 0.094605f, -0.083800f, -0.046556f, -0.047979f, 0.040133f, -0.060027f, 0.032290f,
    0.046910f, 0.020317f, -0.090900f, 0.098200f, -0.101152f, -0.018277f, 0.051670f, 0.068383f, 0.044762f, 0.040493f,
    0.062293f, -0.061279f, -0.009902f, -0.099916f, 0.055039f, -0.054991f, -0.031989f, -0.017774f, -0.012110f, 0.066854f,
    0.087659f, -0.094394f, 0.025718f, -0.088719f, 0.083784f, 0.026082f, -0.052661f, -0.065126f, 0.026799f, -0.083954f,
    -0.061712f, 0.057098f, 0.050466f, 0.086610f, -0.007237f, 0.081346f, 0.021262f, 0.084654f, -0.066001f, -0.055047f,
    0.047481f, 0.003147f, -0.008957f, -0.056810f, -0.081723f, -0.050263f, 0.073113f, 0.013161f, 0.052782f, 0.052169f,
    -0.003897f, -0.029011f, 0.085533f, -0.016671f, -0.027828f, -0.036391f, -0.036508f, -0.093384f, -0.093658f, -0.012077f,
    -0.053948f, -0.027154f, 0.078090f, 0.089154f, 0.087095f, -0.022263f, 0.016048f, 0.049743f, 0.052500f, -0.075341f,
    0.101295f, -0.063009f, 0.050061f, -0.065007f, -0.059038f, 0.026658f, 0.012538f, 0.032519f, -0.044935f, 0.067552f,
    0.055450f, 0.093130f, 0.035853f, 0.033706f, -0.095209f, -0.024325f, -0.005150f, 0.086850f, -0.026714f, 0.089306f,
    -0.033176f, -0.013312f, -0.045996f, 0.029993f, 0.040806f, 0.038020f, -0.098414f, -0.019221f, -0.060727f, -0.012910f,
    -0.059820f, 0.029124f, 0.051529f, 0.094550f, 0.088026f, -0.043497f, -0.006557f, -0.044817f, -0.092520f, -0.051578f,
    0.014546f, -0.065465f, -0.004167f, 0.007453f, -0.064005f, 0.051970f, -0.097545f, -0.055404f, 0.080005f, 0.002865f,
    0.006937f, 0.005398f, -0.094111f, -0.080723f, 0.050878f, 0.085067f, 0.069813f, 0.085409f, -0.007682f, -0.070841f,
    -0.089207f, -0.086995f, -0.053414f, 0.093791f, 0.054054f, 0.091421f, -0.050986f, 0.016863f, 0.058763f, 0.066056f,
    0.075781f, 0.074545f, -0.078413f, 0.068437f, -0.055985f, 0.032400f, 0.048961f, -0.067896f, 0.050089f, -0.016102f,
    0.007732f, 0.038585f, -0.054825f, 0.064753f, 0.079072f, 0.034758f, -0.010711f, -0.078897f, 0.000728f, -0.023052f,
    -0.020429f, 0.064672f, -0.028857f, 0.005930f, -0.036203f, 0.086065f, 0.079519f, -0.030148f, 0.101992f, -0.023874f,
    0.015122f, 0.058344f, 0.028064f, 0.069860f, 0.013661f, 0.012920f, -0.034723f, -0.061458f, 0.070956f, -0.082955f,
    0.029129f, 0.063878f, 0.053885f, -0.057275f, -0.093152f, 0.098211f, 0.050867f, 0.005181f, 0.011810f, -0.023604f,
    0.045663f, -0.025185f, 0.017128f, 0.062380f, 0.097013f, 0.095831f, 0.020134f, -0.089022f, 0.024261f, 0.089756f,
    0.084606f, 0.071734f, 0.076985f, -0.037299f, -0.093070f, -0.035075f, -0.049828f, -0.059464f, -0.093295f, 0.059045f,
    -0.014824f, -0.064100f, -0.057700f, 0.099571f, 0.065179f, -0.006690f, -0.067585f, 0.073879f, 0.009172f, -0.071063f,
    0.005626f, -0.005932f, 0.055155f, 0.051568f, 0.029015f, -0.076407f, -0.069290f, -0.006337f, 0.012247f, 0.050519f,
    0.042937f, 0.057190f, 0.064723f, 0.012192f, 0.101214f, 0.051522f, 0.039335f, 0.054195f, -0.016709f, 0.059156f,
    0.071792f, -0.046275f, -0.034247f, -0.100739f, -0.010985f, -0.041890f, 0.040773f, -0.088780f, -0.099109f, 0.001290f,
    0.047575f, 0.095466f, -0.027218f, 0.096653f, -0.079883f, 0.008418f, -0.012304f, 0.009064f, 0.010780f, 0.089716f,
    -0.080674f, 0.088819f, 0.002770f, -0.019749f, 0.009383f, 0.053294f, 0.055702f, 0.071860f, -0.079933f, 0.055199f,
    0.011470f, -0.019790f, 0.075786f, 0.079459f, -0.093601f, -0.089192f, 0.035713f, -0.036230f, 0.074508f, 0.065546f,
    -0.010546f, -0.061868f, 0.020530f, 0.003657f, -0.025032f, 0.094194f, -0.067440f, -0.036854f, 0.002854f, 0.088776f,
    -0.043620f, 0.018116f, -0.056857f, 0.072459f, 0.006737f, -0.047262f, -0.046580f, 0.087543f, -0.026061f, -0.099639f,
    -0.036916f, 0.060940f, 0.042987f, 0.047166f, -0.057302f, -0.073010f, -0.095374f, -0.016503f, -0.028206f, -0.003920f,
    0.034549f, 0.039547f, -0.000224f, -0.071267f, 0.018600f, 0.051563f, -0.095897f, 0.039382f, -0.089298f, 0.084737f,
    -0.045846f, 0.086777f, 0.061789f, 0.072437f, -0.008690f, 0.091658f, -0.016817f, 0.070013f, 0.034289f, 0.015036f,
    -0.071358f, 0.012379f, 0.086193f, 0.048110f, 0.046222f, 0.081018f, -0.040512f, -0.048851f, -0.021619f, -0.042168f,
    0.018884f, 0.101576f, 0.096515f, -0.060660f, -0.011063f, -0.015830f, -0.005559f, 0.040008f, -0.026197f, -0.037728f,
    -0.047492f, -0.090900f, 0.099074f, -0.046733f, 0.004296f, 0.095380f, -0.079140f, 0.023901f, 0.074432f, -0.046894f,
    0.042830f, -0.016040f, 0.096907f, -0.089723f, -0.099340f, -0.067935f, -0.038069f, 0.099789f, -0.074276f, -0.082559f,
    0.044307f, -0.017511f, -0.054636f, -0.082779f, -0.080765f, -0.082223f, 0.010031f, -0.080091f, 0.059891f, -0.055571f,
    -0.101926f, -0.026785f, -0.080293f, 0.022995f, -0.090827f, -0.037420f, 0.017762f, 0.072689f, -0.035335f, -0.078906f,
    -0.093832f, 0.059091f, -0.095332f, -0.069040f, -0.043850f, 0.069613f, 0.036274f, -0.028409f, 0.012642f, -0.042576f,
    -0.068046f, 0.032770f, 0.082142f, -0.082853f, 0.039189f, -0.084936f, 0.088978f, -0.073346f, 0.082102f, 0.074883f,
    0.004131f, -0.078453f, 0.038946f, -0.034333f, 0.022136f, 0.079467f, 0.031041f, -0.064953f, -0.076163f, -0.082670f,
    0.097041f, 0.090296f, 0.029947f, -0.048068f, 0.059626f, -0.014848f, -0.078595f, -0.078154f, 0.066533f, -0.012514f,
    -0.031369f, -0.068425f, 0.031961f, -0.072134f, -0.058796f, -0.095762f, 0.039796f, -0.064804f, 0.036609f, 0.001592f,
    0.029737f, 0.068287f, -0.020127f, -0.005442f, -0.094892f, -0.030223f, 0.051268f, -0.090347f, -0.088368f, -0.052417f,
    -0.095084f, 0.009359f, -0.029972f, -0.078524f, -0.017286f, -0.078236f, -0.031870f, -0.074470f, 0.072864f, -0.077328f,
    0.091552f, 0.000454f, 0.041363f, -0.075769f, -0.011389f, -0.029633f, -0.068831f, 0.039442f, -0.087897f, 0.062674f,
    -0.068562f, 0.097576f, 0.007042f, -0.038807f, -0.023821f, 0.003631f, 0.006931f, 0.053783f, 0.074904f, 0.044714f,
    0.067333f, 0.014476f, 0.091722f, 0.019792f, -0.055060f, -0.094501f, -0.062708f, -0.015003f, -0.086946f, 0.018249f,
    0.094589f, -0.000822f, 0.084657f, -0.048627f, 0.100585f, -0.034002f, 0.000501f, 0.060100f, 0.087335f, -0.061318f,
    0.089246f, 0.021312f, 0.089508f, -0.080615f, 0.038662f, 0.092070f, 0.088284f, 0.089908f, -0.019492f, 0.051134f,
    0.071834f, -0.070138f, 0.024202f, -0.002462f, -0.049249f, -0.040348f, 0.043987f, 0.018391f, -0.073564f, -0.057461f,
    0.092420f, -0.002849f, 0.088666f, 0.051388f, -0.037680f, 0.022824f, 0.073373f, -0.006302f, -0.004471f, 0.045048f,
    -0.062820f, 0.082088f, 0.092621f, -0.077831f, 0.004068f, 0.006305f, -0.044135f, -0.069735f, 0.035249f, 0.086597f,
    0.101484f, 0.084481f, 0.006261f, -0.099708f, -0.095201f, 0.008913f, 0.062745f, 0.094010f, 0.003561f, 0.068283f,
    0.099153f, -0.028718f, -0.087826f, -0.044308f, -0.028906f, 0.096252f, 0.024344f, 0.093503f, 0.084471f, 0.007116f,
    0.016307f, -0.099335f, -0.084095f, 0.039823f, 0.090862f, -0.092613f, -0.082764f, -0.033792f, -0.088056f, 0.067083f,
    -0.059799f, 0.035157f, 0.087460f, 0.041745f, 0.050996f, 0.066430f, 0.013765f, -0.031575f, -0.071909f, -0.059558f,
    -0.004339f, -0.078473f, -0.025037f, 0.075592f, 0.010199f, 0.043410f, 0.036151f, -0.076604f, -0.004412f, -0.051978f,
    0.024665f, 0.029818f, 0.065917f, 0.071381f, 0.076037f, -0.072913f, -0.018780f, -0.035856f, 0.050616f, 0.063218f,
    0.007372f, 0.063812f, 0.000852f, -0.005362f, 0.046470f, -0.086927f, 0.033055f, -0.068478f, -0.016063f, 0.081226f,
    0.006567f, 0.016260f, 0.096755f, -0.090759f, -0.022427f, 0.009572f, 0.071313f, 0.067891f, 0.069421f, 0.043015f,
    -0.069854f, 0.004173f, 0.038180f, 0.087869f, -0.062336f, 0.040413f, -0.092264f, -0.021497f, 0.096165f, 0.095559f,
    0.082629f, -0.000945f, 0.100556f, -0.023453f, 0.089739f, 0.039628f, -0.093729f, 0.080685f, 0.001344f, -0.005289f,
    0.094814f, 0.022690f, 0.048672f, 0.056379f, 0.068931f, -0.044490f, -0.069609f, -0.038506f, -0.024798f, 0.049148f,
    0.080958f, 0.076581f, -0.036297f, -0.066586f, 0.098701f, -0.065513f, -0.075465f, -0.043373f, 0.088408f, -0.067931f,
    -0.052243f, -0.101251f, -0.052318f, 0.067271f, -0.075006f, 0.036289f, -0.065674f, 0.076657f, 0.080445f, 0.010090f,
    -0.057439f, -0.044014f, -0.005441f, 0.075710f, -0.023816f, 0.055924f, 0.008235f, 0.077746f, -0.059480f, 0.046757f,
    -0.071356f, -0.093613f, 0.018918f, -0.097412f, 0.022187f, -0.101535f, -0.073203f, 0.080466f, 0.050544f, 0.092910f,
    0.003050f, -0.068092f, 0.052040f, 0.045200f, -0.094877f, 0.030519f, 0.048745f, -0.092174f, 0.039672f, -0.037993f,
    -0.053513f, -0.010502f, -0.064138f, 0.060283f, -0.088374f, -0.084932f, 0.040804f, 0.010660f, -0.051355f, 0.059748f,
    -0.045980f, 0.044523f, 0.061892f, -0.022626f, -0.012670f, 0.000962f, 0.013446f, -0.046267f, -0.001648f, -0.053447f,
    -0.009892f, 0.003413f, -0.022368f, -0.075802f, 0.067929f, -0.065085f, 0.013670f, -0.005836f, -0.002587f, 0.025671f,
    0.062558f, 0.016453f, -0.010098f, 0.054546f, -0.021401f, 0.083497f, -0.006803f, 0.031800f, -0.055257f, -0.038170f,
    0.088548f, 0.074231f, 0.030215f, 0.039429f, 0.069952f, 0.025759f, -0.019782f, -0.009161f, 0.004708f, -0.040547f,
    -0.056332f, -0.039210f, -0.096882f, -0.060744f, -0.063211f, -0.072812f, 0.101442f, -0.066091f, 0.025210f, 0.058656f,
    -0.005669f, -0.097757f, -0.047239f, 0.018061f, -0.005118f, -0.043303f, -0.054875f, -0.046130f, 0.003487f, -0.076385f,
    0.007419f, 0.010826f, -0.087578f, 0.022584f, 0.054663f, 0.007790f, 0.038929f, -0.056000f, -0.039633f, 0.017785f,
    0.030703f, -0.087051f, 0.019237f, 0.058100f, -0.057344f, -0.048128f, -0.045331f, 0.059576f, 0.014573f, -0.000096f,
    0.050626f, 0.075190f, 0.038313f, -0.002526f, -0.069476f, -0.046359f, -0.083127f, 0.089300f, 0.042418f, -0.065941f,
    0.008739f, -0.015691f, 0.019278f, -0.023969f, -0.077326f, -0.026810f, 0.089820f, -0.080366f, 0.040449f, 0.022663f,
    -0.052353f, 0.028585f, -0.014827f, -0.024319f, -0.083433f, -0.077085f, 0.052515f, -0.060081f, -0.044162f, 0.043009f,
    0.014242f, 0.080410f, -0.050775f, -0.053224f, -0.033662f, -0.062669f, -0.026558f, 0.087370f, -0.012454f, 0.041096f,
    -0.096444f, 0.050763f, -0.038606f, -0.026456f, 0.055462f, 0.039570f, 0.044410f, 0.023613f, -0.091325f, 0.063583f,
    -0.084469f, 0.090208f, 0.082509f, -0.074395f, -0.038923f, -0.095320f, 0.018121f, -0.014356f, 0.076788f, -0.022039f,
    0.038056f, -0.059295f, -0.065304f, -0.001445f, 0.092475f, -0.060345f, -0.049258f, 0.045614f, 0.024188f, -0.026163f,
    0.059571f, -0.008375f, 0.073512f, -0.035453f, -0.025163f, -0.052262f, 0.028186f, -0.022037f, -0.072642f, 0.086325f,
    -0.014704f, 0.075847f, -0.074875f, 0.055544f, -0.083476f, 0.030726f, 0.054005f, -0.033299f, 0.027966f, -0.024035f,
    -0.023225f, -0.072277f, 0.008979f, 0.013203f, 0.065126f, 0.064700f, -0.018084f, 0.091300f, -0.025713f, -0.027278f,
    0.065525f, 0.008129f, 0.097097f, -0.098645f, 0.090999f, 0.044480f, -0.076272f, 0.058361f, -0.053059f, 0.028609f,
    -0.022378f, 0.056297f, -0.068697f, -0.011307f, -0.008424f, 0.004421f, 0.091522f, -0.094112f, 0.051203f, -0.000204f,
    -0.068621f, -0.031494f, 0.055250f, -0.007170f, 0.027576f, -0.063205f, 0.010767f, 0.003467f, 0.065997f, -0.026588f,
    -0.027637f, -0.087970f, -0.009092f, -0.034726f, 0.023918f, -0.014887f, 0.019817f, -0.050909f, -0.081968f, -0.059532f,
    -0.045125f, -0.063598f, 0.030803f, 0.071250f, -0.058611f, -0.094938f, 0.000264f, -0.015169f, -0.029215f, 0.014444f,
    -0.050953f, -0.049173f, 0.053934f, 0.017778f, -0.059517f, 0.061463f, 0.064274f, 0.079142f, 0.060650f, -0.009319f,
    -0.065941f, 0.095888f, -0.060802f, 0.049224f, 0.074557f, 0.029808f, -0.097150f, -0.098115f, -0.021430f, 0.077681f,
    0.011283f, 0.028505f, -0.052794f, -0.024129f, -0.004519f, 0.046944f, -0.098356f, -0.048574f, 0.097423f, 0.017413f,
    0.053051f, 0.040256f, 0.063569f, -0.082729f, 0.025390f, -0.031527f, 0.048716f, 0.094706f, -0.019988f, 0.024716f,
    0.086355f, 0.006372f, -0.063971f, -0.014170f, -0.064024f, 0.076631f, 0.097571f, -0.001886f, -0.009653f, 0.082132f,
    -0.043664f, 0.016217f, 0.083638f, -0.011148f, 0.064076f, 0.095993f, -0.028594f, -0.007815f, -0.002824f, 0.049401f,
    -0.071842f, 0.038315f, -0.059868f, 0.092194f, -0.090526f, -0.076708f, -0.059561f, 0.066586f, -0.028865f, 0.016696f,
    -0.041248f, -0.069396f, 0.070576f, -0.059872f, 0.045127f, -0.088986f, 0.063326f, -0.009238f, 0.034848f, 0.043715f,
    -0.092949f, -0.015602f, -0.041494f, -0.069223f, -0.017808f, -0.036255f, 0.039767f, -0.072565f, -0.076258f, -0.014883f,
    -0.051247f, -0.010595f, 0.030052f, 0.089083f, 0.017951f, 0.086987f, 0.067508f, -0.060188f, -0.076102f, -0.014453f,
    0.051404f, -0.090238f, -0.091294f, -0.085511f, 0.059803f, -0.053973f, -0.075875f, -0.094473f, -0.027021f, -0.033362f,
    0.054700f, -0.089967f, -0.089440f, 0.040384f, 0.051578f, 0.047427f, -0.071049f, 0.059134f, 0.038892f, -0.045671f,
    -0.066083f, -0.020319f, -0.034934f, 0.013701f, 0.002792f, 0.082773f, -0.094876f, -0.036032f, 0.057541f, 0.004886f,
    -0.057619f, 0.054839f, -0.004379f, -0.023330f, 0.063482f, 0.001874f, -0.077440f, -0.004154f, 0.018805f, -0.085309f,
    -0.039174f, 0.005928f, 0.039876f, 0.091308f, 0.016588f, -0.058667f, -0.015661f, 0.023067f, -0.077621f, -0.007446f,
    -0.058341f, -0.051506f, -0.072278f, -0.004329f, 0.065895f, -0.092122f, 0.099844f, -0.089745f, 0.034626f, -0.028615f,
    -0.015714f, 0.065025f, -0.035723f, 0.068210f, 0.066971f, 0.063475f, 0.006310f, -0.025323f, 0.034491f, -0.009507f,
    -0.062803f, 0.014055f, -0.057719f, 0.036225f, -0.028766f, -0.041338f, 0.076000f, -0.073279f, -0.028161f, 0.041197f,
    0.021245f, -0.062815f, -0.081636f, 0.045759f, -0.077638f, -0.010459f, 0.081736f, 0.095826f, -0.056241f, 0.031819f,
    0.041571f, 0.077605f, 0.039920f, -0.013563f, -0.065821f, -0.001277f, -0.054940f, 0.077665f, 0.077172f, -0.073372f,
    0.052466f, 0.021630f, 0.000130f, 0.000369f, -0.062638f, 0.021651f, -0.066026f, -0.029083f, 0.009699f, 0.025003f,
    0.028439f, -0.001675f, 0.019024f, 0.025759f, 0.017318f, -0.084809f, 0.027647f, -0.037971f, 0.050676f, 0.014540f,
    -0.057489f, -0.051437f, -0.082777f, 0.031303f, -0.056354f, -0.095706f, 0.009974f, -0.020115f, 0.090847f, -0.084176f,
    -0.063066f, -0.053468f, 0.081119f, -0.038291f, 0.096299f, -0.006285f, -0.014533f, -0.014729f, -0.033765f, -0.096340f,
    -0.080390f, 0.002094f, 0.005816f, -0.080510f, -0.068067f, 0.063708f, 0.036446f, 0.020888f, 0.100258f, -0.093475f,
    -0.098414f, 0.057387f, 0.076434f, -0.016467f, -0.069343f, 0.072111f, -0.036245f, 0.068243f, -0.021495f, -0.060427f,
    -0.005461f, 0.095496f, 0.021059f, 0.051676f, 0.007831f, 0.010090f, -0.097950f, -0.045882f, -0.101735f, -0.060186f,
    0.001321f, -0.027566f, -0.006014f, 0.093023f, -0.011075f, -0.005766f, 0.028543f, 0.085804f, 0.095602f, 0.063039f,
    -0.056819f, 0.022371f, -0.101237f, 0.052688f, -0.024660f, -0.079425f, 0.073862f, -0.026891f, -0.081630f, 0.054404f,
    0.004285f, -0.055655f, -0.033731f, 0.040748f, 0.063669f, -0.066302f, 0.060011f, 0.089030f, 0.100942f, 0.085523f,
    0.066832f, -0.083655f, 0.093546f, 0.012453f, 0.016225f, 0.015390f, -0.002945f, 0.024808f, -0.091247f, -0.078907f,
    -0.009555f, -0.082123f, -0.076558f, -0.045579f, -0.035580f, 0.089597f, -0.079753f, -0.012345f, -0.077708f, 0.014143f,
    -0.017032f, -0.010420f, -0.102018f, 0.066149f, -0.019849f, -0.020487f, -0.033643f, 0.006277f, 0.088075f, 0.086006f,
    0.030266f, -0.045834f, 0.077489f, 0.088660f, -0.048619f, -0.038764f, -0.038674f, -0.005518f, 0.091293f, -0.021158f,
