// Auto-generated model weights for RAVN AI Engine
// Generated from: ../../artifacts/ravn_model.h5_weights.bin
// Total weights: 151107

#ifndef RAVN_MODEL_WEIGHTS_H
#define RAVN_MODEL_WEIGHTS_H

#include <stdint.h>

// Model architecture constants
#define INPUT_SEQUENCE_LENGTH 20
#define INPUT_FEATURE_DIM 10
#define DENSE1_OUTPUT_SIZE 64
#define LSTM1_HIDDEN_SIZE 128
#define LSTM2_HIDDEN_SIZE 64
#define DENSE2_OUTPUT_SIZE 32
#define OUTPUT_CLASSES 3

// Layer weight counts
#define DENSE1_WEIGHT_COUNT 704
#define LSTM1_WEIGHT_COUNT 98816
#define LSTM2_WEIGHT_COUNT 49408
#define DENSE2_WEIGHT_COUNT 2080
#define DENSE3_WEIGHT_COUNT 99
#define TOTAL_WEIGHT_COUNT 151107

// All model weights (float32) - organized by layer
static const float all_model_weights[TOTAL_WEIGHT_COUNT] = {
    -0.071333f, 0.143278f, 0.027071f, 0.027615f, 0.086953f, -0.265308f, 0.048998f, 0.180837f, 0.032898f, -0.223174f,
    -0.105006f, -0.046304f, 0.063163f, 0.203016f, -0.110016f, -0.120481f, -0.156988f, -0.076242f, 0.164438f, -0.260871f,
    -0.149841f, 0.051963f, 0.157444f, -0.019610f, -0.064472f, -0.095615f, -0.239543f, -0.120695f, 0.156706f, -0.258141f,
    -0.242715f, -0.187789f, -0.024006f, 0.106181f, -0.101761f, 0.188015f, 0.241388f, -0.034502f, 0.197245f, 0.153372f,
    -0.012576f, 0.110488f, 0.038048f, -0.184402f, 0.202601f, -0.127524f, -0.228959f, -0.175360f, 0.132942f, -0.020446f,
    0.159987f, -0.131410f, -0.147965f, -0.100876f, -0.155119f, 0.102285f, 0.023930f, 0.002532f, -0.065928f, -0.134710f,
    -0.239241f, 0.127560f, -0.114557f, 0.219153f, -0.058436f, 0.189104f, -0.058306f, -0.121480f, -0.100820f, -0.038976f,
    -0.162066f, 0.147282f, 0.061384f, -0.156784f, 0.151209f, -0.035780f, 0.142692f, 0.118204f, 0.160091f, 0.193163f,
    -0.036132f, 0.265367f, -0.244888f, -0.157152f, 0.009681f, -0.251178f, -0.251639f, 0.002100f, -0.026383f, -0.167385f,
    -0.020804f, -0.128192f, 0.002514f, 0.255237f, -0.090417f, 0.139526f, 0.014906f, 0.201099f, -0.031561f, 0.033931f,
    0.049006f, 0.030399f, 0.118744f, -0.220878f, 0.148671f, 0.118655f, -0.255468f, -0.092152f, 0.209734f, -0.259459f,
    0.144247f, -0.262207f, -0.069552f, 0.028922f, 0.157743f, -0.074065f, -0.049964f, -0.049257f, 0.217233f, -0.112357f,
    0.196929f, -0.223759f, -0.194870f, 0.061694f, -0.005166f, 0.029111f, -0.189981f, 0.222999f, 0.259239f, -0.105574f,
    0.277496f, 0.242067f, -0.006677f, -0.135474f, -0.219523f, 0.227070f, 0.168743f, -0.221334f, -0.191661f, -0.102230f,
    0.248040f, -0.060980f, 0.199659f, -0.088282f, 0.103822f, 0.191705f, 0.111551f, -0.142867f, 0.067869f, -0.169825f,
    -0.162623f, 0.077308f, 0.258328f, -0.147573f, 0.198409f, -0.172787f, 0.216725f, -0.069749f, -0.262221f, -0.021544f,
    -0.129671f, 0.113377f, -0.054854f, 0.028162f, -0.010296f, -0.086300f, -0.102801f, 0.024484f, -0.245809f, 0.263305f,
    -0.072314f, -0.149679f, 0.245076f, -0.105018f, -0.097907f, -0.096610f, 0.191785f, -0.176875f, -0.225363f, 0.017604f,
    0.175450f, -0.085949f, 0.060124f, 0.153241f, -0.121475f, 0.216968f, -0.011304f, 0.160795f, -0.170233f, -0.257839f,
    -0.281009f, -0.019483f, 0.237716f, -0.002381f, -0.062038f, 0.226601f, -0.266279f, 0.184170f, -0.061897f, 0.074107f,
    -0.244256f, -0.090025f, -0.261128f, 0.219173f, 0.089507f, -0.022344f, -0.095122f, -0.097260f, 0.079153f, 0.174995f,
    -0.035937f, 0.023318f, -0.186039f, -0.171821f, 0.165542f, -0.126165f, -0.246009f, -0.090564f, -0.094036f, -0.230700f,
    -0.246331f, 0.018067f, 0.245145f, -0.077818f, -0.122337f, 0.142998f, 0.125211f, -0.283848f, -0.055474f, -0.225159f,
    -0.112101f, 0.124041f, -0.120315f, 0.030969f, -0.238610f, 0.147446f, -0.082119f, -0.032745f, -0.280065f, -0.269709f,
    0.052264f, 0.229455f, 0.090929f, -0.006452f, -0.020483f, -0.281671f, -0.234653f, -0.109331f, -0.053536f, -0.200622f,
    -0.266593f, 0.130262f, 0.258613f, 0.090218f, -0.169607f, -0.141619f, -0.260631f, -0.144703f, 0.022916f, -0.031178f,
    -0.043442f, -0.160505f, -0.241111f, -0.159258f, 0.240509f, 0.182147f, -0.153059f, -0.145282f, 0.091350f, -0.213589f,
    0.033941f, 0.103497f, 0.120153f, 0.068247f, 0.126524f, -0.095605f, 0.000287f, 0.258449f, 0.008136f, -0.026044f,
    -0.157453f, 0.112452f, 0.162924f, -0.085672f, 0.105497f, 0.167705f, 0.178193f, 0.274794f, -0.192917f, 0.069165f,
    -0.184137f, -0.259324f, -0.169671f, 0.018533f, 0.033873f, 0.161068f, -0.069688f, 0.138682f, -0.085142f, -0.191769f,
    -0.215647f, 0.177804f, -0.267947f, 0.032059f, -0.033498f, -0.112010f, -0.243165f, 0.175899f, -0.116152f, -0.225218f,
    -0.281598f, -0.226514f, -0.254883f, 0.260064f, -0.013188f, 0.274027f, 0.063379f, 0.278764f, -0.049924f, -0.194042f,
    0.219449f, 0.158158f, 0.159779f, 0.154093f, -0.182088f, -0.156923f, -0.119498f, 0.011416f, -0.124335f, -0.087534f,
    0.107471f, 0.104182f, 0.106302f, 0.111022f, 0.015354f, 0.212178f, 0.223314f, -0.027188f, 0.278142f, 0.033845f,
    0.070988f, 0.245042f, -0.184095f, 0.018505f, -0.111695f, 0.011810f, -0.165181f, 0.036612f, 0.061894f, 0.073805f,
    0.143244f, 0.212847f, 0.122793f, 0.261824f, -0.092178f, 0.255652f, 0.278594f, -0.250240f, 0.122118f, -0.269157f,
    0.186837f, -0.193532f, 0.141999f, -0.047570f, -0.037350f, -0.176522f, 0.056001f, 0.168741f, 0.197389f, 0.088840f,
    -0.005337f, -0.129070f, 0.009673f, 0.001695f, 0.161348f, 0.152284f, 0.174341f, -0.026677f, 0.214328f, -0.255138f,
    -0.174320f, -0.166612f, -0.145684f, -0.054360f, 0.215766f, 0.207358f, 0.192241f, 0.245216f, 0.113585f, 0.125335f,
    0.193043f, 0.019402f, 0.284564f, -0.225336f, -0.068965f, 0.059490f, -0.042237f, 0.217114f, 0.120518f, 0.195300f,
    -0.262983f, -0.233801f, -0.161926f, 0.005584f, -0.169860f, 0.005631f, 0.024098f, -0.098110f, 0.057296f, 0.153837f,
    -0.153594f, -0.250113f, -0.202024f, -0.006183f, -0.259982f, -0.150645f, -0.214854f, 0.181478f, 0.284586f, 0.248030f,
    0.086647f, -0.154937f, -0.218524f, -0.273638f, 0.252126f, 0.026089f, -0.064300f, 0.198871f, -0.090711f, -0.243716f,
    -0.078832f, 0.208900f, -0.093597f, -0.273601f, -0.052217f, 0.091012f, 0.154383f, 0.101932f, 0.032818f, -0.079078f,
    -0.204297f, 0.126401f, 0.170319f, -0.152464f, 0.141780f, 0.212319f, -0.163255f, -0.145666f, -0.001716f, 0.214464f,
    -0.009282f, -0.194018f, -0.173541f, -0.268335f, 0.036293f, 0.217465f, 0.262075f, -0.069654f, 0.156481f, 0.052924f,
    -0.086722f, 0.079761f, -0.014928f, 0.171507f, -0.130336f, -0.100055f, 0.019467f, -0.281007f, 0.041809f, -0.195229f,
    0.246067f, 0.175792f, -0.030265f, -0.283008f, -0.009062f, 0.054857f, 0.259990f, -0.282422f, -0.202133f, 0.194979f,
    0.240804f, 0.159894f, 0.002305f, 0.267984f, 0.249318f, 0.163884f, -0.093016f, 0.245332f, 0.241057f, -0.096274f,
    0.061187f, 0.176345f, 0.223648f, -0.159419f, -0.109729f, 0.133712f, -0.256630f, -0.048063f, 0.188715f, 0.092985f,
    -0.233968f, 0.236386f, 0.007780f, -0.152375f, -0.196111f, 0.114687f, 0.196971f, -0.054265f, 0.114256f, -0.092640f,
    -0.052622f, 0.103578f, 0.175432f, 0.052205f, 0.279819f, -0.150155f, 0.062690f, 0.205136f, 0.163507f, -0.050430f,
    -0.238645f, -0.051007f, -0.242898f, 0.113068f, -0.003239f, 0.243553f, -0.224470f, 0.138369f, 0.003282f, -0.266366f,
    0.215360f, 0.137777f, -0.070060f, 0.122295f, -0.164640f, 0.262529f, -0.195970f, 0.173602f, -0.152478f, -0.032670f,
    -0.169344f, 0.136859f, -0.098069f, 0.130622f, -0.074465f, 0.145374f, -0.182180f, 0.134682f, -0.261924f, -0.002335f,
    0.188313f, 0.007988f, -0.054186f, -0.221138f, 0.258439f, -0.155286f, -0.023191f, 0.189126f, 0.124724f, -0.102126f,
    -0.120877f, 0.128444f, 0.013988f, -0.186372f, 0.259473f, -0.275707f, 0.096760f, -0.047095f, -0.168199f, 0.142488f,
    -0.203814f, 0.195881f, 0.275732f, 0.078301f, 0.123538f, 0.071152f, -0.147613f, -0.003699f, -0.039029f, 0.185976f,
    0.000810f, 0.226014f, 0.206595f, 0.216126f, 0.051150f, 0.009105f, -0.238463f, 0.055990f, 0.050012f, 0.245945f,
    -0.222477f, -0.009294f, 0.011370f, -0.062157f, 0.026147f, -0.149318f, 0.110307f, 0.105298f, 0.149326f, -0.078022f,
    -0.150261f, -0.021198f, 0.011188f, 0.178194f, -0.150751f, 0.253957f, 0.232532f, 0.257869f, -0.106384f, -0.131601f,
    -0.059471f, 0.283902f, -0.031367f, 0.237274f, -0.206906f, -0.105918f, -0.276099f, -0.257160f, 0.280601f, -0.007189f,
    -0.018441f, 0.176881f, 0.225583f, 0.190848f, 0.006533f, -0.023945f, 0.193922f, 0.101107f, -0.258578f, -0.278223f,
    0.223995f, 0.149045f, -0.173822f, 0.190290f, 0.224605f, 0.030186f, -0.050870f, -0.077141f, 0.063518f, 0.244260f,
    -0.003331f, 0.000000f, 0.000000f, -0.004750f, 0.000000f, -0.002626f, 0.000000f, -0.000163f, 0.000000f, 0.000000f,
    0.000000f, -0.000510f, -0.000034f, 0.000000f, 0.000000f, 0.000000f, -0.010584f, -0.002610f, 0.000000f, -0.000172f,
    0.000000f, 0.000000f, -0.001875f, 0.000000f, 0.000000f, 0.000000f, 0.000000f, 0.000000f, 0.000000f, -0.000127f,
    -0.017627f, 0.000000f, 0.000000f, -0.000096f, -0.004261f, 0.000000f, 0.000000f, 0.000000f, 0.000000f, -0.004333f,
    0.000000f, -0.000000f, 0.000000f, -0.000036f, 0.000000f, 0.000000f, 0.000000f, 0.000000f, -0.010585f, -0.000000f,
    -0.003801f, 0.000000f, 0.000000f, 0.000000f, 0.000000f, 0.000000f, 0.000000f, 0.000000f, 0.000000f, -0.010575f,
    -0.010585f, -0.000108f, 0.000000f, 0.000000f, -0.003933f, -0.001088f, -0.006640f, 0.055673f, -0.031822f, 0.084100f,
    0.060277f, 0.077462f, 0.045602f, -0.009781f, -0.005317f, -0.071265f, 0.088722f, 0.054704f, -0.097780f, -0.097072f,
    0.089881f, 0.032149f, -0.000829f, -0.044014f, -0.003831f, 0.019560f, 0.018477f, -0.014442f, -0.032492f, 0.014983f,
    0.084245f, -0.028546f, 0.053067f, -0.025163f, -0.029330f, -0.073439f, 0.088862f, 0.010906f, -0.035417f, 0.023064f,
    -0.008982f, -0.067670f, 0.030994f, 0.028101f, -0.080452f, 0.031658f, 0.045568f, -0.105186f, -0.096691f, -0.042762f,
    -0.013870f, -0.039260f, 0.105701f, -0.049973f, -0.048629f, -0.062254f, 0.006032f, -0.064063f, 0.104041f, -0.024409f,
    0.020505f, -0.048522f, -0.012967f, -0.070951f, 0.023864f, 0.084030f, -0.086422f, 0.042538f, 0.073244f, 0.051849f,
    0.003540f, 0.026557f, 0.075425f, 0.079889f, -0.070857f, -0.108130f, 0.016235f, 0.013492f, 0.092116f, 0.080508f,
    -0.087213f, -0.051677f, -0.079820f, 0.072803f, 0.054277f, 0.077353f, -0.058035f, -0.009304f, -0.104030f, 0.090908f,
    0.073012f, -0.050426f, 0.099091f, -0.074554f, 0.084772f, 0.006869f, -0.074098f, 0.080283f, -0.103010f, -0.084484f,
    0.087131f, -0.078680f, -0.073819f, 0.032777f, -0.071540f, -0.017166f, 0.101761f, 0.015809f, -0.027879f, 0.045983f,
    -0.062502f, 0.015367f, 0.056852f, -0.015035f, -0.008550f, 0.042412f, 0.039074f, -0.054215f, -0.011133f, 0.104673f,
    0.009154f, 0.044393f, 0.038019f, -0.095795f, 0.004037f, 0.042155f, 0.024905f, -0.009698f, 0.051866f, 0.004003f,
    -0.059208f, -0.032939f, 0.034005f, 0.040405f, -0.014663f, -0.064433f, -0.011877f, -0.007075f, 0.081220f, -0.019408f,
    -0.054488f, 0.001330f, -0.100761f, 0.089569f, 0.079452f, -0.057810f, 0.028046f, 0.033551f, -0.037064f, -0.008202f,
    -0.092400f, -0.065756f, 0.048976f, -0.070564f, -0.006781f, 0.009455f, -0.035428f, 0.053437f, -0.053326f, 0.081317f,
    -0.007027f, 0.033126f, -0.063672f, 0.036064f, 0.013688f, 0.047311f, -0.096739f, -0.085291f, -0.046473f, -0.091781f,
    0.086142f, 0.006929f, 0.087246f, 0.066156f, 0.016664f, 0.088920f, -0.082016f, 0.050338f, -0.082520f, 0.094974f,
    -0.023145f, -0.064159f, 0.030835f, 0.085947f, -0.005765f, 0.060181f, -0.027473f, -0.060243f, 0.055054f, 0.066265f,
    0.077780f, -0.022802f, 0.035714f, -0.061205f, 0.086183f, -0.082257f, 0.056683f, -0.015542f, -0.025550f, 0.098040f,
    0.090491f, 0.025339f, -0.036414f, 0.032207f, 0.098257f, -0.042614f, -0.011505f, -0.002273f, 0.074025f, 0.017751f,
    -0.016558f, -0.065276f, 0.063323f, -0.079977f, 0.074530f, -0.026780f, -0.101139f, -0.041439f, -0.052477f, -0.077942f,
    0.072612f, 0.003263f, -0.040223f, -0.080558f, 0.021605f, -0.016842f, 0.084670f, 0.098488f, -0.033153f, -0.023143f,
    0.051562f, -0.008653f, 0.067538f, 0.087389f, -0.020860f, 0.087614f, -0.015852f, 0.042278f, 0.051226f, 0.029956f,
    -0.036864f, 0.084132f, -0.016054f, 0.017292f, -0.022185f, 0.061092f, -0.044428f, -0.009971f, -0.031471f, -0.010467f,
    0.064499f, 0.096982f, 0.072522f, 0.049112f, 0.006113f, -0.011337f, -0.051764f, -0.088181f, 0.028829f, -0.030621f,
    -0.033420f, 0.095170f, 0.017884f, 0.031810f, 0.050040f, -0.111197f, -0.104292f, -0.039995f, -0.068231f, 0.050998f,
    -0.059777f, -0.047024f, -0.063850f, 0.038742f, -0.106738f, -0.065353f, -0.080746f, -0.033715f, 0.092121f, -0.066828f,
    -0.053411f, 0.046500f, 0.039979f, 0.067837f, 0.032550f, -0.081962f, 0.051688f, 0.054716f, -0.081447f, -0.009249f,
    -0.074105f, -0.075779f, 0.086423f, 0.043863f, 0.071498f, -0.016780f, -0.018291f, 0.089141f, -0.091629f, 0.059751f,
    0.068546f, -0.049133f, -0.080000f, 0.015349f, 0.038001f, -0.083171f, 0.074870f, 0.009061f, 0.015828f, 0.043092f,
    0.059344f, 0.064989f, -0.042671f, -0.084182f, -0.110757f, -0.091346f, -0.029084f, 0.006243f, -0.006381f, 0.077617f,
    -0.019580f, -0.059324f, 0.096546f, 0.054817f, -0.010165f, 0.020139f, -0.018591f, 0.087912f, -0.078814f, -0.019855f,
    -0.007801f, -0.044674f, 0.007885f, 0.056249f, -0.109252f, -0.074853f, 0.052099f, -0.050373f, -0.052212f, 0.070008f,
    0.064526f, -0.026879f, 0.032212f, 0.021761f, 0.075865f, -0.009067f, 0.031896f, -0.074962f, -0.022704f, 0.046942f,
    -0.008549f, 0.010006f, -0.102802f, 0.040412f, -0.070573f, 0.079594f, 0.044710f, 0.088466f, -0.091390f, 0.010892f,
    0.013043f, -0.001792f, -0.066382f, -0.033662f, 0.050887f, -0.025754f, 0.041333f, -0.006096f, 0.046902f, 0.064633f,
    0.083764f, 0.040006f, 0.012264f, 0.046463f, 0.033064f, 0.063520f, -0.084975f, 0.057134f, -0.111709f, -0.066726f,
    -0.025231f, 0.019274f, 0.083706f, 0.084434f, 0.090876f, 0.004768f, 0.037717f, -0.074080f, 0.062983f, -0.078813f,
    0.037429f, 0.099310f, 0.016049f, 0.002740f, -0.050813f, 0.012417f, -0.018969f, -0.049807f, 0.075538f, -0.075954f,
    0.015189f, 0.082661f, -0.087175f, 0.072501f, 0.077467f, 0.082524f, 0.040248f, -0.036649f, -0.078631f, -0.043826f,
    -0.077834f, 0.033138f, 0.094530f, 0.054973f, -0.074187f, -0.064947f, 0.035605f, 0.008579f, -0.020768f, 0.013775f,
    0.096941f, 0.036634f, -0.010359f, -0.081205f, -0.054807f, 0.063584f, 0.028477f, -0.104935f, -0.059805f, -0.090591f,
    0.083192f, -0.072683f, 0.084243f, 0.013643f, -0.068832f, -0.092198f, -0.011288f, 0.072087f, 0.096551f, -0.007469f,
    -0.054097f, 0.020830f, 0.026420f, 0.095617f, 0.017231f, -0.093182f, -0.046378f, -0.095826f, 0.085429f, 0.026792f,
    -0.086415f, -0.007102f, -0.055207f, -0.002739f, -0.070208f, 0.096923f, -0.050367f, 0.065730f, -0.005654f, 0.000281f,
    -0.085861f, 0.013805f, 0.037618f, -0.050980f, 0.025196f, -0.004115f, 0.005444f, -0.056096f, 0.080846f, 0.032403f,
    0.094110f, -0.027142f, -0.035012f, -0.082275f, 0.048682f, -0.072564f, -0.054479f, -0.023197f, -0.056352f, -0.051049f,
    -0.065777f, 0.037445f, -0.046588f, -0.046774f, 0.086257f, -0.066546f, -0.043246f, -0.079149f, -0.099177f, -0.059554f,
    -0.089345f, -0.029865f, 0.003294f, 0.069496f, -0.068315f, 0.079491f, 0.081633f, -0.042084f, 0.023832f, 0.042751f,
    -0.092019f, -0.086493f, 0.038641f, -0.045669f, 0.005567f, 0.085857f, 0.036670f, -0.055915f, -0.030840f, 0.054887f,
    0.089065f, -0.026538f, 0.068399f, -0.031954f, -0.097736f, 0.081393f, -0.100936f, 0.044326f, -0.088038f, 0.024933f,
    0.098475f, -0.100069f, -0.032455f, -0.060121f, -0.077176f, -0.077878f, -0.062073f, -0.010575f, 0.010778f, 0.020124f,
    -0.032162f, 0.053725f, -0.026360f, 0.053443f, 0.080418f, -0.018588f, 0.062042f, 0.037280f, -0.063590f, -0.039435f,
    0.005701f, 0.093106f, 0.053297f, 0.020312f, 0.034781f, -0.037511f, 0.033543f, -0.031824f, -0.066297f, 0.026478f,
    0.013402f, 0.012291f, -0.043869f, -0.042600f, 0.022618f, -0.035352f, 0.090776f, -0.006710f, -0.085640f, -0.081384f,
    0.015462f, 0.041208f, 0.036528f, -0.062598f, 0.080811f, -0.009259f, 0.034540f, 0.084967f, -0.019033f, -0.064079f,
    0.038159f, -0.028821f, 0.038391f, 0.020299f, 0.036429f, -0.004936f, -0.098690f, -0.075272f, 0.051174f, -0.041984f,
    0.017203f, 0.012109f, -0.052734f, 0.027564f, -0.008196f, 0.018861f, 0.094043f, 0.062315f, 0.039466f, -0.089466f,
    0.090948f, -0.075517f, -0.079981f, 0.078551f, 0.066609f, -0.074574f, -0.071360f, 0.035212f, -0.091805f, 0.041112f,
    0.059559f, -0.012205f, -0.001319f, 0.014563f, -0.083376f, 0.082938f, -0.073556f, 0.083249f, 0.072727f, -0.030002f,
    0.062106f, -0.005679f, -0.017100f, 0.042678f, -0.101461f, 0.002780f, 0.084782f, -0.031534f, -0.001260f, 0.069456f,
    -0.100559f, 0.037195f, -0.023150f, -0.019685f, -0.033379f, -0.028751f, 0.001333f, -0.022326f, 0.027688f, -0.026577f,
    0.048339f, 0.021206f, 0.074638f, -0.036949f, 0.009460f, -0.100098f, 0.087118f, -0.054768f, -0.017288f, 0.032636f,
    0.092288f, 0.048430f, 0.075520f, -0.044712f, 0.028206f, -0.010980f, 0.011445f, 0.002705f, -0.013144f, -0.036778f,
    -0.017989f, -0.070847f, -0.048007f, 0.031557f, 0.003517f, 0.096328f, 0.022478f, 0.009097f, -0.072228f, 0.085444f,
    -0.034290f, 0.015880f, 0.021092f, -0.034459f, 0.001886f, -0.063370f, -0.041218f, -0.085041f, -0.031240f, 0.088793f,
    -0.077043f, -0.065443f, 0.071790f, 0.081952f, 0.070625f, 0.071717f, 0.087126f, -0.041434f, -0.014380f, -0.069883f,
    0.059082f, -0.064958f, 0.035104f, -0.058616f, -0.048046f, 0.064203f, 0.016253f, -0.005410f, 0.101930f, 0.016110f,
    -0.078021f, -0.067689f, 0.004567f, 0.100046f, 0.063042f, 0.032004f, -0.020771f, -0.051852f, -0.083419f, 0.012755f,
    0.040342f, 0.082931f, -0.061566f, 0.039916f, 0.023000f, 0.028532f, 0.067376f, -0.030073f, 0.090311f, -0.023326f,
    0.006095f, 0.007688f, -0.036873f, -0.061480f, 0.093079f, -0.036152f, 0.045470f, -0.033443f, 0.040122f, 0.025114f,
    0.072326f, 0.088069f, -0.087643f, -0.060265f, -0.021143f, -0.101115f, -0.092551f, -0.049863f, -0.056681f, -0.094773f,
    0.011994f, -0.031117f, 0.035460f, 0.064662f, 0.010309f, -0.067454f, -0.055168f, -0.013437f, -0.088760f, 0.062579f,
    -0.098322f, -0.010419f, -0.075874f, -0.099574f, -0.049021f, 0.037349f, -0.015215f, -0.033084f, 0.084743f, -0.053558f,
    0.017511f, -0.055196f, -0.009790f, 0.011501f, 0.020461f, -0.097882f, -0.048941f, -0.025368f, 0.020829f, 0.008938f,
    0.049459f, 0.072657f, 0.012212f, 0.056658f, -0.075298f, -0.061768f, 0.059190f, -0.056256f, -0.027124f, 0.084463f,
    -0.095359f, -0.041343f, 0.014897f, 0.026004f, -0.037520f, 0.050732f, 0.021466f, 0.030699f, -0.045376f, -0.097418f,
    -0.096311f, -0.003728f, 0.036549f, 0.041118f, -0.064108f, -0.088902f, -0.006496f, -0.064126f, 0.089223f, -0.004437f,
    -0.080086f, -0.068508f, 0.071300f, 0.058878f, -0.096893f, -0.051437f, -0.067338f, -0.056747f, -0.081803f, -0.043570f,
    -0.092966f, 0.052624f, -0.065780f, -0.031071f, 0.051925f, -0.019257f, 0.035804f, 0.007115f, -0.053988f, -0.052308f,
    0.053078f, 0.058211f, 0.013011f, 0.101414f, -0.017499f, -0.023721f, -0.082137f, 0.101956f, -0.025107f, 0.030062f,
    -0.084216f, -0.089098f, -0.064086f, 0.028649f, -0.092067f, 0.055629f, 0.062915f, -0.057192f, -0.026242f, 0.075442f,
    -0.078328f, 0.057414f, -0.066643f, 0.083720f, -0.019133f, 0.053761f, 0.034191f, 0.043758f, 0.013705f, 0.024529f,
    0.087868f, 0.057573f, -0.055407f, -0.044990f, -0.052080f, -0.013328f, 0.004550f, -0.066960f, 0.072666f, -0.086273f,
    -0.035993f, -0.028989f, 0.055852f, -0.051467f, -0.043750f, 0.031937f, 0.092151f, -0.045927f, -0.002695f, -0.075333f,
    -0.089617f, -0.049301f, 0.074579f, 0.059862f, 0.037832f, -0.097430f, -0.060316f, -0.090457f, 0.013516f, 0.038359f,
    -0.006180f, 0.017228f, -0.072074f, -0.046373f, 0.061672f, -0.039699f, 0.020460f, -0.082159f, 0.078656f, 0.034780f,
    0.058033f, 0.024123f, -0.000093f, -0.043761f, -0.064873f, -0.023592f, 0.037742f, -0.074571f, 0.101771f, 0.035108f,
    0.047064f, 0.099879f, 0.057414f, -0.026434f, -0.058303f, -0.076276f, -0.094048f, -0.027891f, -0.064353f, -0.006076f,
    0.038661f, 0.035380f, 0.016583f, -0.047706f, -0.098516f, 0.000219f, -0.059681f, 0.065586f, -0.043760f, -0.076924f,
    -0.011231f, -0.092179f, -0.057131f, 0.076171f, -0.002293f, -0.088153f, 0.040196f, -0.058598f, -0.027657f, -0.090535f,
    0.022846f, -0.020492f, -0.061703f, 0.063510f, -0.016984f, 0.059344f, 0.008782f, 0.030995f, -0.004173f, 0.039941f,
    0.016495f, -0.061286f, -0.019994f, -0.055760f, -0.019831f, 0.070673f, 0.043341f, -0.021373f, 0.089690f, -0.010803f,
    0.036348f, 0.066617f, 0.086055f, -0.100422f, -0.070384f, -0.025205f, -0.028984f, 0.038923f, -0.010970f, -0.038897f,
    -0.043399f, -0.029121f, 0.016855f, 0.034087f, 0.040535f, -0.071788f, 0.088993f, 0.070725f, 0.055632f, 0.064737f,
    -0.072295f, -0.039043f, 0.076348f, 0.069551f, 0.090253f, -0.014742f, 0.101421f, 0.069425f, -0.008754f, 0.055357f,
    -0.012107f, -0.049485f, 0.015221f, 0.070208f, 0.005100f, -0.052234f, 0.023778f, -0.024945f, -0.083594f, -0.011108f,
    0.028020f, -0.068737f, -0.096538f, 0.031876f, 0.066608f, 0.030470f, 0.019583f, -0.028365f, 0.061395f, 0.058587f,
    -0.046600f, 0.039997f, 0.023976f, 0.031505f, -0.019389f, -0.062400f, 0.043647f, -0.100520f, 0.039625f, 0.046446f,
    -0.020934f, 0.001061f, -0.034440f, 0.085704f, -0.025697f, -0.072152f, 0.019594f, 0.038216f, -0.003039f, -0.024537f,
    -0.026330f, -0.020079f, 0.040756f, 0.037062f, 0.002397f, -0.005357f, 0.017566f, 0.013047f, 0.046176f, 0.043646f,
    0.023868f, -0.079244f, 0.038829f, -0.063955f, -0.059810f, -0.043974f, -0.011588f, 0.042678f, -0.004829f, -0.079391f,
    -0.051113f, 0.012315f, 0.038351f, 0.013746f, -0.020607f, 0.020485f, 0.029154f, 0.057242f, -0.092280f, -0.034277f,
    -0.054284f, -0.101204f, 0.032890f, 0.067325f, -0.083368f, 0.062675f, -0.066353f, -0.066756f, 0.077578f, -0.081681f,
    -0.023256f, 0.042408f, -0.082969f, -0.006483f, -0.053321f, 0.004845f, -0.007611f, -0.025515f, 0.081700f, -0.042197f,
    0.050966f, 0.040165f, -0.040722f, -0.100924f, 0.100284f, -0.055648f, 0.027350f, -0.074268f, 0.057032f, 0.071880f,
    -0.076184f, -0.012270f, -0.083494f, 0.043852f, 0.037745f, -0.027991f, 0.036594f, -0.047842f, 0.007771f, 0.034169f,
    -0.081587f, -0.055872f, -0.096008f, -0.064290f, -0.030889f, -0.085871f, 0.088976f, -0.016031f, 0.084334f, 0.065345f,
    -0.045122f, -0.072996f, -0.004217f, 0.011525f, -0.003693f, -0.004561f, 0.096140f, -0.097341f, 0.081799f, 0.049207f,
    -0.037237f, 0.023615f, 0.083633f, -0.005926f, 0.057211f, -0.099901f, -0.061090f, 0.008497f, 0.079472f, -0.065855f,
    0.003865f, -0.072014f, 0.028042f, 0.042041f, -0.054473f, -0.026824f, -0.014969f, -0.011976f, -0.097485f, 0.038754f,
    0.052626f, -0.016382f, -0.056488f, 0.082858f, -0.044720f, -0.015460f, 0.063384f, 0.094577f, -0.021477f, -0.029678f,
    0.001998f, -0.064127f, -0.049689f, -0.062730f, 0.007241f, -0.080834f, 0.053631f, 0.081286f, -0.064102f, -0.001530f,
    0.014976f, -0.005056f, 0.068163f, -0.009007f, -0.047339f, -0.090774f, 0.086386f, -0.010793f, -0.041521f, 0.016649f,
    0.071271f, 0.014180f, 0.047877f, -0.058108f, -0.017183f, 0.059594f, 0.029474f, 0.084621f, -0.062008f, -0.090829f,
    -0.074906f, 0.011836f, 0.018233f, -0.022082f, 0.064086f, -0.055204f, 0.101479f, 0.090688f, -0.035845f, -0.029628f,
    -0.063429f, 0.024154f, 0.081084f, 0.052846f, -0.096875f, -0.095225f, 0.095954f, 0.010821f, 0.017409f, 0.050844f,
    0.011639f, -0.080029f, -0.037751f, 0.038192f, 0.071104f, -0.081610f, -0.035008f, -0.085889f, -0.084489f, -0.039570f,
    0.017070f, -0.068217f, -0.057091f, -0.091927f, -0.098481f, 0.081522f, -0.000024f, 0.092556f, -0.018134f, -0.032021f,
    -0.000828f, 0.010320f, 0.034145f, -0.029275f, -0.027018f, 0.073208f, 0.007976f, 0.084706f, -0.094443f, -0.007413f,
    -0.098595f, -0.076691f, -0.043812f, -0.058999f, -0.087248f, 0.074592f, -0.035461f, -0.093368f, 0.040787f, 0.023124f,
    -0.066573f, 0.019708f, 0.030283f, -0.062326f, -0.096839f, 0.013575f, 0.066804f, 0.074854f, 0.039582f, 0.075297f,
    0.015188f, -0.068381f, -0.085492f, 0.073920f, 0.101743f, 0.097572f, -0.023648f, -0.022446f, 0.097905f, 0.007719f,
    0.035960f, 0.074518f, -0.093431f, 0.092181f, 0.021803f, -0.031603f, 0.089001f, -0.027473f, 0.082209f, 0.034904f,
    0.061285f, -0.014220f, 0.019708f, 0.027136f, -0.069949f, -0.094373f, 0.032761f, -0.079194f, 0.010114f, -0.089381f,
    -0.010308f, 0.027200f, -0.030694f, -0.084735f, 0.061174f, 0.003829f, -0.092257f, 0.005036f, -0.073191f, -0.024259f,
    -0.052441f, -0.021449f, -0.080766f, -0.096863f, -0.007702f, -0.048839f, 0.037200f, 0.038164f, 0.015740f, -0.004022f,
    -0.086511f, 0.033657f, 0.091136f, -0.029161f, -0.095729f, -0.015689f, -0.084301f, -0.060917f, 0.087857f, 0.008852f,
    0.049206f, 0.067025f, -0.085837f, -0.033428f, -0.020690f, 0.100501f, -0.055371f, -0.073427f, -0.014123f, 0.049927f,
    -0.059703f, -0.084873f, 0.075911f, -0.094982f, -0.081964f, 0.070816f, -0.005984f, -0.076164f, 0.018888f, 0.048326f,
    0.013353f, 0.065847f, 0.082223f, 0.006974f, -0.089955f, -0.093915f, -0.050993f, 0.070499f, 0.050764f, 0.016742f,
    0.071349f, 0.021013f, 0.087053f, -0.037808f, 0.097471f, -0.094966f, -0.089023f, 0.018526f, 0.091447f, 0.027733f,
    0.033960f, -0.094717f, 0.015292f, 0.080593f, -0.002385f, 0.047313f, 0.040978f, 0.088682f, 0.025409f, 0.013922f,
    0.012533f, -0.054523f, 0.078819f, 0.075930f, -0.046509f, 0.070488f, 0.028833f, 0.009281f, -0.080839f, -0.084109f,
    -0.051525f, 0.092900f, -0.096896f, 0.100144f, 0.100391f, -0.016781f, -0.009038f, -0.008165f, 0.093632f, -0.048638f,
    -0.081721f, 0.007454f, -0.096706f, 0.071964f, -0.049056f, -0.030086f, 0.061244f, -0.040030f, 0.012542f, -0.028567f,
    -0.026158f, 0.030995f, -0.077650f, 0.029805f, -0.076883f, 0.061457f, 0.034733f, -0.016874f, 0.011552f, 0.010766f,
    0.035464f, -0.040822f, 0.021155f, 0.052484f, -0.022377f, -0.064722f, 0.034646f, -0.052538f, 0.065982f, 0.056378f,
    0.090468f, 0.049383f, -0.060329f, 0.054885f, 0.027324f, -0.055372f, -0.063100f, -0.058753f, -0.048703f, -0.060008f,
    0.019136f, 0.039112f, -0.051084f, -0.072732f, -0.061627f, 0.027545f, 0.071573f, -0.007449f, -0.030352f, -0.069673f,
    -0.065345f, 0.063252f, 0.016427f, -0.069480f, 0.096839f, -0.090668f, 0.047982f, -0.091754f, -0.090452f, 0.099493f,
    -0.097065f, -0.052439f, 0.072941f, -0.031762f, -0.086117f, 0.079352f, 0.067708f, 0.040225f, 0.098455f, -0.076917f,
    -0.002106f, -0.047577f, 0.041210f, 0.021784f, 0.060933f, 0.016115f, 0.016589f, 0.056457f, -0.081831f, 0.009635f,
    0.030139f, 0.065243f, -0.069146f, 0.023790f, -0.010196f, 0.077441f, 0.100557f, -0.092882f, -0.082903f, 0.009194f,
    0.077121f, 0.086668f, -0.038041f, -0.036115f, 0.061169f, -0.006302f, 0.067425f, -0.072142f, -0.037317f, 0.039668f,
    -0.048293f, -0.031775f, 0.059290f, 0.028952f, 0.097607f, 0.083419f, -0.007818f, 0.100378f, 0.060385f, -0.020737f,
    0.073196f, 0.011498f, -0.063186f, -0.009888f, 0.012263f, -0.059123f, -0.013628f, -0.087084f, -0.069088f, 0.056978f,
    -0.038808f, -0.029264f, 0.016541f, 0.046639f, -0.000681f, 0.023022f, -0.077555f, -0.078814f, -0.056718f, -0.001218f,
    0.078581f, -0.078400f, -0.098596f, -0.068884f, 0.059653f, -0.055383f, -0.091573f, 0.012911f, 0.037483f, -0.082454f,
    -0.094152f, 0.013527f, 0.064759f, -0.095413f, 0.004028f, -0.046791f, -0.027791f, -0.026045f, 0.012653f, 0.052892f,
    -0.045239f, 0.085917f, -0.043937f, 0.096693f, -0.000787f, -0.066078f, 0.026790f, -0.084335f, 0.083622f, 0.096962f,
    0.035332f, -0.036237f, -0.061388f, -0.070106f, 0.070509f, -0.091204f, -0.092707f, 0.026795f, 0.054780f, -0.046555f,
    -0.082330f, 0.012198f, -0.028988f, -0.093306f, 0.087234f, -0.096916f, -0.035592f, 0.043607f, 0.095678f, 0.067478f,
    0.089116f, 0.067450f, -0.041096f, 0.038166f, -0.085635f, 0.060243f, -0.010098f, -0.023610f, -0.006989f, -0.089703f,
    -0.076534f, -0.067723f, 0.059926f, -0.084628f, -0.071279f, 0.003150f, 0.111669f, 0.042654f, -0.093884f, -0.058980f,
    0.020248f, 0.033774f, 0.089060f, -0.020640f, 0.042575f, -0.044549f, -0.004666f, 0.057252f, 0.030937f, 0.051733f,
    -0.070645f, 0.072022f, 0.054192f, 0.051008f, -0.044867f, 0.035189f, 0.053853f, -0.003219f, -0.013127f, 0.091666f,
    -0.059847f, 0.032057f, -0.070589f, 0.045310f, -0.023934f, 0.034228f, -0.031397f, 0.028063f, 0.029726f, -0.079014f,
    0.003115f, -0.084307f, 0.075456f, 0.105486f, 0.051115f, 0.058118f, 0.025258f, 0.035912f, 0.012119f, 0.009010f,
    0.074655f, -0.095335f, 0.022539f, -0.096778f, -0.002082f, 0.002542f, 0.041571f, 0.024415f, 0.039540f, 0.066228f,
    0.074149f, 0.034464f, 0.006629f, -0.089925f, 0.035845f, -0.027780f, 0.072333f, 0.086442f, -0.100648f, 0.040183f,
    -0.046653f, -0.043006f, 0.003028f, 0.089052f, 0.070732f, 0.034479f, -0.083132f, 0.093374f, 0.082369f, -0.106230f,
    -0.016603f, -0.053274f, 0.024605f, -0.036190f, 0.060139f, -0.016483f, 0.017465f, 0.007119f, 0.002056f, 0.034443f,
    0.020086f, 0.081816f, 0.063448f, -0.076576f, -0.082662f, 0.061594f, -0.009961f, -0.090102f, 0.022401f, 0.011126f,
    0.008123f, 0.071878f, 0.024167f, 0.007975f, 0.025181f, 0.075865f, 0.068162f, 0.067936f, -0.033402f, -0.041660f,
    -0.009185f, 0.014090f, -0.064586f, -0.088281f, 0.087970f, -0.014027f, -0.089336f, 0.008861f, -0.064938f, 0.079274f,
    -0.080247f, -0.084758f, 0.070550f, -0.063916f, -0.040162f, -0.078680f, -0.035477f, -0.012337f, 0.070809f, 0.058021f,
    -0.017620f, -0.078699f, 0.050686f, 0.023821f, -0.032186f, 0.006934f, 0.002568f, 0.009876f, 0.074976f, 0.077343f,
    0.071976f, -0.091073f, -0.050497f, 0.057993f, -0.076431f, -0.104676f, -0.044487f, -0.021708f, -0.077878f, -0.101256f,
    0.076997f, 0.063705f, 0.050960f, -0.029781f, -0.014070f, -0.045731f, -0.000137f, -0.078317f, 0.017224f, 0.099738f,
    -0.015009f, -0.064650f, 0.072937f, 0.058510f, -0.027086f, 0.007159f, 0.019648f, 0.079413f, 0.072269f, 0.005804f,
    -0.030368f, 0.093412f, 0.030751f, 0.112937f, 0.094450f, -0.094172f, 0.051130f, -0.101789f, -0.010792f, -0.021632f,
    -0.080206f, -0.064505f, -0.006484f, -0.019556f, -0.083076f, -0.038057f, -0.029971f, -0.057160f, 0.058863f, 0.012105f,
    -0.054658f, -0.040147f, 0.093948f, -0.011663f, 0.024280f, -0.079494f, -0.041254f, -0.013039f, -0.077499f, -0.039018f,
    -0.026374f, -0.010593f, 0.078640f, 0.080283f, 0.097324f, -0.032231f, -0.017707f, 0.068855f, 0.075556f, -0.016850f,
    0.018524f, 0.031964f, 0.040591f, -0.037840f, -0.010393f, 0.081253f, 0.079089f, -0.061273f, 0.030988f, -0.073736f,
    -0.096302f, -0.056512f, 0.074226f, -0.000995f, -0.091771f, 0.027469f, 0.058631f, -0.080243f, 0.037527f, 0.075254f,
    -0.076916f, 0.093360f, 0.077401f, 0.047997f, 0.084750f, 0.004924f, 0.044129f, 0.075082f, -0.084011f, -0.078560f,
    0.102947f, -0.077900f, 0.019090f, -0.074212f, -0.019566f, 0.010712f, 0.060808f, 0.028717f, 0.102899f, -0.013063f,
    0.088290f, 0.037397f, -0.090287f, 0.069972f, -0.012182f, 0.085203f, -0.037993f, 0.107310f, 0.093667f, 0.081545f,
    0.012820f, -0.108029f, -0.085359f, -0.038866f, -0.085656f, 0.029904f, 0.076197f, 0.096661f, 0.055028f, -0.035062f,
    0.030609f, 0.013760f, 0.001383f, -0.083324f, -0.044386f, 0.037126f, 0.092500f, 0.061080f, -0.054723f, -0.034216f,
    0.061217f, -0.045170f, -0.061269f, 0.115244f, 0.085591f, -0.023161f, -0.001913f, 0.076720f, -0.013941f, 0.089460f,
    -0.059664f, -0.009540f, 0.048732f, -0.074697f, 0.059063f, -0.023622f, -0.076391f, -0.087482f, 0.016363f, 0.095194f,
    -0.055047f, 0.045298f, -0.019060f, -0.014129f, 0.009180f, -0.097432f, 0.077924f, -0.032306f, 0.066611f, 0.047982f,
    0.053274f, -0.106740f, 0.040927f, 0.080514f, -0.005644f, -0.061947f, -0.096560f, 0.043826f, 0.078517f, 0.015580f,
    -0.016131f, 0.047136f, -0.081942f, -0.008158f, 0.056137f, -0.038307f, 0.055207f, -0.045526f, -0.034863f, 0.098734f,
    0.086195f, -0.010020f, -0.094578f, -0.038822f, -0.009085f, 0.063616f, 0.013788f, 0.063339f, 0.048407f, -0.052707f,
    -0.045656f, -0.049097f, -0.027731f, 0.000764f, 0.010733f, 0.064491f, 0.043068f, 0.004162f, 0.098715f, 0.012751f,
    -0.090469f, -0.056366f, 0.070313f, 0.090032f, -0.014431f, -0.059646f, 0.021561f, 0.064869f, 0.076089f, -0.057243f,
    0.089445f, 0.100463f, 0.044982f, 0.077765f, 0.042862f, 0.081962f, 0.022749f, 0.066885f, 0.005311f, 0.009588f,
    -0.044634f, 0.017759f, 0.002469f, -0.071794f, -0.060430f, 0.083162f, -0.057979f, -0.029104f, 0.086908f, 0.030709f,
    0.031226f, 0.040342f, 0.093302f, -0.065488f, 0.051800f, -0.058542f, -0.003734f, 0.016608f, -0.021639f, 0.033921f,
    -0.010225f, 0.084973f, 0.053281f, 0.047316f, -0.067453f, -0.000167f, -0.015301f, 0.078325f, 0.094837f, -0.074194f,
    -0.063895f, 0.034616f, 0.022020f, 0.014559f, 0.082115f, 0.092313f, -0.047700f, 0.034775f, 0.078157f, -0.032951f,
    -0.021187f, -0.065098f, -0.071238f, 0.003630f, -0.055106f, 0.024783f, 0.036457f, -0.034846f, 0.003728f, -0.028756f,
    -0.006762f, 0.082756f, -0.061890f, 0.014639f, 0.014427f, 0.100458f, 0.039584f, -0.031178f, -0.073421f, -0.087039f,
    0.081787f, -0.073818f, 0.059409f, -0.041068f, -0.000347f, -0.028706f, 0.022487f, -0.051294f, -0.060689f, 0.029114f,
    0.024204f, -0.015623f, 0.053773f, 0.021644f, 0.016502f, 0.052798f, 0.002083f, -0.105913f, -0.018863f, 0.049196f,
    -0.061590f, 0.073574f, 0.013771f, 0.025283f, 0.023961f, -0.085412f, -0.070702f, 0.023527f, 0.011686f, -0.004953f,
    0.072673f, 0.078870f, 0.006194f, -0.044360f, -0.019818f, -0.009881f, 0.082926f, 0.079865f, -0.040096f, -0.047542f,
    -0.018407f, -0.068788f, 0.002301f, 0.087005f, -0.101920f, 0.106392f, -0.086416f, 0.050593f, 0.022044f, -0.043562f,
    0.037289f, 0.020155f, -0.046834f, 0.024255f, -0.045364f, -0.024362f, 0.035564f, 0.085717f, 0.008029f, -0.091011f,
    0.059051f, 0.066258f, -0.016356f, -0.017237f, 0.011288f, 0.066900f, -0.018704f, 0.072212f, 0.091984f, -0.020340f,
    -0.003043f, -0.002493f, 0.075032f, -0.063483f, 0.053257f, -0.067611f, 0.009336f, -0.060346f, -0.095938f, -0.000543f,
    -0.063012f, -0.073579f, 0.084116f, -0.045928f, -0.071385f, -0.092108f, 0.088331f, 0.093778f, -0.010317f, 0.098390f,
    0.021042f, -0.026894f, 0.065257f, -0.070382f, -0.050624f, 0.066150f, 0.082138f, -0.044410f, 0.052037f, -0.065751f,
    -0.094134f, 0.047167f, 0.000992f, 0.018207f, 0.020010f, -0.027588f, -0.042441f, 0.063055f, -0.085208f, 0.029899f,
    -0.041013f, -0.084607f, 0.098527f, -0.008932f, -0.093539f, 0.040252f, 0.094006f, 0.080700f, -0.090148f, 0.083824f,
    -0.042596f, 0.064666f, 0.010820f, 0.081211f, -0.093563f, 0.001711f, -0.093080f, -0.054944f, -0.100714f, 0.057921f,
    0.076555f, -0.072157f, 0.040949f, 0.008220f, -0.091102f, 0.086845f, -0.051907f, 0.043177f, -0.066003f, 0.027505f,
    0.082229f, -0.051491f, -0.037096f, -0.057788f, 0.019230f, 0.008384f, -0.067925f, -0.038960f, -0.061508f, 0.079658f,
    -0.083259f, 0.028714f, -0.056121f, 0.002264f, 0.010779f, 0.081082f, -0.053109f, -0.072408f, -0.025769f, -0.099646f,
    -0.070366f, -0.076192f, 0.047351f, -0.079952f, -0.039602f, -0.101777f, -0.088733f, -0.070151f, 0.101120f, 0.072689f,
    0.091397f, 0.018771f, 0.035097f, -0.046025f, 0.060805f, -0.026783f, 0.003423f, -0.005823f, 0.052898f, 0.003010f,
    -0.020299f, -0.085965f, -0.085477f, 0.057172f, 0.084383f, 0.084783f, 0.006929f, 0.079890f, 0.010347f, 0.013222f,
    0.096608f, -0.020376f, -0.070785f, 0.015061f, 0.076513f, 0.074201f, 0.060469f, 0.091096f, -0.063166f, 0.071458f,
    -0.016789f, 0.042810f, -0.056781f, 0.039865f, 0.098850f, -0.009040f, 0.017708f, 0.068163f, -0.039187f, -0.052498f,
    0.082123f, 0.004762f, 0.018369f, -0.068804f, -0.017697f, -0.042542f, -0.100380f, -0.012290f, 0.069587f, -0.021131f,
    -0.003363f, 0.080311f, 0.052956f, 0.066667f, -0.069516f, -0.077956f, 0.057123f, 0.044226f, 0.068652f, 0.022241f,
    -0.055201f, -0.094405f, -0.074779f, -0.081020f, -0.066515f, -0.071989f, -0.002869f, -0.101911f, 0.011876f, 0.027736f,
    0.081941f, 0.032328f, 0.003624f, 0.097293f, -0.073120f, -0.072612f, -0.053962f, 0.018563f, -0.008115f, 0.022487f,
    -0.061943f, 0.059658f, -0.024824f, 0.067610f, -0.096047f, 0.045190f, 0.001351f, -0.094132f, -0.026901f, 0.057378f,
    -0.037070f, -0.097833f, 0.085353f, -0.080243f, 0.040675f, 0.052821f, 0.055365f, -0.099866f, 0.093674f, -0.003866f,
    0.081105f, -0.057799f, 0.005861f, -0.078288f, 0.000458f, 0.065277f, 0.048787f, -0.059733f, -0.026489f, 0.028577f,
    -0.018170f, -0.089819f, 0.084867f, -0.098393f, -0.080679f, -0.019929f, -0.017970f, 0.055762f, -0.082536f, 0.039396f,
    -0.025519f, 0.065271f, 0.017650f, 0.085694f, 0.003988f, -0.050169f, 0.083008f, -0.001779f, -0.099026f, -0.092339f,
    0.086880f, 0.066764f, 0.057661f, -0.037878f, 0.028599f, -0.100128f, 0.090239f, -0.077758f, 0.012412f, -0.061607f,
    -0.069525f, -0.077437f, -0.092119f, 0.091410f, -0.059111f, 0.050635f, 0.027614f, 0.073720f, -0.014687f, 0.085047f,
    -0.031329f, 0.025267f, -0.098185f, -0.058623f, -0.073755f, 0.081459f, 0.037635f, 0.016558f, -0.061445f, -0.101896f,
    -0.083517f, 0.076961f, 0.058557f, -0.053604f, -0.063697f, 0.076581f, -0.069410f, -0.014776f, -0.042291f, 0.039409f,
    0.002514f, 0.099745f, -0.040689f, 0.025241f, -0.020512f, 0.006868f, 0.094840f, -0.074298f, 0.077602f, -0.005675f,
    0.024036f, -0.052260f, 0.038913f, 0.042115f, 0.094414f, -0.004041f, -0.059649f, 0.040623f, 0.028868f, -0.010961f,
    0.060834f, -0.085742f, 0.071737f, -0.024490f, 0.022983f, 0.003072f, 0.045403f, 0.093208f, 0.003995f, -0.100983f,
    -0.064989f, -0.066978f, -0.016201f, -0.033651f, 0.059024f, -0.082523f, -0.067191f, -0.048320f, 0.088045f, 0.027603f,
    -0.074053f, -0.031297f, 0.075194f, 0.072306f, -0.012022f, -0.040479f, 0.054055f, -0.013028f, -0.058194f, 0.005274f,
    0.085797f, 0.065915f, -0.091950f, -0.080949f, -0.023977f, -0.056068f, -0.093329f, -0.077374f, -0.096115f, 0.080128f,
    -0.022643f, -0.023994f, -0.001718f, -0.042443f, 0.080136f, 0.047453f, 0.031567f, -0.095364f, 0.100688f, -0.046587f,
    -0.077610f, 0.058069f, 0.076794f, 0.025285f, 0.033397f, 0.060636f, -0.068898f, 0.098265f, -0.091388f, 0.044424f,
    0.043005f, -0.021125f, 0.068288f, -0.073811f, 0.066137f, -0.018266f, -0.019794f, 0.077610f, -0.007746f, -0.064126f,
    -0.076423f, -0.078710f, -0.029640f, 0.091798f, 0.089962f, -0.010879f, -0.045343f, -0.037739f, -0.086979f, -0.100125f,
    0.002599f, -0.094484f, 0.035251f, 0.015269f, -0.065650f, 0.099696f, -0.016453f, 0.031571f, 0.049696f, 0.028946f,
    -0.076227f, 0.021347f, 0.069253f, -0.054879f, 0.101678f, -0.028570f, 0.057737f, -0.075907f, 0.019249f, 0.060305f,
    -0.100845f, -0.096266f, -0.094935f, -0.080794f, 0.018333f, 0.002518f, 0.048610f, 0.004005f, -0.013946f, -0.042196f,
    0.066074f, -0.060835f, -0.044410f, -0.053255f, -0.029377f, 0.039476f, -0.100092f, -0.074611f, -0.017275f, -0.042924f,
    -0.028950f, 0.052964f, -0.088818f, 0.070940f, 0.037523f, 0.063189f, 0.050467f, -0.053297f, 0.056091f, 0.071709f,
    -0.090511f, -0.032152f, 0.052800f, 0.057339f, 0.006806f, -0.022196f, -0.043955f, 0.050156f, -0.025514f, -0.059844f,
    -0.065314f, -0.093258f, 0.013761f, -0.013734f, -0.017491f, -0.073424f, 0.028956f, 0.077240f, -0.027114f, 0.053806f,
    0.055316f, 0.083090f, 0.021886f, -0.013786f, -0.082314f, 0.064787f, -0.070541f, 0.039899f, -0.009497f, -0.065284f,
    -0.046522f, -0.019382f, -0.004617f, 0.056588f, -0.066734f, -0.005147f, 0.069294f, 0.095530f, -0.006636f, 0.049547f,
    -0.037686f, 0.050669f, 0.042232f, -0.035197f, 0.028951f, 0.089304f, -0.064097f, -0.062612f, 0.046036f, -0.061108f,
    0.100165f, 0.068076f, 0.032417f, -0.071772f, -0.018918f, -0.021779f, -0.054240f, -0.089731f, -0.086452f, 0.052946f,
    -0.080351f, 0.026022f, -0.094534f, -0.011926f, -0.023444f, -0.045511f, 0.095773f, -0.096446f, 0.012512f, -0.044974f,
    -0.068874f, 0.080931f, 0.077503f, -0.062669f, -0.031924f, -0.029427f, 0.028226f, 0.096245f, 0.094715f, -0.029496f,
    -0.013375f, 0.043854f, 0.032754f, -0.005225f, -0.068127f, -0.041602f, 0.091334f, -0.044702f, 0.043803f, 0.066587f,
    0.044240f, -0.038546f, -0.074423f, -0.033809f, -0.093515f, 0.011716f, 0.085603f, 0.039046f, 0.036450f, -0.058686f,
    0.058565f, 0.028292f, -0.040508f, 0.107229f, 0.048245f, 0.070900f, -0.061370f, 0.021548f, 0.054944f, 0.018540f,
    -0.039760f, -0.046005f, -0.039227f, 0.062326f, -0.066737f, 0.036002f, -0.091764f, -0.024271f, -0.040778f, 0.075959f,
    0.063434f, 0.012684f, -0.084088f, -0.007957f, -0.082106f, 0.020973f, -0.018205f, -0.003400f, -0.061432f, 0.037846f,
    -0.066823f, 0.060968f, 0.015913f, -0.018471f, 0.077895f, 0.074678f, 0.042509f, 0.015239f, 0.051691f, -0.087482f,
    0.017393f, 0.082315f, -0.052596f, 0.000525f, 0.062722f, 0.054009f, 0.027370f, 0.096456f, 0.058863f, 0.053851f,
    -0.014662f, 0.098482f, 0.073364f, -0.015489f, -0.058836f, 0.083476f, -0.080773f, 0.013404f, -0.043978f, 0.019303f,
    0.012149f, 0.092970f, -0.029648f, -0.076535f, 0.042142f, -0.093275f, 0.039938f, 0.071626f, 0.052249f, 0.031477f,
    0.102098f, -0.081098f, 0.019753f, -0.019346f, -0.009728f, 0.097723f, -0.091662f, -0.078204f, -0.046255f, -0.075761f,
    0.071626f, -0.056914f, 0.039719f, -0.065237f, 0.060572f, 0.090336f, 0.057079f, 0.017674f, 0.008385f, -0.085461f,
    -0.008465f, 0.039868f, -0.066944f, -0.023294f, 0.046454f, 0.045126f, 0.083176f, 0.060127f, -0.016357f, -0.062710f,
    0.099655f, -0.070470f, 0.085207f, 0.078022f, -0.026059f, -0.038615f, -0.005701f, -0.055284f, 0.065080f, -0.095461f,
    0.082127f, -0.032806f, 0.042524f, -0.012863f, -0.093086f, 0.058829f, 0.046120f, 0.086225f, 0.002062f, 0.037661f,
    0.014724f, 0.067613f, 0.076952f, 0.095612f, 0.050319f, 0.074563f, -0.096974f, -0.018481f, -0.068893f, -0.023148f,
    0.019209f, 0.037653f, 0.035797f, -0.010304f, 0.073819f, -0.044622f, 0.058771f, 0.034168f, 0.007776f, 0.062729f,
    0.065942f, 0.052658f, 0.008024f, 0.049553f, -0.022015f, 0.011448f, -0.072892f, -0.042048f, -0.027530f, 0.061343f,
    -0.049036f, -0.090285f, 0.003001f, 0.037521f, 0.058710f, 0.039161f, -0.009282f, -0.050612f, -0.064680f, 0.066427f,
    0.025386f, -0.036526f, 0.032205f, -0.073036f, -0.072223f, -0.061773f, 0.083904f, 0.053688f, -0.047629f, 0.002152f,
    -0.073034f, -0.072766f, -0.060807f, 0.017023f, 0.023564f, 0.066695f, -0.083620f, 0.041121f, 0.007643f, -0.075934f,
    0.010993f, -0.087604f, -0.080423f, -0.104154f, -0.021066f, -0.043761f, -0.012809f, 0.068445f, 0.059968f, 0.080829f,
    0.021631f, -0.041893f, 0.071567f, -0.042766f, 0.076127f, 0.058487f, -0.046791f, 0.028078f, -0.047598f, 0.004940f,
    -0.055298f, 0.082773f, 0.005954f, -0.062736f, 0.002229f, -0.034003f, 0.047657f, 0.025622f, 0.003928f, -0.082729f,
    -0.029435f, -0.008957f, 0.072919f, -0.010684f, 0.007534f, 0.022995f, -0.080493f, -0.015738f, 0.079952f, 0.053977f,
    -0.041256f, 0.023669f, -0.075315f, 0.057886f, 0.004386f, -0.092727f, 0.047699f, -0.092361f, -0.079910f, -0.007443f,
    -0.032340f, 0.025142f, -0.019829f, 0.103551f, 0.006751f, -0.010486f, 0.088843f, -0.019266f, -0.008915f, 0.085438f,
    0.029559f, 0.084253f, -0.074535f, 0.024948f, -0.016138f, 0.007368f, -0.088814f, -0.015804f, 0.010621f, -0.087386f,
    -0.039969f, 0.101070f, -0.050626f, 0.060621f, 0.069312f, 0.074219f, 0.043063f, 0.021885f, -0.009736f, -0.025570f,
    -0.075524f, -0.050266f, -0.002009f, -0.087671f, -0.055699f, 0.054475f, 0.030813f, -0.027323f, 0.005989f, 0.052661f,
    -0.068924f, 0.079899f, 0.047432f, -0.045125f, -0.010027f, 0.038741f, -0.014103f, 0.086380f, 0.002404f, -0.010149f,
    -0.047602f, 0.049572f, -0.072823f, 0.093381f, -0.020015f, 0.012699f, -0.026681f, -0.028806f, 0.008215f, -0.044642f,
    0.064031f, 0.101139f, 0.027566f, -0.063404f, -0.002977f, 0.036767f, 0.080502f, 0.036579f, -0.073107f, -0.086410f,
    -0.021914f, 0.063494f, 0.047000f, 0.017206f, -0.075368f, 0.072502f, -0.088562f, -0.038618f, -0.092868f, -0.057189f,
    0.078543f, 0.056204f, 0.105811f, 0.003258f, 0.077185f, 0.087581f, -0.056556f, -0.058575f, -0.063965f, -0.060453f,
    0.057971f, -0.101344f, -0.067518f, 0.090671f, 0.038358f, 0.059880f, -0.106359f, 0.083344f, -0.047952f, -0.047178f,
    0.050864f, -0.045794f, -0.031697f, -0.088030f, 0.036495f, 0.064734f, -0.077618f, 0.015252f, 0.070111f, 0.101493f,
    -0.043036f, -0.003961f, -0.027158f, -0.101708f, -0.021221f, 0.096064f, -0.041684f, 0.034158f, 0.054386f, 0.027210f,
    -0.109160f, 0.088950f, -0.027390f, -0.006737f, -0.075961f, -0.018663f, -0.031673f, -0.078135f, 0.016553f, 0.087012f,
    0.014964f, 0.105253f, 0.084366f, 0.008547f, 0.080059f, -0.054608f, -0.093746f, -0.016088f, -0.062181f, 0.043049f,
    0.008193f, -0.056772f, -0.055118f, 0.030925f, -0.069661f, 0.049153f, -0.010988f, 0.067950f, -0.075864f, 0.100980f,
    0.048914f, -0.070961f, 0.079432f, 0.014750f, -0.024186f, 0.021284f, 0.006845f, 0.060166f, 0.055174f, -0.065913f,
    0.069613f, -0.076599f, -0.038416f, 0.049368f, -0.040967f, -0.068707f, -0.021882f, 0.055426f, -0.080169f, 0.061731f,
    0.059333f, -0.051699f, 0.007619f, 0.026399f, -0.053786f, 0.036484f, -0.046047f, -0.019211f, 0.056188f, 0.008939f,
    -0.000234f, -0.024154f, 0.024950f, 0.035929f, -0.018941f, -0.094872f, 0.005554f, -0.033233f, 0.046984f, -0.066150f,
    -0.082381f, 0.035571f, 0.072742f, -0.011870f, 0.074476f, 0.066238f, -0.007240f, 0.014859f, 0.105283f, -0.007756f,
    0.050150f, -0.029418f, 0.054737f, 0.032615f, -0.087846f, -0.060926f, -0.076182f, -0.070560f, 0.036415f, 0.019783f,
    0.100439f, -0.070987f, -0.047326f, 0.020554f, 0.055064f, -0.014551f, 0.031829f, 0.094485f, 0.030087f, -0.033237f,
    0.087073f, 0.014283f, 0.045220f, 0.053995f, 0.071382f, -0.090023f, 0.087095f, -0.025776f, 0.012198f, 0.034449f,
    -0.019509f, -0.044471f, -0.054499f, 0.091364f, 0.107703f, -0.087054f, -0.061830f, 0.074941f, -0.052541f, 0.055235f,
    -0.054098f, 0.017066f, -0.098103f, -0.023508f, 0.086595f, 0.068484f, 0.012795f, 0.006883f, -0.047916f, 0.105170f,
    0.040066f, -0.081045f, -0.095036f, -0.039198f, 0.064737f, 0.022404f, -0.023941f, -0.021021f, 0.091359f, -0.013130f,
    0.049980f, 0.038422f, 0.068637f, -0.008114f, -0.070854f, 0.049862f, 0.052296f, 0.058199f, -0.089316f, -0.006949f,
    0.012891f, -0.091756f, 0.067605f, 0.093792f, 0.047614f, -0.070469f, -0.016308f, -0.077264f, 0.065557f, -0.067118f,
    0.089037f, -0.081453f, -0.020152f, 0.004042f, -0.012433f, -0.070712f, 0.078192f, 0.091440f, -0.062334f, 0.037933f,
    0.028766f, -0.022602f, -0.048581f, 0.070983f, -0.061575f, 0.029535f, 0.071074f, -0.087713f, -0.016572f, -0.090272f,
    -0.025936f, -0.012873f, -0.042344f, 0.094085f, 0.088717f, 0.066749f, -0.075853f, -0.007260f, -0.003066f, 0.002063f,
    0.075269f, 0.050237f, -0.039149f, -0.010842f, -0.060955f, -0.049974f, 0.012077f, -0.006191f, 0.004598f, -0.049878f,
    -0.052271f, 0.041760f, 0.059580f, -0.101175f, 0.051460f, -0.096814f, 0.050895f, -0.010851f, 0.065270f, -0.034735f,
    -0.006233f, 0.091949f, -0.031746f, -0.101483f, 0.051845f, -0.060951f, -0.077333f, 0.058413f, 0.009432f, 0.085357f,
    -0.020890f, -0.094346f, -0.034188f, -0.010946f, 0.090599f, -0.002984f, 0.004963f, -0.003729f, 0.101432f, 0.083378f,
    0.055496f, 0.050078f, -0.042764f, -0.082495f, -0.056576f, -0.019996f, -0.003245f, -0.016458f, 0.094335f, -0.086317f,
    0.064422f, 0.082284f, 0.080895f, 0.068425f, 0.014366f, -0.077554f, -0.083754f, -0.004294f, 0.031507f, -0.024649f,
    -0.101438f, -0.039718f, 0.010010f, -0.056785f, -0.027723f, -0.063669f, -0.014044f, 0.029218f, -0.041565f, 0.093907f,
    0.060980f, -0.055534f, 0.007133f, -0.035160f, -0.004071f, 0.027473f, -0.043932f, -0.022755f, -0.000667f, -0.078349f,
    0.090772f, 0.050615f, 0.064002f, -0.034880f, 0.022896f, -0.097259f, -0.032815f, 0.029137f, 0.084568f, 0.040236f,
    -0.099675f, 0.047395f, -0.045353f, 0.064210f, 0.050448f, -0.093727f, -0.011850f, -0.056571f, 0.021172f, -0.084717f,
    -0.052261f, 0.068634f, -0.068730f, -0.072489f, -0.101005f, -0.044841f, 0.038431f, -0.086057f, -0.072903f, 0.078997f,
    0.074049f, 0.045722f, -0.056883f, 0.006042f, 0.010667f, 0.038729f, 0.082202f, -0.085230f, -0.034263f, -0.011534f,
    0.094124f, -0.080185f, -0.049943f, 0.047609f, -0.022280f, 0.066572f, -0.060400f, 0.074965f, 0.083343f, 0.042856f,
    -0.101221f, -0.028318f, -0.070982f, -0.076612f, 0.074729f, 0.020812f, 0.096290f, 0.101812f, 0.030059f, -0.068979f,
    0.075430f, 0.040835f, 0.096487f, 0.044699f, 0.059132f, 0.014113f, 0.043512f, -0.003476f, -0.022368f, -0.012981f,
    0.080198f, -0.017997f, -0.079533f, 0.079013f, 0.058388f, 0.071883f, -0.070865f, -0.074891f, -0.074407f, -0.007532f,
    0.077666f, 0.040121f, 0.031310f, -0.038989f, 0.011465f, 0.083087f, -0.046201f, -0.006592f, -0.094173f, 0.017234f,
    0.020877f, 0.047878f, -0.030364f, -0.077911f, -0.029144f, -0.070368f, 0.087343f, 0.087998f, -0.023133f, -0.076236f,
    -0.031224f, 0.018359f, 0.063829f, -0.018414f, -0.084369f, 0.039118f, 0.052225f, 0.099684f, 0.004867f, 0.015725f,
    -0.043307f, -0.048018f, 0.046183f, -0.012729f, 0.020837f, -0.046969f, 0.072041f, -0.014934f, 0.044558f, 0.078073f,
    -0.035750f, -0.094192f, -0.048911f, 0.042584f, -0.090626f, 0.091403f, 0.053219f, 0.000705f, -0.095621f, -0.083516f,
    0.003394f, -0.029576f, -0.016361f, 0.040821f, -0.006144f, -0.090686f, 0.060672f, -0.066195f, -0.060107f, 0.087901f,
    0.035181f, -0.085225f, 0.085546f, 0.078414f, -0.049956f, -0.009354f, -0.049470f, 0.094665f, -0.030058f, 0.009297f,
    -0.069725f, 0.003863f, 0.101200f, -0.091516f, 0.045170f, 0.059852f, 0.023255f, 0.074794f, -0.034340f, -0.053879f,
    -0.078627f, -0.007071f, -0.031446f, 0.042604f, -0.059062f, -0.025030f, 0.089633f, 0.054983f, -0.081582f, 0.030175f,
    -0.007182f, 0.075987f, -0.074797f, -0.012907f, 0.052556f, -0.086078f, 0.036482f, -0.026449f, 0.096115f, 0.093566f,
    -0.059421f, 0.028398f, -0.059646f, -0.075906f, 0.002291f, 0.016848f, -0.037786f, 0.018651f, 0.073218f, -0.096471f,
    0.078370f, 0.029791f, -0.101893f, 0.048361f, -0.030955f, 0.026233f, -0.023235f, -0.042208f, 0.065163f, -0.087111f,
    0.100256f, -0.043044f, -0.082413f, -0.093176f, 0.078725f, -0.033343f, 0.060366f, -0.080196f, 0.003145f, 0.049408f,
    -0.037984f, -0.032734f, 0.019265f, 0.001704f, 0.061355f, 0.048054f, -0.014280f, 0.011045f, 0.031435f, 0.057581f,
    -0.073412f, 0.022872f, 0.017377f, 0.047290f, -0.098470f, 0.043382f, 0.027996f, -0.063738f, -0.034855f, -0.011914f,
    -0.052277f, -0.063751f, -0.081799f, -0.001350f, -0.002958f, -0.089234f, 0.063159f, 0.063125f, 0.006876f, 0.085864f,
    -0.020264f, 0.046370f, -0.024466f, -0.078729f, -0.092979f, -0.011074f, -0.044699f, -0.099265f, 0.057642f, 0.091902f,
    -0.073491f, 0.021688f, -0.054356f, 0.075936f, 0.064197f, 0.086411f, 0.074967f, 0.038380f, 0.094471f, -0.072803f,
    -0.066074f, 0.060988f, -0.025932f, 0.040068f, -0.069808f, -0.036986f, -0.080738f, -0.050784f, -0.092938f, -0.039937f,
    -0.039680f, 0.053251f, -0.085159f, 0.066501f, 0.079811f, 0.059880f, -0.010432f, -0.026114f, -0.003324f, 0.078405f,
    -0.032739f, 0.014408f, -0.098940f, 0.083984f, 0.039668f, -0.071090f, 0.029397f, 0.040445f, 0.085292f, -0.043538f,
    0.009412f, -0.101227f, 0.056729f, -0.096065f, -0.007783f, 0.094517f, 0.077917f, 0.032139f, 0.040202f, 0.016437f,
    -0.020869f, -0.001321f, -0.078669f, -0.034391f, 0.062970f, 0.072847f, 0.020186f, 0.048388f, 0.006956f, -0.028652f,
    -0.028285f, -0.088907f, -0.087574f, -0.098780f, -0.054411f, -0.069563f, -0.018646f, -0.091534f, -0.031006f, 0.074587f,
    -0.061609f, -0.067040f, -0.012831f, 0.003700f, -0.024119f, 0.026730f, -0.068186f, 0.062904f, -0.069560f, 0.094533f,
    0.054397f, 0.003421f, -0.100104f, 0.020625f, -0.101631f, 0.007907f, 0.041488f, -0.091860f, 0.082313f, -0.011713f,
    0.057758f, -0.016148f, -0.008849f, 0.080643f, -0.017438f, -0.048790f, -0.070996f, -0.017688f, 0.068402f, 0.037741f,
    0.039278f, 0.031551f, 0.075697f, 0.070641f, -0.059789f, -0.081813f, -0.054452f, -0.089587f, 0.098968f, 0.005284f,
    0.033403f, -0.028118f, 0.011677f, 0.059364f, 0.000310f, 0.033426f, 0.050415f, -0.086590f, 0.016218f, 0.025755f,
    -0.062433f, -0.078094f, -0.058109f, -0.083970f, 0.088558f, 0.086396f, 0.050837f, 0.030235f, -0.035608f, -0.100913f,
    -0.011755f, -0.099771f, -0.096460f, -0.029275f, -0.028586f, -0.042814f, 0.061496f, -0.026195f, -0.031616f, 0.054011f,
    0.012007f, 0.055625f, -0.022396f, 0.055562f, -0.028332f, 0.080203f, -0.061027f, 0.076253f, -0.036131f, -0.054014f,
    0.019418f, 0.038732f, 0.006863f, 0.030947f, 0.079406f, 0.018560f, 0.077900f, 0.029829f, -0.046362f, 0.031808f,
    0.026519f, -0.023022f, -0.101727f, -0.066141f, 0.068403f, 0.094864f, -0.068378f, 0.098649f, -0.028172f, -0.007234f,
    -0.086754f, 0.043449f, -0.022876f, -0.068470f, 0.049269f, -0.027445f, 0.051716f, -0.022760f, -0.076183f, 0.049624f,
    -0.010775f, 0.066588f, -0.035857f, -0.020755f, 0.099342f, -0.049467f, -0.015090f, 0.042958f, 0.069139f, -0.023335f,
    -0.072501f, -0.034813f, 0.012424f, -0.005264f, 0.098507f, 0.018654f, -0.069467f, -0.015620f, -0.027814f, -0.092535f,
    0.098451f, 0.098412f, -0.091772f, -0.084230f, 0.056396f, 0.006859f, -0.038491f, 0.074762f, -0.011039f, -0.061469f,
    0.031826f, 0.048970f, 0.085042f, -0.031281f, 0.094587f, 0.034628f, 0.094767f, 0.000955f, 0.018534f, 0.038689f,
    0.098730f, 0.035729f, -0.092900f, -0.032367f, 0.033819f, -0.097538f, 0.039476f, 0.006304f, 0.018035f, 0.032860f,
    0.038910f, -0.004583f, -0.054266f, 0.097217f, -0.064513f, 0.064774f, 0.082439f, 0.005868f, 0.026066f, -0.029354f,
    -0.067047f, -0.052073f, -0.053236f, 0.048973f, 0.094809f, -0.098921f, 0.022508f, 0.064353f, -0.101819f, 0.030414f,
    0.090046f, -0.030433f, -0.018068f, 0.057093f, 0.066327f, 0.067409f, -0.081597f, -0.043299f, 0.018188f, 0.021940f,
    -0.080921f, -0.048665f, 0.010789f, 0.068655f, 0.003571f, 0.020814f, 0.026910f, -0.053674f, 0.061450f, 0.072205f,
    0.082077f, -0.096747f, -0.033283f, 0.025098f, -0.014628f, 0.011948f, -0.090800f, 0.049483f, -0.025064f, -0.076968f,
    -0.042828f, -0.113041f, -0.045282f, 0.057508f, 0.076254f, -0.012994f, -0.076706f, 0.060744f, -0.012301f, -0.049556f,
    -0.095324f, -0.088222f, 0.087538f, -0.087671f, 0.043884f, 0.078743f, 0.101467f, 0.022841f, -0.092326f, -0.050195f,
    0.042528f, 0.030046f, 0.046580f, -0.019029f, -0.028311f, -0.001709f, 0.010077f, -0.070932f, 0.041201f, 0.073241f,
    -0.073168f, 0.095109f, -0.019161f, 0.088929f, 0.043533f, 0.025064f, -0.032891f, 0.013623f, 0.006415f, 0.034498f,
    -0.004395f, -0.046668f, 0.031419f, -0.095990f, 0.050583f, 0.045307f, 0.088975f, 0.077081f, -0.026824f, 0.017954f,
    0.015517f, -0.063301f, 0.043503f, 0.027462f, -0.043585f, 0.006169f, -0.085019f, -0.022718f, -0.056313f, 0.048501f,
    0.007613f, -0.087506f, 0.022965f, -0.026668f, 0.068950f, -0.051180f, 0.004536f, -0.020176f, -0.024315f, -0.062900f,
    0.045498f, 0.033597f, -0.072871f, 0.089506f, 0.011888f, -0.019301f, 0.067602f, -0.001549f, -0.046236f, 0.016443f,
    -0.047583f, -0.048463f, -0.034203f, -0.093420f, -0.050912f, 0.075921f, -0.095021f, -0.005578f, 0.034723f, 0.002419f,
    -0.042397f, -0.029184f, -0.036812f, -0.035252f, 0.101254f, 0.036687f, 0.041792f, -0.091732f, -0.032673f, -0.022197f,
    0.068331f, 0.027654f, 0.052384f, 0.032293f, -0.012892f, -0.087731f, 0.082463f, 0.045471f, -0.018281f, 0.028169f,
    -0.005910f, -0.094236f, -0.100649f, -0.086320f, 0.064580f, 0.070440f, -0.090278f, -0.019650f, -0.092399f, 0.001998f,
    -0.044992f, 0.095511f, 0.043300f, -0.041531f, 0.010576f, -0.047665f, 0.069382f, -0.099729f, 0.062052f, -0.022270f,
    0.015656f, 0.046458f, 0.048083f, -0.023659f, 0.070032f, 0.070385f, -0.058236f, 0.060840f, 0.059558f, -0.033321f,
    -0.091385f, 0.054613f, 0.057372f, 0.040541f, 0.092495f, -0.046993f, -0.092864f, -0.016787f, -0.006065f, 0.051723f,
    -0.037273f, -0.074237f, -0.023136f, 0.062831f, -0.097165f, 0.054985f, -0.000004f, -0.006225f, 0.082151f, 0.015987f,
    0.073254f, -0.098221f, 0.050469f, -0.031904f, 0.003480f, 0.024931f, -0.055768f, -0.078356f, 0.098989f, 0.001373f,
    -0.005151f, -0.017106f, 0.086920f, -0.029765f, 0.098632f, 0.081875f, 0.006306f, 0.080126f, 0.033860f, 0.086732f,
    0.041022f, 0.028745f, -0.047859f, 0.098091f, -0.028196f, 0.047271f, 0.077427f, 0.042451f, -0.101876f, 0.039911f,
    0.090854f, 0.041417f, 0.085272f, 0.046218f, 0.037225f, 0.040583f, 0.053551f, 0.079468f, 0.007329f, -0.035212f,
    -0.100232f, 0.061208f, 0.053623f, -0.011739f, 0.073381f, 0.047594f, 0.039700f, -0.089784f, -0.002626f, 0.051332f,
    -0.075882f, 0.059037f, 0.088120f, -0.052731f, 0.067792f, 0.001149f, 0.024582f, 0.041778f, -0.050907f, 0.091106f,
    -0.031174f, 0.101264f, -0.039221f, 0.069786f, 0.046683f, 0.017065f, 0.090707f, -0.084691f, 0.073010f, -0.093974f,
    -0.009585f, -0.046479f, 0.035744f, -0.082649f, -0.011228f, -0.056629f, -0.005644f, -0.015575f, -0.043126f, 0.036138f,
    0.028592f, -0.065559f, 0.060346f, 0.032500f, 0.095410f, 0.037418f, 0.004752f, -0.057676f, 0.060426f, -0.083235f,
    0.072537f, -0.080230f, 0.057605f, -0.021098f, -0.097567f, 0.078438f, 0.024888f, 0.084728f, -0.048272f, 0.065981f,
    0.033326f, -0.039166f, -0.004944f, -0.086352f, 0.008776f, -0.007079f, 0.076439f, -0.026207f, -0.027122f, -0.086684f,
    -0.006536f, -0.035095f, -0.004549f, 0.001264f, 0.069540f, 0.010467f, 0.027809f, -0.005082f, 0.027490f, -0.017031f,
    0.048480f, -0.010893f, 0.054602f, 0.008280f, 0.063523f, -0.036914f, 0.016318f, 0.039090f, -0.049190f, 0.019351f,
    0.041446f, -0.059325f, 0.021466f, 0.092392f, 0.022054f, -0.015639f, -0.018503f, 0.001752f, 0.092829f, -0.057219f,
    -0.029173f, 0.038897f, 0.029288f, 0.053698f, 0.080139f, -0.057931f, 0.002125f, -0.035517f, -0.042210f, -0.067761f,
    0.099104f, 0.034860f, 0.068914f, -0.082792f, -0.083484f, -0.007077f, 0.070698f, -0.026582f, 0.037569f, 0.046104f,
    0.100383f, -0.040115f, -0.005868f, 0.038455f, 0.011715f, 0.066169f, -0.073430f, 0.094624f, -0.001398f, 0.081952f,
    0.035361f, 0.091667f, 0.042437f, -0.040503f, 0.043659f, -0.079181f, -0.087510f, -0.086678f, -0.053860f, -0.089623f,
    0.053324f, 0.037655f, 0.017546f, 0.013089f, 0.071200f, -0.011938f, -0.046176f, -0.035342f, 0.073085f, -0.062476f,
    -0.011412f, 0.068682f, 0.091295f, 0.063716f, -0.031524f, 0.002542f, 0.076878f, -0.014828f, 0.073945f, 0.017969f,
    0.048975f, -0.013504f, -0.022582f, -0.031620f, -0.015371f, 0.078110f, -0.032500f, 0.040249f, -0.058704f, -0.002947f,
    -0.072845f, 0.006871f, -0.046362f, -0.070933f, -0.070811f, -0.044792f, -0.074108f, 0.012769f, -0.093408f, 0.020440f,
    0.094633f, 0.073289f, 0.041667f, -0.077140f, 0.007404f, 0.079850f, 0.086319f, -0.085117f, -0.089287f, -0.028923f,
    0.052171f, 0.101347f, 0.003265f, 0.063516f, 0.079599f, -0.085881f, -0.052980f, 0.019902f, 0.094083f, -0.100838f,
    0.053453f, -0.101041f, -0.018617f, -0.061421f, -0.088334f, 0.009205f, -0.061262f, -0.044414f, 0.037458f, -0.053788f,
    0.007739f, 0.099422f, 0.026725f, -0.005959f, -0.073178f, 0.069283f, 0.065334f, 0.095236f, 0.018917f, -0.041059f,
    0.065620f, -0.022652f, 0.053795f, 0.028304f, -0.088603f, -0.100185f, -0.069994f, 0.092002f, -0.070933f, 0.052279f,
    0.041059f, 0.072932f, 0.046152f, 0.042376f, -0.061792f, 0.037359f, 0.028122f, -0.046644f, -0.027146f, 0.053075f,
    -0.086414f, -0.046280f, 0.047636f, -0.044847f, -0.041183f, 0.047687f, -0.028602f, -0.084249f, -0.014303f, 0.066430f,
    0.081853f, -0.072561f, 0.077102f, 0.098154f, -0.001311f, 0.008771f, -0.040559f, -0.065816f, -0.023770f, -0.046507f,
    0.099124f, 0.053266f, -0.011547f, -0.038241f, -0.086885f, -0.015604f, -0.005831f, -0.011226f, 0.039943f, 0.099771f,
    0.087125f, -0.096933f, 0.068728f, -0.028090f, -0.089184f, -0.000422f, -0.029061f, -0.024368f, 0.072725f, 0.068752f,
    -0.099589f, -0.035694f, -0.065288f, -0.012574f, 0.014303f, -0.033111f, -0.038465f, 0.014735f, 0.068181f, 0.091360f,
    0.057945f, 0.097629f, 0.002700f, 0.018637f, 0.099436f, 0.042719f, 0.008028f, -0.065116f, 0.010069f, 0.092748f,
    -0.037576f, -0.074553f, 0.001064f, -0.053671f, -0.068239f, -0.027625f, -0.070538f, -0.093715f, 0.042200f, 0.029828f,
    0.066443f, 0.059214f, 0.039426f, 0.018682f, 0.073640f, -0.049124f, 0.009736f, -0.051932f, -0.060173f, 0.043625f,
    0.053557f, 0.058255f, -0.010467f, 0.067746f, -0.030780f, 0.048761f, 0.073393f, -0.065814f, -0.032145f, 0.051270f,
    -0.023711f, -0.067323f, 0.019198f, -0.051396f, -0.077775f, -0.031163f, 0.100060f, -0.055218f, -0.016740f, 0.043554f,
    0.045275f, -0.019047f, -0.058038f, 0.004308f, -0.004086f, 0.030383f, 0.055565f, 0.017782f, -0.050555f, -0.073974f,
    -0.071270f, -0.045014f, -0.097166f, -0.101137f, 0.038765f, 0.023200f, -0.093563f, -0.088337f, -0.047837f, -0.068593f,
    0.035347f, -0.016554f, 0.018787f, -0.016008f, -0.081241f, -0.045944f, -0.007268f, -0.052158f, -0.004654f, 0.061484f,
    -0.063148f, 0.005868f, 0.016678f, 0.006088f, 0.025071f, 0.039197f, 0.025286f, 0.079230f, 0.068810f, -0.006882f,
    0.056495f, 0.050403f, 0.042922f, -0.068811f, -0.083848f, 0.010857f, -0.067469f, -0.024231f, -0.061923f, 0.075432f,
    -0.008743f, 0.086926f, -0.083224f, 0.008617f, 0.030699f, 0.007727f, -0.097079f, -0.088858f, 0.032495f, 0.020947f,
    0.033715f, 0.011718f, -0.047640f, 0.058487f, 0.051037f, -0.013043f, 0.022310f, -0.058780f, -0.026423f, 0.052681f,
    -0.012192f, 0.059832f, -0.068586f, -0.091964f, 0.054164f, 0.058315f, -0.069862f, -0.021992f, -0.059119f, 0.032484f,
    0.050878f, -0.008066f, 0.050601f, -0.060307f, -0.028675f, 0.036662f, -0.006090f, 0.093084f, 0.051990f, -0.054075f,
    -0.038296f, -0.086751f, -0.024375f, -0.006166f, 0.052934f, -0.022906f, 0.072128f, -0.071027f, 0.002888f, 0.025996f,
    -0.029425f, -0.099694f, 0.009814f, -0.005788f, 0.080937f, -0.000898f, -0.100293f, -0.073692f, 0.096701f, -0.000295f,
    -0.060450f, -0.040926f, -0.034061f, -0.070556f, 0.059489f, -0.061227f, 0.011998f, 0.050931f, -0.028434f, -0.033417f,
    -0.097371f, 0.092525f, -0.043277f, 0.066567f, -0.087194f, 0.055251f, -0.071382f, 0.043813f, -0.041296f, -0.074611f,
    -0.076628f, -0.021733f, -0.076778f, 0.025876f, -0.056166f, 0.099693f, -0.063023f, 0.035805f, 0.066839f, 0.049299f,
    -0.087123f, -0.001906f, -0.030311f, 0.091101f, 0.095406f, 0.041144f, -0.023217f, -0.053247f, 0.043993f, 0.089639f,
    -0.030363f, -0.082934f, 0.092719f, -0.098524f, -0.054303f, -0.032998f, 0.061176f, -0.046531f, -0.037773f, -0.036995f,
    -0.024750f, -0.100488f, 0.017849f, -0.091814f, -0.060750f, -0.008480f, -0.048355f, 0.039806f, -0.081436f, -0.003123f,
    -0.068088f, 0.085658f, 0.015456f, 0.014554f, 0.052872f, 0.062647f, -0.051919f, 0.027689f, -0.078845f, -0.010724f,
    -0.101412f, -0.083739f, -0.097392f, -0.014558f, 0.098395f, 0.029265f, 0.014006f, -0.018415f, -0.101056f, 0.100939f,
    0.031884f, 0.069667f, 0.067155f, -0.000654f, -0.065237f, 0.037680f, 0.067186f, 0.020774f, -0.079381f, -0.074713f,
    0.022401f, -0.068034f, 0.038896f, -0.088235f, 0.019931f, 0.018151f, 0.025164f, -0.054789f, 0.025928f, 0.054451f,
    0.022365f, 0.067556f, 0.076854f, -0.020699f, -0.044684f, 0.045313f, -0.036379f, -0.044366f, 0.011955f, 0.067445f,
    0.000500f, 0.015131f, 0.097479f, 0.048810f, -0.011400f, 0.031689f, 0.088893f, 0.021200f, 0.077182f, 0.017244f,
    0.038845f, 0.055040f, 0.058202f, 0.031770f, -0.034553f, 0.067767f, -0.083131f, -0.025691f, 0.084877f, -0.045227f,
    -0.087404f, 0.081073f, -0.004020f, 0.100997f, 0.047538f, -0.048530f, -0.055481f, -0.093522f, 0.081376f, -0.092808f,
    -0.042730f, 0.041383f, 0.071207f, 0.044274f, -0.088313f, 0.084562f, 0.077800f, 0.005893f, -0.039036f, -0.035404f,
    -0.066955f, 0.028780f, 0.049156f, -0.099854f, 0.035226f, 0.090265f, -0.082570f, -0.049479f, 0.083896f, -0.020492f,
    -0.035432f, 0.061534f, 0.056170f, -0.036942f, 0.075016f, -0.014114f, -0.066897f, 0.100128f, -0.059079f, 0.042304f,
    -0.096916f, -0.071006f, -0.069537f, -0.061710f, -0.086149f, 0.003932f, -0.056625f, -0.005083f, -0.030787f, -0.002885f,
    0.011219f, 0.046913f, 0.090320f, -0.021785f, 0.010996f, 0.004976f, 0.032145f, 0.096637f, 0.056228f, 0.006477f,
    -0.055224f, -0.057087f, -0.022677f, 0.029249f, 0.017502f, -0.078976f, 0.093453f, 0.030480f, 0.051829f, -0.076424f,
    -0.027519f, 0.013436f, 0.101118f, -0.065344f, 0.070921f, 0.000544f, 0.058503f, 0.023241f, 0.002153f, 0.068796f,
    -0.035939f, 0.077127f, 0.007167f, -0.056291f, -0.055596f, 0.014151f, -0.009971f, 0.013718f, 0.077427f, -0.090750f,
    0.039034f, 0.022721f, -0.073952f, 0.023386f, -0.002202f, 0.054165f, 0.056910f, 0.022719f, -0.034627f, -0.072315f,
    0.100210f, 0.096025f, -0.067213f, -0.064631f, -0.054093f, -0.028697f, 0.029360f, -0.057297f, -0.039982f, 0.023012f,
    0.080304f, 0.005507f, -0.093269f, -0.057053f, -0.038439f, 0.070927f, 0.040455f, 0.044272f, -0.068039f, -0.090406f,
    0.030783f, 0.008334f, 0.050034f, -0.024150f, 0.002744f, 0.043662f, -0.081417f, -0.093144f, 0.089084f, 0.095389f,
    0.008257f, 0.031936f, -0.077427f, 0.058093f, -0.033593f, 0.046783f, 0.065789f, -0.013179f, 0.062038f, -0.096127f,
    -0.030372f, 0.071644f, -0.021997f, -0.068047f, -0.024647f, 0.090151f, 0.057178f, -0.042144f, 0.075402f, -0.047003f,
    -0.080720f, 0.065522f, 0.014937f, -0.001345f, -0.013071f, -0.030830f, -0.063112f, -0.094019f, 0.065802f, 0.086779f,
    -0.016677f, -0.016811f, -0.053431f, 0.023022f, 0.012848f, 0.031559f, -0.041773f, 0.046877f, 0.080583f, 0.034316f,
    0.042093f, 0.060710f, 0.101373f, 0.094675f, 0.076133f, -0.074699f, 0.101475f, -0.014109f, -0.095177f, 0.053710f,
    -0.046136f, 0.016543f, 0.031700f, 0.005650f, 0.000436f, -0.055597f, 0.088637f, -0.056119f, -0.097490f, -0.005656f,
    -0.088832f, 0.000757f, -0.084503f, 0.005423f, 0.023861f, -0.046648f, -0.072865f, -0.017640f, 0.096102f, -0.025000f,
    0.087655f, 0.076142f, -0.031807f, 0.102052f, 0.014848f, -0.037437f, -0.089173f, 0.014456f, -0.015811f, 0.082626f,
    0.097174f, -0.053910f, 0.028454f, 0.059584f, -0.062539f, -0.016001f, 0.093101f, 0.036039f, -0.026653f, -0.009595f,
    -0.082679f, 0.000143f, 0.099799f, -0.062415f, 0.015243f, 0.019203f, 0.081474f, -0.046675f, 0.081959f, -0.082527f,
    -0.014167f, -0.067306f, -0.056788f, 0.083698f, 0.010323f, 0.002495f, 0.033433f, 0.062532f, 0.067399f, -0.035708f,
    -0.032565f, 0.093192f, 0.073938f, 0.083804f, 0.075045f, 0.008512f, 0.029229f, -0.021627f, -0.025645f, -0.097553f,
    -0.017643f, -0.043500f, -0.065206f, -0.016927f, -0.099733f, 0.070162f, 0.072530f, 0.027972f, -0.070197f, -0.021561f,
    0.099883f, 0.000437f, -0.036306f, -0.085543f, -0.000355f, -0.091769f, -0.000569f, 0.003072f, -0.020941f, 0.062432f,
    -0.034803f, 0.044163f, -0.079549f, 0.090548f, -0.075684f, -0.094524f, -0.102029f, 0.051440f, 0.046998f, 0.061254f,
    -0.060008f, -0.088365f, 0.081366f, 0.006559f, 0.051032f, -0.057633f, -0.078783f, -0.068192f, -0.046054f, -0.073929f,
    -0.076858f, -0.047193f, 0.068157f, -0.064768f, -0.089658f, 0.069458f, -0.044873f, -0.018199f, -0.084445f, -0.021067f,
    0.089401f, -0.035254f, 0.098286f, -0.022446f, -0.026267f, 0.051930f, -0.038473f, -0.023945f, -0.011463f, 0.013320f,
    0.088558f, 0.061507f, -0.026844f, -0.095430f, -0.008747f, 0.091823f, 0.061873f, 0.036054f, 0.089578f, 0.037950f,
    0.074502f, -0.083295f, 0.058193f, 0.074322f, -0.054146f, 0.064729f, -0.018306f, 0.020385f, -0.026036f, -0.059425f,
    0.023741f, 0.068119f, -0.024958f, -0.019501f, 0.026825f, 0.038574f, -0.043555f, -0.065925f, -0.027431f, -0.076412f,
    0.013907f, -0.094380f, 0.099598f, -0.065165f, -0.050155f, -0.029881f, -0.011875f, -0.023651f, -0.016022f, -0.055765f,
    0.065822f, 0.094715f, 0.082506f, -0.052169f, 0.057980f, -0.083915f, -0.000751f, -0.000306f, 0.080005f, 0.063307f,
    0.065459f, 0.065446f, -0.050897f, -0.084594f, -0.075909f, 0.047474f, -0.068201f, -0.052871f, 0.035838f, 0.071964f,
    -0.062864f, 0.041698f, 0.064391f, -0.100827f, 0.097335f, 0.071783f, -0.083075f, -0.019841f, -0.090544f, -0.008735f,
    -0.057320f, -0.091525f, -0.088724f, -0.088421f, 0.091771f, 0.027402f, -0.003398f, -0.052878f, -0.091258f, -0.024798f,
    -0.099300f, 0.067880f, 0.080467f, 0.044709f, 0.074055f, -0.051980f, -0.080764f, 0.080059f, -0.070248f, -0.055128f,
    -0.092814f, -0.029500f, -0.095530f, 0.036972f, 0.054428f, 0.062630f, 0.051540f, 0.093988f, -0.077215f, 0.009864f,
    -0.023364f, 0.045112f, -0.001145f, 0.003537f, -0.063147f, -0.062894f, -0.044868f, -0.004022f, 0.082521f, 0.075328f,
    0.028687f, 0.097992f, -0.035899f, 0.006508f, -0.064911f, -0.063618f, -0.064264f, -0.098004f, -0.016591f, -0.003835f,
    0.063335f, -0.061621f, 0.014529f, 0.043326f, -0.035552f, -0.037971f, -0.086170f, -0.011387f, -0.076879f, 0.086865f,
    0.037093f, -0.066536f, 0.086972f, 0.078473f, 0.054208f, -0.017165f, 0.064977f, 0.084760f, 0.073979f, 0.090034f,
    -0.096081f, 0.007499f, 0.024293f, 0.061720f, -0.085455f, -0.057800f, 0.039813f, -0.029115f, -0.014467f, 0.014073f,
    -0.056604f, 0.037896f, 0.073955f, -0.090769f, 0.074775f, -0.095395f, 0.070479f, 0.085300f, 0.057930f, 0.029927f,
    -0.060438f, -0.044178f, -0.090680f, -0.069786f, 0.026624f, 0.055947f, 0.095439f, -0.071638f, 0.073407f, -0.072795f,
    -0.035832f, -0.010842f, 0.023921f, 0.057182f, -0.068729f, -0.037954f, 0.091198f, 0.084485f, 0.020635f, 0.069421f,
    0.055487f, -0.056795f, 0.022862f, -0.074958f, -0.101462f, 0.094486f, 0.045577f, -0.052224f, -0.080716f, 0.020812f,
    0.011354f, -0.080815f, 0.034582f, -0.090277f, -0.010375f, -0.098236f, -0.074721f, -0.047359f, 0.074985f, 0.026694f,
    -0.012540f, -0.056787f, -0.012137f, 0.037817f, 0.064319f, 0.044879f, 0.063236f, -0.080684f, -0.085954f, -0.074798f,
    -0.032430f, 0.023354f, 0.048112f, -0.086814f, 0.001701f, -0.005872f, 0.094145f, 0.024678f, -0.007191f, 0.019251f,
    0.088739f, 0.079438f, -0.034008f, 0.065714f, 0.075254f, -0.080754f, -0.094820f, -0.066307f, 0.091983f, -0.045448f,
    0.024932f, 0.052051f, -0.013241f, 0.099860f, 0.030941f, 0.076759f, -0.070592f, 0.096163f, -0.007676f, -0.057858f,
    -0.025986f, -0.037591f, 0.006649f, -0.096536f, -0.092935f, 0.086114f, 0.063385f, 0.026101f, 0.026768f, -0.079558f,
    -0.004920f, -0.034386f, 0.025355f, 0.033180f, 0.069025f, 0.060694f, -0.061814f, -0.064002f, 0.058239f, 0.044597f,
    0.065195f, -0.010082f, -0.057734f, -0.095656f, 0.069260f, 0.087681f, -0.054932f, -0.013463f, 0.048334f, 0.091870f,
    0.047289f, -0.025112f, -0.019496f, 0.092055f, -0.070446f, 0.091706f, 0.024128f, -0.088349f, -0.074618f, -0.081587f,
    0.023491f, 0.043090f, 0.050859f, -0.038183f, -0.040462f, 0.060921f, 0.076142f, -0.031463f, -0.083670f, 0.096933f,
    0.070826f, 0.046777f, -0.016594f, 0.050025f, -0.088919f, -0.091866f, 0.058766f, -0.052643f, 0.014921f, 0.016524f,
    -0.063594f, 0.083993f, -0.065659f, -0.001503f, -0.015519f, 0.001368f, 0.013503f, 0.035525f, 0.008145f, 0.009952f,
    -0.036158f, 0.037850f, 0.068027f, -0.063059f, -0.057017f, -0.050627f, -0.078223f, -0.001488f, 0.033640f, -0.042998f,
    -0.011917f, -0.019278f, 0.036255f, -0.011229f, 0.012025f, 0.021257f, -0.047192f, -0.064402f, 0.049723f, -0.050954f,
    0.062705f, 0.049330f, -0.071333f, -0.085404f, -0.038186f, 0.008943f, -0.034049f, 0.055556f, 0.037857f, -0.046851f,
    0.067442f, -0.043940f, 0.101538f, 0.101390f, -0.021571f, 0.029335f, -0.001034f, 0.060504f, -0.082729f, 0.069658f,
    -0.005577f, 0.001460f, 0.068850f, -0.093513f, -0.009834f, -0.017648f, -0.008877f, 0.085399f, -0.018636f, -0.044809f,
    -0.001970f, -0.035183f, 0.063666f, -0.096782f, 0.080548f, 0.052658f, 0.016401f, -0.078842f, -0.037155f, -0.039651f,
    -0.093761f, -0.078174f, 0.032893f, 0.084320f, 0.044445f, 0.087071f, 0.014047f, -0.051498f, 0.014251f, 0.062161f,
    0.065523f, 0.019442f, -0.042207f, 0.029543f, -0.060172f, -0.077970f, -0.040065f, -0.046788f, -0.069286f, -0.035783f,
    -0.032289f, 0.081081f, 0.096612f, 0.073614f, 0.058435f, -0.088222f, 0.035595f, -0.100513f, 0.101619f, -0.041800f,
    0.003457f, 0.021904f, -0.035001f, -0.017257f, -0.068747f, -0.090776f, -0.098254f, -0.038457f, 0.056364f, 0.049347f,
    0.101836f, -0.022021f, -0.048201f, 0.088564f, 0.080249f, -0.034356f, -0.036090f, -0.046365f, -0.019672f, 0.069790f,
    0.034138f, -0.097477f, 0.019392f, -0.094911f, 0.061441f, -0.020959f, 0.090546f, 0.100401f, 0.083617f, 0.012009f,
    -0.036273f, 0.029675f, 0.054324f, -0.039463f, -0.079849f, -0.012185f, -0.039598f, 0.054130f, 0.079656f, 0.079662f,
    -0.006041f, -0.098927f, 0.074806f, -0.078168f, -0.051247f, 0.026544f, 0.064920f, 0.062483f, 0.071379f, -0.029699f,
    -0.036505f, -0.014352f, 0.039482f, 0.097158f, -0.092137f, 0.005684f, -0.053023f, -0.003276f, 0.039035f, -0.066538f,
    0.072078f, 0.043379f, 0.070414f, 0.068375f, 0.041891f, -0.012483f, -0.010828f, -0.047262f, 0.073508f, 0.033122f,
    0.032565f, 0.036210f, -0.016191f, -0.036354f, 0.022226f, 0.010985f, -0.015579f, 0.024302f, 0.031649f, 0.034527f,
    0.035051f, 0.048758f, -0.040638f, 0.031003f, 0.023533f, 0.014053f, 0.058524f, 0.014729f, -0.063183f, -0.085205f,
    -0.021900f, -0.071982f, -0.067133f, -0.061991f, 0.023011f, 0.004169f, 0.027071f, 0.057224f, -0.005117f, 0.015527f,
    -0.041851f, -0.015658f, -0.045240f, 0.091923f, 0.034239f, 0.003316f, 0.100913f, -0.028111f, -0.015893f, 0.042363f,
    -0.071792f, 0.062194f, -0.019953f, 0.067307f, -0.071113f, 0.029481f, -0.075081f, -0.080567f, 0.039973f, -0.020248f,
    -0.084760f, -0.065276f, 0.000813f, 0.017988f, 0.056950f, 0.101539f, 0.085387f, -0.045788f, 0.052556f, 0.063903f,
    -0.080545f, -0.098813f, -0.008677f, 0.095906f, 0.033291f, -0.035635f, -0.014632f, 0.097118f, -0.016807f, 0.089350f,
    -0.024839f, 0.088909f, 0.071889f, -0.070784f, -0.006645f, 0.092052f, 0.092565f, -0.027706f, -0.036114f, -0.084672f,
    -0.082521f, -0.039439f, 0.006712f, -0.024746f, -0.038755f, -0.016280f, 0.066921f, -0.001476f, -0.028981f, -0.099282f,
    0.083999f, -0.070114f, 0.075754f, -0.054304f, 0.035442f, 0.030445f, -0.094879f, -0.002713f, 0.027456f, -0.040963f,
    -0.035440f, -0.098501f, 0.046766f, -0.072908f, -0.088764f, -0.045666f, -0.000924f, -0.031382f, 0.008035f, 0.091207f,
    0.083443f, -0.020878f, 0.040922f, -0.094874f, -0.078137f, -0.012193f, 0.064248f, -0.060346f, -0.030513f, 0.088617f,
    -0.080883f, 0.014537f, -0.042543f, 0.032897f, -0.038751f, 0.035284f, 0.071700f, 0.069349f, -0.014167f, -0.034111f,
    0.027742f, -0.049239f, 0.099174f, 0.076403f, -0.043899f, -0.069557f, -0.009808f, -0.059761f, -0.052337f, 0.032695f,
    -0.067233f, -0.022468f, 0.028695f, 0.091700f, 0.003482f, -0.091389f, -0.081047f, 0.026235f, 0.027971f, 0.097477f,
    -0.083012f, -0.017263f, 0.073054f, -0.036711f, 0.048477f, -0.076751f, -0.101351f, -0.055804f, -0.097396f, 0.008790f,
    -0.071954f, 0.014197f, -0.055021f, 0.031858f, 0.048473f, 0.101146f, -0.043690f, 0.067217f, 0.050029f, 0.066431f,
    -0.080458f, -0.013429f, -0.028925f, 0.060607f, -0.079798f, -0.007495f, -0.040603f, -0.038898f, -0.059498f, 0.070400f,
    -0.021824f, -0.078927f, 0.080631f, 0.061368f, -0.044962f, 0.090351f, 0.028567f, 0.060555f, 0.010977f, -0.016350f,
    0.035353f, 0.031059f, -0.098661f, 0.044141f, 0.021427f, 0.077454f, -0.045890f, -0.064268f, -0.058064f, 0.088833f,
    -0.022091f, 0.001418f, 0.027876f, -0.005746f, 0.030078f, 0.018326f, -0.065405f, 0.078771f, -0.061242f, -0.051021f,
    0.082238f, -0.014552f, -0.088858f, -0.076269f, 0.074976f, -0.054780f, 0.058727f, 0.068741f, -0.050279f, -0.004920f,
    0.099671f, -0.019569f, -0.024424f, -0.037763f, -0.080832f, -0.007344f, 0.072250f, 0.047060f, 0.096112f, -0.036183f,
    -0.082619f, 0.094471f, -0.058293f, 0.096492f, 0.008494f, -0.039746f, -0.090247f, 0.054119f, -0.020918f, -0.009028f,
    0.036312f, -0.046228f, -0.067716f, 0.097861f, 0.049427f, 0.064256f, -0.072221f, 0.079021f, 0.055244f, -0.056953f,
    -0.097365f, 0.031185f, 0.100915f, -0.032261f, -0.059825f, -0.026967f, 0.044025f, 0.061025f, 0.089295f, 0.000306f,
    -0.024506f, 0.006863f, 0.020558f, -0.034478f, 0.048181f, 0.007256f, 0.035731f, 0.091603f, -0.082302f, 0.046703f,
    0.029965f, -0.022384f, 0.096148f, 0.097082f, 0.069877f, -0.015403f, -0.059189f, -0.055766f, -0.025557f, 0.004210f,
    0.053596f, 0.031896f, 0.094398f, 0.024850f, -0.091850f, 0.033435f, 0.042053f, 0.035887f, -0.029633f, -0.047787f,
    0.068312f, 0.080850f, -0.045957f, 0.001367f, 0.061929f, 0.008090f, 0.030337f, 0.069865f, 0.080928f, -0.053254f,
    0.037249f, 0.027922f, -0.062536f, -0.068286f, 0.092537f, 0.035766f, 0.070086f, 0.084774f, 0.089524f, -0.097109f,
    -0.098734f, -0.097024f, -0.067396f, -0.058493f, -0.101735f, -0.049434f, 0.019254f, -0.020026f, -0.019161f, -0.064615f,
    -0.030049f, 0.059354f, -0.010338f, 0.028866f, 0.024548f, -0.085513f, 0.011774f, 0.007768f, -0.020179f, 0.038374f,
    -0.082915f, -0.077693f, 0.027116f, 0.083815f, -0.087149f, 0.040334f, -0.055282f, -0.083776f, 0.076831f, 0.003129f,
    0.068376f, -0.071987f, -0.034186f, 0.097537f, 0.059551f, 0.044370f, -0.078951f, -0.043460f, 0.086979f, -0.006975f,
    0.056017f, -0.064264f, 0.099718f, -0.060802f, 0.084585f, 0.018281f, 0.003313f, 0.039265f, -0.054222f, -0.068591f,
    0.062542f, 0.052287f, -0.026961f, 0.077156f, 0.097616f, -0.033399f, -0.101312f, 0.075930f, 0.045202f, 0.025136f,
    0.039813f, 0.059649f, 0.006127f, 0.027974f, -0.076828f, 0.099011f, -0.031698f, -0.070340f, 0.056895f, -0.054862f,
    0.064681f, 0.037468f, -0.094080f, -0.082610f, 0.069715f, -0.081394f, 0.075686f, -0.014238f, 0.041388f, -0.005141f,
    -0.085333f, -0.081136f, 0.022380f, 0.076172f, 0.025385f, 0.032503f, 0.077238f, 0.024364f, -0.065177f, -0.084101f,
    -0.001290f, -0.066925f, -0.065884f, -0.035505f, 0.033808f, -0.077857f, 0.034768f, 0.096424f, -0.009692f, -0.040236f,
    -0.031485f, -0.022205f, -0.014974f, 0.018649f, -0.067950f, 0.013865f, -0.071917f, 0.004255f, -0.000272f, 0.075101f,
    -0.059621f, 0.003954f, -0.039870f, 0.085615f, 0.034186f, 0.047432f, 0.031957f, 0.096283f, 0.025443f, -0.022202f,
    0.017958f, 0.093634f, 0.029941f, -0.044655f, 0.086366f, -0.010186f, 0.027516f, 0.073041f, 0.082489f, -0.039552f,
    -0.013105f, 0.097697f, -0.064428f, 0.005138f, -0.072438f, 0.018399f, -0.102715f, 0.083838f, 0.054965f, 0.051189f,
    -0.005149f, 0.066806f, -0.085161f, 0.035427f, -0.001488f, -0.036121f, 0.093902f, 0.028462f, -0.028339f, -0.038817f,
    0.031331f, 0.050504f, -0.046475f, -0.031919f, 0.046504f, 0.098419f, 0.022795f, -0.012020f, -0.095177f, 0.077282f,
    -0.004853f, -0.063607f, -0.074199f, -0.045259f, 0.013694f, -0.085786f, 0.064796f, -0.047465f, -0.041970f, 0.017607f,
    -0.021832f, -0.005622f, -0.078760f, -0.069788f, -0.073952f, 0.074879f, -0.089741f, 0.058757f, 0.022002f, 0.024568f,
    0.083882f, 0.007996f, -0.012374f, -0.015367f, -0.040687f, -0.097540f, -0.012660f, -0.008221f, 0.058161f, 0.077777f,
    -0.010664f, -0.070277f, -0.047131f, 0.082111f, 0.086560f, 0.067163f, -0.078770f, -0.098976f, 0.099965f, -0.061656f,
    0.074660f, -0.056715f, -0.011400f, 0.035539f, -0.012060f, 0.065473f, 0.015814f, 0.096959f, -0.004534f, -0.047662f,
    0.090503f, 0.061688f, -0.042691f, -0.098347f, -0.002451f, 0.045778f, 0.027627f, 0.052208f, -0.002957f, 0.089707f,
    -0.056434f, -0.084231f, -0.073799f, 0.093158f, 0.063257f, 0.032840f, -0.073160f, 0.071282f, -0.074008f, 0.083629f,
    0.011238f, -0.080883f, 0.036547f, -0.008258f, -0.061540f, -0.031914f, -0.005507f, 0.067124f, 0.011997f, 0.077596f,
    -0.062852f, 0.051083f, 0.072456f, -0.002041f, -0.045565f, -0.052380f, 0.087168f, 0.009052f, 0.087583f, -0.021499f,
    -0.035417f, -0.057885f, 0.008558f, 0.095816f, -0.065698f, -0.074378f, -0.064127f, 0.039885f, -0.044336f, 0.022306f,
    -0.051800f, -0.055665f, 0.012010f, 0.032210f, -0.085463f, 0.056289f, 0.101848f, 0.033397f, -0.085686f, -0.054500f,
    -0.004808f, -0.091751f, -0.014010f, 0.003415f, 0.057588f, -0.059096f, -0.027327f, -0.049170f, -0.009286f, 0.003308f,
    0.033471f, -0.028056f, -0.017234f, -0.052462f, -0.010433f, 0.040580f, 0.002010f, 0.046179f, 0.088227f, -0.069289f,
    -0.084930f, -0.021628f, -0.070309f, -0.025116f, 0.038318f, -0.043299f, -0.075498f, 0.071636f, 0.039751f, -0.084464f,
    0.076051f, -0.009231f, -0.094878f, -0.014784f, 0.060243f, 0.071392f, 0.015249f, 0.023727f, -0.055521f, -0.106419f,
    -0.087157f, -0.000075f, 0.015813f, 0.043077f, 0.096157f, 0.025868f, 0.001344f, -0.096758f, -0.068408f, 0.078155f,
    -0.040528f, -0.082101f, 0.058272f, -0.105606f, -0.077111f, -0.070395f, 0.077209f, 0.025631f, 0.092841f, 0.024691f,
    -0.035891f, 0.068710f, 0.019206f, 0.041428f, 0.010168f, 0.062841f, -0.017218f, -0.049777f, 0.053284f, -0.004698f,
    0.074976f, -0.071320f, 0.012682f, -0.014706f, -0.083390f, 0.079799f, 0.058786f, -0.061445f, -0.012007f, -0.099641f,
    0.089054f, 0.093819f, -0.002253f, 0.042677f, 0.043226f, -0.050466f, -0.003422f, -0.083285f, -0.074136f, -0.070649f,
    -0.048921f, -0.094720f, 0.059844f, 0.025762f, -0.086944f, -0.031110f, -0.005905f, -0.003388f, 0.046502f, 0.098624f,
    0.004031f, -0.064413f, -0.001837f, 0.042758f, -0.065632f, 0.105139f, 0.053502f, -0.000783f, -0.058025f, 0.003735f,
    -0.038864f, 0.036587f, 0.063213f, -0.001599f, -0.098479f, 0.018617f, 0.047222f, 0.009026f, 0.040108f, 0.067905f,
    0.021248f, -0.008342f, 0.056944f, -0.017677f, -0.069777f, 0.082207f, -0.106449f, -0.090226f, 0.011796f, -0.013592f,
    -0.009103f, 0.042550f, 0.086165f, -0.078994f, 0.019595f, 0.068238f, 0.106176f, -0.023724f, 0.038206f, 0.052475f,
    -0.051073f, -0.020578f, -0.004878f, 0.096623f, 0.075144f, -0.068629f, -0.079055f, 0.034660f, 0.097512f, 0.001653f,
    -0.023681f, 0.096885f, -0.007776f, 0.082793f, -0.087788f, -0.027825f, -0.006334f, 0.084848f, 0.003700f, -0.028516f,
    -0.052265f, 0.018215f, 0.049874f, 0.045553f, -0.003948f, 0.063325f, -0.095490f, 0.073135f, -0.025052f, 0.003985f,
    0.000925f, 0.011114f, 0.007444f, -0.042117f, 0.065977f, -0.096597f, -0.007189f, -0.099007f, 0.010879f, 0.047839f,
    0.067416f, -0.026334f, -0.053382f, 0.064103f, -0.075757f, -0.010270f, 0.064916f, -0.030114f, 0.023858f, -0.100094f,
    0.101943f, -0.074568f, 0.054690f, -0.082273f, 0.093189f, -0.051060f, -0.086822f, -0.006182f, 0.097616f, -0.004982f,
    0.060323f, -0.035601f, 0.060439f, 0.084898f, 0.071851f, 0.016784f, -0.043821f, -0.061652f, 0.056617f, 0.094714f,
    -0.090770f, 0.052001f, -0.035158f, 0.020594f, -0.021285f, -0.017397f, 0.056241f, 0.004897f, 0.026332f, -0.020292f,
    0.055922f, -0.063593f, -0.055837f, 0.057252f, 0.007356f, 0.049671f, -0.039204f, -0.035261f, 0.046585f, 0.031499f,
    0.103497f, -0.024573f, 0.096035f, 0.028957f, 0.033628f, 0.001298f, 0.078202f, 0.066302f, 0.094889f, 0.099388f,
    0.007431f, 0.055593f, -0.065953f, 0.069627f, 0.043256f, 0.010225f, -0.066763f, 0.100048f, -0.030650f, -0.082165f,
    -0.072782f, 0.022183f, -0.084670f, 0.095988f, -0.052482f, -0.084910f, 0.069453f, 0.074814f, 0.087166f, -0.086733f,
    0.052783f, 0.055026f, 0.047401f, -0.051523f, 0.006380f, -0.047212f, -0.030994f, -0.008169f, 0.079558f, 0.086290f,
    0.036837f, 0.017996f, -0.032300f, 0.037298f, -0.028121f, -0.031203f, -0.086153f, -0.100843f, -0.095612f, 0.064663f,
    0.011629f, -0.027280f, -0.041359f, 0.016929f, -0.027606f, -0.021397f, 0.076749f, -0.082807f, -0.084569f, 0.033785f,
    -0.066847f, 0.043638f, -0.033877f, -0.000188f, -0.093672f, -0.011187f, 0.077412f, -0.005607f, 0.054777f, -0.098889f,
    0.081819f, -0.020222f, -0.005920f, -0.099482f, -0.088922f, -0.002853f, -0.063526f, -0.081047f, -0.088147f, 0.068195f,
    -0.062757f, 0.058878f, -0.018757f, 0.076725f, -0.059867f, -0.020627f, -0.029932f, -0.031818f, -0.056636f, 0.085719f,
    -0.026253f, -0.073994f, -0.083253f, 0.030440f, -0.079523f, 0.066650f, -0.084238f, -0.066954f, -0.095721f, 0.013466f,
    -0.065505f, 0.008128f, -0.058378f, 0.092862f, -0.026318f, 0.062745f, -0.074420f, 0.066791f, -0.090203f, 0.038620f,
    0.058070f, 0.097361f, -0.045143f, -0.006820f, 0.065239f, 0.064602f, 0.041267f, -0.094655f, -0.042092f, -0.049883f,
    -0.001224f, -0.054652f, 0.030681f, 0.080361f, -0.076326f, 0.043073f, -0.078311f, -0.082138f, 0.020527f, -0.084381f,
    -0.048875f, -0.022319f, 0.025526f, 0.063945f, 0.048578f, 0.082358f, -0.091397f, 0.077067f, 0.098618f, 0.041217f,
    -0.090359f, 0.014710f, 0.078757f, 0.046517f, 0.077421f, 0.033321f, 0.036771f, 0.032388f, 0.013011f, -0.010256f,
    -0.071367f, -0.007480f, -0.044514f, -0.024688f, -0.022914f, 0.053102f, 0.091198f, 0.051832f, -0.057708f, -0.006032f,
    -0.021853f, -0.035894f, -0.048756f, 0.064644f, 0.059040f, 0.020925f, -0.008723f, -0.063678f, -0.083210f, 0.003314f,
    0.085653f, -0.064234f, -0.101164f, -0.001859f, -0.085941f, 0.097191f, -0.099696f, -0.054413f, 0.072549f, -0.047009f,
    -0.064120f, -0.017223f, 0.052935f, 0.006099f, 0.086017f, 0.063270f, 0.018615f, 0.094171f, -0.064360f, 0.055622f,
    -0.051484f, -0.059284f, 0.094535f, -0.088411f, 0.031174f, 0.099424f, 0.059384f, -0.013829f, -0.100251f, 0.033511f,
    -0.040716f, 0.100645f, -0.074508f, -0.037598f, -0.029593f, -0.005257f, -0.051538f, -0.072292f, -0.037481f, -0.042877f,
    -0.032227f, -0.041147f, -0.039046f, -0.071760f, 0.036575f, -0.015968f, -0.070340f, -0.063419f, -0.008478f, -0.023386f,
    0.024566f, -0.035769f, 0.028271f, 0.009875f, -0.056607f, 0.075692f, -0.048257f, 0.007182f, -0.024060f, 0.092329f,
    -0.017657f, 0.067172f, -0.068654f, 0.078880f, -0.035852f, 0.094638f, -0.052314f, -0.000341f, 0.016285f, -0.027048f,
    -0.086214f, -0.028153f, 0.052516f, -0.017318f, 0.053253f, -0.083561f, -0.077709f, 0.006645f, 0.078452f, -0.100269f,
    0.055814f, 0.029068f, 0.021264f, 0.008971f, 0.013091f, -0.016844f, 0.074634f, -0.049770f, 0.018989f, 0.022724f,
    -0.092961f, -0.101515f, -0.057819f, 0.038699f, 0.032627f, 0.013782f, 0.002881f, -0.039981f, 0.049096f, 0.018937f,
    -0.076733f, 0.091022f, 0.002406f, -0.075504f, 0.004612f, -0.022376f, -0.014557f, 0.064699f, 0.009678f, -0.094073f,
    -0.019351f, -0.031145f, 0.008271f, -0.086870f, -0.057391f, 0.032689f, -0.018444f, 0.062196f, 0.012801f, 0.039408f,
    0.063039f, -0.049478f, 0.071167f, 0.083110f, 0.076535f, 0.079227f, 0.036186f, 0.035638f, 0.055650f, 0.004105f,
    0.070403f, -0.045083f, 0.083534f, 0.008163f, -0.036108f, -0.083247f, -0.031751f, 0.074364f, -0.058671f, -0.069572f,
    0.023542f, 0.033614f, 0.053535f, 0.091011f, -0.033427f, -0.088844f, 0.070392f, -0.042686f, -0.022710f, 0.091716f,
    0.060462f, -0.060876f, -0.020547f, 0.024136f, -0.067635f, -0.041284f, -0.014537f, 0.032418f, -0.012239f, 0.090105f,
    -0.078996f, -0.039695f, -0.018386f, -0.101735f, 0.095127f, -0.098608f, 0.063585f, 0.052346f, 0.031481f, -0.092711f,
    -0.082060f, 0.006674f, 0.013308f, -0.056150f, 0.052481f, -0.013932f, 0.038286f, -0.084548f, -0.070289f, 0.083457f,
    -0.039343f, -0.003638f, 0.029251f, -0.030148f, -0.013818f, 0.055668f, -0.002489f, 0.020443f, -0.055950f, -0.047811f,
    -0.086272f, -0.090621f, 0.040503f, 0.006338f, 0.069699f, -0.061533f, -0.079476f, -0.008950f, -0.096877f, 0.003736f,
    0.027112f, -0.015925f, 0.004299f, 0.041680f, 0.044638f, -0.074770f, 0.076352f, -0.027468f, -0.086212f, -0.063356f,
    -0.056059f, -0.100936f, -0.083810f, 0.077155f, -0.012443f, -0.032811f, 0.032337f, -0.089133f, 0.100682f, 0.082402f,
    0.032199f, -0.004612f, 0.076960f, -0.073530f, -0.005904f, 0.072904f, -0.037680f, -0.074364f, -0.035073f, 0.021276f,
    -0.064847f, -0.064431f, -0.039934f, -0.072906f, 0.016652f, -0.048801f, -0.057815f, -0.054945f, -0.074213f, -0.048114f,
    -0.028286f, -0.081405f, 0.033350f, 0.015103f, 0.048721f, 0.042044f, 0.030990f, -0.005448f, 0.025625f, 0.063486f,
    -0.037557f, 0.010951f, -0.080125f, 0.033472f, 0.079714f, -0.067475f, -0.057735f, -0.080234f, -0.048628f, 0.070156f,
    -0.072615f, -0.084180f, 0.078833f, 0.030791f, 0.032969f, -0.083988f, 0.041976f, -0.008606f, 0.005279f, -0.080130f,
    0.069629f, -0.089340f, -0.063242f, -0.006069f, 0.047280f, 0.068212f, 0.002502f, -0.063985f, 0.036201f, 0.044160f,
    0.020566f, -0.064963f, 0.021796f, -0.012616f, 0.077605f, -0.041785f, 0.035698f, -0.045973f, 0.008280f, -0.005226f,
    0.098989f, -0.015561f, -0.026671f, -0.072462f, -0.059928f, 0.091295f, -0.075967f, -0.076210f, 0.006713f, -0.092466f,
    0.067820f, 0.034202f, 0.098580f, 0.035592f, 0.047802f, 0.021120f, 0.023362f, -0.046425f, -0.098186f, -0.006328f,
    0.095580f, 0.036272f, -0.087105f, -0.078711f, 0.085303f, 0.058374f, -0.004681f, 0.093998f, -0.100447f, 0.033844f,
    0.022004f, 0.094981f, -0.088662f, -0.048481f, -0.061440f, 0.066778f, 0.005852f, -0.050206f, 0.004818f, 0.067431f,
    0.006328f, 0.028620f, 0.072653f, -0.037305f, 0.038876f, 0.014510f, -0.061211f, 0.016259f, 0.090842f, -0.100513f,
    0.033864f, 0.082195f, -0.074652f, -0.052606f, 0.012468f, 0.050557f, 0.101481f, 0.012151f, -0.041773f, -0.033296f,
    0.003124f, 0.080292f, 0.085865f, 0.025979f, 0.019762f, -0.090148f, 0.099599f, 0.051536f, -0.052477f, -0.050158f,
    -0.050587f, 0.082345f, -0.083410f, -0.043393f, 0.034476f, 0.033761f, -0.054140f, 0.050843f, 0.090431f, -0.020901f,
    0.096006f, 0.019598f, 0.061711f, 0.054225f, 0.011950f, -0.079652f, 0.009243f, -0.004992f, 0.061064f, -0.001502f,
    0.044468f, 0.059177f, -0.005254f, 0.037437f, 0.088420f, 0.063788f, -0.101058f, 0.093481f, -0.045292f, 0.045195f,
    0.101538f, 0.065532f, -0.088651f, 0.021199f, 0.035555f, -0.047086f, 0.013006f, -0.082640f, 0.015645f, 0.059656f,
    -0.064095f, 0.084750f, 0.019074f, -0.041436f, -0.089984f, 0.079658f, 0.062632f, -0.065193f, -0.072988f, 0.042613f,
    0.033886f, -0.058242f, 0.031151f, 0.073392f, -0.088056f, 0.054019f, -0.017372f, 0.034251f, -0.024284f, -0.083515f,
    -0.022533f, 0.015558f, -0.009372f, 0.051653f, -0.005317f, -0.080901f, 0.019395f, -0.093419f, 0.033806f, -0.010458f,
    -0.038194f, 0.002052f, 0.100031f, 0.041192f, 0.099145f, 0.089334f, 0.043249f, -0.088247f, -0.086953f, -0.081483f,
    0.094739f, -0.052329f, -0.048292f, -0.078270f, 0.087918f, 0.055681f, -0.042294f, 0.095699f, -0.040305f, -0.075496f,
    0.090913f, -0.037039f, 0.071731f, 0.077313f, 0.093593f, -0.022452f, -0.019885f, 0.083887f, 0.065828f, -0.087239f,
    0.097473f, -0.028713f, -0.024144f, -0.005335f, 0.027654f, -0.052398f, -0.017035f, 0.009285f, 0.044333f, 0.032429f,
    -0.022897f, -0.001144f, 0.057101f, -0.052088f, -0.025114f, -0.066920f, -0.088645f, -0.001529f, 0.011671f, 0.057179f,
    0.060713f, -0.069843f, 0.063473f, 0.000316f, 0.061825f, 0.063234f, -0.073443f, 0.039892f, -0.006929f, 0.020467f,
    0.091527f, -0.025439f, -0.052746f, -0.013511f, -0.098052f, 0.001738f, -0.022984f, -0.043072f, -0.076742f, 0.085610f,
    0.072960f, -0.022307f, -0.091140f, -0.053799f, -0.086924f, -0.077815f, -0.042650f, -0.078578f, -0.077165f, -0.054268f,
    -0.064049f, 0.004596f, -0.037144f, -0.080948f, 0.081058f, -0.057609f, -0.007693f, -0.059622f, -0.033306f, -0.061692f,
    0.021795f, -0.080902f, -0.030993f, -0.031925f, -0.071879f, -0.037328f, -0.088992f, -0.065429f, 0.058252f, -0.056483f,
    -0.086456f, -0.074163f, 0.088824f, -0.028800f, -0.023406f, -0.031133f, 0.020721f, -0.004444f, 0.032424f, -0.003374f,
    0.074953f, 0.009071f, -0.095054f, -0.013955f, 0.035005f, -0.054005f, -0.048409f, 0.085859f, 0.072193f, -0.048150f,
    -0.034376f, 0.013367f, 0.081743f, 0.046589f, 0.050093f, -0.043553f, -0.024851f, -0.075203f, 0.019163f, -0.031730f,
    -0.094736f, 0.017980f, -0.101904f, 0.058456f, 0.096924f, 0.091755f, 0.045746f, -0.000746f, -0.075521f, 0.058232f,
    0.022118f, 0.040699f, -0.010440f, -0.045086f, 0.054184f, -0.001533f, 0.000507f, -0.010202f, -0.049588f, 0.029017f,
    -0.015237f, 0.070815f, 0.025979f, -0.034261f, -0.072690f, -0.064190f, 0.023448f, 0.090829f, 0.005702f, 0.058119f,
    0.011808f, 0.014602f, -0.023008f, -0.079231f, -0.021351f, 0.087513f, 0.064700f, -0.042540f, -0.099793f, -0.013341f,
    0.048299f, 0.012263f, -0.014981f, -0.039449f, 0.071988f, 0.058197f, -0.030870f, -0.080644f, -0.077449f, -0.046941f,
    0.096777f, -0.073542f, 0.092520f, -0.047676f, 0.067073f, -0.100068f, 0.000549f, -0.027172f, -0.011291f, 0.033123f,
    0.027221f, 0.001019f, -0.048017f, -0.045360f, -0.019877f, -0.031907f, -0.032654f, -0.063078f, 0.095387f, -0.069252f,
    0.092810f, 0.097805f, 0.095911f, 0.041541f, -0.070119f, 0.101733f, 0.082138f, 0.094958f, -0.020536f, 0.075404f,
    0.069724f, -0.060026f, 0.081354f, 0.045764f, -0.012805f, -0.064662f, -0.041042f, 0.062164f, 0.013760f, 0.002701f,
    -0.085214f, -0.021468f, -0.000997f, 0.048692f, 0.023191f, 0.042692f, 0.084140f, -0.096429f, 0.098207f, 0.083587f,
    0.090641f, 0.091395f, 0.089553f, -0.057328f, 0.093312f, 0.029176f, 0.100532f, -0.067687f, -0.073902f, -0.011562f,
    -0.088714f, -0.089880f, 0.035164f, 0.065958f, -0.053399f, 0.031727f, 0.020022f, 0.003866f, -0.023675f, 0.089085f,
    0.075580f, 0.055108f, -0.050234f, -0.085062f, 0.043985f, -0.027218f, -0.056860f, -0.068547f, -0.008773f, 0.045302f,
    -0.084849f, -0.088357f, 0.089194f, 0.043992f, -0.024666f, 0.051248f, 0.042865f, -0.094281f, 0.018951f, -0.041331f,
    0.051775f, 0.090187f, 0.055572f, -0.091320f, -0.094439f, -0.059170f, 0.053211f, 0.018536f, 0.019718f, -0.042243f,
    -0.008104f, 0.056462f, 0.021457f, 0.063227f, -0.063410f, -0.051586f, -0.034957f, 0.042198f, 0.014659f, 0.034577f,
    0.044993f, 0.091227f, -0.074801f, 0.059063f, -0.008704f, 0.025981f, 0.006731f, -0.061426f, 0.031098f, 0.047503f,
    0.000127f, 0.089283f, 0.050340f, -0.093580f, 0.009236f, 0.057984f, -0.033087f, -0.093376f, -0.060366f, -0.027305f,
    0.049391f, -0.072588f, 0.053834f, 0.043503f, 0.090165f, 0.043045f, -0.093106f, -0.074451f, -0.090679f, 0.030633f,
    -0.089561f, -0.027326f, -0.048768f, -0.057434f, 0.003377f, 0.084395f, -0.085811f, -0.031423f, -0.090309f, -0.091258f,
    0.004412f, -0.021242f, -0.075820f, -0.058554f, 0.024738f, -0.095923f, 0.054698f, 0.087625f, 0.025400f, -0.051135f,
    0.026523f, -0.078507f, 0.058421f, 0.007853f, -0.051809f, -0.014933f, -0.083296f, 0.046779f, -0.043876f, -0.012490f,
    0.020287f, 0.091195f, -0.018648f, -0.050516f, -0.016902f, 0.008682f, -0.046421f, 0.092949f, 0.074489f, 0.021315f,
    0.014503f, -0.051657f, -0.096988f, -0.089250f, -0.055243f, 0.084828f, -0.037952f, -0.072588f, 0.056504f, 0.086521f,
    -0.036382f, 0.089723f, -0.101120f, -0.029433f, 0.022733f, 0.020283f, 0.001611f, -0.068470f, -0.024503f, 0.093130f,
    0.099257f, -0.028426f, 0.012789f, -0.042656f, 0.047331f, -0.056127f, 0.084110f, 0.023539f, 0.080357f, -0.030306f,
    0.013069f, 0.062931f, 0.089825f, -0.057228f, -0.000932f, 0.055258f, 0.005596f, -0.038107f, -0.078163f, -0.051600f,
    -0.009649f, -0.011905f, 0.048703f, -0.079831f, -0.008913f, -0.051629f, 0.003676f, 0.080381f, 0.054566f, -0.032682f,
    -0.016377f, -0.074990f, 0.039771f, -0.007118f, 0.062477f, -0.006291f, -0.006235f, -0.059772f, -0.054232f, -0.054829f,
    0.042582f, 0.039151f, 0.002224f, 0.054213f, 0.023476f, 0.029579f, 0.012014f, -0.061463f, -0.084768f, 0.019281f,
    -0.067776f, 0.049967f, 0.007650f, -0.080762f, -0.039022f, 0.052981f, 0.078874f, 0.005067f, -0.002245f, 0.005326f,
    0.037541f, -0.044151f, -0.061782f, 0.012400f, 0.023442f, -0.047487f, 0.016101f, -0.062354f, -0.027512f, -0.026696f,
    0.069861f, -0.050747f, 0.092333f, 0.070930f, 0.002088f, 0.054451f, 0.002987f, 0.070536f, -0.022804f, 0.002204f,
    -0.034772f, 0.033435f, 0.069093f, 0.042829f, -0.085448f, 0.067683f, 0.024926f, -0.018297f, 0.078634f, -0.033625f,
    0.022018f, -0.089206f, 0.091237f, 0.032301f, -0.016066f, -0.028730f, 0.055548f, -0.028564f, -0.011190f, -0.060281f,
    0.001521f, -0.101140f, -0.095715f, 0.025374f, -0.049585f, -0.002302f, 0.072518f, -0.015487f, -0.093079f, 0.011212f,
    -0.005439f, -0.094212f, 0.037186f, -0.039192f, 0.004463f, -0.018630f, -0.075782f, -0.058128f, 0.015986f, -0.015439f,
    0.040832f, 0.044665f, 0.027235f, 0.052483f, -0.073034f, 0.045192f, 0.081080f, 0.055755f, 0.074711f, 0.038500f,
    0.042393f, -0.085520f, -0.026098f, -0.025534f, 0.005486f, -0.036975f, -0.079939f, -0.042615f, -0.030653f, -0.080121f,
    -0.042292f, 0.087804f, -0.060439f, -0.026035f, -0.042894f, 0.003868f, -0.041037f, 0.023299f, 0.092133f, 0.078220f,
    0.006886f, 0.005033f, 0.075312f, 0.021557f, -0.006049f, -0.079819f, 0.073110f, -0.004018f, -0.094614f, 0.041055f,
    0.081481f, -0.056668f, -0.036208f, 0.041154f, 0.021547f, 0.028865f, -0.082808f, 0.059570f, 0.085249f, 0.064197f,
    0.036246f, -0.097749f, -0.092344f, -0.049583f, 0.001331f, -0.097695f, 0.038156f, 0.044793f, 0.024173f, -0.008413f,
    0.090788f, -0.055051f, 0.038173f, -0.063924f, -0.019940f, 0.096776f, 0.006847f, -0.070083f, -0.058665f, -0.085901f,
    0.066103f, 0.095021f, -0.021969f, 0.068115f, -0.012109f, 0.021103f, 0.051706f, -0.043602f, 0.038444f, 0.070610f,
    0.081815f, 0.070051f, -0.055278f, -0.024740f, 0.014768f, 0.078029f, 0.020881f, 0.061804f, -0.069230f, -0.005966f,
    -0.059384f, -0.091338f, 0.006743f, 0.009242f, -0.006897f, 0.004282f, -0.035673f, -0.043252f, -0.062432f, -0.009129f,
    -0.077206f, 0.036241f, 0.036760f, -0.044699f, -0.064209f, -0.088896f, 0.070784f, -0.099005f, -0.065593f, 0.089574f,
    -0.100464f, -0.068433f, 0.006671f, 0.033266f, -0.021048f, -0.057769f, 0.000569f, 0.079287f, 0.019855f, -0.013508f,
    0.068441f, -0.067302f, -0.055359f, -0.078568f, -0.055878f, -0.015426f, 0.043466f, -0.063642f, -0.075127f, -0.080427f,
    0.070635f, -0.004397f, 0.022018f, -0.047719f, 0.047803f, -0.039566f, -0.092883f, 0.034698f, -0.056652f, -0.085868f,
    -0.011420f, 0.041959f, 0.048522f, 0.000316f, 0.045275f, -0.088438f, -0.049327f, 0.062764f, 0.026552f, 0.044852f,
    -0.002711f, 0.008703f, -0.064382f, 0.012269f, -0.029504f, -0.009537f, 0.053164f, -0.082702f, 0.099812f, 0.011092f,
    0.028745f, 0.063960f, -0.098811f, -0.010385f, 0.030385f, -0.010129f, -0.008075f, 0.069795f, -0.030930f, -0.023774f,
    -0.074315f, 0.031066f, -0.093661f, -0.060078f, -0.079519f, -0.098343f, -0.029754f, 0.005789f, 0.005181f, -0.058393f,
    -0.044657f, -0.063964f, -0.054678f, 0.042535f, -0.091786f, -0.069883f, 0.073203f, 0.015065f, 0.020464f, 0.052444f,
    -0.050321f, 0.023482f, -0.040426f, 0.095378f, -0.097657f, -0.071849f, -0.048674f, 0.072427f, 0.052869f, 0.060092f,
    0.091843f, 0.031195f, -0.069995f, 0.078340f, -0.038183f, 0.001082f, -0.050428f, -0.050644f, 0.083028f, 0.039375f,
    -0.018081f, -0.092658f, 0.018633f, -0.089866f, -0.051407f, 0.020699f, 0.078059f, -0.092102f, 0.033567f, -0.065105f,
    -0.079102f, 0.012369f, -0.043707f, 0.048062f, 0.015764f, 0.035868f, -0.051365f, -0.017104f, 0.007606f, -0.066603f,
    0.083007f, -0.033454f, 0.031918f, 0.025204f, -0.066408f, 0.097127f, 0.022230f, 0.038168f, -0.054877f, 0.019054f,
    -0.042800f, 0.037459f, -0.025838f, 0.072691f, -0.066700f, 0.062875f, 0.033189f, -0.083668f, 0.086959f, -0.030012f,
    0.089743f, 0.015972f, 0.055043f, 0.001547f, 0.024011f, -0.000885f, -0.034937f, 0.025670f, -0.089592f, -0.059773f,
    -0.003232f, 0.023832f, -0.071074f, -0.087691f, -0.078630f, 0.057108f, 0.068402f, -0.005531f, 0.100214f, -0.065303f,
    0.005463f, -0.010033f, 0.010818f, 0.093863f, -0.015420f, -0.011578f, -0.012225f, 0.071853f, -0.001928f, -0.024302f,
    -0.002786f, -0.068042f, 0.035066f, 0.059029f, 0.021245f, -0.075993f, 0.101061f, -0.040921f, 0.049299f, 0.031726f,
    0.023182f, -0.044445f, 0.037881f, 0.081020f, 0.098868f, 0.084455f, -0.015392f, 0.040285f, 0.026625f, -0.030320f,
    0.092394f, 0.012251f, 0.084198f, -0.090862f, 0.059578f, 0.027686f, 0.032159f, -0.015615f, -0.076069f, -0.097874f,
    0.079911f, 0.003799f, -0.017577f, -0.078171f, 0.001460f, 0.019236f, -0.046561f, 0.048346f, 0.086262f, -0.013720f,
    -0.089703f, 0.017794f, -0.073429f, -0.031087f, 0.033589f, -0.030201f, -0.043964f, 0.012282f, 0.046192f, -0.005560f,
    0.058427f, -0.052322f, 0.047065f, 0.087676f, 0.050994f, 0.057047f, -0.048948f, -0.029000f, 0.098788f, 0.090371f,
    0.043215f, -0.035091f, 0.024568f, -0.007691f, -0.009776f, 0.037329f, 0.079603f, 0.002556f, 0.087227f, 0.010531f,
    -0.009853f, 0.019193f, -0.060164f, -0.017424f, -0.064081f, 0.011893f, 0.045943f, -0.038110f, 0.038802f, -0.039791f,
    0.077256f, 0.067232f, -0.021484f, 0.096387f, 0.048182f, -0.014652f, 0.080044f, -0.019599f, 0.009915f, 0.090040f,
    0.077558f, 0.084763f, 0.021885f, 0.099947f, 0.075901f, 0.100316f, -0.040007f, 0.004750f, 0.006366f, 0.032963f,
    0.057391f, -0.063030f, -0.033615f, 0.096913f, -0.058557f, 0.092825f, -0.069898f, 0.032057f, 0.043602f, -0.063406f,
    0.021012f, 0.034722f, 0.001059f, -0.078750f, -0.091656f, 0.078048f, 0.055078f, 0.027430f, -0.079231f, -0.099131f,
    0.029247f, 0.054520f, 0.049923f, 0.028875f, 0.062134f, -0.018671f, -0.081250f, 0.035914f, -0.005049f, 0.027407f,
    0.040368f, 0.085129f, -0.028175f, 0.053678f, 0.006465f, -0.071698f, 0.096356f, -0.009417f, -0.019483f, 0.087761f,
    0.034711f, 0.041499f, 0.027376f, 0.053791f, 0.003969f, -0.005637f, -0.095199f, -0.076275f, -0.083089f, 0.030422f,
    -0.082919f, 0.077544f, 0.081063f, -0.078265f, 0.056792f, -0.054807f, 0.009002f, -0.020511f, 0.040609f, -0.029720f,
    -0.078835f, -0.016583f, -0.014995f, 0.018618f, 0.079913f, -0.003944f, -0.066573f, 0.010373f, -0.066763f, 0.057999f,
